-0.999984/-0.736924/0.511211/-0.0826997/0.0654609/-0.562469/-0.906464/0.35725/0.358329/0.869274/-0.232996/0.0388327/0.661944/-0.930853/-0.893075/0.0594046/0.34229/-0.984681/-0.233178/-0.866316/-0.165028/0.373545/0.177953/0.860873/0.692334/0.0538576/-0.81607/0.307838/-0.168001/0.402393/0.820851/0.524908/-0.475017/-0.905846/0.471055/-0.343815/0.270582/0.520337/0.990141/-0.264845/-0.500141/0.967682/0.446599/0.509281/0.30409/-0.85821/0.254806/0.768212/-0.457886/-0.133608/0.531234/-0.042213/-0.52149/-0.449459/-0.28154/-0.666986/-0.0269652/0.795544/0.820505/-0.871079/0.813558/0.00990798/0.0287989/-0.359723/0.993064/0.0278121/-0.41601/-0.784554/0.91333/-0.837758/0.0172709/-0.214982/-0.440017/0.8061/0.0217312/-0.0931041/0.876285/-0.912944/0.527592/0.568974/0.683545/-0.736683/-0.968397/0.376911/0.736494/0.259466/0.475243/0.451714/1.00257/0.782696/-0.521538/-0.358639/-0.250188/0.0933822/0.258746/0.744789/-0.148322/0.713965/-0.421585/-0.104468/0.142438/-0.0249715/-0.39225/-0.597631/-0.612107/0.222462/0.658896/-0.887162/0.115573/0.0361183/0.912271/0.496585/0.109168/0.782179/0.247962/0.647889/-0.700808/-0.564409/0.444639/-0.710268/-0.757617/-0.347761/-0.89759/-0.0965669/-0.911129/0.453464/0.94358/-0.390891/-0.473637/-0.201921/0.957897/0.492232/-0.495955/0.576186/-0.065612/-0.1037/0.0807358/-0.644587/0.177519/0.691151/0.180217/0.910384/0.0933112/-0.759916/0.917666/-0.201827/-0.737437/0.134845/-0.435409/0.0993337/0.0816902/1.05947/-0.673375/-0.538001/-0.296954/0.354124/-0.634133/0.441631/0.427444/0.827406/-0.264752/0.193724/-0.0234269/-0.446442/-0.86466/0.844329/-0.14469/-0.715958/0.894974/-0.180855/-0.761259/0.731324/-0.869094/-0.742502/-0.915612/-0.260658/-0.413327/-0.574179/0.735975/0.055009/-0.199527/-0.0331694/0.628615/0.86954/0.317565/-0.520725/0.442171/0.957174/-0.378921/0.853311/0.0739267/0.142748/0.250936/0.642451/0.513053/-0.07551/0.902735/0.267085/-0.11662/0.666838/0.369965/0.350904/0.912165/0.927071/0.789112/-0.289808/0.227311/0.205488/-0.642915/-0.0721723/0.193291/0.737563/-0.158197/0.445612/0.73468/0.485982/0.687537/0.497942/0.559432/-0.844284/0.800456/0.0487884/-0.0712025/-0.869612/0.426845/-0.0192401/0.369074/0.412286/-0.58599/0.798155/0.689464/0.784605/0.153887/-0.61411/0.087582/1.19155/-0.371386/0.0587302/-0.271575/0.0571827/0.767201/-0.110462/-0.0600676/0.684958/-0.158757/-0.459406/1.06428/-0.585545/0.301863/0.221434/-0.999356/-0.998242/0.546704/0.456169/-0.345145/-0.158102/0.33649/0.317741/-0.58591/0.677314/0.42169/0.746827/-0.5976/-0.63795/0.67824/0.398667/-0.426971/-0.474827/-0.791053/-0.224745/0.90871/1.01767/-0.0558624/-0.321282/0.463796/-0.34663/0.606984/0.55661/-0.156145/-0.435688/-0.612065/-0.980282/-0.642545/0.932158/-0.56774/0.602823/-0.686247/-0.143768/0.313573/-0.390042/0.96667/-0.45567/1.07493/-0.363758/-0.382146/-0.692189/-0.515078/0.303884/0.505048/0.784629/0.592706/0.607451/0.391494/0.324612/-0.908303/0.144435/-0.549002/-0.362444/0.399669/-0.767356/0.508193/0.0112522/0.0709709/0.15409/-0.330265/0.507209/-0.490751/-0.3658/0.308403/0.9013/0.672928/0.164065/0.602621/-0.230943/-0.584489/0.230823/-0.158556/0.397338/0.210231/-0.0676663/-0.440802/-0.214194/-0.293151/-0.193687/-0.0527926/-0.224338/-0.441414/-0.846078/-0.243346/-0.49485/0.329597/0.316009/0.0443227/0.539408/0.610621/1.14582/0.157937/0.997399/-0.345397/-0.0841926/0.157968/0.497753/-0.000676726/0.41734/1.16601/-0.537875/0.447112/-0.28099/0.101877/0.0356114/0.492809/-1.11022/-0.461166/0.285958/0.0922732/0.835282/-0.440925/0.949079/-0.518535/0.657454/0.400314/-0.0522369/0.744742/-0.774263/-0.554411/0.460847/0.446048/-0.0206667/0.353492/0.709531/1.14893/0.503482/-0.34248/0.586408/-0.605132/-0.956236/0.055772/-0.836119/-0.840453/0.672104/0.553273/0.493358/-0.127149/-0.981176/0.200224/0.0647273/-0.80154/0.149057/-0.148565/-0.487589/-0.115174/0.375915/0.405505/0.444178/0.128445/-0.319569/0.755235/-0.172271/0.355005/-0.46695/-1.08287/-0.858391/0.0143326/0.590699/-0.45783/-0.839936/-0.967544/-0.760851/0.442554/-0.405956/-0.898795/-0.0378634/-0.0513578/0.0749369/0.0221694/-0.542692/-0.297194/0.759089/0.476182/0.239956/0.395095/-0.373755/-0.941069/0.938229/0.0133021/-1.12404/0.462595/-1.22588/-0.482007/-0.152494/0.130239/0.557148/0.49531/0.14737/-1.0068/-0.792181/0.945835/-0.623448/-0.297363/0.231977/0.256114/-0.648776/0.305684/1.07662/-0.148373/0.734/0.970603/-0.512379/-0.622154/-0.32758/0.449222/0.583209/-0.749352/0.220915/0.00029586/-0.42216/-0.671694/0.286006/-0.719002/-0.47711/-0.663273/0.117218/-1.07485/-0.706853/0.198061/-0.136178/-0.834987/0.373357/-0.214872/0.84794/-0.480011/1.15212/-0.787541/-0.736175/-0.0517421/0.379819/0.620223/-0.79487/-0.541569/0.30309/-0.234273/0.205037/0.0272809/0.0937427/0.38709/-0.917369/-0.50326/-0.511826/0.147556/0.25829/0.107899/-0.348179/-0.557206/-0.532617/0.306023/-0.668395/0.550053/-0.419122/-0.544068/0.599039/-0.55789/1.02259/-0.0757988/0.0466715/0.568294/-1.24351/-0.0737541/0.257551/-0.16189/-1.07714/-0.307623/-0.139491/0.450431/-0.899349/-0.188611/0.858208/-0.146405/-0.443134/-0.266476/0.391136/-0.592015/-0.657241/-0.25496/0.883465/1.00302/-0.218908/-0.479675/-0.457041/0.215647/-0.631049/-0.046871/-0.957233/0.464109/-0.463777/-0.309503/-0.450062/0.359709/0.0938734/0.623787/0.352362/0.533603/0.284835/-0.353824/0.713353/0.0974572/-0.375277/-0.0533447/-0.146422/-0.196314/-0.519119/-0.833829/-0.158156/-0.0110043/-0.224191/-0.550096/-0.434255/0.608492/-0.0261125/0.176303/0.531561/-0.683132/0.308705/-0.523111/-0.238961/-0.847099/-0.099998/-0.565474/0.507282/-0.0908907/-1.05477/-0.56238/0.22721/-0.225875/-0.699905/0.81515/-0.776588/0.591257/0.892089/-0.65769/0.210439/-0.888869/-0.261781/-0.358342/0.0357983/0.623777/0.624306/0.395982/-0.407061/0.586007/0.300891/-0.838774/-0.853538/-0.65721/0.552432/-0.880104/0.0104528/0.808644/-0.586608/-0.616621/-0.821429/0.389323/0.380774/-0.0656038/-0.503986/0.422192/-0.243268/-0.598711/-0.534495/-0.14832/-0.130971/0.663017/0.979254/-0.0188462/-0.787983/0.197743/-0.793206/0.677471/0.341948/0.784601/-0.231425/-0.508319/0.0639529/-0.128894/-0.180632/0.981482/0.962317/0.748169/0.802076/-0.331188/-0.698904/0.973876/0.263567/-0.0641373/0.863829/0.381545/0.631428/0.0733774/0.101945/-0.712155/0.937394/0.788971/-0.454279/-0.641487/-0.0610524/-0.547746/-0.612442/0.171499/-0.882882/0.101656/0.64481/-0.0266299/0.316132/0.492335/0.455639/-0.883798/-0.526755/0.400986/-0.291472/-0.871202/-0.723895/0.842384/-0.556687/-0.239771/0.170613/-0.679194/-0.990017/0.358894/0.565018/0.536688/-0.661776/0.373788/1.01344/0.999423/-0.0166429/0.112088/0.712371/0.803599/0.124506/0.366632/-0.00804544/-0.00989167/-0.615546/1.02459/0.217913/-0.416345/0.0762288/0.40032/0.330285/-0.805339/0.0974726/0.221475/0.334106/-0.0302423/0.10583/0.166479/-0.104972/-0.653081/0.0670104/0.526915/-0.877871/-0.849299/0.0779448/-0.321557/-0.908542/-0.520093/-0.820307/-0.265587/0.0867109/0.193496/0.236842/0.89531/0.562491/0.0233926/-0.0300744/0.295654/0.391511/-0.184901/-0.026301/-0.0404343/0.420825/0.0668038/-0.450051/0.209584/-0.440273/0.407501/0.0636407/0.880868/-0.522686/-0.169669/0.196151/0.568062/0.842786/0.365157/0.643049/0.0559779/-0.539902/-0.712639/0.799611/-0.496286/0.302523/-0.990635/0.871917/-0.449632/0.717555/-0.442141/0.904862/0.0136399/-0.7541/-0.167049/0.404943/-0.127018/-0.784522/0.53235/-0.800258/-0.117466/-0.310847/-0.405872/0.515242/-0.322981/-0.338483/-0.888788/0.146366/-0.0294279/-0.595036/-0.771051/0.948696/0.729219/-0.0163185/-0.26521/0.609825/-0.675592/-0.68084/-0.884554/-0.701497/0.0866797/
-0.238783/0.767409/-0.151733/-0.175504/0.3026/-0.383277/-0.879728/0.628853/0.795365/0.838984/0.802436/0.540093/-0.658407/0.144884/-0.937152/0.606618/0.0445143/0.723331/-0.445603/0.738988/0.173724/-0.221656/0.623791/0.0513405/0.879743/-0.159924/0.159725/0.49829/0.761568/-0.323831/-0.620892/0.486397/0.438014/0.75935/-0.852734/0.41774/0.754553/-0.283485/-0.823175/-0.682467/-0.170806/-0.811832/0.345914/0.122444/0.624541/0.758104/0.536199/0.264083/0.787757/0.74944/-0.0265631/-0.769794/-0.243025/-0.2347/0.375181/-0.756521/-0.846356/-0.713441/-0.0443106/0.418496/-0.520395/-0.213212/0.955049/0.23671/0.335344/0.795653/-0.291528/0.679324/0.532382/-0.198905/-0.902353/-0.0589777/-0.0776379/-0.130982/-0.0276508/0.463916/0.865048/-0.369811/-0.653919/-0.726194/-0.799386/0.957691/-0.182041/-0.523179/0.92632/0.666826/-0.597505/-0.729134/-0.595363/-0.307531/0.162237/-0.127486/0.158892/-0.151165/-0.285562/-0.285062/0.113859/-0.263257/-0.836665/0.223885/0.931296/0.386507/-0.146306/0.785921/0.740742/0.705505/-0.133233/-0.873412/0.0265641/0.30285/0.295463/0.289796/0.59807/-0.245391/-0.278269/-0.196931/-0.286873/0.425839/-0.654537/-0.363052/0.367785/0.726976/-0.379198/-0.733534/0.156078/-1.07486/0.761162/-0.286391/0.0372237/-0.234024/-0.318333/-0.236169/0.796673/-0.667057/0.354677/-0.798774/-0.0217355/-0.224098/-0.684756/0.511711/0.331946/-0.976839/0.607333/0.176919/-0.347296/-0.103278/-0.274689/0.0968514/0.498188/0.738577/-0.526573/-0.0730116/-0.264503/-0.913998/-0.857141/-0.595554/0.185136/0.744449/-0.104323/0.690536/-0.401776/-0.621574/-0.264077/0.91039/0.190058/-0.273679/-0.0756635/0.255661/0.888904/-0.188081/-0.867779/-0.0422233/0.259354/0.560841/0.792794/-0.677344/-0.700166/0.444584/0.730942/0.205888/0.34857/0.979844/-0.977526/0.833853/-0.606529/0.932168/-0.00107465/-0.52685/0.385917/0.162338/0.682802/0.719776/0.316368/0.453554/0.284312/-0.300942/0.0697524/0.330592/-0.311801/0.812274/-0.0685695/0.86357/-0.384757/1.02382/-0.617854/-0.0353621/0.764325/0.997296/-0.276657/0.107273/0.0840529/0.650681/0.87294/0.346194/-0.526777/0.83191/0.117342/-0.772177/-0.489209/0.853979/-0.531614/-0.642541/0.66944/0.20481/0.246485/0.679926/0.382436/-0.16097/0.794182/0.415879/-0.61016/-0.797305/0.569397/0.447601/0.0347367/0.231703/-0.818847/-0.16388/0.822844/-0.124257/0.488253/0.323861/-0.773897/0.516452/-0.469003/-0.0987952/-0.5501/-0.651653/0.935872/1.05249/0.185433/-0.933993/0.381863/-0.0235609/0.176095/0.829496/-0.0673929/0.518951/-0.390832/0.191468/-0.214345/1.17051/-0.24119/1.13137/0.190972/-0.51001/1.1184/0.915553/-0.31394/-0.74061/0.741775/-0.826907/0.932252/0.345974/0.302619/-0.539578/-0.586549/0.728976/0.00583742/0.311775/0.010118/0.054729/-0.762898/0.784473/0.382492/-0.310178/-0.043636/-0.023914/0.892407/-0.160897/-0.331372/0.795488/0.553639/-0.373587/0.856054/-0.830312/-0.616079/-0.439796/-0.17318/0.592007/0.487216/0.43443/0.316993/-0.130616/-0.558291/-0.342085/-0.654578/-0.552606/0.342703/-0.192505/0.719198/0.0661936/-0.334194/-0.0900508/0.471483/0.752881/0.756385/1.04319/-0.0938296/-0.2595/-0.563089/0.092285/-0.882782/0.976306/0.568202/-0.635482/-0.585374/-0.16223/0.503815/-0.565107/-0.0659649/-0.843425/0.93365/-0.725339/-0.464722/-0.0359026/0.58556/-0.491391/-0.658479/-0.592293/-0.290607/-0.570884/0.933338/0.634698/0.414428/0.409421/-0.138169/0.776897/-0.747/-0.947261/0.482712/0.400807/-0.878776/0.580092/-0.74804/0.735365/0.19411/-0.379018/-0.208014/-0.516565/-0.315333/-0.940477/0.826444/0.57094/-0.213098/0.452115/0.540017/0.560902/-0.831462/-0.32816/0.940818/-0.177382/-0.163514/-0.732618/0.100857/0.375717/0.512684/-0.11664/0.596727/0.285412/-0.16317/-0.355905/-0.404089/-0.576033/0.629696/0.105938/0.451859/-0.645489/0.573251/-0.482737/0.221035/0.709206/-0.370785/0.203782/-0.899962/-0.485271/-0.894316/-0.552382/-0.767307/-0.639282/0.45262/-0.93251/-0.206605/0.825403/-0.597413/-0.652097/0.328408/-0.909028/0.589977/-0.837781/-0.900527/0.433894/0.661496/-1.10717/-1.00394/0.658192/-0.714065/0.5868/-0.546564/-0.201571/0.198388/0.29757/-1.05306/0.704309/0.448415/-0.270109/-1.00997/-0.927732/0.797143/0.618519/0.265259/0.652801/-0.536037/0.334126/0.00900848/-0.759212/-0.713845/-1.09997/-0.183769/-0.286462/0.680811/-1.1654/-0.164825/-0.352142/0.660545/0.538472/0.214173/-0.336393/0.24801/0.298351/0.149725/-0.715162/-1.10683/0.872371/-0.740574/0.0863723/-0.024937/-0.317637/-0.779667/-0.0881168/-0.754507/0.0518113/-0.110826/-0.277437/0.600436/-0.916048/-0.291824/-0.825901/-0.529222/0.503847/0.614931/0.494409/0.873659/0.593756/0.592794/0.679591/-0.102559/0.278618/0.294289/0.445525/-0.214872/-0.727062/-0.384367/0.677939/-0.171274/-0.287386/0.0254846/-0.59127/0.719939/0.834558/-0.923797/-0.31882/0.18121/-0.560127/-0.231426/0.414424/-1.07863/-0.556604/-0.737121/0.577339/-0.424606/0.442372/-0.184379/0.570146/0.444586/0.158189/0.227509/0.4841/-1.13815/0.0934772/-0.486723/-0.211081/-0.113872/0.0124809/-0.376585/0.701895/-0.752659/-0.273047/-0.311982/0.525126/-1.07265/-0.218596/0.445089/-0.506479/0.759413/0.891444/0.987219/0.53094/-0.235757/0.629081/-0.601416/0.201469/0.085649/-0.49006/-0.56787/0.136032/-0.0361945/0.388603/0.0883319/0.864801/0.515738/0.0792853/-0.680148/-0.783941/0.0437824/-0.523839/0.135534/-0.377131/0.248706/-1.00859/0.582925/0.645473/-0.430195/-0.702251/0.544185/0.368621/-0.172005/0.185476/0.112047/-0.0117672/0.229003/0.848198/0.26957/-0.442732/-0.862633/0.295313/-0.301677/-0.951416/-0.632675/0.236211/-0.123266/0.136173/0.46046/-0.263017/-0.253852/-0.231068/-0.862605/0.0568473/-0.265079/-0.860629/-0.360665/0.397375/0.157197/0.74041/0.0430694/0.93443/-0.880248/-0.0493116/-0.779736/0.983075/0.135676/0.446408/-0.665981/0.0531628/-0.751216/0.0326375/0.930845/-0.0838421/0.728412/0.944965/0.0230645/-0.810244/0.664002/-0.665746/0.273154/0.252045/0.946339/-0.0713974/-0.605246/-0.607932/-0.368384/0.939863/0.177421/0.692827/-0.874664/0.851246/0.898788/-0.0715592/-0.426885/-0.0593585/-0.109668/0.781898/-0.480399/-0.0817441/0.642521/0.714747/0.36627/0.397027/0.279761/-0.456003/-0.738217/0.279375/0.785183/-0.629856/-0.87282/-0.534718/-0.499648/-0.426438/0.449642/0.380597/0.0407356/-0.349763/-0.0661095/-0.358351/-0.812713/0.740516/-0.107458/-0.695587/0.296454/0.872547/0.789386/0.40925/-0.479792/-0.549583/-0.89873/-0.640436/-0.814326/-0.346854/0.0474497/0.843301/-0.553523/-0.883631/-0.826788/0.886749/0.917006/0.980639/0.203926/-0.596831/1.96467e-05/0.637826/0.873573/0.166127/0.097813/-0.055746/0.521232/-0.294381/-0.613624/0.0384955/-0.224428/0.673815/0.968887/-0.925752/-0.335598/-0.0561619/0.743713/0.620769/-0.552483/0.426407/0.665376/-0.121935/0.46169/-0.132228/0.142116/0.152481/-0.731906/-0.140261/0.592188/-0.462797/-0.383908/-0.630064/0.513253/0.242909/0.307386/-0.297271/-0.642878/-0.621318/-0.107609/0.036938/-0.694264/0.836842/-0.199578/-0.960589/-0.714182/0.0763957/0.944186/-0.725621/-0.327381/-0.366399/-0.268507/-0.644119/-0.308827/-0.199977/0.308967/0.223101/-0.9175/-0.330319/-0.843454/0.0880575/-0.017756/-0.424126/-0.494053/-0.117872/0.320679/-0.349128/-1.00042/0.942868/-0.805079/-0.362802/0.906785/-0.306286/-0.675162/0.967866/-0.769208/-0.917964/0.92114/0.572745/-0.557665/-0.794856/-0.486599/-0.122638/-0.51403/-0.434431/0.0983114/0.764144/0.703299/0.340936/0.115221/0.515666/0.803993/0.70676/0.519395/-0.5321/0.996581/-0.477383/-0.24991/-0.400994/0.491044/0.983669/0.532627/-0.142781/0.28333/-0.0723981/-0.795064/-0.636239/0.726721/0.00671518/0.86195/0.796072/-0.417668/0.258282/0.9508/0.0880979/0.661338/-0.89038/-0.229193/
0.950588/0.530418/0.739755/-0.935322/0.0366186/-0.250474/0.93878/-0.613122/-0.541226/0.193917/0.793009/0.098957/-0.830517/0.553935/0.543443/0.419334/-0.893601/0.769229/-0.856804/0.989322/-0.460165/-0.000453702/0.374635/0.49687/0.889295/0.379415/0.823546/-0.657546/0.630664/-0.434338/-0.0366158/0.821345/0.405529/-0.204513/-0.665016/0.805116/-0.578063/0.0958617/-0.255306/-0.475292/0.608613/-0.531677/0.318164/-0.328178/0.04095/-0.0980493/0.206671/0.329239/-0.960376/0.63602/-0.248868/0.0828642/0.939658/0.492809/0.586547/0.517398/-0.0935436/-0.186415/-0.511837/0.412517/-0.565325/0.324652/-0.182744/-0.428928/-0.284848/-0.383298/0.374035/0.889895/0.517696/0.764079/-0.988215/0.905358/-0.947117/-0.248108/-0.74959/0.525546/-1.02288/0.170151/0.815179/-0.788676/0.0893563/-0.855285/0.112535/-0.233238/-0.0371404/-0.217378/-0.174775/0.152159/0.928555/0.452997/0.246717/-0.910183/-0.361879/-0.196961/0.47586/0.0899599/0.0450314/-0.563017/-0.887353/-0.810751/-0.424182/0.4779/-0.579304/-0.689782/-0.21895/0.268042/0.0418016/-0.855644/-0.0455488/-0.233993/-0.802536/-0.0134905/-0.734371/-0.566651/-0.106879/-0.232725/1.07795/0.89109/-0.184726/-0.0167436/0.680459/0.99365/-0.432083/0.0887404/0.00732511/-0.863749/-0.161675/-0.207812/0.25362/-1.00656/-0.69778/-0.708543/-0.204422/-0.213061/-0.430646/-0.618052/0.769188/-0.474017/0.785136/0.582313/0.928393/-0.498756/-0.423136/0.155734/0.542245/0.169317/0.123244/-0.152422/0.807221/-0.134975/-0.980704/0.796544/0.853839/0.0323189/0.842448/-0.390455/-0.0500806/0.4012/-0.361394/-0.997636/0.101744/-0.699416/0.204842/1.00146/0.432985/-0.55712/0.128959/0.661366/-0.414255/-0.389182/0.95117/0.998065/0.256693/-0.204757/0.197562/-0.662791/0.736675/0.409938/0.161039/-0.622822/-0.616301/-0.693649/-0.520126/-0.742449/0.363038/0.493134/0.34801/-0.993364/-0.761108/-0.505914/0.550221/0.092463/-0.159933/0.751752/-0.337667/0.193405/0.56042/0.971454/0.893566/0.64812/0.637385/0.472638/0.800774/0.440565/0.657616/-0.185863/0.119085/-0.18936/0.583479/-0.0232283/0.352193/0.52605/-0.0356172/-0.594729/-0.050988/-0.278644/0.670068/-0.173524/-0.455033/-0.0124835/-0.936355/0.349755/-0.814393/0.124612/0.358085/0.333746/0.477803/0.319794/1.06759/-0.310236/0.690277/-0.845434/-0.793246/-0.953091/0.763838/-0.597655/0.593585/-0.426524/-0.406119/0.460607/-0.423224/-0.13265/0.707038/0.70925/0.681691/-0.528111/0.495121/0.413465/0.0121297/-0.0369622/-0.584918/0.0127801/0.795542/0.669561/0.913129/0.967705/0.911034/-0.594862/-0.32528/-0.0693139/0.520743/0.423331/0.460233/-0.120465/-0.116486/0.358756/0.328058/0.475254/0.694926/-0.405888/0.609813/-0.603622/-0.746307/0.580949/0.973353/-0.769215/-0.0260623/0.670852/0.257793/0.889621/-0.139294/0.889738/0.573411/-0.251274/-0.502761/0.679811/-0.806131/-0.441346/-0.871042/0.588042/-1.00432/0.911616/0.762581/0.796776/-0.00325118/0.488621/1.1373/0.0861222/-0.322722/0.00751507/-0.700564/-0.255257/-0.761592/-0.482951/-0.0946936/0.663863/0.797088/0.931673/0.634131/-0.16811/0.599058/0.407881/-0.143406/-0.211091/0.228448/0.240463/0.303999/0.895963/0.426736/-0.913292/0.463341/-0.633008/0.708626/0.275682/-0.198207/-0.237934/0.146531/0.506269/-0.41435/-0.683097/0.469524/0.327749/0.511075/-0.833988/0.755297/-0.594072/-0.566522/0.463135/0.528199/0.862082/0.40031/0.476358/-0.548915/-0.485033/-0.904373/0.713531/0.628148/-0.390138/0.0357994/-0.381464/0.247929/0.560894/-0.84405/0.386179/0.377696/-0.0663229/-0.833764/0.406229/-0.932216/-0.0549662/0.188746/-0.755757/0.282898/-0.128455/-0.944399/-0.519976/-0.382652/0.228196/-0.274293/0.139237/0.653533/-0.677706/0.664767/-0.763812/-0.416766/0.115884/0.786986/-0.28732/-0.395409/0.526515/0.504902/-0.417901/0.582165/0.288074/0.615982/0.631734/-0.168955/-0.576639/0.12699/0.0484287/-0.297676/0.450583/0.94398/-0.537058/-0.74931/-0.556461/0.621182/0.700972/-0.0878105/0.838177/0.312022/-0.736149/0.749001/0.227859/1.14265/-0.243969/0.34308/-0.768719/0.717273/-0.434636/0.285164/-0.77663/-0.528599/0.808701/-0.857685/0.267302/0.87513/0.621199/0.136495/-0.577315/-0.939242/0.156867/0.208153/-0.769686/-0.85481/-0.35959/0.1747/-0.226197/-0.446583/-0.676719/0.775326/-0.636079/-0.299985/0.54882/-0.340078/-0.47293/-0.366461/0.819571/0.135735/0.346875/-0.306759/-0.583546/0.238444/0.294091/0.418947/0.347399/0.614382/-0.0823185/0.472263/-0.687462/-0.446059/-1.09284/-0.161339/0.608819/0.870855/0.177088/0.267018/0.35741/1.19967/0.643479/-0.71173/-0.081312/-0.295499/-0.253304/-0.0877003/0.0251164/-0.794611/0.430048/0.0687113/-0.205419/0.342752/-0.766877/0.904638/0.502383/0.0167499/-0.181714/-0.0735809/-0.687146/0.28945/-1.03386/0.327561/-0.66609/-0.540326/0.855598/0.514223/0.756357/-0.235151/-0.210658/0.251237/0.454609/-0.415454/-0.400243/-0.370662/-1.0499/-0.348571/0.237809/0.0339896/-0.533722/0.534809/0.447364/0.0798519/-0.277011/0.00484159/-0.752554/-0.168821/0.610281/-1.06211/-0.0645457/-0.88171/0.335561/0.0940996/-0.0315334/0.0238682/0.538202/0.199154/0.521392/0.876869/0.22787/0.627731/-0.556823/-0.0318736/-0.843402/-0.182652/-0.4814/0.364542/0.399821/0.662558/-0.0237292/0.603132/-0.636479/-0.0967565/-0.531978/-0.953052/0.0370309/0.591339/-0.545788/-0.294666/0.131766/-0.874353/-0.000527462/-0.283346/0.808342/0.0634959/-0.757321/0.709821/-0.812297/0.666114/0.488848/0.401333/-1.13357/0.851372/-0.522986/0.434207/-0.835161/0.595151/0.519851/-1.00194/0.588494/0.213765/-0.965544/0.0943805/0.239161/-1.08372/-0.636737/-0.10815/-0.569198/0.0657417/0.493704/0.533465/0.682623/0.618421/-0.578384/0.561412/-0.388394/-1.05988/-0.858215/0.013738/0.636645/-0.66609/0.159273/-0.563672/0.721398/-0.831565/-0.239221/0.207504/0.610761/-0.219062/0.295746/0.595652/-0.881836/0.869544/-0.0374087/0.673145/-0.574807/0.529773/-0.573355/0.0456126/-0.517907/0.908494/0.543177/-0.871153/-0.865954/0.56373/-0.681983/-1.014/-0.634865/0.278205/-0.669538/0.293274/-0.285108/-0.368679/-0.270575/-0.899226/0.968407/-0.544695/0.324355/-0.557574/0.857788/-0.906191/0.476647/-0.566505/0.15022/-0.330995/-0.657401/0.558795/-0.40743/0.157017/-0.889766/-0.420258/-0.0704392/0.812461/0.835484/0.0456331/0.627427/-0.433207/0.692244/-0.969441/-0.535686/-0.239117/-0.415135/0.119287/0.657823/-0.559805/0.0874269/-0.61621/-0.631412/0.291167/0.796265/-0.000185545/-0.444587/-0.725148/-0.261718/-0.612721/0.38382/-0.825102/-0.91667/-0.304702/-0.568236/-0.45634/0.0506779/-0.368464/-0.435802/0.628383/-0.459825/0.848214/-0.293178/0.596572/0.436556/0.673192/0.893965/0.03293/0.590029/0.618172/-0.385214/0.142758/-0.330817/-0.753277/-0.850108/0.392169/-0.597214/-0.141505/0.0265626/-0.365998/0.052435/0.926142/0.171218/-1.02482/0.903048/-0.0436437/0.203022/0.193435/-0.64095/-0.417053/-0.609258/-0.0478979/0.914146/-0.670577/-0.192198/0.745235/-0.608168/0.512203/0.601778/0.722096/0.641426/-0.325892/0.130461/0.181979/-0.838756/0.584081/-0.801208/-0.183067/0.463859/-0.381181/0.287494/-0.0157165/-0.0131019/0.757646/-0.676339/-0.108401/-0.458525/-0.173142/-0.0725375/0.926674/0.921585/-0.0348388/-0.650439/0.370033/0.0315829/0.813125/0.193173/-0.199956/0.487319/0.963856/-0.309298/-0.245729/0.919711/0.651281/-0.805001/-0.737288/-0.79357/0.570588/0.587249/0.559068/-0.240411/-0.299689/-0.721338/-0.512847/-0.805468/-0.951643/-0.757683/0.406752/0.423843/-0.824819/0.158227/0.862124/0.175295/0.17927/0.990668/0.152861/-0.870736/-0.454944/-0.248259/-0.486496/-0.523193/0.620864/0.965761/-0.450689/-0.731773/-0.910675/0.283344/0.157572/0.311303/0.0705481/-0.297802/0.839219/0.758681/-0.844925/-0.656827/0.703871/-0.0331461/0.913143/-0.807985/0.19535/-0.75386/-0.0464622/
-0.759101/-0.206743/-0.731819/0.322356/-0.156839/0.347075/-0.484037/-0.0529092/0.140002/0.560986/-0.625842/-0.534104/-0.69127/0.267267/0.201224/-0.0288455/-0.805673/-0.937962/-0.313377/0.569931/0.834047/-0.173686/0.862589/-0.468169/-0.509085/-0.185839/0.600064/-0.71612/0.17351/0.185553/0.624063/0.36199/0.0336054/0.649838/0.319624/0.104205/-0.234378/0.514973/-0.609002/-0.746411/0.119718/0.145915/0.404296/0.216148/-0.465119/0.55362/-0.750307/-0.221741/-0.88569/-0.743106/-0.897924/-0.665175/0.588177/-0.308333/-0.439793/0.68373/-0.553623/-0.739948/0.0185672/-0.468079/-0.396286/-0.422808/-0.76271/0.0366962/-0.667958/1.01485/0.679784/0.828662/0.385524/-0.378341/-0.570807/0.292206/-0.698207/-0.58197/0.471441/-0.668806/-0.740205/-0.862599/-0.701544/-0.594063/-0.520522/0.703275/0.716887/-0.418413/-0.26275/-0.0428284/-0.595006/0.335533/0.376402/-0.893541/0.579541/-0.481312/-0.887073/0.8677/-0.483889/0.406695/-0.695499/-1.00068/0.558333/0.0653675/-1.03521/0.0501358/0.821511/0.842048/0.753028/-0.28229/-0.325029/0.132564/-0.623882/0.946871/-0.672634/0.439875/0.971579/-0.679388/0.280646/0.304831/0.864324/-0.828353/0.627771/-0.543325/-0.0339015/0.0339172/-0.769836/-0.119785/-0.478944/-0.456208/-0.535039/-0.0416321/0.206342/0.643685/0.335669/-1.18501/0.56253/-0.0834289/-0.136765/-0.134521/0.365595/0.11033/0.248088/-0.239189/-0.0536159/0.877693/0.530478/0.510246/-0.479239/0.581301/-0.734073/0.422614/0.188898/0.759004/-0.538943/-1.05234/-0.872065/-0.223036/0.233538/-1.17182/0.365712/0.0368984/-1.13168/-0.0356009/0.161037/-0.116035/0.982057/0.583273/0.219517/0.56686/-0.949459/-0.38651/-0.0672979/0.923919/-0.172043/-0.697426/-0.559621/-0.231075/0.750657/0.29894/-0.528388/0.17407/0.548268/-1.01144/-0.142675/0.481853/-0.259135/-0.152629/-0.415895/-0.5396/0.597019/-0.639543/-0.174795/0.12551/-0.714302/-0.46249/0.939051/0.9853/0.000764651/0.802165/-0.0194559/-0.994697/-0.435402/1.00484/0.842641/-0.898683/-0.8478/-0.814736/0.879462/-0.653429/0.0676599/0.842539/-0.403777/-0.38954/-0.228288/-0.848875/0.777012/-0.316343/0.0481933/-0.379875/-0.0701906/0.780367/0.0125157/0.0745929/-0.153801/0.39122/0.0637971/-0.160702/-0.911251/0.608091/-0.783222/0.929144/0.209234/0.435523/0.298801/-0.756633/0.670051/-0.838781/0.325457/0.0687016/-0.634048/-0.238805/0.451382/0.155186/0.121556/-1.00402/0.222647/-0.0901377/0.632588/-0.634077/-0.821848/0.308526/-0.131013/0.964266/-0.655363/0.627925/-0.470708/0.808909/0.146599/-0.879638/0.0403507/1.09547/0.435684/-0.730646/0.644215/0.0178583/-0.912812/-0.54486/-0.819805/-0.169444/-1.09217/-0.979893/0.709845/-0.365477/-0.0102895/0.581759/-0.527591/-0.92841/0.716525/0.382881/-0.454305/-0.208706/-0.474595/-0.0606054/-0.595361/-0.239669/0.301639/1.02509/0.322318/-0.324158/-0.042689/0.350762/-0.687931/-0.535211/0.995148/-0.849866/-0.212159/-0.0551936/-0.84617/0.186133/-0.731505/-0.547323/-0.824012/-0.0493149/0.216898/0.40355/0.452141/0.585453/-0.497978/-0.265318/0.98887/-0.689511/-0.606697/-0.761023/-0.673219/0.745553/-0.69914/-0.240268/0.323674/0.0978093/-0.464133/0.783255/-0.240946/0.0845927/-0.678283/-0.512076/-0.0505437/0.0683108/0.679815/-0.381514/0.849439/-1.15777/0.482022/-0.705031/0.72913/-0.503504/0.872772/-0.562585/0.792825/-0.768505/-0.264888/0.0296902/-0.966656/-0.10906/-0.155008/-0.195121/0.260397/0.607613/0.727027/0.754549/0.734122/-0.777857/0.800879/-0.00988066/0.671691/-0.732008/-0.685163/0.313423/-0.747069/0.249974/0.0601531/0.63393/0.737435/-0.419443/0.216719/-0.972019/0.0528919/0.917697/-0.265671/0.86074/0.0711943/0.977178/-0.211835/0.712666/0.285918/-0.10142/-0.71653/-0.750164/0.52776/0.14801/0.148249/-0.238879/-0.814536/0.106982/0.600514/0.960758/-0.0180139/0.618398/0.533712/-0.668483/-0.83238/-0.19116/0.728178/-0.290189/0.461099/0.294738/-0.335117/-0.311079/-0.543583/-0.690915/0.803386/-0.0769288/-0.653158/0.763322/-0.729676/-0.00626844/-0.466801/0.230755/-0.319941/-0.342563/-0.595452/0.186059/1.05702/0.102052/0.201095/-0.204505/-0.190872/-0.198034/-0.29536/0.338049/-0.0639848/0.979494/-0.00881499/0.741052/0.865749/0.638127/-0.129052/-0.873468/-0.331025/0.529226/-0.66265/0.746563/0.562255/0.198967/0.958336/0.822198/1.07035/1.12261/-0.753679/-0.124699/-0.544375/-0.320276/-0.300164/-0.370116/0.118497/-0.411588/-0.855572/-0.617593/-0.910789/-0.788603/0.22777/-0.606218/-0.697845/-0.692857/0.198977/0.120738/-0.219969/0.164204/-0.154131/0.251948/0.345408/-0.405584/-0.658093/0.86584/-0.728182/0.346233/1.02681/0.232951/-0.683679/0.300888/-0.772151/0.737494/0.691665/-0.927158/0.243777/0.408383/-0.920761/0.185749/-0.535923/0.613871/-0.665461/-0.410569/-0.912257/-0.725219/-0.0807949/0.574118/0.342323/-0.0652482/-0.719787/0.102183/0.844479/-0.144643/-0.558359/-0.0311326/-0.511215/0.577273/-0.621364/-0.550939/0.140614/-0.800324/-0.724381/-0.424142/-0.833601/-0.253089/-0.983972/0.735289/0.72173/-0.603297/0.382459/-0.0183653/-0.546196/-0.0500523/0.86536/-0.760357/-0.396469/0.135127/-0.550771/-0.729616/0.815911/0.680886/0.223778/-0.984526/0.60725/-0.666194/-1.09925/0.555516/0.595494/0.0463491/0.094006/-1.06917/0.720563/-0.515487/-0.801282/-0.502195/0.721866/-0.101384/0.0372577/0.184114/-0.0936554/0.424673/-1.00221/-0.416472/-0.659099/0.699539/0.144267/0.673674/0.997841/0.0463652/0.408032/0.253968/0.343638/-1.01168/-0.485697/-0.658399/-0.246304/0.85047/-0.646962/-0.767571/-0.171123/-0.606805/-0.788926/-0.318609/-0.139658/0.360559/-0.0771332/-0.384192/0.221584/-0.31164/0.485363/-0.0307665/-0.180632/0.2038/0.13097/-0.855164/-0.0636603/0.0289008/0.261206/0.294458/0.00966825/1.05044/-0.350082/-0.552467/0.0709543/-0.105331/0.996724/1.05071/-0.0813204/0.687201/0.367283/0.0710873/-0.606214/-0.393136/0.564579/0.868949/-0.614365/-0.945394/-0.691679/-0.35823/0.483637/-0.345002/-0.00657803/1.00663/0.658918/0.0556382/-0.792926/0.459239/0.474678/-0.427546/-0.48843/-0.249586/0.736622/0.217156/0.0462256/0.213671/-0.5559/0.391266/0.225008/-0.707889/0.670571/0.825145/0.204463/0.407107/-0.578189/-0.835014/0.0160913/-0.206886/0.424322/0.701604/-0.149674/-0.444138/0.917801/-0.349541/-0.456408/0.719421/1.08859/0.935727/0.447928/0.428959/0.252488/-0.672663/0.299922/0.79322/0.375257/0.956208/-0.643786/-0.920638/0.436747/0.0214086/-0.186046/-0.883568/-0.948654/-0.793255/-0.809073/-0.750778/0.971879/-0.215372/-0.452786/-0.883243/-0.164542/-0.0257799/0.765928/0.993826/-0.190667/0.32582/-0.0697893/1.05773/0.492339/0.2263/-0.0888282/-0.378533/-0.550038/0.915414/-0.87993/-0.558423/0.214692/-0.547383/0.135501/-0.631608/-0.135487/-0.575289/0.351947/0.62187/0.430418/-0.910037/-0.440826/0.195133/0.779483/0.00413116/0.31351/0.953514/0.54354/0.966224/-0.155289/0.297585/1.03974/1.01292/0.278515/0.34733/-0.887582/0.0294624/0.111642/0.492701/-0.419534/-0.225502/-0.00500479/-0.113664/-0.383591/0.879136/-0.923562/-0.287949/0.577432/1.02195/-0.0924925/-0.760843/-0.94452/0.757352/-0.0922641/-0.0506582/-0.0900934/-0.242164/0.439483/-0.891758/0.149433/-0.337255/-0.147344/0.584433/0.00394061/0.0875646/-0.409349/0.108105/0.726999/-0.251939/-0.332046/-0.695311/0.733292/0.978281/-0.773299/-0.441637/-0.961238/0.169553/0.742449/0.241591/-0.809509/0.611459/0.815916/0.959744/0.51985/-0.578926/0.706424/-0.648999/0.997113/0.332393/-0.303606/0.547491/-0.536101/0.112783/0.0999228/-0.371258/-0.821316/0.111465/-0.602499/-0.202127/0.859479/-0.733743/-0.0105195/-0.800992/-0.274638/0.150602/0.510845/-0.253682/0.361113/-0.780158/-0.113831/0.849771/0.105602/0.848125/0.44186/0.33298/0.399182/-0.949927/0.569377/-0.482494/0.717157/-0.735373/0.580189/-0.759569/-0.0770809/0.500744/0.133413/
-0.985183/0.0234555/0.216638/-0.966052/-0.438962/-0.131963/-0.626748/0.873203/0.85486/0.557753/-0.13542/-0.0113557/-0.854691/-0.839275/0.251619/0.889342/-0.92386/0.415114/-0.138878/0.018195/-0.19604/-0.841939/-0.463394/-0.265634/-0.505519/-0.255683/0.740486/-0.651992/-0.0353905/-0.80804/-0.851435/0.909967/-0.479039/-0.221567/-0.607142/0.230929/0.980058/-0.601318/0.155366/-0.0876797/-0.657433/-0.263533/-0.995752/0.523626/-0.310342/-0.80405/-0.0701864/0.380683/0.928197/-0.553367/0.290996/-0.64944/0.806168/0.622973/0.69674/-0.507704/-0.979465/0.135862/-0.081008/-0.470095/0.0252522/-0.104039/0.834227/-0.842324/-0.211449/0.883828/0.100344/0.301006/-0.890707/0.985305/-0.829897/-0.24189/0.136269/0.742522/-0.0650409/0.924826/-0.0859765/0.682874/-1.01121/0.696387/0.670956/-0.981074/-0.78956/-0.293151/-0.983742/0.254064/0.310059/0.481573/0.284255/-0.453146/0.275594/0.084002/-0.807173/-0.577012/0.656376/0.125702/0.954596/-0.263445/0.907122/1.09784/-0.651572/0.213446/-0.679107/0.489913/-0.0466842/0.534576/0.657579/0.363503/0.344556/-0.171262/0.64367/0.626565/0.68567/0.048218/-0.211068/0.150025/-0.136869/0.504166/0.561822/-0.353056/1.03493/0.625033/0.542166/0.0318715/-0.0138597/0.831655/-0.766351/-0.617791/0.852869/0.3983/-0.103637/-0.296458/0.860217/-0.439155/0.344524/0.228244/-0.218302/-0.922893/0.224859/-0.0356012/-0.350137/-0.751298/0.00752491/-0.234296/-0.1704/0.0114634/0.676042/-0.277373/0.755912/-0.807196/-0.852064/0.00226571/0.278885/0.323806/0.735441/-0.123175/-0.31369/-0.113714/0.722549/-0.58033/0.185898/0.0722316/-0.0636404/0.0491755/-1.04847/-0.793201/-0.33967/-0.239098/-0.517268/0.273343/0.884375/-0.618223/-0.101677/-0.817235/0.301575/0.182314/0.707866/0.789322/0.670345/0.759689/-0.795643/0.566858/-0.944577/-0.828594/-0.220046/-0.462504/-0.621728/-0.10228/0.768595/0.343616/-0.588693/0.733312/-0.0691259/0.726472/0.127066/0.521465/0.270449/-0.557463/-0.559073/-0.208165/0.00529939/-0.767476/0.526327/-0.141299/0.828462/0.61289/-0.668654/0.627689/0.635763/-1.08196/0.635869/0.407682/-0.722612/0.200716/-0.570784/-0.673461/0.203811/-0.43213/-0.868247/-0.148508/0.679233/0.173678/-0.845191/0.831635/-0.711101/0.522959/0.710952/-0.0563004/-0.220141/0.90314/-0.70815/0.570729/0.665037/1.04815/-0.527677/0.196488/-0.537995/0.581914/0.136937/-0.533846/-0.985927/-0.0910146/-0.0349332/0.567569/0.272481/0.45634/0.0415353/-0.131899/-0.735427/-0.0164009/0.964876/0.368744/-0.526299/0.49552/-1.03656/0.0765449/-0.380021/0.599078/-0.61595/-0.549399/0.386885/0.897964/0.353283/-0.358477/0.332092/-0.635039/0.0949728/-0.47/-0.951243/-0.777976/-0.589035/0.589833/0.573969/-0.67017/0.214479/0.354427/0.0921275/0.483423/0.482894/-0.531531/0.557038/0.134006/0.482701/0.708922/0.818747/0.85207/0.771159/0.58683/0.412454/0.806424/-0.0474889/0.880101/-0.976579/0.0136527/-0.417259/0.302677/-0.65008/0.0335481/-0.115473/0.394864/-1.15615/-0.139865/-0.678505/-0.0491221/0.414106/-0.940929/0.612023/-0.17635/0.0852225/0.333378/-0.0291305/-0.392796/0.786968/-0.0464804/-0.36704/0.228173/0.892407/1.02126/0.121367/-0.0229755/0.116487/-0.981891/-0.960135/0.18495/-0.601161/-0.824863/0.398715/0.515253/0.614832/-0.211537/0.212641/-0.770705/-0.490819/-0.152574/0.131923/0.607178/0.838182/-0.669995/0.151016/0.936041/-0.824172/-0.179828/0.385191/-0.241359/0.0365291/-0.350925/0.0997163/0.838576/0.38451/-0.131795/-0.980258/-0.567475/-0.603693/-0.28589/-0.399079/0.0866148/-0.62887/-0.422808/-0.647969/0.451112/0.352925/-0.0666243/-0.100186/-0.230084/0.971093/-0.834988/-0.705253/-0.845999/-0.645466/-0.438988/0.82803/0.195133/0.681109/1.06929/-0.096401/1.04081/-0.606735/-0.531043/0.439284/0.553037/0.574327/0.632515/-0.785734/-0.108892/0.878427/0.421751/0.461533/-0.733972/-0.550057/0.0401816/0.153572/0.735729/-0.610438/0.354982/0.0706593/-0.271029/0.842434/-0.748896/0.333714/0.165445/0.784085/0.19139/-0.0991661/0.132328/-0.156878/-0.253509/0.537635/-0.364049/-0.755313/0.733942/0.33321/-0.689333/0.608533/-0.658008/-0.298012/0.826417/-0.079572/-0.323005/-0.735691/0.845943/-0.240944/0.44192/-0.803487/-0.139984/0.724458/0.493652/0.786845/-0.621792/-0.466781/1.05446/0.0862068/-0.423957/0.465943/0.642384/-0.921956/-0.0204517/-0.628859/-0.530193/0.833292/0.632941/-0.398483/-0.347552/-0.855862/-0.576812/-0.306514/0.822168/0.542088/-0.930002/-0.54346/0.0509588/-0.412943/-0.0365383/0.12089/-0.257496/-0.100347/0.142174/-0.405884/0.816604/0.409522/-0.139727/0.588747/-0.0507552/-0.581762/-0.533177/0.391703/-0.975177/0.53803/-0.00138796/-0.782666/0.590205/0.5113/-0.0111552/0.470077/-0.50307/0.755909/0.766793/-0.39789/0.653346/-0.16119/0.0220278/0.625627/0.71551/0.777712/0.0755149/0.965315/-0.308333/0.638214/0.494654/0.344818/-0.824179/0.799593/-0.364352/-0.570588/0.264402/0.446953/0.828084/0.398026/-0.0389626/-0.091493/-0.902497/-0.187319/-0.316357/-0.204135/-0.566569/-0.322902/0.972849/0.909159/-0.788506/-0.0915067/0.636654/0.130495/0.771345/0.953924/0.892878/-0.315967/-0.338716/0.830496/-1.19506/-0.954329/-0.757306/0.703647/-1.03626/0.648919/0.169073/0.164554/0.160606/-1.08831/0.808774/-0.331892/-0.509549/-0.812708/0.723935/-0.81828/-0.839022/0.733031/-0.0329279/-0.281594/1.01987/-0.752066/0.102856/-0.208141/0.517229/0.674646/-0.0786184/-0.700797/0.733581/0.117718/-0.966126/0.807145/-0.81786/-0.08221/0.379646/-0.782012/-0.0315697/0.813769/-0.628763/0.510911/-0.941734/-0.818478/0.00191249/0.143219/-0.917026/0.012759/-0.097756/-0.0494458/-0.518419/-0.685873/0.37469/0.369194/0.270894/-0.0309593/0.472846/-0.242436/0.0114938/-0.971725/0.287267/-0.0386146/0.662922/0.700712/0.729525/-0.0495231/-0.278361/-0.742845/0.782142/-0.98289/0.0292681/-0.427894/0.988839/-0.585439/0.52355/0.9831/-0.445553/0.161444/0.762058/-0.387507/-0.421164/0.708899/1.03667/-0.666861/1.00334/0.855771/-0.710332/-0.181993/0.208469/-0.535933/-0.0982888/0.717463/0.517547/0.0805555/-0.341352/-0.416136/-0.0257723/0.293528/0.629328/0.997747/0.898902/-0.160756/0.179833/-0.0194345/0.12937/0.220848/-0.833011/0.289044/0.425791/-0.27911/0.631989/0.548386/0.823565/-0.271813/0.487739/-0.51845/-0.51136/0.338435/-0.230364/0.3597/-0.823848/-0.609181/0.132535/0.436053/-0.297406/-0.419879/-0.271377/-0.700192/0.148662/0.568253/0.630102/0.268041/-0.280777/0.310087/-0.620276/-0.10694/0.34861/0.125507/-0.698311/0.895019/0.0759367/-0.316395/0.674981/-0.0161859/-0.344273/-0.555496/-0.144681/1.05875/0.295347/0.362816/0.849399/-0.707123/-0.840608/0.398453/-0.714508/-0.188616/0.597287/0.602687/-0.645494/-0.375379/0.0709412/0.609815/-0.924162/0.127031/-0.811797/0.205155/0.964374/0.613532/0.471471/0.0289398/-0.849088/0.639618/0.492211/-0.0927094/0.907255/0.0474944/-0.174419/-0.673084/-0.132653/0.821745/-0.145437/0.891125/-0.913372/-0.463685/-0.0979797/-0.744141/-0.778992/-0.0333771/0.46713/-0.719072/0.52337/0.625542/0.0867456/-0.441015/0.341672/-0.568458/0.146504/-0.318444/-0.995757/0.499966/0.219311/0.0280287/0.825601/0.432774/0.728633/0.292008/-0.0416987/-0.743223/0.452675/-0.974736/-0.969984/-0.637717/-0.798236/0.052803/-0.540145/-0.323189/-0.833912/0.871113/-0.898919/-0.024029/-0.629422/-0.0296906/-0.283233/0.175655/-0.315997/-0.00638981/-0.660099/-0.414062/0.959909/-0.934846/-0.0601461/0.715011/-0.550244/0.0740166/-0.357546/0.703999/0.523601/-0.300755/0.530838/0.376219/0.0821161/0.124816/-0.216955/-0.360982/0.980416/-0.141638/-0.503121/0.0405855/0.136331/0.430019/-0.491845/-0.44587/0.265686/-0.616769/-0.0444526/0.885188/-0.653013/0.815532/0.642876/0.811234/0.410199/0.212421/0.160743/-0.397853/-0.714695/0.125769/-0.201495/-0.534366/0.909069/0.607789/
-0.397912/0.295692/-0.301391/0.527934/0.990958/0.622429/0.20718/0.997227/0.566131/-0.614958/0.350014/0.687362/0.500383/-0.036206/-0.507361/0.556152/0.912985/0.193595/-0.7178/-0.874991/0.0302292/0.0619323/0.895411/-0.825952/0.221983/0.863872/-0.911201/-0.562348/0.624825/-0.559264/0.428177/-0.205648/-0.0285075/0.958031/-0.261901/0.0101688/-0.470583/-0.191548/0.705658/-0.746971/-0.662164/0.655182/0.455933/0.0107026/0.964083/0.783529/0.403989/-0.34919/0.969775/-0.638935/-0.466441/0.778412/-0.471629/0.792606/0.790235/-0.63633/-0.792565/-0.634833/-0.267291/-0.211096/0.662643/-1.00196/0.407307/0.0733343/0.854909/0.742413/0.381499/-0.273772/0.174815/-0.59216/0.834935/0.479902/-0.486562/0.499615/-0.849853/-0.299057/0.0910752/-0.308308/-0.405166/-0.873458/-0.725653/-0.967478/-0.174182/-0.260766/-0.69202/-0.779553/-0.135515/0.595068/-0.455274/0.311116/-0.74973/0.656071/-0.00837984/-0.625819/-0.787638/-0.362519/-0.615931/-0.654904/-0.933728/-0.0814673/0.3359/-0.79748/-0.689917/0.525051/0.612808/-0.105702/0.570554/-0.559015/-0.242261/0.306609/-0.281706/-0.999512/-0.794694/-0.415807/-0.782746/0.0581544/-0.247789/-0.286442/-0.609161/0.984161/-0.368146/-0.0726816/-0.402196/0.586394/0.103562/-0.942466/-0.845326/0.170241/0.000817057/-0.113701/0.914001/-0.276852/0.975031/0.0121613/0.818963/-0.566726/-0.397387/0.615017/0.649569/-0.589385/0.213711/-0.159023/-0.246818/-0.839257/-0.548463/-0.355897/0.515767/-0.260787/0.82625/-0.39848/0.678687/0.846585/-0.855803/0.476561/-0.811261/0.786741/0.754985/0.21957/0.276636/-0.0510599/-0.884919/0.644668/-0.00542604/-0.312822/0.0135148/0.286676/0.869457/0.146045/0.581663/0.00780896/-0.867861/-0.302102/-0.469556/-0.158068/0.796204/0.974815/0.523506/-0.661139/0.0122117/-0.679888/0.323111/0.993236/-0.563939/0.631408/0.567508/-0.356176/-0.28917/0.339639/-0.735845/-0.0611678/0.336635/-0.573353/-0.388098/0.355868/0.987283/-0.070035/0.921381/-0.350844/-0.0256186/-0.112412/0.519548/0.0197946/0.71619/0.369552/-0.222627/0.482898/-0.772801/-0.538296/0.0994918/0.183429/0.341191/0.345757/0.22991/-0.0133169/-0.402415/0.898634/-0.354565/0.0731357/-0.451883/-0.831797/-0.151272/0.537133/0.416532/0.484482/0.689011/0.206151/0.194327/0.434222/0.129219/-0.467553/-0.125753/-0.648863/0.84542/-0.00167763/-0.257873/-0.406297/0.901685/1.11456/-0.171618/0.0710286/-0.359473/-0.738065/0.0518941/-0.906166/0.912541/0.520813/-0.0511467/-0.82163/0.446657/-0.723967/0.0256387/-0.258256/-0.511286/0.812319/0.648547/-0.176259/-0.169149/-0.551378/-0.478652/1.01562/0.801667/0.295003/0.8734/0.514402/0.256948/0.449561/0.416233/0.274068/0.389418/-0.741675/-0.58186/-0.694867/0.809047/0.622492/0.846632/0.184568/-0.0565434/-0.294154/0.564387/0.406449/-0.804988/0.571422/-0.564773/0.714764/-0.481027/0.929815/-0.589495/-0.887355/0.969982/0.140208/0.963061/-0.541231/0.53229/0.7962/-0.821149/-0.723201/0.488688/-0.673792/-0.0613722/-0.729443/-0.624209/0.00554497/0.861345/0.196258/0.528496/-0.881718/0.963752/0.95673/-0.240397/-0.360834/0.784207/0.494933/0.885299/-0.965464/0.168108/0.928726/-0.291057/-0.373179/0.104351/-0.29452/1.0741/-0.0461841/-0.90529/0.284134/-0.527407/-0.355444/0.825358/-0.565814/0.777569/-0.359427/-0.638812/-0.171506/-0.0823308/-0.798599/0.888128/-0.570131/-0.197429/-0.192973/-0.298027/-0.553855/-0.334661/0.376594/0.0247525/0.80273/0.533406/-0.040357/-0.257814/0.654415/0.679248/-0.0125123/0.58031/-0.694434/-0.176069/-0.774668/-0.257337/-0.677784/-0.579891/-0.582505/0.961309/0.734485/0.242613/-0.209305/0.848546/0.559361/-0.82596/0.0942889/0.468271/-0.0781002/0.102656/0.341976/-0.745133/0.799542/0.396/-0.385852/-0.0916234/0.314318/-0.466903/-0.462439/-0.410659/-0.621673/0.527102/0.0891354/0.112674/0.180737/0.537927/0.651228/-0.498617/0.521071/-0.907631/-0.653483/-0.530373/0.309156/-0.0100472/-0.877999/0.43374/-1.09055/-0.319568/0.415567/0.711643/-0.00399776/0.846035/-0.411311/0.95503/-0.813652/-0.0264935/-0.769295/0.584129/-0.624113/-1.17665/-0.139037/-0.632256/-0.100256/0.564835/-0.609176/0.582794/0.378311/0.360058/0.0345983/-0.0238944/-0.532277/0.0241564/-0.014899/-0.301203/-0.140512/-0.565499/-1.00487/-0.918248/-0.31483/0.164413/-0.749452/0.600827/-0.917339/-0.594857/-0.456213/0.181884/0.482871/-0.640793/0.226583/-0.96253/-0.383678/-0.776961/-0.305514/0.47661/0.894873/-0.328117/-0.76916/-0.837332/0.230669/0.859139/-0.456105/-1.01301/-0.581755/-0.586297/-0.149729/-0.877521/-0.892798/0.935156/0.905363/0.41162/0.928056/0.261977/0.230524/-0.85126/-0.328757/-0.392168/0.356194/-0.00851043/0.580441/0.273721/-0.38706/-0.261616/0.00178639/-0.269651/-0.608507/-0.583004/-0.362323/0.442617/-0.940336/-0.937942/-0.904125/0.388308/-0.0129885/-0.0142096/-0.697693/0.88166/0.135416/-0.896131/-0.0527287/0.619285/0.316672/-0.482965/-0.8392/-0.117759/-0.667625/-0.0519715/0.111787/0.0556479/0.913096/0.434652/-0.773465/0.0639447/0.199346/-0.085513/0.858067/-0.465298/-0.266465/0.324178/-1.01754/-0.50875/0.238796/0.515373/0.924418/0.870204/-0.0112314/0.474429/0.682238/-0.867167/0.839926/0.832064/-0.420285/0.0290026/-0.592484/-1.11691/-0.20572/0.875494/-0.0988685/-0.742241/0.163755/-0.202474/-0.942092/-0.0760714/0.326511/-0.32917/-0.357813/-0.255651/0.305614/0.775069/0.349015/0.195953/0.452063/-0.0363056/-0.0230836/0.306307/0.954243/-0.746718/0.939703/-0.365991/0.40096/0.373188/-0.559039/-0.599846/0.517562/-0.95256/0.639445/-0.881499/0.648975/-0.299036/-0.586914/0.577048/0.73445/-0.105358/-0.752286/-0.196566/-0.708185/-0.268743/-0.266229/-0.327684/-0.0406205/0.827755/0.319773/-0.668532/0.601183/-0.697706/0.453141/-0.541324/-0.40321/0.641266/-0.360454/-0.987933/0.662323/0.0888853/-0.150738/0.613343/-0.777634/0.655084/-0.453985/0.0881532/-0.582118/0.341448/0.723255/0.848315/-0.935594/0.704964/0.706736/-0.778319/0.661074/0.0197109/1.09754/-0.501999/0.37284/0.754547/-0.0177343/-0.933932/-0.250003/0.552115/-0.476019/0.399609/-0.578453/0.684029/-0.958166/-0.816305/-0.37671/0.476429/0.353793/0.61775/-0.626756/0.113549/0.418112/-0.713116/-0.106774/0.195722/0.889518/-0.46769/0.511883/0.59491/0.485583/-0.750212/0.304825/0.850699/0.140233/0.434431/-0.862589/0.567393/-0.688759/-0.762923/-0.215127/0.445557/0.427809/-0.450966/-0.578812/-0.0719512/0.786429/0.524583/0.181914/-0.570832/0.0310917/0.431907/-0.99425/-0.334311/0.236975/-0.894376/-0.81004/0.671462/0.711738/0.445499/0.113488/-0.686497/0.19411/0.013249/-0.835262/0.103366/-0.412123/-0.652482/0.720812/0.875955/-0.721232/-0.25723/0.0637586/-0.55379/-0.905784/0.310301/-0.876685/-0.442932/-0.353184/0.630142/-0.638435/0.44678/0.00587766/-0.277543/-0.320967/0.341905/-0.383072/-0.759729/-0.0294711/-0.0986381/-0.132218/0.555417/0.468505/0.84348/0.995013/-6.90894e-05/0.222001/-0.74944/0.862783/-0.89261/-0.527995/0.158397/0.0523007/0.397066/-0.839815/-0.772912/-0.330022/-0.128961/-0.489371/-0.355363/-0.241776/0.772032/0.392941/-0.972373/-0.157911/0.682255/0.954167/-1.04231/0.848782/-0.750913/-0.29616/-0.777681/-0.191369/0.38179/-0.503915/0.488453/0.55164/-0.344472/-0.27631/0.952238/0.307653/-0.870378/0.929752/0.336348/-0.99489/0.149354/-0.325462/-0.595944/-0.760288/0.920267/0.0693927/0.717629/-0.321064/-0.0606958/0.715737/0.75942/-0.586677/-0.154698/0.889647/-0.914279/0.674721/0.0310802/0.486488/0.574292/0.531013/-0.511384/0.174717/-0.680659/0.736944/0.967759/-0.828497/-0.552381/0.131949/-0.328811/-0.331764/0.0411971/0.40043/0.0299775/-0.291033/0.525424/-0.551/-0.650594/-0.535715/0.237689/0.845757/0.638386/-0.654563/0.761877/0.870734/0.42907/-0.615669/0.4553/0.225742/0.0506429/-0.844831/0.921188/0.405019/-0.843243/-0.378058/-0.0828831/
0.498171/0.758018/0.00240475/0.416615/0.0525389/0.0253658/-0.794032/-0.277503/-0.949161/0.877979/0.337398/0.647869/0.73081/0.704989/0.731524/0.168725/0.873641/0.381994/0.0207152/0.132127/0.657606/0.383587/0.942462/-0.0476299/-0.516509/-0.969001/-0.00182286/-0.636878/-0.0108694/-0.681713/0.494632/-0.177127/-0.282185/-0.489675/0.870316/-0.00335341/0.302844/0.89837/-0.259867/0.155495/0.0178434/0.632828/0.984098/0.0828552/0.913147/-0.773127/0.329133/-0.479696/-0.539638/-0.882172/0.281731/0.627671/-0.116026/0.906336/0.794045/-0.0183475/-0.366486/0.476255/0.657271/0.111576/0.778462/0.191277/-0.172372/-0.545844/-0.473295/-0.118177/-0.114866/0.760953/0.133994/0.537906/0.0718259/0.269467/0.0121186/0.186725/-0.689238/0.60737/0.623493/-0.223829/-0.927441/0.0751456/0.642896/0.721979/0.742205/0.161464/-0.267309/-0.667769/0.632169/0.214345/0.266789/0.407133/-0.138527/-0.605885/-0.761003/0.535768/0.757949/0.630757/0.0450769/-0.421985/0.330581/-0.331199/0.854369/0.373404/1.01104/-0.740698/-0.303958/0.315848/-0.441935/0.331153/-0.734679/0.710794/0.84017/0.957196/-0.406922/0.866407/0.225556/-0.854976/-0.105149/-1.00484/-0.688576/-0.238092/0.567486/0.940986/0.226572/-0.297117/0.997146/-0.409246/-0.498877/-0.336501/0.454497/0.919863/0.599838/0.251431/-0.386842/-0.265596/0.636478/-0.963475/-0.948854/0.382953/-0.717013/0.150585/0.886838/-0.915697/-0.847722/-0.337871/-0.982503/0.000739869/0.0934185/0.687327/-0.947085/0.822106/0.661715/0.961653/-0.00334767/0.732822/-0.507126/-0.521808/0.197426/-0.794199/0.0499653/-0.206771/0.83866/0.885862/-0.374008/0.151025/0.449608/0.202868/0.0412582/0.948314/0.314836/-0.54566/0.19644/-0.630026/0.723186/-0.614073/-0.10573/-0.865653/0.0105638/0.521243/-0.0946551/-0.430333/0.413507/-0.28026/-0.456932/0.582496/0.202346/-0.446834/0.776074/-0.159991/0.882925/0.112274/-0.709044/0.403139/0.00633031/0.538149/-0.417116/0.727762/-0.509896/0.183213/-0.413571/-0.238995/-0.795178/-0.449089/-0.66772/-0.151883/0.648988/-0.774384/-0.737274/0.885478/0.919914/0.17922/0.671194/-0.514373/1.08964/0.543896/0.802608/-0.324351/0.171274/-0.700377/0.99641/0.131201/-0.561684/0.765178/0.203759/-0.43164/-0.565463/0.270588/0.541473/0.261851/0.148756/-0.229928/0.0107007/-0.669305/-0.937369/0.642377/0.798363/0.481633/0.254228/0.0760131/-0.461535/-0.39924/0.0225724/0.554056/-0.529705/0.660201/0.924926/0.595042/-0.419743/0.250736/0.364145/0.145687/0.946529/-0.327168/-0.71221/-0.10134/0.335144/-0.224194/-0.565751/-0.367597/-0.581576/0.502155/0.134483/0.829498/0.104692/0.746797/-0.23492/-0.739972/-0.894771/0.602569/-0.821412/-0.193028/0.879605/1.10977/-0.749805/0.0147192/-0.605766/0.79796/0.64996/-0.351645/0.0902154/-0.375109/-0.459293/0.67473/0.9039/-0.129852/-0.375879/-0.548391/-0.420671/-0.369672/-0.291426/-0.116337/-0.731949/0.740061/0.359799/-0.539354/0.869784/-0.225258/-0.111755/-0.549522/-0.284289/-0.331331/1.00496/0.504973/0.705113/0.519382/-0.907569/0.160432/-0.242588/-0.44417/0.826737/0.970538/-0.330507/-0.776313/-0.298211/0.00521159/-0.14603/0.0162922/-0.914883/0.459151/-0.0651469/0.334651/-1.02928/-0.691422/-0.75562/-0.540194/0.448713/-0.141461/0.105828/0.238678/0.531232/1.13214/0.761591/0.0341392/-0.372515/-0.662919/-0.632873/-0.604523/-0.221053/0.765142/-0.963059/0.461615/0.199822/0.109391/-1.19966/-0.945131/-0.087402/-0.999131/0.159015/-0.658758/0.632802/-0.768469/0.756414/-0.707067/-0.966419/0.468601/-0.0560527/-0.890696/0.855857/-0.182399/1.12504/0.759815/0.689189/-0.374172/0.17433/0.532523/0.114396/0.652637/-0.936279/-0.136759/-0.880056/-0.638359/-0.184103/-0.785226/1.01426/0.453231/-0.499539/-0.0652569/-0.519151/-0.28016/-0.16887/0.385339/-0.829737/0.166434/-0.575605/0.177266/-0.280186/-0.902103/0.185777/0.279303/0.100942/0.699578/-0.483396/-0.499082/-0.0632341/-0.78392/0.644724/-0.823755/0.178809/-0.973734/0.0964445/-0.104827/-0.11132/0.0253935/0.235502/0.64119/0.67644/0.0428991/0.314553/-0.580728/0.431158/-0.654728/-0.346627/0.754637/-0.434755/-1.01949/-0.316541/0.695615/0.569784/0.339828/0.474029/0.703874/0.00344998/-0.0277528/0.203209/0.493282/0.235329/-0.262134/-0.703378/0.184315/-0.215236/1.13127/-0.619271/-0.627252/-0.717949/-0.354407/0.0535727/-0.660512/-0.465348/-0.65263/-0.0334627/0.570717/0.185216/-0.791052/-0.778444/-0.151756/0.555561/0.614949/0.863219/-0.448618/0.0755815/0.287282/0.0183047/-0.422538/-0.359123/-0.78415/0.0836641/-0.941194/1.01517/-0.398949/0.46071/1.2175/-0.372318/0.524109/0.822151/-0.941924/-0.227133/-0.962655/-0.484095/-1.10031/-0.519035/0.710221/-0.46079/0.426524/-0.738666/-0.650317/-0.969054/-0.165881/0.049787/0.760916/-0.0720678/0.593871/-0.505703/-0.200933/-0.407662/-0.971441/-0.370408/-0.500142/0.238243/-0.109243/0.945949/0.811159/0.448328/-0.957059/0.143856/-0.360642/-0.665114/-0.72383/-0.600095/0.441324/0.107034/0.85565/-0.601376/-0.513195/-0.637817/0.291972/-0.822091/-0.895831/-0.0975318/0.374955/-0.134148/0.399777/0.00479349/0.124724/0.595397/0.231569/0.248632/0.694423/-0.71541/0.229247/0.186084/-1.05274/-0.313454/0.171172/0.230841/0.955445/-0.486645/-0.686006/-0.891758/0.636704/-0.00863569/-0.248236/0.0353933/0.735817/0.877918/-0.83827/-1.00094/-0.0108593/0.152616/-0.785282/0.89435/-0.963823/-0.437423/0.0357395/0.651804/0.218985/0.144552/0.461578/-0.545382/-0.251719/-1.00033/0.690411/-0.800298/0.780039/0.656827/0.149947/0.400735/-0.222759/-0.702476/0.817693/0.409632/-0.077159/-0.811253/-0.73154/0.680486/0.561835/0.0547614/-0.746564/-0.830191/0.32404/-0.540359/0.762431/-0.72068/0.64413/0.569486/0.503919/1.0431/-0.642772/0.100119/0.33483/0.0438222/-0.909207/-0.775822/0.671749/0.785168/0.529673/-0.273124/0.390905/0.677444/0.0773154/-0.559698/-0.846613/-0.489037/-0.333778/0.00120593/0.115968/0.32629/-0.631011/-0.688923/-0.717546/-0.409465/0.842358/-0.847955/-0.778779/0.0737433/0.710876/-0.251638/-0.367934/-0.238234/0.649139/-0.702033/-0.8019/-0.822533/-0.629869/0.213369/0.480478/0.342866/-0.311662/-0.10435/0.182428/-0.808307/-0.747908/-0.346552/0.268198/-0.177942/-0.104949/0.256666/0.0611817/-0.0184847/0.642289/0.785879/-0.916724/-0.487453/0.0593066/-0.362323/-0.839354/0.285163/-0.16439/-0.18568/0.875578/-0.913231/-0.905841/-0.630061/0.70291/0.661869/-0.25656/-0.00331366/0.302096/-0.201135/-0.373542/-0.875942/-0.1131/-0.161691/0.330208/0.827176/-0.0445634/0.100029/0.653953/0.0634565/0.740475/0.931973/-0.406894/0.114765/0.162377/-0.506726/-0.450996/-0.0988778/-0.68443/0.16423/-0.561764/0.598294/0.226736/-0.356622/-0.461753/-0.683693/-0.827761/0.167321/0.160176/0.593018/0.850467/-0.678781/0.0147456/-0.76185/0.310029/0.151839/-0.799062/0.871162/-0.915895/0.574121/0.492284/0.0176079/-0.486729/-0.596388/0.487192/-0.0963064/0.0143453/-0.474191/-0.0213025/0.792319/0.174607/-0.949128/0.425632/-0.400837/-0.863894/0.402889/-0.595097/0.707961/0.973821/-0.460001/-0.388185/0.761854/0.151085/-0.404655/-0.953045/-0.541203/0.90598/-0.264696/0.784001/0.867284/0.974433/0.207934/0.267059/0.884245/-0.868226/0.135701/-0.526944/-0.81592/-0.609584/-0.147345/-0.958954/0.865336/-0.296144/-0.701709/-0.0529017/-0.918634/0.747846/0.921575/0.42089/0.198557/0.720165/0.50161/-0.031406/-0.928183/-0.0622258/-0.742265/0.558694/0.532408/-0.518657/0.30812/-0.416069/0.598453/0.800586/-0.923659/0.787521/0.65791/0.56906/0.0108897/0.948104/0.788807/-0.528719/-0.185826/0.821566/0.0663602/-0.684661/0.90155/-1.00035/-0.656614/-0.51039/-0.124248/-0.235391/-0.218978/-0.35729/-0.968325/-0.629874/-0.284572/-0.80956/-0.280522/-0.726597/0.0891865/0.957715/0.309212/0.922997/0.807897/0.319299/0.460124/-0.690161/0.731737/
-0.621711/0.905764/-0.825978/-0.220066/-0.653362/0.989654/-0.0392024/0.865381/0.187482/-0.74593/0.157312/-0.049049/-0.366587/0.775412/0.339039/0.950535/-0.89072/-0.906593/0.730963/-0.515508/-0.14813/0.378571/0.635481/0.537068/0.499901/-0.160603/0.746343/-0.215066/-0.614317/-0.81881/0.129671/-0.952555/0.14321/0.0433369/0.884697/-0.672187/0.457794/0.34443/0.460102/-0.0244093/-0.559352/0.680949/-0.91368/-0.3327/0.379569/-0.877776/0.724063/-0.860774/0.00892034/0.869617/0.476557/0.334302/-0.85531/0.0471603/0.528939/0.171026/0.438841/-0.407326/0.445017/-0.251512/-0.446839/-0.147191/0.819228/0.548309/0.591014/0.510183/0.880602/-0.0165881/-0.476253/0.923713/-0.0337708/0.436316/-0.104849/0.247747/0.48936/-0.757094/-0.916532/-0.173607/-0.945443/-0.0797397/0.392234/-0.507379/-0.158299/-0.229611/0.930699/0.254783/0.0594006/-0.638708/0.320586/0.0980066/0.0642161/-0.395901/-0.979512/-0.300765/0.246107/-0.341995/-0.986733/0.162378/0.286327/0.458644/-0.350705/-0.124981/0.125978/-0.0140409/0.0636751/0.753512/-0.148896/-0.372885/-0.341077/-0.635812/0.669318/0.0144416/0.719464/0.0280673/0.289899/-0.458438/-0.143642/-0.298996/-0.880526/0.0411088/-0.90399/-0.607334/0.313323/0.16393/0.428041/-0.863991/-0.418279/0.635693/-0.700373/0.0273029/-0.11739/-0.445784/-0.933382/0.120874/-0.782911/-0.445225/0.352589/0.611598/0.378831/0.664938/-0.386003/0.447572/-0.244605/-0.598183/0.71698/0.404344/0.0141316/-0.652052/-0.0422671/0.818089/-0.868287/1.05189/-0.335909/-0.581476/0.253678/-0.185821/0.264078/-0.288408/0.50518/-0.898405/0.707768/0.17881/-0.661905/-0.0668179/-0.219598/0.448059/0.380497/0.634237/-0.372533/0.832381/-0.35398/-0.49434/-1.1907/-1.08439/0.425691/0.455858/0.149742/0.105835/0.922158/-0.464951/0.901834/0.590378/-0.504145/-0.312736/-0.615968/0.167483/0.416075/-0.34968/0.263915/-0.713495/0.348054/0.450924/0.784934/-0.290123/-0.43087/0.351799/0.685789/0.0497359/0.556712/0.521838/-0.0972577/-0.21723/-0.42393/-0.622396/-0.00877763/0.186872/-0.714671/0.876771/0.467248/0.886711/0.788533/0.458377/0.726649/-0.428289/-0.65443/0.381626/-1.02611/-0.484455/0.711573/-0.935243/0.442872/0.29798/0.683904/0.172922/0.296108/0.682188/0.857963/0.785049/0.473688/-0.20811/-0.0369315/0.111405/-0.498553/-0.0927185/-0.0811575/0.677072/-0.449708/0.920268/-0.392701/-1.1202/-0.171746/-0.442163/-0.590699/0.818633/-0.596296/0.865648/0.793507/-0.671626/0.0175792/-0.802397/-0.70252/-0.477897/-0.0232419/-0.627758/0.628526/-0.510604/0.196088/0.505406/0.402164/0.608738/-0.737461/0.0379839/0.266849/0.382302/-0.132151/-1.04384/0.0853681/0.069809/0.276525/-0.135979/-0.33235/-0.169854/-0.853501/-0.740391/0.00495504/0.725613/-0.534875/0.802523/0.19808/0.239762/-0.326915/-0.467522/-0.459328/0.963459/-0.0119222/0.32251/-0.131613/-0.776777/0.0995535/-0.202806/0.802348/0.768104/0.396657/0.740279/-0.481486/0.502459/-0.40436/-0.661031/0.588265/0.10749/-0.125273/-0.606728/0.214778/0.336392/0.0450659/0.923611/-0.0791539/0.722261/-0.963203/-0.552712/0.642804/0.0139751/0.244689/-0.522165/1.0505/-0.0917413/-0.787452/-0.315632/-0.585175/0.278822/-0.117005/-0.322649/-0.814307/-0.851131/0.0721063/-0.998054/-0.600788/0.592535/0.525457/-0.47622/-0.751065/-0.466146/0.172172/-0.141491/0.175057/0.862938/-0.59991/-0.682327/-0.712378/-0.618491/-0.4575/-0.830735/0.517863/-0.543038/0.888934/0.397401/0.853257/-0.22954/0.838753/0.0114332/0.239041/-0.3961/-1.23894/-0.0747072/-0.811557/-1.01131/-0.251037/-0.0729751/0.85018/0.205355/0.898155/-0.443186/-0.924818/-0.54405/0.143363/-0.490637/-0.172208/0.452358/-0.312654/0.621297/-0.238326/-0.114107/-0.367573/0.677053/-0.682834/0.281237/-0.800086/-0.692401/-0.073815/-0.836178/-0.969906/0.342587/-1.17248/0.109111/0.00197258/-0.737479/-0.234581/0.56405/0.0328143/0.0823887/0.118325/-0.647764/-0.975573/-0.449079/0.543896/0.519726/0.0614248/-0.0154994/0.643826/0.13145/0.452883/-0.999541/-0.314414/0.408267/0.601118/0.332445/-0.248561/-0.636013/-0.194829/-1.01803/0.758797/-0.974553/0.820259/0.391128/-0.0304295/0.779348/-0.65697/0.604354/-0.575694/-0.440591/0.989039/0.796939/0.671675/-0.0929774/0.143381/-0.212454/0.20457/0.269623/-0.252234/0.569282/-0.483192/0.385851/-0.17568/-0.497209/-0.349654/0.646837/-0.241995/0.954929/-0.649767/0.956671/0.533269/0.664199/-0.594675/0.424497/0.852591/0.21756/-0.75747/0.160295/0.0829784/0.625592/-0.0478179/0.830512/0.620508/0.477729/0.826522/-0.195963/-0.231205/-0.611418/-0.482155/0.543869/0.214358/-0.859179/-0.0431341/0.376154/0.21429/0.529161/0.932661/-0.0306182/-0.774192/0.0292237/0.468445/0.0529877/-0.743096/-0.40453/0.0378794/0.695038/-0.488164/-0.557316/0.363452/0.239372/-0.0363779/-0.127005/0.401796/0.389659/-0.692777/0.558483/0.476254/-0.512247/0.883291/0.627475/-0.29332/0.775946/0.968809/0.12628/-0.533881/0.614025/-0.895482/-0.885054/-0.168521/-0.672919/-0.327804/0.300629/0.554443/-0.476541/0.774205/0.0611646/0.988563/0.739574/-0.605039/-0.391571/1.02656/1.00925/0.957934/0.651041/0.0685737/-0.659975/0.55526/0.356188/1.07399/-0.495434/-0.659471/0.272236/-0.0782441/0.633605/0.731892/0.736679/-0.689111/-0.803105/0.830216/0.712377/0.907388/0.0928799/-0.968345/-0.989052/0.96015/-0.669132/0.00198833/-0.046685/0.347539/-0.729313/0.0478167/-0.69103/-0.349739/0.696027/0.800286/-0.128013/0.940346/0.766942/-0.123088/0.521065/0.700594/-0.796404/-0.968794/0.774383/0.299438/0.142515/-0.331533/-0.443465/-0.410141/-0.120635/0.494808/0.243379/0.77045/-0.0324717/-0.0320389/-0.866837/0.856599/-0.513043/0.822622/-0.600527/0.46534/0.619551/0.683854/-0.125513/0.241403/-0.0833625/0.560539/-0.018159/-0.175601/-0.226589/0.741316/-0.973959/-0.52774/-0.273591/0.669874/0.800263/-0.772025/-0.31331/0.206675/-0.393248/-0.828428/-0.628123/0.185402/0.807132/0.288523/0.866012/-0.109356/0.514832/0.988501/-0.46963/0.0673649/0.344285/-0.627448/-0.263101/1.02607/-0.254574/0.939836/0.171445/0.821907/0.1405/-0.14835/0.298007/0.671547/-0.833051/-0.660432/0.615371/0.544088/0.511821/0.563998/-0.776939/0.704697/1.01809/0.0482426/-0.120347/-0.257134/-0.742723/1.11139/0.284165/-0.552142/0.463356/1.1504/0.186511/-0.473782/0.342143/0.0693768/-0.716055/-0.843984/-0.210088/-0.0779139/0.202838/0.450724/-0.864651/-0.797695/0.381839/-0.425191/-0.177882/-0.359258/-0.702947/-0.616024/-0.497395/0.0286639/0.834923/0.1584/0.218041/-0.589291/0.657579/0.212958/-0.303512/1.04339/1.04667/0.256413/-0.353684/0.00453686/-0.00249569/-0.60303/-0.666321/-0.146137/-1.06456/-0.740301/-0.992942/0.584937/0.907903/-0.874252/0.445167/-0.200999/0.504085/0.712585/0.295035/-0.472745/-0.925958/1.00712/0.956012/0.087584/0.0923597/-0.448653/-0.360771/0.0169888/0.90277/0.900904/0.44784/-0.691326/-0.740197/-0.311991/0.831302/0.274062/0.160243/0.743182/0.577041/-0.622446/0.48505/0.231954/0.444075/-0.0244292/-0.757264/0.259704/-0.541769/0.785874/0.733952/0.734736/-0.90498/0.136912/0.459611/-0.826019/-0.523823/0.877947/0.200953/-0.563127/-0.197376/0.9198/-0.0996276/0.922193/0.51451/0.0801568/0.16218/0.829775/0.369309/-0.240725/0.0578816/0.816502/0.940965/-0.0591301/0.222149/-0.903889/0.359838/-0.40362/-0.560006/-0.689031/-0.0415622/0.549017/-0.429848/0.377973/-0.95456/-0.946494/0.984442/-0.251737/-0.636411/-0.277237/0.893178/0.744049/-0.933961/0.589207/-0.0673972/0.0228941/0.43239/-0.149462/-0.0358536/-0.591325/-0.392696/-0.0492225/0.716604/-0.0428517/-0.208209/0.633435/0.0883389/-0.80524/-0.327043/-0.606838/0.874379/-0.316818/-0.753778/-0.750638/0.0250586/-0.840475/0.129578/-0.18012/0.721732/0.144163/0.951485/-0.383691/-0.702878/0.726792/-0.811033/0.960227/0.536043/-0.775973/
0.0771658/0.925486/0.647823/-0.0345318/-0.375909/0.08494/0.770533/-0.435859/0.363112/-0.47309/-0.0485356/0.262079/0.765285/0.274297/0.225354/-0.617691/0.224325/-0.015103/-0.0187575/0.290862/0.51266/0.277939/-0.679731/-0.234426/0.00611891/0.840519/0.604488/-0.364579/0.523858/0.486306/-0.581447/-0.558467/-0.795625/0.706992/0.736669/-0.374353/-0.343046/0.86683/-0.513078/-0.267407/-0.262727/0.738512/0.161552/-0.0435626/-0.683367/-0.166726/-0.68618/-0.36806/0.52823/-0.895736/0.616304/0.489233/-0.46938/0.292949/0.0193758/-0.514271/0.650759/-0.688111/0.00345956/-0.386856/0.740855/0.632846/-0.294559/-0.0699582/0.742352/0.931924/0.245308/0.840726/-0.195159/0.833692/-0.653769/0.811897/0.824442/0.59571/0.90305/-0.0925865/-0.852133/0.68452/0.11651/-0.119401/0.713171/-0.588156/-0.902491/0.940498/0.950136/0.938253/0.509673/0.11629/0.457506/0.872522/-0.429056/-0.256161/0.694355/0.670235/-0.0860627/-0.115736/-0.674501/0.660794/-0.0674866/0.0203585/-0.506358/0.350583/-0.44527/0.674878/-0.761184/-0.252124/0.520563/-0.3007/0.941829/0.168215/-0.441249/0.800175/0.541286/-0.611197/0.0208496/0.0769522/0.168907/-0.766752/0.342961/0.541247/-0.24095/-0.984777/-0.277678/-0.325949/-0.181332/-0.561546/-0.534354/1.03516/-0.657567/0.440704/-0.630776/-0.903367/0.82532/0.223852/0.809315/-0.230662/-0.781654/-0.629344/-0.796279/-0.475778/-0.403307/-0.37447/0.00496432/-0.938841/-1.047/-0.482172/-0.690888/0.486676/-0.2635/-0.606881/0.267886/-0.593864/-0.887964/0.117901/0.817666/0.130134/0.161032/0.744713/0.796449/-0.896975/-0.755614/0.458152/0.731323/0.208755/-0.825254/0.991405/-0.568224/-0.696859/-0.102062/0.651885/-0.75884/-0.46652/0.930943/0.18579/0.630181/0.288197/0.028541/-0.615491/-0.691462/0.375868/-0.327492/0.623149/-0.0570056/0.216306/0.3139/1.03119/0.363025/-0.969772/-1.00744/0.186703/0.257531/-0.528084/0.219683/0.752226/0.555047/0.28131/-0.0203861/-0.630265/0.0025253/0.666812/0.419493/0.230642/0.0694509/-0.498352/-0.335716/-0.235212/-0.7053/0.285353/0.888723/-0.0382534/-0.3801/0.900166/1.18763/-0.700726/0.36579/0.171297/0.334028/-0.683404/-0.270952/-0.129869/-0.174675/-0.256348/0.390625/0.198504/0.25993/0.642227/-0.759104/0.498536/-0.0886285/0.842958/-0.151908/-0.490177/0.817543/0.56766/-0.625425/-0.115948/0.500095/-0.0725114/0.581543/-0.213566/-0.192874/-0.313972/-0.732171/-0.898158/-0.785462/0.426115/-0.467417/0.785883/-0.567851/0.10718/-0.241299/0.845843/0.0835403/0.0603207/0.786674/-0.543111/0.855221/0.599428/-0.641111/0.000392898/-0.486021/0.0623686/-0.702358/-0.333525/0.60773/-0.579662/-0.200686/0.764832/-0.043467/-0.353794/0.941098/0.574992/-0.37548/-0.825941/-0.533611/0.0251894/-0.678986/0.823619/0.156307/0.175035/-0.181771/0.978881/0.712901/0.184872/0.823962/0.511068/-0.773374/-0.155992/0.397844/-0.372475/0.968583/-0.00852059/-0.763346/-0.161534/0.0352278/0.671907/-0.405044/0.211356/0.47787/0.577608/-0.14281/-0.953893/0.763208/0.438165/0.446273/-0.144283/-0.848905/-0.0937085/-0.95835/-0.987193/-0.850261/0.173867/-0.715544/-0.376488/-0.0168409/-0.420362/0.490787/-0.0372196/0.650428/-0.114836/-0.564795/0.620977/0.524133/0.241611/0.195767/0.970317/-0.917625/-0.438436/-0.0641482/-0.180701/0.436695/-0.825684/-0.113252/0.80871/0.752967/0.79182/0.121649/0.54309/-0.432907/0.694367/-0.00808322/-0.121261/0.4419/-0.480651/-0.574047/0.0627102/0.30721/0.808055/0.242815/-0.696637/0.131284/-0.805309/-0.355859/0.593991/0.583118/0.796148/-0.905176/-0.949196/-0.882283/0.512334/-0.404112/-0.0475389/-0.172051/-0.256527/0.543984/0.741456/-0.755652/-1.01193/-0.387811/-0.158343/-0.193344/-0.578448/-0.0372145/0.88116/0.262352/-0.542668/-0.441737/0.395478/-0.452128/-0.416358/-0.342865/0.541101/-0.249395/-0.137736/0.728339/-0.635396/-0.781508/0.740715/-1.01987/0.337122/0.747628/0.0912805/0.151332/-0.571261/0.902555/0.654144/-0.0357347/0.104047/-0.38056/-0.531619/-0.450573/-0.0519014/-0.663095/-0.638745/0.333206/0.789942/0.166045/0.616457/0.706474/0.457017/-0.37114/0.0596701/0.507479/0.263264/0.382002/-0.385186/0.272613/0.382835/0.448069/0.274157/-0.240243/0.249274/-0.662876/0.66694/-0.874177/0.337839/-0.0529943/-0.337191/0.595049/-0.163091/-0.997056/-0.0709142/0.528003/0.042915/0.0150428/-0.222232/-0.823708/0.22011/-0.588825/0.906059/-0.44056/-0.547256/0.739982/-0.222111/0.377726/0.18816/-0.51904/0.720259/-0.61274/-0.315248/-0.472214/0.134126/-0.662403/0.717162/0.356878/-0.386512/0.679866/-0.174164/-1.10106/-0.692351/-0.243755/0.648848/0.452575/-0.946496/0.187251/0.937689/-0.966367/-0.0165312/0.22538/0.604171/-0.708918/0.178414/0.66368/-0.722933/0.389145/-0.946803/0.837314/0.756224/-0.358375/0.919001/0.797502/-0.94303/0.569597/-0.217891/0.220865/-0.706581/-0.56769/-0.910889/-0.916404/-0.833911/0.0245273/0.298941/-0.173733/0.763019/0.956428/-0.272554/-0.965274/-0.471412/0.356907/0.544674/-0.334557/-0.721131/0.418771/0.415706/0.762963/-0.867582/0.391456/-0.2921/0.424074/0.398958/0.481459/-0.618826/0.0352322/-0.129304/0.640056/-0.70036/-0.910219/0.424837/-0.276783/-0.87412/-0.00205818/-0.676254/-0.0627598/-0.385391/-0.92616/0.774021/-0.8351/-0.0128853/0.852163/0.532006/0.803423/0.277119/-0.464534/0.590907/-0.601154/-0.178255/0.846929/0.666856/-0.426753/-0.827385/-0.393983/0.435292/-0.0987188/-0.214549/-0.110027/0.507178/0.0145004/-0.96668/-0.695687/0.689562/-1.0561/-0.408054/0.406713/-0.0330468/0.297957/0.0398671/-0.0553888/-0.737308/0.187164/-0.679521/-0.703168/-0.139044/0.11312/-0.184959/0.366362/0.919985/-0.885813/-0.688449/-0.0871922/0.359217/0.453595/-0.961709/-1.13058/0.326563/0.582134/0.110834/0.30277/-0.872053/-0.198184/-0.668069/-0.395553/-0.840704/0.108419/0.307344/0.188602/0.827531/-0.341157/0.847825/-0.606728/0.724423/-0.892549/-0.0211863/0.457907/0.740433/-0.456449/-0.680195/-0.0365467/-1.17622/0.289085/0.126317/-0.402861/-0.734797/-0.826082/0.248409/-0.0713715/-0.403259/0.311573/-0.87817/-0.493645/-0.363669/-0.941446/-0.498244/-0.228682/-0.879196/-0.99763/0.131286/0.520929/-0.751757/0.105447/-0.215389/0.494456/-0.321474/-0.171637/0.055972/-1.252/0.386995/-1.08864/-0.0427739/0.827761/0.22953/-0.344791/0.755224/-0.876352/-0.347969/0.548892/-0.232472/0.0925547/-0.687834/-0.466773/-0.195825/-0.186714/0.0908968/-0.76313/-0.463092/0.810315/0.95567/0.695355/-0.504802/0.170372/0.215094/0.744193/0.176861/-0.139817/-1.01173/-0.550285/-0.899157/-0.634717/-0.576469/-1.04428/-0.271533/-0.810178/0.0448605/-0.467873/0.818947/-0.633363/-0.16097/-0.246188/-0.896002/0.832352/-0.884855/-0.890051/0.51467/0.0566426/-0.00630449/-0.565752/-0.481306/0.605232/-0.989661/0.608626/0.561935/-0.317551/-1.02462/-1.10944/0.471959/-0.827942/0.434254/0.660757/0.000892973/-0.411856/0.848497/0.214003/-0.421412/-0.827952/-0.593896/0.191814/0.37259/0.278469/0.234749/-0.796123/0.612085/-0.685332/-0.366767/0.141951/-0.538647/0.584516/-0.55115/-0.284862/-0.533239/0.899939/0.692399/0.837608/0.833393/-0.538711/0.552454/0.886652/-0.4375/0.893414/-0.659861/-0.169425/0.343313/0.287516/0.184793/-0.556752/0.834077/-0.0981438/0.117611/-0.134871/0.199768/-0.494592/-0.612862/0.956001/-0.890198/-0.969626/-0.0270962/-0.742841/0.957171/0.136895/-0.191674/-0.991171/0.738141/0.767049/-0.526196/-0.413351/0.859377/-0.911646/0.99198/0.0156649/-0.930391/-0.608263/0.940946/0.65127/-0.502826/-0.291482/-0.0173489/-0.173607/0.568737/0.769647/-0.548846/-0.45708/-0.14218/0.3865/-0.100155/0.693832/-0.759832/-0.587766/-0.514225/-0.584354/0.763183/0.822776/0.403353/-0.84834/-0.0453704/-0.539851/0.731109/-0.247614/0.345967/0.666415/0.43611/-0.303944/-0.382921/0.240105/-0.551462/-0.419768/0.954298/1.0604/
0.528998/0.863944/0.312843/-0.052282/-0.702675/0.321989/-0.77585/-0.988918/-0.251459/-0.600716/-0.302375/-0.0162277/-0.7393/0.532381/-0.305922/0.335384/0.743734/-0.228894/0.225021/0.0150644/-0.812345/0.922189/-0.775456/0.912651/0.930187/-0.355326/0.0438176/0.442008/0.834397/-0.282199/-0.910527/-0.427527/-0.614464/-0.861931/-0.618808/-0.753774/-0.120195/0.856474/-0.870358/0.753723/-0.823421/-0.242623/-0.693824/0.631239/0.293768/0.309094/0.366637/0.575719/-0.792606/0.720867/-0.96305/0.511683/-0.0725888/0.975449/-0.481411/0.545267/0.295279/0.74625/-0.860132/-0.832268/-0.564645/-0.555985/-0.440285/-0.0433391/-0.39414/-0.898175/0.162468/0.741663/-0.872975/0.106498/-0.36864/0.0855284/0.0695421/-0.753345/0.677764/-1.06446/0.780158/0.450138/0.517749/-0.368645/-0.626952/-0.193915/-0.881211/0.556997/-0.544017/0.711238/-0.436202/-0.423592/0.689183/-0.0334483/0.362909/0.698481/-0.567441/0.524034/0.309268/1.16958/-0.0493326/-0.410903/1.14173/0.970757/-0.538432/0.878177/-0.492412/0.385106/-0.0776783/0.148527/0.510526/0.332192/-0.969561/-0.539567/0.669649/-0.340452/0.021871/-0.414033/-0.442189/0.715627/0.569159/0.739144/-0.681361/-0.523282/0.150284/0.645541/-0.327277/-0.394804/0.158383/1.1603/0.161685/0.657842/0.300963/0.527279/-0.778029/-0.176576/-0.0535998/-0.0405944/0.429015/0.315164/0.388029/0.779922/-0.581379/-0.25668/-0.0159271/0.311447/-0.162634/0.00938365/-0.281352/0.795289/-0.00362076/0.911751/0.380769/0.346125/-0.251487/0.953273/1.09164/0.643335/1.15421/-0.817774/0.767467/0.509691/-1.01659/0.428061/-0.0602522/0.0913694/0.0320349/0.305225/0.0883075/0.310219/0.136192/-0.95426/-0.246302/0.403407/-0.123203/0.778622/0.662083/-1.07008/-0.0702973/-0.0628387/1.17668/-0.586987/1.19676/-0.238349/1.15614/0.72862/0.952529/-0.749884/0.943026/-0.136153/-0.474255/-1.01581/0.274026/-0.735041/-0.778487/-0.464355/-0.684637/-0.267564/-0.802058/-0.233012/-0.238017/-0.356304/0.253615/0.703297/-0.208708/0.716624/0.76462/-0.350981/-0.184179/0.112524/0.485335/0.539326/0.529424/0.0107724/1.19941/-0.137168/-0.722716/-0.349801/-0.435553/0.334646/0.29097/-0.47258/0.529931/-0.856897/-0.691892/0.689786/-0.639747/-0.747298/0.169428/-0.424891/-0.767674/0.368471/0.361653/-0.815697/0.932338/-0.680703/-0.187814/0.2403/0.947834/-0.829611/-0.621517/0.95364/0.417429/0.723573/0.62464/0.812257/-0.653415/-0.875784/0.108219/-1.01069/-0.317198/0.367334/0.3635/0.402331/-0.648906/-0.493418/-0.884441/-0.800682/0.78381/-0.456576/0.444887/0.456698/-0.513915/0.583928/0.416472/0.864231/0.497341/0.975983/0.362267/-0.0937322/-0.685392/0.453678/0.942137/-0.59901/0.962934/-0.926054/-0.00590591/-0.894662/0.598956/-0.193135/0.165251/-0.987804/0.714723/0.764403/-0.682076/0.351042/-0.538785/0.733756/-1.13944/-0.37222/0.979123/-0.0741801/0.724917/0.831473/0.0892763/0.836041/0.0533804/0.357363/-0.912028/0.771171/0.015351/0.0902697/0.916365/-0.0509355/0.751605/-0.558242/-1.08912/-1.04942/-0.527054/-0.103827/0.612207/0.901766/-0.0204614/0.101347/-0.997441/0.532599/-0.191469/-0.514726/-0.284975/-0.609217/-0.0219909/0.288501/0.397253/0.61424/-0.98407/0.700405/0.0243823/-0.370749/-0.155536/-0.282499/0.561717/0.142908/-0.741841/-1.02544/-0.108983/-0.265632/0.0584398/0.514784/0.82269/0.534683/0.420219/0.622387/0.333826/0.999836/0.859739/-0.437542/-0.239001/-0.154493/0.244722/1.1054/-0.336891/0.179515/-0.806432/0.703947/-0.423492/0.110241/1.05826/-0.352656/0.245246/-0.644937/-0.421634/-0.232785/-0.46226/-0.830631/-0.268064/-0.452047/0.336322/0.714316/-0.486744/-0.703017/-0.609204/-0.150444/0.324188/0.716008/-0.227988/1.08163/-0.562721/0.450223/-0.233387/-0.020123/-0.188156/0.245505/-1.16362/-0.603734/0.631498/0.842885/0.41206/-0.399913/0.568948/0.105236/-0.234016/-0.898959/0.317547/0.128347/0.357503/0.620953/0.356679/0.715152/1.14409/-0.501175/0.702439/-0.10814/-0.889388/-0.698526/-0.285108/0.478311/-0.442895/0.634317/-0.219969/0.513557/-0.892948/0.329204/-0.656261/0.51826/0.645388/-0.939879/-0.555541/0.154888/-0.873381/-0.829064/0.111226/-0.897299/-0.308207/-0.267366/0.377554/-0.430253/-0.43079/0.889374/0.776177/-0.54115/-0.0581686/0.328805/0.964763/-0.112598/0.797983/-0.898757/-1.15465/0.498588/-0.422181/-0.34119/0.93855/-0.0786517/-0.0146559/-0.982526/0.443131/-0.200493/-0.671497/-0.405854/-0.34462/-0.372433/-0.396895/0.0953537/0.609257/-0.205446/-0.219413/0.84282/0.650214/0.673082/0.716565/-0.627166/-0.446249/-0.871936/0.933292/0.872482/-0.44211/0.0710043/-0.14326/0.0402728/0.426649/-0.639615/-0.743534/0.708763/0.0943457/0.0856151/-0.38392/-0.360729/0.886368/-0.210167/-0.740825/-0.325566/-0.0899223/0.691233/0.0760027/0.600883/0.00639465/0.354017/-0.662053/0.516937/0.451482/-0.602113/0.160404/0.537673/0.809641/-0.0325973/0.920305/0.275478/0.421281/0.0503441/0.62036/0.247263/-0.884602/-0.5247/0.356505/0.493065/-0.198635/-0.00263855/-0.848753/-0.478088/0.776963/0.427091/1.05936/-0.458141/-0.431207/-0.301736/0.373903/0.00651142/-0.0333843/0.386191/-0.168437/-0.223628/-0.753293/0.325162/0.794028/-0.314456/0.670634/0.727513/-0.947042/-0.430129/0.775497/-0.598626/-0.166546/-0.592531/-0.265211/-1.00089/0.537543/0.779864/-0.831965/-0.831456/0.780542/-0.0934619/0.641377/0.534792/0.120752/-0.961062/0.692975/0.505744/0.873672/0.702437/-0.719765/-0.533598/-0.262378/0.883752/-0.135202/0.126116/0.202995/-0.619586/0.737244/-0.919669/-0.0275554/0.361173/0.29196/-0.245221/-0.849504/0.586385/-0.622213/0.476096/0.772556/0.452885/0.571801/0.131297/-0.0564954/-0.245256/0.237123/0.137273/0.691267/0.376263/0.601432/-0.186051/0.368826/-0.365875/0.0208463/0.893872/-0.490644/-1.12797/0.526131/0.420483/-0.688511/0.672932/0.529714/0.392545/0.694899/-0.710044/0.296766/-0.23932/-0.639218/0.0875864/-0.929189/0.131039/-0.717263/0.371792/0.892551/-0.574915/-0.756531/0.0439854/0.56869/0.260387/0.613814/0.591585/-0.492579/-0.788746/-0.72618/0.0723736/-0.555534/-0.254965/0.651236/0.103216/0.0260409/0.888669/-0.261699/-0.49779/-0.353825/-0.721613/-0.645239/0.0552209/0.943559/-0.333293/0.156018/-0.950547/0.468382/-0.0883557/1.01643/-0.566675/0.977369/-0.849391/0.739795/0.458557/0.523141/-0.661978/0.776148/-0.757395/-0.332723/0.107855/0.132785/-0.206413/-0.191114/-0.582646/0.0367455/-0.564985/0.299432/0.549061/-0.906813/0.656256/-0.423421/0.657823/0.0945249/0.537965/-0.841308/0.923757/-0.0450775/0.821012/-0.612371/0.288952/-0.501368/0.272064/0.1487/-0.5328/-0.871748/0.248928/-0.895542/0.163924/-0.268963/0.356189/0.130264/-0.894352/0.805529/0.54447/0.913972/-0.883969/0.25342/-0.0927032/0.871002/-0.847203/0.0529578/0.14083/-0.290271/-0.576393/-0.904964/-0.819769/-0.171721/-0.333246/0.398761/-0.470796/-0.316113/-0.809782/-0.570507/0.0448725/-0.9239/-0.182548/0.830922/-0.603508/0.934379/-0.244449/0.126081/0.22499/-0.596379/0.663218/0.459357/0.621327/-0.167793/0.437837/0.19045/-0.962557/-0.278673/-0.975118/0.238184/-0.815841/-0.390781/0.433451/0.418129/0.0693309/-0.928981/0.509384/0.158535/-0.98112/0.234789/0.360358/-0.632032/0.0201712/0.993289/-0.533102/-0.532737/0.310479/0.222883/0.000993095/-0.99629/-0.448188/0.104819/-0.295245/-0.167894/-0.110813/-0.978514/0.975099/0.961062/0.696015/-0.979125/0.732195/0.913505/0.935054/-0.55137/0.980685/0.0313721/-0.465645/0.959656/-0.0276514/0.848438/0.257374/-0.384717/0.606892/-0.73183/0.146091/-0.650883/0.604141/-0.202596/0.963095/0.741062/-0.977927/-0.016985/0.352902/0.155473/-0.966508/-0.0943078/0.969629/0.561254/0.999094/-0.221161/0.943503/-0.544503/0.539028/-0.558284/0.912715/-0.00411244/0.88221/-0.69067/-0.0868279/0.683581/0.952285/-0.939179/-0.776592/-0.491138/
0.400791/0.0934811/-0.863642/0.771135/0.473305/0.897677/0.973462/0.249098/0.00838945/0.247177/0.405339/0.530421/0.782643/0.154814/0.269255/0.078944/-0.422624/-0.272586/-0.644216/-0.269727/0.695906/0.0854125/-0.472066/-0.0054802/-0.105793/-0.0588933/0.180555/0.583589/0.384197/-0.809222/-0.575499/0.428965/-0.966879/-0.609878/-0.333723/-0.96288/-0.480004/-0.0255364/0.790865/0.356797/0.481475/0.757318/0.800017/0.186632/0.125588/-0.973943/0.643037/-0.501401/-0.105311/0.1947/-0.503621/0.268355/0.589103/0.0133317/-0.331374/-0.197546/-0.161433/0.798206/-0.333007/0.611604/0.767644/0.532303/0.915042/-0.546089/0.119694/-0.35052/-0.519077/0.669469/0.6308/-0.589115/-0.235388/0.41191/-0.774612/-0.533857/0.139822/0.69848/-0.6865/1.05509/-0.309665/0.291122/0.734134/-0.739333/-0.0149174/-0.312829/0.289531/0.13886/-0.90247/0.303152/-0.701715/-0.2021/0.737503/-0.573184/0.250343/-0.879709/1.02668/-0.082539/-0.452858/-0.732022/0.841158/-0.899066/-0.779606/0.22135/0.0306696/-0.865158/0.868484/0.0187931/0.721795/-0.666261/0.379232/0.542994/0.108736/-0.190097/-0.968138/0.508065/0.343207/-0.108189/0.739858/0.94629/0.710969/0.906467/-0.96904/0.688818/0.575995/-0.473602/0.0468234/0.668285/0.286575/0.678075/-0.623256/0.0411193/0.530855/-0.150224/0.353645/-0.568188/0.591466/0.513145/-0.526236/-0.706164/0.0117438/0.356227/-0.894502/0.0991919/0.269756/0.340263/-0.353236/0.469154/-0.21873/-1.0163/0.394049/-0.577598/-0.11/0.830462/0.424938/-0.403701/-0.848897/0.0838786/0.304774/0.378839/0.0133102/0.45951/-0.916793/0.782933/0.687739/0.863335/-0.00531013/0.930713/0.305672/0.266226/0.452505/-0.74011/-0.107171/-0.268014/0.869644/0.810523/0.676198/-0.277097/-0.200851/-0.247183/-0.376967/0.0296995/-1.00886/0.330383/-0.602165/0.890694/-0.530908/0.428765/0.1815/-0.924023/-0.651474/-0.0185778/0.613125/-0.659494/-0.290918/0.932563/-0.78116/0.182716/0.902075/-0.826373/0.870628/0.275976/-0.166405/-0.566615/-0.623692/0.465249/-0.922775/0.0832989/-0.0292225/-1.13145/0.271628/-0.619356/1.12708/-0.354184/-0.0782651/-0.192758/-0.0962384/-0.407093/0.507514/-0.356976/0.778393/0.183303/-0.466884/0.40883/-0.333533/0.922857/0.465903/0.42895/0.151787/-0.877/-0.747718/-0.638113/-0.782112/1.02108/0.338308/-0.0445876/0.0679466/-0.451531/-0.62352/0.743093/-0.610514/0.845468/0.731382/-0.0586046/-0.322223/-0.138965/0.468508/0.318909/-0.581039/-0.721162/-0.772976/-0.382555/0.437496/-0.690473/-0.774474/-0.578717/-0.194394/-0.37993/0.409787/-0.0438994/-0.891281/-0.0717644/-0.352095/0.744504/-0.117334/-0.636255/0.357249/0.234622/0.767213/-0.491875/1.0691/0.570658/-0.345402/-0.36591/0.683203/0.720022/0.0777533/0.302092/0.503447/-0.280094/0.993932/0.207826/0.935735/0.88612/0.986715/-0.919234/0.236928/0.930201/0.244005/-0.29823/-0.975373/-0.00483398/-0.369294/-0.358764/0.062269/0.0307477/-0.643477/0.97274/1.13431/-0.668661/-0.59686/-0.580316/-0.262283/0.369615/-0.459618/-0.716197/-0.317058/0.114942/-0.427222/-0.988979/0.232363/-0.67143/0.757845/0.781132/0.13887/-0.935423/0.0754411/-0.897945/0.236628/0.332188/-1.00177/-0.539639/-0.642057/0.560849/0.553241/0.222788/0.928694/-0.248667/-0.286649/0.781792/0.538279/-0.788011/0.742256/-1.08283/-1.16267/0.675477/0.823787/-0.174106/-0.205875/-0.133677/1.06195/-0.441218/0.623157/0.047747/-0.746148/0.63129/-0.783888/-0.941357/0.205654/0.556326/-0.251118/0.116847/-0.633583/0.562852/0.312907/0.738995/0.518665/0.904412/-0.296792/0.504407/-0.597299/-0.583619/-1.16212/0.512351/0.0808693/-0.203539/-0.884629/0.0450335/-0.573581/1.12815/0.447799/0.484296/-0.437495/-0.901186/-0.0204551/-0.326763/0.174001/0.253374/-0.343838/0.0765825/-0.505095/0.34785/-0.436191/0.280732/-0.590802/-0.452273/0.694326/-0.96197/-0.0644126/-0.971153/-0.308338/0.127329/-0.603956/0.431857/0.21468/0.15739/-0.666096/-0.38719/0.103726/0.492467/-0.62729/0.0418551/-0.548717/0.111317/-0.740071/0.82266/0.0150453/0.549044/0.723738/1.24483/0.69203/-0.47559/0.887946/0.213246/-0.756359/0.491704/-0.0661682/0.0478171/-0.915417/-0.32576/-0.320199/0.429557/-0.435673/-0.324098/1.07073/0.026917/0.878091/-0.51436/0.598394/-0.411072/-0.888842/-0.275963/0.547763/0.505223/0.00887607/0.997286/-0.39888/0.483781/0.160215/0.000440437/0.933083/-0.838284/-0.0966368/0.569465/-0.249765/-0.0544788/0.590091/-0.432954/-0.902264/0.0204613/-0.107496/-0.664107/-0.377463/-0.189651/0.654742/-0.917224/0.388916/0.0942854/-0.490037/-0.735245/0.305507/-0.37388/-0.0826224/-0.00419736/1.03271/1.14377/-0.200021/0.133287/0.659983/0.434065/-0.195566/0.53545/0.239678/0.260737/-1.08687/0.258365/0.905126/-0.125631/0.499881/-0.493223/-0.628868/0.266614/-0.642002/-0.118227/-0.0202034/-0.947809/-0.674348/0.443004/-0.39356/-0.7946/0.922356/-0.320593/-0.0900648/-0.599883/-0.781046/0.66015/0.7996/-0.926696/-0.853886/0.0308668/0.903355/0.147045/-0.512573/0.172898/0.622686/0.515448/-0.858858/-0.817232/0.785634/0.968201/0.529214/-0.411493/0.376606/-0.3567/0.429046/-0.320107/0.197459/-0.215571/1.03975/-0.144708/0.430505/0.181569/-0.697693/-0.992719/0.84802/-0.354879/0.413806/-0.698705/-0.0943254/0.940178/0.780038/-0.870497/0.530801/-0.278633/-0.992579/-0.279236/0.201251/0.720826/0.0735239/0.9214/0.924137/-0.458158/0.763576/0.204771/0.693181/-0.473158/0.95527/-0.678751/-0.829508/-0.0792309/0.806496/-1.00644/-0.981646/0.19852/0.0176308/-0.0670319/0.375791/-0.145713/0.72949/0.638282/0.308099/0.929768/0.619162/0.250441/0.742432/-0.480383/-0.470843/-0.375522/1.09268/-0.188679/0.0822009/-0.0276888/0.271364/0.368743/0.48346/0.629561/-0.381419/0.0381929/-0.379252/0.739969/-0.984233/-0.167594/0.875062/-0.162779/0.800811/0.461097/0.518755/-0.0731717/0.21612/-0.812876/0.000378132/0.360896/-0.904334/0.504645/0.05612/-0.365305/-0.808026/0.95461/-0.135389/-0.545288/-0.257494/-0.467894/-0.653485/0.327865/0.635384/0.553526/-0.0971393/-0.679538/-0.920635/-0.940745/-0.942023/0.399112/0.106786/0.476731/-0.755564/0.519175/-0.442727/0.526137/0.776712/0.208948/-0.0588987/0.579818/0.91422/-0.56644/0.669619/-0.19644/-0.741249/-0.317626/0.574694/-0.631609/-0.693672/-0.146225/0.263542/0.00925086/0.623037/0.415878/-0.809248/-0.905042/-0.710238/0.453199/0.483542/-0.878318/0.0693557/-0.260685/0.425217/0.018941/0.341475/-0.82771/-0.446955/0.0203117/0.237792/-0.840745/0.171248/0.144738/0.472908/0.203599/-0.335011/0.417953/-0.633916/1.00211/0.744313/-0.320024/0.0426323/-0.523241/-0.185412/0.217926/0.192989/0.674326/0.825275/0.776942/-0.411895/0.997193/-0.177117/-0.902932/0.423593/-0.675979/0.0495623/0.591751/-0.563873/0.772537/0.981058/1.02286/-0.368608/0.177418/0.402379/0.95161/0.180863/0.387627/0.567554/-0.361086/-0.773695/0.614083/0.367047/-0.122598/0.91041/-0.350501/-0.418524/-0.0195738/0.775356/-0.0748341/-0.691973/0.463993/0.326197/0.385921/0.226991/0.207398/0.892507/-0.468094/-0.640033/-0.760923/0.417707/0.289102/0.733126/0.86928/0.920507/0.541246/0.0328354/-0.345375/0.569917/0.490807/-0.395679/0.690226/-0.840174/0.0231441/0.624328/0.288525/-0.216153/0.218885/0.667432/0.915175/-0.660519/0.665046/-0.503853/0.0144857/-0.044107/-0.800936/-0.937723/-0.6484/0.393379/0.973532/0.941199/-0.891415/-0.0195702/-0.816843/-0.552618/0.279729/-0.672938/0.457081/0.531581/-0.65666/0.774641/-0.312104/-0.653313/-0.046817/0.979389/0.584738/-0.363601/0.973806/0.764773/-0.4675/0.725199/0.416773/0.703756/0.0292483/-0.423219/0.960039/0.34759/-0.0698955/-0.734324/0.217085/0.539843/-0.860197/0.663337/0.699849/0.358309/0.101076/0.791124/0.429022/0.565255/0.236544/-0.404857/-0.437564/-0.13283/-0.471416/0.903665/-0.109051/-0.783601/
0.764842/0.704749/0.718182/0.493142/0.237796/0.971488/-0.27937/-0.604954/0.0607836/0.304066/-0.562984/-0.0747449/-0.237121/0.791272/0.942296/0.288661/-0.0891398/0.196589/-0.159178/-0.807977/0.329275/0.12077/-0.214455/-0.338043/0.506223/0.0977777/-0.650171/0.576216/0.467304/-0.0194979/0.434092/0.392294/0.0383533/0.972336/0.304353/-0.456426/0.982702/-0.0596502/0.98828/1.00201/-0.911067/-0.252752/-0.856812/0.469703/-0.561702/-0.318278/-0.739019/-0.635574/0.405273/-0.614249/0.702343/0.912583/-0.717595/0.836935/0.194113/0.776959/0.357709/0.0137323/0.729863/-0.574275/-0.180386/0.788978/-0.54862/-0.388178/1.04666/0.322293/0.848371/0.688345/-0.812639/-0.861982/0.04778/0.0670377/0.0774281/-0.627497/-0.84815/-0.0851814/1.037/0.336087/-0.88719/-0.14251/-0.309929/-0.594541/0.313115/0.890164/0.988883/0.149665/0.274661/-0.128752/-0.946764/0.61367/0.927086/-0.132163/-0.838135/0.837471/-0.507512/0.972639/-0.547242/-0.564602/0.222309/0.879219/0.674958/0.520788/0.86645/0.27032/0.12727/-0.49807/-0.0942491/1.02911/0.690134/0.63292/0.760487/0.158485/-0.339997/-0.332944/0.590564/-0.555728/0.255865/-0.639252/0.954522/-0.425116/-0.523317/-0.229646/-0.920431/0.62962/0.597584/-0.943813/-0.343418/0.37165/-0.84986/-0.473747/0.0513177/-0.0452514/0.819312/-0.481632/0.814719/-0.0750493/-0.757205/0.876392/0.437397/0.748032/0.171911/-0.691749/0.719517/-0.710584/-0.0770667/-0.308909/-0.681342/-0.936215/-0.748838/-0.54365/0.43724/0.409334/-0.649308/-0.284417/-0.941839/-0.537505/-0.492432/0.326983/-0.38145/-0.359768/-0.114741/-0.885968/0.497287/-0.924911/-0.78176/-0.616879/-0.646705/0.0737158/0.942264/0.636576/0.79829/0.385302/-0.518766/-0.132241/0.181921/-0.538331/0.372021/0.794071/0.397812/0.537798/-0.879477/-0.409304/-0.0293302/0.234194/-0.560642/0.37788/0.730119/0.347915/-0.124934/0.255546/0.428035/-0.919093/0.24648/-0.584828/-0.648963/-0.892125/0.0512085/0.658452/-0.536483/0.55251/-0.785631/0.412757/-0.180256/0.893919/-0.28395/-0.69565/-0.906782/-1.00717/-0.505312/-0.454532/-0.437406/-0.3308/-0.039658/-0.67556/-0.574725/0.696999/0.632014/-0.699598/0.520474/0.128386/0.879487/-0.253015/-0.964827/0.755041/-0.0234502/-0.128698/-0.492612/-0.218913/-0.734672/0.928885/-0.332673/-0.493394/-0.36275/-0.773947/-0.0514387/0.842306/-0.382135/0.345333/-0.0989898/0.58346/0.394531/-0.569527/0.217588/-0.86725/0.245204/0.702811/-0.942457/0.245845/-0.58816/0.665968/-0.0951954/0.160196/0.41341/0.187113/-0.457024/0.625003/-0.639083/0.662142/0.886603/0.254041/0.0647703/-0.975778/0.585282/-0.382695/-0.271094/-0.101023/-1.04207/-0.814148/0.168958/-0.06539/0.197995/0.581829/0.287937/-0.755196/0.205899/-0.455945/-0.343823/-0.0759147/-0.461055/0.778487/0.0330368/-0.749394/-0.84121/-0.620443/-0.27055/0.337711/0.900621/-0.580632/0.913302/0.444045/0.469514/-0.708972/-0.950048/0.995147/-0.768238/0.0244043/0.699314/0.0541404/-0.638078/-0.352626/0.837213/-1.08648/0.174749/0.420865/0.0578435/-0.519815/-0.00926634/-0.791577/-0.0330437/0.636842/-0.775616/0.641509/-0.740386/-0.251014/0.553235/1.02676/0.52649/0.551012/0.464797/-0.386226/-0.16747/-0.257498/1.11947/-0.266936/0.313269/-0.750002/-0.723418/0.51944/-0.624375/0.477833/0.317402/0.404889/-0.13428/1.03348/-0.0740361/0.677298/-0.655974/-0.9594/-0.896573/0.0535314/-0.302201/0.474432/-0.203413/0.837107/-0.661958/0.590537/-0.468261/0.690382/-0.708903/-0.151172/0.555245/0.232886/0.964292/-0.138892/-0.639688/-0.314533/0.853446/0.0549592/0.278729/0.931923/-0.235828/0.893598/0.314758/-0.398683/-0.659203/0.780162/0.172058/1.11828/-0.398383/-0.160632/0.630929/-0.0555817/0.207387/0.418318/0.253899/0.870037/1.1753/0.923363/0.372972/0.782473/0.929867/0.93873/0.185951/1.12896/0.701563/0.347058/-0.708316/0.00145813/1.17212/0.317102/-0.932223/0.41356/0.697332/0.057866/0.722073/0.869484/-0.160476/0.402748/0.468811/-0.677872/0.792406/-0.484522/0.957939/0.712346/0.349807/1.03254/1.14769/0.324428/0.16675/0.693471/0.626601/0.137357/0.00143587/1.11264/-0.667953/0.0653859/-0.153214/0.914193/0.364735/-0.163326/0.979238/0.0603261/0.603152/-0.567532/-0.242927/-0.18636/0.20432/-0.489957/-0.051358/0.758536/0.0160491/-0.729359/0.941985/1.19585/0.276065/-0.137195/0.598923/0.488108/-0.442987/0.705648/1.02035/0.328199/-0.12967/1.12336/1.19414/0.139124/0.133044/-0.490619/0.162087/0.207108/-0.9449/-0.0715025/-0.205038/0.349611/-0.0469299/-0.827093/0.0603396/-0.541832/0.53828/0.505277/-0.627762/0.931965/0.510323/0.857849/0.646114/-0.390992/-0.442643/0.95368/1.07706/-0.737597/0.969926/0.443135/0.0964928/-0.334277/-0.193765/-0.640233/-0.404227/0.159624/0.561903/-0.240224/0.417449/0.219304/-0.00611913/0.789294/0.606381/-0.89547/-0.525069/-0.332687/-0.585941/-0.372874/0.277238/0.787918/-0.694785/-0.277863/0.764877/-0.074575/0.0450892/0.505934/0.959622/0.59094/-0.616388/-0.903873/0.441201/0.971508/0.139762/0.981017/-0.845428/-0.0164126/0.437141/-0.315449/-1.0377/0.557194/-0.480489/0.204831/0.615413/0.0406279/-0.487192/-0.181107/0.894083/-0.658579/-0.719063/-0.137959/0.625594/-0.0641989/-0.989828/-0.00971406/0.430852/0.126722/-0.821123/-0.459063/0.0911309/0.871453/0.511388/0.898628/0.976226/0.490216/-0.0953924/-0.689444/0.135643/-0.948285/0.201991/0.743969/0.967862/-0.452499/-0.042611/0.518442/0.437796/-0.771189/-0.0791364/-0.152108/-0.542452/-0.0830034/0.0266004/-0.790483/0.333142/0.777356/-0.335656/-0.813716/-0.805024/0.354051/0.526879/-0.74096/-0.161295/0.955332/0.19881/0.34055/0.167019/0.175325/-0.138824/-0.63868/0.790622/0.322108/0.968874/-0.261275/0.0669603/-0.524128/-0.574409/-0.693327/-0.63034/-0.248979/-0.55959/-0.123618/-0.317238/0.316446/-0.252297/-1.02588/-0.0817044/0.0534779/0.802434/0.501828/-0.603936/0.463823/0.910862/0.647249/0.0608214/-0.322604/-0.972306/-0.0833822/0.616712/0.538359/-0.953419/0.148189/-0.334187/-0.0851416/0.0677362/-0.344818/-0.587158/-0.931938/0.829666/-0.749945/-0.62525/0.756425/-0.481107/0.60217/0.772084/0.490659/0.498943/-0.257675/0.959219/0.789692/0.897421/-0.64054/-0.555958/-0.87735/0.680325/0.539741/0.771423/0.509167/-0.134306/-0.677641/-0.864304/0.844048/0.171442/0.847535/0.636947/0.648658/0.585445/-1.02292/-0.750085/0.19087/-0.992826/-0.134205/-0.263292/-0.0563728/0.541905/-0.195584/1.017/-0.852666/0.881896/0.646011/0.902821/0.591751/-0.595434/0.950042/-0.301889/-0.167817/0.318022/0.846732/-0.715517/-0.658716/-0.521859/-0.334433/0.422962/0.0950838/-0.532088/-0.39562/0.693211/-0.403294/-0.428714/0.128764/-0.202085/0.559653/0.091442/0.865587/0.422023/-0.522756/0.345204/-0.766595/0.141384/-0.237063/0.443248/0.256431/0.709794/-0.228369/0.963202/-0.46751/0.0884478/0.337412/-0.143675/-0.817911/0.997019/0.06557/-0.0577572/0.0679296/0.434611/0.78869/-0.12431/-0.949842/0.121325/-0.559804/-0.622145/-0.399917/0.0629454/-0.715466/0.24142/-0.815345/0.0364896/-0.299803/-0.608546/-0.532709/-0.245015/-0.0695958/-0.520259/-0.573168/0.834057/8.98227e-05/0.0599806/-0.337342/-0.675969/0.131155/-0.534565/-0.199515/0.327599/0.884307/0.913927/-0.656494/0.478546/-0.0601693/0.734112/0.21349/0.23218/-0.59215/0.0184212/0.959249/-0.375616/-0.00367684/-0.671819/0.797225/0.44395/-0.32545/-0.932573/-0.908909/0.630044/-0.0913096/-0.442599/0.990336/-0.127873/0.564612/0.157229/-0.0502278/0.954581/-0.350371/-0.727499/-0.133271/-0.965888/0.957872/0.950987/-0.759691/-0.126807/0.75403/0.975578/0.545266/0.28399/0.806473/0.0490981/0.891661/0.139186/-0.69592/-0.32036/-0.292335/0.733708/-0.571168/0.386426/0.664672/-0.862968/0.0970031/0.331118/-0.905168/0.838941/0.0877632/-0.964569/0.485991/0.0494371/0.889756/0.293405/
0.118255/-0.487242/0.923801/0.322502/0.298018/0.752924/0.192259/-0.935537/0.977084/-0.262776/-0.517431/-0.469282/0.778004/-0.0895914/0.229849/-0.85075/-0.553284/-0.980652/0.569951/-0.608027/0.892155/0.454798/-0.217564/-0.598264/0.976636/0.316665/0.191816/-0.144311/0.572721/-0.280214/0.515183/-0.109729/-0.776972/-0.509891/-0.63042/0.663169/-0.702908/0.320407/0.302726/-0.141589/0.796566/-0.631411/-0.829856/-0.92676/0.236165/-0.772422/0.339239/0.862162/-0.280549/0.0431677/0.899273/0.332934/-0.659392/-0.634575/-0.154756/0.984605/0.250794/-0.910652/-0.214101/0.499788/-0.389826/0.226213/-0.761788/0.731324/0.552938/0.567814/-0.230057/-0.717584/0.475866/-0.69166/0.862354/-0.206301/0.957384/-0.32297/-0.841701/-0.0138623/-0.830157/0.835499/0.839839/0.339081/-0.895419/0.130947/0.801616/-0.519869/0.567282/0.311646/0.491618/0.578919/0.495582/0.905933/0.142463/-0.40863/0.927547/0.0209124/-0.246628/-0.130667/-0.536628/-0.439344/0.63851/0.589219/-0.786579/0.0541278/-0.545733/0.349614/0.578242/-0.421849/-0.794107/0.6637/-0.55644/-0.679271/-0.489592/0.14658/-0.422348/-0.407265/0.645753/-0.729072/0.72431/-0.411029/-0.0311823/-0.84198/0.834669/-0.00222897/0.551598/0.0266694/-0.127491/-0.377793/0.606839/0.350662/0.558871/0.342707/-0.676674/-0.104488/0.842389/0.0369922/-0.945403/-0.233436/0.668724/0.482366/-0.339499/0.465504/-0.281884/0.375064/0.672456/-0.516043/0.149202/-0.0603544/-0.99337/-0.213333/-0.450254/-0.601073/-0.900843/0.407122/-0.214355/0.407183/-0.799099/0.067032/-0.374941/0.553917/-0.336864/0.0379133/-0.89391/-0.541204/-0.105532/-0.0310475/0.665204/-0.922099/0.109939/-0.480029/0.148845/-0.362302/-0.117309/-0.0629021/0.0205692/-0.682486/-0.508369/0.407248/0.752585/-0.239668/0.676285/0.187562/0.477314/-0.749335/-0.806426/0.482105/0.148955/1.02203/0.0177376/0.449469/0.577836/-0.589918/-0.442273/-0.254702/-0.237198/-0.023473/-0.909059/-0.0661224/0.681322/0.977035/0.972178/-0.281766/0.638783/-0.851858/0.323059/-0.636021/-0.00527137/0.961151/0.235602/0.692529/0.643329/-0.87844/-0.223629/-0.193068/0.245586/0.904408/0.43722/-0.708061/-0.385494/-0.946999/-0.923525/-0.14004/-0.685938/-0.276653/0.170899/0.400868/-0.618956/-0.790065/-0.0437354/-0.220098/-0.351707/-0.723755/-0.144688/0.166831/-0.482391/0.540176/0.94465/-0.767652/-0.652067/-0.0211356/-0.624161/-0.227211/0.585547/-0.109208/-0.16957/-0.551538/-0.651373/0.756143/0.199142/-0.30748/0.00286066/0.429887/0.283372/0.516198/-0.259029/0.496778/0.762875/0.812471/-0.887298/0.343154/0.322985/-0.595057/-0.657341/0.68091/0.0870115/0.686199/0.699574/0.0619851/-0.607171/-0.74521/0.332334/0.726926/-0.358223/0.542651/-0.46153/0.335859/1.08699/-0.752117/-0.195513/0.296479/0.645438/0.937151/0.692003/0.485203/-0.139137/0.557996/0.42685/0.999197/-0.211888/0.246787/0.199554/0.728732/-0.155141/-0.292172/-0.218108/0.620325/0.69776/0.722684/-0.157051/-0.288339/0.59445/0.0943194/-0.658928/-0.662216/-0.402609/-0.269047/0.462107/0.607777/0.180498/0.201861/0.684421/-0.936944/-0.994307/-0.80836/0.633187/-0.88308/-0.213806/-0.805463/0.803291/0.837304/-0.399244/-0.970377/-0.901207/0.799781/0.141684/0.352223/-0.649999/-0.103238/0.150017/0.653697/-0.565339/1.03831/-0.176668/0.116709/-0.00892402/0.0455986/-0.059489/-0.854381/0.422734/0.894402/-0.406268/-0.269829/-0.725845/-0.219384/0.237089/0.506135/0.0855191/0.718341/-1.02322/-0.148801/0.226315/-0.92858/-0.0102414/0.775862/0.482565/0.977331/0.161366/0.60152/0.0604944/0.929058/-0.874949/0.308187/0.551887/-0.491077/-0.052889/-0.16931/0.405682/0.28886/-0.744836/0.936351/-0.102073/0.430309/0.648427/-0.736589/0.181729/0.282665/-0.714868/-0.0367082/-0.332383/0.470355/-0.0715133/-0.629423/0.768142/-0.178473/-0.631754/-0.384874/0.852036/-0.59028/-0.748922/-0.231853/-1.03972/-0.0379813/-0.0902743/-0.815375/-0.00506051/0.946921/0.305047/0.133424/0.794491/0.873821/0.752458/-0.176905/-0.364993/-0.745978/-0.659316/0.381663/0.632579/0.000212344/-0.769216/0.7933/0.596145/-0.00440001/0.97496/-0.339499/-0.248161/-0.130388/-0.511265/-0.571386/-0.795357/-0.880479/0.533259/-0.402907/0.340601/0.487024/-0.923534/-0.333442/-0.28398/-0.469708/-0.344497/-0.418915/-0.438748/-0.761338/0.179628/-0.875765/-0.0688221/-0.649345/0.6014/0.872756/-0.817139/-0.763001/-0.300648/-0.544726/-0.805316/-0.816899/0.207462/0.363256/0.570274/0.470355/0.924225/-0.0988986/-0.188072/-0.922307/0.917239/-0.863357/-0.824781/0.0571915/0.508509/0.687239/0.291539/0.121936/-0.847419/-0.471846/-0.748502/-0.740893/-0.312083/0.353785/-0.397044/-0.146735/0.674442/-0.363106/0.896693/-0.314036/-0.0767735/-0.476929/0.96402/-0.0803805/-0.797673/-0.164921/0.201942/0.039022/-0.605359/0.592176/-0.819492/0.426144/0.799697/0.148589/-0.405555/-0.190102/0.326249/-0.36922/-0.722621/-0.753041/-0.571875/0.921461/0.515538/-0.503225/-0.614532/-0.719933/0.134418/0.39422/-0.638662/0.968529/0.683081/-0.639184/-0.3942/0.0933922/-0.35743/0.683281/-0.85971/0.269453/-0.106145/0.382641/0.736373/0.00980354/-0.194547/-0.521587/-0.681363/-0.742343/-0.753832/-0.595104/-0.439874/0.0084323/-0.199907/0.4718/-0.185365/0.300358/-0.272902/0.500719/0.395261/-0.618313/-0.227215/-0.195628/-0.587342/0.294121/-0.708813/0.987751/-0.211528/-0.21273/0.400741/-0.280581/0.501602/-0.796291/-0.405764/-0.672297/-0.860383/0.00470646/-0.564255/0.65774/0.738485/0.940004/-0.141084/0.216694/0.313819/-0.300039/0.424811/0.157725/0.849468/-0.633986/0.729669/-0.522188/0.371942/0.234904/0.0382304/0.53972/-0.132313/0.890454/-0.574944/-0.784706/-0.456417/-0.9422/0.977304/-0.763157/0.600299/-0.520741/-0.339185/0.0293169/-0.95734/-0.424506/0.430825/-0.18548/0.380747/-0.0278473/0.450883/0.827235/-0.514776/-0.595551/-0.125623/-0.257947/-0.311116/-0.570224/0.24132/-0.135965/-0.920503/-0.67286/0.219408/-0.765705/-0.705237/0.657718/0.0938793/-0.620398/0.00735112/0.0584959/0.52943/-0.810408/-0.44377/-0.639939/0.799692/-0.514969/-0.286929/-0.761963/0.673011/-0.294409/0.223893/-0.390817/-0.192863/0.92887/-0.851804/0.881247/-0.87366/0.390988/0.281109/0.245687/0.563929/-0.0509816/-0.729733/0.570993/-0.397546/0.00406825/-0.501448/0.081349/0.469426/0.263574/0.708985/-0.71684/-0.264837/0.501434/0.136752/-0.303146/0.747117/0.606696/0.367312/-0.426491/0.407869/-0.680106/-0.85527/0.453774/0.583285/-0.725102/0.298612/-0.587848/0.254929/-0.674522/-0.21115/-0.620455/-0.533533/0.0379954/0.760902/-0.880207/0.093721/-0.755381/0.48247/0.455551/-0.857857/0.457912/0.484441/-0.38399/0.231468/0.226664/-0.988916/-0.770327/0.384444/-0.56432/0.597515/0.27351/0.876831/0.898184/-0.596071/0.609942/-0.21293/-0.573106/0.00992076/0.764656/-0.502149/0.271675/-0.35167/-0.460987/-0.992906/0.0296726/-0.691511/-0.624942/-0.87054/-0.417259/0.404681/-0.178771/0.201856/0.438001/-0.347025/-0.909923/0.434295/-0.518546/0.070179/0.32291/-0.854412/-0.100678/0.49641/0.585205/0.211832/-1.01702/0.450388/0.647447/-0.406956/0.319726/-0.0392861/-0.793537/0.929169/-0.610507/0.0763353/-0.838283/-0.351547/-0.126732/-0.0562142/0.0872102/0.496975/0.483909/-0.957446/0.228855/0.436468/0.673871/-0.0911399/-0.868327/0.0364363/0.384713/-0.163861/-0.832177/0.869776/0.730268/0.836444/-0.203099/-0.944273/0.135122/-0.542949/-0.972107/-0.547116/-0.156466/-0.058745/-0.995126/0.776517/-0.458846/0.856644/0.452936/-0.889206/-0.584884/-0.280302/-0.296101/-0.337335/0.980606/-0.347852/-0.349546/-0.813111/0.0359464/0.151762/0.659972/0.149572/-0.136/0.240181/0.72868/-0.783762/-0.683151/0.281268/-0.733979/0.018052/-0.599283/-0.150544/-0.189681/0.0383566/0.658889/-0.0530285/0.750185/0.359399/0.417269/-0.955604/-0.83455/-0.275302/0.99207/-0.279828/0.924566/-0.629377/
