-0.999984/-0.736924/0.511211/-0.0826997/0.0656238/-0.5616/-0.905351/0.359216/0.358864/0.869491/-0.232996/0.0388327/0.661984/-0.930822/-0.893063/0.0594274/0.342283/-0.984857/-0.233176/-0.866316/-0.165028/0.373545/0.177953/0.860873/0.692334/0.0538576/-0.81607/0.307838/-0.168001/0.402388/0.824072/0.52604/-0.482463/-0.911863/0.461966/-0.375525/0.269973/0.518828/1.05907/-0.229716/-0.445542/1.00537/0.469097/0.558073/0.348222/-0.847706/0.220396/0.761233/-0.455082/-0.145732/0.538638/-0.0245215/-0.495412/-0.441546/-0.281592/-0.666986/-0.0269652/0.798613/0.840628/-0.889255/0.788702/-0.0234446/0.0247479/-0.252422/1.0451/-0.0389826/-0.586253/-1.05744/0.597491/-1.12147/-0.198866/-0.269081/-0.434783/0.849234/-0.0148244/-0.0227656/1.03122/-0.647927/0.811457/0.763546/0.905506/-0.6399/-0.970202/0.376911/0.736494/0.260915/0.519759/0.43347/0.958017/0.833753/-0.245984/0.0475262/-0.284298/-0.278495/-0.33469/0.165881/-0.585978/0.266074/-0.868528/-0.18578/0.330207/0.419489/-0.128703/-0.463398/-0.376383/0.572547/1.22461/-0.453829/0.418741/0.168994/0.901349/0.496585/0.109168/0.784127/0.317889/0.689576/-0.676946/-0.423098/0.782717/-0.395371/-0.634987/-0.301315/-1.07934/-0.0832161/-0.836789/0.472101/0.963784/0.108989/0.442648/0.572428/1.37493/0.838193/-0.0133596/0.947061/0.382711/0.418541/0.5352/-0.523885/0.173234/0.691151/0.180217/0.901617/0.0897072/-0.844889/0.64237/-0.0244697/-0.494042/-0.000311558/-0.54105/0.0790674/0.18008/1.48131/-0.140131/-0.270504/-0.197258/0.615068/-0.524397/0.592992/0.91371/1.41926/0.250233/0.45379/0.0320201/-0.183985/-0.628986/0.906406/-0.140646/-0.715958/0.894974/-0.192606/-0.804101/0.518971/-1.16032/-0.55379/-0.966957/-0.469524/-0.655398/-0.631547/1.20582/0.432373/0.334859/0.129163/0.356568/0.808751/0.379735/-0.521392/0.430472/1.19461/-0.425002/0.821233/0.253435/0.525335/0.436236/0.683191/0.521306/-0.07551/0.902735/0.251659/-0.0938604/0.66941/0.587542/0.531273/0.449496/0.904252/0.442645/-0.508155/0.230001/0.320323/-0.531462/-0.156092/0.0911232/0.656517/-0.00802145/0.600795/0.813737/0.71382/0.567755/-0.0759715/0.346271/-0.359766/0.729098/-0.1319/-0.0583098/-0.869612/0.426845/-0.0316475/0.343866/0.15877/-0.739075/0.738311/0.203091/0.704668/-0.245466/-0.924546/0.021242/0.961121/-0.478972/0.0370749/-0.110502/0.259181/0.848403/-0.0531544/0.186945/0.804347/-0.263918/-0.52364/0.968043/-0.340638/0.0690162/-0.22033/-1.03169/-0.998242/0.546704/0.464195/-0.182292/-0.445115/-0.306684/0.515909/-0.448306/0.730099/0.378119/0.604231/-0.439123/-0.662563/1.07336/0.626388/0.264106/-0.0723212/-0.532505/-0.414805/0.584132/0.938265/0.197939/0.175119/0.274441/-0.434213/0.495038/0.510311/-0.189418/-0.435688/-0.612065/-0.984709/-1.00027/0.70255/-0.922288/0.792151/-0.29507/0.164167/0.725259/0.142807/1.10829/-0.193013/1.23119/-0.183266/0.361519/-0.0356841/-0.193862/0.246714/0.387618/0.548009/0.996157/0.866861/0.166594/0.53474/-0.793563/0.32942/-0.586634/-0.362444/0.399669/-0.747927/0.405273/-0.147/-0.374106/-0.141198/-0.920852/0.149806/-0.512495/-0.0965436/0.443178/1.03789/0.391781/-0.31307/0.75466/-0.0979681/-0.784604/0.176453/-0.0499528/0.461012/0.768862/0.0281449/-0.441916/-0.0398792/-0.287819/0.207872/-0.0695847/-0.224338/-0.441414/-0.868813/-0.110238/-0.268947/0.411056/0.388136/0.134541/-0.135943/0.628565/1.2972/0.309138/1.26491/-0.0954832/-0.0371779/0.896795/0.679742/-0.0420496/0.548179/1.4834/-0.479535/0.530188/-0.439303/-0.265659/-0.224724/0.0587346/-0.871029/-0.416835/0.285958/0.0922732/0.80831/-0.170163/1.14033/-0.617555/0.784059/0.499347/-0.478257/0.794976/-0.330583/-0.225853/0.305864/0.211333/0.329593/1.12672/0.69183/0.864755/0.746433/0.0319313/0.762009/-1.07381/-1.28034/-0.0526069/-0.893281/-1.00023/0.937359/0.621054/0.493358/-0.127149/-0.972765/0.312219/0.115531/-0.55646/0.931788/0.403719/-0.586984/-0.148501/0.298995/0.50413/-0.01342/0.0694036/-0.134961/0.800884/-0.346787/0.491459/-0.259397/-1.21005/-1.06596/-0.390002/0.396526/-0.232106/-0.751934/-0.620158/-0.275328/0.519873/-0.405956/-0.898795/0.00662626/0.128149/-0.407385/0.0261898/0.162696/0.201715/0.29091/0.0786358/-0.42742/0.199136/-0.227118/-0.260408/1.33852/-0.00064857/-1.05599/0.377534/-1.43295/-1.02356/-0.980221/-0.126122/0.447432/1.00819/0.799655/-0.774617/-0.593984/0.942604/-0.623448/-0.297363/0.247774/0.435967/-0.611735/0.830717/1.64141/-0.230585/0.652732/1.06086/-0.70111/-0.977726/-0.620699/0.712111/0.092923/-1.34434/0.0817287/-0.526165/-0.451456/-0.686759/0.116682/-0.788324/-0.244409/-0.190043/0.0729391/-1.60071/-0.878064/0.163259/-0.136357/-0.834987/0.389044/-0.153236/0.56783/-0.532002/1.44679/-1.00386/-0.843741/-0.0235677/0.687312/1.12602/-0.965799/-0.861605/0.113805/-0.251941/0.405878/-0.172032/0.368548/0.869962/-0.569978/-0.413884/-0.407577/-0.00395752/-0.242817/-0.343442/-0.442363/-0.588492/-0.532617/0.306023/-0.622812/0.595999/-0.594795/-0.614177/0.678432/-0.466538/1.21633/-0.268561/0.133101/0.883657/-1.33436/-0.604241/0.25655/-0.063767/-1.13408/-0.792631/-0.605601/0.525367/-0.896037/-0.327266/0.602412/-0.436554/-0.811029/-0.837892/-0.067719/-0.609261/-0.657241/-0.25496/0.919618/1.09578/-0.237414/-0.393619/-0.330211/0.614508/-0.190673/-0.165325/-1.09238/0.360625/-0.668999/-0.520414/-0.546013/0.260482/-0.219848/-0.135145/-0.214623/0.00815534/-0.0754817/-0.5551/0.231619/-0.22371/-0.325173/-0.181053/-0.45409/-0.220904/-0.519119/-0.833829/-0.168823/0.376175/0.189469/-0.847553/-0.852657/0.893408/0.390577/0.394155/0.204376/-0.950263/0.0999352/-0.54479/-0.0925811/-1.03142/-0.182876/-0.322656/0.696616/0.113601/-0.925479/-0.327922/0.534841/0.100603/-0.499797/0.832171/-0.867287/0.58605/0.892089/-0.65769/0.19214/-0.599074/0.440601/-0.552474/-0.403931/0.256889/0.537806/0.429354/-0.683025/0.160749/-0.0578873/-0.787921/-0.716788/-0.958312/0.562819/-0.774867/-0.138117/0.828864/-0.441212/-0.617189/-0.605285/0.487657/0.434334/-0.218662/-0.820705/0.411443/-0.243268/-0.598711/-0.574209/-0.34519/-0.379176/0.345993/0.905618/-0.116415/-0.73255/0.39338/-1.10158/-0.0479956/-0.474432/0.335935/-0.0825319/-0.701704/-0.107769/-0.103583/-0.0707416/1.08175/1.00124/0.575713/0.593279/-0.565667/-0.718104/0.596228/0.0249308/-0.0651565/0.863829/0.381545/0.644902/-0.0373579/-0.217473/-1.22971/0.702487/0.727589/-0.323015/-0.407082/-0.174468/-0.894971/-1.2175/-0.196672/-0.874337/-0.0540525/0.393518/-0.0595657/0.526697/0.820267/0.746647/-0.837022/-0.417083/0.558551/-0.1378/-0.853757/-0.747297/0.842924/-0.556687/-0.239771/0.182077/-0.687645/-1.27421/-0.114858/0.306744/0.404245/-0.627206/0.572844/0.913161/0.729522/-0.329383/-0.153189/0.572332/0.413064/-0.268554/0.131733/0.0352398/0.237522/-0.36655/0.933558/0.224015/-0.355143/0.146922/0.471365/0.327051/-0.807098/0.0974726/0.221475/0.342176/0.00119652/0.0224816/0.0351977/-0.178994/-0.697115/0.109142/0.697618/-0.762348/-1.03865/-0.0790844/-0.351752/-0.772893/-0.480286/-0.767962/-0.221307/0.185739/0.298977/0.186516/0.78423/0.389976/-0.0194969/0.0228564/0.379055/0.413468/-0.179877/-0.026301/-0.0404343/0.420773/0.0707418/-0.445192/0.191956/-0.489/0.364362/0.0640655/0.937387/-0.460026/-0.193157/0.149123/0.580483/0.836668/0.34704/0.65945/0.0751143/-0.53279/-0.713014/0.778643/-0.49715/0.298885/-0.99061/0.880235/-0.437451/0.721149/-0.441358/0.904862/0.0136399/-0.7541/-0.167049/0.404943/-0.127018/-0.784522/0.53235/-0.800248/-0.117464/-0.310847/-0.405872/0.515242/-0.322981/-0.338483/-0.888788/0.146366/-0.0294279/-0.595036/-0.771051/0.948696/0.729219/-0.0163185/-0.26521/0.609825/-0.675592/-0.68084/-0.884554/-0.701497/0.486428/
-0.238783/0.767409/-0.151733/-0.175504/0.302609/-0.383217/-0.879487/0.629288/0.795865/0.839058/0.802436/0.540093/-0.658406/0.144885/-0.936895/0.607134/0.0450304/0.723774/-0.446019/0.738988/0.173724/-0.221656/0.623791/0.0513405/0.879743/-0.159924/0.159725/0.49829/0.761568/-0.323831/-0.621269/0.487893/0.433927/0.756129/-0.854342/0.425409/0.759941/-0.223361/-0.781018/-0.689164/-0.19356/-0.843359/0.325867/0.124835/0.657292/0.814485/0.570361/0.237363/0.763577/0.746526/0.00187174/-0.752169/-0.202037/-0.228506/0.376081/-0.756521/-0.846356/-0.713943/-0.100604/0.407118/-0.575549/-0.222889/1.01446/0.245231/0.316494/1.02022/-0.00831371/0.772585/0.549435/-0.259632/-0.976906/-0.282969/-0.423096/-0.497592/-0.110581/0.440076/0.587853/-0.341856/-0.0850559/-0.118016/-0.495075/0.951086/-0.179889/-0.523179/0.92632/0.664374/-0.590136/-0.713396/-0.556656/0.000251422/0.467435/-0.0384153/-0.118299/-0.168552/-0.218066/-0.322503/-0.0779235/-0.616108/-1.48304/-0.462009/0.413249/-0.111652/-0.0467087/0.674142/0.457267/0.830652/0.793869/0.476273/0.85706/0.459598/0.290956/0.289796/0.59807/-0.246285/-0.193682/-0.073765/-0.132072/0.787659/-0.233702/0.142476/0.542197/1.03869/-0.0281454/-0.598294/-0.108888/-1.37569/0.564687/-0.120267/0.309657/-0.13923/0.0509533/0.204173/0.731832/-0.906462/0.412774/-0.234305/0.623816/0.0633381/-0.725987/0.511711/0.331946/-0.976675/0.675949/0.315288/-0.272572/0.0254112/-0.460662/-0.215061/0.133248/0.701456/-0.268478/0.178046/-0.339988/-0.643189/-0.518521/-0.0186803/0.78402/1.09912/0.0326955/0.847716/-0.194426/-0.737516/-0.845158/0.433899/0.120257/-0.103565/-0.0768637/0.255661/0.888904/-0.190784/-0.893133/0.268315/0.259671/0.233865/0.208986/-0.982785/-0.81506/0.795816/1.27942/0.522509/0.302295/0.907869/-0.859651/1.28441/-0.346154/0.934138/0.373234/-0.344984/0.418413/0.0963363/0.428965/0.159257/-0.209008/0.400893/0.206597/-0.300942/0.0697524/0.297223/-0.368291/0.908926/-0.186917/0.659217/-0.516683/1.48499/0.0209874/0.428192/0.947889/1.40764/-0.114901/0.226812/0.172364/0.554047/0.645841/0.486189/-0.46467/0.789718/-0.346223/-0.921376/-0.325314/0.316955/-0.747142/-0.420386/0.608564/0.20481/0.246485/0.646769/0.265372/-0.555278/0.445742/0.476291/-0.188609/-0.0865836/1.11205/0.52915/0.0173778/0.344096/-0.626188/0.0636039/1.14569/0.248708/0.697645/0.669777/-0.890588/0.508769/-0.609077/0.125427/0.314273/-0.177413/1.40605/1.34894/0.154596/-0.933993/0.381863/-0.0191802/0.288848/0.434849/-0.252197/0.695988/-0.339382/0.561666/0.0571989/1.11289/-0.177822/1.30092/0.528379/-0.178695/1.50417/1.50026/0.164689/-0.443015/0.887671/-0.679516/1.17453/0.532611/0.300297/-0.832906/-0.345525/0.727077/-0.0639741/0.311775/0.010118/0.0935582/-0.718258/0.459748/0.585474/-0.188916/0.309004/0.597187/0.617849/-0.42179/-0.341452/0.680579/0.793102/-0.103378/1.42861/-0.542854/-0.276267/0.15841/0.0327366/0.388967/0.865006/0.857647/0.358368/-0.608312/-0.598318/-0.340491/-0.638484/-0.552606/0.342703/-0.161338/0.596878/0.137685/0.253647/0.446112/0.777234/0.456406/0.195975/1.11216/0.367144/-0.0126348/0.0235086/0.693078/-1.00044/0.236702/0.127699/-0.663131/-0.22749/-0.77527/-0.0861901/-0.814155/-0.49775/-1.51512/1.16646/-0.357489/-0.414734/-0.0359026/0.58556/-0.496312/-0.380999/-0.543355/-0.0228869/-0.461815/0.92487/-0.0123794/0.098634/0.51052/0.181516/0.776356/-1.07603/-1.06359/-0.378245/-0.294782/-0.887829/0.593291/-0.740762/0.241337/-0.340284/-0.488375/-0.0723295/-0.307886/0.233103/-0.504312/0.869152/0.57094/-0.213098/0.451795/0.776917/0.71229/-0.84555/-0.821784/0.375887/-1.39455/-0.0286135/-0.600494/0.00272959/0.210718/0.0535568/0.0529993/0.312477/-0.11507/-0.779282/-1.21317/-1.06252/-0.960613/0.347956/0.237963/0.784578/-0.259295/1.12099/-0.38024/0.218867/0.709206/-0.370785/0.208119/-0.934987/-0.108675/-0.598074/-0.278049/-1.2566/-1.43366/0.330685/-1.00132/-0.903541/0.789303/-0.873391/-0.958946/0.474368/-0.869493/0.416596/-0.990079/-0.924908/0.442084/0.441558/-0.994103/-0.732127/0.758166/-0.522404/0.497494/-0.532576/-0.201571/0.198388/0.288338/-1.20355/0.389259/0.460039/-0.119203/-1.23492/-0.940801/0.505015/0.35612/-0.294265/0.422966/-0.513573/-0.183046/-0.125389/-0.462707/-0.941849/-1.05387/0.26065/-0.309543/0.871794/-0.687483/-0.202366/-0.830431/0.588227/0.388031/0.21047/-0.336393/0.24801/0.259068/-0.202801/-1.42195/-1.69391/0.503532/-0.911416/0.121368/-0.228524/-0.296053/-1.05705/-0.0324211/-0.368115/-0.0727875/-0.0371344/-0.0712339/0.416273/-1.05508/0.0605107/-0.828686/0.0374389/0.85204/0.360725/-0.189706/0.386747/0.170539/0.553588/0.679592/-0.102559/0.185524/-0.0420155/0.164561/-0.253515/-0.166177/-0.577275/0.483635/0.371411/0.103017/0.144373/-0.551664/0.895939/0.792967/-0.740758/0.062273/-0.355716/-1.11127/-0.336906/0.233461/-1.0599/-0.76763/-0.718077/0.473035/-0.548544/0.21017/-0.222196/0.570146/0.444586/0.0787225/-0.0466483/0.540346/-1.27021/-0.0264376/-0.585939/-0.331891/0.0918738/0.503627/0.0170678/1.1636/-0.592574/-0.165456/-0.0913032/0.529921/-1.73674/-0.389976/0.281798/-0.662315/0.212075/0.317345/0.872217/0.498178/0.129903/0.774904/-0.677902/0.201469/0.085649/-0.620348/-0.864351/0.215599/-0.0870288/0.480289/0.205919/0.779914/0.907871/0.620175/0.118623/-0.442516/0.247875/-0.708218/0.278912/-0.231967/0.0175776/-0.990602/0.638854/0.898309/-0.482894/-1.07813/0.400306/0.234312/-0.0829965/0.00221192/0.0468674/-0.0117672/0.229003/0.738726/0.22502/-0.276921/-0.629029/0.714424/-0.184534/-1.29078/-0.938211/0.191402/-0.0345515/0.124714/0.816737/-0.430344/-0.574725/-0.0750159/-0.703303/0.0907865/-0.402112/-0.684291/-0.146058/0.303239/-0.000649854/0.293545/-0.529442/0.604645/-0.92207/-0.0493116/-0.779736/0.92813/0.44547/0.865019/-0.484089/0.519424/-0.180949/-0.128929/0.610928/-0.386864/0.629775/0.421973/-0.413949/-1.20882/0.0223386/-0.866047/0.0511679/-0.215811/0.734494/-0.198604/-0.505669/-0.49551/-0.665105/0.558371/-0.218741/0.609265/-0.893882/0.851246/0.898788/-0.143079/-0.346471/-0.14686/-0.24089/0.494045/-0.47303/-0.267027/0.561071/0.798748/0.588246/0.279727/-0.109607/-0.811972/-1.24322/0.0947358/0.613355/-0.64705/-0.322786/-0.246243/-0.487871/-0.220908/0.402456/0.174466/-0.467041/-0.497343/-0.0770646/-0.358351/-0.812713/0.703026/-0.0287605/-1.08185/-0.428907/-0.0449767/0.285115/0.315706/0.028423/-0.275325/-0.670127/-0.724453/-1.26056/-0.779468/-0.218708/0.713086/-0.92171/-0.748118/-0.428261/1.09547/0.841478/0.771445/0.00973715/-1.07624/-0.420644/0.631327/0.875475/0.166127/0.097813/-0.0504931/0.646392/-0.414797/-0.878964/-0.240419/-0.0516623/1.16686/1.42609/-0.968715/-0.391825/-0.333055/-0.172922/-0.361615/-1.16233/0.186486/0.594142/0.199317/0.757625/0.00688618/0.183798/0.201561/-0.575021/-0.236176/0.406873/-0.592929/-0.388317/-0.630064/0.513253/0.248237/0.368437/-0.227625/-0.542312/-0.468268/0.220061/0.286984/-0.543866/0.851553/-0.229786/-1.02334/-0.924557/-0.318115/0.742021/-0.675176/-0.183205/-0.145785/-0.178401/-0.641626/-0.243225/-0.20533/0.384638/0.248468/-0.989981/-0.469008/-0.845486/0.0880575/-0.017756/-0.422576/-0.48502/-0.0846891/0.35004/-0.344615/-0.991055/0.968669/-0.796609/-0.341423/0.905369/-0.311656/-0.694082/0.938253/-0.768654/-0.880243/0.963932/0.650417/-0.54288/-0.784562/-0.476502/-0.124337/-0.514781/-0.428737/0.0993496/0.753496/0.703303/0.340936/0.115221/0.515666/0.803993/0.70676/0.519395/-0.5321/0.996466/-0.484864/-0.25117/-0.400994/0.491044/0.983669/0.532627/-0.142781/0.28333/-0.0723981/-0.795064/-0.636239/0.726721/0.00671518/0.86195/0.796072/-0.417668/0.258282/0.9508/0.0880979/0.661338/-0.89038/-0.550348/
0.950588/0.530418/0.739755/-0.935322/0.036377/-0.251568/0.953826/-0.584129/-0.507214/0.198879/0.793009/0.098957/-0.83165/0.553252/0.561363/0.455334/-0.857673/0.799459/-0.859156/0.989322/-0.460165/-0.000453702/0.374635/0.49687/0.889295/0.379415/0.823546/-0.657546/0.630664/-0.434289/-0.0358035/0.824185/0.401696/-0.201293/-0.661641/0.801339/-0.572413/0.0917525/-0.249138/-0.490642/0.540186/-0.566905/0.314496/-0.325204/-0.00428752/-0.134416/0.15631/0.301272/-0.988094/0.656996/-0.227278/0.101837/0.960062/0.498206/0.586906/0.517398/-0.0935436/-0.185656/-0.502262/0.454806/-0.575921/0.367006/-0.203601/-0.398483/-0.148197/-0.205402/0.388406/0.623974/0.11522/0.506369/-1.00798/0.839034/-1.26103/-0.684026/-1.18792/0.0191559/-1.38808/0.244648/1.14945/-0.422281/0.359821/-0.814955/0.110461/-0.233238/-0.0371404/-0.215897/-0.127404/0.370168/1.16226/0.75007/0.422079/-0.804095/-0.0611698/0.121985/0.541106/-0.11319/-0.23594/-0.580946/-0.724665/-0.781139/-0.759067/-0.247627/-1.1974/-1.23236/-0.710112/0.188475/0.569491/-0.434701/0.15438/-0.291528/-0.823443/-0.0134905/-0.734371/-0.56129/0.0196697/0.112213/1.44689/1.16417/-0.0434249/0.113957/0.808858/1.28149/-0.548087/-0.086023/-0.133231/-1.12963/-0.304586/-0.664745/-0.321118/-1.48183/-1.13544/-1.14781/-0.515775/-0.39336/-0.236209/-0.724196/0.435969/-0.523152/0.747525/0.582313/0.928393/-0.497131/-0.398349/0.323552/0.794689/0.302888/0.29113/0.155382/0.910716/-0.0313268/-0.992594/0.714264/0.684314/-0.248915/1.00559/-0.212894/-5.60988e-05/0.0777937/-0.837674/-1.11024/0.403428/-0.428426/0.38381/0.573737/0.252262/-0.674248/0.127403/0.661366/-0.414255/-0.388061/0.878599/1.12658/0.585849/-0.204936/0.308464/-0.332925/0.852341/0.306343/-0.186794/-1.08659/-1.05551/-0.836808/0.0423647/-0.269636/0.018903/0.0238386/0.0337804/-1.3043/-0.827731/-0.342574/0.241173/-0.440452/-0.502879/0.504336/-0.412749/0.193405/0.56042/0.971124/0.704565/0.587763/0.759935/0.282323/0.775298/0.749378/0.55432/-0.564153/-0.233021/-0.546259/0.214369/0.145553/0.82844/0.866009/-0.298289/-0.616629/-0.540598/-0.793482/0.427648/-0.0210593/-0.36509/-0.0385397/-0.869759/0.447497/-0.878146/0.124612/0.358085/0.342481/0.3628/0.259116/1.04699/-0.377958/0.766925/-0.687971/-1.23908/-1.25818/0.430903/-0.487991/0.836495/-0.251656/-0.230352/0.754957/-0.215838/-0.115269/0.230442/0.0404822/0.278059/-0.268155/0.40431/0.299503/0.509693/0.175849/-0.634812/0.0127801/0.795542/0.659431/0.807061/0.882412/0.837743/-0.362999/0.220119/0.406389/0.501671/0.528893/0.569984/0.302876/0.0220994/0.320648/0.574369/0.426057/0.973434/0.123815/1.0054/-0.371241/-1.11735/0.32008/0.502088/-0.584674/0.3671/0.534659/0.170686/0.889621/-0.139294/0.852878/0.238631/-0.635199/-0.402408/1.06647/-0.521519/-0.289393/-0.734998/1.1121/-0.875084/0.962672/1.08905/0.365276/-0.463469/-0.102173/0.939371/0.751881/0.151458/-0.104711/-1.01746/-0.228909/-1.06073/-0.971569/-0.0288515/0.527127/0.809781/0.931673/0.634131/-0.194478/0.0901059/0.0559896/-0.0635856/0.231305/0.693024/0.49823/0.758738/1.10856/-0.0211941/-1.39872/0.824552/-0.0280105/0.672225/0.235533/0.128724/0.897309/0.0554331/0.149814/-0.432576/-0.300844/0.48587/-0.124259/0.303167/-1.13173/0.790907/-0.594072/-0.566522/0.410316/-0.1049/1.02906/0.75494/0.700127/-0.737645/-0.227499/-0.52553/0.555447/-0.0229447/-0.731517/0.152523/-0.324377/-0.274756/0.378789/-0.913464/0.800593/0.617762/-0.0924183/-0.814856/0.638622/-0.745/0.260715/0.224968/-0.735577/0.31904/-0.128455/-0.944399/-0.549053/-0.769332/0.230257/-0.280933/-0.0894791/0.462981/-0.000521475/1.05586/-0.592403/-0.157678/0.180021/0.735649/-0.43992/-1.17715/-0.0636525/-0.330123/0.0927913/0.837924/-0.257224/0.22507/0.963795/0.353131/-0.402498/-0.0159893/-0.0699316/-0.349661/0.450583/0.94398/-0.563712/-0.757814/-0.860147/0.782852/0.455019/-0.291391/0.612565/0.202134/-0.957336/0.734618/0.209565/1.26625/0.216872/0.237078/-0.539218/0.710001/-0.454755/-0.242508/-1.55758/-0.998889/1.054/-0.874956/0.194122/0.905618/0.70853/0.13748/-0.577315/-0.939242/0.031568/-0.0623288/-0.859581/-0.483453/-0.66426/0.270991/-0.36927/-0.619007/-0.365797/0.93412/-0.704636/-0.169487/0.456617/-0.280962/-0.347909/-0.284734/0.811979/-0.301556/0.303798/-0.435976/-0.737577/0.180808/0.23287/0.236798/0.0180684/0.621078/-0.0823185/0.472263/-0.780109/-0.541539/-0.91255/0.0181643/0.447426/1.01818/0.196275/0.421423/0.59395/1.0173/0.949655/-0.494598/-0.475323/-0.255695/0.135482/0.224558/0.522056/-0.670571/0.447936/-0.0324967/-0.5865/0.225263/-0.566729/0.987104/0.226822/0.0174754/-0.18223/-0.0735809/-0.812579/0.126736/-0.904188/0.456099/-0.426338/-0.544953/0.777123/0.601002/0.715688/-0.0441557/0.0982474/-0.15729/0.395542/-0.195858/0.0979959/-0.0923211/-0.617382/-0.247914/0.312866/0.172834/-0.415806/0.471076/0.397529/0.474478/-0.234177/0.0324974/-0.752554/-0.168821/0.46843/-0.952799/-0.33058/-1.27166/-0.0667948/0.00927808/0.0855847/0.5147/0.71985/0.0432746/0.22749/0.742988/0.857276/0.957605/-0.637711/-0.160261/-0.475329/0.384443/-0.0394048/0.714769/0.821905/0.593275/-0.0070955/1.09158/-0.36662/-0.0674486/-0.531978/-0.953052/-0.0280261/0.448909/-0.709134/-0.811737/-0.417813/-1.14493/-0.246483/-0.311537/0.554869/-0.0264287/-1.01235/0.280398/-0.907204/0.339772/0.139007/0.0125697/-1.03539/1.52175/-0.180074/0.752868/-0.288904/0.36601/0.650655/-0.520744/0.747996/0.233304/-0.965544/0.0943805/0.205331/-1.05802/-0.869362/-0.258328/-0.611501/-0.499534/0.175368/0.565413/1.25599/1.27036/-0.789296/-0.130596/-0.745927/-1.51357/-0.987917/-0.329857/0.374789/-0.494962/0.0839172/-0.36706/0.77261/-1.12026/0.173792/0.713905/0.721337/-0.218274/0.295746/0.595652/-0.977762/0.637243/-0.0350978/0.771899/-0.733705/-0.0532719/-1.24872/-0.00504943/-0.0104055/1.28445/0.597635/-1.03094/-0.906658/0.762504/-0.396237/-1.22173/-0.735013/0.416999/-0.72557/0.324408/-0.49727/-0.671699/0.0723437/-0.400373/1.01782/-0.572635/0.324355/-0.557574/0.853524/-1.1238/0.317361/-0.323179/0.237144/-0.377767/-1.00871/0.400037/-0.263415/0.347909/-0.490672/-0.339371/-0.113552/0.947439/1.10021/0.263216/0.61391/-0.604073/0.687481/-0.831059/-0.493861/-0.231658/0.0816376/0.819066/0.720985/-0.599314/0.0874269/-0.61621/-0.605238/0.00692508/0.314871/0.126568/-0.221992/-0.561793/-0.28694/-1.05783/0.245574/-0.565641/-0.517496/-0.141057/-0.29506/0.0440837/0.159772/-0.6024/-0.843652/0.202662/-0.454208/0.917632/-0.354731/0.585713/0.733511/1.05767/0.972452/0.020843/0.590029/0.618172/-0.38718/-0.0698819/-0.449013/-0.440451/-0.558496/0.643679/-0.528091/-0.390615/-0.0606968/-0.159651/0.165769/0.723567/0.105972/-0.850853/0.838274/-0.240631/-0.214539/-0.248604/-0.708345/-0.473567/-0.604687/0.0882519/1.00885/-0.615767/-0.172953/0.744613/-0.608168/0.512203/0.603408/0.674437/0.670948/-0.130197/0.37376/0.315602/-0.789754/0.354827/-0.901133/-0.0871176/0.51556/-0.463881/0.236007/0.0153589/-0.0337496/0.733401/-0.8247/-0.295209/-0.540645/-0.266708/0.00187568/1.04655/0.908777/-0.037146/-0.633123/0.367197/0.0315829/0.813125/0.193947/-0.196868/0.50731/0.979268/-0.305856/-0.249043/0.877109/0.580018/-0.854493/-0.740765/-0.790488/0.537692/0.575547/0.551351/-0.250563/-0.303118/-0.730751/-0.524597/-0.800845/-0.946966/-0.751519/0.414565/0.422493/-0.823198/0.162251/0.862006/0.175295/0.17927/0.990668/0.152861/-0.870736/-0.454944/-0.248259/-0.486468/-0.523995/0.621165/0.965761/-0.450689/-0.731773/-0.910675/0.283344/0.157572/0.311303/0.0705481/-0.297802/0.839219/0.758681/-0.844925/-0.656827/0.703871/-0.0331461/0.913143/-0.807985/0.19535/-0.75386/0.492126/
-0.759101/-0.206743/-0.731819/0.322356/-0.156806/0.347387/-0.484355/-0.0535912/0.139727/0.560962/-0.625842/-0.534104/-0.691611/0.267097/0.201281/-0.0288455/-0.805676/-0.937984/-0.313347/0.569931/0.834047/-0.173686/0.862589/-0.468169/-0.509085/-0.185839/0.600064/-0.71612/0.17351/0.185289/0.625208/0.367868/0.0314647/0.653795/0.307389/0.0630725/-0.26933/0.565153/-0.574087/-0.795334/0.0671518/0.106486/0.369976/0.201061/-0.417088/0.64434/-0.635363/-0.152633/-0.883827/-0.749275/-0.894006/-0.663042/0.584689/-0.326335/-0.44054/0.68373/-0.553623/-0.741283/0.041705/-0.395372/-0.303923/-0.29055/-0.664865/0.0870436/-0.619064/1.12325/0.725101/0.59759/0.0963215/-0.576429/-0.801472/0.115742/-0.747197/-0.459845/0.861256/-0.229175/-0.7793/-1.05223/-0.687047/-0.566909/-0.51579/0.747038/0.738674/-0.418413/-0.26275/-0.0500231/-0.58641/0.448847/0.594458/-0.603845/0.939906/-0.300262/-1.02805/0.783034/-0.676692/-0.00291154/-1.05312/-1.23305/0.424349/-0.139277/-1.10627/-0.103355/0.648572/0.462202/0.0190236/-0.659805/-0.141624/0.294116/-0.535263/1.162/-0.638373/0.439875/0.971579/-0.692967/0.134472/0.298698/1.03458/-0.589197/0.780904/-0.505775/-0.180935/0.0011483/-0.700126/-0.247904/-0.639629/-0.675899/-0.763083/-0.4366/0.141805/0.435408/-0.149355/-1.64201/0.0722258/-0.197232/0.126207/0.127697/0.300266/0.265638/0.242067/-0.239189/-0.0536159/0.873134/0.409641/0.276093/-0.666358/0.350511/-0.869118/0.51214/0.126714/0.387873/-0.870151/-0.939783/-0.623244/-0.0603629/0.252025/-1.15056/0.46162/-0.193611/-1.61071/-0.603254/-0.376264/-0.187463/0.894014/0.349816/0.108239/0.547562/-0.937066/-0.38651/-0.0672979/0.919312/-0.281302/-0.895688/-0.621223/-0.240523/1.13537/0.816263/-0.564503/-0.0862696/0.154756/-1.11904/0.20418/0.508982/-0.0574905/0.224816/-0.457669/-0.552565/0.623661/-0.801118/-0.285897/0.201877/-0.708898/-0.595039/0.737919/1.06277/-0.0499827/0.802165/-0.0194559/-1.01468/-0.747258/0.585744/0.864093/-0.833649/-0.34186/-0.300846/0.894156/-0.718789/0.227159/0.824223/-0.354041/-0.315761/0.225622/-0.765091/0.452753/-0.442612/0.19831/-0.0634749/-0.0672229/0.471957/-0.417964/-0.17923/-0.334645/0.339747/-0.0406656/-0.160702/-0.911251/0.579465/-1.02123/0.627472/0.123378/0.205081/0.0327194/-0.581159/0.943407/-0.70881/0.325671/-0.646687/-0.960694/-0.180729/0.809307/0.0875367/-0.0567851/-1.12838/0.128578/-0.0549463/0.490261/-0.736649/-1.07215/0.761589/0.51942/0.956999/-0.760406/0.627925/-0.470708/0.793437/0.12289/-0.956124/0.0528085/0.953025/0.125541/-0.493542/1.23981/0.598925/-0.829724/-0.933537/-1.13238/-0.222227/-0.92168/-0.853116/0.364114/-0.558259/0.106164/0.358051/-0.945176/-1.33052/0.328854/0.716051/-0.224184/-0.228851/-0.524898/-0.0606054/-0.595361/-0.220187/0.503435/1.08438/0.249254/0.0363412/0.265409/0.491153/-0.927859/-0.546473/1.2074/-0.825872/-0.213838/-0.269529/-1.04354/0.0672828/-0.78633/-0.164211/-0.38553/0.0134261/0.229208/0.480476/0.444382/0.737076/-0.508989/-0.41295/0.958936/-0.689511/-0.606697/-0.745825/-0.495257/1.01392/-0.568585/0.36121/0.403977/-0.231692/-1.365/0.660013/0.0579406/0.540444/-0.726321/-0.80096/-0.416808/0.0114455/0.676876/-0.325637/0.764903/-1.33994/0.702777/-0.460454/0.374554/-0.6235/0.746909/-1.20948/0.739232/-0.768505/-0.264888/-0.019211/-0.886475/-0.236897/0.164389/0.109241/0.186687/0.253088/-0.0232046/0.660533/0.953877/-0.940741/0.328691/-0.476015/0.441119/-0.638116/-0.562675/0.249573/-0.879292/0.0237728/0.0430369/0.451368/0.539696/-0.0330957/0.309465/-1.48367/-0.00648937/0.917697/-0.265671/0.797797/-0.273049/0.533715/-0.0918414/0.9052/0.491215/-0.0378796/-0.709569/-0.274061/0.94335/0.123921/-0.209273/-0.287716/-0.480119/0.634747/0.219411/-0.0199252/-0.79198/0.38698/0.804019/-0.714924/-1.09965/-0.155446/0.57999/-0.538048/0.472759/0.294738/-0.335117/-0.33452/-0.78502/-1.06133/0.862192/0.288067/-0.56834/0.822588/-0.572818/0.370172/-0.211213/0.154404/-0.402688/0.112769/-0.162086/0.443708/0.639649/-0.427068/0.0467583/-0.124458/0.264218/0.126006/-0.11821/0.399987/-0.329573/0.843884/0.00348426/0.741052/0.865749/0.593238/-0.190167/-0.737036/-0.242744/0.560216/-0.683429/0.776736/1.03333/0.335315/0.40362/0.373154/0.835339/1.04132/-0.503545/0.466828/-0.520052/-0.504614/-0.392166/-0.373799/0.342278/0.0134982/-0.707641/-0.688211/-1.21774/-0.852302/0.231367/-0.606218/-0.697845/-0.727711/0.333567/0.611626/0.103065/0.186748/-0.331389/0.166191/0.847159/-0.488295/-0.837726/0.650356/-0.90049/0.154373/1.54122/0.685567/-0.645/0.675038/-0.553193/0.479565/0.940363/-0.444352/0.30296/0.348266/-0.81923/0.346388/-0.511788/0.613841/-0.665461/-0.4423/-0.922205/-0.597392/0.268198/0.662794/0.00748439/-0.291806/-0.608454/-0.293093/0.644885/-0.155793/-0.411132/-0.0380108/-0.256756/0.933946/-0.607214/-0.22633/0.311474/-1.16096/-0.525813/-0.0887188/-0.851967/-0.0816576/-0.727616/0.804762/0.713937/-0.603297/0.382459/-0.0647314/-0.605026/-0.123632/1.39263/-0.278926/-0.00797535/0.0759863/-0.574702/-0.959857/0.686417/0.645102/0.653033/-1.06164/0.274261/-1.26769/-1.79478/0.711505/0.594716/-0.224607/-0.150663/-1.31311/0.324987/-0.633297/-0.788807/-0.605216/0.682477/-0.101384/0.0372577/0.208854/-0.251125/0.344519/-0.550151/0.163699/-0.340076/0.272069/0.0512658/0.63194/1.54992/0.231451/0.712303/0.20686/-0.0762072/-1.68731/-0.772181/-0.468482/-0.507663/0.309956/-1.26419/-1.18657/-0.592548/-0.814452/-0.972731/-0.51027/-0.188146/0.360559/-0.0771332/-0.408866/0.276177/-0.767143/0.0761452/-0.419567/-0.564382/-0.252027/0.47391/-0.974389/0.162838/0.343108/0.514559/0.24819/0.0684132/1.10626/-0.292058/-0.455931/-0.245361/-0.606829/0.62865/0.835515/-0.363856/0.525907/0.174029/-0.0975512/-0.624229/-0.393136/0.564579/0.844778/-0.182929/-0.929584/-0.858407/-0.541886/0.758013/0.37027/0.678518/1.27375/0.797996/0.436983/-0.856578/0.26803/0.697481/-0.196851/-0.207804/0.0967039/0.750252/-0.170955/-0.403473/-0.0527025/-0.83308/0.308387/-0.111058/-0.808309/0.666524/0.825145/0.204463/0.343081/-0.426529/-0.678315/0.132102/-0.0279312/0.944295/0.946729/-0.0489218/-0.256181/0.882453/-0.551759/-0.713699/0.534546/1.12725/1.15405/0.636279/0.610948/0.406504/-0.644911/0.134955/0.704379/0.277133/0.800473/-0.997045/-0.934565/0.428156/0.0214086/-0.186046/-0.912222/-0.955199/-0.563569/-0.546152/-0.675248/0.901801/-0.11209/-0.0577542/-0.345267/0.136994/0.0559601/0.588325/0.86346/-0.0198854/0.669389/0.250593/1.33297/0.786335/0.465894/-0.0351846/-0.407567/-0.617786/0.718889/-0.963412/-0.51126/0.20994/-0.547383/0.135501/-0.643374/-0.0176279/-0.358727/0.49202/0.361426/0.257193/-0.887831/-0.195355/0.338237/0.893264/-0.0264291/0.0309382/0.708558/0.555032/1.28565/0.205615/0.531611/1.24613/0.969946/0.286653/0.424043/-0.800177/-0.109457/0.0279066/0.54169/-0.410873/-0.225502/-0.00500479/-0.0981453/-0.313227/0.951122/-1.06395/-0.263804/0.767059/1.29987/0.247251/-0.573786/-0.93746/0.739954/-0.150651/-0.037809/0.0716767/0.0479424/0.836223/-0.750146/0.274654/-0.310969/0.00867312/0.749083/0.0745435/0.0614231/-0.384437/0.142353/0.734075/-0.251939/-0.332046/-0.691166/0.741793/1.03585/-0.763848/-0.440422/-0.917035/0.256498/0.781704/0.267043/-0.807545/0.59877/0.79039/0.935155/0.48869/-0.572068/0.758192/-0.617743/0.994166/0.313266/-0.29756/0.561105/-0.529905/0.119454/0.110481/-0.36619/-0.820489/0.111465/-0.602499/-0.202127/0.859479/-0.733743/-0.0105195/-0.800992/-0.274638/0.150637/0.510845/-0.253682/0.361113/-0.780158/-0.113831/0.849771/0.105602/0.848125/0.44186/0.33298/0.399182/-0.949927/0.569377/-0.482494/0.717157/-0.735373/0.580189/-0.759569/-0.0770809/0.500744/0.0329622/
-0.985183/0.0234555/0.216638/-0.966052/-0.438286/-0.127591/-0.627073/0.87082/0.853367/0.557485/-0.13542/-0.0113557/-0.855698/-0.839849/0.250747/0.887518/-0.92474/0.419601/-0.138881/0.018195/-0.19604/-0.841939/-0.463394/-0.265634/-0.505519/-0.255683/0.740486/-0.651992/-0.0353905/-0.807971/-0.849185/0.911722/-0.473648/-0.192773/-0.585911/0.290145/1.01133/-0.557745/0.208765/-0.0167396/-0.632128/-0.251563/-0.971532/0.550645/-0.291991/-0.745282/-0.0315401/0.354411/0.965416/-0.537224/0.277415/-0.611962/0.769345/0.613515/0.694673/-0.507704/-0.979465/0.138621/-0.0609445/-0.487444/-0.0136427/-0.229082/0.839093/-0.82827/-0.0970791/0.935849/0.295209/0.687754/-0.599236/1.18149/-0.622484/-0.1048/0.222853/0.834504/0.169233/1.17485/0.0983053/0.461131/-1.23847/0.473397/0.484406/-0.977931/-0.807351/-0.293151/-0.983742/0.247709/0.209768/0.199473/-0.137437/-1.14919/-0.185162/-0.129533/-0.770574/-0.314261/1.15963/0.627066/1.60679/0.369076/1.53028/1.44864/-0.493478/0.384988/-0.175802/1.02013/0.165313/0.130588/0.162921/-0.436834/-0.19763/-0.129358/0.639239/0.626565/0.68567/0.0510431/-0.206231/0.206347/-0.419757/-0.465954/-0.203673/-0.453931/1.1171/0.886811/1.03392/0.600499/0.596202/1.19445/-0.496177/-0.547496/0.487545/-0.0923707/-0.107843/-0.0824961/0.892006/-0.0884726/0.352525/-0.431338/-0.812619/-0.347107/0.226577/-0.0356012/-0.350137/-0.742347/0.098672/0.0687588/-0.0382681/-0.462951/0.492424/-0.164298/0.928641/-0.328282/0.058238/1.07567/0.440998/-0.16765/0.821139/-0.21377/-0.800968/-0.581397/1.14273/-0.0247418/0.311837/0.000945432/-0.179554/0.0397935/-0.620217/-0.0379725/-0.149001/-0.239098/-0.517268/0.265744/0.813632/-0.747874/-0.180612/-0.87966/0.647884/0.249225/0.653903/1.03107/1.19079/1.46286/-0.809012/0.416258/-0.898669/-1.17031/-0.429464/-0.605946/-0.291632/-0.0606007/0.577799/0.0754757/-0.325044/0.564703/-0.193409/0.737001/0.137656/0.521465/0.270449/-0.558487/-0.817733/-1.00814/-0.382436/-0.867714/1.02046/0.0474038/1.38328/1.08557/-0.164081/1.22045/1.10373/-0.845712/0.740501/0.533577/-0.403821/0.0839339/-0.754159/-1.00441/-0.245194/-0.250048/-0.453391/-0.366772/0.190963/-0.130122/-0.937964/0.831635/-0.711101/0.512311/0.636868/-0.408689/-0.422442/0.109172/-0.944975/0.704979/0.754321/0.944363/0.184028/0.530222/-0.349233/0.487599/0.431784/-0.680241/-1.2433/-0.270041/0.477428/0.55648/-0.585281/0.0668242/-0.142206/0.11239/-0.567256/-0.0517696/0.862266/0.368744/-0.526299/0.478526/-1.05564/-0.0302121/-0.702329/0.0664111/-0.387225/-0.196253/0.62007/1.10707/0.903471/-0.264103/0.324631/-0.487623/0.0887615/-1.03716/-0.935436/-0.30754/-0.373063/0.256905/0.190613/-0.808943/-0.214651/0.183653/0.181443/0.729976/0.411144/-0.531531/0.557038/0.127453/0.360684/0.362349/0.834122/0.594279/0.56826/0.29434/0.628457/1.40083/0.954659/1.27598/-1.24714/-0.0626052/-0.776403/-0.2067/-0.795731/0.198112/-0.460741/-0.210331/-1.25319/0.0460129/-0.504238/0.0652192/0.681968/-1.08119/0.537112/-0.17635/0.0852225/0.348189/-0.349326/-0.714765/0.840846/-0.159546/-0.566462/-0.366425/1.2572/1.59667/0.711002/-0.256482/0.152782/-0.760708/-0.83244/0.387401/-0.251286/-0.573669/0.0509965/0.330142/0.34912/0.0503082/0.601013/-0.174681/-0.187779/-0.219756/0.056456/0.607178/0.838182/-0.555837/0.190735/0.760019/-0.861903/-0.195034/0.068216/-0.935132/-0.0157475/0.264659/0.888129/0.671187/0.222338/-0.351307/-0.178545/0.265249/0.152479/0.0563192/-0.158856/0.327706/-0.472924/-0.637526/-0.965588/0.316805/-0.0163001/-0.00638212/-0.136532/-0.230084/0.971093/-0.770779/-0.261955/-0.949508/-0.774874/-0.443129/0.653428/0.48583/1.23678/1.52167/0.512118/0.818748/-0.77091/-0.742513/0.274657/-0.114122/0.618483/0.310599/-1.25031/-0.218379/0.907745/-0.104737/0.243206/-0.817396/-0.929764/0.0303355/0.119652/0.735729/-0.610438/0.340574/0.0583482/-0.497903/1.19507/-0.449433/0.260538/0.224783/1.35895/0.990686/0.119631/-0.270118/-0.757272/-0.247748/0.350166/-0.530406/-0.973914/0.115456/-0.00589446/-0.833474/0.892834/-0.470697/-0.101042/0.991337/-0.363868/-0.0982644/-0.759412/0.845943/-0.240944/0.365109/-0.949828/-0.598201/0.680083/0.0444705/0.084598/-0.961515/0.213875/1.69036/0.292955/-0.293912/0.183044/0.244974/-0.749044/0.660105/-0.45326/-0.827189/0.748786/0.677649/-0.400983/-0.213275/-0.488532/0.0151075/-0.337445/0.783253/0.533707/-0.930002/-0.54346/-0.00720552/-0.606689/-0.542655/-0.515778/-0.671436/-0.717646/-0.0949074/0.201504/1.4143/0.568747/-0.543904/0.296465/0.369058/-0.447795/-0.245764/0.398018/-0.638419/0.505415/0.200298/-0.896547/0.279254/0.315603/0.0354054/0.226502/-0.668263/0.778452/0.766683/-0.39789/0.596514/-0.451684/-0.197729/0.0745161/0.373991/0.187517/-0.453124/1.17823/-0.283576/0.127505/0.0414275/0.353793/-0.703575/1.09059/0.254865/0.126456/-0.0110523/-0.155755/0.307911/0.083974/-0.445162/-0.36463/-1.08473/-0.227933/-0.280207/-0.130679/-0.566569/-0.322902/0.920168/1.23183/-0.792363/0.513816/0.634048/-0.0428002/0.955953/1.53385/1.09126/0.258341/-0.790137/0.591343/-1.05984/-0.773193/-1.01681/0.721827/-1.10973/0.851041/0.249442/-0.0453294/0.0202915/-0.895654/1.13175/-0.234735/-0.293831/-0.710074/0.723935/-0.81828/-0.76973/0.874388/-0.233494/0.119642/0.438186/-1.03203/0.0954095/-0.151407/0.439956/1.00567/-0.546403/-1.133/0.615771/0.447855/-0.844868/0.648156/-0.923606/-0.199306/0.18717/-0.383324/0.371017/1.18092/-0.132472/0.0910822/-1.19775/-0.826939/0.00191249/0.143219/-0.7851/0.203378/-0.399645/-0.26563/-0.366059/-0.9166/0.503583/0.732601/1.02187/0.404325/-0.116859/-0.572414/0.338924/-0.866274/-0.132915/-0.129513/0.433872/0.5075/0.82499/-0.0134065/-0.24857/-0.797459/0.803854/-1.18581/-0.150791/-0.439739/0.988839/-0.585439/0.662513/1.26151/-0.00963694/0.317543/0.744527/-0.309221/-0.096392/1.03425/1.19997/-0.741683/0.665395/0.564662/-0.533834/-0.440141/-0.299008/-0.734651/-0.201562/0.781529/0.0641263/-0.367918/-0.786153/-0.657434/0.00511094/0.300396/0.703669/0.985415/0.898902/-0.160756/0.295764/0.44185/0.437141/0.207109/-0.59511/-0.288042/0.200128/0.00985654/1.09591/1.02077/0.52379/-0.319306/0.457572/-0.823231/-0.257775/0.652331/-0.182473/0.395175/-0.825459/-0.595266/0.193992/0.653297/0.0938649/-0.147648/-0.0380361/-0.690561/0.148662/0.568253/0.652982/0.318728/-0.331877/-0.348833/-0.848968/-0.396296/-0.207384/-0.399916/-0.369689/1.35247/-0.102409/-0.264695/0.603329/-0.535522/-0.467827/-0.524099/-0.154575/1.03894/0.407504/0.148118/0.551459/-1.25434/-1.0573/0.67391/-0.372427/-0.168501/0.597287/0.602687/-0.622008/-0.235425/0.0380714/0.271849/-1.221/-0.108853/-0.908541/0.333987/1.41504/1.08161/0.623692/0.0880914/-1.19938/0.294576/0.495193/0.238837/0.814552/-0.126032/-0.135629/-0.634213/-0.345184/0.340815/-0.643654/0.818481/-0.811215/-0.449624/-0.0979797/-0.744141/-0.771368/0.0654526/0.718354/-0.57907/0.472175/0.517563/0.234849/-0.0275578/0.611954/-0.370478/0.340012/-0.229005/-1.00441/0.545054/0.352516/0.2089/0.749165/0.240952/0.703599/0.289656/-0.184024/-0.972232/0.297198/-1.02369/-0.941426/-0.63647/-0.798236/0.052803/-0.538295/-0.29788/-0.714772/0.940384/-0.870835/-0.0352469/-0.643735/-0.0561087/-0.324223/0.172935/-0.312348/0.00657097/-0.644344/-0.38445/1.0044/-0.903274/-0.0594436/0.706694/-0.552232/0.0693274/-0.367877/0.693301/0.518912/-0.310026/0.533169/0.376325/0.0821161/0.124816/-0.216955/-0.360982/0.980416/-0.141638/-0.503121/0.0407046/0.143652/0.431329/-0.491845/-0.44587/0.265686/-0.616769/-0.0444526/0.885188/-0.653013/0.815532/0.642876/0.811234/0.410199/0.212421/0.160743/-0.397853/-0.714695/0.125769/-0.201495/-0.534366/0.909069/0.743645/
-0.397912/0.295692/-0.301391/0.527934/0.990699/0.620927/0.207205/0.99747/0.566152/-0.61495/0.350014/0.687362/0.499549/-0.037018/-0.507418/0.556039/0.912871/0.193497/-0.720617/-0.874991/0.0302292/0.0619323/0.895411/-0.825952/0.221983/0.863872/-0.911201/-0.562348/0.624825/-0.559274/0.428112/-0.204707/-0.0290418/0.964905/-0.255052/0.00534956/-0.483773/-0.189706/0.663725/-0.783885/-0.698477/0.643491/0.452882/-0.0162866/0.724392/0.659926/0.372721/-0.375162/0.903991/-0.719851/-0.485282/0.795665/-0.469369/0.791354/0.791324/-0.63633/-0.792565/-0.635209/-0.284461/-0.213341/0.699063/-0.949714/0.384939/-0.058991/0.738996/0.760984/0.376656/-0.3041/0.146431/-0.694903/0.821359/0.310801/-0.839677/0.360405/-0.957803/-0.578044/-0.266432/-0.383193/-0.0748776/-0.399573/-0.579752/-0.884961/-0.122913/-0.260766/-0.69202/-0.781362/-0.128783/0.590749/-0.583381/0.113958/-0.91728/0.293535/-0.320446/-0.822085/-0.896137/-0.453122/-0.706801/-0.823654/-1.33034/-0.398134/0.0764112/-1.16238/-1.34847/0.166399/0.75325/0.13921/0.987665/0.0334273/-0.0122456/0.340082/-0.222044/-0.999512/-0.794694/-0.413084/-0.695776/0.0721803/-0.509068/-0.598352/-0.503756/1.1143/-0.440928/-0.422149/-0.740091/0.424523/0.133643/-0.903735/-0.99251/-0.0144396/-0.121328/0.0902392/0.842368/-0.402857/0.57892/-0.428811/0.980502/-0.160967/-0.277044/0.730129/0.699308/-0.589385/0.213711/-0.15035/-0.0746219/-0.886515/-0.593151/-0.29967/0.726657/-0.28643/0.548867/-0.660137/0.654556/1.18261/-0.420033/0.930589/-0.700902/0.70033/0.602374/0.100193/0.0317386/-0.336861/-1.03035/0.516938/-0.100228/-0.450144/-0.470315/0.153252/0.853519/0.146045/0.581663/0.0155442/-0.685644/-0.312086/-0.494515/0.0979498/0.911969/1.11424/0.700432/-0.381604/0.61708/0.043593/0.654057/0.540517/-0.510112/1.11193/0.357136/-0.634502/-0.178235/0.724299/-0.312579/0.124738/0.446615/-0.251419/-0.142347/0.30413/0.936739/-0.070035/0.921381/-0.348528/0.0456913/-0.403483/0.0637067/-0.316475/0.78057/0.870081/0.390829/0.651739/-0.547845/-0.342062/-0.441848/-0.286243/0.137576/0.345963/0.120053/-0.159941/-0.0920355/1.53187/0.00423017/0.251901/-0.523407/-0.975448/-0.166515/0.33794/0.385012/0.484482/0.689011/0.206461/0.282612/0.234323/-0.409809/-0.612721/0.259928/-0.317249/0.56557/-0.407333/-0.511914/-0.838808/0.659251/1.10654/-0.579449/-0.157004/-0.795523/-0.664521/0.453657/-0.710967/0.353128/0.0668442/-0.580927/-1.18847/0.611349/-0.672121/0.0886226/-0.258256/-0.511286/0.8411/1.10102/-0.356952/-0.838077/-0.537036/0.0576942/1.0743/0.622347/0.0789555/0.757829/0.278151/0.327792/0.57462/0.29601/0.227937/0.192114/-0.877136/-0.245138/-0.356346/0.583911/0.162111/0.0945305/-0.108796/0.383979/-0.0337892/0.59334/0.406449/-0.804988/0.590868/-0.392306/0.36734/-1.11173/1.01011/-0.242103/-0.581336/0.974619/-0.0234783/1.11084/-0.896514/0.357371/0.844662/-0.446978/-0.351757/0.289049/-1.23933/-0.0881595/-0.0912489/0.0210032/0.114051/0.765185/0.611958/0.911309/-0.933673/0.97937/0.95673/-0.240397/-0.337789/0.837892/0.0333227/0.511575/-0.65765/0.120497/1.08661/-0.387484/-0.139812/-0.0785181/-0.704234/0.633128/0.11178/-0.865083/0.287431/-0.881686/-0.786752/0.534112/-0.823808/0.966612/-0.138763/-0.842246/-0.102402/-0.0217749/-0.681573/0.897411/-0.570131/-0.197429/-0.139744/-0.188345/-1.00821/-0.741143/0.686785/0.309751/0.472519/0.00166324/0.285587/0.191358/1.02142/0.472074/-0.137958/1.17466/-0.355179/-0.149208/-0.775687/-0.220827/-0.466105/-0.21738/0.0241977/0.855663/0.560515/-0.133169/-0.246772/0.865228/0.559361/-0.82596/0.174415/0.663637/-0.254652/-0.0988705/0.531701/-0.743644/0.841545/1.172/0.27134/0.488065/0.543259/-0.691716/0.0187428/0.680288/-0.0433261/0.299765/-0.116646/-0.268852/-0.0510939/0.421623/0.791801/-1.01337/-0.195832/-1.79808/-0.933918/-0.549661/0.309156/-0.0100472/-0.882707/0.792985/-0.927558/-0.281863/0.706085/0.772901/0.344206/1.45239/-0.644815/0.0193901/-1.04914/-0.147639/-1.00808/0.6266/-0.556873/-0.662845/0.444555/-0.896803/-0.721394/0.440496/-0.447425/0.774996/0.606238/0.325381/-0.0458062/-0.0212756/-0.532277/0.0241564/0.0287932/0.139509/-0.112657/-0.926943/-0.689053/-0.714402/-0.423591/0.13662/-0.597435/0.365028/-0.963075/-0.461817/-0.887656/-0.30854/-0.114141/-0.782834/0.455695/-1.09832/-0.757298/-1.06879/-0.566495/0.478825/0.974142/-0.0920049/-0.825652/-0.836639/0.230669/0.859139/-0.45397/-1.08903/-0.983349/-1.1446/0.137318/-0.459364/-0.751892/0.568956/1.0126/0.550349/1.26148/0.426696/0.0696809/-1.34965/-0.689234/-0.436453/0.229671/-0.0936883/0.230581/-0.193374/-1.07272/-0.950098/-0.25324/-0.265978/-0.980208/-0.621703/-0.362323/0.442617/-0.948284/-1.36317/-1.7837/0.112227/0.49562/-0.10048/-0.880396/0.608178/0.570696/-0.419202/0.255556/0.349132/-0.144171/-1.03188/-0.487738/-0.107303/-0.629717/0.587299/0.0411149/0.0861655/0.572221/0.420087/-0.448947/0.182187/0.0489025/-0.0563798/0.858067/-0.465298/-0.30437/-0.304693/-1.22197/-0.0818582/0.258164/-0.154934/0.135145/0.26161/0.0363087/0.865107/1.24404/-0.487665/0.769809/0.42399/-0.650262/-0.406801/-0.907308/-0.460676/0.0592107/0.860309/-0.367052/-1.18238/-0.0363391/-0.404167/-0.685856/-0.0288822/0.326511/-0.32917/-0.382846/-0.489445/0.747536/1.7709/0.877464/-0.214131/0.296068/-0.112958/-0.101933/0.663284/1.34764/-0.746811/0.791782/-0.397492/0.470492/-0.287722/-1.10213/0.0966153/0.904451/-0.925247/1.19942/-0.822966/0.0602517/-0.782317/-0.406913/0.597549/0.73445/-0.105358/-0.737194/-0.0601151/-0.402771/0.0309245/-0.0601932/0.0778796/0.883018/1.03973/0.130275/-0.11522/1.47946/-0.119174/0.814926/-0.130702/-0.634683/-0.257744/-0.725734/-1.03504/0.167511/-0.518864/-0.233693/0.769406/-0.916709/0.396725/-0.353397/0.0994164/-0.582118/0.341448/0.69993/0.860617/-0.823638/0.625391/0.341904/-0.707199/0.447033/-0.729436/0.396935/-0.227011/0.728564/1.02677/0.13707/-1.01336/-0.810827/-0.172421/-0.945086/0.0147666/-0.854691/0.224739/-0.973999/-1.14622/-0.855451/0.1051/0.428756/0.619752/-0.626756/0.113549/0.396131/-0.907311/-0.334514/0.423116/0.904711/0.0823991/0.680986/0.630396/0.714933/-0.429675/0.387327/0.573935/0.0380585/-0.132022/-1.31625/0.147189/-0.49081/-0.540477/-0.347507/-0.112001/0.319121/-0.91322/-1.16911/-0.286347/1.022/0.539981/0.181914/-0.570832/0.0317567/0.323285/-1.1043/-0.313891/0.271811/-0.601054/-0.71797/0.960887/1.39474/1.04516/0.428452/-0.784269/0.645446/0.420908/-0.788223/-0.0109957/0.0291602/-0.260806/0.789717/0.536152/-0.558614/-0.143447/-0.147353/-0.379754/-0.615102/0.319115/-0.876685/-0.442932/-0.344265/0.465198/-0.767049/0.398624/-0.227901/-0.189265/-0.0760697/0.504051/-0.0104497/0.00335691/0.472378/-0.34939/0.0451438/0.681455/0.350054/0.719371/1.2286/0.309692/0.556426/-0.65603/0.964227/-0.769775/-0.733398/0.11998/0.0777488/0.389714/-0.839815/-0.772912/-0.266798/-0.0804863/-0.431501/-0.435181/-0.412073/0.753207/0.436686/-0.859879/-0.0566044/0.804599/0.747593/-1.58268/0.364786/-0.945066/-0.532765/-0.88196/-0.0393746/0.638408/-0.307878/0.480434/0.530163/-0.402122/-0.446173/0.881085/0.267171/-0.874153/0.929752/0.336348/-0.987384/0.167756/-0.298453/-0.639445/-0.782847/0.894323/0.112206/0.791252/-0.289027/-0.0572085/0.708581/0.491763/-0.624261/-0.173299/0.88136/-0.886448/0.712808/0.044631/0.492437/0.569798/0.522834/-0.517365/0.16629/-0.681934/0.735501/0.967759/-0.828497/-0.552381/0.131949/-0.328811/-0.331764/0.0411971/0.40043/0.0308003/-0.243402/0.534475/-0.551/-0.650594/-0.535715/0.237689/0.845757/0.638386/-0.654563/0.761877/0.870734/0.42907/-0.615669/0.4553/0.225742/0.0506429/-0.844831/0.921188/0.405019/-0.843243/-0.378058/0.0895558/
0.498171/0.758018/0.00240475/0.416615/0.0525078/0.0252591/-0.797044/-0.288408/-0.955045/0.877075/0.337398/0.647869/0.730729/0.705058/0.72849/0.1626/0.867516/0.376772/0.0206805/0.132127/0.657606/0.383587/0.942462/-0.0476299/-0.516509/-0.969001/-0.00182286/-0.636878/-0.0108694/-0.681713/0.492369/-0.179949/-0.280071/-0.462693/0.946955/0.0680762/0.37582/0.993736/-0.162332/0.218445/0.0697569/0.634909/0.981362/0.0730957/0.972803/-0.669237/0.474528/-0.434354/-0.557371/-0.868713/0.281336/0.606832/-0.130576/0.918123/0.794453/-0.0183475/-0.366486/0.474558/0.635721/0.0897705/0.774226/0.248824/0.0597313/-0.253147/0.0246494/0.315908/0.249171/0.883232/0.0921721/0.444859/0.0815591/0.296605/0.0806885/0.627886/-0.0224413/1.30174/0.837195/-0.162971/-0.858694/0.111996/0.773002/0.582853/0.660639/0.161464/-0.267309/-0.664158/0.686499/0.387458/0.439877/0.38046/-0.216922/-0.551708/-0.383446/0.859783/1.21489/0.890514/0.109116/-0.546454/0.272661/-0.391469/0.804798/0.257644/0.914366/-0.538136/0.157325/0.430525/-0.347492/0.545639/-0.627553/0.628911/0.762299/0.957196/-0.406922/0.869129/0.298822/-0.636167/0.236008/-0.980232/-1.01053/-0.519057/0.303282/1.07531/0.971471/0.497371/1.79245/-0.131925/-0.20325/-0.259599/0.235761/0.300783/0.197546/0.179665/-0.793039/-0.30144/1.11675/-0.769744/-0.923596/0.151975/-0.725901/0.150585/0.886838/-0.922682/-0.808874/-0.335056/-0.77035/0.00782266/-0.405181/0.308575/-1.2039/1.02414/0.720621/0.952434/0.468828/1.42475/0.352209/0.28256/0.359211/-0.841103/0.226423/-0.0266163/0.464013/1.02527/0.349905/0.16077/0.280492/-0.213713/0.0571904/0.948314/0.314836/-0.547219/0.188011/-0.694361/0.82055/-0.470994/-0.15672/-0.883598/-0.0911956/0.298415/-0.110086/-0.0739431/1.25178/0.207776/0.00272707/1.00848/0.370197/-0.354104/0.611089/-0.831104/0.228229/0.244237/0.0265197/0.381167/-0.275944/0.582547/-0.352151/0.727762/-0.509896/0.2181/-0.4001/-0.350667/-0.957101/-0.362862/-0.603988/-0.442734/0.252862/-0.951557/-0.569601/0.777385/0.514531/-0.112605/0.740158/-0.363993/1.66662/1.22218/0.920691/-0.644031/-0.274547/-0.527126/1.53774/-0.166434/-0.694704/0.945725/0.234192/-0.43164/-0.565463/0.316207/0.415354/-0.647806/-0.634651/0.102357/0.297231/-0.954497/-1.23328/0.309198/-0.000737695/-0.0968556/-0.12371/0.0223664/-0.446522/-0.322541/0.294539/0.752996/0.0394841/1.32968/0.896764/0.215312/-0.230071/0.516372/0.560118/-0.183935/0.829973/-0.327168/-0.71221/-0.0877482/0.262932/-1.03263/-1.44341/-0.31013/-0.912257/0.435318/0.948751/0.76407/0.175363/1.32911/0.385401/-0.750551/-1.16925/-0.0594296/-1.17443/-0.743309/1.34235/2.01925/0.131299/0.261016/-0.885785/0.591411/0.696989/-0.643491/0.0437111/-0.375109/-0.459293/0.657397/0.914847/-0.540902/-0.918054/-0.751932/-0.983664/-0.660003/0.161436/-0.163484/-1.00881/0.128341/0.643427/-0.458489/0.852849/-0.322948/-0.296065/-1.28282/0.029591/0.228875/1.09757/0.726204/0.494327/0.59404/-0.533302/1.04792/-0.187866/-0.44417/0.826737/1.00152/-0.0803485/-0.608177/-0.239677/-0.26592/-0.741173/-0.0961219/-0.866765/-0.0971512/0.0609699/-0.143704/-0.796355/-0.771695/-1.20363/-0.816354/-0.0877703/-0.826795/0.0555047/0.256427/0.783302/2.04618/0.673942/-0.0193996/-0.371078/0.403931/-0.533082/-0.604523/-0.221053/0.768589/-0.785315/0.45247/0.0764318/-0.102031/-0.467102/-0.651683/0.300404/-0.866543/0.328862/-1.19505/0.925116/-0.574906/0.0915436/-0.535767/-1.37235/-0.00857231/-0.38294/-1.4455/0.511304/0.547285/1.43473/1.03404/0.431538/0.136458/0.283112/0.532523/0.114396/0.630639/-1.07388/-0.430545/-1.02092/-0.293193/0.289409/-1.29553/1.02919/0.45573/-0.617243/-0.212161/-0.223765/-0.185728/0.171401/1.00179/-1.22116/0.294148/-0.918427/-0.830568/-0.678885/-0.357801/-0.0202076/0.105983/0.331518/1.16606/-0.375086/-0.499082/-0.0632341/-0.792875/0.478882/-1.39321/-0.0714685/-1.06344/0.329425/-0.252856/-0.021728/-0.120909/0.342707/0.534288/0.898573/-0.30121/0.344011/-0.274119/0.562373/-0.4813/-0.595765/0.114091/-0.885232/-0.459652/-0.215534/0.745101/0.881639/0.598675/0.504239/0.703874/0.00344998/-0.0275198/0.265828/-0.108076/-0.156114/-0.49398/-0.568988/-0.0654717/-0.643187/0.934351/-0.366269/-0.688212/-0.875392/-0.579572/-0.185554/-0.458885/0.07608/-0.380343/-0.256174/0.296283/0.299094/-0.24774/-0.866655/-0.509927/0.522936/0.72533/0.841692/-0.448618/0.0755815/0.290158/0.357111/-0.483834/-0.0929005/-0.956388/-0.088531/-0.733387/1.5793/0.199086/0.773897/1.04284/-0.390293/0.162786/0.507445/-0.737391/-0.111654/-0.731616/-0.647954/-0.954379/-0.319292/0.451855/-0.997654/-0.241789/-0.767288/-0.552972/-0.966324/-0.165878/0.049787/0.72704/0.320431/0.374128/-0.446762/0.28471/-0.399648/-1.09297/0.0841412/-0.321508/0.718042/-0.222879/1.09925/0.749256/0.223176/-0.921986/-0.10459/-0.541446/-0.79278/-0.56942/-0.462404/0.734391/0.406014/0.558634/-0.148502/-0.369757/-0.605744/0.291972/-0.822091/-0.917379/0.296775/0.0475876/-0.0788458/0.578232/-0.0655176/-0.0534977/0.716684/-0.0457254/-0.0802813/0.460256/-0.588354/0.285647/0.440216/-0.722088/-0.363211/0.0937732/-0.182633/0.886731/-0.425093/-0.36099/-0.635107/0.421945/0.41126/-0.0745979/0.0750471/0.735817/0.877918/-0.790544/-0.791862/-0.252028/0.0941971/-0.686603/1.09886/-1.0404/-0.00568637/-0.317097/0.306295/0.537323/-0.199563/0.179579/-0.823932/-0.0904405/-0.968759/0.655007/-1.0604/0.838696/0.353829/-0.0169561/0.11541/-0.317674/-0.370234/0.854507/0.401812/-0.077159/-0.811253/-0.723033/0.532049/0.173027/-0.275468/-0.199038/-0.945242/-0.190329/-0.199564/0.744073/-0.413046/0.673396/0.0219058/0.543974/1.32805/-0.119857/0.0834248/0.00292591/-0.399267/-1.09373/-1.15298/0.599796/0.587064/0.323223/-0.452738/0.318476/0.664658/0.0773154/-0.559698/-0.763656/-0.147935/-0.511219/-0.066131/0.260362/0.327692/-0.912805/-0.293505/-0.294719/-0.0490378/0.834944/-0.953794/-1.00237/0.14636/1.09522/-0.0590665/-0.0844074/0.262678/0.760483/-0.555244/-0.492296/-0.783755/-0.780882/0.19875/0.430666/0.321435/-0.311662/-0.10435/0.199631/-0.431644/-0.443792/-0.380653/0.0100959/-0.180683/-0.0983254/0.415913/0.236481/-0.0344779/0.364449/0.646286/-1.28422/-0.965762/-0.207818/-0.535764/-0.905004/0.421516/-0.347718/-0.350853/0.925788/-0.959252/-0.978934/-0.765129/0.500177/0.637283/-0.25656/-0.00331366/0.289495/-0.239305/-0.0257092/-0.852259/-0.440139/-0.309893/-0.134892/0.988/-0.063139/0.124004/0.165356/-0.500755/0.57358/1.0384/-0.0280819/0.0948876/0.0335602/-0.34511/-0.283464/-0.0697487/-0.907625/0.130419/-0.630646/0.167146/-0.111513/-0.376135/-0.461753/-0.683693/-0.838294/0.0726198/0.206135/0.0537997/0.523153/-0.473323/0.434125/0.00199555/0.477918/0.187383/-1.3606/0.650517/-0.86739/0.901885/1.06389/0.184555/-0.534863/-0.393101/0.527597/-0.323213/-0.406313/-0.633607/-0.0771542/0.503394/-0.0856301/-0.960819/0.425632/-0.400837/-0.944597/0.263453/-0.598684/0.382985/0.744173/-0.0670509/0.391168/1.41777/0.265459/-0.545335/-1.21271/-0.679922/0.725276/-0.23942/0.807365/0.903677/1.01772/0.252281/0.314871/0.831636/-1.04918/0.0978371/-0.443496/-0.936293/-0.788126/-0.156107/-0.958954/0.865336/-0.307656/-0.716431/-0.0704257/-0.931977/0.739116/0.981575/0.434089/0.218152/0.718366/0.487698/-0.0391083/-0.877701/-0.0608738/-0.704905/0.58291/0.537058/-0.515785/0.311353/-0.370165/0.632417/0.802494/-0.924883/0.792935/0.656561/0.564211/0.0104546/0.948104/0.788807/-0.528719/-0.185826/0.821566/0.0663602/-0.684661/0.901353/-1.0125/-0.65878/-0.51039/-0.124248/-0.235391/-0.218978/-0.35729/-0.968325/-0.629874/-0.284572/-0.80956/-0.280522/-0.726597/0.0891865/0.957715/0.309212/0.922997/0.807897/0.319299/0.460124/-0.690161/0.171534/
-0.621711/0.905764/-0.825978/-0.220066/-0.653337/0.989791/-0.0392525/0.865287/0.187354/-0.74595/0.157312/-0.049049/-0.366587/0.775412/0.338953/0.950403/-0.89054/-0.904708/0.730917/-0.515508/-0.14813/0.378571/0.635481/0.537068/0.499901/-0.160603/0.746343/-0.215066/-0.614317/-0.818771/0.126734/-0.953978/0.146163/0.0349803/0.839301/-0.724013/0.430703/0.337596/0.440073/-0.0520948/-0.621708/0.613585/-0.947222/-0.353499/0.315129/-0.862354/0.715807/-0.89168/-0.0710163/0.843968/0.461826/0.345892/-0.857786/0.0327317/0.527729/0.171026/0.438841/-0.410331/0.41631/-0.247033/-0.36509/-0.118104/0.680613/0.166011/0.181708/0.188951/0.840625/-0.0748468/-0.689673/0.744004/0.0882252/0.589272/-0.0777979/0.333683/0.438142/-0.905044/-0.917075/-0.0304504/-0.813983/-0.0617438/0.424134/-0.471513/-0.150519/-0.229611/0.930699/0.25518/0.085357/-0.583094/0.450216/0.0315722/-0.180334/-0.733354/-1.42228/-0.738057/0.224455/-0.130372/-0.949242/0.124121/0.444994/0.575849/-0.613761/-0.422526/0.0410297/0.127231/0.679042/0.855404/-0.294752/-0.585691/-0.710595/-0.778508/0.693706/0.0144416/0.719464/0.030299/0.356836/-0.36716/0.0190403/-0.330817/-1.07036/0.20397/-0.81482/-0.742987/0.194865/0.316508/0.303473/-1.19438/-0.701162/0.386289/-0.864265/0.218619/0.118256/-0.202383/-0.805686/-0.36648/-1.10636/-0.450044/-0.125326/0.395712/0.429435/0.664938/-0.386003/0.450578/-0.105444/-0.478633/0.866235/0.802222/0.223025/-0.572595/-0.354472/0.528543/-1.13881/0.994199/-0.21087/-0.694109/-0.208244/-0.532264/0.317973/0.106703/0.356302/-0.756231/0.690438/0.0336697/-0.680108/0.273291/-0.162554/0.186825/0.391979/0.634237/-0.372533/0.833315/-0.219285/-0.296728/-0.865575/-0.674186/0.783045/0.538511/-0.21613/0.0899755/1.20992/0.0742235/1.33497/0.489923/-0.700985/-0.385923/-0.278464/0.513886/-0.05953/-0.370105/0.19053/-1.04146/0.272164/0.535007/0.914474/-0.304318/-0.445429/0.351799/0.685789/0.0323712/0.516444/0.533338/0.332379/0.00846151/-0.224552/-0.916223/-0.507747/0.182416/-0.41568/1.00467/0.353931/0.772784/0.355361/-0.107686/0.273547/-0.377269/-0.500191/0.730996/-1.33011/-0.665849/0.784623/-0.939323/0.05526/0.392622/0.678062/0.172922/0.296108/0.66043/0.706406/0.569164/0.614056/-0.432971/-0.313031/-0.523271/-0.922574/-0.398698/0.00991432/0.353389/-0.416244/1.3063/-0.338261/-1.50177/-0.544955/-0.435904/-0.561091/0.805638/-0.486481/1.24771/1.07272/-0.639107/-0.101923/-0.55769/-0.703284/-0.477897/-0.0232419/-0.655444/0.471691/-0.708079/0.173529/-0.134033/0.056048/0.241637/-0.88147/0.0222322/0.248533/0.137599/0.0858334/-0.643368/0.0555503/-0.0815692/0.27954/0.243566/-0.216455/-0.220043/-0.548925/-0.265474/0.0861976/0.424008/-0.139555/1.09162/0.228074/0.239762/-0.326915/-0.491433/-0.635719/0.828301/-0.0664282/-0.0746207/-0.203048/-1.00519/0.298526/-0.231049/1.26637/1.11637/0.706509/0.575781/-0.609993/0.798354/-0.499734/-0.872596/0.236263/-0.467269/-0.0216768/-0.140493/0.0840417/-0.155987/-0.118265/0.809095/-0.0758957/0.722261/-0.963203/-0.56582/0.606371/0.0584005/0.201181/-0.502963/1.13235/-0.287873/-0.553057/-0.251238/-0.179672/0.914294/0.134652/-0.581936/-0.977676/-0.701776/0.299848/-1.12886/-1.39492/-0.125491/0.416711/-0.333983/-0.965167/-0.657725/-0.081284/-0.23785/0.143363/0.862938/-0.59991/-0.669515/-0.765389/-0.559986/-0.366737/-0.463116/0.583983/-0.639289/0.808074/0.431478/0.805513/-0.0389057/0.814738/-1.02764/-0.328517/-0.325116/-1.22902/-0.0997023/-1.09775/-1.3593/-0.529748/-0.312145/0.840069/0.117737/0.331268/-0.489782/-0.937727/-0.54405/0.143363/-0.48138/-0.157817/0.479224/-0.27365/0.777532/-0.661484/-0.613783/-0.704471/0.180114/-1.48788/0.314155/-0.780005/-0.953651/-0.0350637/-0.730286/-0.889403/0.0392484/-1.20007/0.298264/0.339664/-0.745516/-0.180408/0.438545/-0.462487/-0.0636281/0.094618/-0.647764/-0.975573/-0.455639/0.545933/0.580442/-0.0530666/-0.360243/0.176311/0.150716/0.529016/-1.12161/-0.986294/0.236668/0.678002/0.359905/-0.333471/-0.922668/-0.219273/-1.23324/0.40827/-1.12695/1.13959/0.489885/-0.450127/0.79939/-0.863066/0.646667/-0.572961/-0.440591/0.989039/0.796703/0.875452/0.162278/0.123131/-0.198166/0.595005/0.607551/0.124381/0.459667/-1.24517/0.202259/-0.358919/-0.245727/-0.6773/-0.0183091/0.0591295/1.07254/-0.83765/1.03298/0.956649/0.807137/-0.716317/0.627537/1.05594/0.35042/-0.776887/0.160295/0.0829784/0.630798/0.177632/1.21774/0.940738/0.975729/1.19663/0.0564298/0.283409/-0.61193/-1.01234/-0.069327/-0.0122943/-0.541855/-0.272237/-0.230593/0.27398/0.512791/0.82279/-0.101316/-0.738074/0.27045/0.367773/0.191578/-0.347369/-0.187586/0.00933622/0.695039/-0.488164/-0.531575/0.379036/0.488245/0.189494/0.154007/0.340759/0.627996/-0.0117311/0.75506/0.0557459/-0.925462/1.16483/0.934883/-0.0373519/1.06514/1.14095/0.29578/-0.346222/0.401665/-0.855725/-0.55604/0.0568205/-0.535453/-0.160508/0.43658/0.545064/-0.476541/0.774205/0.0563623/1.0708/1.11091/-0.609162/-0.522348/0.9097/0.880127/1.32481/1.11554/0.144933/-0.589392/0.653639/0.357984/1.08143/-0.409795/-0.361344/-0.0774606/-0.153469/0.454101/0.707174/0.534472/-0.879572/-0.724097/0.838604/0.527391/0.792772/0.0928799/-0.968345/-1.07697/1.03396/-0.00770937/0.432828/0.282691/0.612979/-0.808264/0.126765/0.138862/0.449299/0.690475/0.575502/-0.398442/0.595773/0.694323/-0.114603/0.261398/0.552877/-0.962888/-1.27904/0.563698/0.409637/0.569957/-0.494388/-0.763602/-0.476579/-0.120635/0.494808/0.266423/1.21832/0.40026/-0.0264781/-0.819121/1.29479/-0.550985/0.993151/0.255905/1.18464/0.773205/0.857649/0.0125893/0.822522/0.176995/0.503172/-0.218867/0.00418456/-0.227065/0.262532/-1.22601/-0.179848/-0.204371/0.345869/0.663054/-0.805401/-0.31331/0.206675/-0.324946/-0.314693/-0.425997/0.169109/1.02933/0.312183/0.543123/-0.40245/0.441517/0.944542/-0.37581/-0.0209565/0.504906/0.289811/0.118205/0.940294/-0.72481/1.01857/0.431843/1.02677/0.142823/-0.210233/-0.0837336/0.433464/-0.870188/-0.686941/0.615371/0.544088/0.591404/0.781728/-0.417875/0.879237/1.38758/-0.140847/-0.313803/-0.456419/-0.89755/0.708787/0.0745141/-0.725655/0.941224/1.72748/0.206473/-0.568646/0.0660367/0.185414/-0.19525/-0.302824/0.0357225/-0.282611/0.168903/0.51664/-0.762545/-0.819917/0.381839/-0.425191/-0.135679/-0.168077/-0.377765/-0.196908/-0.108205/0.27074/1.22133/0.211439/0.319339/-0.615818/0.85581/0.287663/-0.162527/1.3204/1.24298/0.655582/-0.142124/0.162262/0.143548/-0.196183/-0.534913/-0.252919/-1.10703/-0.435505/-0.796253/0.577753/0.907903/-0.874252/0.455952/-0.213456/0.79519/1.09476/0.489195/-0.25953/-0.76253/1.0184/1.37094/0.757713/0.692511/-0.647864/-0.488717/0.0690209/1.05674/1.21942/0.56207/-0.746783/-0.873524/-0.257659/0.91263/0.10868/-0.0749013/0.82233/0.55833/-0.634312/0.48505/0.231954/0.442739/-0.0763736/-0.647504/0.37405/-0.350132/0.898607/0.775549/0.789686/-0.650283/0.493052/0.611391/-0.905367/-0.485161/1.04297/0.404498/-0.394927/-0.120092/0.966577/-0.0865174/0.918012/0.729783/0.139475/0.202274/0.80409/0.264281/-0.252612/0.0578816/0.816502/0.940289/-0.0656667/0.215077/-0.970459/0.359027/-0.403984/-0.50784/-0.683966/-0.0338646/0.548665/-0.437764/0.292993/-0.970965/-0.963731/0.964307/-0.286178/-0.665201/-0.274434/0.897037/0.742677/-0.922324/0.589351/-0.0748098/0.0193951/0.420526/-0.150952/-0.0358536/-0.591325/-0.392696/-0.0492225/0.716604/-0.0428517/-0.208209/0.633451/0.0892661/-0.805065/-0.327043/-0.606838/0.874379/-0.316818/-0.753778/-0.750638/0.0250586/-0.840475/0.129578/-0.18012/0.721732/0.144163/0.951485/-0.383691/-0.702878/0.726792/-0.811033/0.960227/0.536043/-1.04709/
0.0771658/0.925486/0.647823/-0.0345318/-0.376186/0.0834629/0.770361/-0.434746/0.365259/-0.472963/-0.0485356/0.262079/0.765288/0.274301/0.22683/-0.614721/0.227294/-0.0125719/-0.0188432/0.290862/0.51266/0.277939/-0.679731/-0.234426/0.00611891/0.840519/0.604488/-0.364579/0.523858/0.486306/-0.581396/-0.558598/-0.800293/0.703769/0.710655/-0.382023/-0.338404/0.868908/-0.513103/-0.26558/-0.237946/0.762836/0.126501/-0.0673883/-0.596209/-0.0970626/-0.679966/-0.385481/0.585344/-0.845679/0.635242/0.498711/-0.471779/0.292493/0.0195052/-0.514271/0.650759/-0.688111/0.00341126/-0.397061/0.671716/0.534698/-0.344172/-0.042344/0.648706/0.702652/0.0207139/0.720364/-0.194655/0.833455/-0.827408/0.776041/0.976455/0.589461/0.855661/-0.172452/-0.669981/0.926575/0.238563/-0.200638/0.51182/-0.717559/-0.901046/0.940498/0.950136/0.938986/0.537244/0.104354/0.351319/0.835767/-0.314052/-0.171786/0.404563/0.196766/-0.526133/-0.40511/-0.804786/0.805976/0.169019/0.26166/-0.11434/0.851374/-0.02007/1.07426/-0.860995/-0.714736/0.130639/-0.761048/0.620435/0.030504/-0.444462/0.800175/0.541286/-0.609673/0.0843784/0.183631/0.221075/-0.634581/0.642599/0.834205/-0.241901/-1.02668/-0.373828/-0.445032/-0.263658/-0.335472/-0.380121/1.26604/-0.0827145/1.04488/0.0262271/-0.496652/0.744519/-0.320729/0.237456/-0.674754/-1.1227/-0.877013/-0.794419/-0.475778/-0.403307/-0.372102/0.115068/-0.620449/-0.750327/-0.0454785/-0.388635/0.582132/-0.248067/-0.50602/0.38522/-0.579324/-0.978883/0.152887/1.01667/0.386155/0.683076/1.10664/1.20835/-0.681207/-0.66681/0.154694/0.442884/0.0983925/-0.8281/0.864697/-0.5749/-0.696859/-0.102062/0.651638/-0.649636/-0.110219/1.25186/0.450284/0.858391/0.34758/0.025704/-0.696275/-0.520767/0.605991/-0.474493/0.657488/-0.0611213/-0.222877/0.138907/0.734735/0.0143494/-1.21392/-1.0543/0.249913/0.069845/-0.464857/0.446379/0.611516/0.514101/0.28131/-0.0203861/-0.623679/0.193116/0.950685/0.517007/0.456231/0.392885/-0.132638/-0.276824/-0.520935/-1.12497/-0.114519/0.927677/0.250055/0.127683/1.01377/1.15341/-0.973661/0.322311/0.29178/0.345684/-0.741511/-0.379064/0.179074/0.0957906/-0.586669/0.285675/0.198504/0.25993/0.644764/-0.621444/0.58511/-0.523141/0.404141/-0.249982/0.133877/1.37879/0.455979/-1.18094/-0.560111/0.545677/0.124527/0.600897/-0.419821/-0.419045/0.00234707/-0.307295/-0.631053/-0.599165/0.131761/-0.985905/0.445577/-0.684729/-0.164182/-0.258657/0.845843/0.0835403/0.0496331/0.734327/-0.643741/0.255327/0.436909/-0.373063/0.777216/-0.219734/0.192208/-0.791894/-0.312678/1.04468/-0.301672/-0.0774093/0.649242/-0.401123/-0.254683/0.966662/0.142286/-0.75868/-1.11813/-0.872298/-0.350473/-0.866278/0.569535/0.161811/0.175035/-0.181771/1.02245/0.997185/0.266519/0.596808/0.887681/-0.14835/0.56263/0.633619/-0.498236/0.716606/-0.0215835/-0.879178/-0.102902/0.351993/0.74019/-0.098687/0.374455/0.307139/0.46006/0.0477611/-0.924077/0.653978/0.553126/0.722291/0.0226989/-0.818277/-0.0937085/-0.95835/-0.98756/-0.661893/-0.0309437/-0.774434/-0.107948/0.659733/0.102174/0.656498/-0.124587/0.444397/-0.109855/-0.634154/0.317092/0.373985/0.0907279/0.157429/0.849332/-0.593666/-0.473002/-0.187804/-0.518555/-0.152571/-1.31262/-0.20682/0.772973/0.773086/0.79182/0.121649/0.493185/-0.60743/0.445962/0.0033778/-0.24474/0.535991/-0.379465/-0.277019/0.101709/0.0442943/0.924239/0.36073/-0.381137/0.18637/-0.619778/0.242661/0.554719/0.770802/0.746454/-1.14251/-1.2825/-1.36549/0.216461/-0.339863/0.125075/-0.140837/-0.256527/0.543984/0.707655/-1.00662/-0.94793/-0.0564313/-0.0540576/0.00657195/-0.3148/0.17624/0.749587/0.218556/-0.0799783/-0.0618372/-0.026908/-0.39059/-0.407846/-0.310932/-0.348889/-0.45416/-0.36186/0.369667/-0.621056/-0.692253/0.845748/-1.18872/0.270844/0.809624/0.0912805/0.151332/-0.589653/0.780453/0.974758/0.32316/0.207017/0.103939/-0.262869/-0.0593561/0.149002/-0.545105/-0.383316/0.271503/-0.016599/-0.00445669/0.65908/0.872596/0.0447349/-0.138004/0.0743459/0.253387/0.0503223/0.325436/-0.332635/-0.0227584/0.220562/0.473776/0.274157/-0.240243/0.316462/-0.874305/0.680203/-0.643663/0.458609/0.32841/-0.437017/0.489986/-0.299903/-1.13843/0.178951/0.576712/-0.259267/-0.441292/0.179498/-0.646871/0.262079/-0.236239/0.627465/-0.404759/-0.633042/0.657059/-0.577541/0.0455441/0.0753819/-0.459831/0.720259/-0.61274/-0.300963/-0.500978/0.51718/0.103891/0.660789/0.0853315/-0.30913/0.920643/-0.598761/-1.41403/-0.613687/-0.0549297/0.514365/0.27827/-0.656734/0.22231/0.827672/-0.704497/-0.430826/0.125394/0.412697/-1.14479/-0.0614638/0.561823/-0.675561/0.488326/-0.945814/0.837314/0.824309/-0.293348/1.13645/1.28123/-0.735158/0.777341/0.109412/0.648082/-1.03522/-1.23782/-1.47357/-0.827781/-0.996002/-0.465152/0.166357/0.0829823/0.861672/1.26114/-0.387719/-1.01439/-0.708612/0.0966392/0.209609/-0.568522/-0.993498/0.410676/0.415706/0.762963/-0.785452/0.266353/-0.583413/-0.0545761/0.216215/0.726695/-0.418543/0.205706/-0.41155/0.0393717/-0.865936/-0.920092/-0.268298/-1.01728/-1.22903/0.130061/-0.40465/0.0749759/-0.500351/-0.848663/0.670187/-1.09022/-0.18311/0.679631/0.272035/0.794573/0.277119/-0.464534/0.556924/-0.402759/-0.0194331/0.119426/0.405183/-0.242317/-0.682001/-0.471756/0.218282/-0.544798/-0.161676/-0.414533/0.165125/-0.546426/-1.5088/-1.02055/0.529539/-1.13834/-0.453129/0.666774/0.191048/0.282126/-0.00786132/-0.130636/-0.749331/0.194674/-0.679521/-0.703168/-0.162861/0.314663/0.486953/0.51434/0.523263/-1.00062/-0.245451/0.180315/0.344271/0.375633/-0.826199/-1.37863/0.225492/0.321917/-0.267954/0.0779071/-1.01933/-0.372231/-0.754332/-0.220915/-0.699984/0.0676109/0.30963/0.233844/0.809456/-0.333577/0.847825/-0.606728/0.711256/-0.743968/0.777116/0.888991/0.447929/-0.853666/-0.554525/-0.245187/-1.4792/0.016554/-0.309543/-0.739072/-0.595513/-0.863741/-0.0952739/-0.165765/-0.404863/0.0111642/-1.1429/-0.500555/-0.29027/-0.917841/-0.363541/-0.0828953/-0.680162/-0.96542/0.131286/0.520929/-0.751015/0.132413/0.0233847/0.857496/-0.580048/-0.419867/0.283324/-1.13468/0.464986/-1.19219/-0.438696/0.662233/0.637633/-0.0972176/0.488851/-1.01405/-0.449972/0.202632/-0.532261/-0.0679392/-0.866911/-0.53221/-0.0549439/0.0444926/0.223449/-0.74348/-0.463092/0.810315/0.937183/0.592946/-0.645775/-0.0427366/-0.0788218/0.391327/0.299349/-0.00393338/-0.81815/-0.796779/-1.18481/-0.909078/-0.303613/-1.01382/-0.476829/-1.01934/-0.231202/-0.629979/0.729177/-0.808176/-0.177181/-0.207273/-0.642427/1.03944/-0.837878/-0.888357/0.51467/0.0566426/-0.00127303/-0.614401/-0.733886/0.225572/-1.2886/0.352342/0.649176/-0.338148/-1.12176/-1.49286/0.275409/-0.847208/0.809844/0.793603/-0.131153/-0.822199/0.440105/0.159332/-0.455152/-0.901371/-0.621305/0.136453/0.459717/0.358701/0.260197/-0.794724/0.612085/-0.685332/-0.359404/0.168033/-0.710595/0.481441/-0.528252/-0.244801/-0.546953/0.801801/0.646632/0.64578/0.749656/-0.458804/0.832868/0.933741/-0.572803/0.569315/-0.967783/-0.270226/0.242465/0.293865/0.249079/-0.566885/0.873731/-0.0484811/0.137159/-0.134247/0.199768/-0.494592/-0.612312/0.958842/-0.890317/-0.926298/-0.024518/-0.725784/0.98349/0.143575/-0.182813/-0.984422/0.743342/0.787486/-0.512021/-0.439133/0.834001/-0.920452/0.981059/0.014541/-0.939205/-0.603439/0.949796/0.651399/-0.498193/-0.281429/-0.0153759/-0.173609/0.568737/0.769647/-0.548846/-0.45708/-0.14218/0.3865/-0.100155/0.693832/-0.759922/-0.587766/-0.514225/-0.584354/0.763183/0.822776/0.403353/-0.84834/-0.0453704/-0.539851/0.731109/-0.247614/0.345967/0.666415/0.43611/-0.303944/-0.382921/0.240105/-0.551462/-0.419768/0.954298/1.30498/
0.528998/0.863944/0.312843/-0.052282/-0.70264/0.322683/-0.775469/-0.984897/-0.251324/-0.60067/-0.302375/-0.0162277/-0.739497/0.532184/-0.305958/0.335379/0.74375/-0.228762/0.225006/0.0150644/-0.812345/0.922189/-0.775456/0.912651/0.930187/-0.355326/0.0438176/0.442008/0.834397/-0.281955/-0.906676/-0.42436/-0.610056/-0.8333/-0.616194/-0.750206/-0.148067/0.840563/-0.858987/0.768838/-0.803963/-0.223888/-0.685304/0.636207/0.260742/0.264117/0.317416/0.572596/-0.781339/0.744185/-0.964222/0.535884/-0.0388922/1.00187/-0.478264/0.545267/0.295279/0.749011/-0.839744/-0.829864/-0.46591/-0.472186/-0.422339/0.0397139/-0.374009/-0.804975/0.351431/0.989423/-0.538651/0.450553/-0.0510698/0.292925/0.230086/-0.647068/0.60207/-1.20244/0.645879/0.396136/0.370288/-0.199741/-0.428912/-0.0865359/-0.861231/0.556997/-0.544017/0.712438/-0.426408/-0.358983/0.774544/0.172586/0.489162/0.667641/-0.493438/0.875918/0.790303/1.85243/0.717325/0.413681/1.86738/1.35993/-0.574606/0.833767/-0.631626/0.245119/-0.25538/0.0379419/0.411537/0.349329/-1.04695/-0.758646/0.686651/-0.340452/0.021871/-0.410025/-0.49553/0.602377/0.287773/0.556748/-0.78166/-0.526446/0.310555/1.08401/0.0415368/0.103011/0.935302/2.07664/1.09749/1.14782/0.216101/0.120011/-1.05931/-0.37558/-0.209784/-0.66603/-0.0285413/-0.203863/-0.124841/0.270213/-0.617024/-0.25668/-0.0159271/0.317192/-0.17967/-0.049331/-0.563706/0.679356/0.0578827/0.744431/0.125467/0.401872/-0.394002/0.82623/1.3278/0.90473/1.67237/-0.778896/0.645505/0.401027/-1.07643/0.274481/-0.0503214/-0.629456/-0.322261/0.152378/-0.250249/-0.115281/0.0907374/-0.95426/-0.246302/0.396469/-0.373221/0.37132/0.174243/-1.04979/0.0147587/-0.256223/0.911522/-0.531161/1.00435/-0.351763/1.36862/0.907885/1.28662/-0.51192/1.16088/0.145895/-0.0855257/-0.408217/0.17905/-1.77384/-1.04875/0.0301955/-0.0856623/-0.249534/-0.804146/-0.233012/-0.238017/-0.343245/-0.00573993/0.291052/-0.639153/0.600231/0.19449/-1.09883/-0.414353/0.180259/0.742469/1.01671/0.900529/0.0276754/1.36144/0.215433/-0.384492/-0.0904054/-0.0160409/0.304211/0.409099/-0.592647/0.838276/-0.655885/-0.753496/0.242457/-0.671435/-0.747298/0.169428/-0.390276/-0.705932/0.194084/0.088368/-0.763685/0.559264/-0.900818/0.0585257/0.651152/1.40842/-0.45743/-0.417064/0.829895/0.489477/0.688306/0.726469/0.823533/-0.907268/-1.33896/0.236523/-0.535803/-0.225389/-0.127825/-0.152374/0.135769/-0.605996/-0.493418/-0.884441/-0.80052/0.81062/-0.550686/0.334911/0.515664/-0.384397/0.488829/0.789385/0.791726/0.73408/1.30801/0.557382/-0.276781/-0.755976/0.313718/0.607478/-0.646356/1.01609/-1.01672/-0.420981/-0.872207/0.372475/-0.98897/0.245169/-0.51695/0.862862/0.764403/-0.682076/0.379402/-0.261635/0.702494/-1.05439/-0.253623/1.00796/0.0331748/1.12331/0.548206/0.103219/1.05813/0.289391/0.526806/-1.06632/0.409617/0.0299582/0.283938/0.766851/-0.677272/-0.0656007/-0.506025/-1.0521/-1.38046/-0.532441/-0.317962/0.721389/0.901766/-0.0204614/0.0913546/-1.05617/-0.138043/-0.440585/-0.678915/-0.041512/-0.356378/0.48911/0.492671/0.572804/0.5584/-0.707226/0.877703/-0.144707/-0.332369/0.371965/0.236839/0.580974/0.0391715/-0.712321/-0.166985/0.114356/-0.526133/0.371391/0.455841/0.780066/0.534683/0.420219/0.597994/-0.341768/0.472238/0.632696/-0.593885/-0.456499/-0.268426/0.357434/1.09001/-0.0737596/0.233974/-0.666395/0.730532/-0.245693/0.612599/1.45357/-0.229187/-0.133632/-1.19678/-0.890016/-0.243203/-0.737422/-1.46832/-0.374886/-0.317501/0.28552/0.714316/-0.486744/-0.664015/-0.238141/-0.098788/-0.472069/0.316341/-0.367085/1.61144/0.274173/1.26362/0.367624/-0.188227/-0.0912967/-0.152572/-0.704408/-0.263644/-0.0242979/0.957867/0.900183/0.00774527/0.213331/-0.399583/0.410721/-0.471235/0.29942/-0.112038/0.302299/0.620953/0.356679/0.73726/1.93036/-0.146501/0.524179/-0.38527/-0.779735/-0.441169/-0.21853/1.20208/-0.143417/0.275211/-0.200196/0.219274/-0.992881/0.257674/-0.704589/0.493763/0.757647/-0.800077/-1.33707/-0.450917/-0.469196/-0.905575/-0.0980825/-1.05366/-0.327351/-0.267366/0.377554/-0.34458/0.401269/1.10201/0.633306/-1.07897/-0.495024/0.296162/0.829385/0.313064/0.917408/-0.814305/-1.31521/0.681263/0.0599846/-0.0378119/1.12612/-0.114325/0.41433/-0.622269/0.103826/-0.813039/-0.765609/-0.98248/-0.432043/-0.370174/-0.329281/0.0953537/0.609257/-0.130412/-0.152255/0.614391/0.365486/0.831103/1.02561/0.114219/-0.152386/-0.572674/0.658688/0.834552/-0.651117/0.0945577/-0.217695/-0.201889/0.964936/0.0221166/-0.443379/0.758632/0.307599/-0.493953/-0.552571/-0.371704/1.48633/0.437106/-0.704236/-0.325737/-0.0899223/0.80069/-0.0634937/0.588697/0.128096/0.888973/-0.0471813/0.734393/0.0300942/-0.528063/0.0729901/0.402648/0.435401/-0.572983/0.243595/-0.0476049/0.586624/0.55059/0.912037/0.587621/-0.198326/-0.471565/0.361554/0.398338/0.0173239/0.508613/-0.817531/-0.478088/0.776963/0.490738/0.615881/-0.513602/-0.593/-0.247076/-0.0993574/-0.434156/-0.480447/0.674844/0.789959/-0.0704261/-0.17065/0.259844/0.712825/-0.332928/0.77571/0.762942/-0.992156/-0.462687/1.08739/-0.508443/0.283834/-0.558255/-0.385911/-0.719184/0.589853/0.779864/-0.831965/-0.780335/0.821102/0.00449854/0.737755/1.1295/-0.0124745/-1.14474/0.816093/0.442801/0.940566/0.741284/0.103208/0.110752/0.383654/1.24635/-0.164501/0.210284/0.22639/-0.466957/0.549986/-1.43965/0.0783009/0.219063/0.152765/-0.116947/-0.770327/0.586385/-0.622213/0.460311/1.02994/0.524823/0.625213/0.351637/-0.536801/-0.315817/-0.0897262/-0.379135/0.396332/0.30257/0.860404/0.0995332/0.32212/-0.566674/0.227637/0.986336/-0.140451/-1.31385/0.0967272/0.0983589/-0.65551/0.523817/0.286008/0.394827/0.707754/-0.710044/0.296766/-0.248598/-0.450423/0.399808/-0.869984/0.549662/-1.05215/0.366994/1.02299/-0.528797/-0.613559/0.000895334/0.195721/-0.145096/0.407256/0.335651/-0.649963/-0.578915/-0.730628/-0.0134236/-0.757532/-0.169251/0.905265/0.219456/0.145711/1.08339/-0.257103/-0.49779/-0.353825/-0.651473/-0.0805671/0.504619/0.819569/-0.552399/-0.40618/-1.38481/0.254386/-0.0794852/1.13479/-0.389194/0.774556/-1.23529/0.504863/0.409766/0.517292/-0.345211/0.915429/-0.852854/-0.187989/0.624169/0.0796906/-0.259999/0.111008/-0.261378/0.0448169/-0.564985/0.299432/0.587321/-0.663849/0.662897/-0.406176/0.651586/-0.130675/0.156074/-1.18072/1.07027/0.336404/0.990833/-0.449047/0.108988/-0.567982/0.173622/0.249493/-0.520275/-0.952122/0.227324/-0.678153/0.481685/-0.404988/0.26745/0.46585/-0.630518/0.82279/0.54447/0.913972/-0.86358/0.59284/0.372719/1.07412/-0.602052/0.087434/0.102028/-0.362187/-0.288598/-0.488341/-0.434038/0.0538834/-0.376027/0.128568/-0.68961/-0.310599/-0.714974/-0.630152/-0.23784/-1.2821/-0.57849/0.479564/-0.73337/1.02348/-0.109559/0.130603/0.22499/-0.596379/0.683344/0.626794/0.673374/-0.16517/0.599593/0.0259165/-1.08825/-0.264941/-0.797476/0.415679/-0.609132/-0.258661/0.392506/0.343937/-0.067688/-0.918736/0.616912/0.153977/-1.13631/-0.0717681/0.0398686/-0.811769/-0.0276062/1.00406/-0.410988/-0.530134/0.310479/0.222883/0.00716697/-0.96661/-0.48081/0.0535573/-0.238432/-0.218307/-0.123362/-0.955322/1.00676/0.954814/0.697791/-0.978347/0.734965/0.933474/0.92642/-0.565299/0.986066/0.0454468/-0.444177/0.944938/-0.0370639/0.845713/0.256395/-0.388604/0.612066/-0.732012/0.146091/-0.650883/0.604141/-0.202596/0.963095/0.741062/-0.977927/-0.0169824/0.353042/0.155501/-0.966508/-0.0943078/0.969629/0.561254/0.999094/-0.221161/0.943503/-0.544503/0.539028/-0.558284/0.912715/-0.00411244/0.88221/-0.69067/-0.0868279/0.683581/0.952285/-0.939179/-0.776592/-1.61255/
0.400791/0.0934811/-0.863642/0.771135/0.473292/0.897931/0.975317/0.252625/0.0123903/0.247774/0.405339/0.530421/0.78274/0.154904/0.271334/0.0831256/-0.418449/-0.269065/-0.64364/-0.269727/0.695906/0.0854125/-0.472066/-0.0054802/-0.105793/-0.0588933/0.180555/0.583589/0.384197/-0.809211/-0.574665/0.430792/-0.962475/-0.568693/-0.308177/-0.957242/-0.478615/-0.0358929/0.789845/0.370857/0.501754/0.786678/0.835083/0.20494/0.181832/-0.957453/0.663847/-0.451305/-0.0814009/0.195615/-0.501758/0.282285/0.626504/0.0239668/-0.329872/-0.197546/-0.161433/0.798447/-0.311129/0.642743/0.810187/0.637757/0.85117/-0.631631/0.118909/-0.493426/-0.645952/0.508695/0.478813/-0.584301/-0.302355/0.308025/-0.720175/-0.53673/0.212073/1.06545/-0.300306/1.02441/-0.325133/0.344161/0.712715/-0.812351/-0.0551876/-0.312829/0.289531/0.137008/-0.933842/0.303002/-0.503935/0.0517768/0.705058/-0.850372/0.0232496/-1.14833/0.855386/-0.320297/-0.589719/-0.821076/0.553591/-1.30827/-1.0612/0.228307/0.0563949/-0.718224/1.18016/-0.115746/0.566072/-0.697214/0.44066/0.535626/0.061622/-0.190097/-0.968138/0.51147/0.286299/-0.207695/0.871511/1.13585/0.648426/0.528458/-1.49053/0.379156/0.535714/-0.47563/0.169889/0.718878/0.0710961/0.0640001/-0.801047/0.158023/0.951227/-0.00173376/0.46998/-0.678402/0.364946/0.322619/-0.427903/-0.510271/-0.004435/0.356227/-0.894502/0.104369/0.244684/0.274098/-0.320818/0.439208/-0.0195921/-0.939709/0.180121/-0.316902/0.195641/0.964016/0.647967/-0.272971/-0.810676/-0.281012/0.241094/0.596107/0.581666/0.624955/-1.23623/0.220284/0.259032/0.244243/-0.237737/1.11395/0.321624/0.266226/0.452505/-0.735939/-0.0568215/-0.14212/1.03229/0.714281/0.565765/-0.499882/-0.123669/0.109627/-0.192481/0.0753379/-1.24394/0.324901/-0.500295/0.680191/-0.933566/0.146237/0.392246/-0.792505/-0.0742253/0.267983/0.564242/-1.06778/-0.00255097/1.12043/-0.79644/0.182716/0.902075/-0.811449/0.981831/0.616185/0.274781/-0.131058/-0.838564/-0.0435798/-1.01617/0.56526/0.443907/-1.20228/0.0569788/-0.57018/1.49967/0.0892828/-0.00153024/-0.461104/-0.17008/-0.54496/0.884102/-0.0778919/0.763585/-0.278137/-0.3474/0.368504/-0.342466/0.922857/0.465903/0.468726/0.355804/-0.362659/-0.172202/-0.18967/-0.782253/0.669354/0.369993/-0.0604455/-0.081931/-0.872697/-0.98298/0.911123/-0.292394/1.38307/1.38645/-0.221051/-0.791381/-0.694842/0.460394/0.648434/-0.611381/-1.05916/-1.17165/-0.824819/0.346201/-0.690473/-0.774474/-0.582667/-0.365737/-0.304884/0.400554/0.0371757/-0.930893/-0.626534/-0.471356/1.13041/0.190766/-0.292305/0.298528/0.10377/0.862807/-0.429234/0.926252/0.166595/-0.726914/-0.916769/0.609614/0.819485/0.31689/0.420568/0.28709/-0.473635/0.950088/0.207826/0.935735/0.867162/0.857425/-1.25115/0.171152/1.12745/0.239526/-0.718474/-1.09752/-0.251168/-0.611664/0.0429582/0.547973/0.00407654/-1.14894/0.485352/1.17576/-0.550404/-0.376642/-0.0158141/-0.0278593/0.265832/-0.411347/-0.272791/-0.352581/-0.447824/-0.513645/-0.988979/0.232363/-0.693821/0.465969/0.683864/0.651034/-0.0604773/0.521895/-1.06141/-0.150839/-0.311022/-1.06701/-0.245042/-0.0787001/0.725924/0.566198/0.415022/1.1822/-0.0376432/0.203212/1.13519/0.667665/-1.21139/0.639986/-1.03317/-1.3002/-0.0817318/0.790918/-0.174106/-0.205875/-0.152567/0.854953/-0.406621/0.838187/0.520889/-0.459082/0.525943/-1.34151/-1.39873/-0.170416/0.115758/-0.848067/-0.232169/-1.35707/-0.17854/0.271968/1.04331/0.484623/0.552633/-0.457434/0.175751/-0.667313/-0.455574/-1.11991/-0.191559/0.0526585/-0.203539/-0.884629/0.0695047/-0.318974/1.28708/0.125149/0.0968862/-0.484026/-0.781465/-0.127547/-0.0599233/0.622857/-0.111218/-0.370771/0.150924/-0.608807/0.219849/-0.211822/0.207289/-0.398458/-0.307998/0.950158/-1.21992/0.0586109/-0.869447/-0.3/-0.173659/-0.624171/0.431857/0.21468/0.22566/-0.592977/-0.725651/-0.30282/0.22606/0.000509294/0.762067/-0.467301/0.546098/0.37931/1.23065/0.610512/0.886129/1.02056/0.921305/0.589675/-0.0450614/1.87284/0.85225/-1.04589/0.170205/-0.132628/-0.233663/-1.25692/-0.333811/-0.331379/0.429557/-0.435673/-0.3037/0.993409/-0.193554/1.00412/-0.417188/1.06676/-0.191531/-1.51411/-0.792035/0.282434/0.245315/-0.119503/0.911084/-0.198988/0.248027/-0.467648/0.32013/1.24697/-0.818588/-0.218359/0.431723/-0.655034/-0.380027/0.385126/-0.42538/-0.873066/0.0204613/-0.107496/-0.728973/-0.700769/-0.536409/0.951095/-0.619431/0.301739/-0.293399/-1.66668/-1.24994/0.0667158/0.0631337/-0.0409457/-0.0257048/0.97768/1.28199/-0.343545/0.297861/0.548806/0.208693/-0.0676609/0.492279/0.266232/0.398723/-1.32473/0.0879778/0.964491/-0.12563/0.499881/-0.528497/-0.714953/0.566266/-0.225855/0.354654/-0.325711/-1.12806/-0.85546/0.634929/-0.485244/-0.8238/0.685489/-0.834767/-0.757666/-0.477429/-0.687823/0.805838/0.759225/-1.23762/-1.16632/-0.281617/1.03175/0.290234/-1.15342/-0.342155/0.666075/0.515448/-0.858858/-0.822535/1.03296/1.32284/0.490947/-0.445614/0.741214/0.292215/0.53037/-0.465192/-0.0456184/-0.326439/1.03429/-0.334543/0.466727/0.778272/-0.149009/-0.796544/0.996165/-0.585089/0.0683668/-0.788271/0.414877/1.12437/0.408193/-1.19744/0.622159/-0.278633/-0.992579/-0.236022/0.294682/0.501328/-0.481817/0.237552/0.359642/-0.348133/1.18655/0.187609/0.886948/-0.425428/1.1239/-0.617818/-0.146314/0.138534/0.484092/-1.23354/-0.702562/0.637765/0.0787133/0.203408/0.650492/0.114172/0.744521/0.307182/0.319153/0.929768/0.619162/0.241269/0.77185/-0.430659/-0.521215/-0.840695/0.79441/-0.146978/0.317941/-0.171851/0.472876/0.39963/0.421412/0.315619/0.00725352/0.321405/-0.878762/0.56646/-0.935781/0.0395952/0.730403/-0.21747/0.410562/0.103158/0.746366/-0.220437/0.191052/-0.812876/0.000378132/0.329308/-0.87118/0.845622/0.210308/-0.0278979/-0.516639/0.985111/0.144235/-0.342877/0.576783/0.153181/-0.527465/0.280851/0.805384/0.682399/-0.294319/-0.645496/-0.69478/-0.911461/-1.1496/0.27231/6.13388e-05/0.345736/-0.549567/0.625715/-0.420255/0.526137/0.776712/0.241128/0.236774/1.04317/0.85985/-0.424579/0.680269/-0.213698/-0.561853/-0.334947/0.97715/-0.14745/-0.875433/-0.366845/0.280439/-0.149853/0.385516/0.260641/-0.981327/-1.2053/-1.3062/0.140068/0.341129/-0.862091/0.498963/-0.0295358/0.43901/0.018941/0.341475/-0.791536/-0.168213/0.653481/0.455266/-0.771032/0.0346112/0.0946362/0.60478/-0.0680369/-0.312121/0.451509/-0.938722/0.510471/0.315525/-0.707468/0.00215349/-0.513473/-0.0527752/0.199268/-0.0642005/0.41277/1.11494/1.28495/0.120302/1.1631/-0.161704/-0.902932/0.423593/-0.705519/0.0346401/0.943036/-0.64818/0.67913/0.93649/1.15106/0.0846228/0.452082/0.755063/1.05741/0.294278/0.219651/0.308235/-0.560597/-0.728049/0.590356/0.366273/-0.387872/0.65111/-0.356585/0.0118882/0.480329/0.968917/-0.0344193/-0.681111/0.463993/0.326197/0.336728/0.212881/0.24094/0.732745/-0.485897/-0.573247/-0.433335/0.920022/0.676172/1.03019/1.02215/1.08709/0.643606/0.198849/-0.287725/0.606855/0.312311/-0.571657/0.472286/-0.952913/0.130692/0.920936/0.421618/-0.171455/0.240444/0.669975/0.915175/-0.660519/0.663265/-0.487466/-0.00361127/-0.00245394/-0.776512/-0.907661/-0.604304/0.434828/0.994127/0.953796/-0.857316/0.0436461/-0.775026/-0.498785/0.289599/-0.671322/0.4224/0.511163/-0.661218/0.760854/-0.308277/-0.632574/-0.0337457/0.988228/0.58683/-0.363592/0.973806/0.764773/-0.4675/0.725199/0.416773/0.703756/0.0292483/-0.423219/0.960646/0.347589/-0.0698955/-0.734324/0.217085/0.539843/-0.860197/0.663337/0.699849/0.358309/0.101076/0.791124/0.429022/0.565255/0.236544/-0.404857/-0.437564/-0.13283/-0.471416/0.903665/-0.109051/0.00577238/
0.764842/0.704749/0.718182/0.493142/0.237794/0.971473/-0.279608/-0.60536/0.0602603/0.303979/-0.562984/-0.0747449/-0.237124/0.79127/0.942008/0.288083/-0.0897189/0.196089/-0.159727/-0.807977/0.329275/0.12077/-0.214455/-0.338043/0.506223/0.0977777/-0.650171/0.576216/0.467304/-0.019498/0.43415/0.392577/0.035144/0.965553/0.307697/-0.44327/0.985815/-0.0421245/1.02121/1.04656/-0.829035/-0.1738/-0.807299/0.528126/-0.53475/-0.296447/-0.672352/-0.581963/0.413198/-0.587971/0.737218/0.977668/-0.7045/0.836085/0.194131/0.776959/0.357709/0.01517/0.776343/-0.481372/-0.146974/0.735539/-0.551378/-0.307885/1.18534/0.506815/1.04845/0.781482/-0.527599/-0.495924/0.196473/0.275905/0.409704/-0.222768/-0.462604/0.186028/1.23108/0.319225/-0.835705/0.225944/-0.061212/-0.568351/0.313101/0.890164/0.988883/0.168869/0.395337/-0.109204/-0.897214/0.671793/1.08249/0.0476546/-0.665357/0.945082/-0.489997/0.755523/-0.61923/-0.704129/0.0511248/0.703859/0.632768/0.633409/0.3371/-0.234022/0.0687846/-0.423006/-0.193826/1.4658/1.08106/0.724525/0.764828/0.158485/-0.339997/-0.323721/0.70539/-0.536842/0.340508/-0.552948/1.02865/-0.307655/-0.423339/-0.159525/-1.17933/0.217947/0.661657/-0.762368/-0.434398/0.311951/-1.09422/-0.718878/-0.339976/-0.450408/0.586464/-0.793169/0.253052/-0.241596/-0.679158/0.900764/0.462533/0.748032/0.171911/-0.692537/0.567741/-1.0923/-0.53041/-0.766928/-0.746315/-0.859496/-0.591546/-0.227378/0.249317/-0.0543877/-0.43857/-0.0362525/-1.06293/-0.662282/-0.777405/0.0449751/-0.412085/-0.237022/0.0444178/-0.608206/0.873554/-0.330157/-0.406362/-0.517036/-0.630304/0.0737158/0.942264/0.627192/0.336774/-0.280495/-0.84985/-0.399128/-0.0662874/-0.737089/0.198648/0.819777/0.295405/0.47901/-0.574107/-0.508575/-0.0949851/0.261066/-0.703601/0.084678/0.4051/0.363805/-0.100989/0.0887922/0.0279265/-0.942062/0.523031/-0.219019/-0.616405/-0.892125/0.0512085/0.646355/-0.94725/0.136006/-0.924108/0.537507/0.0533756/1.13793/0.175713/-0.0941688/-0.381488/-1.01625/-0.698041/-0.81662/-0.15122/-0.118264/-0.164256/-0.833794/-0.843651/0.627435/0.623269/-0.831126/0.0512989/0.123722/0.907308/0.109022/-0.952843/0.755041/-0.0234502/-0.121109/-0.469213/-0.391668/-0.894423/0.892541/-0.0261915/-0.0259982/-0.13019/-0.637892/-0.175837/0.57395/-0.645233/0.194814/0.036971/0.524824/0.00198665/-1.00254/-0.285343/-1.07537/0.490932/1.06542/-0.812646/0.388067/-0.419333/0.891147/-0.0703842/0.160196/0.41341/0.192029/-0.316231/0.935047/-0.337117/0.639241/1.23993/0.56344/0.215156/-1.09858/0.459812/-0.488802/-0.179374/-0.0664267/-1.05535/-0.706214/0.0979822/-0.543555/-0.0232702/0.535652/0.20694/-0.733334/0.00879213/-0.428064/-0.381406/0.103619/-0.408539/0.778487/0.0330368/-0.777512/-0.810202/-0.340876/0.144646/0.397959/1.21088/-0.440716/0.77248/0.317202/0.562852/-0.602024/-0.613043/0.483571/-1.17095/-0.0118487/0.0504302/-0.894797/-0.886826/-0.713253/0.366042/-1.53529/-0.642569/-0.157322/-0.17847/-0.43459/0.0329407/-0.791577/-0.0330437/0.597161/-0.726681/0.972553/-0.362403/-0.182027/0.831105/0.973575/0.588539/1.1002/1.06836/-0.29151/0.12842/-0.703226/1.04364/-0.115079/-0.145388/-1.16776/-0.512257/0.256959/-1.00762/0.518073/-0.0822592/0.126303/-0.519377/1.06299/-0.0318705/0.677298/-0.655974/-0.972303/-0.807751/0.425661/0.0274823/0.619907/-0.09817/0.731698/-0.779551/0.981773/-0.46119/0.560831/-0.147058/0.556421/0.880022/0.436731/1.07292/0.194478/0.343352/-0.0570421/0.754465/0.220419/0.21631/0.766772/-0.714252/0.954008/0.350424/-0.398683/-0.659203/0.790269/0.266048/1.26748/-0.0643294/-0.301467/0.375542/-0.274647/-0.355991/0.106512/-0.160587/0.977362/1.24998/0.955794/0.395239/1.13758/1.20291/1.68716/1.41045/1.3137/0.980117/1.04367/-0.162709/0.491989/1.13775/0.347891/-0.915676/0.41356/0.697332/0.0766942/0.888971/1.03536/0.157539/-0.0708888/0.0303435/-0.687189/0.757081/-0.503075/0.834515/0.754475/0.182034/1.24949/1.19577/0.438055/0.135853/1.12243/1.29511/0.17116/-0.0433527/1.72717/0.0949085/0.850011/0.0997098/0.980649/0.39775/-0.163326/0.979238/0.0830597/0.637254/-0.447793/0.0364295/-0.626488/0.102457/-0.099303/0.246079/1.09833/0.181844/-0.319496/1.00582/1.40842/0.0872851/-0.360177/0.680128/0.902498/-0.0708548/0.698288/1.00614/0.971958/0.424476/1.7526/1.72367/0.448337/0.177056/-0.490619/0.162087/0.229119/-0.741354/0.351051/0.326703/-0.123401/-0.144036/-0.64309/0.0502761/-0.239245/0.647375/1.0502/-0.268767/1.09593/0.236368/0.742349/0.867094/-0.0902771/0.0506209/1.25564/1.18796/-0.459428/1.17879/0.60057/0.685363/0.17695/-0.114159/-0.640233/-0.404227/0.197161/0.909591/-0.237791/0.251137/-0.375117/-0.0609434/0.516095/0.263269/-0.600778/-0.494906/-0.0326198/-0.310306/-0.18698/-0.0404293/0.678496/-0.452099/-0.293551/0.718387/0.0475071/0.236288/0.613074/0.786866/0.374745/-0.295187/-0.423213/0.523566/0.971508/0.139762/1.00788/-0.55172/0.0561474/0.226326/-0.397851/-0.661729/0.645707/-0.549489/0.29979/0.36193/0.416201/-0.223876/0.0567668/0.793053/-0.627175/-0.598186/-0.142607/0.424416/-0.177316/-1.22084/-0.104095/-0.0510847/-0.392046/-0.705469/-0.15647/0.154269/0.871453/0.511388/0.941833/1.1829/0.306397/-0.762407/-0.751455/0.901745/-0.0597162/0.492919/0.728536/0.418195/-0.49903/-0.217872/0.584834/0.611704/-0.650795/-0.0720574/-0.249498/-0.589343/-0.118038/-0.266504/-0.849824/-0.302639/-0.189951/-0.461845/-0.929409/-0.816449/0.354051/0.526879/-0.704145/0.0412099/0.879733/-0.310788/0.223784/0.704001/0.402152/-0.704317/-1.17824/0.0523599/0.173266/0.766331/-0.336736/-0.126407/-0.728663/-0.631419/-0.370141/-0.280536/-0.354531/-0.673015/0.0260648/-0.260674/-0.243765/-0.529618/-1.32061/-0.0962896/0.0534779/0.802434/0.547955/-0.47239/0.435913/0.97173/0.711603/0.155332/-0.275176/-0.880044/0.0842352/0.408335/0.789234/-0.824872/-0.182799/-0.652645/-0.0583568/0.285365/0.0616076/-0.469915/-1.30342/0.652064/-0.819961/-0.410506/0.480269/-0.721841/0.287875/0.760829/0.490659/0.498943/-0.230363/0.925674/1.0002/1.13324/-0.797395/-0.889338/-0.789397/1.03844/0.755939/0.616132/0.590407/-0.303959/-0.911906/-0.847034/0.993301/0.23101/0.70644/0.185438/0.141511/0.292846/-0.856996/-0.522754/0.158654/-1.06851/-0.276822/-0.273413/-0.0563728/0.541905/-0.175992/1.0974/-0.514332/1.111/0.486591/1.01908/0.904922/-0.250946/0.821227/-0.742641/-0.631962/-0.0296171/0.936111/-0.190088/-0.0279002/-0.0399552/-0.256006/0.155088/-0.0328918/-0.615819/-0.307856/0.661027/-0.834837/-0.908689/-0.0477402/-0.204345/0.559653/0.091442/0.871425/0.54115/-0.143748/0.620182/-0.530251/0.899054/0.35929/0.719076/0.316054/0.50104/-0.373192/0.969815/-0.328804/0.141167/0.356828/0.0138152/-0.687628/1.1557/0.573346/0.264216/-0.0124213/-0.0362012/0.146179/-0.606491/-1.03474/0.12401/-0.559804/-0.622145/-0.39981/0.104835/-0.488814/0.49292/-0.637287/0.586968/0.311069/-0.294885/-0.260912/-0.0787734/0.056665/-0.3723/-0.45704/0.685681/-0.186913/-0.0258724/-0.367174/-0.752034/0.092929/-0.484943/-0.151244/0.264308/0.683254/0.763528/-0.679559/0.477535/-0.0601693/0.734112/0.213534/0.234737/-0.590276/0.00601247/1.00261/-0.332972/0.0583608/-0.578829/0.857131/0.427458/-0.33762/-0.949869/-0.923694/0.612493/-0.093201/-0.429086/1.00418/-0.116595/0.586662/0.161279/-0.0289993/0.953022/-0.358178/-0.731602/-0.133834/-0.965985/0.957872/0.950987/-0.759691/-0.126807/0.75403/0.975578/0.545266/0.284002/0.806655/0.0492344/0.891661/0.139186/-0.69592/-0.32036/-0.292335/0.733708/-0.571168/0.386426/0.664672/-0.862968/0.0970031/0.331118/-0.905168/0.838941/0.0877632/-0.964569/0.485991/0.0494371/0.889756/1.14605/
0.118255/-0.487242/0.923801/0.322502/0.298019/0.752927/0.192274/-0.935461/0.977092/-0.262775/-0.517431/-0.469282/0.778003/-0.0895927/0.229843/-0.850757/-0.553293/-0.980675/0.569435/-0.608027/0.892155/0.454798/-0.217564/-0.598264/0.976636/0.316665/0.191816/-0.144311/0.572721/-0.280346/0.512301/-0.114598/-0.780846/-0.507534/-0.609027/0.685049/-0.696256/0.31262/0.302726/-0.15144/0.786881/-0.650676/-0.838087/-0.93208/0.258143/-0.766934/0.331248/0.87233/-0.311722/0.0105503/0.860275/0.281438/-0.672644/-0.637896/-0.154747/0.984605/0.250794/-0.91345/-0.23947/0.479688/-0.321828/0.327722/-0.637125/0.768177/0.465747/0.500097/-0.182571/-0.692306/0.36339/-0.752763/0.9644/-0.206181/0.819968/-0.307474/-0.799474/-0.00916642/-1.07728/0.441457/0.51565/-0.0144033/-0.987767/0.126786/0.802417/-0.519869/0.567282/0.306832/0.474775/0.657812/0.671979/1.01936/0.291982/-0.359199/0.906058/-0.0201273/-0.524371/-0.540656/-0.938818/-0.68531/0.806497/0.767499/-0.63982/0.329613/-0.367407/0.65142/0.611948/-0.534221/-0.800718/0.429478/-0.761229/-0.696234/-0.487932/0.14658/-0.422348/-0.410631/0.650915/-0.690302/0.755705/-0.396099/0.18645/-0.732582/0.692931/-0.349972/0.13818/-0.493929/-0.535101/-0.672085/0.703448/0.582961/0.583865/0.330309/-0.830646/-0.310998/0.570272/-0.389239/-1.00336/-0.511448/0.421761/0.550852/-0.309749/0.465504/-0.281884/0.371925/0.700593/-0.461722/0.0799788/0.0343667/-1.07062/-0.164767/-0.614115/-0.662829/-0.701502/0.700757/0.129565/0.416804/-0.613131/0.412435/-0.234198/0.486651/-0.577894/-0.272347/-0.75726/-0.211519/0.00772125/-0.0836082/0.698362/-0.841118/0.118415/-0.480029/0.148845/-0.364363/-0.0334724/0.128351/0.0443194/-0.616783/-0.765647/0.527655/0.617035/-0.438313/0.586076/0.1139/0.543191/-0.580088/-0.7566/0.486377/0.144899/0.995323/-0.264828/-0.0378113/0.435586/-0.312306/-0.150012/-0.0679093/-0.0627582/-0.0226806/-0.92824/-0.0661224/0.681322/0.980453/1.22545/0.0449835/0.690106/-0.77543/0.248045/-0.21166/0.328643/0.62922/0.206577/0.813678/1.00102/-0.623196/-0.250426/-0.0716342/0.624626/1.33477/0.439892/-0.785581/-0.292963/-0.841907/-0.455966/0.330092/-0.545753/-0.177847/0.19318/0.400868/-0.618956/-0.791896/-0.198476/-0.379369/-0.339769/-0.50494/-0.440462/0.451994/0.263176/0.685838/0.904722/-0.783168/-0.868512/-0.487725/-1.08182/0.0182979/0.96442/0.218588/-0.193572/-0.679574/-0.290122/0.634446/0.332227/-0.417318/-0.123901/0.334337/0.330757/0.516198/-0.259029/0.491637/0.438271/0.438452/-1.07302/0.25538/0.186931/-0.380402/0.00610307/1.02628/-0.328487/-0.123406/-0.174957/-0.424945/-0.924719/-0.597048/0.982724/1.12581/-0.254692/0.479757/0.176817/0.576776/1.23204/-1.29028/-0.213477/0.372238/0.670386/0.937151/0.692003/0.484659/-0.410614/0.336899/0.372708/1.06639/-0.135285/0.819782/0.661668/1.17163/-0.18768/-0.351852/-0.485333/0.66147/0.655765/0.367248/0.381705/-0.286206/-0.155842/-0.902682/-0.340106/-0.392034/-0.534866/-0.648184/0.42119/0.931258/0.257468/0.201861/0.684421/-0.921261/-0.999402/-0.80249/1.05972/-0.647909/-0.173084/-0.485777/0.903316/1.05285/0.140234/-0.723634/-1.58418/0.21947/-0.556398/-0.166304/-0.409167/-0.303763/0.124309/1.09463/-0.0860282/1.06588/-0.606533/-0.439048/-0.245457/0.138977/-0.0723324/-0.854381/0.422734/0.906904/-0.549917/-0.145827/-0.474419/-0.613507/-0.164516/0.538095/0.111263/0.428972/-1.05064/-0.252045/0.0971397/-1.11841/-0.629683/0.375191/0.44314/0.507002/0.153081/0.787864/-0.0416197/0.617247/-1.20577/-0.24089/0.12075/-0.519206/-0.0121739/-0.16931/0.405682/0.267007/-0.834921/0.832292/0.10844/0.248873/0.537177/-0.861845/0.359372/0.127304/-0.937629/-0.228878/-0.85602/0.0437224/-0.343367/-0.636443/0.930963/0.166197/0.0378465/0.193263/0.826227/-0.670888/-0.578289/-0.106641/-1.30712/0.150944/-0.0443315/-0.815375/-0.00506051/0.937974/0.154653/0.0605741/1.00838/1.22378/0.965965/-0.117792/0.278718/-0.558035/-0.910616/0.434476/0.709389/-0.168105/-0.826561/0.757476/0.74713/0.657674/1.41661/-0.270652/-0.604712/-0.194528/-0.134325/-0.404681/-1.20741/-0.923791/0.548119/-0.402907/0.340601/0.572952/-1.01607/-0.52753/-0.0867881/-0.0666392/-0.329126/-0.678381/-0.316682/-0.693075/0.0594139/-0.583638/0.540495/-0.549659/0.629377/0.631989/-0.637756/-0.231847/0.203961/-0.77177/-1.09605/-1.05045/0.0970848/-0.0277122/-0.094777/0.280023/0.912891/-0.0988986/-0.188072/-0.88283/0.471256/-0.937646/-0.163066/0.792311/0.297735/0.273537/0.613301/0.401802/-0.853417/-0.583087/-0.805877/-0.922385/-0.327299/-0.239331/-0.116663/0.428978/0.863514/-0.638912/0.726514/-0.365209/0.263624/-0.73338/0.275816/-0.322501/-0.816327/-0.164845/0.201942/0.106281/-0.476535/0.41935/-0.80209/0.328328/0.545702/0.165123/-0.387106/-0.242512/0.278366/-0.0483903/-0.62205/-0.917664/-0.801435/0.469968/0.668822/-0.191478/-0.667966/-1.17228/-0.338467/0.0584163/-0.17995/1.39091/0.152169/-0.901425/-0.419299/0.0933922/-0.35743/0.782859/-0.56653/0.726974/-0.512775/-0.338453/0.657401/0.29275/-0.0943985/-0.469912/-0.267322/-0.373059/-1.30119/-1.41125/-0.734129/0.406343/0.465458/0.724539/-0.130007/0.348108/-0.434434/-0.208908/0.52147/-0.318016/-0.508259/-0.540125/-0.610664/0.294121/-0.708813/1.04173/0.00462878/-0.0782259/0.359899/-0.346243/0.627659/-0.136586/-0.204412/-0.384978/-0.482071/-0.00606482/-1.32463/-0.306072/0.323187/1.33259/0.69895/0.419993/0.181428/-0.480668/0.37244/-0.588952/0.844445/-0.409272/0.91349/-0.695795/0.364032/0.234904/0.0382304/0.558351/-0.236692/0.743462/-0.411286/-0.604982/-0.353626/-0.24222/1.55011/-0.221084/0.766472/-0.688841/-0.901258/-0.492781/-1.28678/-0.278049/0.835847/0.367137/0.606193/0.0668954/0.498731/0.556346/-0.14922/-0.245742/0.311463/-0.540734/-0.306675/-0.570224/0.24132/-0.162712/-1.11284/-0.763126/0.155745/-0.526056/-0.608211/1.16026/0.521733/-0.383285/-0.162276/-0.558298/-0.0521467/-1.22906/-0.768229/-0.847527/0.593212/-0.0771278/-0.0494702/-1.06242/0.335091/-0.355145/0.660546/0.0849121/0.332642/0.89219/-0.859966/0.881247/-0.87366/0.405011/0.529196/0.280518/0.813061/0.530268/-0.21329/1.40266/0.308368/0.347209/-0.567271/-0.387511/-0.149868/-0.355743/0.190543/-1.08376/-0.112317/1.12867/0.18604/-0.936388/0.510303/0.66339/0.397756/-0.611289/0.385395/-0.758102/-0.856888/0.453774/0.583285/-0.732526/0.410757/-0.407437/0.675152/-0.445016/-0.0301258/-0.309804/-0.226798/-0.0670724/0.68962/-1.11733/-0.380947/-1.22666/0.211755/0.12626/-0.879494/0.504792/0.157726/-0.966795/0.496367/0.482829/-1.13162/-1.20422/-0.080205/-0.743431/0.60126/0.27351/0.876831/0.89495/-0.466681/0.74707/-0.181585/-0.656352/-0.00742025/1.06737/-0.215043/-0.0642196/-0.593612/-0.726109/-1.37439/-0.246492/-0.694099/-0.67106/-0.755257/-0.288464/0.361877/-0.238607/0.559249/0.529529/-0.689662/-1.15282/0.348872/-0.456586/0.0758383/0.32291/-0.854412/-0.0922297/0.552756/0.635665/0.216871/-1.09138/0.273101/0.560406/-0.316204/0.138631/-0.336302/-1.06081/0.652666/-0.770816/0.0365401/-0.920883/-0.302566/0.0602167/0.0812398/0.180077/0.646076/0.337804/-1.21348/0.0583237/0.370728/0.688328/-0.0905565/-0.868327/0.0364363/0.384779/-0.165396/-0.853986/0.861844/0.730219/0.798132/-0.200755/-0.921971/0.132314/-0.551953/-0.993494/-0.57099/-0.180902/-0.074853/-1.01437/0.774866/-0.44747/0.867422/0.455756/-0.877332/-0.59575/-0.290863/-0.307428/-0.341307/0.981615/-0.347943/-0.349546/-0.813111/0.0359464/0.151762/0.659972/0.149572/-0.136/0.240181/0.728139/-0.783762/-0.683151/0.281268/-0.733979/0.018052/-0.599283/-0.150544/-0.189681/0.0383566/0.658889/-0.0530285/0.750185/0.359399/0.417269/-0.955604/-0.83455/-0.275302/0.99207/-0.279828/0.924566/-0.0252689/
