-0.999984/-0.736924/0.511211/-0.0826997/0.0656173/-0.561635/-0.905373/0.359974/0.358838/0.869483/-0.232996/0.0388327/0.662286/-0.930672/-0.893063/0.0594287/0.342284/-0.984855/-0.233176/-0.866316/-0.165028/0.373545/0.177953/0.860873/0.692334/0.0538576/-0.81607/0.307838/-0.168001/0.402378/0.828801/0.529228/-0.489707/-0.919019/0.451017/-0.384289/0.272884/0.52186/1.06228/-0.232759/-0.431208/1.01083/0.460133/0.578853/0.341591/-0.855068/0.226454/0.77157/-0.449425/-0.144168/0.541413/-0.0203666/-0.489115/-0.438867/-0.281591/-0.666986/-0.0269652/0.803311/0.891946/-0.880695/0.713719/-0.109402/-0.000263794/-0.236094/1.10341/0.0465735/-0.535226/-1.04308/0.614619/-1.12732/-0.289398/-0.280004/-0.455503/0.882757/0.0417073/0.0273241/0.988538/-0.62545/0.87028/0.762841/1.01371/-0.597102/-0.971289/0.376911/0.736494/0.26285/0.573141/0.468036/0.885932/0.756677/-0.245357/0.100497/-0.264363/-0.177617/-0.276243/0.204071/-0.580546/0.188439/-1.01055/-0.167441/0.405328/0.556328/-0.1028/-0.480937/-0.489121/0.537379/1.39263/-0.322755/0.511206/0.209239/0.891454/0.496585/0.109168/0.783738/0.341653/0.690392/-0.665009/-0.322211/0.937424/-0.398127/-0.645444/-0.0354526/-0.782287/0.218199/-0.732715/0.474592/0.839412/0.234396/0.840027/0.841879/1.51395/0.933808/-0.0475249/0.984154/0.601079/0.645945/0.678004/-0.49189/0.16631/0.691151/0.180217/0.898961/0.0656396/-0.827611/0.678835/0.0960153/-0.39156/-0.00523074/-0.715123/0.00400298/0.1634/1.51139/0.115886/-0.0687708/-0.258667/0.604903/-0.646788/0.33034/0.749632/1.30986/0.275558/0.503598/0.00722151/-0.0433971/-0.496878/0.938936/-0.141735/-0.715958/0.894974/-0.195796/-0.820673/0.551744/-1.24777/-0.641332/-0.989618/-0.402639/-0.617972/-0.483677/1.41071/0.396741/0.45942/0.0134373/0.105306/0.817079/0.481788/-0.451887/0.430587/1.07215/-0.447443/0.916349/0.325644/0.53561/0.710853/0.729254/0.52248/-0.07551/0.902735/0.235933/-0.155812/0.786756/0.706278/0.51012/0.486801/0.922687/0.201234/-0.772376/0.0889101/0.343562/-0.414078/-0.275296/-0.046256/0.51862/-0.200031/0.63871/0.770346/0.657883/0.663981/-0.250037/0.215418/-0.524703/0.62204/-0.0019874/-0.0513808/-0.869612/0.426845/-0.0460846/0.208773/-0.0940846/-0.830841/0.688666/0.194182/0.726369/-0.47952/-1.08554/0.168377/1.07363/-0.265143/0.215928/0.0111605/0.275361/0.722686/0.131623/0.377659/0.911135/-0.229753/-0.893385/1.06559/-0.383226/-0.280119/-0.159684/-1.02474/-0.998242/0.546704/0.469801/-0.0612663/-0.576777/-0.460224/0.636329/-0.457549/0.837462/0.241928/0.70194/-0.224751/-0.711217/1.19226/0.498101/0.242396/-0.105102/-0.6458/-0.575928/0.547667/1.05882/0.356252/0.0977019/0.398362/-0.368176/0.313023/0.586887/-0.180019/-0.435688/-0.612065/-0.974249/-0.876502/1.00144/-0.860683/0.8195/-0.45815/0.175396/0.881677/0.324091/1.22348/0.0360426/1.3389/-0.293309/0.420578/0.25212/-0.0917771/0.2447/0.262651/0.528517/1.42106/0.889832/0.124656/0.597915/-0.707231/0.430179/-0.616272/-0.362444/0.399669/-0.729734/0.582832/-0.150919/-0.621862/-0.210645/-1.12798/0.0738333/-0.683405/-0.276189/0.395508/1.11728/0.0468515/-0.779087/0.567388/0.00853416/-0.775795/0.242132/-0.0253341/0.545837/0.730869/0.0798007/-0.069954/0.144101/-0.143418/0.310063/-0.0815656/-0.224338/-0.441414/-0.885723/0.168342/-0.29748/0.272396/0.563626/0.475802/-0.363527/0.420766/1.18259/0.300578/1.25309/0.261641/0.183151/1.11915/0.615411/-0.0963537/0.746996/1.62549/-0.616252/0.26655/-0.520016/-0.0324565/-0.300923/-0.359308/-1.01779/-0.4234/0.285958/0.0922732/0.843467/0.298151/1.2565/-0.573648/0.792189/0.591318/-0.43434/1.06145/-0.0945137/0.100008/0.467369/0.438791/0.580487/1.22136/0.365791/0.340008/0.5432/0.167488/0.682097/-1.50139/-1.48324/0.0143694/-0.937458/-0.985494/0.893413/0.631109/0.493358/-0.127149/-0.939265/0.138795/0.0508714/-0.718435/0.938432/0.385083/-0.366769/0.101252/0.100377/0.346906/-0.467058/-0.348013/-0.414186/0.625046/-0.388295/0.831837/-0.0653368/-1.27551/-1.00182/-0.338172/0.33473/-0.0772975/-0.75131/-0.504664/-0.10728/0.564448/-0.405956/-0.898795/-0.0195046/0.141625/-0.404938/-0.026928/0.0185063/0.188213/0.308377/-0.133199/-0.800258/0.414074/0.116937/0.100798/1.76711/0.201294/-0.819526/0.604992/-1.28253/-1.02875/-0.862645/0.13627/0.547103/1.2901/0.597757/-0.887547/-0.367014/0.958677/-0.623448/-0.297363/0.231188/0.562903/-0.283426/1.00701/1.69475/-0.210308/0.834878/1.15621/-0.741575/-1.12649/-0.609579/0.949785/0.2902/-1.52425/0.0826983/-0.615649/-0.579167/-0.741874/-0.032604/-0.86999/-0.3085/-0.140129/-0.147709/-1.83219/-0.814838/0.148261/-0.136561/-0.834987/0.396859/-0.0196646/0.555828/-0.741292/1.37762/-1.25226/-1.01295/-0.120508/0.701649/1.22887/-1.10209/-0.995364/0.0965154/-0.308679/0.87214/0.118388/0.449451/0.759171/-0.477328/-0.43573/-0.259635/0.138738/-0.253675/-0.274722/-0.431221/-0.626646/-0.532617/0.306023/-0.610745/0.75729/-0.502059/-0.571522/0.599916/-0.505763/1.38266/-0.264364/0.296873/1.00202/-1.49725/-0.711243/0.277592/0.0161386/-1.05628/-0.790337/-0.789209/0.475322/-0.914589/-0.453249/0.604772/-0.370261/-0.888637/-0.839241/-0.152516/-0.630005/-0.657241/-0.25496/0.932628/1.0341/-0.34989/-0.279599/-0.0568599/0.707365/-0.0731483/-0.241395/-1.18469/0.156595/-0.921736/-0.602971/-0.58058/0.331088/-0.155063/-0.366096/-0.353544/0.00266374/0.0454531/-0.348492/0.275854/-0.383107/-0.459049/-0.195617/-0.537906/-0.210173/-0.519119/-0.833829/-0.164414/0.501139/0.063091/-1.24929/-0.934128/1.07727/0.442481/0.362287/0.130965/-0.869322/0.165528/-0.464222/-0.146475/-0.976707/-0.0314327/-0.358415/0.628619/0.245323/-0.946647/-0.235151/0.618045/0.0566805/-0.455194/0.956552/-0.918717/0.601839/0.892089/-0.65769/0.204568/-0.26683/0.824068/-0.858018/-0.471676/0.284952/0.400119/0.46558/-0.719616/0.183654/0.228762/-0.559193/-0.722155/-1.06227/0.606991/-0.855711/-0.277914/0.86326/-0.284449/-0.590952/-0.475983/0.524013/0.504028/-0.139769/-0.869245/0.424465/-0.243268/-0.598711/-0.577776/-0.330739/-0.345662/0.258843/1.03222/0.0672665/-0.628121/0.560201/-1.08792/-0.192569/-0.555824/0.202747/-0.055455/-0.807058/-0.241912/-0.131798/0.0626473/1.11176/0.999756/0.424219/0.396075/-0.75038/-0.814856/0.397149/-0.0280392/-0.0502565/0.863829/0.381545/0.651033/-0.113433/-0.38723/-1.45974/0.786254/0.783093/-0.381932/-0.435972/-0.240406/-0.96576/-1.26274/-0.27989/-0.782597/-0.035772/0.156438/-0.217489/0.607837/0.939585/0.71115/-0.94471/-0.45944/0.546327/-0.209422/-0.965714/-0.787988/0.843222/-0.556687/-0.239771/0.185168/-0.698205/-1.40877/-0.345644/0.338019/0.394152/-0.730069/0.531374/0.737642/0.572179/-0.412587/-0.415957/0.364318/0.160094/-0.522591/0.0556256/0.114645/0.324376/-0.404315/0.85993/0.229769/-0.242851/0.2458/0.555101/0.352235/-0.804498/0.0974726/0.221475/0.345515/0.0223771/0.0060877/-0.0111203/-0.125279/-0.579043/0.185465/0.697681/-0.831831/-1.20697/-0.136028/-0.394477/-0.771851/-0.508606/-0.748346/-0.133461/0.270548/0.356643/0.179335/0.771342/0.413963/0.0577699/0.150746/0.488504/0.442901/-0.175727/-0.026301/-0.0404343/0.420773/0.0724584/-0.43442/0.197309/-0.482347/0.362719/0.0697651/0.952128/-0.452449/-0.221796/0.134369/0.543073/0.837765/0.347489/0.663119/0.076611/-0.532832/-0.713587/0.771529/-0.497283/0.300121/-0.988261/0.889711/-0.424556/0.725036/-0.440323/0.904862/0.0136399/-0.7541/-0.167049/0.404943/-0.127018/-0.784522/0.53235/-0.800251/-0.117465/-0.310847/-0.405872/0.515242/-0.322981/-0.338483/-0.888788/0.146366/-0.0294279/-0.595036/-0.771051/0.948696/0.729219/-0.0163185/-0.26521/0.609825/-0.675592/-0.68084/-0.884554/-0.701497/0.437924/
-0.238783/0.767409/-0.151733/-0.175504/0.302611/-0.383205/-0.879469/0.629336/0.795883/0.839058/0.802436/0.540093/-0.658405/0.144884/-0.936894/0.607135/0.0450323/0.723775/-0.445944/0.738988/0.173724/-0.221656/0.623791/0.0513405/0.879743/-0.159924/0.159725/0.49829/0.761568/-0.323831/-0.621261/0.488524/0.430859/0.75495/-0.858037/0.437583/0.770305/-0.215424/-0.773843/-0.685769/-0.191574/-0.848478/0.308426/0.0902506/0.646441/0.807503/0.569857/0.234859/0.758609/0.737923/0.0105653/-0.753569/-0.196512/-0.227506/0.376051/-0.756521/-0.846356/-0.713889/-0.100889/0.445736/-0.533279/-0.159375/1.04528/0.320635/0.39367/1.08003/0.0638776/0.8306/0.622517/-0.22011/-1.01748/-0.406522/-0.645621/-0.742865/-0.18234/0.369397/0.532388/-0.331168/-0.0119728/-0.143402/-0.571904/0.883875/-0.184472/-0.523179/0.92632/0.663728/-0.570749/-0.594626/-0.377087/0.262733/0.555463/-0.084957/-0.24452/-0.319475/-0.299374/-0.405857/-0.0395935/-0.447314/-1.36146/-0.364573/0.311654/-0.335987/-0.0824287/0.778755/0.637803/0.830512/0.864983/0.669003/0.966781/0.500063/0.289934/0.289796/0.59807/-0.245209/-0.142579/0.0150269/0.0424479/1.02596/-0.0445325/0.372269/0.693651/1.15135/0.107642/-0.64411/-0.00600079/-1.14978/0.815608/0.0100609/0.119559/-0.257234/0.236383/0.486943/0.915839/-0.960628/0.180306/-0.190274/0.884822/0.283964/-0.724643/0.511711/0.331946/-0.971543/0.734816/0.403533/-0.27201/-0.00319669/-0.562985/-0.313309/0.0324984/0.534302/-0.182391/0.280401/-0.27181/-0.591151/-0.649315/-0.049549/0.65928/1.13766/0.0148/0.809529/0.0276916/-0.677869/-1.28744/0.389728/0.448378/0.216033/-0.054903/0.255661/0.888904/-0.186125/-0.895705/0.326225/0.283656/0.191732/0.0937385/-1.16987/-0.988987/0.755132/1.34674/0.764571/0.408169/0.806028/-1.14785/1.39976/-0.325817/0.788563/0.251438/-0.600611/0.402025/-0.133364/0.0651918/0.16653/0.0933517/0.596139/0.193223/-0.300942/0.0697524/0.28211/-0.441768/0.893029/-0.026629/0.767346/-0.458612/1.61171/-0.0333843/0.172759/0.948946/1.65504/-0.00361452/0.155324/0.147642/0.568494/0.63988/0.59429/-0.132031/1.03922/-0.437002/-1.03242/-0.124207/0.309082/-0.47126/-0.372211/0.596319/0.20481/0.246485/0.642928/0.21946/-0.58972/0.585508/0.396535/-0.132177/0.0160097/0.988429/0.384876/0.119393/0.542596/-0.630968/0.133732/1.16447/0.0272177/0.467147/0.645758/-0.773838/0.444531/-0.559573/0.196545/0.772183/-0.0941418/1.63603/1.31714/0.148864/-0.933993/0.381863/-0.0242247/0.31931/0.390518/-0.0897227/0.786576/-0.39709/0.458288/0.214116/1.25084/0.0174704/1.39438/0.589798/-0.0252517/1.66264/1.46037/0.201781/-0.32599/0.781589/-0.750953/1.25862/0.424124/0.281532/-1.0089/-0.281712/0.586711/-0.089955/0.311775/0.010118/0.0976725/-0.735693/0.361127/0.746817/-0.2663/0.395792/0.738435/0.699922/-0.321303/-0.40833/0.344158/0.789447/-0.137025/1.33441/-0.505386/-0.178548/0.310486/0.167822/0.273535/1.0262/0.957936/0.414078/-0.677613/-0.491799/-0.607396/-0.633825/-0.552606/0.342703/-0.170425/0.465291/0.0885587/0.227141/0.319863/0.888153/0.348154/0.0156785/1.20168/0.687573/0.104918/0.230789/0.683679/-0.936114/0.0842709/0.0990061/-0.563053/0.125455/-0.8846/-0.126901/-0.799149/-0.70407/-1.85891/1.55612/-0.48287/-0.408019/-0.0359026/0.58556/-0.51197/-0.337019/-0.61756/-0.077234/-0.422029/1.03289/-0.207166/0.079585/0.725401/0.482583/0.830951/-1.14208/-1.27619/-0.458647/-0.293467/-0.798913/0.655462/-0.686131/0.250675/-0.442839/-0.535398/-0.23033/-0.365981/0.405734/-0.59321/0.869671/0.57094/-0.213098/0.417342/0.776087/0.772919/-0.945119/-0.912402/0.0997311/-1.79023/0.266096/-0.464994/-0.12731/0.0338674/-0.264717/-0.0303307/0.377722/-0.167336/-0.961666/-1.29837/-1.3001/-1.22167/0.405434/0.371919/0.67837/-0.169953/1.29168/-0.477117/0.214883/0.709206/-0.370785/0.206187/-0.939481/0.211488/-0.449407/-0.00470564/-1.28564/-1.75412/0.386318/-0.871845/-0.877633/0.802662/-0.925319/-0.899051/0.497063/-0.871499/0.299573/-0.78879/-1.01918/0.223147/0.536745/-0.849018/-0.791779/0.909833/-0.380324/0.499701/-0.519257/-0.201571/0.198388/0.264934/-1.18679/0.505356/0.35169/-0.0429429/-1.13954/-0.957296/0.393248/0.375845/-0.381713/0.257631/-0.358091/-0.337193/-0.191099/-0.417085/-1.20999/-1.07505/0.366447/-0.312605/1.03614/-0.623323/-0.0974403/-0.865212/0.811253/0.512867/0.165166/-0.336393/0.24801/0.228292/-0.362115/-1.62915/-1.92083/0.273898/-0.870173/0.396881/-0.151056/-0.353796/-1.05624/-0.0227117/-0.262033/-0.239345/0.16953/-0.195307/0.320131/-0.950828/0.348203/-1.06081/-0.0303581/0.846447/0.452936/-0.609036/0.214324/0.0640367/0.501517/0.679592/-0.102559/0.165449/-0.0877957/0.118205/-0.341889/-0.098328/-0.596546/0.567628/0.374481/-0.0390147/0.150249/-0.570169/1.00938/0.812489/-0.362865/0.174323/-0.460735/-1.24053/-0.434246/0.0181942/-1.08829/-0.7549/-0.396686/0.492907/-0.570456/0.0649512/-0.217755/0.570146/0.444586/0.0656503/-0.0467182/0.703074/-1.43985/-0.324485/-0.677861/-0.354711/-0.115034/0.325663/0.0172975/1.07971/-0.903739/-0.333079/0.0102724/0.541599/-1.80454/-0.300382/0.292662/-0.696274/0.0588303/0.29888/0.963205/0.188727/0.179938/0.784981/-0.673105/0.201469/0.085649/-0.628198/-0.918633/0.221329/-0.176219/0.310987/0.154419/0.982922/1.01013/0.691519/0.273523/-0.672317/0.199782/-0.590525/0.50501/-0.308948/-0.0805981/-1.04191/0.52367/0.90578/-0.805886/-1.0254/0.637759/0.143736/0.0528124/0.0114473/0.0517782/-0.0117672/0.229003/0.735799/0.220431/-0.247301/-0.610673/0.822137/-0.377616/-1.25221/-0.754395/0.322059/-0.0254489/-0.131056/0.778458/-0.386513/-0.501122/-0.078706/-0.611601/0.337149/-0.309834/-0.851087/-0.327356/0.470455/0.125707/0.102881/-0.60085/0.515741/-0.935528/-0.0493116/-0.779736/0.925702/0.761399/1.08112/-0.509937/0.75814/0.0759334/0.0778199/0.645438/-0.461516/0.952122/0.382365/-0.680634/-1.39917/-0.0884591/-0.81678/0.0264617/-0.468863/0.65724/-0.2189/-0.404733/-0.293749/-0.463692/0.624451/-0.206085/0.616975/-0.895961/0.851246/0.898788/-0.168001/-0.0917742/0.0550908/-0.257378/0.547011/-0.300873/-0.505946/0.215323/0.626465/0.782135/0.302666/-0.20127/-0.829796/-1.30924/0.07217/0.498746/-0.715808/-0.0790284/-0.0715693/-0.299765/-0.140018/0.467059/0.188749/-0.550132/-0.551633/-0.0807993/-0.358351/-0.812713/0.7035/0.157355/-0.971342/-0.52322/-0.164989/0.216882/0.148585/0.0786604/-0.329838/-0.496475/-0.761375/-1.34204/-0.81821/-0.330315/0.731086/-0.889056/-0.745263/-0.564702/0.964769/0.85962/0.490704/-0.193992/-1.23777/-0.517223/0.595333/0.872439/0.166127/0.097813/-0.0460377/0.696759/-0.433331/-0.852027/-0.194293/-0.111729/1.16283/1.66548/-0.969591/-0.43394/-0.374302/-0.215728/-0.364814/-1.29558/0.180142/0.52559/0.176308/0.703933/-0.0420813/0.179469/0.0488672/-0.597389/-0.197854/0.44194/-0.620366/-0.390731/-0.630064/0.513253/0.24701/0.338439/-0.279911/-0.491406/-0.44874/0.165797/0.202625/-0.577649/0.883748/-0.215582/-0.958761/-0.765228/-0.211156/0.73438/-0.610648/-0.258677/-0.179569/-0.258515/-0.675342/-0.257681/-0.311653/0.317297/0.259604/-0.979852/-0.506274/-0.847119/0.0880575/-0.017756/-0.422219/-0.486776/-0.0817797/0.363871/-0.337678/-1.00877/0.945101/-0.812355/-0.343942/0.892878/-0.312238/-0.692744/0.938902/-0.766761/-0.870576/0.954412/0.64904/-0.545429/-0.779851/-0.475222/-0.129433/-0.521073/-0.432318/0.0951806/0.751279/0.703317/0.340936/0.115221/0.515666/0.803993/0.70676/0.519395/-0.5321/0.996424/-0.487413/-0.25164/-0.400994/0.491044/0.983669/0.532627/-0.142781/0.28333/-0.0723981/-0.795064/-0.636239/0.726721/0.00671518/0.86195/0.796072/-0.417668/0.258282/0.9508/0.0880979/0.661338/-0.89038/-0.697918/
0.950588/0.530418/0.739755/-0.935322/0.0363399/-0.251716/0.94745/-0.59496/-0.519362/0.196905/0.793009/0.098957/-0.833435/0.55208/0.55526/0.443062/-0.870092/0.788056/-0.859224/0.989322/-0.460165/-0.000453702/0.374635/0.49687/0.889295/0.379415/0.823546/-0.657546/0.630664/-0.434229/-0.034596/0.825315/0.399097/-0.199422/-0.658956/0.796036/-0.583103/0.0847633/-0.232548/-0.475316/0.513569/-0.567089/0.30456/-0.349199/-0.0833449/-0.184898/0.154766/0.292735/-0.988793/0.657594/-0.23235/0.0926127/0.939963/0.499735/0.586571/0.517398/-0.0935436/-0.184501/-0.493434/0.460963/-0.620764/0.37897/-0.16637/-0.422287/-0.159723/-0.189546/0.376266/0.644337/0.123779/0.500333/-0.991046/0.772753/-1.479/-0.869694/-1.33956/-0.126202/-1.45899/0.236271/1.139/-0.501933/0.308419/-0.850448/0.102205/-0.233238/-0.0371404/-0.214184/-0.114338/0.381705/1.09183/0.767846/0.547458/-0.810683/-0.222883/-0.0139389/0.558038/0.035507/-0.140065/-0.548394/-0.618562/-0.788924/-0.948477/-0.398752/-1.2167/-1.18187/-0.78824/0.0937706/0.553754/-0.598876/0.105192/-0.328572/-0.830273/-0.0134905/-0.734371/-0.557726/0.0589954/0.121449/1.40806/1.17237/0.0328947/0.195182/0.744581/1.22395/-0.617145/-0.0285538/-0.122572/-1.29141/-0.360344/-0.849065/-0.408813/-1.49564/-1.14725/-1.21268/-0.600593/-0.557396/-0.415961/-0.944999/0.484001/-0.489625/0.713904/0.582313/0.928393/-0.495488/-0.388671/0.2623/0.661297/0.23435/0.288717/0.145242/0.902326/0.0490466/-1.01465/0.686908/0.58133/-0.539384/1.08241/-0.0467571/0.268667/-0.0228185/-1.03888/-1.20272/0.619427/-0.213438/0.420465/0.501561/0.531541/-0.644366/0.122284/0.661366/-0.414255/-0.388385/0.85329/1.12668/0.598659/-0.191034/0.335395/-0.26016/1.00095/0.439269/-0.163269/-1.04435/-1.06136/-0.996138/0.153614/-0.260504/-0.129388/-0.0234409/0.141336/-1.52141/-1.08867/-0.187373/0.263101/-0.34985/-0.187032/0.606145/-0.418267/0.193405/0.56042/0.973963/0.686985/0.551164/0.717771/0.192687/0.862835/1.00545/0.565414/-0.694725/-0.321204/-0.550989/0.176186/0.0967795/0.820552/0.765203/-0.439115/-0.558469/-0.271148/-0.874964/0.178841/0.242649/-0.212809/-0.0073823/-0.802304/0.540775/-0.90034/0.124612/0.358085/0.350914/0.393201/0.374136/1.07069/-0.401194/0.782117/-0.415526/-1.34086/-1.27772/0.369591/-0.377281/1.01306/-0.23364/-0.216422/0.948903/0.0195411/-0.11614/0.0587493/-0.359678/-0.193373/-0.0972966/0.351485/0.269374/0.70333/0.440888/-0.634939/0.0127801/0.795542/0.659142/0.818017/1.02736/0.915203/-0.459398/0.122473/0.373846/0.394334/0.806063/0.604724/0.539093/0.0865832/0.156667/0.854351/0.457312/1.17634/0.451362/1.18271/-0.422872/-1.62919/0.346791/0.472608/-0.69628/0.0990725/0.394464/0.128399/0.889621/-0.139294/0.838839/0.105904/-0.634913/-0.445153/0.992893/-0.70531/-0.500406/-0.88165/1.29905/-1.10634/0.986798/1.38099/0.0206254/-0.576307/-0.422093/0.590422/0.725782/0.203274/-0.275348/-0.907743/0.0969449/-0.909418/-1.1163/0.170101/0.60613/0.774868/0.931673/0.634131/-0.210833/-0.0931848/-0.0297303/-0.17579/0.554376/1.05747/0.767264/0.794793/1.05253/-0.401999/-1.44667/0.971613/0.0465189/0.921944/0.415772/0.0994655/1.3709/0.187757/0.00115495/-0.16771/-0.017898/0.627029/0.0605702/0.363277/-1.05949/0.793733/-0.594072/-0.566522/0.424149/-0.158519/1.31355/0.668363/0.794398/-0.934164/-0.135755/-0.370018/0.719723/-0.507086/-0.737817/0.339664/-0.581655/-0.247428/0.390182/-0.8912/0.561235/0.469478/-0.0862616/-0.672985/0.697706/-1.11705/0.330395/0.232608/-0.468918/0.323112/-0.128455/-0.944399/-0.519962/-0.540804/0.497624/-0.651489/-0.380282/0.275767/0.369816/1.37816/-0.469611/0.127476/0.476792/1.09487/-0.63229/-1.23544/0.00306015/-0.407071/0.249635/1.18975/-0.310714/0.0830325/1.22249/0.605264/-0.215664/-0.0358527/0.0309314/-0.39605/0.450583/0.94398/-0.565447/-0.434813/-1.34234/0.626284/0.393118/-0.314668/0.429736/-0.0770552/-1.02935/0.686886/0.145787/1.39127/0.496719/0.439267/-0.469338/0.961581/-0.285418/-0.417869/-1.97774/-1.3446/1.18009/-0.928925/0.163242/0.776999/1.02376/0.129719/-0.577315/-0.939242/-0.0660828/-0.0534042/-1.06695/-0.309666/-0.657071/0.459059/-0.548714/-0.8858/-0.0350622/0.869655/-1.06388/-0.417398/0.254728/-0.204341/-0.590086/-0.566751/0.724517/-0.199244/0.571223/-0.633251/-0.69362/0.399115/-0.0576345/-0.0896468/-0.105937/0.579455/-0.0823185/0.472263/-0.87663/-0.716546/-0.696894/0.177413/0.157913/1.16299/0.394803/0.587823/1.07273/0.791898/0.907005/-0.206777/-0.743674/-0.0923433/0.291911/-0.241227/0.393833/-0.58053/0.651404/0.137449/-0.710268/0.264888/-0.796112/0.954675/0.0575679/-0.0659612/-0.183046/-0.0735809/-0.890432/-0.171135/-1.18173/0.487645/-0.0918525/-0.557442/0.750119/0.665632/1.02271/0.128779/0.393877/-0.00772874/0.426769/0.0372421/0.134611/-0.228343/-0.488715/-0.13512/0.383698/0.0156911/-0.683647/0.583112/0.62322/0.758166/-0.0489626/0.0223374/-0.752554/-0.168821/0.423868/-0.86131/-0.623334/-1.38349/-0.152914/-0.228685/-0.0915737/0.697531/0.922269/-0.0855007/0.102428/0.804351/1.12189/1.15302/-0.499975/-0.263151/-0.542643/0.47539/0.275227/0.72683/0.773456/0.465221/-0.00498786/1.26021/-0.296795/-0.0890904/-0.531978/-0.953052/-0.0299786/0.389327/-0.849194/-0.918356/-0.354012/-1.1872/-0.585568/-0.295584/0.357604/0.0138774/-0.99057/0.199612/-0.907037/0.174269/0.264375/-0.0311827/-1.11288/1.52108/-0.205704/0.799913/-0.0536735/0.0973521/0.520027/-0.426171/0.718484/0.222358/-0.965544/0.0943805/0.217198/-0.867706/-0.849673/-0.0796824/-0.490859/-0.638762/0.144513/0.775758/1.62964/1.68032/-0.863295/-0.471019/-0.914733/-1.62837/-0.920251/-0.348735/0.37419/-0.626966/-0.0987634/-0.333665/0.812822/-1.36361/0.283284/0.877082/0.835915/-0.225701/0.295746/0.595652/-1.01542/0.65615/-0.100227/0.88867/-0.646206/-0.0501924/-1.33469/-0.0353398/0.0144978/1.26419/0.551088/-1.15758/-0.795573/1.09855/-0.237118/-1.2316/-0.548427/0.62154/-0.55721/0.369837/-0.532292/-0.809191/0.234835/-0.307729/1.12281/-0.581421/0.324355/-0.557574/0.867061/-1.20228/0.211111/-0.230098/0.19463/-0.425698/-1.10495/0.245465/-0.539273/0.147745/-0.520681/-0.627358/-0.302954/0.70397/0.923879/0.443264/0.810749/-0.684153/0.659813/-0.707955/-0.38084/-0.127083/0.374942/1.04531/0.808652/-0.616662/0.0874269/-0.61621/-0.587878/-0.0872612/0.142709/0.115834/-0.316137/-0.483965/-0.238846/-1.20511/0.103869/-0.515037/-0.525869/-0.327135/-0.385632/0.0110876/0.142384/-0.5784/-0.90999/0.0289703/-0.37689/0.97891/-0.325888/0.615007/0.871585/1.17806/1.12139/0.0213014/0.590029/0.618172/-0.387289/-0.105892/-0.52265/-0.53232/-0.720077/0.896424/-0.264728/-0.345612/-0.074045/-0.10188/0.235529/0.671972/0.175805/-0.792504/0.923399/-0.0833143/-0.244117/-0.269057/-0.575389/-0.587093/-0.715651/0.0541694/1.00304/-0.674499/-0.167624/0.743936/-0.608168/0.512203/0.604635/0.678319/0.652359/-0.319964/0.215043/0.404141/-0.710985/0.206615/-0.995739/-0.0863857/0.576183/-0.410749/0.358222/0.0567812/0.00753621/0.809918/-0.81341/-0.271673/-0.432837/-0.314363/-0.0608472/1.01046/0.869362/-0.0666819/-0.652307/0.366066/0.0315829/0.813125/0.194212/-0.19646/0.510894/0.957725/-0.314593/-0.250433/0.859714/0.541658/-0.88383/-0.731436/-0.787147/0.504509/0.579441/0.549296/-0.252935/-0.307027/-0.736804/-0.526089/-0.785604/-0.941183/-0.753944/0.41331/0.420417/-0.825434/0.160142/0.86202/0.175295/0.17927/0.990668/0.152861/-0.870736/-0.454944/-0.248259/-0.48638/-0.518648/0.622134/0.965761/-0.450689/-0.731773/-0.910675/0.283344/0.157572/0.311303/0.0705481/-0.297802/0.839219/0.758681/-0.844925/-0.656827/0.703871/-0.0331461/0.913143/-0.807985/0.19535/-0.75386/0.564483/
-0.759101/-0.206743/-0.731819/0.322356/-0.156815/0.347356/-0.484533/-0.0538546/0.139608/0.560939/-0.625842/-0.534104/-0.691652/0.267076/0.201279/-0.0288455/-0.805677/-0.93799/-0.313319/0.569931/0.834047/-0.173686/0.862589/-0.468169/-0.509085/-0.185839/0.600064/-0.71612/0.17351/0.185071/0.625491/0.367973/0.0235309/0.58249/0.26864/0.0482926/-0.28326/0.579944/-0.556076/-0.813624/0.0578916/0.0909856/0.344473/0.186904/-0.401398/0.676602/-0.568064/-0.114349/-0.886882/-0.754038/-0.879481/-0.640844/0.596748/-0.330109/-0.440771/0.68373/-0.553623/-0.740908/0.069398/-0.369059/-0.348481/-0.416335/-0.668068/0.140957/-0.540844/1.17934/0.738523/0.554428/0.0277471/-0.638063/-0.874707/0.0810733/-0.750847/-0.407903/1.17001/0.0809597/-0.759966/-1.12784/-0.52336/-0.365068/-0.389909/0.810868/0.737169/-0.418413/-0.26275/-0.0521818/-0.565146/0.416002/0.511715/-0.560769/1.15436/-0.263012/-1.12049/0.759458/-0.804971/-0.242596/-1.25331/-1.3256/0.519121/0.101342/-0.967269/-0.02358/0.702271/0.277023/-0.158925/-0.83957/0.15585/0.619917/-0.416437/1.36578/-0.621911/0.439875/0.971579/-0.701322/0.008502/0.0541932/0.791398/-0.696325/0.738166/-0.591052/-0.238126/0.0856815/-0.643789/-0.358495/-0.688793/-0.790517/-0.656839/-0.440595/0.090091/0.412011/-0.153068/-1.78479/0.0100181/-0.207472/0.355962/0.32228/0.0544454/0.217166/0.236826/-0.239189/-0.0536159/0.870398/0.269504/0.023406/-0.852426/0.224556/-0.883479/0.598933/0.278521/0.555198/-0.926218/-0.891529/-0.47933/0.102452/0.51275/-1.07841/0.343902/-0.218317/-1.76394/-0.749225/-0.396713/-0.13546/1.16111/0.480715/-0.0786399/0.199707/-0.970961/-0.38651/-0.0672979/0.917413/-0.376083/-0.91028/-0.508198/-0.164805/1.39218/1.01452/-0.612401/-0.106221/-0.130647/-1.16735/0.27814/0.387562/0.059947/0.190031/-0.642492/-0.463049/0.68574/-0.94047/-0.117856/0.205626/-0.728581/-0.744703/0.561508/0.847584/-0.0618868/0.802165/-0.0194559/-1.01883/-0.876003/0.41597/1.08535/-0.700349/-0.0151029/-0.10787/0.681038/-0.799162/0.176556/0.681131/-0.481904/-0.34549/0.554665/-0.759813/0.472266/-0.268109/0.491201/0.108483/0.029995/0.181789/-0.40613/-0.0793946/-0.264125/0.316707/-0.0265001/-0.160702/-0.911251/0.578969/-1.08417/0.41938/0.357032/0.0773165/-0.131217/-0.584364/0.942691/-0.475958/0.253573/-0.910827/-1.13784/-0.0238771/1.20781/0.133036/-0.0119644/-1.18884/0.0547471/-0.134063/0.695425/-0.816956/-1.21671/0.69899/0.78368/0.916444/-0.79663/0.627925/-0.470708/0.794891/0.104632/-0.863921/0.259706/0.731814/-0.145518/-0.493234/1.3513/1.01784/-0.854731/-1.14229/-1.07115/-0.29673/-0.769922/-0.622897/0.65107/-0.632766/0.143488/0.295924/-0.987703/-1.45651/0.0633565/0.728443/-0.139703/-0.176915/-0.535364/-0.0606054/-0.595361/-0.222925/0.541807/1.29963/0.0339094/-0.272995/0.0811672/0.728624/-0.927266/-0.658178/1.23081/-0.91982/-0.0632686/-0.414625/-1.23957/-0.00808679/-0.499655/-0.279708/-0.585838/-0.154195/0.188516/0.566265/0.413661/0.789121/-0.727109/-0.461531/0.956598/-0.689511/-0.606697/-0.773941/-0.41057/1.37235/-0.626037/0.473315/0.455969/0.148933/-1.26752/0.449259/0.0194001/0.699339/-0.576319/-0.58083/-0.492718/0.017994/0.694888/-0.518729/0.639845/-1.38589/1.01597/0.0352103/0.283345/-0.722637/0.710258/-1.46233/0.712167/-0.768505/-0.264888/-0.122399/-0.856722/-0.268965/0.405014/0.197898/0.0230562/0.300217/-0.273684/0.394345/0.766795/-1.29812/0.0510504/-0.624401/0.271098/-0.819709/-0.424214/0.308513/-1.05264/0.284399/0.397527/0.416055/0.379854/0.0427988/0.511311/-1.51702/-0.0223656/0.917697/-0.265671/0.74179/-0.608898/0.196812/-0.0259595/0.778829/0.346758/0.0808558/-0.582487/0.0443824/1.42997/0.389338/-0.138856/-0.038935/-0.384138/0.876293/0.519368/-0.107466/-1.21052/0.404615/1.09309/-0.776567/-1.14037/0.147377/0.71481/-0.52738/0.512843/0.294738/-0.335117/-0.333776/-0.794459/-1.31853/0.674097/0.274555/-0.9144/0.666664/-0.498155/0.399525/-0.395865/-0.137809/-0.330857/0.479105/-0.157296/0.543146/0.514166/-0.694445/-0.159772/0.0228577/0.141567/-0.0727176/-0.0585077/0.385026/-0.501972/0.803029/0.0073889/0.741052/0.865749/0.564805/-0.0653181/-0.369798/-0.0617108/0.583746/-0.910707/0.688147/1.24321/0.474691/-0.0318729/0.0660253/0.642922/0.805746/-0.731813/0.604245/-0.64855/-0.760485/-0.593868/-0.391696/0.347917/0.181631/-0.463033/-0.987546/-1.47328/-0.779163/0.223765/-0.606218/-0.697845/-0.735531/0.42744/0.863886/0.345129/0.299799/-0.0252651/0.0785158/0.747843/-0.319693/-0.965836/0.661487/-0.744217/0.16538/1.87111/0.812307/-0.516817/1.00166/-0.524268/0.34716/0.968378/-0.121801/0.572902/0.30517/-0.858345/0.292265/-0.529665/0.613818/-0.665461/-0.472934/-0.913023/-0.70868/0.420818/0.638746/-0.147773/-0.388252/-0.461138/-0.21551/0.420193/0.0549703/-0.245782/-0.130042/-0.125928/1.02498/-0.404417/0.0826223/0.369209/-1.36508/-0.636523/0.0744181/-0.602227/0.118908/-0.622134/0.558879/0.615249/-0.603297/0.382459/-0.0503176/-0.483202/-0.129211/1.42472/-0.56678/-0.157704/-0.0465438/-0.417744/-1.06438/0.575689/0.747698/0.741093/-1.45438/0.0405313/-1.63594/-2.01825/0.885893/0.650224/-0.294611/-0.182039/-1.18377/0.23684/-0.688526/-0.941818/-0.837428/0.603286/-0.101384/0.0372577/0.260158/-0.229493/0.472908/-0.473575/0.474959/0.104552/0.637209/0.234155/0.602604/1.8677/0.302019/0.933036/0.324885/0.0690932/-1.84515/-0.833356/-0.559611/-0.461077/0.48566/-1.22547/-1.17685/-0.744682/-0.869075/-1.23043/-0.655032/-0.217681/0.360559/-0.0771332/-0.379332/0.536464/-0.698843/-0.185045/-0.48348/-0.632186/-0.271592/0.396276/-1.32458/0.389569/0.577832/0.596173/0.183873/0.111726/1.20829/-0.23976/-0.598359/-0.186354/-0.64572/0.404021/0.701027/-0.284237/0.679084/0.293534/-0.0467284/-0.626535/-0.393136/0.564579/0.843539/0.0322431/-0.942321/-0.928567/-0.648912/0.501048/0.333011/0.531185/0.809853/0.65308/0.473439/-0.562748/0.381105/0.718516/-0.0967599/-0.138549/0.161526/0.917772/-0.411311/-0.734681/-0.118694/-0.758076/0.385198/-0.0559843/-0.670717/0.667415/0.825145/0.204463/0.352502/-0.319272/-0.607746/0.176324/0.140494/1.13912/1.10061/-0.142616/-0.452955/0.775082/-0.687857/-0.516317/0.42472/0.687683/0.939131/0.584886/0.751866/0.703865/-0.793866/-0.0235979/0.801657/0.362047/0.877182/-0.93078/-0.801993/0.424835/0.0214086/-0.186046/-0.897073/-0.888723/-0.472282/-0.494335/-0.601963/1.00014/-0.117797/-0.000928764/-0.0329209/0.320005/-0.0558769/0.632843/0.686366/-0.266191/0.652342/0.269481/1.51578/0.947149/0.467063/-0.0389074/-0.252672/-0.560981/0.677991/-0.954069/-0.407023/0.208883/-0.547383/0.135501/-0.650659/-0.0459386/-0.264661/0.417119/0.108679/-0.0734242/-1.04537/-0.11384/0.450045/1.02139/-0.0583626/0.0319758/0.708438/0.571466/1.43898/0.254166/0.631382/1.3102/0.803725/0.259661/0.458024/-0.772163/-0.239746/-0.0241331/0.627356/-0.399805/-0.225502/-0.00500479/-0.101903/-0.355228/0.930041/-1.17961/-0.298155/0.802135/1.45985/0.418937/-0.415754/-0.734881/0.877577/-0.067375/0.023576/0.101236/0.134245/0.944821/-0.69885/0.263923/-0.505019/-0.117637/0.751226/0.0539455/0.0747244/-0.339628/0.192337/0.742481/-0.251939/-0.332046/-0.691134/0.741625/1.05443/-0.76084/-0.400766/-0.884471/0.294248/0.799641/0.275877/-0.791929/0.600282/0.777256/0.915198/0.450256/-0.58265/0.76914/-0.609084/0.994307/0.296657/-0.309768/0.566499/-0.529735/0.123956/0.112392/-0.365112/-0.819589/0.111465/-0.602499/-0.202127/0.859479/-0.733743/-0.0105195/-0.800992/-0.274638/0.150666/0.510845/-0.253682/0.361113/-0.780158/-0.113831/0.849771/0.105602/0.848125/0.44186/0.33298/0.399182/-0.949927/0.569377/-0.482494/0.717157/-0.735373/0.580189/-0.759569/-0.0770809/0.500744/0.194879/
-0.985183/0.0234555/0.216638/-0.966052/-0.434674/-0.10682/-0.625598/0.868585/0.85313/0.557425/-0.13542/-0.0113557/-0.857281/-0.841077/0.25054/0.887115/-0.925111/0.419466/-0.138881/0.018195/-0.19604/-0.841939/-0.463394/-0.265634/-0.505519/-0.255683/0.740486/-0.651992/-0.0353905/-0.807911/-0.847778/0.912462/-0.469598/-0.165355/-0.56327/0.33223/1.04287/-0.535119/0.225744/0.0115075/-0.632234/-0.249321/-0.964196/0.561373/-0.289414/-0.734388/-0.0147276/0.332447/0.945541/-0.521858/0.268686/-0.580986/0.739756/0.58654/0.691537/-0.507704/-0.979465/0.139962/-0.0592154/-0.498431/0.0332995/-0.191026/0.858599/-0.841195/-0.0132397/1.01686/0.386052/0.845832/-0.478918/1.25683/-0.637747/-0.144406/0.162949/0.852171/0.190042/1.29643/0.139385/0.350437/-1.33955/0.616458/0.492477/-1.05675/-0.828347/-0.293151/-0.983742/0.24481/0.15546/0.157142/-0.0990706/-1.1623/-0.306037/-0.334262/-0.82781/-0.276179/1.29388/0.760787/1.73545/0.486813/1.44255/1.31213/-0.648717/0.350273/0.0774102/1.26311/0.321849/0.0387326/0.0905118/-0.352686/-0.218334/-0.0908587/0.651697/0.626565/0.68567/0.0486309/-0.235456/0.216309/-0.445963/-0.651659/-0.412283/-0.573992/1.11845/0.959722/1.17459/0.693584/0.692715/1.29598/-0.55817/-0.631282/0.354578/-0.119339/0.105777/0.171448/0.681271/-0.320916/0.473784/-0.38316/-1.07326/-0.288166/0.204985/-0.0356012/-0.350137/-0.74708/0.122759/0.12703/0.0908874/-0.412925/0.638338/0.0435218/0.909934/-0.426683/0.161708/1.14462/0.439105/-0.216851/0.930946/-0.0564853/-0.887351/-0.871078/1.29548/0.328005/0.114559/-0.21146/-0.22365/0.0158866/-0.5359/-0.0309257/-0.122319/-0.239098/-0.517268/0.253912/0.741647/-0.845307/-0.177975/-0.928533/0.808973/0.253396/0.583266/1.15304/1.44916/1.64809/-0.938981/0.325878/-0.964101/-1.2516/-0.633083/-1.09268/-0.432607/-0.278659/0.499735/0.12112/-0.252556/0.62519/-0.053633/0.835274/0.146046/0.521465/0.270449/-0.559617/-0.881342/-1.15825/-0.538799/-1.00328/1.11751/0.0466469/1.27534/1.05604/-0.114206/1.24877/1.03833/-0.637469/0.874155/0.801924/0.036995/0.0344988/-0.855336/-1.04087/-0.257293/-0.130053/-0.501031/-0.496323/0.145449/-0.047099/-0.955541/0.831635/-0.711101/0.506631/0.647075/-0.303955/-0.237337/-0.052334/-1.00299/0.915105/0.770904/0.994648/0.521306/0.624108/-0.463426/0.248245/0.390209/-0.797165/-1.35629/-0.337052/0.697786/0.533526/-0.616127/0.118362/-0.219303/0.528464/-0.498007/-0.150725/0.805898/0.368744/-0.526299/0.477386/-0.988663/0.172897/-0.738944/-0.166247/-0.40377/0.0293035/0.584929/1.06887/1.07721/-0.428118/0.334571/-0.427083/-0.00932821/-1.06822/-0.768521/-0.256166/-0.508975/0.0705922/0.345101/-1.1896/-0.535122/0.22161/-0.0732787/0.603755/0.314979/-0.531531/0.557038/0.105189/0.297047/0.321614/0.885617/0.77163/0.521002/0.152011/0.64516/1.35537/1.23783/1.53262/-1.21743/0.027047/-0.649921/-0.232555/-0.741886/0.348486/-0.478161/-0.22172/-1.07679/0.0429549/-0.37309/0.0928076/0.580084/-1.24925/0.481805/-0.17635/0.0852225/0.390354/-0.295427/-0.849704/0.861148/-0.0770758/-0.534341/-0.316072/1.56529/1.70504/0.605566/-0.368666/-0.04045/-0.953883/-0.918792/0.0506811/-0.373557/-0.739248/0.0385787/0.268435/0.136201/0.13388/0.809517/-0.101246/0.088182/-0.494169/-0.0446087/0.607178/0.838182/-0.417065/0.345552/0.612455/-0.850751/-0.259833/0.20765/-1.15206/-0.131007/0.506314/1.12652/0.436726/0.243849/-0.0491244/-0.0255347/0.539607/0.0379799/-0.220933/-0.129978/0.521585/-0.463517/-0.709908/-1.05301/0.194724/-0.387543/0.0896083/-0.170805/-0.230084/0.971093/-0.729959/-0.107121/-1.13798/-0.52713/-0.338725/0.391287/0.267968/1.38418/1.88294/0.962658/0.851589/-0.737074/-0.932128/0.132013/-0.476146/0.685074/0.285079/-1.21828/-0.248403/0.786777/-0.518278/0.158981/-0.756593/-0.985437/0.294737/0.0871593/0.735729/-0.610438/0.335228/0.101658/-0.600842/1.64958/-0.131335/0.18916/-0.124349/1.29776/1.10245/-0.0561676/-0.573895/-0.724411/-0.512623/0.407532/-0.163424/-0.896973/0.158429/0.187177/-0.735813/1.05992/-0.437488/-0.0525141/0.985421/-0.51466/0.175313/-0.785799/0.845943/-0.240944/0.31798/-1.00715/-0.758242/0.327555/-0.123649/-0.0617334/-1.02417/0.406688/1.70197/0.497958/0.113172/0.565395/0.0391342/-0.834717/0.815657/-1.16773/-1.02517/0.753352/0.732197/-0.585798/-0.293436/-0.329643/-0.0162264/-0.719919/0.670959/0.527737/-0.930002/-0.54346/-0.0285107/-0.819611/-0.638731/-0.392609/-0.309302/-0.680871/-0.000217646/0.526263/1.41176/0.498173/-0.665585/0.324416/0.61667/-0.476647/0.0803455/0.0627335/-0.516/0.520913/0.373898/-0.881034/0.269537/0.570221/0.134773/0.229508/-0.519967/0.810784/0.766618/-0.39789/0.582126/-0.38109/-0.484613/-0.295703/0.209594/0.108829/-0.453452/1.10212/-0.500152/-0.323465/0.0135285/0.472449/-0.841229/0.712537/0.488547/0.261686/0.095468/-0.147023/-0.027345/0.0227962/-0.361115/-0.24702/-1.12923/-0.265503/0.0630105/-0.0268464/-0.566569/-0.322902/0.902483/1.46354/-0.746455/0.655615/0.695178/-0.364236/0.992976/1.85058/1.21158/0.390061/-0.76091/0.708622/-0.776954/-0.945964/-1.22507/0.494292/-1.15988/0.891096/-0.108483/-0.150331/-0.00680891/-1.05683/0.728504/-0.371879/-0.0414585/-0.611263/0.723935/-0.81828/-0.781928/0.931521/-0.316138/0.334349/0.250497/-1.03779/0.169902/-0.0675812/0.275712/1.09911/-0.612045/-1.35941/0.519459/0.779861/-0.439109/0.366441/-1.18949/-0.378263/0.236578/-0.0445635/0.440822/1.2201/0.0212054/-0.0382895/-1.46012/-0.859344/0.00191249/0.143219/-0.74007/0.36718/-0.411907/-0.448835/-0.197513/-0.930434/0.517754/0.867319/1.06324/0.535741/-0.281054/-0.689708/0.537069/-0.801468/-0.0699137/-0.0411236/0.379362/0.540291/0.940062/0.111939/-0.245114/-0.674885/0.889529/-1.14353/-0.328446/-0.478841/0.988839/-0.585439/0.661037/1.28049/0.350636/0.418037/0.740168/-0.36293/-0.020383/1.04881/1.24587/-0.795599/0.76468/0.575071/-0.658459/-0.595557/-0.463585/-0.678182/-0.264676/0.674984/-0.268334/-0.426081/-0.944994/-0.765633/-0.0719399/0.555311/0.890391/0.982774/0.898902/-0.160756/0.317808/0.389105/0.379243/0.154508/-0.489616/-0.30549/0.188865/0.119274/1.38485/1.1244/0.504503/-0.337854/0.376213/-0.951606/-0.168845/0.822945/-0.356124/0.182359/-0.713741/-0.406305/0.262167/0.637724/0.0253809/0.161257/0.180948/-0.685075/0.148662/0.568253/0.654982/0.207315/-0.65669/-0.437764/-0.936595/-0.417606/-0.41384/-0.443121/-0.0955649/1.33124/-0.30368/-0.373613/0.531534/-0.680477/-0.252722/-0.477453/-0.529484/0.894124/0.73842/0.324192/0.546952/-1.38516/-1.2326/0.905638/-0.16655/-0.161031/0.597287/0.602687/-0.614454/-0.0720573/0.118107/0.561511/-1.13556/-0.340868/-1.05455/0.282373/1.64064/0.946782/0.260671/0.0015203/-1.32812/0.360202/0.769062/0.326008/0.439283/-0.333559/-0.121077/-0.507693/-0.279682/0.291785/-0.874411/0.908547/-0.749318/-0.446966/-0.0979797/-0.744141/-0.777481/0.109817/0.881816/-0.465096/0.450607/0.448487/0.388755/0.14484/0.792446/-0.390752/0.300397/-0.214104/-0.96317/0.639637/0.403615/0.238985/0.63645/0.134223/0.606207/0.278073/-0.150082/-0.993281/0.254533/-0.963662/-0.923667/-0.636281/-0.798236/0.052803/-0.540572/-0.301832/-0.678705/0.948373/-0.850753/0.0297254/-0.590897/-0.0490184/-0.343657/0.171911/-0.307347/0.0117543/-0.638655/-0.374695/1.01835/-0.90068/-0.0645321/0.703344/-0.552598/0.074343/-0.365002/0.692669/0.522564/-0.303151/0.533428/0.376341/0.0821161/0.124816/-0.216955/-0.360982/0.980416/-0.141638/-0.503121/0.0407398/0.145814/0.431716/-0.491845/-0.44587/0.265686/-0.616769/-0.0444526/0.885188/-0.653013/0.815532/0.642876/0.811234/0.410199/0.212421/0.160743/-0.397853/-0.714695/0.125769/-0.201495/-0.534366/0.909069/0.938136/
-0.397912/0.295692/-0.301391/0.527934/0.99045/0.619494/0.207076/0.997419/0.566132/-0.614949/0.350014/0.687362/0.498144/-0.0384459/-0.507415/0.556039/0.912872/0.1935/-0.720489/-0.874991/0.0302292/0.0619323/0.895411/-0.825952/0.221983/0.863872/-0.911201/-0.562348/0.624825/-0.559241/0.428736/-0.205685/-0.029404/1.00526/-0.25147/-0.0227611/-0.491228/-0.186191/0.666496/-0.794955/-0.723518/0.630651/0.442781/-0.0364297/0.644109/0.613166/0.360986/-0.373127/0.900738/-0.74452/-0.521367/0.762028/-0.469403/0.805162/0.791979/-0.63633/-0.792565/-0.634461/-0.282257/-0.21711/0.704803/-0.952985/0.303088/-0.205949/0.645096/0.785406/0.55707/-0.183727/0.183758/-0.673304/0.919824/0.332476/-0.899866/0.267757/-0.90907/-0.427924/-0.254666/-0.406631/-0.173015/-0.485698/-0.521696/-0.772033/-0.116619/-0.260766/-0.69202/-0.780667/-0.104178/0.649259/-0.654086/0.0160611/-0.940423/0.169559/-0.475009/-0.881317/-0.776033/-0.463654/-0.744334/-0.89879/-1.353/-0.332327/0.141539/-1.23124/-1.4666/0.374845/0.846043/0.157015/0.868247/0.0694993/0.0237172/0.403256/-0.223224/-0.999512/-0.794694/-0.410591/-0.616754/0.141594/-0.526936/-0.488185/-0.133901/1.19487/-0.521952/-0.565142/-0.823795/0.261608/-0.019521/-1.02348/-1.03748/0.0472293/-0.156679/0.223452/0.887806/-0.149256/0.565643/-0.432151/1.04146/-0.0276857/-0.182963/0.905803/0.721553/-0.589385/0.213711/-0.146351/0.0376286/-0.802983/-0.602542/-0.254965/0.857689/-0.224983/0.363142/-0.804959/0.537851/1.27078/-0.168819/1.06765/-0.615356/0.57303/0.304215/-0.0240471/-0.0250132/-0.406683/-1.13811/0.402645/-0.122672/-0.532359/-0.792982/0.126285/0.855771/0.146045/0.581663/0.0194645/-0.579577/-0.270832/-0.703756/-0.0578257/0.908854/1.1921/0.682498/-0.514033/0.511401/0.158787/0.892673/0.485496/-0.533137/1.01157/0.31669/-0.603258/-0.0133555/0.693813/-0.337324/0.0911054/0.343708/-0.0106176/-0.160561/0.240876/0.895915/-0.070035/0.921381/-0.331484/0.189551/-0.394152/-0.179794/-0.49046/0.991228/0.773957/0.292685/0.541947/-0.465128/-0.176889/-0.722021/-0.641105/-0.114815/0.494793/0.337279/-0.115678/0.269215/1.69711/-0.0871101/0.507027/-0.526548/-0.835248/-0.131544/0.322721/0.35616/0.484482/0.689011/0.230053/0.544297/0.4841/-0.376561/-0.677016/0.35023/-0.496225/0.270009/-0.440748/-0.389563/-0.68223/0.779028/1.27689/-0.721975/-0.117278/-1.08835/-0.853935/0.505162/-0.899821/-0.246394/-0.15147/-0.698027/-1.37992/0.63592/-0.603057/0.136891/-0.258256/-0.511286/0.853631/1.3329/-0.241892/-0.812345/-0.578485/0.226549/1.09616/0.512908/0.094485/0.928159/0.218265/0.331566/0.631499/0.333949/0.392876/0.173773/-0.917927/-0.032034/-0.222435/0.622377/0.367297/0.00794629/-0.22646/0.498613/0.0477834/0.631644/0.406449/-0.804988/0.603062/-0.262595/0.273267/-1.18227/1.05742/-0.0454781/-0.521696/1.00782/-0.079846/1.04638/-0.941453/0.444624/1.00938/-0.542163/0.0657998/0.387504/-1.66152/-0.222301/0.129893/0.294729/0.271603/0.584603/0.565249/0.962728/-1.08306/0.950695/0.95673/-0.240397/-0.32258/0.855637/-0.259181/0.264527/-0.508964/0.283606/1.33154/-0.302831/-0.296232/-0.237828/-0.72692/0.75801/0.167886/-0.960032/0.537806/-0.859341/-0.89584/0.4355/-0.824895/0.985647/-0.155074/-0.88786/-0.138721/0.173083/-0.62712/0.915501/-0.570131/-0.197429/-0.121026/-0.114222/-1.06218/-0.830822/0.622827/0.176079/0.389372/-0.369788/0.115926/0.182165/1.04756/0.522535/-0.386369/1.15067/-0.470325/-0.124701/-0.861868/-0.0414743/-0.111914/-0.24964/0.0590399/0.630792/0.501605/0.124668/-0.0430683/0.883508/0.559361/-0.82596/0.198818/0.671188/-0.192035/0.104543/0.677277/-0.694011/0.9304/1.36901/0.359202/0.3865/0.365591/-0.674046/-0.0610339/0.828099/0.0633843/0.154437/-0.436206/-0.288391/-0.0493673/0.343828/0.831856/-1.12742/-0.560128/-2.17221/-1.04757/-0.55594/0.309156/-0.0100472/-0.90906/0.810341/-0.941435/-0.306805/0.914103/1.0361/0.149046/1.47509/-0.940039/-0.337111/-0.967108/-0.0858754/-1.17799/0.532066/-0.73052/-0.805293/0.481788/-0.923359/-0.71358/0.338133/-0.506632/0.71337/0.328952/0.274049/-0.0521072/-0.012482/-0.532277/0.0241564/0.0222062/0.349988/0.106592/-1.07601/-0.568135/-0.711351/-0.678095/0.251361/-0.0500953/0.527039/-0.567633/-0.0608513/-0.57978/-0.371683/-0.126577/-0.568466/0.70113/-0.799924/-0.503545/-1.11718/-0.504218/0.561486/0.969124/-0.00502264/-0.751563/-0.811052/0.230669/0.859139/-0.496494/-1.23053/-0.962814/-1.2775/0.15301/-0.422333/-0.808061/0.389563/1.06378/0.369597/1.20332/0.238408/-0.10016/-1.52121/-0.623432/-0.315421/0.215208/-0.203943/0.0845223/-0.391731/-1.42688/-1.2661/-0.183631/-0.313512/-1.15534/-0.628779/-0.362323/0.442617/-0.973406/-1.45686/-2.05702/-0.0657145/0.839321/0.207134/-0.868793/0.399662/0.300386/-0.528696/0.137609/0.139139/-0.236019/-1.33303/-0.213069/-0.123766/-0.885073/0.47741/0.056431/0.20744/0.403718/0.492038/0.0948852/0.166456/-0.00312506/-0.0418066/0.858067/-0.465298/-0.315223/-0.347344/-1.26819/-0.0876396/0.614362/0.332826/0.162066/0.0706376/-0.225504/1.28288/1.85732/-0.268504/0.645551/0.212965/-0.5034/-0.285892/-1.03237/-0.295925/0.134143/0.98577/-0.465862/-1.32181/0.204402/-0.649923/-0.55688/-0.00914824/0.326511/-0.32917/-0.370813/-0.580462/0.93185/1.83318/0.954065/-0.600214/0.154549/-0.130178/-0.166099/0.765277/1.49428/-0.986564/0.682851/-0.337121/0.337037/-0.515987/-1.22649/0.38216/1.05536/-0.789289/1.40349/-0.882308/-0.0583114/-0.964251/-0.346746/0.614534/0.73445/-0.105358/-0.70648/-0.065344/-0.0497092/0.0438676/-0.125897/0.0460882/1.25479/1.08916/0.0467584/0.0569757/1.72572/-0.0410484/1.04724/0.243938/-0.69112/-0.56423/-0.758795/-1.04791/0.00734255/-0.728299/-0.294007/0.754887/-0.925551/0.322838/-0.287827/0.122764/-0.582118/0.341448/0.699583/0.622029/-0.564396/0.823317/0.219831/-0.859163/0.175744/-1.2108/-0.0107394/-0.28786/0.783108/1.18052/0.407688/-0.864418/-1.01335/-0.271868/-0.84399/0.120623/-0.753254/0.066284/-0.902982/-1.27468/-1.04652/-0.0704351/0.507255/0.632783/-0.626756/0.113549/0.373778/-1.20442/-0.425241/0.596241/0.904007/0.0425631/0.605811/0.617669/0.85934/-0.354222/0.56243/0.647031/-0.0997678/-0.275685/-1.22256/0.307291/-0.275713/-0.48282/-0.256467/-0.235634/0.442922/-1.04827/-1.41614/-0.262348/1.28637/0.546356/0.181914/-0.570832/0.0234293/0.225401/-1.01457/-0.029481/0.240937/-0.516128/-0.758595/1.06304/1.7089/1.08251/0.470398/-0.844576/0.709789/0.630617/-0.673978/0.00238338/0.100698/-0.273752/0.755477/0.525977/-0.312399/-0.149134/-0.388781/-0.292874/-0.342859/0.329121/-0.876685/-0.442932/-0.336493/0.410951/-0.837008/0.337768/-0.43379/-0.111219/0.061731/0.579997/-0.0335049/0.0293227/0.553487/-0.402599/-0.016631/0.550117/0.123035/0.506427/1.32756/0.462888/0.625881/-0.675758/0.864695/-0.913931/-0.982763/0.0985163/0.169466/0.392686/-0.839815/-0.772912/-0.260124/-0.0957872/-0.446187/-0.478426/-0.599665/0.83517/0.574536/-0.711058/-0.0691525/0.772703/0.62354/-1.79967/0.229901/-0.949205/-0.518951/-0.902289/0.12923/0.843507/-0.179589/0.451863/0.499219/-0.509864/-0.569295/0.849248/0.260317/-0.874363/0.929752/0.336348/-0.986753/0.167829/-0.299592/-0.649589/-0.803957/0.877086/0.149515/0.818538/-0.276707/-0.0686126/0.691115/0.401696/-0.63751/-0.17276/0.88731/-0.880472/0.72173/0.0472791/0.490142/0.570965/0.523218/-0.523002/0.160005/-0.690103/0.735335/0.967759/-0.828497/-0.552381/0.131949/-0.328811/-0.331764/0.0411971/0.40043/0.0312485/-0.215705/0.539405/-0.551/-0.650594/-0.535715/0.237689/0.845757/0.638386/-0.654563/0.761877/0.870734/0.42907/-0.615669/0.4553/0.225742/0.0506429/-0.844831/0.921188/0.405019/-0.843243/-0.378058/0.195985/
0.498171/0.758018/0.00240475/0.416615/0.0525041/0.0252705/-0.796169/-0.290631/-0.952954/0.877393/0.337398/0.647869/0.730853/0.705222/0.72952/0.164757/0.869673/0.378611/0.0206809/0.132127/0.657606/0.383587/0.942462/-0.0476299/-0.516509/-0.969001/-0.00182286/-0.636878/-0.0108694/-0.681713/0.492179/-0.178869/-0.274972/-0.441716/0.973738/0.0885231/0.391797/1.01965/-0.114382/0.248103/0.0972534/0.645034/0.990272/0.0663809/0.966847/-0.668977/0.486555/-0.435602/-0.586535/-0.864279/0.286924/0.604534/-0.133729/0.919001/0.794108/-0.0183475/-0.366486/0.474587/0.646611/0.121243/0.758584/0.265046/0.167544/-0.147489/0.142602/0.478073/0.384768/0.904049/0.174923/0.542692/0.241553/0.360143/0.00969453/0.560721/0.0309316/1.50054/0.819315/-0.141098/-0.686453/0.144648/0.75455/0.423098/0.629356/0.161464/-0.267309/-0.65826/0.762651/0.527346/0.515718/0.325297/-0.229921/-0.486021/-0.31767/0.849417/1.37155/1.06603/0.135458/-0.588795/0.242571/-0.303482/1.05049/0.381022/0.785297/-0.587406/0.368831/0.464914/-0.307069/0.562169/-0.803555/0.341198/0.731186/0.957196/-0.406922/0.872196/0.346561/-0.544117/0.32364/-1.14765/-1.25177/-0.697992/0.209556/1.00311/1.20894/0.589848/1.74381/-0.30667/-0.302963/-0.274597/0.420684/0.361114/0.0464417/0.256742/-0.789687/-0.387923/1.19741/-0.919724/-1.10622/-0.168798/-0.773003/0.150585/0.886838/-0.923478/-0.855444/-0.511547/-0.978499/-0.229757/-0.719416/0.207964/-1.14608/1.09233/0.646249/0.825826/0.470815/1.46881/0.553067/0.408199/0.361317/-0.862969/0.516262/0.255695/0.415337/1.00778/0.285159/0.151328/0.321405/-0.34503/0.0403004/0.948314/0.314836/-0.53976/0.194601/-0.709859/0.868881/-0.391692/0.0128621/-0.644543/0.091662/0.153789/-0.156397/-0.0910366/1.2179/0.298825/0.111236/0.880918/0.205225/-0.137349/0.913009/-0.907176/0.214687/0.565497/0.0402294/0.335517/-0.041649/0.812664/-0.352473/0.727762/-0.509896/0.235177/-0.273919/-0.230294/-0.862103/-0.251636/-0.502287/-0.456841/0.134227/-0.938173/-0.387097/0.801363/0.300984/-0.157013/0.670078/-0.529663/1.80497/1.39416/0.864095/-0.796659/-0.29678/-0.246088/1.58687/-0.412983/-0.795144/0.974938/0.200899/-0.43164/-0.565463/0.33627/0.485361/-0.77648/-0.603633/0.102496/0.385214/-0.982497/-1.40113/0.302351/-0.0318161/0.0465527/-0.0939028/0.305985/-0.286549/-0.17732/0.604905/0.677367/0.0991847/1.34252/0.564423/0.289427/-0.0334095/0.650185/0.731122/-0.061413/0.811274/-0.327168/-0.71221/-0.0842422/0.257282/-1.18514/-1.5744/-0.38082/-0.922418/0.468692/0.94037/0.760631/0.207021/1.43746/0.373097/-0.808474/-1.17938/-0.368992/-1.18241/-1.01924/1.47249/2.53519/0.283104/0.408357/-1.0262/0.692842/0.734851/-0.602374/0.102879/-0.375109/-0.459293/0.644659/0.930595/-0.680586/-1.05513/-0.635478/-1.0424/-0.818096/0.182177/-0.131358/-1.30728/-0.112654/0.514585/-0.50242/0.712263/-0.185743/-0.0170345/-1.69786/0.0726284/0.325549/0.729558/0.565531/0.110829/0.760707/-0.582315/1.07917/-0.206759/-0.44417/0.826737/1.01946/0.0996575/-0.524015/-0.0933481/-0.199725/-1.0254/-0.309511/-0.793348/-0.339719/0.141216/-0.0406809/-0.526477/-0.723052/-1.2935/-0.651458/-0.25531/-0.86622/0.506012/0.353932/0.886909/2.38672/0.578099/0.232368/-0.446366/0.693384/-0.50629/-0.604523/-0.221053/0.779694/-0.635705/0.548034/0.190849/-0.202279/-0.513961/-0.629314/0.316841/-0.767063/0.462785/-1.38239/0.832514/-0.548851/0.151808/-0.389735/-1.40319/0.0227185/-0.351328/-1.67927/0.283372/0.443062/1.49404/1.57787/0.21963/0.24422/0.320384/0.532523/0.114396/0.643568/-0.994137/-0.429727/-0.949892/-0.291769/0.263402/-1.32242/1.12474/0.687509/-0.931915/-0.507488/-0.31515/-0.158597/0.308398/0.996499/-1.67826/0.22994/-0.855133/-0.936962/-0.358376/-0.294271/-0.139122/0.0392697/0.11785/1.27622/-0.340679/-0.499082/-0.0632341/-0.775259/0.561659/-1.49376/-0.0951886/-1.09747/0.645633/0.123948/0.101954/0.0757964/0.336019/0.828384/1.04332/-0.254645/0.363614/-0.500038/0.442827/-0.318178/-0.544292/0.101467/-0.692897/-0.386008/-0.357558/0.748537/0.931856/0.75182/0.519037/0.703874/0.00344998/-0.0435091/0.238909/-0.333192/0.0979945/-0.515919/-0.544365/-0.295214/-1.34149/0.751351/-0.609503/-0.558782/-1.29638/-0.733841/-0.271197/-0.28447/0.506604/-0.426886/-0.406532/0.296616/0.400947/-0.121642/-0.788449/-0.548342/0.436222/0.795651/0.845424/-0.448618/0.0755815/0.263399/0.637277/-0.266603/0.22108/-1.04665/0.0462403/-0.50884/1.84865/0.6954/0.8892/1.17249/-0.576655/0.0461295/0.438221/-0.463095/-0.292879/-0.843247/-0.719327/-1.12575/-0.509715/0.198187/-1.19614/-0.333349/-0.789487/-0.5942/-0.970641/-0.165878/0.049787/0.687623/0.236142/0.0978047/-0.43531/0.530488/-0.44129/-1.43036/-0.0270411/-0.616686/0.669053/-0.0184264/1.30048/0.741157/0.11952/-1.13914/-0.249419/-0.439995/-0.620862/-0.636105/-0.441402/0.925454/0.526482/0.750151/-0.0876118/-0.437853/-0.616643/0.291972/-0.822091/-0.954617/0.397297/-0.16058/-0.19383/0.374756/-0.0960004/0.0246846/0.898354/0.0933589/-0.0978603/0.585055/-0.426461/0.311708/0.606633/-0.830656/-0.363972/0.247514/-0.394813/0.688267/-0.460031/-0.158214/-0.40559/0.399362/0.454266/-0.17666/0.0639684/0.735817/0.877918/-0.733461/-0.782698/-0.192014/0.146989/-0.379296/1.4889/-1.16685/-0.00379352/-0.470431/0.244916/0.685078/-0.143001/0.0863572/-1.25763/-0.399206/-0.75538/0.836045/-1.21452/1.00889/0.268703/0.124318/-0.0647277/-0.556619/-0.342249/0.804833/0.385086/-0.077159/-0.811253/-0.726426/0.428941/0.24057/-0.195228/-0.0500255/-1.20418/-0.392778/-0.178353/0.581849/-0.212603/0.753821/0.0179267/0.790331/1.33925/-0.0888918/0.0267021/-0.0612729/-0.532018/-0.931076/-1.20354/0.770265/0.356855/0.229864/-0.30979/0.322192/0.654292/0.0773154/-0.559698/-0.764198/-0.0638966/-0.385888/-0.0902867/0.212356/0.287642/-0.96011/-0.0438402/-0.264938/-0.125846/0.575106/-1.08148/-1.10748/0.0685272/1.20249/0.0264076/-0.0697391/0.443124/0.835765/-0.809226/-0.427645/-0.847786/-0.888764/0.391345/0.413782/0.307062/-0.311662/-0.10435/0.204511/-0.314876/-0.281459/-0.361837/-0.114341/-0.191348/-0.325493/0.338954/0.279967/-0.139265/0.314023/0.737899/-1.32203/-1.035/-0.32463/-0.590109/-1.07749/0.361999/-0.543714/-0.701262/1.09046/-0.92566/-1.11316/-0.694914/0.405314/0.616438/-0.25656/-0.00331366/0.287604/-0.142564/0.181873/-0.928153/-0.584499/-0.182072/-0.142003/0.988324/-0.0977678/0.123859/0.125214/-0.473986/0.51403/1.04031/0.134949/0.159328/-0.0177407/-0.32844/-0.239871/-0.0871233/-0.840769/0.179594/-0.639983/0.2333/-0.220502/-0.393606/-0.461753/-0.683693/-0.841243/0.0174587/0.202229/-0.191479/0.37218/-0.305381/0.728623/0.168129/0.324814/0.201758/-1.25254/0.913867/-0.849725/0.803235/1.06824/0.103696/-0.552794/-0.308001/0.704659/-0.267747/-0.516659/-0.701852/-0.0579781/0.54888/-0.170198/-0.970291/0.425632/-0.400837/-0.950175/0.245503/-0.558873/0.226862/0.627379/0.00361717/0.562699/1.51759/0.145932/-0.697352/-1.28981/-0.592046/0.709106/-0.252862/0.858948/0.963227/1.01855/0.290808/0.506702/0.974222/-1.13253/0.0578399/-0.394775/-0.902813/-0.867038/-0.164132/-0.958954/0.865336/-0.308164/-0.718237/-0.0801267/-0.945884/0.738668/0.997548/0.426313/0.216015/0.71357/0.467465/-0.0596664/-0.841281/-0.0543267/-0.680784/0.593825/0.533984/-0.540557/0.311797/-0.339959/0.644431/0.802586/-0.924785/0.796618/0.658992/0.563229/0.0104063/0.948104/0.788807/-0.528719/-0.185826/0.821566/0.0663602/-0.684661/0.901225/-1.02038/-0.66019/-0.51039/-0.124248/-0.235391/-0.218978/-0.35729/-0.968325/-0.629874/-0.284572/-0.80956/-0.280522/-0.726597/0.0891865/0.957715/0.309212/0.922997/0.807897/0.319299/0.460124/-0.690161/-0.345307/
-0.621711/0.905764/-0.825978/-0.220066/-0.653337/0.989791/-0.0392521/0.865299/0.187354/-0.74595/0.157312/-0.049049/-0.366587/0.775411/0.338956/0.950403/-0.890531/-0.904644/0.730917/-0.515508/-0.14813/0.378571/0.635481/0.537068/0.499901/-0.160603/0.746343/-0.215066/-0.614317/-0.818769/0.123145/-0.955375/0.155163/0.0589857/0.849914/-0.721101/0.43166/0.343419/0.439083/-0.0715713/-0.652524/0.593844/-0.941627/-0.344212/0.254606/-0.880119/0.727928/-0.889582/-0.0883328/0.881935/0.465174/0.357881/-0.843343/0.0342713/0.527618/0.171026/0.438841/-0.41391/0.380887/-0.22131/-0.192301/0.150442/0.793398/0.14182/0.234572/0.212541/0.910913/-0.0930275/-0.751307/0.69283/0.103249/0.496462/-0.232935/0.276391/0.42695/-1.02638/-0.932349/0.00256911/-0.863712/0.0787156/0.543078/-0.432622/-0.147046/-0.229611/0.930699/0.253895/0.0693069/-0.55222/0.514695/0.0662631/-0.304281/-0.90264/-1.45927/-0.717918/0.2974/-0.0112564/-0.921166/0.0193855/0.502935/0.524924/-0.744999/-0.423366/0.0408258/0.16707/0.896018/0.794829/-0.720184/-0.754836/-0.726594/-0.736298/0.705244/0.0144416/0.719464/0.0302199/0.335742/-0.499402/-0.114397/-0.416707/-1.22325/0.233266/-0.786612/-0.669547/0.258505/0.483599/0.201386/-1.26245/-0.603179/0.35839/-0.838498/0.40758/0.247083/-0.12767/-0.870618/-0.421779/-1.23047/-0.502528/-0.212302/0.505877/0.440286/0.664938/-0.386003/0.449934/-0.124539/-0.621074/0.796733/0.883339/0.304389/-0.392787/-0.293028/0.662481/-1.08336/0.926388/-0.379245/-0.774581/-0.324519/-0.625599/0.251291/0.0880662/0.154954/-0.671591/0.789098/0.0574106/-0.569378/0.356194/-0.307986/-0.0827912/0.368426/0.634237/-0.372533/0.835922/-0.164736/-0.230664/-0.773553/-0.803673/0.804924/0.691742/-0.164631/0.228042/1.28503/0.111186/1.48719/0.549397/-0.739147/-0.434824/-0.307707/0.37511/-0.387131/-0.615807/0.133584/-1.22536/0.259935/0.657175/0.77135/-0.489349/-0.456152/0.351799/0.685789/0.0395118/0.564959/0.548264/0.522157/-0.276899/-0.395091/-1.00033/-0.332873/0.300346/-0.255153/0.991516/0.259191/0.707273/0.164564/-0.242013/0.314625/-0.340612/-0.403503/0.853939/-1.4905/-0.784968/0.967128/-0.817008/-0.112839/0.144496/0.663534/0.172922/0.296108/0.661202/0.674684/0.497786/0.643692/-0.688367/-0.450509/-0.761226/-1.1032/-0.472935/-0.00556996/0.229995/-0.21255/1.54235/-0.199512/-1.38915/-0.390221/-0.519907/-0.616578/0.568577/-0.439377/1.51712/1.27624/-0.6284/-0.29711/-0.681297/-0.72324/-0.477897/-0.0232419/-0.65438/0.486445/-0.742561/0.240546/-0.30242/-0.0512186/0.163427/-0.986629/0.0191899/0.14736/0.0959569/0.353719/-0.587095/-0.101484/-0.156429/0.454135/0.352941/-0.264993/-0.253159/-0.563898/-0.38413/0.194808/0.490422/-0.0150368/1.24139/0.257214/0.239762/-0.326915/-0.475208/-0.631206/0.67831/0.0664661/0.0415931/0.0859903/-0.735235/0.305913/-0.390752/1.23807/1.22688/0.806556/0.31528/-0.524813/0.908807/-0.610109/-0.952482/0.233764/-0.523689/-0.298345/-0.384289/0.0231371/-0.0873996/0.144141/1.06356/-0.0549696/0.722261/-0.963203/-0.540204/0.635777/-0.0829862/0.259695/-0.336961/1.33219/-0.185169/-0.495044/-0.419025/-0.179947/0.984773/0.178572/-0.8176/-1.00649/-0.644546/0.236752/-1.12231/-1.55492/-0.0185371/0.525921/-0.173273/-0.928964/-0.687758/-0.106819/-0.0514592/0.153745/0.862938/-0.59991/-0.635041/-0.766569/-0.55037/-0.389978/-0.346272/0.583208/-0.848756/0.783699/0.666834/0.863539/-0.0527247/0.864166/-1.21369/-0.349078/-0.282021/-1.33237/-0.0586126/-1.06091/-1.10521/-0.598602/-0.327726/1.06924/-0.0666405/-0.0558278/-0.384436/-0.916521/-0.54405/0.143363/-0.452511/-0.111369/0.522779/-0.250192/0.920247/-0.818562/-1.05294/-0.778961/0.275243/-1.54747/0.370549/-0.533858/-1.0212/-0.192852/-0.839837/-1.07279/-0.20893/-1.15329/0.584426/0.456055/-0.829677/-0.0838621/0.414039/-0.884515/-0.0176061/0.1298/-0.647764/-0.975573/-0.451068/0.435009/0.422755/-0.179994/-0.420013/0.352231/0.215171/0.726986/-1.03031/-0.886832/0.246341/0.835229/0.382267/-0.446099/-1.05639/-0.18033/-1.20258/0.327339/-1.33264/0.936374/0.339255/-0.435986/1.05216/-0.904764/0.745502/-0.552409/-0.440591/0.989039/0.799409/0.810536/-0.0247934/0.0754991/-0.245163/1.0489/0.37302/0.00588711/0.35994/-1.30225/0.156967/-0.479918/-0.376548/-0.736688/-0.0723026/0.38487/1.09678/-0.929993/0.913405/0.894687/0.837103/-0.666686/0.651823/1.02435/0.328713/-0.769105/0.160295/0.0829784/0.629382/0.20612/1.13572/1.13284/0.810072/1.1195/-0.146361/0.480181/-0.67074/-0.831864/0.0904478/-0.0738255/-0.910488/-0.429721/-0.192344/0.482337/0.455079/0.803334/-0.00406905/-0.818252/0.419756/0.435128/0.167669/-0.366756/-0.163855/0.00681975/0.695047/-0.488164/-0.530298/0.427301/0.666638/0.479068/0.46454/0.40659/0.748842/0.230722/0.776724/0.0398684/-0.856197/1.26809/1.02019/0.0249831/1.2841/1.22418/0.258131/-0.331663/0.239956/-0.964337/-0.421206/0.226021/-0.419395/-0.0947413/0.545701/0.55661/-0.476541/0.774205/0.0412861/1.10405/1.23233/-0.541387/-0.321718/0.881906/0.894452/1.49342/1.23047/-0.00596858/-0.568915/0.649414/0.748303/1.40294/-0.360076/-0.410492/-0.259002/-0.230681/0.356894/0.781656/0.346352/-1.06489/-0.525845/1.15772/0.675389/0.766467/0.0928799/-0.968345/-1.09238/0.996855/-0.00133895/0.504345/0.499859/0.507113/-0.928861/-0.0516277/0.0751215/0.29875/0.526546/0.584867/-0.109536/0.614057/0.711605/-0.401261/0.0904255/0.496535/-0.983301/-1.28298/0.405043/0.285795/0.804734/-0.412426/-0.749651/-0.492072/-0.120635/0.494808/0.284473/1.41719/0.535685/-0.0251641/-0.840954/1.25278/-0.487521/1.18594/0.533482/1.15985/0.916789/1.07388/-0.0270252/0.907053/0.382293/0.341048/-0.245435/0.185707/-0.0346113/0.330594/-1.22209/-0.0895447/-0.320679/0.169258/0.672656/-0.807001/-0.31331/0.206675/-0.303559/-0.213022/-0.451914/0.125609/1.15817/0.382022/0.816568/-0.374465/0.232372/0.761022/-0.179164/0.0510588/0.403118/0.503897/0.1959/0.772376/-0.800102/1.00958/0.39031/1.24292/0.215233/-0.241246/-0.201667/0.221733/-0.93858/-0.691855/0.615371/0.544088/0.612435/0.656253/-0.475893/1.00493/1.61331/-0.159058/-0.238426/-0.511696/-1.00127/0.468426/0.144634/-0.771744/0.97231/1.82078/0.0100992/-0.706209/0.0789815/0.120577/-0.194516/-0.215856/-0.0592427/-0.457005/0.18059/0.509939/-0.72582/-0.822825/0.381839/-0.425191/-0.125212/-0.361805/-0.523241/-0.0674726/-0.0808694/0.304462/1.51685/0.367939/0.329516/-0.592614/1.05001/0.327054/-0.223368/1.37945/1.23166/0.909443/0.143696/0.293532/0.0858231/-0.189337/-0.538072/-0.337827/-1.10285/-0.268043/-0.72753/0.572143/0.907903/-0.874252/0.46426/-0.310754/0.732206/1.26936/0.55962/-0.245912/-0.936602/0.789898/1.47385/0.987922/0.924806/-0.742114/-0.603603/0.0660289/1.05602/1.29121/0.614168/-0.787687/-1.05301/-0.389488/0.952007/-0.00970166/-0.309218/0.784935/0.499419/-0.644355/0.48505/0.231954/0.443392/-0.111707/-0.629376/0.511159/-0.0733683/1.05485/0.815246/0.835548/-0.599724/0.569873/0.657745/-0.990718/-0.605254/1.03498/0.423182/-0.384952/-0.133124/0.958201/-0.0902616/0.809591/0.824215/0.192709/0.18937/0.768508/0.209895/-0.261542/0.0578816/0.816502/0.940352/-0.0652549/0.217239/-0.975053/0.44517/-0.290602/-0.392966/-0.626651/-0.0324504/0.542948/-0.440214/0.210124/-0.983147/-0.96784/0.965328/-0.289912/-0.668868/-0.269296/0.904551/0.731197/-0.918778/0.591306/-0.0760516/0.0180892/0.416349/-0.152006/-0.0358536/-0.591325/-0.392696/-0.0492225/0.716604/-0.0428517/-0.208209/0.633453/0.0893568/-0.805049/-0.327043/-0.606838/0.874379/-0.316818/-0.753778/-0.750638/0.0250586/-0.840475/0.129578/-0.18012/0.721732/0.144163/0.951485/-0.383691/-0.702878/0.726792/-0.811033/0.960227/0.536043/-0.845162/
0.0771658/0.925486/0.647823/-0.0345318/-0.376186/0.0835545/0.779463/-0.418346/0.384181/-0.470079/-0.0485356/0.262079/0.765288/0.274301/0.236561/-0.59517/0.246846/0.00409946/-0.018572/0.290862/0.51266/0.277939/-0.679731/-0.234426/0.00611891/0.840519/0.604488/-0.364579/0.523858/0.486303/-0.581451/-0.558487/-0.801049/0.703052/0.704584/-0.383715/-0.318174/0.875119/-0.511885/-0.261966/-0.225545/0.777063/0.125666/-0.0540949/-0.526318/-0.0464055/-0.671301/-0.375063/0.622239/-0.826566/0.617068/0.476863/-0.475143/0.292108/0.0195177/-0.514271/0.650759/-0.688165/0.00768645/-0.385007/0.662649/0.512864/-0.346234/0.0575222/0.723327/0.68723/0.00224769/0.705543/-0.128345/0.810499/-0.976307/0.692343/0.947093/0.505511/0.713813/-0.268195/-0.660532/0.907843/0.144847/-0.342832/0.439144/-0.806572/-0.901532/0.940498/0.950136/0.938796/0.555327/0.190395/0.393671/0.94411/-0.105563/0.0739611/0.47198/-0.000875815/-0.75249/-0.506956/-0.802169/0.802716/0.161159/0.326186/0.0155329/1.01296/-0.085002/1.00434/-0.979643/-0.888424/-0.0404141/-0.886472/0.552233/-0.0526926/-0.449644/0.800175/0.541286/-0.609771/0.117258/0.300195/0.289717/-0.535731/0.828456/1.01008/-0.253495/-1.14228/-0.391698/-0.366691/-0.236334/-0.245803/-0.389659/1.28607/0.0347355/0.989806/-0.0283846/-0.511356/0.712184/-0.427304/0.118433/-0.650164/-1.15467/-0.93432/-0.794975/-0.475778/-0.403307/-0.371085/0.14882/-0.527959/-0.752392/0.0604143/-0.316301/0.462167/-0.54055/-0.751922/0.404301/-0.584981/-1.1179/0.203035/1.11562/0.467575/0.817197/0.921137/1.14544/-0.542294/-0.395952/0.534191/0.72171/0.222604/-0.822806/0.865792/-0.587075/-0.696859/-0.102062/0.653659/-0.558134/0.0321106/1.05222/0.310274/0.985351/0.243147/-0.182379/-0.8647/-0.405037/0.6223/-0.597874/0.696405/-0.155631/-0.414535/0.272473/0.618759/-0.101274/-1.17153/-0.963611/0.286483/0.107094/-0.490684/0.351843/0.411339/0.450578/0.28131/-0.0203861/-0.626715/0.427223/1.25019/0.337555/0.360399/0.446668/-0.206726/-0.239297/-0.405047/-1.11748/-0.154026/1.12296/0.417323/0.247355/1.03351/1.10872/-1.0301/0.239375/0.233449/0.145882/-0.867537/-0.318948/0.266585/0.132447/-0.813694/0.185986/0.198504/0.25993/0.633865/-0.464542/0.900094/-0.706233/0.273302/-0.291868/0.293032/1.5877/0.495091/-1.35026/-0.571962/0.499054/0.0927317/0.624725/-0.631958/-0.483035/0.279765/-0.367736/-0.714882/-0.586473/0.0652039/-1.04661/0.414081/-0.512313/-0.33268/-0.319627/0.845843/0.0835403/0.0173076/0.668114/-0.63577/0.153395/0.466565/-0.187638/0.942254/-0.474743/0.135906/-0.914584/-0.105794/1.19138/-0.29441/-0.0288906/0.503565/-0.701716/-0.317601/0.981351/0.317069/-0.692125/-1.17012/-1.10894/-0.530924/-0.81483/0.436479/0.142946/0.175035/-0.181771/1.02174/1.12395/0.391038/0.662171/0.774534/-0.167578/0.417604/0.603092/-0.440445/0.490869/-0.0187356/-1.05535/-0.252425/0.35582/0.652309/-0.0091928/0.448751/0.307312/0.607705/0.078051/-1.19541/0.452039/0.559587/0.8354/0.167382/-0.779065/-0.0937085/-0.95835/-0.987056/-0.651152/-0.0514619/-0.730384/-0.162228/0.523639/0.108026/0.730512/-0.110757/0.294467/-0.205137/-0.559595/0.305234/0.275988/-0.17276/0.401037/0.965721/-0.654633/-0.268382/0.019575/-0.398982/-0.238729/-1.30467/0.0585957/0.721583/0.834988/0.79182/0.121649/0.460121/-0.778795/0.376948/0.0230317/-0.381241/0.435098/-0.501062/-0.245862/0.316518/0.140428/1.02476/0.696334/-0.126772/0.352843/-0.746667/0.493338/0.572835/0.664029/0.961507/-1.20144/-1.31469/-1.48844/0.351431/0.11101/0.0691256/-0.129368/-0.256527/0.543984/0.670022/-1.37034/-1.25118/-0.10863/-0.149194/-0.268938/-0.523244/0.44417/0.882261/0.215404/-0.0113219/0.331683/-0.0420001/-0.157296/-0.483731/-0.389373/-0.769659/-0.658957/-0.268805/0.262414/-0.431345/-0.437458/0.867886/-1.30107/0.243597/0.796179/0.0912805/0.151332/-0.602718/0.651873/0.858459/0.331341/0.327381/0.181777/-0.485804/0.0323538/-0.0533959/-0.707715/-0.338748/0.261534/-0.424934/-0.0127514/0.689021/1.0369/-0.204627/0.185922/0.329554/0.0350678/-0.194152/0.229901/-0.315724/-0.00600159/0.337904/0.465407/0.274157/-0.240243/0.367057/-0.740289/0.564692/-0.82923/0.38761/0.44723/-0.449248/0.721735/-0.507809/-1.42909/0.14369/0.652123/-0.259983/-0.557429/0.390747/-0.513324/0.405597/0.237752/0.445688/-0.536594/-0.696041/0.492656/-0.600734/0.0193932/-0.0406432/-0.470134/0.720259/-0.61274/-0.246195/-0.395353/0.570523/0.162798/0.657029/0.11838/-0.24405/1.18048/-0.597601/-1.32849/-0.479566/0.181813/0.650845/0.412705/-0.197039/0.267403/0.841952/-0.347387/-0.564479/0.0236158/0.474923/-1.08625/0.244655/0.776178/-0.688827/0.519949/-0.945598/0.837314/0.883972/-0.250402/0.950442/1.2751/-0.599787/0.724631/-0.00616396/0.731994/-1.02579/-1.547/-1.92441/-0.752621/-0.859933/-0.38849/0.493525/0.0563724/0.588493/1.22689/-0.536917/-1.05723/-0.788067/0.168328/0.10272/-0.785459/-1.22401/0.412641/0.415706/0.762963/-0.834807/0.0342124/-0.746721/-0.0808394/0.0949758/0.529831/-0.485868/0.332156/-0.372211/-0.142761/-1.11575/-0.887579/-0.561771/-1.28583/-1.03616/0.284496/-0.314619/0.0655752/-0.673633/-0.90064/0.574686/-1.20265/-0.268418/0.512579/0.0053164/0.781102/0.277119/-0.464534/0.507569/-0.468693/0.010558/0.14717/0.482519/-0.306219/-0.649567/-0.396907/0.144722/-0.709622/-0.343129/-0.604071/-0.114157/-0.915624/-1.74731/-1.00558/0.623065/-1.10253/-0.481461/0.73767/0.212788/0.219248/0.0955768/0.0520756/-0.768778/0.186095/-0.679521/-0.703168/-0.199924/0.149467/0.889747/0.677306/0.390275/-0.96673/-0.0590257/0.29091/0.293162/0.449993/-0.756441/-1.38257/0.40219/0.300656/-0.437401/0.0788344/-1.09087/-0.317263/-0.707453/-0.195248/-0.707547/-0.0522488/0.361767/0.349616/0.76908/-0.34457/0.847825/-0.606728/0.708045/-0.764423/0.991533/0.875979/0.140094/-0.977114/-0.355762/-0.123362/-1.30355/0.235695/-0.507218/-0.808223/-0.412306/-0.777148/-0.0386785/-0.286983/-0.404273/0.0157335/-1.1836/-0.491873/-0.348944/-0.945502/-0.199657/0.00279962/-0.577663/-0.962572/0.131286/0.520929/-0.750997/0.231043/0.22332/1.12199/-0.871716/-0.623783/0.56239/-0.810977/0.73179/-1.02772/-0.582092/0.733472/0.884023/0.0615387/0.578125/-1.10033/-0.443356/0.0804347/-0.637508/-0.0916939/-0.985825/-0.502752/0.256691/0.285701/0.328944/-0.752373/-0.463092/0.810315/0.931391/0.531457/-0.613704/0.14463/-0.0175309/0.185813/0.354196/0.138599/-0.583813/-0.80003/-1.31953/-0.928928/-0.303688/-0.968304/-0.471429/-1.25176/-0.425725/-0.756189/0.839176/-0.71486/-0.0157294/-0.0166656/-0.273204/1.26482/-0.726286/-0.884644/0.51467/0.0566426/-0.00169122/-0.644918/-0.851628/0.137983/-1.24479/0.154127/0.502799/-0.422924/-1.26483/-1.73728/0.18838/-0.921878/0.665486/0.68172/-0.273208/-1.15184/0.148347/0.157265/-0.359385/-0.817508/-0.52143/0.18526/0.532325/0.493384/0.326272/-0.792616/0.612085/-0.685332/-0.357944/0.153918/-0.869852/0.392647/-0.491802/-0.212313/-0.668321/0.686561/0.511543/0.538423/0.754832/-0.45712/0.833466/0.865427/-0.702109/0.295705/-1.166/-0.276508/0.215997/0.294408/0.27208/-0.583613/0.841686/-0.0478376/0.166902/-0.133863/0.199768/-0.494592/-0.612283/0.958759/-0.905536/-0.911856/-0.0395579/-0.721969/0.989345/0.12812/-0.193855/-0.982928/0.744504/0.832099/-0.51331/-0.44418/0.825822/-0.93136/0.97826/0.0208745/-0.941949/-0.601428/0.954834/0.650827/-0.496916/-0.273451/-0.0116795/-0.173669/0.568737/0.769647/-0.548846/-0.45708/-0.14218/0.3865/-0.100155/0.693832/-0.759636/-0.587766/-0.514225/-0.584354/0.763183/0.822776/0.403353/-0.84834/-0.0453704/-0.539851/0.731109/-0.247614/0.345967/0.666415/0.43611/-0.303944/-0.382921/0.240105/-0.551462/-0.419768/0.954298/1.27716/
0.528998/0.863944/0.312843/-0.052282/-0.702628/0.322725/-0.775486/-0.985968/-0.251315/-0.600668/-0.302375/-0.0162277/-0.739824/0.531857/-0.305933/0.335378/0.74375/-0.228762/0.225005/0.0150644/-0.812345/0.922189/-0.775456/0.912651/0.930187/-0.355326/0.0438176/0.442008/0.834397/-0.281688/-0.902488/-0.42218/-0.609693/-0.835133/-0.618139/-0.749375/-0.150447/0.837631/-0.859683/0.769468/-0.802303/-0.219574/-0.679668/0.64102/0.243288/0.202788/0.279184/0.565728/-0.768918/0.769339/-0.96411/0.519256/-0.0340883/1.01945/-0.47598/0.545267/0.295279/0.753248/-0.816577/-0.834456/-0.442375/-0.470655/-0.439593/0.0530681/-0.324742/-0.809616/0.290678/0.96088/-0.520209/0.52407/0.0658377/0.366089/0.174604/-0.749946/0.455891/-1.12679/0.759107/0.476291/0.283757/-0.192675/-0.270785/0.0788945/-0.841259/0.556997/-0.544017/0.719686/-0.393357/-0.293324/0.838095/0.262565/0.530399/0.683653/-0.5041/0.871675/0.708418/1.83863/0.794183/0.623925/2.10381/1.45221/-0.747419/0.684058/-0.557808/0.522127/-0.139611/0.0594753/0.397028/0.354489/-1.01248/-0.797596/0.686113/-0.340452/0.021871/-0.405531/-0.470889/0.717621/0.360942/0.573894/-0.770058/-0.551445/0.171739/0.962386/-0.097739/0.112842/1.04933/2.23381/1.34344/1.28182/0.105986/-0.0393294/-1.06061/-0.349693/-0.077472/-0.729782/0.0819153/-0.16662/-0.112241/0.114284/-0.64444/-0.25668/-0.0159271/0.317864/-0.141224/0.0431708/-0.507567/0.611467/0.119161/0.710223/-0.0418211/0.341858/-0.44748/0.893727/1.57833/0.952781/1.9561/-0.569733/0.868784/0.4101/-1.12128/0.186817/-0.287845/-0.97536/-0.496743/0.137447/-0.331707/-0.357758/0.0704109/-0.95426/-0.246302/0.390151/-0.447913/0.305418/0.0787555/-1.03372/0.229505/-0.135342/0.940278/-0.472441/1.0321/-0.185249/1.52611/0.821031/1.47949/-0.240495/1.22228/-0.122344/-0.145559/-0.341208/-0.0253077/-1.93392/-1.1009/-0.017113/0.0457325/-0.288435/-0.807983/-0.233012/-0.238017/-0.339655/-0.067824/0.141452/-0.661742/0.687587/0.174974/-1.16771/-0.351157/0.148016/0.718856/1.18811/1.07294/0.0972499/1.52931/0.433849/-0.247036/-0.289159/0.104144/0.411277/0.520343/-0.522396/0.584632/-1.06794/-0.886127/0.398705/-0.656306/-0.747298/0.169428/-0.391538/-0.750698/0.219655/0.208682/-0.77273/0.574249/-0.826805/0.171426/0.49741/1.2348/-0.456209/-0.45635/0.694583/0.458579/0.545138/0.661402/0.711755/-0.89221/-1.43701/-0.0295248/-0.486939/-0.0794949/-0.17724/-0.477184/0.305405/-0.554711/-0.493418/-0.884441/-0.79357/0.941231/-0.634263/0.311807/0.438287/-0.211068/0.58904/0.900132/0.740618/0.834085/1.50909/0.692023/-0.411248/-0.658537/0.313967/0.655846/-0.443944/1.32864/-0.884994/-0.751469/-0.937298/0.51137/-0.92113/0.434366/-0.332511/0.908583/0.764403/-0.682076/0.396957/-0.012263/0.379767/-1.22753/-0.284073/1.06514/-0.234849/0.966017/0.637525/0.473738/1.18764/0.437275/0.494646/-1.03458/0.215708/-0.325589/0.10809/0.720252/-0.856574/-0.0419053/-0.528429/-1.323/-1.64989/-0.247626/-0.515015/0.717775/0.901766/-0.0204614/0.074362/-0.877456/-0.506964/-0.350289/-0.494968/0.151797/-0.537554/0.583906/0.792787/0.755773/0.493649/-0.626519/0.522386/-0.320907/-0.436686/0.242914/0.819179/0.84433/0.0988493/-0.538864/-0.0965121/0.265963/-0.599537/0.543988/0.187901/0.739351/0.534683/0.420219/0.57612/-0.299587/0.500638/1.14901/-0.671344/-0.861161/-0.783066/0.544896/1.26539/-0.262542/0.246874/-0.827138/0.763687/0.154641/0.8704/1.24707/-0.23592/-0.398168/-1.42271/-1.31655/-0.361474/-0.767674/-1.90491/-0.74638/-0.503219/0.225771/0.714316/-0.486744/-0.658564/-0.124017/-0.191526/-0.537853/0.158612/-0.558916/1.68363/0.710586/1.74371/0.274844/-0.362546/0.119586/-0.319665/-0.687/-0.267952/-0.343609/1.0783/1.16381/0.313785/0.212379/-0.46229/0.694259/-0.193488/0.336436/-0.268708/0.264184/0.620953/0.356679/0.712286/1.93536/-0.399801/0.419711/-0.530914/-0.70739/-0.430112/-0.455436/1.2668/-0.215314/0.259446/-0.0845557/0.279442/-1.01672/0.331645/-0.526541/0.440713/0.733985/-0.564772/-1.52948/-0.595071/-0.751863/-0.726493/-0.0678393/-0.942701/-0.331073/-0.267366/0.377554/-0.348452/0.568542/1.12561/0.909218/-1.15374/-0.515092/0.388387/0.702217/0.399544/1.29638/-0.536306/-1.57148/0.894268/0.0917369/-0.0392354/1.22591/-0.341925/0.162223/-0.685081/-0.276467/-0.912111/-1.0984/-1.3172/-0.598296/-0.241444/-0.313598/0.0953537/0.609257/-0.119302/-0.107786/0.820678/0.838551/1.09549/0.844883/0.181798/-0.260635/-0.773526/0.556311/0.922418/-0.674839/0.437985/-0.235691/-0.409573/1.22492/0.408406/-0.453962/0.86835/0.504716/-0.436871/-0.366318/-0.202264/1.79701/0.781493/-0.720886/-0.325953/-0.0899223/0.830112/-0.118673/0.521747/0.302398/1.01868/-0.112692/0.959631/0.00411048/-0.64762/-0.181811/0.239659/0.243236/-0.717097/0.140997/-0.00870319/0.907815/0.839592/0.785421/0.644137/-0.164497/-0.543188/0.25106/0.507616/-0.0761058/0.667491/-0.810267/-0.478088/0.776963/0.56241/0.521593/-0.684519/-0.827696/-0.414817/-0.166698/-0.227609/-0.479425/0.719204/1.38532/0.155507/-0.0913525/-0.120172/0.371124/-0.390925/0.996051/0.672024/-1.12404/-0.324895/1.08265/-0.511739/0.179329/-0.699191/-0.713396/-0.701805/0.583537/0.779864/-0.831965/-0.770356/0.755717/-0.141727/0.736061/1.22608/-0.074645/-0.970969/0.956342/0.393453/1.18003/0.801198/0.0977639/0.15184/0.569804/1.52626/0.0503711/0.201651/0.209227/-0.470669/0.44492/-1.34893/0.0612311/0.0385183/0.20372/-0.0478605/-0.755084/0.586385/-0.622213/0.459755/1.06778/0.563941/0.823258/0.486479/-0.618591/-0.204365/0.0213614/-0.507163/0.394012/0.297423/1.01686/0.388018/0.409046/-0.791656/0.197618/0.946697/-0.114497/-1.42474/0.0466054/0.303683/-0.449699/0.518248/0.42862/0.44862/0.71116/-0.710044/0.296766/-0.259191/-0.458202/0.379007/-0.656568/0.91868/-1.1254/0.167589/0.767598/-0.514719/-0.110825/0.26454/0.0662625/-0.268215/0.368782/0.30411/-0.738204/-0.576267/-0.924542/-0.178532/-0.925219/-0.176597/1.09046/0.447763/0.419286/1.14975/-0.254974/-0.49779/-0.353825/-0.648083/-0.00780464/0.38/0.887117/-0.41024/-0.469344/-1.54409/0.0100389/0.0735538/1.31022/-0.24462/0.668802/-1.49883/0.490609/0.567623/0.535872/-0.253391/0.799647/-1.10988/-0.425905/0.723113/0.177087/-0.187997/0.324424/-0.182397/0.0486836/-0.564985/0.299432/0.61215/-0.57912/0.553949/-0.536663/0.501194/-0.142578/0.201383/-1.25036/1.12402/0.362669/1.0525/-0.493692/-0.0382168/-0.506146/0.356498/0.526786/-0.340618/-1.01386/-0.00891431/-0.835255/0.58839/-0.506481/0.0781594/0.479005/-0.592906/0.82925/0.54447/0.913972/-0.857404/0.702503/0.53759/0.999808/-0.612353/0.117021/0.284505/-0.325747/-0.122302/-0.394077/-0.449722/-0.0466622/-0.483206/0.105297/-0.635513/-0.289614/-0.651848/-0.711672/-0.437974/-1.43195/-0.670263/0.441037/-0.809542/0.91292/-0.120533/0.132836/0.22499/-0.596379/0.698686/0.725475/0.610996/-0.292261/0.517538/-0.0352474/-1.12085/-0.274254/-0.76536/0.348197/-0.625827/-0.283067/0.367065/0.368493/-0.0288847/-0.871219/0.657016/0.151655/-1.18259/-0.240368/-0.0664488/-0.84499/-0.0402143/0.947502/-0.386776/-0.529226/0.310479/0.222883/0.0091667/-0.957309/-0.517258/0.00962275/-0.251788/-0.211897/-0.118773/-0.94961/1.00248/0.933246/0.682304/-0.994557/0.729956/0.940403/0.925795/-0.567861/0.983172/0.0403177/-0.446916/0.946982/-0.0353671/0.847602/0.255877/-0.391552/0.614614/-0.732239/0.146091/-0.650883/0.604141/-0.202596/0.963095/0.741062/-0.977927/-0.0169824/0.353041/0.155501/-0.966508/-0.0943078/0.969629/0.561254/0.999094/-0.221161/0.943503/-0.544503/0.539028/-0.558284/0.912715/-0.00411244/0.88221/-0.69067/-0.0868279/0.683581/0.952285/-0.939179/-0.776592/-1.9802/
0.400791/0.0934811/-0.863642/0.771135/0.473294/0.897985/0.974982/0.251262/0.0117239/0.247675/0.405339/0.530421/0.782738/0.154899/0.270988/0.0824299/-0.41915/-0.269693/-0.643625/-0.269727/0.695906/0.0854125/-0.472066/-0.0054802/-0.105793/-0.0588933/0.180555/0.583589/0.384197/-0.809142/-0.573287/0.430299/-0.96743/-0.571707/-0.308937/-0.954253/-0.47563/-0.0412029/0.775654/0.370029/0.510114/0.807232/0.855557/0.216716/0.245051/-0.903874/0.695593/-0.431909/-0.0774148/0.21183/-0.491584/0.286165/0.645269/0.0362647/-0.328637/-0.197546/-0.161433/0.79995/-0.304685/0.600416/0.741265/0.572742/0.755997/-0.701987/0.0743371/-0.588456/-0.687136/0.534605/0.549371/-0.377718/-0.170081/0.374357/-0.631408/-0.531276/0.31002/1.16818/-0.169354/0.971848/-0.343186/0.278081/0.714692/-0.812051/-0.0575952/-0.312829/0.289531/0.137662/-0.985065/0.240609/-0.492763/0.137377/0.614433/-0.952994/0.0151641/-1.14768/0.861484/-0.314364/-0.506695/-0.599853/0.568508/-1.45339/-1.14424/0.111275/0.037846/-0.540058/1.52757/-0.0277677/0.570477/-0.903917/0.254237/0.470081/0.0572505/-0.190097/-0.968138/0.509579/0.193165/-0.275539/0.956487/1.26549/0.678433/0.523995/-1.58984/0.306588/0.449039/-0.620121/0.184805/0.880441/0.0226782/-0.15066/-0.912847/-0.0302508/0.865931/-0.0539412/0.430206/-0.556159/0.538624/0.11984/-0.591751/-0.537562/0.00716296/0.356227/-0.894502/0.102319/0.181418/0.264787/-0.260982/0.360184/-0.0687512/-0.985608/-0.0409594/-0.272743/0.203587/1.01656/0.677182/-0.301592/-0.841454/-0.321519/0.382236/0.546665/0.607014/0.835623/-1.36952/0.000558254/0.23774/-0.167403/-0.544901/1.07462/0.316835/0.266226/0.452505/-0.740229/-0.05821/-0.0975752/1.12774/0.630984/0.500093/-0.379504/-0.127708/0.164451/-0.0510145/0.229006/-1.38077/0.262051/-0.47987/0.698049/-1.03395/-0.0762091/0.459267/-1.00443/0.0557865/0.281041/0.543937/-1.37688/0.0276137/1.20091/-0.802483/0.182716/0.902075/-0.805762/0.946627/0.772717/0.468711/-0.0265953/-0.959376/-0.0555691/-1.06214/0.526469/0.549952/-1.07139/0.0390332/-0.418974/1.6052/0.282075/0.0771688/-0.635646/-0.400475/-0.823992/1.1065/-0.0382197/0.984819/-0.230514/0.0674198/0.523514/-0.36009/0.922857/0.465903/0.494196/0.414956/-0.220886/-0.0552749/-0.0828904/-0.823567/0.506599/0.48274/0.0554942/-0.0136802/-1.00443/-1.26929/0.881678/-0.428087/1.50089/1.53822/-0.312753/-0.946599/-0.807829/0.821206/0.866999/-0.588382/-1.08904/-1.29808/-1.12987/0.267631/-0.690473/-0.774474/-0.577389/-0.314378/-0.269108/0.225848/0.0394828/-0.99349/-0.984596/-0.343756/1.36446/0.256546/-0.350447/0.176806/0.0645847/0.970877/-0.274014/0.916134/0.268181/-0.72113/-1.08847/0.641643/0.502376/0.174022/0.27233/-0.121228/-0.810918/0.931741/0.207826/0.935735/0.882526/1.01984/-1.40561/0.0890115/1.33301/0.475219/-0.850248/-1.04197/-0.289145/-0.571857/-0.0183177/0.575402/0.114756/-1.20892/0.232786/1.12681/-0.468002/-0.480851/0.105289/0.243254/0.100862/-0.174006/0.0758738/-0.379184/-0.851085/-0.551953/-0.988979/0.232363/-0.685794/0.385509/0.396036/0.706716/0.186066/0.806158/-1.16124/-0.0531464/-0.62301/-1.00982/-0.336892/0.21193/0.97831/0.583413/0.310511/1.01966/-0.116842/0.16097/1.3501/0.970646/-1.44646/0.55177/-0.897433/-1.02718/-0.336949/0.79975/-0.174106/-0.205875/-0.183018/0.886516/-0.553633/0.850783/0.731087/-0.463683/0.231844/-1.4379/-1.48404/0.108182/0.24889/-1.09925/-0.189488/-1.24718/-0.306675/0.398361/1.51676/0.559656/0.59828/-0.420087/0.0338287/-0.889883/-0.528496/-0.906292/-0.605812/0.028527/-0.203539/-0.884629/0.0658638/-0.0431852/1.45239/0.219866/0.0932995/-0.487034/-0.780257/-0.147055/0.0571357/0.752241/-0.471532/-0.446555/-0.0265264/-0.487153/-0.0480294/-0.200492/0.397302/-0.544154/-0.652265/0.868421/-1.09526/0.185174/-0.935629/-0.338262/-0.356099/-0.652998/0.431857/0.21468/0.211321/-0.623277/-1.10231/-0.400496/0.210938/0.371282/0.891232/-0.395277/0.543583/0.633304/1.17372/0.916482/0.89516/0.997406/0.749455/0.663696/0.210812/2.05011/0.885154/-1.31671/0.0888186/-0.117975/-0.381051/-1.40977/-0.109528/-0.31064/0.429557/-0.435673/-0.296491/1.05806/-0.180883/0.958306/-0.849179/1.0004/-0.154201/-1.92415/-1.13065/0.177244/0.422258/-0.161408/0.774775/-0.15401/0.208354/-0.732111/0.44517/1.39485/-0.880761/-0.292569/0.396387/-0.85445/-0.209458/0.484046/-0.142731/-0.802873/0.0204613/-0.107496/-0.702804/-0.63749/-0.724606/1.04327/-0.578247/0.225245/-0.170871/-2.01609/-1.37857/-0.0851821/0.332646/-0.141563/-0.108193/0.743129/1.34418/-0.346758/0.373931/0.485317/0.0293002/-0.19595/0.235196/0.17773/0.670738/-1.20926/0.17935/1.02374/-0.12563/0.499881/-0.563394/-0.841113/0.534061/-0.059376/0.63706/-0.328849/-1.00151/-0.867809/0.945353/-0.570935/-0.668615/0.932037/-0.710679/-0.950019/-0.334204/-0.682651/0.758216/0.721598/-1.26441/-1.05438/-0.516459/1.18228/0.30354/-1.34167/-0.407275/0.703626/0.515448/-0.858858/-0.843546/1.0069/1.42423/0.295568/-0.454147/1.00539/0.456839/0.565954/-0.318327/-0.178797/-0.26001/1.20995/-0.290451/0.551461/0.986024/-0.203425/-0.845713/1.05407/-0.597641/-0.00962977/-0.702441/0.670621/0.998246/0.392746/-1.06309/0.704159/-0.278633/-0.992579/-0.189175/0.257302/0.287991/-0.883038/0.117289/0.29304/-0.315769/1.16941/0.293976/0.93876/-0.362784/1.06551/-0.620017/-0.0644281/0.0418874/0.502744/-1.36773/-0.931164/0.576115/0.0991564/0.383962/0.661467/0.0679296/0.724152/0.457048/0.382822/0.929768/0.619162/0.234499/0.845911/-0.363475/-0.533043/-0.967443/0.833194/-0.0659036/0.364738/-0.157862/0.331467/0.245622/0.26015/0.199578/-0.096993/0.248713/-0.776609/0.424888/-1.06814/0.264669/0.865933/-0.207655/0.139176/-0.284236/0.774716/-0.221982/0.209422/-0.812876/0.000378132/0.319625/-0.862022/0.984086/0.138854/-0.0472147/-0.503334/0.91672/0.329684/-0.21793/0.509045/0.069613/-0.641409/0.268673/0.878728/0.815901/-0.127983/-0.635442/-0.743637/-0.798018/-1.05295/0.357021/0.0396253/0.188023/-0.598358/0.625069/-0.397733/0.526137/0.776712/0.276004/0.360696/1.11463/0.794353/-0.338776/0.746866/-0.13449/-0.374409/-0.144413/0.998824/-0.0536464/-1.06559/-0.32818/0.394244/-0.170874/0.352438/0.25503/-1.05518/-1.2582/-1.25724/0.173059/0.152261/-1.00658/0.490624/-0.129081/0.438948/0.018941/0.341475/-0.755106/-0.0733646/0.785138/0.406344/-0.743032/0.0454009/0.113966/0.737849/-0.0498623/-0.352209/0.456089/-1.16984/0.470495/0.221397/-0.890418/-0.0580274/-0.496757/0.00391196/0.153584/-0.063577/0.361283/1.03218/1.36654/0.304479/1.1599/-0.153959/-0.902932/0.423593/-0.7118/-0.0197628/0.920658/-0.885277/0.59554/0.929841/1.3158/0.271823/0.506433/0.684127/0.988155/0.273224/0.266762/0.337098/-0.460181/-0.575256/0.614856/0.344004/-0.530844/0.615697/-0.320704/0.105665/0.707005/1.09469/-0.0143717/-0.672677/0.463993/0.326197/0.340688/0.220681/0.139678/0.55005/-0.538164/-0.610278/-0.246409/1.11485/0.808925/1.11214/1.08744/1.22066/0.770348/0.315484/-0.281408/0.498979/0.0959373/-0.661663/0.45236/-0.980324/0.165611/1.00996/0.485721/-0.161533/0.238769/0.673121/0.915175/-0.660519/0.664801/-0.478295/-0.0197197/-0.00303708/-0.772735/-0.88868/-0.545221/0.459674/0.996506/0.960862/-0.83926/0.0859045/-0.740538/-0.444409/0.296351/-0.681793/0.392958/0.511114/-0.650157/0.766519/-0.302201/-0.625786/-0.029597/0.99448/0.586998/-0.363593/0.973806/0.764773/-0.4675/0.725199/0.416773/0.703756/0.0292483/-0.423219/0.960662/0.347589/-0.0698955/-0.734324/0.217085/0.539843/-0.860197/0.663337/0.699849/0.358309/0.101076/0.791124/0.429022/0.565255/0.236544/-0.404857/-0.437564/-0.13283/-0.471416/0.903665/-0.109051/0.0698188/
0.764842/0.704749/0.718182/0.493142/0.237794/0.971473/-0.279576/-0.605296/0.0602927/0.303979/-0.562984/-0.0747449/-0.237124/0.79127/0.942008/0.288083/-0.0897187/0.196089/-0.159704/-0.807977/0.329275/0.12077/-0.214455/-0.338043/0.506223/0.0977777/-0.650171/0.576216/0.467304/-0.0194977/0.434163/0.391727/0.032602/0.962688/0.31095/-0.441918/0.980315/-0.0498769/1.00785/1.0438/-0.817367/-0.157589/-0.79251/0.542484/-0.524176/-0.286126/-0.669409/-0.571941/0.415043/-0.584986/0.755176/1.02072/-0.69436/0.835486/0.194276/0.776959/0.357709/0.0155142/0.784871/-0.500007/-0.208397/0.678513/-0.538376/-0.312262/1.18571/0.493918/1.00679/0.757521/-0.477108/-0.453715/0.200906/0.238656/0.448844/-0.11095/-0.416206/0.311995/1.35244/0.29383/-0.794801/0.401452/0.00672302/-0.579688/0.314144/0.890164/0.988883/0.17805/0.448408/-0.191899/-0.956468/0.699851/1.17376/0.0515473/-0.66301/0.951023/-0.490644/0.787499/-0.569556/-0.898099/-0.090038/0.618273/0.597507/0.854045/0.265133/-0.345363/0.00110747/-0.536072/-0.193741/1.68046/1.20365/0.712763/0.765487/0.158485/-0.339997/-0.320976/0.752379/-0.564527/0.406144/-0.486474/1.08737/-0.235855/-0.340031/-0.0351753/-1.25938/0.169496/0.886391/-0.548686/-0.316607/0.388942/-1.09867/-0.648716/-0.302512/-0.337173/0.588698/-0.927087/0.142327/-0.214759/-0.638048/0.907865/0.482003/0.748032/0.171911/-0.69322/0.563153/-1.03425/-0.486322/-0.907153/-0.679907/-0.844721/-0.578205/-0.090523/0.204422/-0.198263/-0.44446/-0.103704/-1.21608/-0.622466/-0.665941/0.0548373/-0.475922/-0.15801/0.129608/-0.431391/0.997438/-0.30119/-0.460493/-0.555936/-0.627868/0.0737158/0.942264/0.624019/0.266934/-0.255416/-0.595187/-0.199999/0.0720643/-0.773001/0.121935/0.796974/0.197716/0.488892/-0.738318/-0.817151/-0.263526/0.236052/-0.73708/-0.0594198/0.318496/0.451881/-0.189345/0.0182224/-0.0414565/-0.923991/0.411202/-0.231523/-0.606792/-0.892125/0.0512085/0.639453/-0.990045/0.16059/-0.815954/0.684163/0.0609456/1.06268/0.14304/-0.0609003/-0.32806/-1.04174/-0.792091/-0.898966/-0.107707/-0.1532/-0.126701/-0.638894/-0.687493/0.781725/0.608157/-0.85238/-0.23574/0.136151/0.762387/0.161863/-0.938771/0.755041/-0.0234502/-0.119656/-0.394406/-0.423304/-0.985897/0.803916/-0.089021/0.0581771/-0.0737121/-0.625279/-0.438736/0.54943/-0.564827/0.488341/0.244191/0.434786/-0.280668/-1.24443/-0.392392/-1.1771/0.449097/1.18327/-0.682542/0.404831/-0.59067/0.940659/-0.0473789/0.160196/0.41341/0.185588/-0.281365/0.929941/-0.410729/0.451863/1.19712/0.674877/0.427619/-0.940223/0.4636/-0.377907/-0.0262107/0.00520128/-1.26317/-0.796086/0.26368/-0.562637/0.182618/0.742923/0.206275/-0.67487/0.0562746/-0.41443/-0.516119/0.130021/-0.375526/0.778487/0.0330368/-0.791518/-0.790504/-0.360474/0.172873/0.321765/1.12245/-0.473354/0.737774/0.19036/0.515087/-0.610627/-0.477864/0.320895/-1.45471/0.118521/0.0821437/-1.14542/-0.643496/-0.506776/0.292651/-1.65695/-0.654811/-0.0533589/-0.196895/-0.36825/0.0524225/-0.791577/-0.0330437/0.580709/-0.690789/1.01482/-0.210298/-0.206844/0.850503/1.02108/0.552017/1.18584/1.10033/-0.362285/0.278345/-0.808837/1.04583/0.0415656/-0.250614/-1.44101/-0.494332/0.249581/-1.0645/0.459252/-0.075139/0.104302/-0.681002/1.10101/-0.013382/0.677298/-0.655974/-0.979168/-0.749408/0.431795/0.121562/0.624608/0.00999518/0.817878/-0.931975/1.03243/-0.521049/0.412073/-0.0823319/0.655162/0.882069/0.614834/0.964282/-0.130158/0.307412/-0.039954/0.789922/0.170291/0.0881485/0.440815/-1.07809/0.982615/0.366695/-0.398683/-0.659203/0.796333/0.315188/1.06614/0.0216614/-0.461503/0.339935/-0.305569/-0.583917/0.216001/-0.0850003/0.970332/1.17216/0.749445/0.23145/1.39194/1.25802/1.67137/1.55504/1.24806/0.998016/1.07459/-0.210957/0.267734/0.947073/0.378142/-0.907957/0.41356/0.697332/0.087195/0.97141/1.01671/0.410222/-0.0783738/0.0186011/-0.659355/0.725874/-0.341643/0.911091/0.756245/0.271583/1.27734/1.1967/0.52198/0.131094/1.26/1.38787/0.138308/-0.193852/1.75165/0.177646/0.874517/0.0999523/1.05866/0.413865/-0.163326/0.979238/0.0996173/0.689708/-0.456572/0.172977/-0.693868/0.238483/0.0429014/0.410707/1.06642/0.097843/-0.190357/1.04631/1.46552/0.110587/-0.547191/0.693307/0.959434/0.0677428/0.66748/0.922367/1.12295/0.529724/1.80896/1.83232/0.59631/0.191712/-0.490619/0.162087/0.241965/-0.650945/0.283068/0.540758/-0.186569/-0.0209811/-0.567721/0.143778/-0.319393/0.475656/1.05853/-0.160172/1.25724/0.443874/0.922798/1.12147/-0.116755/0.251027/1.38407/1.2827/-0.423712/1.18539/0.490738/0.795882/0.316402/-0.1009/-0.640233/-0.404227/0.202474/0.999553/-0.360697/0.224419/-0.445094/-0.0134451/0.390094/0.144639/-0.610809/-0.83988/-0.0791384/-0.339436/-0.284375/-0.127382/0.592278/-0.581027/-0.481026/0.741385/0.00730739/0.306539/0.640925/0.726729/0.247161/-0.340129/-0.313937/0.528571/0.971508/0.139762/1.0118/-0.469125/0.0169742/0.192115/-0.379355/-0.753706/0.361777/-0.678304/0.366338/0.258216/0.489991/-0.238878/0.150952/0.753601/-0.697475/-0.647624/-0.151684/0.475316/-0.234835/-1.33547/-0.0841828/-0.12038/-0.345431/-0.656733/-0.138514/0.147408/0.871453/0.511388/0.971837/1.25169/0.237763/-0.884417/-0.870208/0.909641/0.00886595/0.554344/0.897474/0.569295/-0.307674/-0.199306/0.75396/0.720336/-0.703009/-0.13535/-0.521492/-0.694148/-0.183544/-0.28731/-0.788254/-0.447303/-0.306114/-0.242018/-0.807729/-0.815659/0.354051/0.526879/-0.695788/0.122258/0.953416/-0.188831/0.313116/0.713998/0.242052/-0.973596/-1.19651/0.0294213/0.219897/0.754781/-0.253573/-0.0974817/-0.81477/-0.651598/-0.289609/-0.159197/-0.39994/-0.600522/0.162974/-0.328215/-0.450745/-0.322754/-1.17858/-0.0985184/0.0534779/0.802434/0.55168/-0.561863/0.384923/1.20712/0.818846/0.104752/-0.345262/-0.926172/0.147403/0.44877/0.872852/-0.754278/-0.264789/-0.757672/-0.0633942/0.262977/0.156854/-0.229275/-1.45529/0.678781/-0.791053/-0.551541/0.282113/-0.791685/0.254896/0.756851/0.490659/0.498943/-0.205848/0.894268/1.0127/1.24665/-0.815311/-1.04793/-0.701445/1.08821/0.768096/0.532856/0.648659/-0.206627/-0.827524/-0.874645/1.00974/-0.040408/0.496979/0.134794/0.0703889/0.347768/-0.55049/-0.448234/0.0698847/-0.949748/-0.220044/-0.274182/-0.0563728/0.541905/-0.154723/1.21554/-0.386969/1.21559/0.319238/0.890294/0.905734/-0.249991/0.724849/-0.674319/-0.609522/0.119816/1.16293/0.0159468/0.131101/-0.179314/-0.554467/-0.0833623/-0.117558/-0.701546/-0.0249195/0.939828/-0.85752/-0.992029/-0.0274702/-0.200982/0.559653/0.091442/0.870992/0.510939/-0.17071/0.645334/-0.465207/1.07676/0.459582/0.65479/0.261512/0.545136/-0.284779/1.16004/-0.184983/0.148831/0.272112/-0.0114354/-0.715985/1.20572/0.737045/0.257603/-0.0195633/-0.0689059/0.104867/-0.643431/-1.02228/0.126383/-0.559804/-0.622145/-0.399528/0.0908091/-0.510659/0.546324/-0.538473/0.762599/0.43708/-0.361068/-0.252306/0.0150092/0.108423/-0.307835/-0.43498/0.578937/-0.290401/0.00231047/-0.250207/-0.668233/0.145409/-0.546903/-0.230268/0.268197/0.660397/0.712163/-0.704571/0.477377/-0.0601693/0.734112/0.213539/0.234699/-0.603342/-0.00988053/1.01454/-0.32112/0.0708885/-0.575296/0.857424/0.420935/-0.346008/-0.963385/-0.93205/0.604168/-0.100891/-0.422502/1.0144/-0.112887/0.59023/0.158292/-0.0207569/0.965397/-0.355796/-0.733722/-0.134517/-0.965986/0.957872/0.950987/-0.759691/-0.126807/0.75403/0.975578/0.545266/0.284001/0.806603/0.0492208/0.891661/0.139186/-0.69592/-0.32036/-0.292335/0.733708/-0.571168/0.386426/0.664672/-0.862968/0.0970031/0.331118/-0.905168/0.838941/0.0877632/-0.964569/0.485991/0.0494371/0.889756/1.3154/
0.118255/-0.487242/0.923801/0.322502/0.298019/0.752927/0.192276/-0.935154/0.977084/-0.262775/-0.517431/-0.469282/0.778003/-0.0895926/0.229844/-0.850756/-0.553293/-0.980672/0.569486/-0.608027/0.892155/0.454798/-0.217564/-0.598264/0.976636/0.316665/0.191816/-0.144311/0.572721/-0.280444/0.510087/-0.115908/-0.778108/-0.505985/-0.591182/0.69638/-0.697989/0.334071/0.337952/-0.154837/0.788475/-0.649867/-0.825788/-0.935109/0.244997/-0.780543/0.3284/0.869931/-0.331607/-0.00250461/0.844445/0.264112/-0.669284/-0.637774/-0.154764/0.984605/0.250794/-0.915566/-0.257109/0.479716/-0.28283/0.392038/-0.499797/0.835257/0.391106/0.54532/0.0385614/-0.551059/0.402475/-0.716249/1.03292/-0.245052/0.658863/-0.469832/-0.924491/-0.234575/-1.35661/0.205907/0.412291/-0.0453828/-0.958097/0.117426/0.798579/-0.519869/0.567282/0.302826/0.441855/0.597707/0.589824/0.990032/0.361951/-0.354948/0.772671/-0.0525637/-0.438583/-0.532979/-0.979625/-0.819791/0.7967/0.872324/-0.496424/0.35239/-0.424881/0.590284/0.411784/-0.58191/-0.734765/0.53506/-0.758874/-0.772991/-0.497634/0.14658/-0.422348/-0.413216/0.620565/-0.799082/0.546428/-0.503876/0.193878/-0.707914/0.52722/-0.531221/0.0720737/-0.495345/-0.559926/-0.858233/0.641249/0.686313/0.703278/0.179042/-0.908078/-0.274596/0.435782/-0.510254/-0.869397/-0.494972/0.276847/0.479591/-0.295361/0.465504/-0.281884/0.371454/0.68687/-0.538831/-0.092209/0.0163589/-1.11229/-0.0668006/-0.626533/-0.659005/-0.543024/0.820467/0.230979/0.346885/-0.507406/0.675209/-0.198926/0.247145/-0.574065/-0.116676/-0.724942/-0.0130314/0.151959/-0.260882/0.543578/-0.994316/0.129931/-0.480029/0.148845/-0.3687/-0.0423723/0.169666/0.0245029/-0.541544/-0.761523/0.51275/0.394976/-0.583509/0.578351/-0.0197353/0.448501/-0.680461/-0.77932/0.45001/0.12667/0.764765/-0.551429/-0.239579/0.417406/-0.083129/-0.14023/-0.20043/-0.00445557/-0.124287/-0.917967/-0.0661224/0.681322/0.974107/1.23965/0.120759/0.804543/-0.734739/0.332833/-0.157241/0.239232/0.418668/0.17598/0.565/0.843695/-0.757309/-0.162843/0.0279522/0.736999/1.55377/0.393935/-0.790746/-0.174738/-0.854791/-0.406667/0.595375/-0.347648/-0.154284/0.250054/0.400868/-0.618956/-0.797047/-0.237621/-0.317987/-0.136959/-0.426291/-0.418401/0.524344/0.544602/1.04347/1.07508/-0.939001/-1.05805/-0.512498/-0.85347/0.203203/0.88943/0.144454/-0.24487/-0.67575/0.0193784/0.548599/0.43956/-0.390739/-0.227938/0.228686/0.324144/0.516198/-0.259029/0.49384/0.486123/0.427882/-1.27285/0.188449/0.111743/-0.331802/0.0341627/1.35848/-0.0764174/-0.306539/-0.434416/-0.458741/-0.722667/-0.564655/0.987755/1.06867/-0.175159/0.347215/0.155938/0.347822/1.17867/-1.56092/-0.268579/0.305367/0.649617/0.937151/0.692003/0.484429/-0.479902/0.256402/0.201346/1.07208/-0.216311/0.787014/0.316381/1.07521/-0.183672/-0.386606/-0.627505/0.778229/0.933429/0.0857255/0.579066/0.0426857/-0.0231078/-1.12962/-0.202015/-0.025267/-0.39129/-0.634832/0.113806/0.998981/0.295871/0.201861/0.684421/-0.910693/-1.10451/-0.822542/1.09714/-0.607193/-0.369991/-0.681482/0.710216/0.831978/0.17787/-0.587894/-1.73238/0.0110274/-0.516198/-0.257124/-0.406/-0.418864/-0.0332558/1.10292/0.102185/1.36245/-0.703077/-0.802823/-0.486746/0.453725/-0.0471109/-0.854381/0.422734/0.922346/-0.61394/0.115146/-0.244163/-0.622956/-0.147105/1.02992/0.562094/0.288772/-1.0165/-0.265752/-0.0457674/-1.26528/-0.890437/0.241973/0.130596/0.355387/0.210497/0.58926/-0.270742/0.610791/-1.36883/-0.333387/0.320926/-0.384529/0.0301772/-0.16931/0.405682/0.275739/-0.758643/0.962785/0.207039/0.218303/0.472514/-0.831982/0.532937/-0.21204/-1.04089/-0.238481/-0.944116/0.177965/-0.108502/-0.417852/0.91127/0.325272/0.253339/0.250317/0.716873/-0.594321/-0.768412/-0.0927181/-1.22421/0.390777/0.0203194/-0.815375/-0.00506051/0.949513/-0.166615/0.0625944/0.971354/0.94045/0.670607/-0.272819/0.593147/-0.747457/-0.825068/0.573673/0.706049/-0.37014/-0.716687/0.838198/0.424289/0.713803/1.68796/-0.0658346/-0.719389/-0.0442434/-0.0840622/-0.399585/-1.31562/-0.782411/0.593717/-0.402907/0.340601/0.643635/-1.09042/-0.641798/-0.146867/-0.121487/-0.321514/-0.678174/-0.141669/-0.870203/0.0571164/-0.586344/0.533696/-0.470236/0.759674/0.660239/-0.938231/-0.163887/0.147041/-0.837535/-1.11808/-1.01364/0.201103/0.145691/-0.0542928/0.441227/0.968492/-0.0988986/-0.188072/-0.828174/0.448296/-0.896146/0.0806853/1.02295/0.455978/0.0317631/0.603891/0.171307/-0.980849/-0.987298/-1.34473/-0.935375/-0.24267/-0.684769/-0.0583554/0.447932/0.868577/-0.775655/0.751557/-0.283812/0.402436/-0.830158/0.0215591/-0.220563/-0.754769/-0.16475/0.201942/0.115867/-0.268061/0.422831/-0.717577/0.215061/0.537835/-0.0387772/-0.273765/-0.0512914/0.66701/0.193761/-0.487968/-0.668061/-0.688694/0.210321/0.714935/-0.305623/-0.842295/-1.3395/-0.297902/0.0115612/0.100314/1.52043/-0.0121481/-0.947679/-0.368/0.0933922/-0.35743/0.821626/-0.359791/0.928513/-0.734867/-0.544796/0.655021/0.214064/-0.0262423/-0.488156/-0.311435/-0.215169/-1.45352/-1.52271/-0.599548/0.498874/0.526461/0.599581/-0.237986/0.569818/-0.177047/-0.4906/0.487572/-0.180208/-0.433499/-0.529634/-0.554736/0.294121/-0.708813/1.06423/0.0328642/-0.293189/0.338998/-0.146208/0.534933/0.121006/-0.171017/-0.38999/-0.673707/-0.184005/-1.62344/-0.460971/0.248767/1.4389/1.07935/0.487417/0.164348/-0.408354/0.427521/-0.882525/0.744798/-0.451989/1.00729/-0.727657/0.373444/0.234904/0.0382304/0.572584/-0.503356/0.415464/-0.402022/-0.472015/-0.522539/-0.272411/1.33858/-0.136161/0.866337/-0.679607/-0.9999/-0.568313/-1.45178/-0.36751/0.95733/0.406869/0.584774/0.268987/0.579266/0.612613/0.156691/-0.284536/0.34912/-0.777877/-0.300728/-0.570224/0.24132/-0.162299/-1.28872/-0.719075/0.119599/-0.423094/-0.828749/1.06191/0.310731/-0.374489/-0.179706/-0.821278/-0.312156/-1.20776/-0.622856/-0.763067/0.45985/-0.0282789/-0.204377/-1.32311/0.110711/-0.293911/0.922937/0.123536/0.355301/0.504317/-0.875205/0.881247/-0.87366/0.405935/0.470986/0.250679/0.891639/0.686362/-0.283717/1.66318/0.491049/0.570479/-0.382252/-0.514714/-0.36797/-0.382239/0.268723/-1.06572/-0.0402284/1.23745/0.0531371/-1.31656/0.445608/0.818796/0.55974/-0.848329/0.172581/-1.06837/-0.860063/0.453774/0.583285/-0.73604/0.372776/-0.367859/0.883537/-0.452836/-0.259049/-0.299522/-0.17759/-0.0728921/0.882111/-1.0699/-0.412383/-1.11787/0.384824/0.0699259/-0.859201/0.519944/0.0793252/-1.18164/0.766264/0.819398/-0.958958/-1.54286/-0.416312/-0.98356/0.602841/0.27351/0.876831/0.899562/-0.43256/0.795099/-0.110186/-0.596122/-0.133201/1.09564/0.00747873/-0.0785215/-0.614817/-0.78284/-1.45607/-0.229084/-0.477471/-0.631655/-0.727126/-0.256554/0.400919/-0.285801/0.759532/0.616396/-0.844723/-1.33681/0.218609/-0.525971/0.0765358/0.32291/-0.854412/-0.086444/0.601988/0.692824/0.271193/-1.06752/0.150697/0.494929/-0.182481/0.163261/-0.421316/-1.16438/0.586158/-0.797207/0.0757955/-0.968904/-0.322983/0.163305/0.166195/0.136594/0.791119/0.362923/-1.28725/-0.0429201/0.265065/0.649943/-0.0908728/-0.868327/0.0364363/0.384773/-0.165758/-0.864352/0.859315/0.724892/0.766762/-0.210626/-0.884528/0.165885/-0.558079/-1.00484/-0.581576/-0.184786/-0.0734304/-1.0139/0.774131/-0.444367/0.87099/0.453703/-0.869444/-0.596788/-0.291959/-0.312862/-0.342669/0.981584/-0.348029/-0.349546/-0.813111/0.0359464/0.151762/0.659972/0.149572/-0.136/0.240181/0.728193/-0.783762/-0.683151/0.281268/-0.733979/0.018052/-0.599283/-0.150544/-0.189681/0.0383566/0.658889/-0.0530285/0.750185/0.359399/0.417269/-0.955604/-0.83455/-0.275302/0.99207/-0.279828/0.924566/0.228555/
