-0.999984/-0.736924/0.511211/-0.0826997/0.0655604/-0.561936/-0.90583/0.358135/0.358643/0.869399/-0.232996/0.0388327/0.661896/-0.930874/-0.893064/0.0594259/0.342222/-0.985236/-0.233175/-0.866316/-0.165028/0.373545/0.177953/0.860873/0.692334/0.0538576/-0.81607/0.307838/-0.168001/0.402397/0.8207/0.524128/-0.476533/-0.907679/0.468683/-0.34502/0.278992/0.531508/1.03424/-0.245119/-0.479288/0.976528/0.445375/0.518105/0.352012/-0.850227/0.240757/0.76998/-0.470572/-0.154414/0.53412/-0.025816/-0.507531/-0.443977/-0.281548/-0.666986/-0.0269652/0.795303/0.807486/-0.89538/0.814231/0.0275964/0.0375523/-0.302111/1.02126/0.0628149/-0.38913/-0.861851/0.814495/-0.919035/-0.0513018/-0.241778/-0.442842/0.799176/0.0128/-0.0343413/0.929365/-0.893926/0.530805/0.666722/0.75557/-0.678709/-0.959461/0.376911/0.736494/0.259192/0.469164/0.390241/0.935552/0.814286/-0.398431/-0.187532/-0.286798/-0.0352761/0.0614046/0.553352/-0.283354/0.591721/-0.492184/-0.0361137/0.32248/0.256525/-0.107386/-0.404253/-0.447214/0.342189/0.77196/-0.727347/0.236803/0.152311/0.918416/0.496585/0.109168/0.783746/0.284676/0.62093/-0.783349/-0.534029/0.564571/-0.622701/-0.74637/-0.371809/-1.03148/-0.151975/-0.915819/0.519889/1.10552/0.0288474/0.0936413/0.272243/1.28345/0.76045/-0.30308/0.706821/0.0698491/0.171487/0.317876/-0.489454/0.184847/0.691151/0.180217/0.909169/0.123224/-0.837102/0.749189/-0.162274/-0.632138/0.116659/-0.396253/0.103037/0.201351/1.2668/-0.462915/-0.358598/-0.0810972/0.664324/-0.404554/0.656131/0.589968/1.06716/-0.054133/0.359439/0.0705722/-0.237215/-0.746545/0.913183/-0.133439/-0.715958/0.894974/-0.178533/-0.750987/0.59882/-1.00294/-0.759256/-1.0358/-0.323126/-0.395842/-0.48456/1.04314/0.331033/0.094441/0.134715/0.552124/0.861312/0.338656/-0.48792/0.359017/1.04875/-0.379435/0.893784/0.247231/0.395262/0.316647/0.630541/0.518627/-0.07551/0.902735/0.284297/-0.0131249/0.614516/0.36548/0.254727/0.524891/0.885253/0.827116/-0.187374/0.315998/0.270038/-0.589536/-0.0514629/0.128223/0.744789/-0.0619741/0.446759/0.668851/0.592847/0.717305/0.363037/0.512551/-0.566644/0.711712/-0.117797/-0.0788783/-0.869612/0.426845/-0.00267958/0.551032/0.448712/-0.651022/0.650103/0.425574/0.766942/0.176111/-0.66058/-0.0655386/0.919746/-0.492885/0.029446/-0.202493/0.233729/0.91832/-0.0747149/0.00786309/0.683333/-0.0618325/-0.223742/1.0043/-0.528164/0.219578/-0.00388886/-1.01652/-0.998242/0.546704/0.471143/-0.183395/-0.206312/0.0442202/0.238024/-0.622852/0.620354/0.259257/0.436195/-0.692338/-0.663275/0.883594/0.605206/-0.0510784/-0.035818/-0.614268/-0.380086/0.641071/0.952049/0.173181/0.0658741/0.406294/-0.538651/0.645931/0.60372/-0.142915/-0.435688/-0.612065/-0.981018/-0.775578/0.81279/-0.80465/0.60799/-0.395207/0.04733/0.398602/-0.21273/1.13174/-0.262399/1.33956/-0.0223998/0.0110883/-0.261671/-0.277983/0.339547/0.383416/0.712363/0.862425/0.894804/0.453225/0.37739/-0.820016/0.281616/-0.526339/-0.362444/0.399669/-0.753605/0.4456/-0.106798/-0.0339126/0.0836866/-0.501731/0.325117/-0.532687/-0.163724/0.514365/0.961958/0.654544/0.192828/0.769849/-0.200419/-0.585226/0.407477/0.00263945/0.526969/0.528964/-0.000492462/-0.462558/-0.148363/-0.313197/-0.107128/-0.0496337/-0.224338/-0.441414/-0.834388/-0.195397/-0.535818/0.451587/0.370374/0.020519/0.142476/0.651629/1.29206/0.221511/0.995236/-0.271566/0.126088/0.538347/0.628664/-0.0718505/0.463894/1.34936/-0.449413/0.568993/-0.377525/-0.196671/-0.0381056/0.282725/-1.17275/-0.452083/0.285958/0.0922732/0.829037/-0.324452/1.05565/-0.456722/0.651433/0.269515/-0.38946/0.850599/-0.556315/-0.44954/0.405712/0.442763/0.273971/0.783274/0.840293/0.99446/0.514163/-0.173888/0.628009/-0.823772/-1.11173/-0.0952559/-0.792808/-0.91589/0.636887/0.555084/0.493358/-0.127149/-0.979058/0.37749/0.343113/-0.60162/0.430722/-0.0412108/-0.55974/-0.0518902/0.386102/0.310334/0.393738/0.172703/-0.279975/0.872018/-0.102414/0.205876/-0.577939/-1.04806/-0.918602/-0.307642/0.41471/-0.346743/-0.694752/-0.782609/-0.536074/0.478511/-0.405956/-0.898795/-0.0539843/0.064717/0.089407/0.209221/-0.083512/-0.0015822/0.64237/0.473443/0.0315404/0.345938/-0.289677/-0.91203/0.863491/-0.129507/-0.947802/0.467674/-1.27845/-0.653612/-0.558079/-0.363976/0.260338/0.626481/0.401491/-0.906312/-0.578431/0.9534/-0.623448/-0.297363/0.232197/0.328271/-0.599103/0.539461/1.29449/-0.119546/0.686079/1.03887/-0.471336/-0.633218/-0.341662/0.521682/0.350729/-1.10548/0.114673/-0.136121/-0.287799/-0.593176/0.266691/-0.833453/-0.405955/-0.451996/0.0108895/-1.27116/-0.78896/0.160803/-0.136572/-0.834987/0.399278/-0.125089/0.774553/-0.457725/1.31322/-0.759309/-0.568991/0.0796226/0.528311/0.697527/-0.977484/-0.691482/0.304572/-0.244922/0.227627/-0.0455608/0.151628/0.589573/-0.631551/-0.164748/-0.310484/0.0361607/-0.134758/-0.278669/-0.56289/-0.574126/-0.532617/0.306023/-0.628745/0.679706/-0.389604/-0.406982/0.926859/-0.307226/1.33189/-0.00265825/0.0494273/0.471304/-1.3907/-0.235553/0.247379/-0.19178/-1.4278/-0.691548/-0.507096/0.326145/-0.819527/-0.268049/0.664108/-0.388462/-0.688255/-0.807898/0.0285149/-0.596827/-0.657241/-0.25496/0.910699/1.00192/-0.11601/-0.245413/-0.226663/0.461513/-0.460968/-0.147932/-1.12328/0.273053/-0.606657/-0.382273/-0.509742/0.355534/-0.015977/0.277562/-0.0895074/0.123691/-0.0782584/-0.682654/0.28948/-0.206715/-0.440345/-0.203243/-0.292582/-0.198035/-0.519119/-0.833829/-0.161716/0.00629752/0.0944119/-0.350579/-0.485032/0.590835/0.0085115/0.0796189/0.20558/-1.00172/0.0813742/-0.683495/-0.378854/-0.871405/0.0380579/-0.471717/0.364696/-0.275774/-1.15642/-0.618157/0.244993/-0.0884874/-0.480098/0.892321/-0.831385/0.588221/0.892089/-0.65769/0.212584/-0.897054/-0.000603383/-0.205113/-0.00242246/0.50519/0.546101/0.343819/-0.542269/0.444907/0.0491542/-1.04693/-1.04152/-0.699767/0.665685/-0.799279/-0.0736789/0.663085/-0.710693/-0.712087/-0.71016/0.51502/0.586214/-0.104624/-0.632053/0.411406/-0.243268/-0.598711/-0.528805/-0.171442/-0.200573/0.633195/0.977127/-0.131579/-0.781549/0.280179/-0.851241/0.575994/0.0805074/0.638007/-0.306426/-0.650584/-0.0465992/-0.209256/-0.270177/0.887249/0.939123/0.678372/0.793042/-0.302078/-0.721971/0.756835/0.141656/-0.0709952/0.863829/0.381545/0.641496/0.0432429/-0.0274279/-0.927179/0.758986/0.73511/-0.339301/-0.489104/-0.129131/-0.652374/-0.842381/0.062058/-0.917286/0.00306701/0.431889/-0.276124/0.182402/0.505982/0.581164/-0.752685/-0.321419/0.56222/-0.327441/-0.985461/-0.796745/0.838467/-0.556687/-0.239771/0.183662/-0.697492/-1.12237/0.14587/0.372384/0.419946/-0.666007/0.3799/0.836787/0.85375/-0.091968/0.148478/0.756294/0.70264/-0.0682674/0.10087/-0.114671/0.0596532/-0.438591/1.12172/0.356881/-0.351146/0.0420513/0.378197/0.293392/-0.810983/0.0974726/0.221475/0.346433/0.00643866/0.0786874/0.120922/-0.175153/-0.706699/-0.0348746/0.544289/-0.808832/-0.856876/0.122287/-0.222299/-0.812442/-0.479674/-0.825971/-0.301706/0.105429/0.244803/0.251955/0.881118/0.559548/0.0074357/-0.0798991/0.28467/0.39171/-0.186318/-0.026301/-0.0404343/0.420783/0.0713086/-0.448604/0.195541/-0.456157/0.401545/0.0620853/0.898341/-0.494495/-0.17446/0.193059/0.632085/0.856372/0.376807/0.658309/0.0745624/-0.532541/-0.706607/0.796959/-0.497149/0.30165/-0.990204/0.870776/-0.449479/0.719277/-0.442135/0.904862/0.0136399/-0.7541/-0.167049/0.404943/-0.127018/-0.784522/0.53235/-0.800254/-0.117466/-0.310847/-0.405872/0.515242/-0.322981/-0.338483/-0.888788/0.146366/-0.0294279/-0.595036/-0.771051/0.948696/0.729219/-0.0163185/-0.26521/0.609825/-0.675592/-0.68084/-0.884554/-0.701497/0.394453/
-0.238783/0.767409/-0.151733/-0.175504/0.302599/-0.383259/-0.879805/0.628731/0.795322/0.838982/0.802436/0.540093/-0.658407/0.144884/-0.937134/0.606653/0.0445498/0.723361/-0.445383/0.738988/0.173724/-0.221656/0.623791/0.0513405/0.879743/-0.159924/0.159725/0.49829/0.761568/-0.323831/-0.621258/0.487453/0.43551/0.756143/-0.859329/0.408012/0.75311/-0.260823/-0.79996/-0.681008/-0.174543/-0.821543/0.340676/0.127173/0.631091/0.762318/0.532247/0.233783/0.751914/0.72799/-0.0231911/-0.761263/-0.207558/-0.231892/0.376325/-0.756521/-0.846356/-0.713987/-0.0905198/0.37266/-0.618142/-0.326226/0.883107/0.162995/0.272344/0.838039/-0.234319/0.646635/0.452794/-0.309408/-1.01204/-0.23909/-0.316941/-0.367087/-0.155299/0.37182/0.682293/-0.389117/-0.462842/-0.463411/-0.598841/0.966166/-0.176115/-0.523179/0.92632/0.664845/-0.600129/-0.800532/-0.774317/-0.43225/0.149385/-0.201441/0.0911915/-0.068385/-0.156565/-0.304018/-0.0333634/-0.541771/-1.3079/-0.327411/0.437627/0.0729793/-0.148112/0.754207/0.651679/0.936255/0.411992/-0.27252/0.427364/0.331097/0.291178/0.289796/0.59807/-0.245751/-0.210247/-0.149945/-0.310873/0.461674/-0.544582/-0.257424/0.425075/0.907761/-0.167443/-0.674149/0.0932402/-1.07819/0.750351/-0.212229/0.128274/-0.0922981/-0.116551/-0.159151/0.808554/-0.617005/0.583296/-0.513134/0.224587/-0.1984/-0.695083/0.511711/0.331946/-0.982596/0.617666/0.302333/-0.251762/-0.0777156/-0.406329/-0.23444/0.185361/0.796011/-0.24527/0.153594/-0.0625005/-0.605415/-0.52536/-0.405665/0.450666/1.06286/0.0526079/0.670846/-0.353105/-0.744089/-0.421062/0.808729/0.135461/-0.377423/-0.0865608/0.255661/0.888904/-0.193576/-0.90767/0.0368059/0.186532/0.376037/0.395093/-1.11825/-0.906442/0.68736/1.15315/0.405338/0.354496/0.704004/-1.1014/0.867014/-0.462281/0.997256/0.137386/-0.457367/0.445299/0.160087/0.772274/0.683211/0.16941/0.303436/0.252078/-0.300942/0.0697524/0.322016/-0.338483/0.801575/-0.304723/0.714973/-0.417434/1.24284/-0.349395/0.267197/0.976673/1.15509/-0.314002/0.00139429/0.0888872/0.58447/0.820629/0.362135/-0.537505/0.816186/-0.0581508/-0.757108/-0.434598/0.816844/-0.441341/-0.582553/0.660157/0.20481/0.246485/0.671343/0.293958/-0.375037/0.71161/0.731047/-0.044681/-0.166163/0.90568/0.513223/-0.0522567/0.110202/-0.755489/0.017052/1.0289/-0.059913/0.624323/0.624698/-0.397124/0.860514/-0.575208/-0.147578/-0.513277/-0.507502/1.22261/1.17059/0.189125/-0.933993/0.381863/-0.0228129/0.166707/0.543071/-0.138012/0.88755/0.152094/0.649651/-0.070822/1.18915/-0.220218/1.15498/0.395565/-0.221581/1.11544/0.876941/-0.199871/-0.258275/1.26639/-0.546259/0.924416/0.250934/0.183897/-0.589565/-0.446584/0.779006/0.00853674/0.311775/0.010118/0.0637639/-0.752969/0.550742/0.400358/0.0324013/0.312342/0.00742148/0.643041/0.0319425/-0.0617387/0.990601/0.821262/0.220376/1.20791/-0.671263/-0.422608/0.0227346/0.119764/0.680043/0.509837/0.530569/0.35136/-0.217837/-0.47558/-0.250677/-0.646538/-0.552606/0.342703/-0.178866/0.655941/-0.0941423/-0.157846/0.133633/0.428103/0.497764/0.563575/1.17359/0.0465264/-0.238523/-0.276686/0.578531/-0.77739/0.802245/0.403473/-0.723138/-0.685556/-0.538724/-0.0348262/-0.778513/-0.0737041/-0.952623/1.02577/-0.527124/-0.431607/-0.0359026/0.58556/-0.499583/-0.622118/-0.761229/-0.185586/-0.485732/0.814969/0.462861/0.328855/0.53002/0.0605129/0.533777/-1.1008/-1.08065/0.168198/0.170558/-1.12657/0.322963/-0.897241/0.477457/-0.207512/-0.418641/-0.0355279/-0.469501/-0.216907/-0.754302/0.848858/0.57094/-0.213098/0.435791/0.614455/0.520562/-0.635268/-0.375462/0.810186/-0.408248/-0.0998366/-0.573295/0.136814/0.161894/0.134862/-0.139745/0.418653/0.0914899/-0.684363/-0.927847/-0.719171/-0.803616/0.33325/0.212396/0.781123/-0.461807/0.607365/-0.503498/0.215124/0.709206/-0.370785/0.189626/-0.889436/-0.433717/-0.682929/-0.528969/-0.90505/-0.807812/0.377319/-0.977461/-0.378411/0.839066/-0.816079/-0.882555/0.196721/-0.785537/0.494824/-1.05065/-0.801082/0.436854/0.577658/-1.04057/-0.618695/0.916015/-0.693693/0.42706/-0.560453/-0.201571/0.198388/0.298544/-1.0048/0.466642/0.299398/-0.333954/-1.04609/-1.04537/0.508728/0.387605/-0.00762717/0.409426/-0.758807/-0.151815/-0.202763/-0.40295/-0.629634/-0.925755/0.17589/-0.296909/0.650445/-1.13341/-0.099054/-0.347871/0.510825/0.282915/0.182629/-0.336393/0.24801/0.284833/0.0837363/-1.11505/-1.46576/0.759159/-0.94739/-0.170794/-0.251103/-0.535506/-0.961575/0.0331266/-0.751089/-0.193103/-0.255362/-0.175323/0.656851/-0.976506/-0.051087/-0.719959/-0.279915/0.557581/0.499008/0.317564/0.706735/0.379121/0.572968/0.679591/-0.102559/0.238859/0.155147/0.189641/-0.1701/-0.270971/-0.45884/0.355673/-0.330175/-0.251815/0.19184/-0.498168/0.598269/0.654933/-0.902403/-0.376143/-0.124909/-0.76096/-0.144023/0.391466/-1.05883/-0.532795/-0.695435/0.529632/-0.573933/0.339384/-0.203407/0.570146/0.444586/0.123516/0.0512638/0.425008/-0.919658/0.346149/-0.504463/-0.275586/-0.0602057/0.39991/0.0922966/1.12701/-0.494877/-0.0929811/-0.180333/0.286922/-1.51004/-0.411734/0.413656/-0.681865/0.532342/0.726035/0.761609/0.186145/-0.517452/0.703516/-0.611645/0.201469/0.085649/-0.531561/-0.687818/0.209428/0.0871794/0.380148/-0.00313696/0.701931/0.740593/0.548824/-0.0361924/-0.381884/0.101723/-0.521288/0.181959/-0.475459/0.0695892/-1.09563/0.613906/0.699109/-0.421228/-0.847546/0.193752/-0.113747/-0.552331/0.0949266/0.0931044/-0.0117672/0.229003/0.80258/0.381274/-0.321028/-0.958347/0.343407/-0.34203/-0.959781/-0.573694/0.161385/-0.193447/0.0603117/0.545969/-0.228177/-0.436956/-0.251301/-0.664413/0.211548/-0.142514/-0.921794/-0.324147/0.281825/-0.150249/0.38792/-0.257134/0.760227/-0.900225/-0.0493116/-0.779736/0.966641/0.308174/0.58669/-0.791372/0.147447/-0.541452/0.220965/1.00052/-0.271931/0.449561/0.569523/-0.157798/-0.94894/0.480965/-0.6734/0.45991/0.290562/0.873885/-0.330014/-0.607985/-0.574981/-0.664134/0.622356/-0.0169501/0.613054/-0.883588/0.851246/0.898788/-0.0940561/-0.435924/-0.190223/-0.186905/0.688726/-0.387885/0.0437591/0.6817/0.754871/0.347344/0.186896/-0.112831/-0.802071/-1.04261/0.190519/0.92256/-0.45748/-0.662358/-0.536735/-0.361605/-0.310451/0.345432/0.2699/-0.0931544/-0.44576/-0.0734739/-0.358351/-0.812713/0.733691/-0.0999364/-0.838641/0.0769894/0.504376/0.562411/0.390282/-0.11199/-0.116989/-0.592721/-0.497261/-0.926953/-0.601681/-0.187677/0.648777/-0.738504/-0.809233/-0.602544/1.06682/1.0782/1.05296/0.232725/-0.716999/-0.207802/0.565763/0.871738/0.166127/0.097813/-0.0562472/0.54744/-0.262902/-0.705986/-0.177773/-0.211411/0.85611/1.24042/-0.572019/0.0482584/0.13889/0.588812/0.33706/-0.815664/0.189669/0.458871/-0.146606/0.527273/-0.109489/0.0984862/0.215881/-0.620323/-0.171635/0.480796/-0.565336/-0.38608/-0.630064/0.513253/0.249513/0.372079/-0.185484/-0.636478/-0.762159/-0.0815647/0.0451404/-0.676364/0.941199/-0.0846492/-0.92685/-0.845178/-0.117056/0.842672/-0.774972/-0.298961/-0.265391/-0.209677/-0.634916/-0.303533/-0.210296/0.299066/0.190622/-0.981141/-0.425875/-0.844396/0.0880575/-0.017756/-0.422626/-0.485495/-0.0981611/0.344148/-0.361917/-1.00343/0.940622/-0.822462/-0.34953/0.908786/-0.306115/-0.684679/0.956077/-0.771033/-0.912918/0.927297/0.603128/-0.554921/-0.789198/-0.477272/-0.122478/-0.515761/-0.434263/0.0974727/0.755479/0.703302/0.340936/0.115221/0.515666/0.803993/0.70676/0.519395/-0.5321/0.996582/-0.477105/-0.249902/-0.400994/0.491044/0.983669/0.532627/-0.142781/0.28333/-0.0723981/-0.795064/-0.636239/0.726721/0.00671518/0.86195/0.796072/-0.417668/0.258282/0.9508/0.0880979/0.661338/-0.89038/-0.615464/
0.950588/0.530418/0.739755/-0.935322/0.0365369/-0.250849/0.942915/-0.60461/-0.531674/0.195307/0.793009/0.098957/-0.830659/0.553824/0.548515/0.429554/-0.883426/0.777658/-0.858144/0.989322/-0.460165/-0.000453702/0.374635/0.49687/0.889295/0.379415/0.823546/-0.657546/0.630664/-0.434293/-0.0360076/0.823929/0.406554/-0.20074/-0.668801/0.793064/-0.579946/0.093743/-0.24726/-0.476802/0.601002/-0.535576/0.322052/-0.324653/0.0288794/-0.119032/0.173752/0.312887/-0.987234/0.636505/-0.241987/0.0850478/0.952751/0.496465/0.586717/0.517398/-0.0935436/-0.185646/-0.508427/0.434785/-0.518579/0.417453/-0.153914/-0.410028/-0.263381/-0.354034/0.338437/0.785046/0.373245/0.649082/-1.03373/0.843254/-1.09321/-0.483803/-1.02337/0.243633/-1.21976/0.0961947/0.845258/-0.690784/0.245122/-0.828854/0.106939/-0.233238/-0.0371404/-0.216025/-0.165388/0.221167/1.1024/0.698123/0.462379/-0.870171/-0.356762/-0.205085/0.387708/-0.0293735/-0.0726665/-0.624598/-0.881634/-0.802691/-0.576241/0.0836386/-1.02618/-1.07246/-0.45408/0.199995/0.136449/-0.75405/0.118786/-0.203384/-0.812082/-0.0134905/-0.734371/-0.56697/-0.0697451/-0.105386/1.32331/1.23573/0.0950601/0.0374824/0.625874/1.03559/-0.487656/0.0157234/-0.0207997/-0.936672/-0.154354/-0.276013/0.0208167/-1.38301/-1.17045/-1.12106/-0.502414/-0.370048/-0.420702/-0.620324/0.823187/-0.406849/0.769362/0.582313/0.928393/-0.501535/-0.460495/0.195039/0.690224/0.330129/0.24058/-0.133337/0.73981/-0.0647415/-0.93769/0.8095/0.770194/-0.0304652/0.992655/-0.20858/-0.153775/0.150776/-0.679094/-1.17163/-0.0293931/-0.797238/0.142389/0.820465/0.46051/-0.577536/0.124876/0.661366/-0.414255/-0.391944/0.855222/0.930951/0.291983/-0.256927/0.129612/-0.613485/0.781435/0.423729/-0.010025/-0.844983/-0.818911/-0.690882/-0.173683/-0.441697/0.13807/0.101455/0.202473/-1.07762/-0.829108/-0.487857/0.384283/-0.0211582/-0.255321/0.676214/-0.376428/0.193405/0.56042/0.964518/0.762313/0.512492/0.596042/0.289688/0.579185/0.452051/0.607578/-0.311227/-0.161203/-0.464213/0.342257/-0.0362325/0.552244/0.761152/-0.00961456/-0.567669/-0.119328/-0.511339/0.728572/0.0701465/-0.419596/0.0346056/-0.81743/0.470815/-0.824384/0.124612/0.358085/0.329159/0.375343/0.229833/1.17642/-0.209484/0.63913/-0.947441/-1.05818/-1.08074/0.66572/-0.542165/0.622387/-0.376233/-0.315344/0.808354/-0.136377/-0.246164/0.280567/0.376338/0.592962/-0.261374/0.466449/0.412051/0.212767/0.201515/-0.577663/0.0127801/0.795542/0.664161/0.79202/0.845274/0.904477/-0.466167/-0.23438/-0.0451165/0.441749/0.517558/0.520336/-0.0113197/-0.253239/0.205651/0.32336/0.603481/0.875085/-0.344115/0.593729/-0.422603/-0.710167/0.493144/0.728543/-0.763409/0.114745/0.560287/0.214594/0.889621/-0.139294/0.870379/0.304732/-0.483984/-0.50364/0.704491/-0.724956/-0.269656/-0.670363/0.812521/-1.04286/0.786168/0.740596/0.555848/-0.191335/0.404669/1.2086/0.463127/0.00239037/0.157379/-0.757979/-0.140242/-0.944199/-0.752236/-0.180607/0.44231/0.780374/0.931673/0.634131/-0.186044/0.331501/0.263591/-0.238809/-0.278831/0.284208/0.423745/0.614765/0.883345/0.00335323/-1.21044/0.517448/-0.621634/0.658007/0.188272/0.0393643/0.340615/0.332723/0.544542/-0.210411/-0.314549/0.477687/0.228907/0.542428/-0.93783/0.776556/-0.594072/-0.566522/0.453015/0.357492/0.925954/0.463769/0.47476/-0.517571/-0.154375/-0.726783/0.582848/0.530799/-0.261118/0.143172/-0.358674/-0.0359745/0.21088/-0.834843/0.727252/0.641563/-0.0383572/-0.816307/0.696881/-0.610872/0.115361/0.371686/-0.619508/0.301335/-0.128455/-0.944399/-0.522275/-0.474137/0.278493/-0.368575/-0.0178374/0.682701/-0.24322/0.795498/-0.844687/-0.342285/0.0276217/0.499451/-0.489312/-0.936718/-0.174884/0.212338/-0.130724/0.575044/-0.0917757/0.339854/0.630015/-0.0899224/-0.622587/0.0933616/0.023599/-0.305283/0.450583/0.94398/-0.534833/-0.718514/-0.457235/0.693885/0.513911/-0.0296138/0.891169/0.375653/-0.78828/0.789108/0.263459/1.11668/-0.136843/0.203267/-0.778926/0.723321/-0.478362/0.0341087/-1.08185/-0.766674/0.859351/-0.869655/0.171969/0.79229/0.512349/0.13334/-0.577315/-0.939242/0.144895/0.176841/-0.652297/-0.753267/-0.567769/0.416212/0.0366242/-0.253075/-0.477459/0.889297/-0.603657/-0.24136/0.528638/-0.135633/-0.193747/-0.264599/0.716559/-0.19643/0.232384/-0.285147/-0.306847/0.431167/0.33235/0.289776/0.14974/0.617301/-0.0823185/0.472263/-0.711317/-0.545194/-1.07028/-0.267905/0.570239/1.06632/0.413777/0.393601/0.411133/1.35868/0.856657/-0.669707/-0.309424/-0.246896/-0.0253978/0.0580115/0.256476/-0.65542/0.561468/0.156257/-0.0662221/0.402128/-0.542566/0.968486/0.456042/0.038295/-0.181772/-0.0735809/-0.76777/-0.0408615/-1.02149/0.34364/-0.598194/-0.633295/0.674041/0.280109/0.555707/0.0257257/0.0487827/0.0281575/0.157729/-0.359353/-0.280949/-0.255804/-0.70491/-0.176585/0.357273/0.0827882/-0.442717/0.488851/0.5652/0.36936/-0.197061/0.0173017/-0.752554/-0.168821/0.536899/-1.1863/-0.137884/-0.926718/0.101827/-0.236482/-0.236985/0.022416/0.596872/0.519638/0.498987/0.733184/0.382979/0.752692/-0.575902/-0.0554971/-0.643423/-0.014877/-0.387973/0.478937/0.44963/0.643372/0.101487/0.899851/-0.428355/-0.0759257/-0.531978/-0.953052/-0.0217883/0.325789/-0.604731/-0.460876/-0.170184/-1.1502/-0.252377/-0.319107/0.933696/0.36035/-0.859168/0.526287/-0.802835/0.500519/0.232632/0.242837/-1.18199/0.938263/-0.539774/0.444303/-0.799615/0.406303/0.473577/-0.859117/0.699431/0.22108/-0.965544/0.0943805/0.201344/-1.25255/-0.772067/-0.136877/-0.492767/-0.149259/0.315106/0.545574/0.954409/0.927986/-0.673417/0.207943/-0.600662/-1.32138/-0.918388/-0.184337/0.396865/-0.751512/0.0190123/-0.526445/0.690145/-0.981077/-0.20157/0.411469/0.697397/-0.216577/0.295746/0.595652/-0.926218/0.744799/-0.143374/0.660683/-0.634254/0.286526/-0.715671/0.194032/-0.17373/1.17591/0.593714/-0.999324/-0.9101/0.701565/-0.453608/-1.05848/-0.776225/0.130246/-0.756164/0.325197/-0.343882/-0.478211/-0.190213/-0.715443/1.00378/-0.552933/0.324355/-0.557574/0.869324/-0.986445/0.328139/-0.606267/0.0509329/-0.373075/-0.703351/0.598976/-0.193295/0.345689/-0.753785/-0.383507/-0.00882737/1.02908/1.1007/0.154476/0.557187/-0.600498/0.665711/-0.887423/-0.541141/-0.274265/-0.273432/0.336666/0.70511/-0.568901/0.0874269/-0.61621/-0.624357/0.265042/0.741197/0.110436/-0.350092/-0.688759/-0.239945/-0.811492/0.279177/-0.705064/-0.775765/-0.202843/-0.365047/-0.123563/0.239171/-0.434049/-0.659948/0.421073/-0.501036/0.839597/-0.401427/0.547554/0.601451/0.851928/0.939816/0.0276011/0.590029/0.618172/-0.384316/0.09382/-0.315131/-0.555463/-0.735894/0.430138/-0.634948/-0.412149/-0.126295/-0.2611/0.114367/0.940328/0.269859/-0.861996/0.990162/-0.134327/-0.0179674/-0.00747054/-0.691535/-0.456936/-0.670362/-0.0154601/0.984852/-0.636376/-0.191646/0.744532/-0.608168/0.512203/0.597633/0.705111/0.639478/-0.235186/0.179765/0.147307/-0.904134/0.397011/-0.869605/-0.134993/0.501087/-0.396551/0.251959/-0.0185204/-0.0304919/0.673633/-0.807266/-0.206062/-0.477014/-0.190968/-0.0625207/0.969423/0.932922/-0.0388362/-0.650187/0.369265/0.0315829/0.813125/0.193419/-0.198807/0.496604/0.965594/-0.317836/-0.267243/0.885696/0.633563/-0.812068/-0.74011/-0.793027/0.586478/0.585199/0.552374/-0.23971/-0.301896/-0.728692/-0.519392/-0.80286/-0.950368/-0.755814/0.409275/0.421311/-0.825258/0.158851/0.862114/0.175295/0.17927/0.990668/0.152861/-0.870736/-0.454944/-0.248259/-0.48648/-0.523625/0.62104/0.965761/-0.450689/-0.731773/-0.910675/0.283344/0.157572/0.311303/0.0705481/-0.297802/0.839219/0.758681/-0.844925/-0.656827/0.703871/-0.0331461/0.913143/-0.807985/0.19535/-0.75386/0.256649/
-0.759101/-0.206743/-0.731819/0.322356/-0.15687/0.346932/-0.484105/-0.0530083/0.139956/0.560982/-0.625842/-0.534104/-0.691314/0.267245/0.201269/-0.0288455/-0.805673/-0.937964/-0.313288/0.569931/0.834047/-0.173686/0.862589/-0.468169/-0.509085/-0.185839/0.600064/-0.71612/0.17351/0.185558/0.626587/0.368879/0.0330138/0.652431/0.315069/0.105047/-0.246606/0.524924/-0.60248/-0.756702/0.108252/0.134955/0.396818/0.217404/-0.447899/0.581557/-0.711024/-0.1963/-0.86376/-0.721619/-0.88762/-0.66644/0.590109/-0.311641/-0.439964/0.68373/-0.553623/-0.739987/0.0244305/-0.428387/-0.35104/-0.394721/-0.806069/-0.0345407/-0.739924/0.94664/0.644236/0.80393/0.336278/-0.413718/-0.60739/0.254941/-0.721203/-0.558694/0.618952/-0.403418/-0.581484/-0.802536/-0.662806/-0.616381/-0.495461/0.724402/0.726184/-0.418413/-0.26275/-0.0440716/-0.581562/0.394406/0.446552/-0.882969/0.564145/-0.551114/-1.02724/0.737661/-0.61146/0.256881/-0.82291/-1.15101/0.398951/-0.100125/-1.09309/-0.00144621/0.83482/0.897937/0.664405/-0.373357/-0.219054/0.262197/-0.49337/1.02955/-0.658717/0.439875/0.971579/-0.681425/0.281176/0.328515/0.881988/-0.870677/0.587659/-0.623418/-0.152108/0.0495959/-0.796172/-0.207184/-0.622202/-0.62227/-0.672473/-0.233729/0.218142/0.655091/0.271316/-1.30455/0.330918/-0.252969/-0.102522/-0.00407112/0.548485/0.216009/0.243956/-0.239189/-0.0536159/0.874632/0.497203/0.44239/-0.565838/0.442356/-0.849497/0.394778/0.167655/0.719923/-0.629873/-1.02825/-0.913906/-0.24843/0.180329/-1.1323/0.543678/0.0722138/-1.1832/-0.0826535/0.0181137/-0.175254/0.801141/0.4743/0.311186/0.578465/-0.93839/-0.38651/-0.0672979/0.921688/-0.174855/-0.712804/-0.578014/-0.286839/0.815038/0.441127/-0.461744/0.357727/0.693393/-0.944729/-0.087869/0.502888/-0.141582/0.0398965/-0.422247/-0.49354/0.61504/-0.59276/-0.20609/0.206837/-0.734092/-0.514784/0.891064/0.935566/-0.0582403/0.802165/-0.0194559/-0.998188/-0.421082/0.902467/0.784702/-0.971091/-0.802809/-0.730868/0.947008/-0.424453/0.353931/0.842333/-0.489247/-0.315884/-0.0128829/-0.757592/0.569787/-0.310839/0.121832/-0.287104/-0.119855/0.725228/-0.147146/0.0115997/-0.196521/0.296302/-0.0180751/-0.160702/-0.911251/0.604179/-0.721138/0.854609/0.119475/0.232756/0.0759185/-0.77136/0.736813/-0.547642/0.5129/-0.223578/-0.89549/-0.20857/0.617049/0.167188/0.0434764/-0.950899/0.182472/-0.161344/0.456648/-0.754157/-0.977052/0.402328/-0.0631532/0.89185/-0.712383/0.627925/-0.470708/0.810724/0.347194/-0.826987/0.0123695/1.0221/0.147608/-0.84368/0.829104/0.51019/-0.70772/-0.823527/-1.11691/-0.130313/-0.904366/-0.898414/0.643375/-0.391001/-0.0590518/0.403848/-0.653686/-0.906972/0.70894/0.577682/-0.550647/-0.398616/-0.52952/-0.0606054/-0.595361/-0.223943/0.45788/1.07151/0.332612/-0.130495/-0.0368672/0.151924/-0.895534/-0.427666/1.17447/-0.95202/-0.304878/-0.0454787/-0.930439/0.0766412/-0.755797/-0.432164/-0.705593/0.0584394/0.338527/0.672495/0.650873/0.713314/-0.612782/-0.480999/0.959545/-0.689511/-0.606697/-0.745172/-0.593864/0.80827/-0.610457/-0.0780199/0.147179/-0.258524/-0.977864/0.63208/-0.152726/0.0996782/-0.847029/-0.574755/-0.0481495/0.00987201/0.545693/-0.313814/0.992042/-0.982505/0.607397/-0.447021/0.727952/-0.41203/0.861785/-0.779849/0.751341/-0.768505/-0.264888/0.0277183/-0.924572/-0.13482/-0.0384388/-0.113052/0.135479/0.292394/0.36409/0.740568/0.896513/-0.856186/0.58672/-0.130001/0.790318/-0.687534/-0.739259/0.340347/-0.718825/0.243507/-0.0290909/0.616058/0.615306/-0.248814/0.311204/-1.15825/0.0226741/0.917697/-0.265671/0.848073/0.0563687/0.954965/-0.0251493/0.82817/0.29557/-0.353774/-0.943576/-0.632593/0.640382/0.0969438/0.0128729/-0.187377/-0.588989/0.17614/0.347321/0.600745/-0.237267/0.478812/0.452397/-0.834323/-1.00832/-0.19725/0.6915/-0.434462/0.456383/0.294738/-0.335117/-0.30899/-0.552017/-0.736868/1.07962/0.23792/-0.494102/0.508553/-0.804227/0.0481917/-0.430793/0.279039/-0.247603/-0.0691367/-0.442699/0.145245/0.859554/-0.0292626/0.228388/-0.209112/-0.0656587/-0.0713432/-0.187474/0.394622/-0.0936626/0.889677/-0.0196091/0.741052/0.865749/0.624319/-0.0762203/-0.745863/-0.117051/0.7577/-0.606648/0.357195/0.432777/0.134878/0.863214/0.684791/0.929508/1.06761/-0.724852/-0.113071/-0.599181/-0.278149/-0.136967/-0.244332/0.317791/-0.180197/-0.755036/-0.599777/-0.984703/-0.872467/0.214577/-0.606218/-0.697845/-0.712507/0.321556/0.405102/0.0496159/0.363005/-0.24086/-0.0465107/0.385258/-0.415833/-0.692022/0.677962/-0.997055/0.322649/1.23896/0.2985/-0.625083/0.530045/-0.59557/0.770811/0.864346/-0.759934/0.183644/0.439104/-0.920943/0.157279/-0.540915/0.613865/-0.665461/-0.419196/-0.792198/-0.526845/0.10786/0.623126/0.264254/-0.17655/-0.562272/0.12262/0.755045/-0.274916/-0.739021/0.0536778/-0.372686/0.666035/-0.624986/-0.44668/0.142932/-0.920256/-0.751147/-0.498207/-0.994048/-0.194601/-0.934504/0.735583/0.723603/-0.603297/0.382459/-0.0398103/-0.49518/0.0325529/1.01373/-0.500005/-0.0445772/0.343969/-0.332357/-0.748354/0.730453/0.578957/0.164547/-0.964128/0.727092/-0.772382/-1.34538/0.588251/0.55757/-0.236022/-0.243907/-1.33618/0.570266/-0.63337/-0.856908/-0.51322/0.718772/-0.101384/0.0372577/0.180696/-0.156745/0.375164/-0.973208/-0.183744/-0.455996/0.713226/0.25566/0.760986/1.24658/0.109935/0.288968/0.13448/0.277985/-1.19213/-0.443429/-0.441696/-0.431718/0.394319/-1.04161/-0.952894/-0.305479/-0.782934/-0.895249/-0.371049/-0.144226/0.360559/-0.0771332/-0.412312/0.149455/-0.531596/0.260665/-0.223217/-0.388943/-0.064558/0.309196/-0.729662/0.177306/0.184001/0.106079/0.112322/-0.0641311/1.07609/-0.0758033/-0.302249/-0.117543/-0.382396/0.868938/1.08074/-0.141151/0.633885/0.294197/-0.00648428/-0.611952/-0.393136/0.564579/0.82538/-0.606846/-1.0449/-0.976785/-0.57505/0.411274/-0.308411/0.181529/1.18137/0.945729/0.300508/-0.844773/0.291628/0.401586/-0.327398/-0.136748/0.0601745/0.696871/0.0532588/0.00786057/0.245704/-0.572265/0.359823/0.0628361/-0.826239/0.662828/0.825145/0.204463/0.349967/-0.659102/-0.95437/-0.171352/-0.292548/0.52287/0.731348/-0.138552/-0.322497/1.00822/-0.320887/-0.42578/0.67934/1.03329/1.05141/0.744193/0.646051/0.276717/-0.72257/0.306033/0.825709/0.301007/0.834556/-0.861352/-1.0405/0.424641/0.0214086/-0.186046/-0.900151/-1.00962/-0.729885/-0.743176/-0.647866/1.04716/-0.182321/-0.369581/-0.746774/-0.120896/0.0289327/0.694255/0.83293/-0.196788/0.528683/0.167306/1.1447/0.561125/0.322892/-0.0550306/-0.408282/-0.642424/0.763783/-0.955879/-0.596832/0.206162/-0.547383/0.135501/-0.626199/-0.0505232/-0.426906/0.528736/0.719076/0.45024/-0.921329/-0.437736/0.273728/0.870719/0.00305631/0.138871/0.756698/0.444904/1.00185/-0.0316256/0.325719/1.0414/1.05797/0.386358/0.422493/-0.885405/-0.0662903/0.084747/0.525735/-0.4137/-0.225502/-0.00500479/-0.100794/-0.32727/0.933878/-0.877016/-0.244836/0.637067/1.09472/0.00592703/-0.625603/-0.865304/0.742045/-0.157138/-0.107835/-0.0529417/-0.149546/0.567256/-0.857896/0.15341/-0.264543/-0.0103119/0.681798/0.0222479/0.0468261/-0.394418/0.122017/0.727835/-0.251939/-0.332046/-0.692871/0.738061/0.999707/-0.756664/-0.431285/-0.945855/0.200929/0.76291/0.267003/-0.800321/0.615219/0.80721/0.960502/0.519827/-0.577407/0.718647/-0.635857/0.996823/0.333632/-0.293084/0.555553/-0.528692/0.120025/0.111521/-0.366842/-0.821314/0.111465/-0.602499/-0.202127/0.859479/-0.733743/-0.0105195/-0.800992/-0.274638/0.150698/0.510845/-0.253682/0.361113/-0.780158/-0.113831/0.849771/0.105602/0.848125/0.44186/0.33298/0.399182/-0.949927/0.569377/-0.482494/0.717157/-0.735373/0.580189/-0.759569/-0.0770809/0.500744/0.133297/
-0.985183/0.0234555/0.216638/-0.966052/-0.438631/-0.129997/-0.628604/0.869497/0.850151/0.55697/-0.13542/-0.0113557/-0.854666/-0.839251/0.248944/0.883977/-0.928516/0.415081/-0.138877/0.018195/-0.19604/-0.841939/-0.463394/-0.265634/-0.505519/-0.255683/0.740486/-0.651992/-0.0353905/-0.808041/-0.851306/0.910449/-0.477152/-0.216471/-0.575714/0.296817/0.987567/-0.586829/0.18102/-0.0605652/-0.636137/-0.266228/-1.00738/0.508762/-0.321713/-0.783706/-0.0497719/0.389203/0.956052/-0.517293/0.278611/-0.662051/0.784929/0.622204/0.695733/-0.507704/-0.979465/0.13614/-0.0708443/-0.47177/0.0099211/-0.115833/0.916956/-0.775155/-0.179995/0.933978/0.190829/0.436785/-0.782161/1.00215/-0.841208/-0.216934/0.13317/0.770325/0.0807889/1.05453/0.097635/0.694361/-1.17735/0.422948/0.536648/-0.941306/-0.793328/-0.293151/-0.983742/0.253248/0.24639/0.302471/0.139443/-0.648882/0.254818/0.205244/-0.593371/-0.358467/0.855281/0.304453/1.16433/-0.154702/1.01331/1.22744/-0.604461/0.193066/-0.485774/0.696725/0.0728308/0.414511/0.211916/-0.274155/0.0346995/-0.162609/0.646654/0.626565/0.68567/0.0503391/-0.253208/0.0369831/-0.35049/0.0535888/0.278083/-0.334794/1.16313/0.73793/0.637253/0.192427/0.0561239/0.616544/-0.886123/-0.564683/0.848372/0.222116/-0.0561205/-0.126335/0.95805/-0.562201/-0.057308/-0.0591041/-0.18684/-0.626873/0.238086/-0.0356012/-0.350137/-0.747005/-0.0339487/-0.288768/-0.299712/-0.215995/0.611032/-0.22946/0.946558/-0.498667/-0.436559/0.527975/0.427307/0.163577/0.653853/-0.336209/-0.579988/-0.260866/0.793301/-0.425197/0.0650583/-0.27318/-0.227424/0.296764/-0.607645/-0.388915/-0.275903/-0.239098/-0.517268/0.279193/0.895702/-0.627689/-0.0969768/-0.786226/0.414498/0.106765/0.743941/1.03817/1.17858/1.3308/-0.555767/0.552464/-1.17824/-0.980923/-0.231782/-0.352855/-0.498612/-0.156753/0.58543/0.311674/-0.406188/0.865173/0.00475355/0.683552/0.142478/0.521465/0.270449/-0.549795/-0.568941/-0.404072/-0.121244/-0.756989/0.755671/-0.174021/0.952905/0.882255/-0.239344/0.956622/0.81/-1.03975/0.503619/0.454996/-0.68157/0.102551/-0.654399/-0.647276/0.018862/-0.417079/-0.845081/-0.316532/0.339188/-0.0664489/-0.884187/0.831635/-0.711101/0.51395/0.632923/-0.375942/-0.488846/0.74815/-0.612607/0.711353/0.897631/1.21635/-0.0279097/0.344131/-0.703288/0.680792/0.241678/-0.631937/-0.994866/-0.0003196/0.262732/0.732426/-0.380622/0.101817/-0.101734/-0.216665/-0.74941/0.179718/0.95998/0.368744/-0.526299/0.489074/-1.25944/-0.304348/-0.735461/0.509114/-0.331013/-0.235311/0.48943/0.989466/0.713141/-0.207182/0.289188/-0.609488/-0.0159302/-0.594133/-0.708822/-0.432256/-0.358074/0.746338/0.2006/-0.977013/-0.00276668/0.17887/0.136578/0.678278/0.450331/-0.531531/0.557038/0.132258/0.174371/0.231719/0.406366/0.464411/0.43886/0.322972/0.500682/1.1418/0.414479/1.04601/-1.01804/-0.0185986/-0.66776/0.0926777/-0.431871/0.207959/-0.187778/0.317162/-1.33397/-0.224267/-0.538949/-0.0340357/0.626322/-0.969244/0.566491/-0.17635/0.0852225/0.325151/-0.288218/-0.767312/0.527264/-0.245165/-0.53747/-0.106849/1.13914/1.38327/0.332115/-0.141012/0.130501/-0.78904/-0.795344/0.246384/-0.258329/-0.697239/0.163956/0.551789/0.456381/-0.159353/0.694827/-0.259843/0.0199695/0.112745/0.10245/0.607178/0.838182/-0.65924/0.0954712/0.812501/-0.765093/0.0148827/0.612768/-0.137018/0.0965558/-0.208516/0.375919/0.746195/0.333477/-0.226341/-0.636292/-0.404647/-0.453137/-0.10464/-0.436988/0.283779/-0.727652/-0.750868/-0.562888/0.651806/0.372483/-0.147355/-0.152806/-0.230084/0.971093/-0.812158/-0.56886/-0.808154/-0.618378/-0.37175/0.807475/0.297689/0.779825/1.13481/0.075199/0.977833/-0.813493/-0.670545/0.357849/0.389283/0.592764/0.388406/-1.29335/-0.137779/0.734335/0.208975/0.646462/-0.625893/-0.875713/-0.266817/0.0896728/0.735729/-0.610438/0.357293/0.0243675/-0.470949/0.775747/-0.80678/0.388467/0.271182/0.991987/0.636401/0.30747/0.137961/-0.693602/-0.453969/0.291982/-0.455532/-0.794229/0.0546781/-0.161593/-0.784232/0.609808/-0.451723/-0.0364233/0.830119/-0.269634/-0.321505/-0.750493/0.845943/-0.240944/0.393351/-1.01491/-0.386285/0.643006/0.123207/0.42849/-0.71569/-0.0204836/1.63392/0.247255/-0.708316/-0.0547664/0.593552/-0.680135/0.156925/-0.571829/-0.879486/0.6912/0.953392/-0.192501/-0.124821/-0.643704/-0.315082/-0.131361/0.953158/0.539747/-0.930002/-0.54346/0.0152392/-0.548536/-0.288357/-0.194442/-0.602571/-0.221022/0.123494/0.0722718/1.40502/0.711234/-0.54329/0.267643/0.355884/-0.369967/-0.404399/0.488983/-0.87719/0.429013/0.114459/-1.00853/0.299604/0.402209/0.146471/0.697164/-0.558232/0.72259/0.766611/-0.39789/0.588155/-0.43119/-0.152745/0.39735/0.569486/0.576436/-0.359498/1.10336/0.0214949/0.690531/0.262143/0.0693214/-0.69917/1.0553/-0.167625/-0.296802/0.193061/0.243606/0.591008/-0.0424314/-0.37252/-0.117478/-0.853294/-0.15365/-0.399482/-0.230467/-0.566569/-0.322902/0.935382/0.847622/-0.858451/0.000872888/0.27966/-0.203258/0.477751/1.05719/0.985427/0.129417/-0.473292/0.474683/-1.03612/-0.57677/-0.85636/0.659515/-0.950676/0.89947/0.250889/-0.142849/0.000421226/-0.883589/0.93895/-0.21334/-0.478837/-0.801214/0.723935/-0.81828/-0.832165/0.884739/0.0871819/-0.151896/0.454961/-1.06701/-0.0146135/-0.143984/0.61877/1.11627/-0.175876/-0.777528/0.802957/0.211939/-1.01476/0.750001/-1.03546/-0.229738/0.142748/-0.740283/0.208809/1.00134/-0.505641/0.535357/-1.01946/-0.810387/0.00191249/0.143219/-0.896883/0.151948/0.0361138/0.103901/-0.439036/-0.672693/0.36402/0.493969/0.618919/0.251785/0.340458/-0.210692/0.194933/-0.858336/0.0593971/-0.341459/0.158677/0.275831/0.505912/-0.098613/-0.194562/-0.870197/0.689312/-0.889574/-0.058893/-0.430802/0.988839/-0.585439/0.578666/1.18429/-0.171274/0.345629/0.776471/-0.427025/-0.365363/0.7812/0.907488/-0.824372/0.917172/0.944816/-0.457715/-0.12042/-0.00248026/-0.906346/-0.466689/0.447193/0.328546/0.0562258/-0.242282/-0.517451/-0.104555/0.326769/0.638086/0.997178/0.898902/-0.160756/0.218659/0.251177/0.28266/0.0446806/-0.809497/0.0681624/0.131247/-0.289627/0.642011/0.719385/0.719436/-0.19568/0.507441/-0.592555/-0.434807/0.396366/-0.168936/0.341181/-0.857638/-0.554691/0.219839/0.527422/-0.218827/-0.276863/-0.0873941/-0.686461/0.148662/0.568253/0.621691/0.330702/-0.308955/-0.200013/-0.852074/-0.298221/-0.0304444/-0.152727/-0.609/1.12867/0.111732/-0.208189/0.630798/-0.245487/-0.390695/-0.580007/-0.148531/0.968928/0.248675/0.30877/0.766458/-0.914359/-0.877136/0.599536/-0.481389/-0.174909/0.597287/0.602687/-0.651019/-0.408477/0.0491387/0.349522/-1.08732/0.0277837/-0.847629/0.335151/1.23531/0.91651/0.624732/0.030595/-1.0296/0.457177/0.465779/-0.0602333/0.934069/0.0715911/-0.16427/-0.720492/-0.310166/0.559364/-0.285432/0.945567/-0.837991/-0.457596/-0.0979797/-0.744141/-0.775655/-0.0482118/0.53861/-0.684218/0.624217/0.762735/0.242346/-0.206213/0.460762/-0.523878/0.144652/-0.365527/-1.03525/0.501341/0.256447/0.0644453/0.855802/0.407025/0.713439/0.25964/-0.142292/-0.893914/0.378139/-0.944373/-0.940814/-0.636401/-0.798236/0.052803/-0.54013/-0.318066/-0.81549/0.877962/-0.873107/-0.0154413/-0.621407/-0.0305125/-0.292735/0.167681/-0.322494/-0.00457598/-0.654972/-0.402582/0.970271/-0.925683/-0.0560265/0.710004/-0.556002/0.0688428/-0.363484/0.693224/0.518336/-0.300088/0.533357/0.376288/0.0821161/0.124816/-0.216955/-0.360982/0.980416/-0.141638/-0.503121/0.0405703/0.135396/0.429852/-0.491845/-0.44587/0.265686/-0.616769/-0.0444526/0.885188/-0.653013/0.815532/0.642876/0.811234/0.410199/0.212421/0.160743/-0.397853/-0.714695/0.125769/-0.201495/-0.534366/0.909069/1.0269/
-0.397912/0.295692/-0.301391/0.527934/0.990421/0.619297/0.206988/0.997389/0.566165/-0.614955/0.350014/0.687362/0.500079/-0.0364998/-0.507356/0.556154/0.912986/0.193594/-0.718854/-0.874991/0.0302292/0.0619323/0.895411/-0.825952/0.221983/0.863872/-0.911201/-0.562348/0.624825/-0.559272/0.428111/-0.204264/-0.0270269/0.952891/-0.267409/0.00565813/-0.479568/-0.206535/0.677931/-0.762231/-0.691203/0.635985/0.44061/-0.00975661/0.875079/0.739511/0.375586/-0.380902/0.922629/-0.694121/-0.481152/0.776899/-0.471148/0.791873/0.790398/-0.63633/-0.792565/-0.634658/-0.267106/-0.185762/0.705384/-1.00489/0.373395/-0.00125239/0.816852/0.71869/0.320122/-0.374071/0.104378/-0.697972/0.715469/0.313954/-0.703569/0.372893/-1.06858/-0.607354/-0.166755/-0.376198/-0.275462/-0.694783/-0.652629/-0.846987/-0.135736/-0.260766/-0.69202/-0.778632/-0.128802/0.677406/-0.368772/0.286565/-0.862826/0.451266/-0.180414/-0.66608/-0.721687/-0.306625/-0.658681/-0.794997/-1.27963/-0.436318/-0.0159097/-1.07372/-1.05648/0.205383/0.561786/-0.0283011/0.792472/-0.236986/-0.0599622/0.441798/-0.236794/-0.999512/-0.794694/-0.414681/-0.748186/0.218788/-0.18714/-0.367789/-0.732717/0.917605/-0.388403/-0.193319/-0.446661/0.624451/0.169878/-0.966664/-0.88017/0.0827983/-0.0668137/-0.0783779/0.984552/-0.154872/1.03961/0.00314532/0.92108/-0.249744/-0.278128/0.729134/0.689345/-0.589385/0.213711/-0.156552/-0.186019/-0.774445/-0.429845/-0.330912/0.298492/-0.487541/0.631214/-0.538983/0.581892/0.852091/-0.819717/0.511402/-0.88508/0.707331/0.64361/0.257182/0.356005/-0.0620749/-1.00571/0.616674/-0.186538/-0.304984/-0.212189/0.241907/0.852084/0.146045/0.581663/0.00713407/-0.842173/-0.269526/-0.400275/-0.119659/0.529703/0.772437/0.476312/-0.370233/0.477451/-0.169951/0.587571/0.806904/-0.657267/0.655228/0.325258/-0.392134/-0.1881/0.455632/-0.608424/0.184298/0.471873/-0.368516/-0.257777/0.43214/0.978435/-0.070035/0.921381/-0.362932/-0.1382/-0.24611/0.401354/-0.156082/0.604132/0.244565/-0.0370331/0.729891/-0.637869/-0.484715/-0.0485039/0.0019453/0.0920837/0.0618403/0.0616394/-0.0679878/-0.454438/0.923421/-0.500779/0.157931/-0.213222/-0.579958/0.0546349/0.597268/0.411026/0.484482/0.689011/0.193638/0.1343/0.354587/0.0101236/-0.53862/0.0716597/-0.409251/0.817602/-0.137027/-0.447769/-0.677154/0.895128/1.2577/-0.0859719/0.0757823/-0.512089/-0.698939/0.128873/-0.863052/0.757516/0.493247/-0.164875/-0.811197/0.460445/-0.583525/0.0479233/-0.258256/-0.511286/0.821123/0.826104/-0.176645/-0.374418/-0.654324/-0.335555/1.01694/0.673728/0.0971907/0.616176/0.358008/0.318399/0.71549/0.599738/0.274924/0.139499/-0.991725/-0.597136/-0.487621/0.777347/0.38313/0.339868/-0.10517/-0.0977868/-0.214664/0.561467/0.406449/-0.804988/0.580253/-0.436076/0.739412/-0.766862/0.777181/-0.568458/-0.79454/0.874137/-0.0532508/0.964774/-0.758485/0.389039/0.862144/-0.690906/-0.66053/0.367683/-0.931352/-0.101986/-0.386716/-0.438309/-0.100856/0.448325/0.0852123/0.497213/-0.84736/0.980346/0.95673/-0.240397/-0.368589/0.777288/0.368338/0.746656/-0.91259/-0.0221575/0.854081/-0.505408/-0.386501/-0.0297314/-0.565121/0.927821/-0.125443/-1.00156/0.201814/-0.675086/-0.573674/0.597982/-0.612038/0.949693/-0.0742173/-0.73668/-0.232328/-0.083748/-0.769349/0.876054/-0.570131/-0.197429/-0.194839/-0.192078/-0.667448/-0.214423/0.566261/-0.0234228/0.520078/0.273137/0.223575/0.208777/0.876569/0.439766/-0.352917/0.793304/-0.566353/-0.125273/-0.709367/-0.186212/-0.449547/-0.293054/-0.208269/0.937013/0.560298/0.103375/-0.249096/0.849321/0.559361/-0.82596/0.114616/0.622098/-0.0908066/0.265954/0.530106/-0.899935/0.614361/0.583525/0.10907/0.563801/0.595556/-0.606785/-0.464099/-0.161484/-0.42667/0.449131/-0.120634/-0.192076/-0.0423347/0.416226/0.674301/-0.815681/-0.0259891/-1.34613/-0.7243/-0.536887/0.309156/-0.0100472/-0.886966/0.517663/-1.21075/-0.166947/0.604068/0.746164/0.212128/1.11793/-0.0990224/0.920192/-0.73538/-0.024802/-0.726112/0.591717/-0.554694/-0.923084/-0.141935/-0.756343/-0.213765/0.679528/-0.448116/0.459827/0.244524/0.224851/-0.0491652/-0.0327121/-0.532277/0.0241564/0.0116423/-0.28407/-0.351422/-0.594328/-1.01442/-0.865311/-0.308739/0.229632/-0.514361/0.811451/-0.861068/-0.501657/-0.489143/0.0371809/0.278764/-0.634894/0.289073/-0.979384/-0.502819/-0.848078/-0.44782/0.28469/0.792181/-0.278953/-0.793596/-0.845915/0.230669/0.859139/-0.440883/-1.23257/-0.957368/-0.761823/-0.0481321/-0.721619/-1.05101/0.587683/0.865058/0.538821/1.00886/0.315575/0.230993/-0.97074/-0.660509/-0.453824/0.296182/-0.0803103/0.435589/0.159314/-0.502288/-0.490107/-0.0983725/-0.305657/-0.830694/-0.614796/-0.362323/0.442617/-0.971528/-1.27366/-1.50927/0.216142/0.190486/-0.00619324/-0.940981/0.640204/0.152444/-0.930176/-0.0504592/0.497708/0.137722/-0.716862/-1.00363/-0.0874552/-0.587346/0.104194/0.150129/0.139782/0.826296/0.434573/-0.753718/-0.00843815/-0.0185325/-0.104175/0.858067/-0.465298/-0.307516/-0.0723302/-1.37158/-0.652135/0.176665/0.491166/0.827739/0.862608/0.137799/0.501123/0.942525/-0.45037/1.03518/0.845393/-0.702441/-0.285502/-0.671245/-0.772478/0.0433592/0.991847/-0.0574612/-0.878543/0.0589221/-0.371736/-0.960551/-0.0747612/0.326511/-0.32917/-0.388171/-0.355747/0.387338/1.05189/0.517417/0.249043/0.335133/0.0340542/0.243669/0.787214/1.48813/-0.185685/1.23977/-0.240906/0.269018/-0.0315565/-0.720863/-0.303078/0.781484/-0.882191/0.825415/-0.702512/0.56229/-0.509033/-0.695692/0.560017/0.73445/-0.105358/-0.761514/-0.114386/-0.819119/-0.354371/0.0453776/-0.0395894/0.131174/0.875804/0.181223/-0.444218/0.905272/-0.181529/0.708849/-0.592509/-0.639491/0.203728/-0.498793/-0.994544/0.699785/0.0249356/-0.0978149/0.890074/-0.674238/0.544797/-0.623881/0.0751153/-0.582118/0.341448/0.706075/0.858344/-1.11782/0.475376/0.600355/-0.812971/0.664625/-0.117187/0.962611/-0.197999/0.659592/0.996181/0.0633917/-0.994362/-0.35281/0.320744/-0.730738/0.204102/-0.600281/0.530359/-1.00441/-0.776158/-0.29668/0.432788/0.312617/0.620924/-0.626756/0.113549/0.403644/-0.814601/-0.499776/0.022451/0.741177/-0.432117/0.446022/0.572309/0.754844/-0.349793/0.41267/0.738914/0.103279/0.285507/-0.907325/0.510306/-0.653816/-0.850127/-0.266565/0.372699/0.2926/-0.62105/-0.603947/-0.0661089/0.833126/0.539883/0.181914/-0.570832/0.0323237/0.40112/-1.18208/-0.439128/0.169466/-0.860633/-0.756189/0.809845/1.09415/0.923044/0.3658/-0.688795/0.275649/0.173041/-0.692995/0.243041/-0.267718/-0.611641/0.806731/0.961791/-0.635023/-0.187025/0.0987584/-0.537988/-0.861046/0.310737/-0.876685/-0.442932/-0.345768/0.600876/-0.630095/0.421396/-0.261443/-0.418559/-0.326953/0.419492/-0.198536/-0.434461/0.152067/-0.203677/-0.255649/0.488875/0.383991/0.728939/0.938497/-0.00271007/0.30795/-0.652402/1.0013/-0.778184/-0.544589/0.0662445/-0.00673751/0.385085/-0.839815/-0.772912/-0.282617/-0.0294493/-0.404166/-0.395301/-0.311196/0.715144/0.2774/-0.9839/-0.158818/0.714698/0.899209/-1.19924/0.626404/-0.851762/-0.39981/-0.905767/-0.230403/0.416587/-0.441009/0.524062/0.639768/-0.313445/-0.303501/0.929522/0.275746/-0.875965/0.929752/0.336348/-0.98927/0.159345/-0.301708/-0.611023/-0.76407/0.904941/0.047352/0.686034/-0.333572/-0.0646127/0.710547/0.678332/-0.604757/-0.160009/0.866276/-0.927197/0.678766/0.0332233/0.490987/0.574605/0.533258/-0.511603/0.170466/-0.682218/0.735834/0.967782/-0.828497/-0.552381/0.131949/-0.328811/-0.331764/0.0411971/0.40043/0.0300263/-0.289143/0.525961/-0.551/-0.650594/-0.535715/0.237689/0.845757/0.638386/-0.654563/0.761877/0.870734/0.42907/-0.615669/0.4553/0.225742/0.0506429/-0.844831/0.921188/0.405019/-0.843243/-0.378058/0.164982/
0.498171/0.758018/0.00240475/0.416615/0.0525283/0.0255179/-0.797168/-0.286002/-0.955383/0.877043/0.337398/0.647869/0.730932/0.705132/0.728357/0.16238/0.867296/0.376585/0.0206945/0.132127/0.657606/0.383587/0.942462/-0.0476299/-0.516509/-0.969001/-0.00182286/-0.636878/-0.0108694/-0.681713/0.49397/-0.178225/-0.28451/-0.46762/0.887859/0.0144419/0.346466/0.971588/-0.204552/0.19565/0.049859/0.627911/0.976363/0.083108/0.951664/-0.683235/0.441672/-0.432944/-0.532273/-0.855827/0.283537/0.624297/-0.121787/0.912234/0.794291/-0.0183475/-0.366486/0.475547/0.645501/0.0893234/0.795183/0.213159/-0.116889/-0.41921/-0.21853/0.171188/0.0723697/0.834583/0.108733/0.482847/0.0130205/0.241157/0.0840521/0.550055/-0.147899/1.01482/0.648795/-0.245879/-1.0079/0.0512503/0.699235/0.634165/0.687941/0.161464/-0.267309/-0.663745/0.652827/0.268754/0.329402/0.389209/-0.230058/-0.607667/-0.697401/0.736355/1.08509/0.822343/0.155471/-0.375621/0.232636/-0.519524/0.788471/0.269359/0.841057/-0.76602/-0.239441/0.398948/-0.322151/0.49539/-0.629107/0.6452/0.781687/0.957196/-0.406922/0.870276/0.299486/-0.732464/-0.0783038/-1.05959/-0.951727/-0.449644/0.393848/1.03212/0.543323/0.0239793/1.35017/-0.22484/-0.293388/-0.204022/0.380839/0.518107/0.253737/0.117465/-0.687884/-0.204647/0.760549/-0.770102/-0.861239/0.276907/-0.73017/0.150585/0.886838/-0.921619/-0.811917/-0.331153/-0.950956/0.0478934/-0.0648352/0.472838/-1.12518/0.969047/0.752772/1.02907/0.284661/1.13179/0.0270436/0.0466012/0.445964/-0.75778/0.12421/-0.164845/0.777156/0.966082/-0.0526658/0.186845/0.374369/0.0854989/0.0565255/0.948314/0.314836/-0.54892/0.1528/-0.794868/0.651289/-0.550329/-0.11803/-0.941815/-0.0439431/0.552424/-0.00540057/-0.382749/0.748826/0.0545701/0.0813031/0.93888/0.396362/-0.36186/0.685785/-0.541749/0.604289/0.0405903/-0.388562/0.484826/-0.220025/0.473405/-0.396736/0.727762/-0.509896/0.213064/-0.424141/-0.427683/-1.01223/-0.592122/-0.773423/-0.21543/0.678403/-0.738228/-0.760739/0.560479/0.596273/0.0423648/0.906019/-0.422885/1.23201/0.61551/0.683074/-0.576188/0.128342/-0.493932/1.23465/0.0822578/-0.586808/0.83125/0.227105/-0.43164/-0.565463/0.292824/0.468093/-0.235931/-0.286734/-0.246856/0.104105/-0.462333/-0.820464/0.546728/0.417599/0.202448/0.0558171/0.0117213/-0.26331/-0.387864/0.124764/0.667989/-0.307679/0.981554/1.07746/0.540528/-0.382091/0.515469/0.632371/0.0565939/0.89688/-0.327168/-0.71221/-0.0967401/0.274766/-0.611971/-0.979132/-0.467501/-0.770369/0.45099/0.295547/0.685425/0.0284378/0.780119/-0.149718/-0.842246/-1.06632/0.309539/-0.86561/-0.243721/1.0477/1.36613/-0.427743/0.18133/-0.498004/0.879746/0.827977/-0.450348/0.0526415/-0.375109/-0.459293/0.670236/0.896576/-0.428294/-0.657847/-0.769423/-0.86404/-0.704472/-0.338579/-0.21415/-0.859344/0.5678/0.537662/-0.685027/0.626549/-0.101029/0.0335546/-0.729582/-0.311648/-0.469301/1.08415/0.723177/0.744561/0.342185/-0.730858/0.491779/-0.233905/-0.44417/0.826737/0.972304/-0.240052/-0.743133/-0.167197/0.0510471/-0.267706/0.0927722/-0.800876/0.33306/-0.0158146/0.170436/-0.800369/-0.709245/-0.784487/-0.456045/0.373707/-0.517401/-0.104459/0.164257/0.664613/1.3934/0.63646/-0.0364441/-0.272372/-0.201611/-0.590077/-0.604523/-0.221053/0.754244/-0.914511/0.491844/0.167594/-0.109092/-1.16826/-0.684485/0.19541/-0.968789/0.0836387/-0.948701/0.867221/-0.427384/0.72718/-0.833915/-1.40541/0.0479078/-0.303514/-1.09064/0.543717/-0.0336715/1.31658/0.889771/0.750981/0.00422996/0.235835/0.532523/0.114396/0.635495/-1.06271/-0.365063/-1.05385/-0.853846/-0.237368/-0.959451/0.968722/0.342468/-0.654554/-0.167502/-0.462734/-0.221143/-0.000256143/0.523034/-0.896131/0.325106/-0.83462/-0.45135/-0.710582/-0.692259/0.225696/0.325185/0.19288/0.982915/-0.431235/-0.499082/-0.0632341/-0.777391/0.620041/-1.15835/-0.0747303/-1.32706/-0.0780361/-0.306857/-0.161549/-0.0390539/0.302027/0.602039/0.702904/-0.274768/0.30161/-0.260383/0.795728/-0.472502/-0.633866/0.244695/-0.691396/-0.790955/-0.305436/0.729708/0.640949/0.473302/0.481665/0.703874/0.00344998/-0.0358279/0.278164/0.362672/0.16074/-0.214566/-0.569917/0.0595219/-0.491845/0.969756/-0.65326/-0.690172/-0.629684/-0.533997/0.27956/-0.282148/-0.0701789/-0.372798/-0.254144/0.301172/0.250316/-0.4697/-0.759825/-0.227529/0.606492/0.632073/0.833697/-0.448618/0.0755815/0.239188/0.0547198/-0.338942/-0.191466/-0.949318/0.100031/-0.640457/1.11369/-0.357059/0.48576/1.14463/-0.469421/0.282042/0.882318/-0.804945/-0.179973/-0.829887/-0.491523/-0.936161/-0.25355/0.667967/-0.726493/0.0765201/-0.614318/-0.596512/-0.95823/-0.165881/0.049787/0.684232/-0.00370257/0.457846/-0.271059/0.18778/-0.230736/-0.794143/-0.311549/-0.500005/0.496598/-0.137801/0.849527/0.734352/0.440154/-0.839902/0.0394512/-0.612669/-0.772139/-0.60966/-0.450227/0.624176/0.0833717/0.690836/-0.183463/-0.388171/-0.622265/0.291972/-0.822091/-0.942253/-0.123825/0.212882/-0.109863/0.652796/-0.135489/0.128573/0.669934/0.111312/0.0723603/0.579472/-0.737105/0.167444/0.265338/-0.790828/-0.392469/-0.0436307/-0.0481409/0.962542/-0.406794/-0.459461/-1.00932/0.519712/0.217152/-0.211064/0.0499391/0.735817/0.877918/-0.823221/-1.14748/-0.185547/0.097344/-0.757499/0.772116/-1.03841/-0.332785/-0.126788/0.467625/0.419954/-0.0142054/0.292389/-0.340525/-0.0514924/-1.07869/0.584558/-1.17598/0.536162/0.542275/0.152535/0.277562/-0.341831/-0.813074/0.615312/0.381046/-0.077159/-0.811253/-0.731757/0.529585/0.320864/-0.100248/-0.400394/-0.721325/0.25368/-0.37298/0.756887/-0.689566/0.565737/0.259387/0.473314/1.36383/-0.273556/0.213022/0.170138/-0.454603/-1.23184/-0.99383/0.470928/0.449992/0.206933/-0.508069/0.215706/0.649423/0.0773154/-0.559698/-0.822256/-0.434352/-0.375343/0.0854466/0.197479/0.473661/-0.604458/-0.431129/-0.460454/-0.421598/0.69538/-0.934416/-0.828797/0.289041/1.0566/0.120842/-0.102765/-0.18784/0.692278/-0.60577/-0.76807/-0.988839/-0.69514/0.157506/0.392936/0.331091/-0.311662/-0.10435/0.181963/-0.553093/-0.372912/-0.192672/0.198835/-0.198193/-0.0595479/0.466373/0.177653/-0.202261/0.412545/0.633864/-1.16596/-0.637251/0.0434028/-0.115553/-0.683829/0.416683/-0.256223/-0.274516/0.804224/-0.995507/-0.935058/-0.742389/0.597075/0.649853/-0.25656/-0.00331366/0.310057/-0.172664/-0.2898/-0.893695/-0.367541/-0.398679/0.115135/0.881855/-0.0815718/-0.0210498/0.36228/-0.296853/0.588508/1.0221/-0.21474/0.261125/0.220786/-0.236316/-0.396092/-0.176494/-0.873796/0.125864/-0.659781/0.338648/0.119412/-0.36384/-0.461753/-0.683693/-0.837667/0.0339319/-0.00881472/0.198891/0.680861/-0.64202/0.200176/-0.378255/0.412679/0.0350632/-1.03515/0.777273/-0.71315/0.98552/0.721646/-0.0546425/-0.54076/-0.398029/0.48727/-0.219122/-0.0746664/-0.388744/-0.025011/0.66555/0.0977211/-0.953598/0.425632/-0.400837/-0.937256/0.236084/-0.691893/0.54351/0.958804/-0.154524/0.0570737/1.12987/0.21121/-0.412546/-0.982906/-0.611521/0.849847/-0.181248/0.772876/0.741399/0.982185/0.239618/0.202789/0.818692/-0.801046/0.232786/-0.469036/-0.866611/-0.657058/-0.152201/-0.958954/0.865336/-0.30519/-0.709208/-0.0626829/-0.926803/0.755291/0.96687/0.406486/0.183388/0.701864/0.507736/-0.0229915/-0.920527/-0.0544854/-0.707587/0.586766/0.540924/-0.497941/0.309174/-0.407636/0.59526/0.802918/-0.920108/0.79116/0.658309/0.570675/0.0106637/0.948104/0.788807/-0.528719/-0.185826/0.821566/0.0663602/-0.684661/0.901237/-1.01959/-0.660051/-0.51039/-0.124248/-0.235391/-0.218978/-0.35729/-0.968325/-0.629874/-0.284572/-0.80956/-0.280522/-0.726597/0.0891865/0.957715/0.309212/0.922997/0.807897/0.319299/0.460124/-0.690161/0.958337/
-0.621711/0.905764/-0.825978/-0.220066/-0.653361/0.98966/-0.0391948/0.865385/0.187486/-0.745929/0.157312/-0.049049/-0.366587/0.775412/0.338993/0.950535/-0.890479/-0.905049/0.7309/-0.515508/-0.14813/0.378571/0.635481/0.537068/0.499901/-0.160603/0.746343/-0.215066/-0.614317/-0.818801/0.129459/-0.953794/0.144316/0.0394864/0.870753/-0.691993/0.438227/0.32243/0.430821/-0.0461909/-0.582217/0.664139/-0.921267/-0.329186/0.393556/-0.841563/0.731973/-0.874386/-0.0257669/0.847405/0.462444/0.316775/-0.869397/0.036503/0.528189/0.171026/0.438841/-0.406931/0.443963/-0.252749/-0.45948/-0.205752/0.650579/0.319035/0.327081/0.22352/0.706884/-0.112485/-0.537772/0.981689/0.1546/0.636736/0.0541647/0.349604/0.463833/-0.857927/-1.04693/-0.270779/-0.983263/-0.148828/0.235604/-0.583052/-0.158084/-0.229611/0.930699/0.255618/0.0947565/-0.526443/0.421124/0.0758169/-0.0863126/-0.640846/-1.2859/-0.576143/0.238846/-0.22746/-0.850251/0.395648/0.526788/0.623531/-0.331982/-0.220635/0.0747563/-0.0866735/0.0246608/0.625465/-0.18363/-0.373368/-0.590758/-0.792094/0.679795/0.0144416/0.719464/0.0291105/0.349254/-0.270762/0.022623/-0.296977/-0.989035/-0.0302292/-0.877638/-0.651325/0.426083/0.393448/0.692257/-0.653937/-0.342628/0.648388/-0.834564/-0.122102/-0.278345/-0.559805/-0.953382/-0.0649164/-0.84411/-0.541426/0.0773538/0.409241/0.406558/0.664938/-0.386003/0.449476/-0.120614/-0.412527/0.853189/0.519142/0.00472253/-0.630748/-0.0376508/0.724689/-0.967068/1.16986/-0.114224/-0.42287/0.155931/-0.23373/0.255295/-0.230663/0.279969/-1.01527/0.680463/0.163702/-0.581166/-0.0389253/-0.32305/0.305595/0.409006/0.634237/-0.372533/0.830391/-0.290318/-0.33491/-1.08013/-1.06197/0.394168/0.302698/-0.0652831/-0.091856/0.851119/-0.172913/1.13279/0.661265/-0.623443/-0.374371/-0.438658/0.377811/0.304408/-0.315074/0.431697/-0.777507/0.313455/0.435979/0.827651/-0.403794/-0.43872/0.351799/0.685789/0.0434783/0.483496/0.447905/-0.079781/-0.232438/-0.463139/-0.81666/-0.387612/-0.126292/-0.822515/1.02504/0.461394/0.758882/0.448842/0.151795/0.540571/-0.429854/-0.455862/0.633538/-1.10998/-0.732616/0.571319/-1.06423/0.292568/0.24301/0.678259/0.172922/0.296108/0.684969/0.811352/0.721456/0.623492/-0.191564/-0.00949677/0.0323853/-0.626633/-0.208669/0.0508389/0.810488/-0.211278/1.20312/-0.311127/-1.19325/-0.331497/-0.494906/-0.575188/0.767652/-0.658751/0.950283/0.944545/-0.518063/0.174702/-0.627289/-0.688381/-0.477897/-0.0232419/-0.625528/0.645771/-0.537025/0.221105/0.188955/0.207895/0.448098/-0.703769/0.0902481/0.430599/0.568886/0.100286/-0.812851/0.0974112/-0.0083349/0.0818664/-0.0326241/-0.365868/-0.240117/-0.567409/-0.240372/0.238646/0.75768/-0.367877/0.920788/0.232116/0.239762/-0.326915/-0.461243/-0.382692/1.05992/0.0248254/0.0560563/-0.31653/-1.10144/0.119414/-0.144335/1.12826/1.00877/0.503388/0.630845/-0.804541/0.434687/-0.47578/-0.745289/0.249297/-0.208596/0.0333216/-0.285287/0.112643/0.0632859/-0.0703262/0.88206/-0.061967/0.722261/-0.963203/-0.552356/0.68808/0.151619/0.352183/-0.397171/1.2028/-0.256609/-0.71147/-0.1902/-0.411363/0.433239/-0.0435871/-0.418117/-0.959269/-0.646124/0.207392/-1.02054/-0.997679/0.112092/0.357936/-0.45559/-0.87175/-0.670232/0.0988407/-0.157111/0.162742/0.862938/-0.59991/-0.673068/-0.720591/-0.518824/-0.221916/-0.551982/0.605172/-0.560774/0.791545/0.29745/0.893039/-0.290925/0.753298/-0.305884/0.0885434/-0.199987/-1.36157/-0.0807502/-1.01232/-1.27861/-0.400829/-0.206316/0.687963/-0.000303803/0.712916/-0.429529/-0.935756/-0.54405/0.143363/-0.489808/-0.317802/0.304759/-0.287841/0.733799/-0.372868/-0.25172/-0.54823/0.418079/-0.939607/0.0859112/-0.926835/-0.770447/0.0149613/-0.697067/-1.00406/0.348808/-1.24346/0.250506/0.187678/-0.744946/-0.363069/0.376745/0.00152669/0.157448/0.122497/-0.647764/-0.975573/-0.434326/0.34403/0.221654/-0.142474/-0.102202/0.422117/0.15712/0.484469/-1.04677/-0.552386/0.169772/0.517545/0.43388/-0.32091/-0.77904/-0.355586/-1.17336/0.51768/-1.00764/0.935664/0.387421/-0.254289/0.671635/-0.59767/0.781764/-0.565936/-0.440591/0.989039/0.814734/0.646762/-0.181243/0.116061/-0.194054/0.0652278/0.401024/0.043725/0.579796/-0.698206/0.236465/-0.227105/-0.118843/-0.436023/0.341567/-0.277773/0.80724/-0.790649/0.98609/0.787126/0.881169/-0.50956/0.587496/1.30004/0.445954/-0.75086/0.160295/0.0829784/0.638711/0.0269203/0.927514/0.669096/0.625412/0.873768/0.0101081/0.109344/-0.457342/-0.623973/0.235552/0.102255/-0.596277/0.00646571/0.209224/0.378536/0.673359/1.0991/0.147062/-0.637666/0.18414/0.569023/0.317837/-0.35157/-0.235166/0.0293471/0.69503/-0.488164/-0.527515/0.531775/0.323225/-0.0141208/-0.0394633/0.399059/0.614604/-0.338319/0.561587/0.210237/-0.637164/1.02502/0.665038/-0.396796/0.751175/1.07321/0.360712/-0.347726/0.565706/-0.814573/-0.793633/-0.0610108/-0.456521/-0.135627/0.405501/0.566182/-0.476541/0.774205/0.0627166/1.10229/0.962932/-0.563606/-0.518196/1.02666/1.04634/1.01032/0.67516/0.176756/-0.621026/0.586322/0.247622/0.96591/-0.559488/-0.484702/0.280774/-0.0838779/0.577843/0.740927/0.776462/-0.637849/-0.751777/0.792867/0.623557/0.881788/0.0928799/-0.968345/-1.02197/1.02914/-0.220185/0.193529/-0.0380515/0.497858/-0.588345/0.180587/-0.333752/0.0179764/0.677606/0.709732/-0.112023/0.850215/0.602298/-0.0160208/0.496225/0.492864/-0.952563/-1.05488/0.780697/0.408568/0.311797/-0.456689/-0.603207/-0.431118/-0.120635/0.494808/0.248595/0.999992/0.24179/-0.0472305/-0.942636/0.945719/-0.478717/0.797867/-0.325163/0.579855/0.453148/0.576688/-0.0516399/0.350314/-0.101389/0.609855/-0.0292672/-0.166444/-0.31822/0.511557/-1.04904/-0.533914/-0.16544/0.653307/0.780351/-0.772874/-0.31331/0.206675/-0.341972/-0.493536/-0.403485/0.0291329/0.756608/0.280702/0.74511/-0.172743/0.483856/0.862597/-0.539606/0.0852115/0.442826/-0.249466/-0.0155301/1.02493/-0.41991/0.935546/0.22157/0.769808/0.110496/-0.178376/0.265983/0.669934/-0.772987/-0.659914/0.615371/0.544088/0.594457/0.785221/-0.542668/0.582648/1.20294/0.169766/-0.154476/-0.225505/-0.83241/0.958965/0.250602/-0.631899/0.65937/1.55905/0.43402/-0.468612/0.261653/0.230122/-0.334754/-0.564214/-0.0144132/-0.107276/0.21042/0.583435/-0.746593/-0.796659/0.381839/-0.425191/-0.157094/-0.254505/-0.641313/-0.524646/-0.160415/0.33009/1.01764/0.242928/0.2874/-0.525464/0.734818/0.174477/-0.405485/1.16466/1.23626/0.422571/-0.236363/0.210754/0.212716/-0.404621/-0.51196/-0.171294/-1.13881/-0.581622/-0.879308/0.586312/0.907903/-0.874252/0.444241/-0.285363/0.478778/0.698066/0.495454/-0.23256/-0.796381/1.12128/1.12578/0.315893/0.271203/-0.468783/-0.472676/0.0342596/1.00026/0.9872/0.544077/-0.613217/-0.697217/-0.256949/0.754703/0.114899/0.0422866/0.812692/0.61449/-0.619925/0.48505/0.231954/0.441518/-0.116286/-0.810408/0.202175/-0.453115/0.829249/0.775895/0.788988/-0.821425/0.169225/0.431492/-0.891914/-0.603435/0.904348/0.272964/-0.563265/-0.175354/0.928863/-0.0971284/0.872724/0.449812/-0.0360701/0.124531/0.815871/0.335629/-0.241033/0.0578816/0.816502/0.940413/-0.0654425/0.213816/-0.923284/0.365769/-0.403442/-0.534204/-0.688659/-0.0320956/0.541078/-0.440149/0.367507/-0.9604/-0.946239/0.982684/-0.270943/-0.6493/-0.275687/0.893974/0.737764/-0.937484/0.57771/-0.0796487/0.0177721/0.425643/-0.14961/-0.0358536/-0.591325/-0.392696/-0.0492225/0.716604/-0.0428517/-0.208209/0.633453/0.089334/-0.80505/-0.327043/-0.606838/0.874379/-0.316818/-0.753778/-0.750638/0.0250586/-0.840475/0.129578/-0.18012/0.721732/0.144163/0.951485/-0.383691/-0.702878/0.726792/-0.811033/0.960227/0.536043/-0.994703/
0.0771658/0.925486/0.647823/-0.0345318/-0.376052/0.0841796/0.769849/-0.436249/0.363179/-0.473201/-0.0485356/0.262079/0.765284/0.274297/0.225614/-0.617169/0.224845/-0.014668/-0.0188474/0.290862/0.51266/0.277939/-0.679731/-0.234426/0.00611891/0.840519/0.604488/-0.364579/0.523858/0.486306/-0.581454/-0.55805/-0.797718/0.703477/0.733218/-0.371506/-0.335765/0.87776/-0.517088/-0.265436/-0.260896/0.73453/0.138252/-0.0647157/-0.662439/-0.138752/-0.683445/-0.376757/0.550401/-0.876903/0.621224/0.49528/-0.462681/0.293389/0.019426/-0.514271/0.650759/-0.688117/0.00555236/-0.381928/0.720337/0.577913/-0.31606/-0.0436059/0.761731/0.888019/0.185757/0.806276/-0.228264/0.76379/-0.768655/0.763655/0.863556/0.615667/0.917255/-0.0270256/-0.680601/0.841769/0.186927/-0.11353/0.669897/-0.617291/-0.902478/0.940498/0.950136/0.938555/0.522781/0.113793/0.450679/0.855445/-0.465051/-0.269936/0.579628/0.435462/-0.274806/-0.28471/-0.765246/0.626236/-0.0225854/0.0811463/-0.329694/0.569795/-0.332664/0.816339/-0.705627/-0.326757/0.422335/-0.458377/0.822073/0.134461/-0.4439/0.800175/0.541286/-0.610602/0.0401253/0.101418/0.217973/-0.730722/0.350615/0.573963/-0.263543/-1.09498/-0.409152/-0.443713/-0.246116/-0.508304/-0.520001/1.1211/-0.361536/0.87943/-0.335978/-0.833538/0.786176/-0.0390148/0.527671/-0.471594/-0.890427/-0.732951/-0.8123/-0.475778/-0.403307/-0.37368/0.0416858/-0.870171/-0.963554/-0.452741/-0.666953/0.512454/-0.237973/-0.632216/0.255199/-0.619131/-0.958627/0.0786276/0.802062/0.23388/0.391857/0.959939/0.917386/-1.02049/-0.885797/0.0522036/0.213137/-0.083085/-0.810069/1.04004/-0.568814/-0.696859/-0.102062/0.654287/-0.680323/-0.300673/1.01593/0.157535/0.724048/0.420935/0.110331/-0.612232/-0.641439/0.362836/-0.46686/0.502915/-0.193161/0.11964/0.326063/0.911824/0.217987/-1.05482/-1.06609/0.157528/0.028348/-0.615254/0.351063/0.797792/0.54772/0.28131/-0.0203861/-0.623897/0.120846/0.868282/0.482859/0.359052/0.417706/-0.113882/-0.196739/-0.321269/-0.790346/0.0652751/0.721102/-0.177237/-0.311441/1.04163/1.29932/-0.863937/0.297227/0.297199/0.504581/-0.555987/-0.278681/-0.1666/-0.229431/-0.448596/0.361544/0.198504/0.25993/0.642716/-0.666911/0.569807/-0.240167/0.733259/-0.0707833/-0.20513/0.982826/0.46687/-0.909001/-0.441993/0.397203/-0.229989/0.568133/-0.0883814/-0.251706/-0.213066/-0.448197/-0.691191/-0.660899/0.29491/-0.821382/0.474174/-0.820561/-0.0519366/-0.238144/0.845843/0.0835403/0.0505479/0.732716/-0.654138/0.621373/0.527014/-0.54174/0.233726/-0.382995/0.0641014/-0.774628/-0.323321/0.777448/-0.604852/-0.257236/0.79063/0.00906805/-0.088797/0.989163/0.220838/-0.685444/-1.0453/-0.825876/-0.312451/-0.793603/0.902724/0.195083/0.175035/-0.181771/0.992402/0.737177/0.0837964/0.850237/0.954225/-0.357269/0.12859/0.54397/-0.331203/1.04252/0.116412/-0.694368/-0.260689/-0.140481/0.584018/-0.338589/0.246788/0.26468/0.247315/-0.320446/-1.24815/0.454937/0.347645/0.562882/-0.02384/-0.854755/-0.0937085/-0.95835/-0.987144/-0.773775/0.202542/-0.399876/0.063541/0.314046/-0.266301/0.517696/-0.0175018/0.644754/0.015556/-0.569471/0.381373/0.391547/0.18949/0.105163/0.915512/-0.902399/-0.53432/-0.0820825/-0.427013/0.0758406/-1.11946/-0.245419/0.812246/0.765702/0.79182/0.121649/0.511278/-0.524629/0.676374/0.134698/0.0560631/0.569811/-0.321836/-0.305232/-0.00226134/0.0261387/0.781315/0.45925/-0.477016/0.324875/-0.55575/-0.0479791/0.56935/0.486344/0.687361/-0.881422/-0.928013/-1.08603/0.307302/-0.445666/0.0794279/-0.138443/-0.256527/0.543984/0.714066/-0.859164/-1.15773/-0.267148/-0.109016/-0.142699/-0.352233/0.298799/0.719252/0.0784227/-0.201178/-0.0306125/0.368972/-0.322681/-0.293349/-0.312773/0.135923/-0.525929/-0.590785/0.381256/-0.773291/-1.04453/0.566095/-1.02534/0.41797/0.800075/0.0912805/0.151332/-0.5982/0.882626/0.655314/0.00816866/-0.00259047/-0.16757/-0.251053/-0.196377/0.0252539/-0.552647/-0.376529/0.48368/0.503225/0.0574767/0.52448/0.562768/0.161851/-0.556117/-0.235449/0.25011/0.102234/0.114046/-0.594832/0.111741/0.188014/0.442092/0.274157/-0.240243/0.285383/-0.686645/0.632201/-0.810517/0.482945/0.308403/-0.0584584/0.824691/-0.125998/-0.853503/0.167118/0.486051/-0.294551/-0.377961/-0.158898/-0.791975/0.196305/-0.654223/0.680586/-0.546482/-0.593047/0.665736/-0.429344/0.0962943/0.0772386/-0.504153/0.720259/-0.61274/-0.315338/-0.400274/0.375454/-0.0843829/1.03003/0.560526/-0.220429/0.78141/-0.362582/-1.2135/-0.566843/-0.138127/0.623149/0.192832/-0.916793/0.281646/1.02965/-0.909019/-0.132262/0.159729/0.515975/-0.877428/-0.0975525/0.424036/-0.769044/0.436245/-0.946271/0.837314/0.802621/-0.345807/1.04921/1.09628/-0.817691/0.704992/-0.0386865/0.346806/-0.825448/-0.741576/-0.93885/-0.664552/-0.708163/-0.118313/0.519431/0.254393/1.05917/1.21435/-0.156139/-0.999227/-0.621136/0.141079/0.207487/-0.66385/-0.991331/0.405193/0.415706/0.762963/-0.82808/0.385212/-0.416208/0.221624/0.280239/0.63021/-0.363429/0.237835/-0.240146/0.278212/-0.807386/-0.720278/0.437453/-0.396787/-0.56325/0.425474/-0.463763/0.0648014/-0.381863/-0.937901/0.691927/-1.0089/-0.160322/0.636186/0.341266/0.789686/0.277119/-0.464534/0.564298/-0.5739/-0.235359/0.497468/0.397254/-0.391912/-0.601859/-0.454814/0.0111532/-0.695035/-0.392848/-0.164111/0.470893/-0.233388/-0.932344/-0.534281/0.63022/-1.2108/-0.544135/0.352369/-0.0537064/0.28164/0.0264175/-0.0805142/-0.670066/0.193375/-0.679521/-0.703168/-0.168361/0.0213583/0.040768/0.434398/0.554707/-1.01997/-0.529252/-0.0947478/0.142017/0.117194/-1.1196/-1.28642/0.144054/0.372847/0.147614/0.382106/-0.955104/-0.429546/-0.782361/-0.375431/-0.810499/0.115232/0.324438/0.197205/0.874194/-0.334988/0.847825/-0.606728/0.718788/-0.898955/0.39046/0.783349/0.60198/-0.59486/-0.657298/-0.203747/-1.35392/0.0735849/-0.175687/-0.640768/-0.770027/-0.915604/0.272957/0.0375596/-0.477682/0.0573971/-1.0183/-0.542078/-0.393993/-0.931165/-0.466017/-0.203397/-0.810476/-0.986275/0.131286/0.520929/-0.749856/0.140816/0.0221721/0.745252/-0.326209/-0.148999/0.104898/-1.38682/0.243916/-1.40634/-0.414412/0.617784/0.338468/-0.27618/0.765362/-0.819039/-0.481101/0.302523/-0.378951/-0.00129469/-0.782568/-0.472108/-0.133878/-0.112654/0.144925/-0.756645/-0.463092/0.810315/0.934341/0.700523/-0.407698/0.113536/0.0136514/0.627215/0.19695/-0.157112/-1.08677/-0.876633/-1.19974/-0.835908/-0.410888/-1.00081/-0.351008/-0.856924/-0.150188/-0.622673/0.762871/-0.703145/-0.165611/-0.204569/-0.829047/0.846389/-0.87234/-0.889512/0.51467/0.0566426/-0.00657735/-0.565336/-0.511242/0.457626/-1.1729/0.489393/0.638827/-0.309313/-1.06951/-1.31733/0.346975/-0.805655/0.641172/0.675112/-0.138381/-0.587797/0.627196/0.0734818/-0.512034/-0.915649/-0.625188/0.172436/0.362848/0.24981/0.233614/-0.796131/0.612085/-0.685332/-0.364835/0.177162/-0.509796/0.60134/-0.579785/-0.349364/-0.541462/0.860735/0.690196/0.785916/0.805175/-0.497766/0.630457/0.834857/-0.534782/0.75465/-0.797517/-0.290402/0.249234/0.255752/0.186199/-0.560268/0.829638/-0.0957362/0.115024/-0.134559/0.199768/-0.494592/-0.612728/0.957587/-0.875836/-0.938299/-0.018345/-0.733525/0.9669/0.135259/-0.190142/-0.989391/0.739277/0.772038/-0.523456/-0.429/0.842732/-0.925461/0.981991/0.00865028/-0.937764/-0.609975/0.941614/0.652089/-0.503179/-0.290474/-0.0182333/-0.173525/0.568737/0.769647/-0.548846/-0.45708/-0.14218/0.3865/-0.100155/0.693832/-0.759928/-0.587766/-0.514225/-0.584354/0.763183/0.822776/0.403353/-0.84834/-0.0453704/-0.539851/0.731109/-0.247614/0.345967/0.666415/0.43611/-0.303944/-0.382921/0.240105/-0.551462/-0.419768/0.954298/1.41663/
0.528998/0.863944/0.312843/-0.052282/-0.702585/0.322703/-0.775283/-0.986051/-0.25108/-0.600684/-0.302375/-0.0162277/-0.739413/0.532267/-0.305933/0.335375/0.743741/-0.228798/0.225004/0.0150644/-0.812345/0.922189/-0.775456/0.912651/0.930187/-0.355326/0.0438176/0.442008/0.834397/-0.282201/-0.910059/-0.426634/-0.612613/-0.855903/-0.605999/-0.715585/-0.121847/0.845828/-0.869774/0.758422/-0.816425/-0.233545/-0.69636/0.627497/0.257516/0.260327/0.326754/0.56378/-0.811682/0.703467/-0.980834/0.527231/-0.0605124/0.983612/-0.480512/0.545267/0.295279/0.746225/-0.844209/-0.828855/-0.600913/-0.657222/-0.549228/-0.0321723/-0.388776/-0.830461/0.286065/0.938443/-0.601275/0.401555/-0.0110165/0.454786/0.321597/-0.699026/0.564912/-1.26049/0.552537/0.311583/0.426869/-0.23643/-0.502444/-0.163254/-0.87614/0.556997/-0.544017/0.707766/-0.432962/-0.360574/0.736528/-0.00762615/0.252065/0.503293/-0.608909/0.755287/0.722345/1.72322/0.604382/0.320468/1.83802/1.51588/-0.281131/0.929466/-0.649503/0.167971/-0.335762/-0.054183/0.452582/0.440789/-0.811065/-0.504955/0.6893/-0.340452/0.021871/-0.414899/-0.482714/0.630369/0.513027/0.6645/-0.89813/-0.720772/0.0428989/0.848755/0.086903/0.218548/0.91815/1.99329/0.910665/1.10006/0.375989/0.472974/-0.769163/-0.261067/-0.272362/-0.32556/0.153214/0.0831448/0.269409/0.665727/-0.560441/-0.25668/-0.0159271/0.313376/-0.22145/-0.180567/-0.43092/0.889192/0.127821/0.84681/0.247684/0.343809/-0.285319/0.980399/1.39128/1.0568/1.47714/-0.949956/0.429262/0.308677/-1.00835/0.377877/-0.0885681/-0.29466/-0.271252/0.112509/0.0606979/0.210858/0.130327/-0.95426/-0.246302/0.405999/-0.281576/0.300589/0.236159/-1.05986/0.0234016/-0.117131/1.06923/-0.641515/1.03343/-0.399443/1.23612/1.0122/1.2729/-0.60325/1.07496/0.0121345/-0.0859236/-0.6685/0.262611/-1.11084/-0.860885/-0.155688/-0.341206/-0.0811864/-0.758442/-0.233012/-0.238017/-0.339081/0.133019/0.307279/-0.683117/0.592945/0.5464/-0.568921/-0.280467/0.0564726/0.475776/0.677649/0.684729/0.0222572/1.34865/0.12867/-0.41152/-0.0775741/-0.0238123/0.501048/0.539439/-0.227797/0.720551/-0.822633/-0.846456/0.630934/-0.578962/-0.747298/0.169428/-0.413748/-0.77763/0.224238/0.152096/-0.642186/0.90781/-0.66743/-0.0547245/0.576303/1.20346/-0.680295/-0.563222/0.756166/0.374174/0.772841/0.655129/0.673833/-0.869895/-1.07152/0.0521817/-0.705407/-0.529053/-0.164315/0.0133033/0.488522/-0.568127/-0.493418/-0.884441/-0.796244/0.85821/-0.496757/0.301704/0.393814/-0.671663/0.326081/0.334453/0.843179/0.627128/1.11292/0.519237/-0.072915/-0.52011/0.761427/1.17115/-0.474549/0.998874/-0.925222/-0.17809/-0.694889/0.310192/-0.878322/0.140195/-0.464605/0.844138/0.764403/-0.682076/0.356812/-0.411892/0.756186/-1.11734/-0.46638/0.89141/0.0497585/0.889389/0.634302/-0.0135436/0.78961/0.106229/0.291374/-0.962999/0.880887/0.293947/0.238408/0.671881/-0.417552/0.374582/-0.334613/-0.950504/-1.18081/-0.331287/0.201666/0.766486/0.901766/-0.0204614/0.114707/-0.835966/0.468205/-0.306495/-0.648513/-0.0405672/-0.373505/0.218979/0.321572/0.493024/0.539927/-0.985648/0.520936/-0.133602/-0.405795/-0.000792161/-0.103771/0.547424/0.251199/-0.696779/-0.548308/0.282701/-0.153011/0.192223/0.507465/0.848623/0.534683/0.420219/0.640565/0.158216/0.708864/0.648587/-0.28869/-0.193096/-0.123077/0.310633/1.04787/-0.0697053/0.223585/-0.755428/0.568057/-0.42246/0.0773005/1.08106/-0.261364/0.375556/-0.577273/-0.5293/-0.314663/-0.267799/-0.883155/-0.326685/-0.540192/0.336503/0.714316/-0.486744/-0.674356/-0.521567/-0.366811/-0.0122347/0.862479/-0.239075/1.38187/-0.190259/0.707864/0.298029/0.0824264/-0.112485/-0.151072/-0.883252/-0.590876/0.218082/0.787401/0.495309/-0.122416/0.388981/-0.223297/0.206799/-0.599112/0.341121/-0.104309/0.338183/0.620953/0.356679/0.717895/1.51184/-0.380791/0.664417/-0.0841392/-0.821365/-0.538225/-0.186718/0.668674/-0.311068/0.372412/-0.289157/0.410084/-0.475604/0.465509/-0.809222/0.31052/0.549877/-0.608301/-0.764259/-0.337145/-0.708298/-0.501543/0.248912/-1.04672/-0.315617/-0.267366/0.377554/-0.353198/-0.0483858/0.857637/0.722218/-0.764271/-0.286481/0.273621/0.796338/-0.101524/0.680282/-1.02538/-1.09795/0.692177/-0.0689958/-0.157856/0.714191/-0.136564/0.233446/-0.648621/0.35913/-0.740979/-0.843088/-0.457053/-0.213308/-0.3694/-0.357384/0.0953537/0.609257/-0.095018/-0.159523/0.622273/0.386931/0.455218/0.709251/-0.357232/-0.249495/-0.687515/0.995002/0.778098/-0.51348/-0.0920324/-0.43034/-0.0920685/0.665727/-0.194694/-0.470665/0.663999/0.00389772/-0.331573/-0.399923/-0.383982/1.07717/0.225758/-0.6564/-0.325212/-0.0899223/0.814553/0.0792323/0.540576/0.0679173/0.542791/-0.173223/0.838502/0.306252/-0.6179/0.226625/0.464469/0.516527/-0.522624/0.475441/0.176224/0.425338/-0.0545753/0.625013/0.487161/-0.414454/-0.550052/0.323599/0.248538/-0.217692/0.305843/-0.819791/-0.478088/0.776963/0.488373/0.938751/-0.66143/-0.652439/-0.23707/0.369549/-0.054185/-0.214637/0.550881/0.255095/-0.0179133/-0.513461/0.0907217/0.718/-0.424916/0.49376/0.552311/-0.962296/-0.209852/1.15622/-0.574652/-0.125654/-0.865946/-0.36025/-0.850975/0.573325/0.779864/-0.831965/-0.805372/0.835221/-0.150357/0.55254/0.629023/0.111539/-1.1704/0.649172/0.33418/0.827532/1.03486/-0.0936282/-0.259433/-0.30254/0.844805/-0.0620425/0.373528/0.456405/-0.436931/0.622317/-1.16107/-0.098613/0.166019/0.207507/-0.172379/-0.811237/0.586385/-0.622213/0.489077/0.822298/0.613237/0.773358/0.379246/-0.0668995/-0.258611/-0.141278/-0.21232/0.526351/0.353774/0.589563/-0.290707/0.152979/-0.442881/0.24468/1.09306/-0.147752/-1.16379/0.306154/0.244854/-0.696357/0.447385/0.271685/0.372801/0.709239/-0.710044/0.296766/-0.210219/-0.578603/0.277942/-0.787477/0.204767/-0.830052/0.302905/0.644604/-0.779894/-0.818209/-0.0916534/0.289706/-0.0104474/0.537445/0.435654/-0.61604/-0.674978/-0.566013/0.0885754/-0.605263/-0.237394/0.638597/-0.0824901/-0.0964133/0.990423/-0.249448/-0.49779/-0.353825/-0.674524/-0.537043/0.138302/1.01798/-0.394416/-0.152629/-1.08622/0.425234/-0.0419849/1.2423/-0.28787/1.03888/-0.781282/0.796798/0.360083/0.293127/-0.67957/0.835935/-0.740784/-0.185741/0.264548/-0.127393/-0.510822/-0.157504/-0.449707/0.0480501/-0.564985/0.299432/0.569313/-0.936324/0.396261/-0.44957/0.917516/0.27045/0.472453/-0.900401/1.0809/0.441529/1.15629/-0.264619/0.522909/-0.356965/0.23652/0.0725445/-0.52884/-0.7348/0.362271/-0.757724/0.221357/-0.481062/0.242495/0.252419/-0.786779/0.815381/0.54447/0.913972/-0.872888/0.297965/-0.151174/0.789187/-0.798227/0.0244471/0.0046593/-0.300281/-0.272455/-0.5975/-0.630077/0.0892454/-0.0731687/0.399515/-0.572245/-0.284065/-0.724591/-0.442995/0.155988/-0.950197/-0.36899/0.668927/-0.630309/1.00275/-0.198516/0.130398/0.22499/-0.596379/0.661249/0.46049/0.450436/-0.331772/0.384886/0.060122/-1.11974/-0.400738/-0.931876/0.223688/-0.84254/-0.402967/0.408841/0.375811/-0.0206332/-0.960205/0.553091/0.211096/-0.946519/0.183155/0.256491/-0.676647/0.0295739/0.978869/-0.502955/-0.530407/0.310479/0.222883/0.00168349/-0.989712/-0.477298/0.0828018/-0.285257/-0.211609/-0.143598/-0.999222/0.978599/0.950714/0.68751/-0.983656/0.726408/0.919977/0.933662/-0.556162/0.983819/0.0429028/-0.454689/0.950731/-0.0297729/0.848388/0.257636/-0.389757/0.608899/-0.731749/0.146091/-0.650883/0.604141/-0.202596/0.963095/0.741062/-0.977927/-0.0169844/0.352919/0.155479/-0.966508/-0.0943078/0.969629/0.561254/0.999094/-0.221161/0.943503/-0.544503/0.539028/-0.558284/0.912715/-0.00411244/0.88221/-0.69067/-0.0868279/0.683581/0.952285/-0.939179/-0.776592/-1.59369/
0.400791/0.0934811/-0.863642/0.771135/0.473302/0.897784/0.978537/0.258412/0.0189705/0.248787/0.405339/0.530421/0.782641/0.154812/0.274701/0.0898941/-0.411674/-0.263253/-0.644017/-0.269727/0.695906/0.0854125/-0.472066/-0.0054802/-0.105793/-0.0588933/0.180555/0.583589/0.384197/-0.809208/-0.575254/0.429547/-0.965496/-0.595262/-0.321574/-0.963085/-0.474399/-0.0188942/0.799953/0.366864/0.493207/0.763137/0.815306/0.19705/0.138274/-0.956627/0.663238/-0.467532/-0.0820326/0.210273/-0.49152/0.292203/0.617565/0.0162191/-0.330952/-0.197546/-0.161433/0.798487/-0.331704/0.608002/0.765971/0.588332/1.00559/-0.448295/0.213398/-0.342571/-0.477963/0.675543/0.586616/-0.65001/-0.296161/0.420904/-0.734428/-0.506746/0.195068/0.870431/-0.498473/1.12865/-0.266342/0.356516/0.785346/-0.782687/-0.0354251/-0.312829/0.289531/0.138699/-0.895531/0.308899/-0.652476/-0.110424/0.89453/-0.480652/0.25633/-0.993756/0.953512/-0.13609/-0.455885/-0.719822/0.806806/-1.00066/-0.92312/0.132119/0.0479994/-0.710371/1.02629/0.0453503/0.81252/-0.651584/0.417862/0.539236/0.0864615/-0.190097/-0.968138/0.513463/0.391247/-0.0539247/0.900031/1.08359/0.746877/0.740626/-1.17459/0.540396/0.539251/-0.514199/0.169515/0.816056/0.18794/0.279755/-0.895191/-0.0244591/0.692265/0.0114947/0.367041/-0.724745/0.554416/0.385353/-0.501736/-0.633014/-0.0166028/0.356227/-0.894502/0.104701/0.336153/0.524831/-0.0868344/0.563533/-0.149052/-1.12123/0.256406/-0.51474/0.0387317/0.807337/0.514844/-0.202902/-0.728616/-0.0772205/0.223483/0.46321/0.173143/0.422379/-1.0972/0.530993/0.612648/0.664471/-0.0712121/0.981582/0.312679/0.266226/0.452505/-0.742671/-0.0777821/-0.00926684/1.19416/0.881176/0.713721/-0.350085/-0.150052/-0.0510132/-0.373802/-0.229378/-1.29679/0.319485/-0.559551/0.896541/-0.601377/0.554043/0.311376/-0.987941/-0.634189/0.0372935/0.66736/-0.657611/-0.316674/0.900341/-0.788918/0.182716/0.902075/-0.840667/0.905822/0.524363/0.114514/-0.339046/-0.571809/0.417928/-0.924383/0.317724/0.138951/-1.23264/0.19512/-0.5716/1.31391/-0.0506775/0.0229002/-0.242009/-0.28626/-0.674836/0.314586/-0.394495/0.745646/0.0118157/-0.590955/0.384741/-0.331003/0.922857/0.465903/0.443236/0.367587/-0.46197/-0.246865/-0.348681/-0.729799/0.982911/0.213033/-0.169225/-0.0833065/-0.660073/-0.661667/0.795583/-0.45664/1.24342/1.08045/-0.118438/-0.580567/-0.463392/0.244618/0.460691/-0.545157/-0.938695/-0.992161/-0.520688/0.415741/-0.690473/-0.774474/-0.583499/-0.14786/-0.105895/0.622628/-0.0307528/-0.921654/-0.110038/-0.465402/0.7318/-0.254734/-0.576582/0.155153/-0.0488147/0.575396/-0.497352/0.873416/0.158281/-0.717461/-0.602762/0.517861/0.691135/0.254668/0.250338/0.397168/-0.380972/0.96964/0.207826/0.935735/0.879245/1.03398/-0.973308/0.103664/0.777481/0.171889/-0.417097/-1.07261/-0.108183/-0.720834/-0.040331/0.468955/0.116197/-0.754717/1.00772/1.15464/-0.635785/-0.441391/-0.19927/-0.140229/0.385285/-0.135698/-0.450449/-0.338406/-0.103566/-0.460044/-0.988979/0.232363/-0.675431/0.769539/0.920273/0.350716/-0.50734/0.404656/-0.932892/0.273104/0.225012/-1.11273/-0.0988246/-0.234643/0.74866/0.561305/0.408283/1.10661/-0.105095/-0.00147485/0.883226/0.291619/-1.07989/0.895363/-0.867399/-1.18803/0.412532/0.836016/-0.174106/-0.205875/-0.121041/1.11181/-0.155112/0.839721/0.203484/-0.649882/0.742669/-0.702718/-0.969808/-0.0193622/0.505719/-0.488954/-0.0815198/-1.16254/0.138056/0.319043/0.885912/0.418051/0.691337/-0.444887/0.229817/-0.670301/-0.591985/-1.21505/0.279981/0.0810144/-0.203539/-0.884629/0.0639028/-0.304591/1.40125/0.289657/0.199174/-0.470591/-0.702403/0.073349/-0.22273/0.274637/0.123293/-0.37783/0.0305031/-0.803088/0.0931791/-0.394542/0.372691/-0.48536/-0.337504/0.786258/-1.13653/-0.129158/-0.88693/-0.416318/-0.00396283/-0.613171/0.431857/0.21468/0.195281/-0.409977/-0.382651/-0.213049/0.0824162/-0.572065/0.307948/-0.608706/0.0600309/-0.368891/0.939391/0.251991/0.706659/0.763974/0.888405/0.451486/-0.329515/1.34071/0.693376/-0.725247/0.358708/-0.136289/0.14739/-0.989929/-0.327055/-0.342008/0.429557/-0.435673/-0.293477/1.30663/0.0412812/0.821375/-0.379073/0.916358/-0.139235/-1.06438/-0.615482/0.443557/0.329354/-0.023624/0.978243/-0.452434/0.196101/-0.143122/0.174607/1.19908/-0.715314/-0.2566/0.389601/-0.633293/-0.29581/0.464909/-0.493686/-0.903948/0.0204613/-0.107496/-0.690915/-0.298512/-0.165717/0.821331/-0.58406/0.496214/0.115272/-0.749928/-1.02164/0.231513/-0.114087/0.0111002/-0.087502/1.06942/1.19706/-0.342471/0.176466/0.749385/0.358918/-0.247073/0.472668/0.130128/0.164798/-1.29869/0.137213/0.926396/-0.125617/0.499881/-0.481315/-0.636015/0.42507/-0.460507/0.0339176/-0.201178/-0.930185/-0.700357/0.266964/-0.527787/-0.815716/0.949874/-0.50219/-0.244472/-0.592205/-0.704634/0.837269/0.962923/-1.08407/-1.03948/0.148017/1.09414/0.197363/-0.827348/-0.0591361/0.665012/0.515448/-0.858858/-0.807049/0.941056/1.12013/0.545284/-0.59095/0.478515/0.0341381/0.517468/-0.609593/-0.0802665/-0.30812/1.1332/-0.201881/0.556296/0.518171/-0.330448/-0.723949/0.926989/-0.680906/0.126137/-0.512406/0.277285/1.11464/0.61923/-0.982546/0.570412/-0.278633/-0.992579/-0.270706/0.328493/0.874197/-0.17293/0.344888/0.571955/-0.309015/0.98655/0.0886138/0.813963/-0.46719/0.902042/-0.636579/-0.569947/0.0895181/0.858843/-1.0079/-0.78894/0.367032/0.0546233/0.104683/0.618667/0.0311848/0.809705/0.578034/0.323064/0.929768/0.619162/0.244028/0.853466/-0.229297/-0.394619/-0.723142/0.924325/-0.104607/0.142318/-0.177893/0.269956/0.192937/0.24333/0.521275/-0.261072/0.159343/-0.423848/0.79709/-0.81251/-0.112918/0.817369/-0.309567/0.525972/0.250334/0.736711/0.0198781/0.216067/-0.812876/0.000378132/0.370706/-0.723133/0.584027/0.0260173/-0.374902/-0.772157/0.89008/-0.0171665/-0.393915/0.0267705/-0.266285/-0.492652/0.511107/0.740311/0.776851/-0.094768/-0.685102/-0.819015/-1.03716/-1.07164/0.307277/-0.0129907/0.354699/-0.501722/0.700457/-0.437376/0.526137/0.776712/0.238103/0.198799/0.718854/0.768021/-0.755512/0.401322/-0.34494/-0.607287/-0.285684/0.698144/-0.308729/-0.593773/-0.0700425/0.199751/-0.0326702/0.395815/0.127078/-1.01656/-0.983892/-0.797727/0.491897/0.619257/-0.745408/0.428392/-0.0180591/0.433216/0.018941/0.341475/-0.80038/-0.247992/0.237372/0.349695/-0.70654/0.0118105/-0.00290279/0.38802/0.0469699/-0.244054/0.650957/-0.604563/0.857543/0.401977/-0.652029/-0.148996/-0.746053/-0.295178/0.0902219/0.016256/0.591986/1.00857/1.11512/-0.0301985/1.20629/-0.160065/-0.902932/0.423593/-0.68779/0.039229/0.702999/-0.532242/0.866617/1.04662/1.02904/-0.267727/0.319849/0.630054/1.12187/0.368154/0.404523/0.417977/-0.443727/-0.672873/0.682804/0.4277/-0.225646/0.712852/-0.445668/-0.272786/0.23563/0.955653/0.0314361/-0.676576/0.463993/0.326197/0.356404/0.177387/0.167959/0.870358/-0.432993/-0.555791/-0.60026/0.603822/0.433609/0.8177/0.907364/1.01536/0.580339/0.0285885/-0.323462/0.677817/0.498448/-0.438463/0.598107/-0.93574/0.0293919/0.722703/0.340583/-0.187368/0.250948/0.672266/0.915175/-0.660519/0.662654/-0.502566/0.00994107/-0.0127586/-0.772102/-0.907455/-0.636908/0.408699/0.987092/0.946666/-0.883768/-0.00114839/-0.802465/-0.539586/0.29023/-0.660665/0.45052/0.520473/-0.660626/0.765624/-0.312954/-0.649321/-0.0446322/0.982688/0.586928/-0.363553/0.973806/0.764773/-0.4675/0.725199/0.416773/0.703756/0.0292483/-0.423219/0.96025/0.34759/-0.0698955/-0.734324/0.217085/0.539843/-0.860197/0.663337/0.699849/0.358309/0.101076/0.791124/0.429022/0.565255/0.236544/-0.404857/-0.437564/-0.13283/-0.471416/0.903665/-0.109051/-0.336308/
0.764842/0.704749/0.718182/0.493142/0.237795/0.971484/-0.279517/-0.605248/0.0606335/0.304063/-0.562984/-0.0747449/-0.237121/0.791272/0.94229/0.288649/-0.0891513/0.19658/-0.159995/-0.807977/0.329275/0.12077/-0.214455/-0.338043/0.506223/0.0977777/-0.650171/0.576216/0.467304/-0.0194979/0.43432/0.392044/0.0364983/0.974748/0.302679/-0.456836/0.986418/-0.0431089/1.0134/1.01732/-0.865563/-0.207785/-0.828074/0.501432/-0.545899/-0.302792/-0.713252/-0.602355/0.413491/-0.574932/0.731855/0.952225/-0.705886/0.836707/0.194063/0.776959/0.357709/0.015658/0.769237/-0.532239/-0.188974/0.727457/-0.59349/-0.318064/1.15687/0.442442/0.973815/0.756/-0.681949/-0.708956/0.173182/0.2204/0.273324/-0.41626/-0.735824/-0.076786/0.933206/0.221856/-0.903462/0.0530949/-0.165012/-0.580732/0.312314/0.890164/0.988883/0.165437/0.352828/-0.116313/-1.00722/0.437506/0.765382/-0.133079/-0.803779/0.870599/-0.512126/0.870368/-0.602893/-0.623405/0.169913/0.867347/0.709108/0.430028/0.492355/0.0532598/-0.0143704/-0.542912/-0.169461/1.33056/0.947813/0.682593/0.76116/0.158485/-0.339997/-0.323811/0.658378/-0.604188/0.111824/-0.803884/0.829139/-0.44567/-0.599429/-0.303111/-1.11643/0.457698/0.579541/-0.913021/-0.333976/0.451501/-0.836515/-0.51621/-0.140925/-0.228594/0.739891/-0.463874/0.766808/0.0229384/-0.624802/0.938502/0.442267/0.748032/0.171911/-0.689561/0.655351/-0.930914/-0.465002/-0.792705/-0.993705/-1.0327/-0.831012/-0.4866/0.325849/0.209514/-0.492692/-0.214799/-0.968329/-0.566394/-0.610685/0.111419/-0.625306/-0.609752/-0.128347/-0.679223/0.836859/-0.642531/-0.508202/-0.444582/-0.633177/0.0737158/0.942264/0.631231/0.590367/0.0347546/-0.816935/-0.453321/-0.0420436/-0.570682/0.30219/0.774994/0.334892/0.538642/-0.578515/-0.48572/-0.183152/0.111996/-0.549482/0.219958/0.464628/0.24004/-0.153686/0.233913/0.340326/-1.01211/0.586314/-0.277495/-0.631887/-0.892125/0.0512085/0.642734/-0.723434/0.369928/-0.777864/0.532325/-0.0115391/1.22135/0.0689289/-0.264475/-0.424818/-0.700034/-0.347167/-0.596144/-0.425387/-0.24865/-0.0260057/-0.729427/-0.647611/0.594879/0.520673/-0.820823/0.20051/-0.0943354/0.999139/2.41293e-05/-0.954613/0.755041/-0.0234502/-0.132951/-0.594457/-0.416825/-0.78713/0.850897/-0.294173/-0.309694/-0.249248/-0.815108/-0.133306/0.741843/-0.556795/0.144658/-0.134552/0.436154/0.14191/-0.836334/-0.140649/-1.03735/0.239649/0.853557/-0.932254/0.191843/-0.46794/0.796084/-0.0887215/0.160196/0.41341/0.189353/-0.377938/0.831869/-0.421645/0.629062/0.769216/0.184185/0.0180469/-1.25831/0.382568/-0.500904/-0.185308/0.0312735/-0.938717/-0.831721/-0.0548425/-0.466251/0.0187396/0.459012/0.215962/-0.749664/0.132473/-0.48976/-0.333964/0.0513208/-0.453142/0.778487/0.0330368/-0.745973/-0.671663/-0.22581/0.0197252/0.328476/0.832795/-0.56042/0.951562/0.395084/0.490131/-0.696612/-0.744604/0.759877/-1.05992/-0.15389/0.32554/-0.377392/-0.849043/-0.702994/0.633289/-1.24213/-0.253848/0.138129/0.124233/-0.356149/-0.00286628/-0.791577/-0.0330437/0.634274/-0.585513/1.08553/-0.405124/-0.186547/0.648929/1.15831/0.897732/0.918361/0.785766/-0.195362/0.028657/-0.494447/0.956577/-0.301044/0.155475/-0.840071/-0.65476/0.3592/-0.788296/0.401692/-0.0190699/0.114721/-0.172194/1.11846/-0.057835/0.677298/-0.655974/-0.958056/-0.69771/0.519476/0.0836376/0.664041/-0.144617/0.800645/-0.578663/0.80101/-0.37763/0.803585/-0.377086/0.160319/0.636869/0.232798/1.06884/0.181357/-0.12416/-0.018871/0.802271/-0.018194/0.25873/0.795663/-0.373517/0.953763/0.333802/-0.398683/-0.659203/0.78653/0.349796/1.44169/-0.0258956/0.0132898/0.631507/-0.140528/0.00362802/0.284363/-0.00208494/0.94083/1.34896/0.969671/0.365688/0.898157/1.05916/1.4964/0.793813/1.35631/0.792424/0.564106/-0.35079/0.222026/1.1653/0.390039/-0.915612/0.41356/0.697332/0.0671287/0.837882/1.00934/0.108288/0.436662/0.400226/-0.617451/0.806827/-0.45211/0.863597/0.765298/0.415921/1.2331/1.23647/0.413957/0.286532/1.1718/0.986781/0.184233/-0.00180523/1.40546/-0.20335/0.39438/-0.0387354/1.01714/0.383628/-0.163326/0.979238/0.0690753/0.673486/-0.595306/-0.0801536/-0.146229/0.2347/-0.303142/0.121567/0.972231/-0.0259319/-0.570232/1.23793/1.45213/0.195414/-0.141884/0.784827/0.926524/-0.215252/0.764436/1.06883/0.619739/0.0951992/1.33747/1.43484/0.354147/0.156111/-0.490619/0.162087/0.214506/-0.868545/-0.00817865/-0.0489042/0.105803/-0.0719949/-0.757942/0.108231/-0.288723/0.474572/0.664092/-0.282545/1.08831/0.341438/0.868801/0.769325/-0.199106/-0.29164/1.09796/1.31538/-0.63924/0.919823/0.439779/0.417047/-0.0196386/-0.154962/-0.640233/-0.404227/0.172625/0.651975/-0.341989/0.144069/-0.265328/-0.00942622/0.752745/0.513223/-0.608295/-0.447804/-0.13446/-0.368271/-0.236029/0.0910699/0.688569/-0.610958/-0.0908796/0.783535/-0.10761/0.206096/0.431177/0.748567/0.405995/-0.336774/-0.544542/0.485115/0.971508/0.139762/0.991197/-0.75764/-0.018827/0.230863/-0.49961/-0.842141/0.758408/-0.432009/0.171434/0.473041/0.250531/-0.277289/-0.090755/0.803838/-0.589578/-0.59924/-0.0555974/0.485173/-0.1467/-0.934729/-0.176839/-0.0269619/-0.243816/-0.592357/-0.13229/0.129522/0.871453/0.511388/0.906294/0.99258/0.380306/-0.372754/-0.708815/0.598807/-0.258736/0.363387/0.563736/0.526698/-0.555994/-0.0657654/0.615854/0.554028/-0.633998/-0.0849924/-0.154256/-0.476205/-0.037016/-0.0589054/-0.98118/-0.0163576/0.508291/-0.259896/-0.784881/-0.806775/0.354051/0.526879/-0.721/-0.162302/0.803307/-0.114371/0.19384/0.523216/0.497456/-0.258009/-0.974889/0.20515/0.145065/0.970368/-0.185949/0.00303739/-0.687702/-0.599821/-0.516972/-0.430688/-0.205659/-0.605202/-0.0945486/-0.247645/0.324564/-0.297171/-1.15926/-0.0894595/0.0534779/0.802434/0.529825/-0.499574/0.433577/0.799519/0.537036/0.0844877/-0.237734/-0.839524/-0.0439244/0.401369/0.608329/-0.760058/0.0248127/-0.642847/-0.190166/0.143422/-0.0888667/-0.468871/-1.09435/0.571482/-0.696574/-0.38347/0.864037/-0.477173/0.466104/0.767482/0.490659/0.498943/-0.253717/0.995621/0.921787/1.0299/-0.6528/-0.647643/-0.803707/0.850335/0.498895/0.484672/0.486317/-0.0976525/-0.712261/-0.922683/0.882017/0.226283/0.833503/0.472485/0.317201/0.224777/-0.908953/-0.543383/0.211932/-1.02243/-0.181365/-0.266371/-0.0563728/0.541905/-0.194659/1.05589/-0.610084/1.05656/0.641517/0.986098/0.860979/-0.395093/0.865042/-0.589873/-0.391845/0.198354/0.978803/-0.320165/-0.184688/-0.174042/-0.28041/0.202959/-0.197129/-0.750177/-0.390943/0.671632/-0.543075/-0.517379/0.120105/-0.197519/0.559653/0.091442/0.864353/0.483823/-0.28311/0.484965/-0.630649/0.583999/0.282431/0.755233/0.309098/0.517271/-0.456041/0.895739/-0.359297/0.265522/0.57079/0.0847767/-0.674188/1.0261/0.298824/0.24365/0.109984/0.240318/0.556458/-0.196282/-0.917892/0.129906/-0.559804/-0.622145/-0.400473/0.0966094/-0.578844/0.308464/-0.756679/0.283477/0.0850573/-0.371554/-0.402976/-0.214587/-0.0888444/-0.467508/-0.481599/0.827589/-0.0342819/0.0350392/-0.430058/-0.726464/0.185298/-0.414332/-0.150293/0.289362/0.816752/0.888671/-0.64473/0.478507/-0.0601693/0.734112/0.213515/0.234418/-0.581012/0.000240725/0.972369/-0.34959/0.0347868/-0.584015/0.842497/0.446163/-0.326326/-0.93227/-0.905061/0.63168/-0.0892923/-0.442839/0.990023/-0.123927/0.573642/0.161568/-0.03935/0.951823/-0.352372/-0.728065/-0.132992/-0.965915/0.957872/0.950987/-0.759691/-0.126807/0.75403/0.975578/0.545266/0.284007/0.806681/0.0492895/0.891661/0.139186/-0.69592/-0.32036/-0.292335/0.733708/-0.571168/0.386426/0.664672/-0.862968/0.0970031/0.331118/-0.905168/0.838941/0.0877632/-0.964569/0.485991/0.0494371/0.889756/0.572461/
0.118255/-0.487242/0.923801/0.322502/0.298019/0.752926/0.192263/-0.935571/0.977087/-0.262775/-0.517431/-0.469282/0.778004/-0.0895913/0.229895/-0.850753/-0.553297/-0.980714/0.569617/-0.608027/0.892155/0.454798/-0.217564/-0.598264/0.976636/0.316665/0.191816/-0.144311/0.572721/-0.28022/0.514658/-0.111114/-0.779176/-0.512741/-0.63044/0.667537/-0.695065/0.31206/0.286524/-0.150992/0.791865/-0.637407/-0.830678/-0.924576/0.230972/-0.766635/0.332392/0.864196/-0.28845/0.0401816/0.880108/0.316367/-0.659396/-0.636546/-0.154748/0.984605/0.250794/-0.911074/-0.232121/0.473701/-0.377693/0.23503/-0.74806/0.743694/0.556447/0.542098/-0.327037/-0.820066/0.351114/-0.757255/0.85194/-0.225078/0.948133/-0.2783/-0.816833/0.0635564/-0.812871/0.770185/0.69124/0.190807/-0.918252/0.121628/0.800895/-0.519869/0.567282/0.312082/0.49395/0.575637/0.526697/0.929745/0.169546/-0.363021/0.988787/-0.036965/-0.448421/-0.392101/-0.777372/-0.672915/0.490614/0.573724/-0.654339/0.247203/-0.371796/0.616038/0.727183/-0.33971/-0.831818/0.546238/-0.622817/-0.681933/-0.48889/0.14658/-0.422348/-0.406372/0.677182/-0.701539/0.782458/-0.401846/-0.00798415/-0.77877/0.863803/-0.0997298/0.364702/-0.207811/-0.325139/-0.551182/0.527052/0.408031/0.642488/0.449553/-0.613641/-0.0360849/0.83297/0.00764293/-0.98306/-0.332591/0.535603/0.461958/-0.334329/0.465504/-0.281884/0.373398/0.718375/-0.44105/0.200991/-0.0654132/-1.09842/-0.201276/-0.478133/-0.617986/-0.953229/0.354069/-0.178687/0.445196/-0.728635/0.100458/-0.46235/0.50055/-0.342393/0.00885676/-0.826803/-0.486638/-0.131302/-0.0414998/0.650377/-0.952557/0.10595/-0.480029/0.148845/-0.361164/-0.0604447/0.0257634/0.0198335/-0.676167/-0.576313/0.442332/0.788309/-0.184176/0.602922/0.0715601/0.42476/-0.693406/-0.795119/0.465487/0.0745108/0.93314/-0.0815841/0.360595/0.6931/-0.399506/-0.244046/-0.0473108/-0.170462/-0.0490268/-0.918423/-0.0661224/0.681322/0.978254/1.0346/-0.243073/0.598119/-0.780646/0.298859/-0.460037/0.376527/1.07165/0.235827/0.680712/0.619321/-0.85516/-0.262948/-0.163119/0.300749/0.929098/0.451041/-0.652317/-0.155034/-0.614163/-0.512474/0.248824/-0.557678/-0.272172/0.175503/0.400868/-0.618956/-0.795458/-0.157099/-0.39733/-0.396516/-0.617248/-0.25568/0.340436/-0.0119801/0.781297/0.932982/-0.851537/-0.831818/-0.153299/-0.758793/-0.0417359/0.768936/-0.0163356/-0.0570043/-0.400716/-0.429967/0.915949/0.335111/-0.274416/-0.0208576/0.273047/0.283472/0.516198/-0.259029/0.487085/0.557529/0.598605/-0.869096/0.418734/0.29734/-0.406683/-0.214848/0.884344/-0.1769/0.226692/0.330332/-0.0839828/-0.747889/-0.654646/0.585036/0.710606/-0.440589/0.61211/-0.187525/0.487303/1.08799/-0.784768/-0.0456843/0.295847/0.657449/0.937151/0.692003/0.473396/-0.326796/0.554504/0.609776/1.13146/-0.218804/0.475704/0.559968/0.937956/-0.192007/-0.380741/-0.291126/0.632451/0.607329/0.454253/-0.0549579/-0.355972/0.301162/-0.0762492/-0.346298/-0.546003/-0.530581/-0.306586/0.506259/0.677124/0.207103/0.201861/0.684421/-0.932823/-0.978978/-0.711132/0.898252/-0.703186/-0.211735/-0.672155/0.888234/0.862649/-0.2875/-1.04204/-1.14582/0.411363/-0.287135/-0.102238/-0.64062/-0.127621/0.263004/0.939386/-0.274807/1.19297/-0.247589/-0.0971655/-0.238272/-0.130301/-0.0768912/-0.854381/0.422734/0.898042/-0.48654/-0.291103/-0.689637/-0.294798/0.0602221/0.386544/0.0845462/0.571033/-1.23626/-0.501443/-0.00305847/-1.20946/-0.407304/0.512281/0.538391/0.677594/0.134865/0.796543/0.0400502/0.922817/-0.970491/-0.00310506/0.168103/-0.759257/-0.0608203/-0.16931/0.405682/0.253931/-0.945171/0.743588/-0.0631481/0.429715/0.520638/-0.773618/0.378116/0.343547/-0.839397/-0.205373/-0.58243/0.356487/-0.211262/-0.654495/0.910053/-0.0993906/-0.306448/0.1208/0.807528/-0.701062/-0.665622/-0.24312/-1.30787/-0.254391/-0.0941107/-0.815375/-0.00506051/0.917565/0.103326/-0.0268326/0.900889/1.0376/0.713611/0.0259294/-0.0571532/-0.633366/-0.619461/0.435423/0.602687/-0.0746324/-0.867349/0.641934/0.714381/0.479049/1.35834/-0.106963/-0.495423/-0.201252/-0.357863/-0.571586/-1.02444/-1.07778/0.52633/-0.402907/0.340601/0.498507/-0.917466/-0.233673/-0.000373127/-0.144797/-0.267618/-0.233136/-0.324922/-0.71988/0.300941/-0.647201/0.15174/-0.605387/0.444008/0.690079/-0.636465/-0.224528/0.11268/-0.61707/-1.07793/-0.927075/0.150522/0.206918/0.478407/0.39271/0.914094/-0.0988986/-0.188072/-0.911064/0.802136/-0.690219/-0.55257/0.18215/0.3096/0.548045/0.319321/0.308193/-0.564602/-0.232518/-0.605829/-0.77879/-0.425854/0.11887/-0.152853/0.312677/0.923365/-0.409516/0.799125/-0.299712/0.0124476/-0.631014/0.859028/-0.140731/-0.801509/-0.164876/0.201942/0.066004/-0.611799/0.680818/-0.869609/0.232025/0.465857/-0.0228996/-0.566108/-0.0666295/0.56788/-0.127202/-0.668278/-0.948212/-0.886532/0.900839/0.724444/-0.353398/-0.455232/-0.754502/-0.0911541/0.190616/-0.578865/0.967884/0.463607/-0.817328/-0.401619/0.0933922/-0.35743/0.715789/-0.804415/0.437211/-0.351539/0.216069/0.681546/-0.0479422/-0.321223/-0.369913/-0.417794/-0.669071/-1.05714/-1.1022/-0.861105/0.18868/0.12594/0.577624/-0.027765/0.37209/-0.464755/0.103752/0.315023/-0.554177/-0.367793/-0.434319/-0.605116/0.294121/-0.708813/0.991051/-0.105406/-0.0750259/0.375487/-0.129749/0.65971/-0.660332/-0.372427/-0.51932/-0.746714/-0.0805619/-0.905549/0.182999/0.312536/0.980479/0.0987726/0.260544/0.285618/-0.287754/0.249574/-0.292972/0.848287/-0.418634/0.947012/-0.570674/0.38487/0.234904/0.0382304/0.544092/-0.0449502/0.983067/-0.473612/-0.539416/-0.189445/-0.594751/1.23103/-0.632578/0.6301/-0.601336/-0.588245/-0.41247/-1.2786/-0.383091/0.550078/-0.113473/0.479925/0.07547/0.408634/0.622407/-0.459228/-0.338888/0.2255/-0.242346/-0.280021/-0.570224/0.24132/-0.135936/-0.975175/-0.716832/0.243964/-0.535125/-0.38419/1.07929/0.24717/-0.70857/-0.180867/-0.319289/0.107646/-1.29754/-0.696798/-0.692022/0.744092/-0.491263/-0.244294/-0.938388/0.391965/-0.48049/0.220593/-0.237142/-0.0510416/0.934228/-0.847361/0.881247/-0.87366/0.398724/0.325133/0.165191/0.568105/0.101856/-0.364233/0.980689/-0.248089/0.046546/-0.594064/-0.206449/0.136601/-0.124444/0.400178/-0.818644/-0.240282/0.525345/0.0253021/-0.635501/0.503945/0.482898/0.349442/-0.450655/0.373888/-0.758038/-0.856905/0.453774/0.583285/-0.726935/0.357741/-0.561649/0.314899/-0.632355/-0.0796526/-0.467647/-0.502602/-0.0406181/0.714125/-0.989693/-0.150652/-1.04768/0.285565/0.383687/-0.902461/0.340491/0.242087/-0.618566/0.308809/0.2994/-1.00702/-0.960783/0.0751092/-0.722823/0.599336/0.27351/0.876831/0.894939/-0.528615/0.672856/-0.194043/-0.702584/-0.0908388/0.834474/-0.505716/0.104228/-0.484622/-0.561338/-1.16402/-0.105319/-0.67181/-0.595797/-0.85257/-0.449258/0.302534/-0.17394/0.37413/0.511467/-0.474314/-1.06727/0.298085/-0.536239/0.0742554/0.32291/-0.854412/-0.0976495/0.535869/0.61676/0.24762/-1.06397/0.317496/0.54205/-0.46432/0.189923/-0.167992/-0.870951/0.842961/-0.665884/0.117919/-0.81427/-0.360098/-0.131008/-0.047558/0.105228/0.574687/0.472373/-1.03243/0.148272/0.376256/0.659935/-0.091468/-0.868327/0.0364363/0.384741/-0.164478/-0.829376/0.879064/0.732563/0.823214/-0.207634/-0.951872/0.121854/-0.547197/-0.979948/-0.556486/-0.167219/-0.0609256/-0.997788/0.775681/-0.455387/0.860111/0.445954/-0.882227/-0.585531/-0.28384/-0.299366/-0.339605/0.980346/-0.34796/-0.349546/-0.813111/0.0359464/0.151762/0.659972/0.149572/-0.136/0.240181/0.72833/-0.783762/-0.683151/0.281268/-0.733979/0.018052/-0.599283/-0.150544/-0.189681/0.0383566/0.658889/-0.0530285/0.750185/0.359399/0.417269/-0.955604/-0.83455/-0.275302/0.99207/-0.279828/0.924566/-0.400206/
