-0.999984/-0.736924/0.511211/-0.0826997/0.066623/-0.556247/-0.899104/0.364118/0.362102/0.870775/-0.232996/0.0388327/0.662077/-0.930782/-0.892873/0.0598087/0.342682/-0.984419/-0.233169/-0.866316/-0.165028/0.373545/0.177953/0.860873/0.692334/0.0538576/-0.81607/0.307838/-0.168001/0.40243/0.821727/0.523943/-0.475393/-0.901324/0.478476/-0.340398/0.281369/0.546242/1.02287/-0.253723/-0.489543/0.964219/0.447391/0.516724/0.305519/-0.857969/0.230237/0.756833/-0.466512/-0.160092/0.517907/-0.0630629/-0.51985/-0.446843/-0.281741/-0.666986/-0.0269652/0.794977/0.813171/-0.917364/0.809471/0.05816/0.0616612/-0.341706/1.01326/0.216358/-0.277807/-0.780196/0.958962/-0.80012/-0.0104167/-0.239142/-0.56186/0.684437/-0.154541/-0.149282/0.870079/-1.05814/0.34306/0.472639/0.726895/-0.668536/-0.984534/0.376911/0.736494/0.250776/0.406431/0.404843/1.04839/0.856723/-0.497445/-0.268672/-0.213736/0.277897/0.306102/0.757546/-0.0603957/0.808245/-0.292388/0.0503805/0.241539/0.0712261/-0.383431/-0.588027/-0.587758/0.0121727/0.515263/-0.977933/0.27652/0.265572/0.912722/0.496585/0.109168/0.782161/0.183841/0.548587/-0.826159/-0.551913/0.467987/-0.67088/-0.6989/-0.0983669/-0.861441/-0.25723/-1.13707/0.469863/1.11324/-0.115268/-0.0274322/0.147911/1.22139/0.701675/-0.153005/0.648664/0.146165/-0.0390239/0.368923/-0.264463/0.196571/0.691151/0.180217/0.906372/0.0173154/-1.01815/0.421854/-0.231216/-0.563442/0.375292/-0.0279546/0.622959/0.441276/1.16457/-0.581158/-0.399881/-0.254626/0.388533/-0.580251/0.538121/0.675267/1.20634/0.278154/0.432959/0.0914185/-0.430878/-0.727652/1.10811/-0.125758/-0.715958/0.894974/-0.189991/-0.878269/0.465664/-1.39337/-0.967587/-0.838125/-0.0690352/-0.127571/-0.336802/1.08804/0.339574/0.0464052/0.0219495/0.347039/0.637514/0.269354/-0.489429/0.711055/1.25678/-0.368512/0.696759/-0.12144/0.0246235/0.0393944/0.697382/0.523978/-0.07551/0.902735/0.251049/-0.177053/0.617323/0.0229278/0.0407913/0.774518/1.03104/0.632133/-0.46558/0.225754/0.356931/-0.461298/-0.0223618/0.197219/0.91957/-0.100218/0.43732/0.905891/0.789477/0.650528/0.370832/0.551669/-0.758847/0.473332/-0.131699/-0.070317/-0.869612/0.426845/-0.0250903/0.454273/0.607246/-0.754576/0.647725/0.637282/0.717409/0.0285033/-0.810933/-0.0393263/1.03043/-0.367796/-0.0367501/-0.461572/0.0176594/0.956388/0.0946395/0.289759/0.975365/-0.240598/-0.145757/1.0547/-0.90238/-0.158983/-0.0338137/-0.988071/-0.998242/0.546704/0.471868/-0.176788/-0.20058/-0.171672/0.288091/-0.290713/1.01763/0.413722/0.575718/-0.543144/-0.555355/0.988764/0.461672/-0.233052/-0.208195/-0.462356/-0.263009/0.680338/0.905361/0.055394/0.0249617/0.51748/-1.08527/0.424977/0.6674/-0.0951254/-0.435688/-0.612065/-0.981765/-0.580019/0.800497/-0.878704/0.809871/-0.392331/-0.0450429/0.267328/0.0889024/1.48584/-0.0467114/1.31122/0.0123252/0.00300185/-0.352598/-0.130785/0.281774/0.0377527/0.766763/1.16147/0.929078/0.65229/0.083638/-0.612826/0.359995/-0.500446/-0.362444/0.399669/-0.76902/0.67358/0.0587721/-0.113386/0.0546959/-0.86048/0.0130797/-0.801438/-0.307101/0.745799/1.12795/0.181118/-0.238126/0.636308/-0.232605/-0.30043/0.704939/-0.131869/0.481402/0.79341/-0.0608777/-0.615074/-0.389762/-0.185777/0.0256378/-0.0249518/-0.224338/-0.441414/-0.846396/-0.0564125/-0.316344/0.341866/0.386176/0.0955143/0.147129/0.265332/0.65101/0.267835/1.26569/-0.552867/-0.227641/0.492724/0.620567/-0.144027/0.918841/1.25547/-0.512832/0.588185/-0.355983/-0.265125/0.0729524/0.391075/-1.00151/-0.417251/0.285958/0.0922732/0.819832/-0.316089/0.764842/-0.562617/1.01581/0.324964/-0.638103/0.226017/-1.22161/-0.551097/0.518619/0.473092/0.457337/0.865903/0.736235/0.838865/0.49729/-0.47576/0.478361/-0.831178/-1.07603/-0.236223/-1.21901/-1.29658/0.613481/0.547682/0.493358/-0.127149/-0.978977/0.44577/0.403272/-0.253633/0.39634/-0.151816/-0.546816/-0.166611/0.0585795/0.0112649/0.154839/0.458951/0.221494/0.746143/-0.417986/-0.0886723/-1.10734/-1.62628/-1.03213/-0.0549366/0.622883/-0.326021/-1.06108/-1.49119/-0.942231/0.460725/-0.405956/-0.898795/0.0212457/0.655842/0.265289/0.0642737/-0.259203/0.0502387/0.940282/0.520792/0.0849105/0.0193109/-0.563644/-0.441246/1.64657/0.439731/-0.780719/0.624754/-1.1851/-0.48448/-0.383201/-0.0750943/0.380391/0.795309/0.686376/-0.891229/-0.586991/0.999214/-0.623448/-0.297363/0.26898/0.620333/-0.738294/0.25734/0.841716/-0.218975/0.597525/0.865583/-0.576364/-0.871914/-0.590134/0.785432/0.722101/-0.709794/0.217698/0.182747/-0.256076/-0.634636/0.352777/-0.597162/-0.626174/-0.467681/0.358675/-1.01392/-0.685941/0.282015/-0.136176/-0.834987/0.366822/-0.452557/0.328198/-0.534002/1.1017/-0.886835/-0.786711/-0.0877406/0.391559/0.880044/-0.859302/-0.516383/0.279725/-0.313435/0.254265/0.00745486/-0.240801/0.0802933/-0.91093/-0.102706/-0.336276/0.0206756/-0.122535/0.128794/-0.35097/-0.564609/-0.532617/0.306023/-0.654616/0.572941/-0.608809/-0.359591/1.23019/-0.165193/1.23475/0.118761/0.114614/0.831108/-1.08316/-0.0720899/0.429083/-0.0247862/-1.25819/-0.586567/-0.494761/0.00287406/-1.17685/-0.335825/0.602974/-0.370056/-0.662821/-0.420666/0.30488/-0.606895/-0.657241/-0.25496/0.904842/0.944016/-0.305247/-0.215884/0.0591931/0.53475/-0.650951/-0.156751/-1.04203/0.452102/-0.472863/-0.247827/-0.41435/0.105898/-0.251739/0.440272/0.175258/0.021298/-0.0490748/-0.572485/0.213672/-0.19088/-0.328698/0.103339/-0.0040489/-0.120774/-0.519119/-0.833829/-0.148936/0.0393577/-0.124784/-0.391242/-0.350103/0.708603/-0.407473/-0.25159/0.141581/-1.01528/-0.0100149/-0.59919/-0.466735/-1.1472/0.00502977/-0.342988/0.375828/-0.458865/-1.48213/-0.690235/0.19756/-0.199192/-0.717951/0.86237/-0.636335/0.656111/0.892089/-0.65769/0.252921/-0.837448/-0.163052/-0.329338/0.0763461/0.851281/0.746232/0.27456/-0.679372/0.0913074/-0.0552022/-0.860644/-0.908692/-0.629026/0.876161/-0.649519/-0.107029/0.469143/-0.860272/-0.654047/-0.710181/0.426177/0.251613/-0.343609/-0.716422/0.399257/-0.243268/-0.598711/-0.477174/-0.135486/-0.179752/0.604868/1.20265/0.414761/-0.387112/0.287851/-0.936899/0.605895/0.260724/0.814583/-0.215666/-0.586819/-0.0795927/-0.144046/-0.149974/0.966948/0.983554/0.820771/1.09524/-0.0634354/-0.675184/0.846454/0.172731/-0.0700074/0.863829/0.381545/0.64911/0.139639/0.0663206/-0.877134/0.901213/0.865773/-0.303814/-0.381753/0.0768377/-0.45624/-0.540579/0.208579/-0.914829/-0.0747193/0.115813/-0.501496/0.122646/0.416113/0.56926/-0.778179/-0.346665/0.658911/-0.147731/-0.783736/-0.743792/0.839027/-0.556687/-0.239771/0.163865/-0.662679/-0.987359/0.430396/0.694893/0.466961/-0.657822/0.552331/1.14622/1.08842/0.0693778/0.283979/0.795659/0.580687/-0.335357/-0.214365/-0.444305/-0.25364/-0.588592/1.04824/0.252396/-0.318503/0.179237/0.583961/0.321386/-0.812777/0.0974726/0.221475/0.319936/-0.103596/0.0553151/0.278383/0.110735/-0.454873/0.167887/0.625982/-0.727001/-0.705931/0.143607/-0.215306/-0.74865/-0.517101/-0.862426/-0.374718/0.0569653/0.174346/0.229279/0.846806/0.530224/-0.0885571/-0.0653958/0.34269/0.401432/-0.184855/-0.026301/-0.0404343/0.420656/0.0561917/-0.475262/0.20493/-0.436575/0.417693/0.0831178/0.893187/-0.504522/-0.164402/0.195469/0.571548/0.847111/0.368254/0.64927/0.0706141/-0.533915/-0.713241/0.789409/-0.491602/0.306321/-1.00348/0.866464/-0.447575/0.718432/-0.442092/0.904862/0.0136399/-0.7541/-0.167049/0.404943/-0.127018/-0.784522/0.53235/-0.800244/-0.117465/-0.310847/-0.405872/0.515242/-0.322981/-0.338483/-0.888788/0.146366/-0.0294279/-0.595036/-0.771051/0.948696/0.729219/-0.0163185/-0.26521/0.609825/-0.675592/-0.68084/-0.884554/-0.701497/0.519512/
-0.238783/0.767409/-0.151733/-0.175504/0.302609/-0.383229/-0.879333/0.629565/0.796014/0.839093/0.802436/0.540093/-0.658407/0.144884/-0.936848/0.607226/0.04513/0.723898/-0.445604/0.738988/0.173724/-0.221656/0.623791/0.0513405/0.879743/-0.159924/0.159725/0.49829/0.761568/-0.323831/-0.621277/0.486396/0.436007/0.751804/-0.862356/0.409852/0.758977/-0.227678/-0.801388/-0.694182/-0.24267/-0.871044/0.315274/0.0932956/0.598277/0.74678/0.543352/0.238943/0.774008/0.754713/-0.0267021/-0.760845/-0.240224/-0.244395/0.373987/-0.756521/-0.846356/-0.71464/-0.0866619/0.371909/-0.578295/-0.229454/1.00344/0.269986/0.371088/0.964786/-0.172151/0.659981/0.45108/-0.350097/-1.09028/-0.312111/-0.386598/-0.437633/-0.142316/0.426448/0.864476/-0.395495/-0.444807/-0.373916/-0.538855/0.906911/-0.196378/-0.523179/0.92632/0.659517/-0.652496/-0.834423/-0.669854/-0.328991/0.181009/-0.195682/0.0545082/-0.0311505/-0.0849468/-0.360513/-0.103212/-0.339429/-1.02674/0.0477403/0.928457/0.363773/-0.240237/0.702537/0.61417/0.615093/0.085531/-0.332738/0.482382/0.330287/0.283301/0.289796/0.59807/-0.241697/-0.237189/-0.149687/-0.211885/0.521139/-0.580214/-0.330591/0.480546/0.93839/-0.115756/-0.778581/0.0323223/-1.1415/0.660459/-0.264007/0.0408961/-0.37078/-0.585603/-0.496522/0.737574/-0.702373/0.420631/-0.423616/0.322793/-0.0814833/-0.700219/0.511711/0.331946/-0.972957/0.623753/0.302177/-0.123952/0.0520578/-0.214269/-0.102525/0.273927/0.593087/-0.410697/0.011439/-0.164581/-0.752108/-0.866289/-0.862026/0.0988122/0.671855/-0.0473373/0.827974/-0.220334/-0.584426/-0.357461/0.858725/0.381307/-0.074293/-0.0760299/0.255661/0.888904/-0.192338/-0.878766/0.0391281/0.400084/0.626814/0.767839/-0.821526/-0.761295/0.593306/0.989051/0.210745/0.252709/0.985929/-0.811467/0.853208/-0.690522/1.01076/0.19521/-0.296924/0.488189/0.161809/0.589086/0.564373/0.231794/0.483298/0.270015/-0.300942/0.0697524/0.295454/-0.349005/0.910742/-0.184689/0.723569/-0.328394/1.29614/-0.225351/0.354278/0.768354/0.567755/-0.53041/0.213992/0.543297/0.711961/0.97717/0.461477/-0.429621/1.01767/-0.00291338/-0.701555/-0.467615/0.586526/-0.787644/-0.49512/0.702293/0.20481/0.246485/0.66572/0.444832/-0.023808/0.663774/0.550421/-0.357821/-0.362153/0.899448/0.550238/-0.366065/-0.0596292/-0.884364/0.00472076/1.19026/0.0971322/0.687107/0.434026/-0.558143/0.606259/-0.628181/0.00956508/-0.457993/-0.662399/0.835977/1.26197/0.203917/-0.933993/0.381863/-0.0169183/0.249341/0.572356/-0.318773/0.747751/0.157277/0.514857/-0.241616/1.3804/-0.070271/1.07983/0.343667/-0.395013/1.24937/1.18346/-0.0184888/-0.507693/0.890236/-0.919963/0.732651/-0.0283794/0.033048/-0.521242/-0.375603/0.805336/-0.0255509/0.311775/0.010118/0.0644205/-0.796115/0.332431/0.0402642/0.00524044/0.38219/0.033975/0.836605/-0.207014/-0.432074/0.782451/0.60014/0.0487227/1.03127/-0.509773/-0.405745/0.00597397/0.207348/0.631059/0.413411/0.0676566/-0.00551728/-0.0229242/-0.148/-0.214466/-0.694528/-0.552606/0.342703/-0.182191/0.577425/-0.336876/-0.500282/0.0282856/0.446128/0.340979/0.613007/1.0854/0.0141177/-0.157501/-0.429344/0.147199/-0.958186/0.964965/0.338204/-0.998915/-0.713127/-0.368172/0.259337/-0.709862/-0.357261/-0.92681/1.02888/-0.604306/-0.440016/-0.0359026/0.58556/-0.509414/-0.851632/-0.921942/-0.36902/-0.527595/0.730209/0.191286/0.221795/0.428692/-0.188099/0.786367/-0.81536/-1.29019/0.201022/0.354815/-1.44891/0.106329/-0.758658/0.540553/-0.293212/-0.433972/-0.318799/-0.79121/-0.48985/-0.790497/0.867816/0.57094/-0.213098/0.42317/0.472081/0.451885/-0.82002/-0.652803/0.453061/-0.41855/-0.263774/-0.818158/0.181543/0.428303/0.353947/-0.363946/0.246804/0.0591331/-0.64693/-0.411312/-0.254958/-0.589323/0.121431/-0.0763769/0.308275/-0.967403/0.320376/-0.515055/0.240317/0.709206/-0.370785/0.185062/-0.985527/-0.419959/-0.84526/-0.669145/-1.14137/-0.933361/0.198582/-1.01646/-0.145946/0.697304/-0.743619/-0.999547/0.176838/-0.762638/0.52922/-0.633472/-0.644613/0.461975/0.589369/-1.198/-0.958257/0.683625/-0.818398/0.451244/-0.557853/-0.201571/0.198388/0.291671/-1.10813/0.856465/0.535779/-0.124796/-1.17663/-0.898917/0.399442/0.318468/0.0893964/0.400061/-0.52722/-0.0625978/-0.128767/-0.568993/-0.575556/-0.738907/-0.0512292/-0.191343/1.06062/-0.927984/0.105594/-0.0921506/0.69331/0.437567/0.195767/-0.336393/0.24801/0.272127/0.0628502/-0.469256/-0.927935/0.915779/-0.858271/0.16103/0.0690937/-0.389067/-0.818712/0.0867185/-0.534506/-0.341319/-0.47231/-0.307352/0.770087/-1.06163/-0.500143/-0.718353/-0.209547/0.59028/0.488012/0.571945/1.01567/0.3729/0.583122/0.679592/-0.102559/0.24364/0.129019/0.44691/0.0527806/-0.414768/-0.569168/0.28621/-0.450271/-0.382818/0.37042/-0.190936/1.1018/0.76835/-0.937129/-0.358235/-0.0453152/-1.05414/-0.645492/0.370201/-1.13599/-0.673904/-0.711259/0.788151/-0.212851/0.415242/-0.188036/0.570146/0.444586/0.13247/-0.0863753/0.210384/-1.12559/0.395667/-0.376137/-0.40801/-0.16487/0.299713/-0.119866/1.22186/0.14307/0.186322/0.0830999/0.486927/-1.51857/-0.582332/0.222972/-0.740001/0.382581/0.656638/0.882327/0.277516/-0.37466/0.790382/-0.574615/0.201469/0.085649/-0.509323/-1.04241/-0.26524/0.0573498/0.778934/0.147611/0.626507/0.46624/0.276084/-0.371404/-0.320524/0.543951/-0.648637/0.228635/-0.230025/0.0878464/-1.17223/0.620938/0.681231/-0.55517/-0.762202/0.658481/0.225598/-0.368223/0.186391/0.0995308/-0.0117672/0.229003/0.825649/0.222443/-0.571327/-0.924799/0.425714/-0.21116/-0.918952/-0.589716/0.423207/0.0933349/0.528512/0.700156/-0.521132/-0.410945/-0.102937/-0.676976/0.203144/-0.043767/-0.866739/-0.107637/0.527397/0.113253/0.572346/-0.145863/0.823687/-0.896048/-0.0493116/-0.779736/0.990151/0.3216/0.416104/-0.904986/0.186831/-0.523433/0.30342/0.995397/-0.258125/0.643201/0.837765/-0.00368804/-1.01928/0.0990732/-1.02678/0.173838/0.440214/1.29039/0.0351804/-0.168974/-0.556425/-0.587889/0.635792/-0.0669381/0.571462/-0.886347/0.851246/0.898788/-0.0989762/-0.638412/-0.595478/-0.616563/0.779292/-0.294764/0.00725628/0.880787/1.11146/0.550088/0.353202/0.0472986/-0.675228/-1.35213/-0.19679/0.514709/-0.486919/-0.599163/-0.415774/-0.12283/-0.38086/0.322716/-0.142351/-0.41058/-0.487558/-0.074363/-0.358351/-0.812713/0.73351/-0.291133/-1.14499/0.039687/0.770246/0.817799/0.506622/0.0313662/0.0267928/-0.60484/-0.411537/-0.967036/-0.740015/-0.420093/0.562078/-0.883115/-0.876917/-0.585612/1.07456/1.2577/1.06773/0.218615/-0.970232/-0.245758/0.602703/0.873043/0.166127/0.097813/-0.0742996/0.402532/-0.404612/-0.487236/0.245275/0.131229/1.18188/1.5833/-0.468849/-0.078318/-0.0229716/0.4373/0.313189/-0.837959/0.334781/0.623446/-0.124151/0.290641/-0.212255/0.288601/0.375734/-0.49503/-0.21737/0.605946/-0.518569/-0.389732/-0.630064/0.513253/0.231923/0.231189/-0.303549/-0.479804/-0.390222/0.306306/0.385708/-0.427381/1.00321/-0.243822/-1.10531/-0.879732/-0.140459/0.675951/-0.857246/-0.417847/-0.444536/-0.450278/-0.72924/-0.260418/-0.0691952/0.420611/0.274249/-0.929116/-0.354388/-0.843705/0.0880575/-0.017756/-0.424246/-0.504837/-0.126251/0.338528/-0.338423/-0.974982/0.942434/-0.80368/-0.352685/0.899699/-0.313207/-0.685479/0.95473/-0.782216/-0.917074/0.91965/0.59485/-0.561404/-0.796475/-0.48368/-0.118458/-0.513586/-0.43066/0.0983476/0.764522/0.703299/0.340936/0.115221/0.515666/0.803993/0.70676/0.519395/-0.5321/0.996574/-0.477823/-0.249989/-0.400994/0.491044/0.983669/0.532627/-0.142781/0.28333/-0.0723981/-0.795064/-0.636239/0.726721/0.00671518/0.86195/0.796072/-0.417668/0.258282/0.9508/0.0880979/0.661338/-0.89038/-0.328232/
0.950588/0.530418/0.739755/-0.935322/0.0325872/-0.271868/0.913239/-0.633701/-0.550556/0.188881/0.793009/0.098957/-0.830772/0.553809/0.545218/0.422937/-0.88997/0.772484/-0.856727/0.989322/-0.460165/-0.000453702/0.374635/0.49687/0.889295/0.379415/0.823546/-0.657546/0.630664/-0.434351/-0.0375247/0.822488/0.389569/-0.236429/-0.673678/0.826776/-0.567416/0.0922907/-0.259153/-0.491087/0.589167/-0.543881/0.301913/-0.347752/0.00327678/-0.148097/0.190783/0.313887/-0.933011/0.657164/-0.250989/0.0852265/0.923789/0.484736/0.58513/0.517398/-0.0935436/-0.187094/-0.518915/0.401735/-0.605963/0.352294/-0.0519509/-0.241949/-0.0768521/-0.230305/0.292064/0.64953/0.239899/0.482375/-1.3066/0.507368/-1.43114/-0.711479/-1.01472/0.366465/-1.14961/0.225946/0.915539/-0.747232/0.13415/-0.941331/0.0945254/-0.233238/-0.0371404/-0.21799/-0.17002/0.171318/0.986414/0.6271/0.47609/-0.838624/-0.194301/-0.130243/0.224596/-0.296206/-0.351204/-0.760698/-1.20746/-1.16326/-0.969557/0.105836/-0.515607/-0.578038/-0.150051/0.601972/0.28558/-0.735583/0.158482/-0.232414/-0.818104/-0.0134905/-0.734371/-0.564718/-0.0493953/-0.121417/1.16503/1.1378/-0.0671235/-0.062781/0.687175/0.936147/-0.731835/-0.248642/-0.386599/-1.17709/-0.556268/-0.305652/0.0756058/-1.01537/-0.443815/-0.597494/-0.254067/-0.171946/-0.537178/-0.821857/0.553851/-0.459438/0.786873/0.582313/0.928393/-0.506587/-0.491712/0.356291/0.834592/0.533499/0.293176/-0.0708977/0.868006/-0.32129/-1.20129/0.539298/0.339139/-0.339932/0.608662/-0.212448/0.258654/0.601264/-0.216387/-0.793187/0.380919/-0.546052/0.0656418/0.639475/0.460674/-0.623729/0.118556/0.661366/-0.414255/-0.391062/0.866079/1.2021/0.648206/0.155693/0.330751/-0.591279/0.985469/0.232784/-0.0800313/-0.690967/-0.809844/-0.553804/0.000239117/-0.408739/0.24004/0.31149/0.266084/-0.93832/-1.00752/-1.01846/-0.249157/-0.539002/-0.0154198/0.95365/-0.323787/0.193405/0.56042/0.974354/0.920035/0.900714/0.906899/0.545967/0.559317/0.576813/0.961493/-0.0365499/-0.0671412/-0.306416/0.241238/0.0569314/0.626525/0.320351/-0.195369/-0.725279/-0.48693/-0.828535/0.169288/-0.592566/-0.884611/-0.252707/-0.436629/0.927623/-0.779835/0.124612/0.358085/0.341914/0.632688/0.450045/1.03981/-0.562375/0.514532/-0.585196/-0.56687/-0.95191/0.424839/-0.737577/0.474135/-0.450614/-0.301466/0.304068/-0.263708/-0.434427/0.0616628/0.168292/0.423304/-0.731702/0.452747/0.45748/0.373451/0.253577/-0.600908/0.0127801/0.795542/0.660122/0.992785/0.978512/0.706962/-0.67199/-0.219935/0.497209/0.743786/0.312472/0.205612/0.055507/-0.221758/0.0471696/0.168486/0.434269/0.815141/-0.454682/0.295844/-0.276252/-0.612545/0.492095/1.08043/-0.523201/0.133259/0.332324/0.159016/0.889621/-0.139294/0.868791/0.400762/-0.379799/-0.597685/0.611783/-0.718648/-0.116099/-0.766636/0.419062/-1.45741/0.642516/0.583808/0.913466/0.00999666/0.323601/1.27956/0.451237/0.0410656/0.695527/-0.482239/0.0157685/-0.529605/-0.317519/-0.0825815/0.142237/0.679791/0.931673/0.634131/-0.19349/0.24022/-0.0498178/-0.566149/-0.680513/0.000874342/0.348224/0.601371/0.84287/0.1601/-0.705808/1.09238/0.253361/0.893104/0.307119/-0.0243683/0.147144/0.175365/0.338551/-0.334545/-0.33544/0.561488/0.17767/0.274778/-1.33835/0.673012/-0.594072/-0.566522/0.427703/0.248225/0.712508/0.41319/0.508236/-0.620917/-0.442101/-0.839528/0.446934/0.451042/-0.301455/0.259239/-0.106006/0.12118/0.280617/-1.01203/0.386429/0.511283/-0.147164/-0.91767/0.618306/-0.63542/-0.0226988/0.260415/-0.755487/0.319467/-0.128455/-0.944399/-0.529179/-0.413446/0.360231/-0.0467/0.0347944/0.34919/-0.779991/0.729183/-0.473357/-0.135165/0.0966234/0.684606/-0.348701/-0.986327/-0.173837/0.352798/-0.226391/0.337352/0.101995/0.544225/1.10431/0.347971/-0.637855/-0.104748/-0.270471/-0.327833/0.450583/0.94398/-0.547006/-0.780227/-0.524479/0.744461/0.411488/-0.318416/0.450397/0.326894/-0.445663/1.356/0.455065/1.43387/0.162499/0.102532/-0.857148/0.617152/-0.960079/-0.610797/-1.10876/-0.684048/1.2049/-0.652169/0.133493/0.71732/0.344396/0.104128/-0.577315/-0.939242/0.122706/-0.0444332/-0.718151/-0.872787/-0.488563/0.200649/-0.521062/-0.501712/-0.518883/0.96149/-0.574243/0.0450761/0.609129/-0.546715/-0.462764/0.0161477/0.736482/-0.0680875/0.766902/-0.0743416/-0.16633/0.58857/0.122147/0.416562/0.19742/0.621322/-0.0823185/0.472263/-0.791525/-0.651356/-1.03791/-0.34714/0.477407/0.767025/0.132012/0.758319/0.580156/1.41963/0.894835/-0.360528/0.136335/-0.447588/0.123922/0.712016/0.300597/-0.651751/0.849171/0.161588/-0.198336/0.454186/-0.63785/1.08002/0.465661/0.0734656/-0.181712/-0.0735809/-0.793961/-0.0649037/-1.24487/0.291809/-0.3938/-0.453334/0.932915/0.565289/0.605057/-0.34464/-0.264956/0.112543/0.104361/-1.00814/-0.496446/0.218125/-0.812244/-0.331526/0.3511/0.120991/-0.473088/0.950615/0.923226/0.570895/-0.252204/0.00407819/-0.752554/-0.168821/0.51589/-1.36128/-0.570131/-1.12012/0.281068/0.00364328/-0.118467/0.102361/0.485872/0.000751641/0.312995/0.81647/0.191722/0.279033/-0.875454/0.0300718/-0.772705/-0.131897/-0.383828/0.47315/0.524211/0.878903/0.339806/1.12095/-0.449405/-0.0807497/-0.531978/-0.953052/0.014767/0.606837/-0.38116/-0.39262/0.316213/-0.753751/0.0925598/-0.330978/0.629035/0.100748/-0.694072/0.573333/-1.18028/0.170278/0.024288/0.0732502/-1.30889/1.18042/-0.135306/0.529025/-0.799191/0.536649/0.461274/-0.697066/0.788142/0.23103/-0.965544/0.0943805/0.210248/-1.20733/-0.804216/-0.247801/-0.356701/-0.13112/0.489548/0.446115/0.668746/0.909341/-0.779424/-0.0913168/-0.667266/-0.999819/-0.490726/0.0201597/0.379736/-0.565548/0.431741/-0.320707/0.793999/-0.910909/-0.169941/0.577484/0.642662/-0.230575/0.295746/0.595652/-0.863376/0.620727/-0.643706/0.278249/-0.75927/0.0551123/-0.943804/-0.363094/-0.428835/1.27826/0.541821/-1.28972/-0.771016/1.10165/-0.207803/-0.98391/-0.702542/0.15683/-0.704508/0.367587/-0.475922/-0.69608/-0.16732/-0.576959/0.826119/-0.581568/0.324355/-0.557574/0.933613/-1.0989/-0.175896/-1.0851/-0.29678/-0.820125/-1.22774/-0.0249437/-0.347339/0.335049/-0.676356/-0.701081/-0.117268/1.00848/1.04719/0.0995019/0.672607/-0.622831/0.614982/-0.913211/-0.767738/-0.392273/-0.237154/0.54051/0.640158/-0.590963/0.0874269/-0.61621/-0.609731/0.169636/0.484966/-0.00869514/-0.362486/-0.751767/-0.378621/-0.968179/0.333643/-0.586129/-0.691069/-0.38467/-0.629019/-0.550563/-0.140119/-0.624/-0.482271/0.596909/-0.173365/1.11026/-0.379274/0.565892/0.562174/0.956957/0.96046/0.0232122/0.590029/0.618172/-0.379737/0.0520134/-0.470904/-0.392193/-0.29809/0.9123/-0.418839/-0.373472/-0.133029/-0.377675/-0.0282532/0.790896/0.0537209/-1.15042/0.664369/-0.413079/-0.012684/0.0317946/-0.396645/-0.0144789/-0.422415/0.0798114/0.986118/-0.539029/-0.228796/0.729967/-0.608168/0.512203/0.599713/0.690346/0.586452/-0.12141/0.389378/0.34631/-0.79338/0.343358/-0.970078/-0.287195/0.416389/-0.469165/0.112836/-0.164146/-0.136002/0.500999/-0.915537/-0.207093/-0.302641/0.01701/0.0253649/0.992815/0.931432/-0.00791627/-0.713429/0.357854/0.0315829/0.813125/0.192696/-0.210086/0.501592/1.01563/-0.316831/-0.248508/0.889264/0.619667/-0.82271/-0.739318/-0.790416/0.56329/0.578937/0.552181/-0.246687/-0.319065/-0.744104/-0.517723/-0.805173/-0.951728/-0.755195/0.407263/0.422844/-0.826967/0.154446/0.862074/0.175295/0.17927/0.990668/0.152861/-0.870736/-0.454944/-0.248259/-0.486623/-0.530954/0.619462/0.965761/-0.450689/-0.731773/-0.910675/0.283344/0.157572/0.311303/0.0705481/-0.297802/0.839219/0.758681/-0.844925/-0.656827/0.703871/-0.0331461/0.913143/-0.807985/0.19535/-0.75386/0.706071/
-0.759101/-0.206743/-0.731819/0.322356/-0.158596/0.338446/-0.507146/-0.074407/0.128598/0.556174/-0.625842/-0.534104/-0.691417/0.267195/0.20126/-0.0288455/-0.805681/-0.938015/-0.313407/0.569931/0.834047/-0.173686/0.862589/-0.468169/-0.509085/-0.185839/0.600064/-0.71612/0.17351/0.185554/0.624542/0.367201/0.0276507/0.648501/0.313905/0.110985/-0.227174/0.542625/-0.577913/-0.752311/0.104266/0.149268/0.39354/0.20637/-0.45561/0.583757/-0.725585/-0.224437/-0.904113/-0.761072/-0.901941/-0.64017/0.591525/-0.318274/-0.440503/0.68373/-0.553623/-0.742213/0.0158629/-0.451041/-0.314819/-0.260287/-0.625403/0.159061/-0.540241/1.2051/0.734402/0.626899/0.109065/-0.543223/-0.689492/0.188799/-0.767739/-0.615654/0.570105/-0.656915/-0.824351/-0.926775/-0.465157/-0.440706/-0.576627/0.626251/0.719084/-0.418413/-0.26275/-0.0413726/-0.626554/0.276494/0.443296/-0.758346/0.802315/-0.226014/-0.620992/1.07886/-0.552432/-0.0755124/-1.28532/-1.40978/0.230422/-0.255172/-1.20981/-0.308065/0.522712/0.764527/0.516156/-0.523793/-0.299776/0.212149/-0.698437/0.854161/-0.669241/0.439875/0.971579/-0.685105/0.185434/0.251707/0.904245/-0.783745/0.783508/-0.322367/0.226672/0.128873/-0.779232/-0.297151/-0.75244/-0.726911/-0.896578/-0.539578/0.0184522/0.571836/0.135108/-1.27133/0.323689/-0.452651/-0.363426/-0.256615/0.488653/0.227788/0.249217/-0.239189/-0.0536159/0.876409/0.527495/0.525646/-0.358877/0.562821/-0.617005/0.51495/0.140155/0.544357/-0.472432/-0.794468/-0.593113/-0.159456/0.0115197/-1.2079/0.660936/0.156398/-1.13369/0.0448733/0.159453/-0.481387/0.513939/0.261271/0.262036/0.678951/-0.955931/-0.38651/-0.0672979/0.927475/-0.125834/-0.505308/-0.197204/0.0297591/1.1177/0.464818/-0.648784/0.0920313/0.673939/-0.985625/0.00553958/0.422017/-0.290359/0.0393925/-0.410902/-0.471397/0.633902/-0.528698/-0.0773888/0.30936/-0.636816/-0.344739/0.801841/0.834386/-0.00635883/0.802165/-0.0194559/-0.987151/-0.341238/1.25315/1.2153/-0.474793/-0.426442/-0.744931/0.621436/-0.678082/0.287597/0.708974/-0.579349/-0.281367/0.322941/-0.203025/0.920879/-0.364031/-0.0220625/-0.272736/0.0978586/0.853977/-0.0286457/0.0937972/-0.34954/0.211814/0.0304702/-0.160702/-0.911251/0.620589/-0.564693/1.1536/0.424851/0.474105/0.501116/-0.594919/0.492483/-0.854994/0.458325/-0.282957/-1.23203/-0.527953/0.710927/0.419436/0.274343/-1.18788/-0.168839/-0.000347003/0.838464/-0.538257/-0.857455/0.437899/-0.0775129/1.06622/-0.693464/0.627925/-0.470708/0.803645/0.225536/-0.931095/-0.116753/1.07972/0.655389/-0.266331/0.955463/0.123057/-0.722893/-0.773006/-1.25808/-0.551974/-1.06087/-0.978524/0.695285/-0.655914/-0.153575/0.794118/-0.327924/-1.09915/0.455007/0.446209/-0.440353/-0.146098/-0.485669/-0.0606054/-0.595361/-0.24734/0.341829/0.876537/0.185412/0.118332/0.63874/0.828539/-0.439172/-0.184077/1.37171/-0.589992/-0.00629311/-0.0134061/-0.642987/-0.0109511/-0.91547/-0.695722/-0.842431/0.237383/0.161475/0.162701/0.31149/0.58701/-0.542001/-0.0859148/0.987546/-0.689511/-0.606697/-0.774044/-0.682084/0.672269/-0.742035/0.231432/0.534682/-0.05661/-0.666303/0.859836/-0.0404449/0.268977/-0.702003/-0.662199/-0.276413/-0.274775/0.868982/-0.124714/1.10255/-0.999135/0.555348/-0.7745/0.451784/-0.71415/0.667554/-0.582263/0.797076/-0.768505/-0.264888/0.0102363/-1.11583/-0.367343/-0.308037/-0.17736/0.00923944/0.311111/0.587656/0.761589/0.531193/-0.900556/0.832433/-0.26966/0.19541/-0.868397/-0.505296/0.484561/-0.645301/0.0477379/-0.0549868/0.398463/0.48061/-0.591098/0.0442103/-1.01595/0.073251/0.917697/-0.265671/0.82201/-0.052261/0.639649/-0.409017/0.82739/0.45662/0.278579/-0.231161/-0.605027/0.314224/0.146769/0.316903/-0.136133/-0.785608/0.357815/0.732502/0.910378/-0.06434/0.155221/0.321726/-0.876886/-1.00379/0.079765/0.780412/-0.299759/0.489875/0.294738/-0.335117/-0.317581/-0.820427/-1.07/0.76714/0.312136/-0.17004/1.25336/-0.239671/0.328481/-0.379158/0.105954/-0.226954/-0.447286/-0.517387/0.777188/1.40533/0.120103/0.181516/-0.450469/-0.12509/-0.321914/-0.346758/0.763637/0.194557/1.11672/-0.0146106/0.741052/0.865749/0.636232/-0.344727/-1.19599/-0.256797/0.803854/-0.455775/0.905064/0.430296/0.106997/0.736011/0.93932/0.878467/1.09572/-0.761934/0.296293/-0.0478487/-0.0858995/-0.270784/-0.401799/0.384484/-0.447798/-0.834457/-0.311893/-0.847941/-0.631481/0.176533/-0.606218/-0.697845/-0.702522/0.167205/-0.0073359/-0.302156/0.337661/-0.236217/0.0796624/0.142299/-0.315174/-0.477157/0.972545/-0.979525/0.323674/0.814109/0.438058/-0.355229/0.42363/-1.05433/0.612578/0.751259/-1.09583/-0.0213084/0.374644/-0.972594/0.237569/-0.581936/0.613871/-0.665461/-0.422038/-0.99067/-1.07649/-0.422095/0.36601/0.324928/0.000499486/-0.801559/0.0586397/0.827966/-0.294217/-0.788556/-0.457897/-1.24244/0.396934/-0.823987/-0.819561/-0.16078/-0.826743/-0.490484/-0.316073/-1.12809/-0.290943/-1.0721/0.813752/0.71772/-0.603297/0.382459/-0.0529783/-0.771608/-0.823366/0.621735/-0.707187/-0.363494/0.15556/-0.785893/-1.20262/0.537984/0.501466/-0.163918/-1.54136/0.0459174/-1.14543/-1.57526/0.479816/0.537212/0.105806/0.295515/-1.00262/0.623429/-0.676731/-0.829564/-0.343953/0.72548/-0.101384/0.0372577/0.163653/-0.348567/-0.247448/-1.26878/-0.116426/-0.409536/0.738795/0.249728/0.471341/0.853721/-0.117328/0.183972/-0.280952/-0.0636477/-1.28222/-0.732368/-0.411828/-0.274426/0.840264/-0.537052/-0.803626/-0.501794/-0.873411/-0.977697/-0.194757/-0.136991/0.360559/-0.0771332/-0.402402/0.25198/-0.583371/0.543159/0.395476/-0.100031/0.364427/0.355158/-0.856071/0.037988/0.0731409/-0.0387601/-0.0529273/-0.00167137/1.00761/-0.356991/-0.352574/0.164761/0.315054/1.4048/1.00706/-0.650381/0.406116/0.138799/0.0111563/-0.60781/-0.393136/0.564579/0.886848/-0.110965/-0.793992/-0.442656/0.116179/0.627969/0.0197205/0.119247/0.819273/0.317802/-0.0625763/-0.974653/0.342998/0.704539/-0.30935/-0.373644/-0.149617/0.847843/0.357754/-0.0664173/-0.112924/-1.01164/0.160717/-0.070737/-0.839055/0.665369/0.825145/0.204463/0.391843/-0.26499/-0.520726/0.0471405/-0.218092/0.808924/1.02885/0.0735316/-0.451592/0.320176/-0.705336/-0.802117/0.483725/1.07219/1.32961/0.776487/0.528057/0.113092/-0.928047/0.0126266/0.573249/0.187872/0.834734/-0.96978/-1.12822/0.415003/0.0214086/-0.186046/-0.886001/-0.889342/-0.4934/-0.748834/-0.939593/1.16902/-0.113838/-0.395227/-0.775698/-0.218943/0.102205/0.638742/0.826685/-0.183474/0.580567/0.0624455/0.819035/0.162605/0.157327/0.0475207/-0.0532218/-0.264748/1.00451/-0.91246/-0.637057/0.2055/-0.547383/0.135501/-0.655367/-0.155128/-0.44076/0.258152/0.307025/0.368571/-1.01181/-0.406308/0.328138/0.967893/0.231107/0.39103/0.92049/0.490811/0.960934/-0.43573/-0.189011/0.693976/0.958367/0.387711/0.435039/-0.72051/0.167533/0.158779/0.458906/-0.42522/-0.225502/-0.00500479/-0.103919/-0.365156/0.996922/-0.873967/-0.356615/0.605246/1.07266/0.0535692/-0.601701/-0.802881/0.884048/0.023524/0.0363016/-0.0169618/-0.259991/0.269531/-1.17034/0.0288259/-0.325317/-0.0828055/0.624313/0.0105979/0.0783553/-0.390673/0.088671/0.722658/-0.251939/-0.332046/-0.693254/0.733243/1.00089/-0.763927/-0.419094/-0.952619/0.185316/0.749016/0.268297/-0.792325/0.638934/0.845444/0.973168/0.518318/-0.592873/0.676206/-0.663797/0.998282/0.324718/-0.294059/0.548422/-0.536257/0.119196/0.11166/-0.368164/-0.821828/0.111465/-0.602499/-0.202127/0.859479/-0.733743/-0.0105195/-0.800992/-0.274638/0.150582/0.510847/-0.253682/0.361113/-0.780158/-0.113831/0.849771/0.105602/0.848125/0.44186/0.33298/0.399182/-0.949927/0.569377/-0.482494/0.717157/-0.735373/0.580189/-0.759569/-0.0770809/0.500744/0.466611/
-0.985183/0.0234555/0.216638/-0.966052/-0.439376/-0.134489/-0.642704/0.844786/0.821892/0.552715/-0.13542/-0.0113557/-0.854747/-0.839304/0.234528/0.855139/-0.957873/0.387168/-0.13887/0.018195/-0.19604/-0.841939/-0.463394/-0.265634/-0.505519/-0.255683/0.740486/-0.651992/-0.0353905/-0.80809/-0.852033/0.904101/-0.481013/-0.232694/-0.621625/0.245755/0.968866/-0.591643/0.179708/-0.0658183/-0.64046/-0.270042/-1.02638/0.46971/-0.350041/-0.810003/-0.0449681/0.401829/0.935342/-0.552475/0.288131/-0.646576/0.808183/0.633202/0.697489/-0.507704/-0.979465/0.135321/-0.0972588/-0.531207/-0.0262989/-0.206686/0.7174/-0.848953/-0.116179/0.925343/0.186023/0.424236/-0.962793/0.93704/-0.799401/-0.187625/0.269977/0.945494/0.177059/1.07713/-0.0792802/0.565907/-1.28857/0.546469/0.691585/-0.846076/-0.779958/-0.293151/-0.983742/0.254756/0.309571/0.471536/0.165571/-0.645866/0.218075/0.15806/-0.733482/-0.454098/0.76943/0.166864/0.805992/-0.198062/1.28851/1.45365/-0.405827/0.273329/-0.623979/0.424478/-0.208523/0.256111/0.153875/0.208904/0.386203/-0.0256055/0.653747/0.626565/0.68567/0.0471075/-0.210472/0.131991/-0.204344/0.389935/0.551343/-0.388986/0.768044/0.498703/0.527853/0.242073/0.0424311/0.711789/-0.67634/-0.653209/0.649209/0.167985/-0.0783433/-0.300886/0.53556/-0.969216/-0.25933/0.0808301/0.0503785/-0.481873/0.246531/-0.0356012/-0.350137/-0.767087/-0.147123/-0.485897/-0.274285/0.157714/0.960206/-0.167388/0.694868/-0.755808/-0.74358/0.428939/0.364773/-0.128572/0.501247/-0.75932/-0.924024/-0.150672/0.846191/-0.349201/0.386228/0.0772334/-0.340902/0.000547028/-0.699722/-0.341564/-0.292777/-0.239098/-0.517268/0.260272/0.792572/-0.732987/-0.191133/-0.534141/0.714088/0.0839754/0.334431/0.564352/0.750159/1.42667/-0.273279/0.384714/-1.52172/-1.69326/-0.425098/-0.241384/-0.494075/0.0476418/1.30127/0.724557/-0.700639/0.100653/-0.128856/0.983726/0.163032/0.521465/0.270449/-0.543123/-0.57875/-0.309499/-0.00190843/-0.49694/0.789832/-0.292469/0.523597/0.789129/-0.207735/1.21087/1.13128/-1.00538/0.382759/0.0964944/-0.313716/0.665368/-0.309353/-0.679793/0.399997/-0.53509/-1.00826/-0.747381/0.456114/-0.0725451/-0.850543/0.831635/-0.711101/0.521815/0.88421/0.313228/0.0256097/0.921419/-0.97161/0.392723/0.582311/1.16354/-0.302881/0.174122/-0.319844/0.872784/0.0679719/-0.584661/-0.793741/0.130275/0.0346244/0.137102/-0.314315/0.197982/0.0140198/-0.384249/-0.76538/-0.331798/0.945233/0.368744/-0.526299/0.505529/-0.664862/0.540417/-0.267784/0.414175/-0.929912/-0.42297/0.530312/0.846035/0.492817/-0.0395423/0.804312/-0.414371/-0.365024/-0.946277/-1.04166/-0.153288/-0.501412/0.138099/0.115239/-1.01765/0.115334/0.394352/0.35539/0.452391/0.475036/-0.531531/0.557038/0.128861/0.430114/0.819265/0.897218/0.67443/0.551686/0.500676/0.413079/1.0853/0.183043/1.12898/-0.869479/-0.221061/-1.07284/-0.0765635/-0.757833/0.0990343/-0.341464/-0.0144932/-1.26179/-0.0388256/-0.420743/-0.0625938/0.585951/-0.939168/0.596815/-0.17635/0.0852225/0.322547/-0.212295/-0.532535/0.821015/-0.244102/-0.53686/-0.0122746/1.17288/1.16109/0.151447/0.181998/0.656129/-0.660246/-0.906754/0.0697929/-0.845931/-1.16768/-0.4098/0.235228/0.344193/-0.172312/0.595676/-0.67027/-0.255779/0.047285/0.151275/0.607178/0.838182/-0.663139/0.173326/0.764356/-0.681179/0.339769/0.883204/-0.0234649/0.181675/-0.231908/0.450509/1.16642/0.735084/0.143936/-0.649966/-0.792483/-0.74322/-0.0619108/-0.706239/0.0355045/-0.709675/-0.812613/-0.657654/0.295968/0.522446/-0.113135/-0.133199/-0.230084/0.971093/-0.837876/-0.587282/-1.06737/-0.695606/-0.134567/1.04318/0.166278/0.827128/1.0609/-0.317715/1.09144/-0.821231/-0.832631/0.914594/0.422764/0.737868/0.604623/-0.970259/0.048609/1.01712/0.0308193/0.466187/-1.02547/-0.377914/-0.0998726/0.135484/0.735729/-0.610438/0.370314/0.186445/-0.210384/0.742655/-0.836732/0.555708/0.688104/1.27122/0.131453/0.214667/0.507986/-0.614281/-0.650495/0.711434/-0.00452518/-0.672494/0.505341/0.460188/-0.28537/0.656704/-0.983407/-0.23517/0.205327/-0.127095/-0.394952/-0.742333/0.845943/-0.240944/0.465327/-0.820278/-0.335201/0.452067/0.280018/0.975064/-0.203946/0.170975/1.39876/0.342663/-0.499399/0.138819/0.133228/-0.893114/0.334129/-0.540823/-0.43579/1.05389/0.562486/-0.48816/-0.468938/-0.516829/-0.61986/-0.434905/0.803779/0.59962/-0.930002/-0.54346/0.0718488/-0.313012/-0.361978/-0.0709841/-0.379717/-0.101742/0.31403/-0.0905366/1.13362/0.796135/-0.0898093/0.754529/0.457881/-0.3146/-0.451467/0.196772/-1.12087/0.129214/-0.331519/-0.927436/0.670899/0.608886/-0.00721885/0.434818/-0.455611/0.854561/0.766747/-0.39789/0.652644/-0.240883/-0.312608/0.676553/0.533761/0.446908/-0.0794573/1.11029/0.156359/0.905148/0.448223/0.336874/-0.873268/0.803488/-0.0945675/-0.711877/-0.159603/0.32367/0.814019/0.317075/0.048147/0.054199/-0.975213/0.0516203/-0.110873/-0.200329/-0.566569/-0.322902/0.963965/0.814527/-0.825235/-0.0514501/0.628954/-0.208925/0.908609/1.06685/0.925594/-0.262157/-0.527999/0.577481/-1.1932/-0.927208/-0.958293/0.303298/-0.833348/1.42186/0.743725/0.185469/-0.196502/-1.10647/0.870006/-0.0114762/-0.291876/-0.829514/0.723935/-0.81828/-0.817423/1.02182/0.510377/0.00843532/0.990247/-0.7238/0.421938/-0.297037/0.431686/0.834267/0.00764915/-0.709428/0.77537/-0.0102415/-1.29663/0.795373/-0.16236/0.20717/-0.0788902/-1.15382/-0.481358/0.707849/-0.613083/0.687565/-0.919221/-0.847707/0.00191249/0.143219/-0.916993/0.0384767/0.300851/0.206617/-0.272067/-0.32925/0.841247/0.430702/0.331598/0.022656/0.57386/-0.13527/0.1485/-1.03033/0.297836/0.265874/0.733047/0.422467/0.249578/0.00820708/-0.0996369/-0.533168/0.707417/-1.21372/0.0388123/-0.454192/0.988839/-0.585439/0.615663/0.870194/-0.364423/0.00489922/0.586495/-0.243107/-0.0725411/0.783155/1.04915/-0.865348/1.14658/0.738012/-0.803201/-0.0897812/0.508494/-0.319297/-0.23497/0.358851/0.146147/0.2099/0.0579746/0.000142933/-0.100673/0.0248692/0.540068/0.981673/0.898902/-0.160756/0.300372/0.115855/0.169715/0.183586/-1.02064/-0.106624/0.33508/-0.1901/0.583873/0.661524/1.03046/-0.339809/0.757896/-0.183114/0.107122/0.834754/-0.134726/0.415827/-0.844793/-0.401193/0.183342/0.403154/-0.397001/-0.526118/-0.310225/-0.696896/0.148662/0.568253/0.631865/0.294345/-0.551403/0.0306195/-1.0521/-0.479136/0.252728/0.0722765/-0.777598/0.735057/0.0628202/-0.119557/1.01787/0.142195/0.072449/-0.334634/-0.110873/1.27543/0.304547/0.410957/0.662161/-1.02227/-1.11382/0.31254/-0.651312/-0.179333/0.597287/0.602687/-0.645775/-0.305998/0.159094/0.670998/-0.978845/0.124635/-0.657453/0.217301/0.910515/0.623504/0.567486/0.0819869/-0.944356/0.52386/0.454463/-0.188944/0.90566/0.157516/-0.278663/-0.806108/-0.622785/0.350957/-0.455466/0.728512/-0.890209/-0.455421/-0.0979797/-0.744141/-0.7752/-0.0213859/0.574478/-0.419558/0.864555/0.859758/0.345872/-0.366627/0.339877/-0.547714/0.189543/-0.274658/-0.961883/0.481696/0.182186/0.0238578/0.935884/0.442522/0.570124/0.142985/-0.346923/-0.964024/0.359491/-1.10871/-1.02493/-0.637586/-0.798236/0.052803/-0.539882/-0.316089/-0.830246/0.908656/-0.848814/0.0103308/-0.615279/-0.0441918/-0.28016/0.181158/-0.310722/-0.00259015/-0.657641/-0.414579/0.950465/-0.932901/-0.061291/0.69955/-0.568592/0.0710773/-0.369597/0.704905/0.523743/-0.309506/0.525082/0.376226/0.0821161/0.124816/-0.216955/-0.360982/0.980416/-0.141638/-0.503121/0.0402797/0.117535/0.426656/-0.491845/-0.44587/0.265686/-0.616769/-0.0444526/0.885188/-0.653013/0.815532/0.642876/0.811234/0.410199/0.212421/0.160743/-0.397853/-0.714695/0.125769/-0.201495/-0.534366/0.909069/0.568515/
-0.397912/0.295692/-0.301391/0.527934/0.991452/0.625148/0.208519/1.00155/0.565974/-0.614809/0.350014/0.687362/0.500196/-0.0362999/-0.507849/0.55517/0.912003/0.192759/-0.717491/-0.874991/0.0302292/0.0619323/0.895411/-0.825952/0.221983/0.863872/-0.911201/-0.562348/0.624825/-0.559323/0.426985/-0.204618/-0.023036/0.965568/-0.262994/0.00317767/-0.492142/-0.245453/0.64261/-0.760186/-0.715101/0.648144/0.444411/-0.00282086/0.941508/0.763536/0.375637/-0.394811/0.927221/-0.682741/-0.490678/0.767727/-0.508606/0.787569/0.790722/-0.63633/-0.792565/-0.636566/-0.293112/-0.215297/0.714145/-0.942922/0.373811/-0.0673662/0.744805/0.646369/0.30697/-0.344949/0.148909/-0.577893/0.69113/0.385281/-0.583824/0.326516/-0.99919/-0.588399/-0.111991/-0.500727/-0.519853/-0.942695/-0.795995/-0.98133/-0.167081/-0.260766/-0.69202/-0.782883/-0.18166/0.498685/-0.569681/0.177623/-0.804738/0.571585/-0.0234108/-0.425695/-0.365355/-0.0625598/-0.788235/-0.963074/-1.41169/-0.217435/0.284286/-0.896822/-0.714877/0.328705/0.561107/-0.112356/0.656276/-0.323899/-0.153114/0.271219/-0.283729/-0.999512/-0.794694/-0.424227/-0.84903/0.0031805/-0.414974/-0.52451/-0.739965/0.96097/-0.13619/0.0723245/-0.478362/0.298736/-0.617575/-1.57549/-1.3085/0.174231/0.0389925/0.0401838/1.18316/-0.0181468/1.0164/-0.026338/0.985532/-0.172784/-0.345473/0.505604/0.640898/-0.589385/0.213711/-0.160453/-0.276228/-1.03162/-0.656044/-0.412828/0.51144/-0.0788772/1.28228/-0.303097/0.267072/0.367584/-1.5446/-0.0649617/-1.45744/0.615739/0.811023/0.533775/0.625592/-0.103872/-1.12038/0.275183/0.0254436/0.133276/0.153927/0.237562/0.869212/0.146045/0.581663/0.010665/-0.876197/-0.350652/-0.289872/0.0158173/0.80929/1.15264/0.586543/-0.725063/-0.0340121/-0.719153/0.0867175/0.82484/-0.547434/0.727368/0.734557/0.0272297/0.0810958/0.530213/-0.812728/-0.44276/0.340591/-0.31643/-0.354053/0.318049/0.977848/-0.070035/0.921381/-0.356199/-0.182594/-0.20593/0.622151/0.113349/0.739369/0.589066/-0.00388075/0.436777/-0.902225/-0.417612/0.184456/0.291205/0.455305/0.470902/0.662587/0.537224/0.0213284/1.14514/-0.342173/0.0474945/-0.608553/-1.27037/-0.564271/0.246792/0.397223/0.484482/0.689011/0.182942/0.0109626/0.252516/0.0596974/-0.420007/0.0776164/-0.411139/0.966142/-0.0834084/-0.560219/-0.308604/1.25888/1.48029/-0.199973/-0.174803/-0.63328/-0.461447/0.581641/-0.628163/0.980739/0.876969/-0.00033535/-0.87284/0.386246/-0.776869/0.0337252/-0.258256/-0.511286/0.80747/0.681947/-0.0369361/-0.204533/-0.755889/-0.432851/1.2334/0.69498/0.145444/1.1249/1.07355/0.745496/1.02326/0.654813/0.104096/0.121247/-0.932569/-0.467966/-0.509638/0.990481/0.615189/0.769832/0.359394/0.576574/0.192546/0.588217/0.406449/-0.804988/0.565988/-0.489624/0.954353/-0.540306/0.590768/-0.83008/-0.911317/0.776759/0.0274941/1.03926/-0.310953/0.9195/1.16647/-1.05063/-1.21746/0.218634/-1.15828/-0.4293/-0.47628/-0.45187/-0.256737/0.854741/0.645984/1.03341/-0.57881/1.03411/0.95673/-0.240397/-0.361089/0.780734/0.421566/0.767303/-1.07854/-0.107333/0.671763/-0.522952/-0.355772/0.0307141/-0.251693/0.975779/-0.0989807/-1.42322/-0.0228235/-0.528812/-0.335522/0.614919/-0.973798/0.605292/-0.102255/-0.334362/-0.0618301/-0.346027/-0.9635/0.885139/-0.570131/-0.197429/-0.135568/-0.126423/-0.756304/-0.328418/0.444398/0.103467/0.647543/0.428492/0.163335/-0.0166137/0.820076/0.416001/-0.170351/0.488476/-0.652309/0.064703/-0.480683/-0.327355/-0.972853/-0.510121/-0.179052/1.07654/0.464892/-0.40724/-0.527944/0.877893/0.559361/-0.82596/0.155279/0.523118/-0.0259731/0.359427/0.359847/-0.586781/0.899026/0.537871/-0.377081/-0.0932718/0.393061/-0.536284/-0.383654/-0.280467/-0.740119/0.371469/-0.0176188/-0.32342/0.0110764/0.581906/0.871339/-0.527727/0.0683999/-1.24125/-0.864799/-0.505064/0.309156/-0.0100472/-0.887487/0.293014/-0.796887/-0.163733/0.165242/0.831577/0.159201/1.28409/-0.0937092/0.975095/-0.600163/0.164985/-0.82204/0.473105/-0.887955/-1.36108/-0.309308/-0.745544/-0.305788/0.695353/-0.349014/0.360468/-0.000783815/0.375352/-0.140926/-0.0255576/-0.532277/0.0241564/-0.0133734/-0.228911/0.246272/-0.388309/-1.02834/-0.686551/-0.29615/-0.0832441/-0.978726/0.640573/-1.04939/-0.849558/-0.453829/0.304514/0.588834/-0.813709/0.21896/-0.999738/-0.52281/-0.757553/-0.259764/0.497079/0.75781/-0.221744/-0.829128/-0.853441/0.230669/0.859139/-0.460818/-1.08509/-0.268899/-0.129045/-0.045823/-0.509097/-0.759835/0.552735/0.703683/0.255207/0.563051/-0.206269/0.234097/-0.79178/-0.282826/-0.45483/0.344644/0.0456762/0.669724/0.406224/-0.37203/-0.131284/0.0828011/0.00876312/-0.620073/-0.589973/-0.362322/0.442617/-0.96853/-1.16401/-0.972892/1.03082/0.485821/0.335816/-0.745128/1.04574/0.375763/-0.781524/0.0499659/0.69095/0.336487/-0.258108/-0.357713/-0.074449/-0.548324/0.116806/0.286576/0.396537/0.902731/0.556243/-1.10909/-0.216055/-0.054263/-0.101089/0.858067/-0.465298/-0.29118/-0.038129/-1.22317/-0.302842/0.0608042/0.329338/0.491127/0.715627/0.221612/0.55112/1.07212/-0.517728/1.03392/1.41657/-0.255909/-0.403322/-0.994663/-1.0534/-0.219732/0.926026/-0.0484363/-0.713303/-0.486617/-0.711487/-1.07664/-0.068371/0.326511/-0.32917/-0.370131/-0.698639/-0.13086/0.837632/0.118784/0.204824/0.370431/-0.00315794/0.0640484/0.366581/1.14594/-0.730005/0.887324/-0.131032/0.674886/0.049322/-0.76625/-0.314286/0.653147/-1.16748/0.582231/-0.697854/0.193665/-0.598481/-0.604168/0.567125/0.73445/-0.105358/-0.764728/-0.493085/-1.45721/-0.51133/-0.0768076/-0.0504525/0.27007/1.19768/0.355489/-0.834409/0.461392/-0.717077/0.468827/-0.549174/-0.430958/0.357995/-0.584793/-0.842902/0.539867/-0.249003/-0.353277/0.828446/-1.0144/0.588986/-0.443573/0.0781742/-0.582118/0.341448/0.689337/0.315323/-1.55234/0.547456/0.922588/-0.797756/0.530573/-0.194405/0.829424/-0.800059/0.128362/0.613368/-0.153116/-1.06703/-0.250872/0.302287/-0.651847/0.48321/-0.778495/0.523622/-1.06294/-0.697967/-0.405497/0.500197/0.318359/0.617422/-0.626756/0.113549/0.420655/-1.05509/-0.51509/0.186119/0.870708/-0.441014/0.551976/0.312493/0.225498/-0.867693/-0.0511589/0.445445/0.153/0.603971/-0.679622/0.656591/-0.36648/-0.308834/-0.0861154/0.365004/0.502496/-0.19547/-0.708464/-0.296918/0.614163/0.520787/0.181914/-0.570832/0.0353783/0.424707/-1.05828/-0.16293/0.340534/-0.613466/-0.527046/0.684877/0.546458/0.296178/-0.0394398/-0.589729/0.357838/0.256608/-0.648889/0.143984/-0.270942/-0.301357/0.897092/0.850531/-0.470474/0.0749836/-0.199616/-0.877118/-1.09916/0.300315/-0.876685/-0.442932/-0.352656/0.560823/-0.587487/0.449606/-0.107865/-0.147313/-0.0453719/0.502475/-0.385691/-0.875432/-0.041081/-0.026402/-0.126794/0.666691/0.614661/0.780497/0.862534/0.0865319/0.430528/-0.603899/1.01544/-0.789644/-0.626334/-0.113857/-0.125605/0.386853/-0.839815/-0.772912/-0.322356/-0.127835/-0.52567/-0.483616/-0.374099/0.745216/0.302291/-1.05326/-0.255881/0.500405/0.779675/-1.13992/0.754706/-0.839272/-0.378077/-0.855281/-0.313842/0.385264/-0.399201/0.612513/0.703397/-0.25087/-0.280963/0.781051/0.194805/-0.874958/0.929752/0.336348/-0.994673/0.150596/-0.323582/-0.622519/-0.761459/0.924929/0.0829637/0.682112/-0.378203/-0.07735/0.716724/0.74831/-0.609433/-0.193093/0.848197/-0.943231/0.660384/0.0265793/0.495157/0.56792/0.532563/-0.507715/0.176732/-0.686477/0.734727/0.967762/-0.828497/-0.552381/0.131949/-0.328811/-0.331764/0.0411971/0.40043/0.0300028/-0.289152/0.525702/-0.551/-0.650594/-0.535715/0.237689/0.845757/0.638386/-0.654563/0.761877/0.870734/0.42907/-0.615669/0.4553/0.225742/0.0506429/-0.844831/0.921188/0.405019/-0.843243/-0.378058/-0.393313/
0.498171/0.758018/0.00240475/0.416615/0.0526081/0.0256842/-0.795804/-0.2883/-0.953665/0.877467/0.337398/0.647869/0.730739/0.704953/0.729133/0.163837/0.868753/0.377828/0.0207135/0.132127/0.657606/0.383587/0.942462/-0.0476299/-0.516509/-0.969001/-0.00182286/-0.636878/-0.0108694/-0.681702/0.490876/-0.182179/-0.286345/-0.515285/0.843172/-0.0315067/0.339474/0.959004/-0.206255/0.166132/0.0587945/0.630625/0.938926/0.0216691/0.878934/-0.738893/0.409382/-0.461856/-0.55563/-0.89032/0.27317/0.602545/-0.12231/0.914393/0.796729/-0.0183475/-0.366486/0.47253/0.594532/0.0176238/0.735428/-0.0331757/-0.405579/-0.553276/-0.224521/0.154606/0.00741032/0.724019/0.0928811/0.484554/-0.130192/-0.0801562/-0.1807/0.278344/-0.305765/0.684393/0.616349/-0.104887/-0.821111/0.0929656/0.618202/0.698504/0.729399/0.161464/-0.267309/-0.671773/0.558103/0.110677/0.19559/0.0665174/-0.587375/-0.948135/-0.718833/0.669142/0.939688/0.73478/0.159087/-0.124314/0.53527/-0.391633/0.68645/0.0813026/0.718529/-1.08268/-0.363786/0.603324/-0.218869/0.387772/-0.943331/0.573772/0.807796/0.957196/-0.406922/0.864576/0.246206/-0.724259/-0.000538385/-1.16696/-1.17147/-0.848899/0.0144589/0.911821/0.507839/0.0198053/1.32824/-0.0407538/0.142476/0.0667516/0.643895/0.495857/0.142287/0.0335674/-0.572044/-0.135313/1.04823/-0.951348/-1.34259/0.103495/-0.747095/0.150585/0.886838/-0.92603/-0.84583/-0.342615/-0.911958/-0.155605/-0.234313/0.100073/-1.59821/0.915535/0.602224/0.854412/0.0647742/0.968966/0.284428/0.00709076/0.326822/-0.886817/-0.00202762/-0.565725/0.54979/0.849502/0.0473658/0.106038/0.263383/0.130079/0.0415917/0.948314/0.314836/-0.533212/0.188588/-0.914136/0.636461/-0.687346/-0.100054/-0.882801/-0.0555456/0.879877/0.00129141/-0.789687/0.335098/-0.333107/-0.191115/0.538094/-0.0138083/-0.511321/0.886667/-0.373211/0.683164/0.0534233/-0.542001/0.340014/0.159951/0.679587/-0.408521/0.727762/-0.509896/0.232122/-0.502561/-0.632317/-0.863683/-0.400237/-0.747355/-0.383985/0.557333/-0.604706/-0.212367/0.92136/1.01578/0.412239/1.0849/-0.333313/1.38522/0.892116/0.72438/-0.423504/-0.0571371/-0.63632/0.86161/0.205647/-0.569175/0.680575/0.196917/-0.43164/-0.565463/0.305416/0.445603/-0.345492/-0.194975/-0.207083/-0.173921/-0.899898/-0.82535/0.823317/0.823246/0.327008/0.513273/0.422062/-0.0942903/-0.587365/-0.249373/0.185817/-0.585188/0.817967/1.23664/1.06333/-0.448036/0.399383/0.443515/-0.111803/0.883498/-0.327168/-0.71221/-0.0827459/0.25277/-0.733027/-0.999704/-0.834967/-1.38366/0.233317/0.0941172/0.716993/0.180691/0.682018/-0.12691/-0.787475/-0.848179/0.458132/-1.25298/-0.689448/0.554631/1.132/-0.672148/0.0822209/-0.879731/0.522736/0.398402/-0.543194/0.0209123/-0.375109/-0.459293/0.683783/0.87138/-0.421093/-0.676218/-0.968411/-0.867643/-0.636252/-0.702913/-0.275873/-0.646729/0.72114/0.205256/-0.764378/0.788958/0.335669/0.369601/-0.853415/-0.303461/-0.285554/1.17377/0.722926/0.798132/0.563534/-0.885321/0.320906/-0.202915/-0.44417/0.826737/0.98806/-0.262351/-0.843389/-0.338801/-0.119606/-0.352827/-0.0684401/-0.828906/0.373025/0.27851/0.489333/-0.943592/-0.837485/-0.552889/-0.304703/0.474446/-0.594326/-0.0415697/0.554484/0.828522/1.5246/0.432383/-0.255703/-0.592303/-0.40895/-0.591779/-0.604523/-0.221053/0.764546/-0.935194/0.285909/0.0793843/-0.30528/-1.50832/-0.885597/-0.0191183/-0.88347/0.497672/-0.569689/0.950255/-0.466193/0.658396/-0.513632/-1.19362/0.205484/0.0528981/-0.910269/0.896316/0.125765/1.24692/1.03118/0.820385/0.221125/0.251198/0.532523/0.114396/0.657632/-0.804915/-0.27668/-0.812182/-0.540273/-0.0806723/-0.981759/0.951148/0.276002/-0.792447/-0.205983/0.00248261/-0.0417367/-0.2561/0.6636/-0.870091/-0.0830718/-1.04531/-0.852395/-0.299512/-0.649113/0.25698/0.611142/0.327686/1.13802/-0.408851/-0.499082/-0.0632341/-0.752603/1.09877/-0.722285/0.235345/-1.17709/-0.101696/-0.242788/0.0745805/-0.623979/-0.436795/0.793697/0.934399/-0.174805/0.185252/-0.109232/0.735324/-0.478884/-0.781624/-0.343428/-0.692998/-0.637457/-0.118888/0.836994/0.611949/0.548425/0.487739/0.703874/0.00344998/-0.0113017/0.704284/0.743149/0.319915/-0.492849/-0.960772/0.150474/-0.135255/0.825483/-0.656391/-0.50998/-0.773765/-0.626446/-0.3653/-0.961074/-0.325372/-0.164662/-0.189145/0.205989/0.18685/-0.458007/-1.05448/-0.217579/0.606113/0.889992/0.87025/-0.448618/0.0755815/0.239344/0.155593/-0.541017/-0.341236/-1.23228/-0.511532/-1.03523/1.02936/-0.432157/0.864307/1.24573/-0.520354/0.302775/0.579726/-0.956873/-0.023798/-0.493083/-0.442191/-1.11865/-0.615499/0.527259/-0.956694/-0.0129807/-0.360841/-0.314857/-0.934292/-0.16587/0.049787/0.631626/-0.0806098/0.426264/-0.225736/0.152993/-0.326613/-0.921067/-0.0898724/-0.547622/0.78067/0.258941/1.1605/0.635873/-0.0518281/-0.887724/0.057327/-0.369359/-0.683193/-0.745145/-0.450894/0.848845/0.205969/0.658764/-0.0958225/-0.45342/-0.640064/0.291972/-0.822091/-0.952097/0.0726178/0.266621/-0.259936/0.353514/-0.337088/0.173864/0.76224/-0.0509477/0.0579344/1.27914/-0.180191/0.351316/0.222766/-1.00895/-0.604404/-0.141715/-0.152937/0.864847/-0.27646/-0.39146/-1.21679/0.225815/0.134093/-0.132131/0.0314753/0.735817/0.877918/-0.861723/-0.690738/0.172843/0.277051/-0.847515/0.981288/-1.25743/-0.217678/-0.260499/0.00460106/0.358856/0.0505409/0.349172/-0.35993/0.0513956/-1.0776/0.564812/-0.798224/1.0693/0.658173/-0.0313756/-0.213818/-0.601634/-0.589357/0.863919/0.363354/-0.077159/-0.811253/-0.765164/0.770876/0.328851/-0.350029/-0.938997/-0.92823/0.069533/-0.555932/0.553444/-0.766263/0.866683/0.43335/0.409292/1.38057/-0.0697992/0.363609/0.158582/-0.0623434/-0.691994/-0.714516/0.710253/0.720932/0.384015/-0.43715/0.307366/0.620702/0.0773154/-0.559698/-0.861179/-0.228898/-0.457966/-0.328421/-0.292096/0.235786/-1.01053/-0.790013/-0.371385/-0.552747/0.906099/-0.890759/-0.81462/0.469/1.25689/0.0951274/0.0522987/-0.31533/0.550579/-0.712889/-0.785167/-0.747766/-0.514814/0.280528/0.424562/0.326006/-0.311662/-0.10435/0.17783/-0.442252/-0.451525/-0.156658/0.506182/0.0287609/-0.307041/0.179547/0.406407/-0.185833/0.666902/0.752976/-0.79217/-0.0379805/0.316773/-0.147611/-0.506537/0.0707425/-0.622095/-0.566996/0.552727/-1.22447/-0.87099/-0.494713/0.708172/0.659964/-0.25656/-0.00331366/0.290932/-0.137876/-0.329057/-0.721233/-0.198952/-0.389837/-0.0642466/0.781113/0.102265/0.228622/0.544294/-0.241002/0.814213/1.43288/0.0980048/0.437571/0.535261/-0.135544/-0.621799/-0.35415/-0.918309/-0.0188005/-0.621394/0.360809/0.110811/-0.363189/-0.461753/-0.683693/-0.863065/-0.0816905/-0.207206/0.279595/0.718967/-1.08027/-0.120017/-0.504164/0.309439/0.0679035/-0.66249/1.07241/-0.577941/0.864264/0.661214/-0.0284806/-0.325959/-0.377531/0.307419/-0.246174/-0.020755/-0.506545/-0.211491/0.37471/-0.0956393/-0.967198/0.425632/-0.400837/-0.911711/0.25118/-0.571984/0.778891/1.00263/-0.480152/-0.352715/0.755952/-0.0810038/-0.474213/-0.94204/-0.705627/0.744724/-0.278112/0.785991/0.815202/1.07575/0.148502/0.0812184/0.843803/-0.782852/0.207129/-0.518973/-1.01199/-0.782694/-0.160685/-0.958954/0.865336/-0.300901/-0.708486/-0.0120209/-0.873257/0.738465/0.92353/0.339957/0.110997/0.67587/0.506151/-0.0378771/-0.95115/-0.0725563/-0.733425/0.585227/0.549835/-0.485482/0.30763/-0.41889/0.588009/0.799947/-0.929142/0.789769/0.656577/0.56577/0.0102581/0.948104/0.788807/-0.528719/-0.185826/0.821566/0.0663602/-0.684661/0.901127/-1.02635/-0.661264/-0.51039/-0.124248/-0.235391/-0.218978/-0.35729/-0.968325/-0.629874/-0.284572/-0.80956/-0.280522/-0.726597/0.0891865/0.957715/0.309212/0.922997/0.807897/0.319299/0.460124/-0.690161/0.837383/
-0.621711/0.905764/-0.825978/-0.220066/-0.652932/0.991976/-0.0370905/0.86718/0.18823/-0.745538/0.157312/-0.049049/-0.366587/0.775411/0.338728/0.950199/-0.89099/-0.906458/0.730974/-0.515508/-0.14813/0.378571/0.635481/0.537068/0.499901/-0.160603/0.746343/-0.215066/-0.614317/-0.818808/0.128598/-0.953461/0.153286/0.0395181/0.877501/-0.67095/0.429908/0.329194/0.453765/-0.0354552/-0.562894/0.714998/-0.884339/-0.308367/0.401092/-0.890615/0.70326/-0.858821/-0.0499382/0.849666/0.498537/0.328022/-0.859187/0.0449383/0.528785/0.171026/0.438841/-0.407385/0.437462/-0.239028/-0.385643/-0.063811/0.822139/0.331446/0.183158/0.116786/0.825907/0.0718089/-0.352301/1.034/0.0851682/0.673069/0.0960821/0.264468/0.351397/-0.721803/-0.951764/-0.283418/-1.02166/-0.119742/0.29026/-0.555823/-0.155346/-0.229611/0.930699/0.253623/0.0528426/-0.643712/0.387748/0.192722/0.0804998/-0.605055/-1.39506/-0.681129/0.140189/-0.316977/-0.933559/0.08853/0.527535/0.998907/-0.0746585/-0.174742/0.033467/0.108156/0.0941568/0.578074/-0.367596/-0.321466/-0.334901/-0.631154/0.662994/0.0144416/0.719464/0.0284619/0.342263/-0.43393/-0.0976722/-0.440843/-1.13374/-0.105348/-1.11571/-0.89712/0.0957758/0.096386/0.473573/-0.823842/-0.115551/1.30058/-0.297134/0.131108/-0.137484/-0.364824/-0.857272/0.120426/-1.06798/-0.629867/0.144944/0.556293/0.379448/0.664938/-0.386003/0.452451/-0.0896565/-0.377697/0.892333/0.479128/-0.122895/-0.617662/-0.0913488/0.697812/-0.950439/1.16823/-0.268561/-0.400614/0.444885/0.0976341/0.492411/-0.306155/0.394772/-1.00364/0.705022/0.331138/-0.680793/-0.134816/-0.310943/0.35013/0.383018/0.634237/-0.372533/0.832297/-0.198222/-0.277529/-0.874477/-0.717308/0.492908/0.281724/0.181804/0.1521/0.665476/-0.663136/0.702345/0.622658/-0.517094/-0.00367222/-0.188005/0.274202/-0.0546908/-0.630373/0.367775/-0.56968/0.573569/0.656883/0.910045/-0.598273/-0.47206/0.351799/0.685789/0.0524148/0.559055/0.282402/-0.204745/-0.340627/-0.689809/-0.758286/0.286288/0.523167/-0.776189/0.266876/0.130218/0.78697/0.923729/0.918886/1.24606/-0.251495/-0.713878/0.361824/-1.13998/-0.489069/0.673426/-1.04046/0.531908/0.014221/0.677671/0.172922/0.296108/0.690264/0.606181/0.307324/0.0717749/-0.71713/-0.567155/0.011077/-0.347034/0.135051/-0.104305/0.199335/-0.783634/1.04958/-0.186942/-1.00203/0.160034/-0.258107/-0.560318/0.690767/-0.530634/1.03415/0.897109/-0.496069/0.263473/-0.844276/-0.705318/-0.477897/-0.0232419/-0.630152/0.334197/-0.873039/0.190844/-0.221879/-0.151464/0.288379/-0.664849/0.210229/0.196167/0.0190719/-0.346153/-1.23919/-0.249721/0.230792/0.625096/0.189804/-0.341626/-0.129138/-0.384874/-0.0959994/0.266951/1.13832/-0.0832054/1.01809/0.204421/0.239762/-0.326915/-0.464085/-0.581983/0.679885/0.108737/0.0106452/-0.288005/-0.816391/0.443067/-0.199976/0.566365/0.448855/0.202127/0.8544/-0.471546/0.756508/-0.383346/-1.02624/0.101998/0.218074/0.365204/-0.107957/0.124823/0.293658/0.0337932/0.935048/-0.0701564/0.722261/-0.963203/-0.570713/0.56409/-0.0773975/0.289436/-0.770785/0.892643/-0.339655/-1.02801/-0.603343/-1.04776/0.0915959/-0.118509/-0.018411/-0.957522/-0.787477/0.174532/-1.49648/-0.768331/0.440552/0.32861/-0.434377/-1.05121/-0.617765/0.327931/-0.0547887/0.126536/0.862938/-0.59991/-0.696412/-0.735916/-0.62296/-0.2308/-0.922025/0.951969/-0.363002/0.752504/0.247783/1.00105/0.028455/1.00777/-0.0194104/-0.0260266/-0.181472/-1.0312/-0.258217/-0.926846/-1.07695/-0.463311/-0.0855098/0.638098/-0.135887/0.957652/-0.370149/-0.95418/-0.54405/0.143363/-0.495499/-0.202372/0.177071/-0.406458/0.575251/0.104523/-0.231114/-0.507587/0.274669/-0.723004/0.205025/-1.20968/-1.2163/-0.508606/-0.69125/-0.667485/0.378866/-1.2395/0.226713/-0.0993525/-0.968961/-0.653458/0.191712/0.12987/0.188375/0.117417/-0.647764/-0.975573/-0.450382/0.652157/0.297016/-0.329133/-0.22692/0.550543/-0.0013977/0.466368/-1.34099/-0.458878/0.281907/-0.0812725/-0.447423/-1.05085/-0.907547/-0.151875/-1.03833/0.702654/-0.854336/0.658906/0.0837599/-0.588127/0.486685/-0.633323/0.750043/-0.579933/-0.440591/0.989039/0.804468/0.943096/-0.155045/0.0404678/0.011199/-0.124931/0.0570598/0.217104/0.870288/-0.21979/0.417857/-0.680953/-0.525425/-0.704806/0.461092/-0.0530454/0.922195/-0.550321/1.25327/0.64201/0.358608/-0.927042/0.176337/0.58878/0.231694/-0.756291/0.160295/0.0829784/0.671354/0.312146/0.548332/0.734132/0.812511/1.03263/-0.0667941/0.565721/0.142447/-0.149303/0.185605/-0.339913/-0.627866/0.0927179/0.366825/0.576518/0.491571/0.870092/0.0551567/-0.726283/0.26611/0.592017/-0.0291766/-0.982037/-0.334542/0.0353156/0.695035/-0.488164/-0.509178/0.448954/0.251822/0.268454/0.152201/0.736186/0.636513/-0.477077/0.645069/0.401604/-0.640316/0.943089/0.862711/-0.107693/0.675491/1.15612/-0.0506011/-0.483822/0.494311/-1.12657/-0.772303/0.00218976/-0.364581/-0.307917/0.455466/0.564439/-0.476541/0.774205/0.0176575/0.738668/0.63701/-0.525723/-0.395149/0.835567/0.912438/0.993262/0.873186/0.351227/-0.360457/1.00597/0.467669/1.15114/-0.744909/-0.644095/0.228502/0.245773/0.690404/0.476381/0.886071/-0.289183/-0.590705/0.811973/0.714938/0.92438/0.0928799/-0.968345/-1.01984/0.59774/-0.89132/0.0712423/-0.380877/0.17189/-0.788833/-0.102611/-0.352922/0.0817677/0.967189/0.924624/-0.172503/0.837321/0.466514/-0.0659483/0.546134/0.554872/-1.24588/-1.28508/0.792689/0.165875/-0.200236/-0.599093/-0.565878/-0.404428/-0.120635/0.494808/0.223684/0.599325/-0.110022/-0.114189/-0.875264/0.924029/-0.889447/0.64923/-0.22378/0.772467/0.827456/0.786007/0.0728475/0.445148/-0.236146/0.241091/-0.32698/-0.542908/-0.665042/0.560319/-1.03843/-0.601396/-0.205975/0.639478/0.669743/-0.778088/-0.31331/0.206675/-0.355206/-0.648191/-0.474358/0.177138/1.00137/0.456068/0.769344/-0.0782807/0.3277/0.983154/-0.363531/0.478175/0.834657/-0.113499/-0.0239407/1.05792/-0.384899/0.951312/0.151557/0.820425/0.160742/-0.178481/0.288355/0.474568/-0.861213/-0.647884/0.615371/0.544088/0.582571/0.839826/-0.480919/0.812094/1.17812/0.329115/0.0904648/-0.0512273/-0.700335/1.2326/0.348688/-0.510844/0.488546/1.27473/0.335642/-0.608892/0.290767/0.573344/-0.219144/-0.525367/-0.0962122/-0.261259/0.0482259/0.485821/-0.761386/-0.785652/0.381839/-0.425191/-0.171082/-0.403768/-0.803096/-0.573303/-0.261002/0.350249/0.84274/0.17459/0.0425978/-0.800308/0.503258/0.0708411/-0.575785/1.18671/1.41775/0.339504/-0.172224/0.550501/0.368154/-0.462319/-0.825113/-0.625755/-1.50521/-0.899911/-0.931753/0.590197/0.907903/-0.874252/0.441532/-0.323754/0.261306/0.67108/0.33091/-0.500754/-1.26054/0.836181/0.746975/0.0705454/0.219065/-0.358491/-0.194777/0.39987/1.20951/0.948877/0.470004/-0.58235/-0.754829/-0.535872/0.317343/-0.15389/-0.107824/0.688113/0.629292/-0.617167/0.48505/0.231954/0.448292/-0.0166335/-0.778976/0.0941793/-0.639064/0.684813/0.543771/0.802994/-0.788522/0.160594/0.566568/-0.583237/-0.209051/1.13007/0.416497/-0.541388/-0.2197/0.945749/-0.122856/0.785668/0.394229/-0.00215422/0.105599/0.815475/0.385269/-0.239411/0.0578816/0.816502/0.941082/-0.0541048/0.255567/-0.961103/0.366904/-0.379583/-0.453764/-0.599584/0.0158263/0.557774/-0.42331/0.393146/-0.948998/-0.949618/0.99655/-0.263049/-0.631317/-0.282852/0.883945/0.738482/-0.935746/0.586919/-0.0717921/0.0189263/0.430768/-0.149542/-0.0358536/-0.591325/-0.392696/-0.0492225/0.716604/-0.0428517/-0.208209/0.634146/0.132054/-0.797423/-0.327043/-0.606838/0.874379/-0.316818/-0.753778/-0.750638/0.0250586/-0.840475/0.129578/-0.18012/0.721732/0.144163/0.951485/-0.383691/-0.702878/0.726792/-0.811033/0.960227/0.536043/-1.05547/
0.0771658/0.925486/0.647823/-0.0345318/-0.37796/0.0740839/0.758792/-0.443742/0.36148/-0.475197/-0.0485356/0.262079/0.76529/0.274302/0.227988/-0.612393/0.229289/-0.0127175/-0.0187844/0.290862/0.51266/0.277939/-0.679731/-0.234426/0.00611891/0.840519/0.604488/-0.364579/0.523858/0.48631/-0.58111/-0.558323/-0.80467/0.693532/0.737503/-0.368108/-0.34145/0.862231/-0.518956/-0.269298/-0.255721/0.734304/0.102003/-0.101531/-0.687037/-0.164171/-0.681799/-0.372888/0.569547/-0.862155/0.626905/0.540782/-0.44519/0.293899/0.0200398/-0.514271/0.650759/-0.687812/0.00387136/-0.400517/0.70864/0.614447/-0.264128/-0.065158/0.660739/0.77228/0.0208988/0.648896/-0.339335/0.707511/-0.887597/0.62784/0.794076/0.598757/0.937388/0.0326529/-0.719937/0.843807/0.300801/0.0630052/0.827592/-0.561132/-0.902426/0.940498/0.950136/0.93851/0.512031/0.0685979/0.373539/0.726722/-0.47103/-0.303258/0.536459/0.411577/-0.513134/-0.497261/-0.95424/0.591592/-0.110199/-0.150451/-0.404143/0.56024/-0.122995/1.00028/-0.491545/-0.0831455/0.681009/-0.103221/1.15438/0.249566/-0.441683/0.800175/0.541286/-0.611522/0.0484501/0.0836779/0.103643/-0.852412/0.407758/0.426061/-0.319854/-1.10772/-0.577619/-0.560129/-0.261838/-0.381679/-0.461681/0.954908/-0.573511/0.64699/-0.324585/-0.84625/0.645406/-0.135278/0.69742/-0.179391/-0.641407/-0.676113/-0.80489/-0.475778/-0.403307/-0.37332/0.0626181/-0.746616/-0.884004/-0.415391/-0.58125/0.416876/-0.126144/-0.353404/0.406692/-0.599464/-0.984751/0.186347/1.06472/0.319563/0.131216/0.46705/0.646738/-1.3213/-1.25195/0.0916825/0.594291/0.110733/-0.814404/1.02524/-0.576987/-0.696859/-0.102062/0.643199/-0.693738/-0.139737/1.35892/0.556632/0.806993/0.235011/0.181968/-0.552501/-0.632339/0.253497/-0.304226/1.05471/0.215461/0.207702/-0.0653969/0.379898/-0.038615/-1.2323/-1.09244/0.142042/-0.0301528/-0.887963/0.10054/0.728296/0.543335/0.28131/-0.0203861/-0.655018/0.0736329/0.96963/0.753231/0.713167/0.351764/-0.607661/-0.422424/-0.469504/-0.870528/0.31674/1.29672/0.454387/-0.215142/1.00227/0.872675/-1.27994/0.181165/0.252841/0.299105/-1.08042/-0.798712/-0.174909/-0.09882/-0.316755/0.375556/0.198504/0.25993/0.649736/-0.669142/0.5422/-0.063692/1.20116/0.177359/-0.343246/0.866726/0.218632/-1.07602/0.0372329/0.901264/-0.070014/0.286416/-0.220137/-0.222871/-0.424677/-0.569174/-0.750418/-0.805413/0.35147/-0.465972/0.999259/-0.445793/-0.0322022/-0.241167/0.845843/0.0835403/0.0553019/0.748954/-0.71074/0.593164/0.537881/-0.775295/-0.238946/-0.732588/-0.127862/-1.22281/-0.484868/0.496195/-1.04103/-0.802836/0.355147/-0.127532/-0.341078/1.00469/0.376516/-0.658089/-0.813737/-0.540877/-0.00698814/-0.767595/0.821991/0.176964/0.175035/-0.181771/0.984811/0.623639/-0.0808937/0.64262/0.447656/-0.950041/-0.580661/-0.036352/-0.971719/0.762752/0.0459108/-0.853745/-0.525969/-0.281727/0.521143/-0.270252/0.215992/0.380932/0.347355/-0.439969/-1.1868/0.389018/0.535937/0.493369/-0.158733/-0.866415/-0.0937085/-0.95835/-0.989192/-0.940467/0.0767871/-0.845807/-0.147076/0.035933/-0.710494/-0.0224245/-0.390122/0.87774/0.497168/-0.169891/0.71911/0.757367/0.374377/0.157491/1.0382/-0.593615/-0.386064/-0.197098/-0.193828/0.421931/-0.877974/-0.214269/0.591864/0.810328/0.79182/0.121649/0.519684/-0.620972/0.4287/-0.285614/-0.147288/0.282891/-0.747058/-0.611722/-0.0776818/-0.0272882/0.883575/0.435034/-0.76862/-0.096207/-1.1311/-0.331809/0.891274/1.02975/0.840283/-0.793437/-0.461389/-0.537191/0.590815/-0.299332/-0.23042/-0.153054/-0.256527/0.543984/0.721271/-0.938473/-1.21943/-0.461122/-0.091645/-0.141745/-0.163248/0.214531/0.728017/0.0166506/-0.490153/-0.225075/0.387836/-0.555114/-0.231988/-0.0465526/0.747991/0.174765/-0.239947/0.443887/-0.492619/-0.772286/0.825863/-0.765393/0.301653/0.780252/0.0912805/0.151332/-0.54772/0.980373/0.687899/-0.0829925/0.176211/-0.313825/-0.491222/-0.681102/-0.132138/-0.740703/-0.648862/0.347778/0.695853/-0.0269855/0.540017/0.660018/0.293252/-0.272766/0.0463816/0.386188/0.336805/0.374597/-0.11141/0.138306/0.157251/0.470629/0.274157/-0.240243/0.249474/-0.615814/0.901677/-0.573533/0.73158/0.709384/-0.125333/0.605189/-0.179414/-0.993173/-0.103573/0.309597/-0.124033/-0.445451/-0.341773/-0.998156/0.332224/-0.522184/0.815726/-0.374288/-0.33401/0.813575/-0.274471/-0.094649/-0.187904/-0.493096/0.720259/-0.61274/-0.336232/-0.398905/0.734149/-0.257613/0.933863/0.547718/-0.463309/0.541786/-0.304478/-0.983104/-0.6235/-0.172539/0.626066/0.0845131/-0.991539/0.0606982/0.910329/-0.786968/0.0158205/0.400026/0.591309/-0.738451/0.0777502/0.321266/-1.07729/0.397444/-0.946663/0.837314/0.747175/-0.170811/1.32334/0.778691/-0.911755/0.434236/-0.408171/0.480884/-0.608837/-0.604561/-0.927381/-0.856306/-0.554246/-0.168439/0.443477/-0.00136417/0.810342/1.19813/0.0340402/-0.696772/-0.395188/0.324142/0.38108/-0.50947/-1.0154/0.410362/0.415706/0.762963/-0.863149/0.512587/-0.0744354/0.338945/-0.0808218/0.216605/-0.701881/0.2369/0.0115627/0.470423/-0.520654/-0.719512/0.829366/-0.33205/-1.01268/0.0956802/-0.604522/0.110408/0.0352133/-0.236087/1.00884/-0.989209/-0.0819637/0.802029/0.37269/0.808759/0.277119/-0.464534/0.5588/-0.622673/0.097354/0.6817/0.267682/-0.638757/-0.848021/-0.259192/0.261633/-0.403729/-0.238332/-0.25587/0.482962/0.0501818/-1.10201/-0.754745/0.501719/-1.12186/0.00780731/0.943301/0.142711/0.389092/0.189654/-0.190845/-0.791862/0.179913/-0.679521/-0.703168/-0.100667/0.196546/0.140577/0.371225/0.55004/-1.1677/-0.600952/-0.134881/0.0164209/0.0887427/-0.931873/-1.1188/0.240775/0.0784627/-0.262895/0.226596/-1.08751/-0.323297/-0.349178/-0.079664/-0.84697/0.0176534/0.171931/0.00729426/0.696741/-0.354909/0.847825/-0.606728/0.767803/-0.473653/0.349772/0.647137/0.689208/-0.514247/-0.569066/-0.0538136/-1.21516/0.372189/0.19407/-0.424027/-0.848815/-1.31387/-0.100511/-0.232481/-0.630374/0.00851697/-0.849497/-0.33395/-0.33353/-1.02065/-0.63016/-0.415805/-0.957235/-0.99491/0.131286/0.520929/-0.753295/0.379426/0.128981/0.45758/-0.524723/-0.294539/0.308904/-1.10575/0.498925/-0.948479/-0.164802/0.768238/0.182002/-0.658282/0.54141/-1.03942/-0.7511/0.108811/-0.261569/0.18922/-0.608775/-0.471047/-0.26499/-0.291198/0.0681827/-0.766098/-0.463092/0.810315/0.961327/0.846741/-0.131959/0.101184/0.204555/0.337031/0.24905/0.0184519/-0.985433/-0.708492/-0.994002/-0.660991/-0.418473/-1.14736/-0.416105/-1.06503/-0.403294/-0.815189/0.826488/-0.576673/-0.113602/-0.296099/-0.941194/0.769636/-0.90341/-0.889632/0.51467/0.0566426/-0.00954679/-0.650998/-0.367496/0.595517/-0.969705/0.47976/0.638835/-0.470834/-1.35319/-1.39533/0.456172/-0.60075/0.631393/0.548213/-0.206887/-0.819893/0.474261/-0.00967526/-0.426429/-0.803397/-0.550933/0.18137/0.345941/0.246544/0.21683/-0.796029/0.612085/-0.685332/-0.377405/0.0824885/-0.424198/0.750839/-0.336749/-0.0666158/-0.423561/0.724493/0.479488/0.752881/0.872638/-0.419232/0.603137/0.808611/-0.614771/0.60981/-0.912265/-0.305679/0.3225/0.335632/0.244151/-0.537028/0.81047/-0.115151/0.111667/-0.134253/0.199768/-0.494592/-0.612907/0.955739/-0.872643/-0.918101/0.00796693/-0.692027/0.988154/0.140104/-0.203677/-0.987356/0.744128/0.772717/-0.52178/-0.412688/0.816654/-0.92197/0.983145/0.00937069/-0.932479/-0.60622/0.94255/0.651695/-0.505313/-0.292128/-0.0175325/-0.173535/0.568737/0.769647/-0.548846/-0.45708/-0.14218/0.3865/-0.100155/0.693831/-0.759894/-0.587772/-0.514225/-0.584354/0.763183/0.822776/0.403353/-0.84834/-0.0453704/-0.539851/0.731109/-0.247614/0.345967/0.666415/0.43611/-0.303944/-0.382921/0.240105/-0.551462/-0.419768/0.954298/2.04957/
0.528998/0.863944/0.312843/-0.052282/-0.688526/0.397178/-0.680245/-0.902365/-0.206022/-0.581342/-0.302375/-0.0162277/-0.739297/0.532382/-0.306084/0.335488/0.743343/-0.231975/0.225026/0.0150644/-0.812345/0.922189/-0.775456/0.912651/0.930187/-0.355326/0.0438176/0.442008/0.834397/-0.282207/-0.912453/-0.43057/-0.551424/-0.738099/-0.536031/-0.76225/-0.128356/0.854559/-0.849594/0.765889/-0.789488/-0.211942/-0.678637/0.640119/0.249744/0.219072/0.297313/0.55337/-0.782015/0.734021/-0.953704/0.513718/-0.0597612/0.977043/-0.48092/0.545267/0.295279/0.744562/-0.880683/-0.844768/-0.423545/-0.375145/-0.30763/0.0692234/-0.307161/-0.763179/0.300998/0.862276/-0.70156/0.248797/-0.218568/0.258246/0.19964/-0.868669/0.362582/-1.28956/0.718295/0.371157/0.451117/-0.299597/-0.531726/-0.142971/-0.875707/0.556997/-0.544017/0.710517/-0.440556/-0.309536/0.879193/0.363826/0.516049/0.653162/-0.621586/0.635282/0.505017/1.40799/0.137084/-0.337547/1.11561/1.08784/-0.32913/0.966125/-0.585432/0.26975/-0.271844/-0.122872/0.0368857/0.220949/-1.03406/-0.411207/0.693503/-0.340452/0.021871/-0.410554/-0.470245/0.763674/0.653909/1.04437/-0.58669/-0.639305/0.0426439/0.71303/-0.168658/-0.165299/0.296915/1.08654/-0.0487794/0.546165/0.272869/0.404877/-1.07045/-0.385293/-0.514393/-0.591497/-0.213361/0.112457/0.261344/0.832928/-0.570751/-0.25668/-0.0159271/0.30504/-0.300726/-0.0378456/-0.162772/1.12506/0.136521/0.928497/0.303136/0.387223/-0.293505/0.907981/1.01886/0.617383/1.17434/-0.758233/0.764041/0.326618/-1.22217/0.165826/-0.583169/-0.165623/-0.324758/0.325557/0.303571/0.321165/0.100936/-0.95426/-0.246302/0.388248/-0.321191/0.549154/0.513211/-0.791438/0.103751/0.275329/1.39402/-0.517569/1.11691/-0.360616/1.12284/1.12281/1.2057/-0.750382/0.808937/-0.190204/-0.290957/-0.589674/0.53211/-0.629425/-0.714309/-0.210954/-0.491861/0.0247261/-0.828873/-0.233012/-0.238017/-0.337117/0.101476/0.376403/-0.547222/0.735855/0.8083/-0.00638885/-0.0803475/-0.00231367/0.516331/0.450792/0.44596/-0.172977/0.99262/-0.317104/-0.90606/-0.526273/-0.393219/0.381222/0.365696/-0.694636/0.54051/-0.795169/-0.945439/0.92995/-0.618729/-0.747298/0.169428/-0.457521/-0.980831/0.0775991/0.213033/-0.499324/1.17329/-0.276487/-0.132494/0.478463/1.28216/-0.747237/-0.370706/1.09821/0.282554/0.454329/0.235168/0.544923/-0.320881/-0.619457/0.0830384/-0.801594/-0.255108/0.338391/-0.149312/0.440433/-0.667022/-0.493418/-0.884441/-0.815155/0.83484/-0.326995/0.372507/0.630551/-0.528942/0.526626/-0.0857903/0.601468/0.540997/1.10938/1.05143/0.670026/-0.580806/-0.0432143/0.710114/-0.560426/1.14781/-1.07327/-0.68467/-0.887906/0.657127/-0.564093/-0.11952/-0.881101/0.751669/0.764403/-0.682076/0.335684/-0.575219/0.729023/-1.43196/-0.370429/0.839379/-0.348117/0.571349/0.799667/-0.105316/1.12/0.764384/0.842647/-0.906932/0.513692/0.422284/0.624454/1.15807/-0.178878/0.281467/-0.203317/-0.810639/-1.24176/-0.254558/-0.160671/0.720781/0.901766/-0.0204614/0.0872079/-1.19515/0.283472/-0.513713/-0.353189/-0.250457/-0.751867/0.656201/1.06891/0.346736/0.643636/-0.440945/1.27588/0.278098/-0.161378/0.260349/0.333672/0.763259/-0.0176584/-1.01847/-0.779603/-0.233166/-0.664352/0.304498/0.26398/0.768211/0.534683/0.420219/0.609038/0.257524/0.875353/0.97335/-0.109643/-0.203636/-0.0712002/0.794994/1.09762/-0.716076/-0.00958944/-0.754376/0.942759/-0.0305612/0.359238/0.938442/-0.102861/0.498616/-0.643137/-0.429772/0.0854378/-0.554708/-0.86669/-0.168422/-0.76119/0.302229/0.714316/-0.486744/-0.715374/-0.510766/0.0727526/0.402649/0.839818/-0.226738/0.960692/-0.547242/-0.109546/-0.579047/-0.0779399/-0.00997693/-0.0149781/-0.869395/-0.617935/0.124848/0.386523/0.475589/-0.194426/0.458809/-0.00160161/0.0601271/-0.41082/0.495784/-0.194357/0.314024/0.620953/0.356679/0.723625/1.83853/0.0807722/0.799628/-0.157652/-1.07917/-0.949308/-0.302857/0.394368/-0.139006/0.634245/-0.19461/0.359545/-0.279871/0.865699/-0.628003/0.414872/0.601954/-0.928919/-0.843118/-0.427365/-0.804839/-0.64697/0.0869171/-1.19052/-0.34372/-0.267366/0.377554/-0.387737/0.412819/1.46295/0.625759/-0.786729/-0.114304/0.2044/0.842007/0.124811/1.37519/-0.927108/-1.14763/0.58538/0.102906/0.206793/1.22078/-0.232291/-0.162843/-1.03669/0.484459/-0.499189/-0.662445/-0.470504/-0.225622/-0.418523/-0.363515/0.0953537/0.609257/-0.153738/-0.16698/0.672627/0.460439/0.207335/0.49401/-0.782566/-0.410636/-0.711001/0.794463/0.35701/-0.42773/-0.242371/-0.473098/0.034536/0.693295/-0.566757/-1.04471/0.705865/0.39792/-0.380433/-0.753948/-0.409621/1.22342/-0.12966/-0.679533/-0.325643/-0.0899223/0.746281/0.243575/0.865676/0.0757875/0.318503/-0.49564/0.505345/0.360921/-0.578286/0.432595/0.452909/0.799083/-0.318126/0.477595/0.172704/0.73586/0.148314/0.547853/0.0371209/-0.893554/-0.992113/0.102057/0.341834/-0.27427/-0.174259/-0.851681/-0.478088/0.776963/0.4853/1.28978/-0.167602/-0.230276/-0.345874/0.197912/-0.602784/-0.37909/0.305378/-0.0849982/-0.452918/-0.592762/0.204318/0.724113/-0.375549/0.998325/0.825711/-1.04265/-0.824822/0.648174/-0.754884/0.140441/-0.45905/-0.756954/-1.21699/0.532806/0.779864/-0.831965/-0.770699/0.836539/-0.0585877/0.822079/0.673941/0.212822/-1.31794/0.496242/0.402713/0.881449/0.722773/-0.557903/-0.498815/-0.196436/0.924419/0.138274/0.035752/0.0336606/-0.968778/0.419615/-1.2975/-0.0994159/0.32788/0.0926519/-0.214301/-0.856884/0.586385/-0.622213/0.403556/0.628552/-0.0128187/0.655167/0.599677/0.531028/-0.145289/-0.00756916/-0.0139437/1.22891/0.797421/0.558515/-0.510891/0.0926237/-0.338358/-0.0349153/0.739965/-0.508717/-1.24352/0.222622/0.551825/-0.396636/0.525449/0.528371/0.572991/0.68861/-0.710044/0.296766/-0.268084/-0.848564/-0.104918/-0.655864/0.639705/-0.178463/0.570568/0.707892/-0.667159/-0.423164/0.0748606/0.520158/-0.0198554/0.511052/0.456791/-0.786055/-0.789072/-0.661343/-0.0819009/-0.982598/-0.230278/0.521231/-0.147933/0.18237/1.17253/-0.274712/-0.49779/-0.353825/-0.667756/-0.608646/0.0350407/0.917285/-0.059305/0.595662/-0.721697/0.603381/3.60534e-05/1.03809/-0.864586/0.412266/-1.19759/0.646841/0.390741/0.230881/-0.569446/0.825244/-0.996019/-0.795631/-0.0287201/-0.0157679/-0.333276/-0.00423695/-0.366665/0.0315387/-0.564985/0.299432/0.550976/-0.935714/0.58896/-0.513122/1.00495/0.705774/0.75034/-0.73498/0.86869/-0.169701/0.57203/-1.01896/0.161151/-0.308925/0.297672/-0.0233262/-0.619664/-1.07404/-0.126261/-1.48219/-0.165394/-0.443449/0.131152/0.12075/-0.713484/0.822212/0.54447/0.913972/-0.875067/0.313303/-0.0438039/0.895757/-1.0184/0.0624277/0.0528975/-0.504168/-0.738007/-0.953306/-0.824613/-0.256395/-0.17393/0.626974/-0.424659/-0.456289/-0.889112/-0.661239/-0.0234442/-1.21271/-0.279773/0.74839/-0.866215/0.824201/-0.131667/0.142115/0.22499/-0.596379/0.664921/0.53989/0.675388/-0.139581/0.350616/0.154483/-0.958358/-0.313961/-0.975706/0.3328/-0.734111/-0.394032/0.467871/0.5903/0.139582/-0.921303/0.499679/0.183921/-0.935711/0.289743/0.411256/-0.698902/-0.101843/0.946005/-0.424682/-0.525406/0.310479/0.222883/-0.00119717/-0.999367/-0.453413/0.0836078/-0.270194/-0.178602/-0.126011/-0.950078/0.997242/0.948508/0.694755/-0.982317/0.735307/0.927785/0.936208/-0.554122/0.971974/0.0343051/-0.459298/0.960446/-0.0234732/0.846252/0.249596/-0.386301/0.614919/-0.732222/0.146091/-0.650883/0.604141/-0.202596/0.963095/0.741062/-0.977927/-0.0169085/0.357613/0.156314/-0.966508/-0.0943078/0.969629/0.561254/0.999094/-0.221161/0.943503/-0.544503/0.539028/-0.558284/0.912715/-0.00411244/0.88221/-0.69067/-0.0868279/0.683581/0.952285/-0.939179/-0.776592/-1.33561/
0.400791/0.0934811/-0.863642/0.771135/0.473231/0.897282/0.972817/0.24771/0.0079024/0.247037/0.405339/0.530421/0.782671/0.154838/0.269124/0.0786866/-0.42374/-0.2783/-0.644271/-0.269727/0.695906/0.0854125/-0.472066/-0.0054802/-0.105793/-0.0588933/0.180555/0.583589/0.384197/-0.80919/-0.574826/0.430529/-0.962795/-0.593837/-0.31234/-0.939457/-0.453745/-0.00642013/0.801444/0.372162/0.517146/0.786401/0.813848/0.173646/0.0996932/-1.02354/0.65375/-0.484176/-0.129234/0.157499/-0.514832/0.297809/0.631186/0.0170144/-0.33132/-0.197546/-0.161433/0.798182/-0.317401/0.665077/0.818814/0.588942/1.03532/-0.497724/0.149149/-0.28286/-0.498246/0.747063/0.639512/-0.600965/-0.193988/0.461644/-0.7439/-0.466473/0.264926/0.80507/-0.721594/1.14305/-0.180818/0.442943/0.903845/-0.684408/-0.0159079/-0.312829/0.289531/0.138231/-0.92145/0.231766/-0.76554/-0.184182/0.812933/-0.443086/0.421259/-0.640819/1.10101/-0.153283/-0.559175/-0.751788/0.90834/-0.792752/-0.541639/0.463055/0.142792/-0.942599/0.9532/0.213117/0.818846/-0.744889/0.379338/0.584387/0.105455/-0.190097/-0.968138/0.497894/0.244139/-0.328273/0.552233/0.838847/0.721371/0.97847/-0.827513/0.993833/0.859477/-0.63081/-0.0867936/0.735535/0.551271/0.983473/-0.193533/0.148213/0.453763/-0.593104/-0.0173162/-0.942596/0.499799/0.246825/-0.648755/-0.494015/0.0592484/0.356227/-0.894502/0.0910441/0.21325/0.204676/-0.630903/0.0583234/-0.481396/-1.168/0.484613/-0.1911/0.145755/0.624288/0.191135/-0.447248/-0.675611/0.319825/0.492009/0.174704/-0.161279/0.284605/-1.27022/0.451178/0.476835/0.30407/-0.362234/1.10295/0.332722/0.266226/0.452505/-0.734961/-0.0388708/-0.337777/0.835526/0.61685/0.551276/-0.27614/0.0814851/0.00934434/-0.27192/-0.265757/-1.31358/0.224319/-0.588562/1.02529/-0.55587/0.455864/0.597926/-0.618674/-0.337547/0.071492/0.600142/-0.956037/-0.565238/0.925533/-0.777133/0.182716/0.902075/-0.787565/1.10279/0.584209/0.260917/-0.433452/-0.676679/0.602665/-0.694184/0.401676/0.0451185/-1.44079/0.190516/-0.593406/0.79398/-0.454684/-0.482785/-0.394021/-0.0120112/0.0410902/0.990665/-0.353527/0.726451/-0.260322/-0.833378/0.31511/-0.317433/0.922857/0.465903/0.484195/0.441703/-0.299932/-0.0664779/-0.467151/-0.838556/0.922588/0.315903/0.214314/0.234598/-0.490974/-0.316644/1.11002/-0.722985/0.846052/0.894548/-0.0319703/-0.607399/0.0482415/0.6826/0.396931/-0.455863/-1.03687/-0.817836/-0.301835/0.482353/-0.690473/-0.774474/-0.570252/-0.210152/-0.356365/0.604272/-0.399613/-1.37019/-0.463898/-0.434339/0.821489/-0.0603585/-0.757541/0.217819/0.182193/0.680447/-0.599416/0.862058/0.205223/-0.836127/-0.66647/0.0226881/0.458031/-0.0216876/0.119329/0.546061/0.066666/1.06096/0.207826/0.935735/0.874592/0.801038/-1.13309/0.207369/0.541998/-0.0543515/-0.295274/-0.807084/0.374552/-0.206748/-0.2251/-0.109021/-0.27623/-1.15058/0.620174/1.02816/-0.866126/-0.630281/-0.475674/-0.5733/0.473272/-0.116449/-0.523485/-0.583039/0.0114369/-0.397145/-0.988979/0.232363/-0.684201/0.702256/0.902408/0.43702/-0.800604/0.118749/-0.572429/0.351715/0.388845/-1.0146/-0.219615/-0.548041/0.771363/0.443137/0.173661/1.27432/-0.176277/-0.18272/0.968608/0.382654/-0.823356/0.996487/-1.12462/-1.93661/0.275477/0.86474/-0.174106/-0.205875/-0.130136/1.12268/-0.638495/0.22571/-0.406293/-0.817673/1.12246/-0.802631/-1.2308/-0.207478/0.352262/-0.186687/0.613176/-0.772729/0.627818/0.455252/0.490679/0.656512/1.14241/-0.386337/0.0116537/-0.788351/-0.717711/-1.73246/0.200871/0.0803909/-0.203539/-0.884629/0.0657833/-0.391165/0.894779/0.0731259/0.384455/-0.250162/-0.605491/0.0464861/-0.436167/0.105933/0.0120219/-0.379338/-0.0346694/-0.574616/0.654771/-0.0122945/0.447504/-0.228697/-0.435191/0.506302/-1.35762/-0.388313/-0.950332/-0.711255/-0.0219551/-0.596618/0.431857/0.21468/0.210637/-0.462333/-0.416882/-0.0780222/0.632898/-0.0621675/0.48007/-0.474712/0.251734/-0.430466/0.95114/0.173565/0.534247/0.82734/1.41532/0.737393/-0.26934/1.01805/0.216244/-0.873513/0.599195/0.181173/0.342773/-1.22243/-0.441051/-0.356514/0.429557/-0.435673/-0.283454/1.27829/0.143528/0.958868/-0.141748/0.874323/-0.436587/-0.961623/-0.539943/0.439449/0.638488/0.196206/1.11308/-0.549737/0.242403/0.0643016/0.264647/1.27651/-0.948263/-0.404796/0.646827/-0.180795/-0.0313191/0.594411/-0.422551/-0.933409/0.0204613/-0.107496/-0.599626/-0.393442/-0.247197/0.660374/-0.723259/0.418884/0.00281902/-1.05826/-1.38984/-0.0447618/0.10478/0.456393/0.34995/1.29238/1.37511/-0.190565/0.358073/0.667123/-0.199233/-0.423431/0.329685/0.428416/0.344837/-1.2304/0.135606/0.867393/-0.12563/0.499881/-0.431853/-0.46836/0.487288/-0.721296/-0.260345/-0.0171949/-0.907092/-1.09135/-0.194417/-0.760747/-0.762004/1.10474/-0.0355191/0.100634/-0.642618/-0.913773/0.60293/0.587049/-1.43748/-1.05414/-0.0925594/1.15477/0.0912935/-1.15357/-0.21348/0.603305/0.515448/-0.858858/-0.760591/1.0599/1.21642/0.732793/-0.712014/0.347208/-0.121518/0.488766/-0.41816/0.380525/0.0259716/1.05842/-0.0835946/0.564093/0.508686/-0.574968/-0.967157/0.593559/-0.720838/0.174005/-0.74194/0.155773/0.85952/0.197394/-1.1466/0.514942/-0.278633/-0.992579/-0.21171/0.609655/0.956575/-0.165011/0.0830069/0.619981/-0.167437/1.08244/0.307737/1.03433/-0.58906/0.632936/-0.774501/-0.257395/0.218676/0.733265/-1.18798/-0.896939/0.362497/0.158716/0.0185473/0.510163/-0.19454/0.709284/0.63113/0.328247/0.929768/0.619162/0.294008/1.20618/-0.406649/-0.602586/-0.703699/1.32344/0.160062/0.386833/-0.0245788/0.450847/0.124651/-0.0459588/0.458012/-0.139183/-0.0519571/-0.789149/0.86611/-0.464916/0.133954/0.847891/-0.421318/0.310479/0.288334/0.841362/-0.0589806/0.21945/-0.812876/0.000378132/0.388707/-0.381725/0.365853/-0.11625/-0.634743/-0.879525/0.933865/0.284652/-0.201188/-0.0519361/-0.572512/-1.02594/-0.0242044/0.446133/0.643893/-0.184704/-0.553558/-0.21747/-0.726238/-0.9259/0.33881/-0.028356/0.606491/-0.41263/0.532297/-0.44488/0.526137/0.776712/0.21468/0.139552/0.355666/0.695308/-0.612266/0.657919/-0.201276/-0.517137/-0.485378/0.6234/-0.398541/-0.853663/-0.31423/0.0313208/-0.350006/0.160328/0.193504/-0.562232/-0.871533/-0.56874/0.758112/0.670019/-0.493765/0.532787/-0.120412/0.423829/0.018941/0.341475/-0.823598/-0.608622/-0.178985/0.235152/-0.487294/0.234149/0.0698574/0.237084/-0.320103/-0.277786/0.532588/-0.788082/0.750177/0.346693/-0.807609/-0.166863/-0.464582/-0.0965995/-0.0350965/0.146051/0.943335/1.18264/1.17234/-0.0708303/1.08091/-0.171651/-0.902932/0.423593/-0.690987/0.0163007/0.369207/-0.70912/1.03242/1.147/0.926797/-0.404552/0.124529/0.521236/1.11229/0.330136/0.53381/0.416632/-0.50565/-0.864339/0.518115/0.297877/-0.360997/0.86631/-0.160797/-0.170927/0.148117/0.798026/-0.114806/-0.696871/0.463993/0.326197/0.383484/0.290581/0.211364/0.84487/-0.28035/-0.502495/-0.782688/0.284834/0.111573/0.640522/0.957905/1.00401/0.611853/0.0564136/-0.333729/0.447474/0.239026/-0.566361/0.632284/-0.863181/0.0385997/0.726505/0.308071/-0.213214/0.231181/0.668369/0.915175/-0.660519/0.665612/-0.499799/-0.000131895/-0.0620996/-0.760218/-0.911615/-0.665543/0.342841/0.97131/0.940893/-0.878982/-0.0164681/-0.810514/-0.547723/0.281629/-0.68839/0.434549/0.52778/-0.658902/0.758179/-0.320524/-0.646647/-0.0420054/0.98036/0.584997/-0.363608/0.973806/0.764773/-0.4675/0.725199/0.416773/0.703756/0.0292483/-0.423219/0.959982/0.34759/-0.0698955/-0.734324/0.217085/0.539843/-0.860197/0.663337/0.699849/0.358309/0.101076/0.791124/0.429022/0.565255/0.236544/-0.404857/-0.437564/-0.13283/-0.471416/0.903665/-0.109051/-0.261337/
0.764842/0.704749/0.718182/0.493142/0.237773/0.971254/-0.291376/-0.626481/0.0363058/0.300349/-0.562984/-0.0747449/-0.23713/0.791267/0.929859/0.263671/-0.114119/0.175353/-0.159148/-0.807977/0.329275/0.12077/-0.214455/-0.338043/0.506223/0.0977777/-0.650171/0.576216/0.467304/-0.0194979/0.433888/0.385121/0.0349742/0.961947/0.319677/-0.432186/0.972236/-0.0694298/1.02499/1.02491/-0.866566/-0.205916/-0.812316/0.504211/-0.567828/-0.329997/-0.724587/-0.63614/0.397686/-0.607893/0.718721/0.936652/-0.704569/0.849584/0.19585/0.776959/0.357709/0.0138951/0.731772/-0.599321/-0.217506/0.703978/-0.681835/-0.398921/0.989419/0.244727/0.992712/0.866215/-0.673637/-0.704967/0.267593/0.250313/0.201158/-0.513153/-0.736724/-0.0415283/0.985412/0.311587/-0.738976/0.0451416/-0.156615/-0.455053/0.331373/0.890164/0.988883/0.157623/0.307464/-0.0866119/-0.873873/0.708189/0.816758/-0.234434/-0.782067/0.935398/-0.241255/1.27606/-0.290755/-0.432912/0.259939/0.902887/0.609019/0.511337/0.543441/-0.148954/-0.127422/-0.568444/-0.319439/0.761805/0.583099/0.68222/0.768681/0.158485/-0.339997/-0.331578/0.61646/-0.426985/0.450061/-0.438893/1.03625/-0.485329/-0.595607/-0.292915/-0.92637/0.475431/0.469761/-1.04343/-0.560459/-0.0455546/-1.33094/-0.822473/-0.288597/-0.33861/0.589899/-0.417398/0.605127/-0.281983/-0.796124/0.920158/0.437912/0.748032/0.171911/-0.689612/0.733734/-0.669751/-0.00380092/-0.392407/-0.523528/-0.918479/-0.782494/-0.563193/0.31094/0.269163/-0.538794/-0.148269/-1.03068/-0.905431/-0.967117/-0.0350098/-0.616964/-0.335979/0.0952966/-0.708722/0.540255/-0.919492/-0.737346/-0.508896/-0.635715/0.0737158/0.942264/0.632689/0.658032/0.145936/-0.706244/-0.534899/-0.171283/-0.727305/0.325231/0.92806/0.533859/0.627392/-0.709265/-0.539488/-0.268508/-0.142994/-0.753186/0.486521/1.04194/0.442069/-0.115407/0.22834/0.277854/-1.0954/0.396623/-0.438543/-0.624017/-0.892125/0.0512085/0.655582/-0.582587/0.592616/-0.655914/0.620827/-0.169424/1.20963/0.0992679/-0.383766/-0.852237/-1.0218/-0.62703/-0.737858/-0.525512/-0.307482/-0.101671/-0.605/-0.462582/0.891928/0.715246/-0.799241/0.314226/-0.0365523/1.23803/-0.134391/-0.961016/0.755041/-0.0234502/-0.12261/-0.363425/-0.0744404/-0.634252/1.01668/-0.308082/-0.191894/-0.151245/-0.825897/-0.402285/0.67423/-0.202308/0.412421/-0.0937527/0.227394/-0.142478/-0.979046/-0.026998/-0.780067/0.494137/0.872999/-0.89178/0.117505/-0.149927/0.838083/-0.097238/0.160196/0.41341/0.184901/-0.425018/0.843209/-0.455654/0.537455/0.755034/0.494574/-0.086147/-1.0895/0.717955/-0.127356/0.0886915/0.17711/-1.13255/-0.92997/-0.179654/-0.76819/-0.201218/0.604176/0.283463/-0.638713/0.240115/-0.688111/-0.340625/0.0563656/-0.453824/0.778487/0.0330368/-0.750596/-0.800181/-0.694279/-0.4212/0.0605293/0.499037/-0.907591/0.323577/0.150679/0.343127/-0.873654/-0.957798/0.705863/-1.30568/0.0616057/0.163256/-0.468784/-0.702282/-0.187462/0.737163/-1.42621/-0.244596/-0.0706549/0.0155215/-0.478573/-0.00556437/-0.791577/-0.0330437/0.625298/-0.715582/0.707234/-0.810758/-0.40064/0.293317/0.744578/0.278593/0.639866/0.390924/-0.551648/0.197719/-0.257998/0.593462/-0.293854/-0.195303/-0.715812/-0.267388/0.969797/-0.319619/0.357516/0.0609297/-0.0046856/-0.234938/0.929137/-0.0885172/0.677298/-0.655974/-0.968837/-0.860483/0.150719/-0.252355/0.516233/0.0447037/0.992866/-0.556699/0.750456/-0.413014/0.668783/-0.336228/0.0199428/0.485754/0.519711/1.29743/0.480233/0.06723/0.2151/1.25627/0.185067/0.409289/1.02409/-0.238849/0.727334/0.300334/-0.398683/-0.659203/0.787056/0.337833/1.12175/-0.499864/0.0203185/0.952507/-0.00110796/0.184175/0.264653/0.136696/0.898953/1.32918/0.9388/0.411824/1.28228/1.45688/1.55003/0.81026/1.37653/1.00494/0.776377/-0.244705/0.137183/1.33699/0.268548/-0.940834/0.41356/0.697332/0.071619/0.947628/1.02471/-0.123737/0.57984/0.591312/-0.599786/1.16461/-0.136747/1.08604/0.747176/0.392084/1.00141/1.01097/0.690372/0.57299/0.895581/0.764379/0.395789/0.0740094/1.70398/-0.00133685/0.285887/0.155931/0.991599/0.374355/-0.163326/0.979238/0.0616195/0.742651/-0.500635/-0.186862/0.187733/0.557541/-0.146553/0.415868/1.19283/0.168557/-0.731488/0.984761/0.955192/-0.0471342/0.0604902/0.912877/0.542374/-0.236839/0.678217/0.90749/0.722269/0.00992011/1.00555/1.47104/0.339521/0.159387/-0.490619/0.162087/0.204726/-0.866661/0.0238009/0.0159808/0.606246/0.126729/-1.02135/-0.214317/-0.638388/0.537862/0.766503/-0.577486/0.515606/0.216317/0.863009/0.828848/-0.375398/-0.26734/0.803653/0.639317/-1.00923/0.654839/0.148291/0.427984/-0.0204044/-0.15715/-0.640233/-0.404227/0.168556/0.668243/-0.0791997/0.579323/0.271164/-0.0235364/0.361539/0.157539/-0.854511/-0.44898/-0.193919/-0.503944/-0.501788/-0.109064/0.44559/-0.803498/-0.487599/0.552818/-0.47309/-0.675248/-0.335495/0.640262/0.300579/-0.372983/-0.709832/0.477309/0.971508/0.139762/0.988842/-0.622469/0.346503/0.673941/-0.204161/-0.997895/0.414729/-0.64832/0.431957/0.928653/0.336113/-0.270408/-0.142105/0.896626/-0.544798/-0.610905/-0.537435/0.260479/-0.0968015/-1.37878/-0.544832/0.133422/-0.225519/-0.839496/-0.607284/0.0711368/0.871453/0.511388/0.878735/0.834031/0.378657/-0.0943843/-0.715592/0.376437/-0.571534/0.636715/0.991011/1.04624/-0.214699/-0.0696854/0.618568/0.459363/-0.645031/0.127258/-0.328425/-0.845557/-0.209045/0.15313/-0.576199/0.553409/0.586125/-0.559946/-0.914885/-0.800186/0.354051/0.526879/-0.739836/-0.457352/0.4422/-0.354171/0.227953/0.419945/0.556676/0.0047954/-0.952609/0.435791/0.403031/0.596055/-0.772031/-0.157991/-0.541575/-0.257335/-0.207762/-0.360571/-0.0932212/-0.33907/0.17407/-0.323971/-0.10771/-0.517145/-1.08984/-0.0700129/0.0534779/0.802434/0.499081/-0.7086/0.183443/0.560631/0.470657/0.0630851/-0.20309/-1.18362/-0.695209/0.216132/0.52451/-0.959545/0.182125/-0.150009/-0.0475851/0.280325/-0.135316/-0.379178/-0.863565/0.719198/-0.887681/-0.831841/0.407545/-0.647374/0.525079/0.777174/0.490659/0.498943/-0.265641/1.02539/1.00434/1.27462/-0.358378/-0.424987/-0.956113/0.524862/0.352764/0.707352/0.640401/-0.0365312/-0.546655/-0.532945/0.970182/0.187689/1.04061/0.807013/0.641401/0.544525/-1.05127/-0.902063/0.0856328/-0.983285/-0.222233/-0.269749/-0.0563728/0.541905/-0.21033/1.07971/-0.574203/1.08677/0.797878/1.14057/0.737316/-0.442415/1.10088/-0.0565392/-0.271101/-0.0918975/0.595587/-0.853934/-0.526909/-0.255478/-0.126463/0.392024/-0.120523/-0.508559/-0.130339/0.743395/-0.403072/-0.336193/0.0801731/-0.203452/0.559653/0.091442/0.860771/0.42965/-0.457229/0.386397/-0.448942/0.656777/0.0105134/0.848919/0.706398/0.926052/-0.355584/0.879602/-0.399865/0.00223954/0.355922/0.00136495/-0.757248/0.836411/-0.129433/-0.0121159/0.070226/0.197641/0.669747/-0.173352/-1.02026/0.119418/-0.559804/-0.622145/-0.385165/0.162742/-0.669381/0.324945/-0.550625/0.460556/0.0925281/-0.316477/-0.397357/-0.204734/-0.136724/-0.606533/-0.556706/0.759462/-0.0295826/0.0348708/-0.382931/-0.72406/0.0717965/-0.491793/-0.284078/0.19407/0.805206/0.851664/-0.704574/0.47656/-0.0601693/0.734112/0.214244/0.253554/-0.580418/0.000693701/0.937992/-0.398675/0.056013/-0.570515/0.850126/0.444623/-0.329952/-0.933494/-0.906527/0.64638/-0.0112053/-0.390237/1.02398/-0.121682/0.571482/0.163679/-0.0652394/0.94915/-0.353119/-0.728931/-0.136732/-0.965946/0.957872/0.950987/-0.759691/-0.126807/0.75403/0.975578/0.545266/0.284363/0.829445/0.0532014/0.891661/0.139186/-0.69592/-0.32036/-0.292335/0.733708/-0.571168/0.386426/0.664672/-0.862968/0.0970031/0.331118/-0.905168/0.838941/0.0877632/-0.964569/0.485991/0.0494371/0.889756/0.796071/
0.118255/-0.487242/0.923801/0.322502/0.29803/0.752988/0.192314/-0.935897/0.97711/-0.262759/-0.517431/-0.469282/0.778004/-0.0895918/0.229949/-0.850749/-0.55388/-0.984476/0.569964/-0.608027/0.892155/0.454798/-0.217564/-0.598264/0.976636/0.316665/0.191816/-0.144311/0.572721/-0.28021/0.5154/-0.111165/-0.778577/-0.5282/-0.637352/0.666897/-0.72743/0.299172/0.277864/-0.16547/0.766935/-0.653755/-0.833049/-0.927457/0.228581/-0.761114/0.346289/0.882809/-0.271421/0.0519706/0.917554/0.317378/-0.667433/-0.635319/-0.154685/0.984605/0.250794/-0.91046/-0.252064/0.427969/-0.413071/0.235825/-0.694784/0.879749/0.536361/0.445814/-0.308835/-0.764012/0.433327/-0.699542/0.834322/-0.237883/1.02012/-0.117429/-0.743543/0.000450568/-0.85898/0.629425/0.654804/0.0888917/-0.964842/0.124911/0.795944/-0.519869/0.567282/0.311979/0.476518/0.534959/0.560443/0.975268/0.177649/-0.333007/1.00115/-0.00605426/-0.489861/-0.438377/-0.77321/-0.734936/0.434684/0.578103/-0.497904/0.232131/-0.53087/0.497263/0.721253/-0.474136/-0.98288/0.51045/-0.571662/-0.601182/-0.497113/0.14658/-0.422348/-0.407589/0.649184/-0.662891/0.855058/-0.362064/0.0154347/-0.816897/0.708106/-0.253456/0.34772/-0.258555/-0.389091/-0.653843/0.468745/0.514673/0.937987/0.592991/-0.749941/-0.164273/1.03092/0.108556/-1.04302/-0.531142/0.314605/0.385466/-0.345511/0.465504/-0.281884/0.370807/0.707827/-0.290046/0.308108/0.122049/-0.867633/-0.275161/-0.690868/-0.66812/-0.736329/0.381205/-0.399011/0.199206/-0.617361/0.479365/-0.263291/0.434963/-0.525881/-0.0841009/-0.889089/-0.403628/-0.10259/-0.218034/0.410381/-1.169/0.0918405/-0.480029/0.148845/-0.361785/-0.082387/0.0633653/0.0159266/-0.628878/-0.651154/0.239027/0.629738/-0.204979/0.793753/0.247028/0.291249/-0.845736/-0.598055/0.712783/0.153222/0.806487/-0.22182/0.250269/0.283326/-0.799555/-0.300758/0.0536667/0.0143016/-0.118818/-0.924724/-0.0661224/0.681322/0.967506/0.851418/-0.280011/0.686578/-0.842172/-0.0257053/-0.799176/0.349815/1.10787/0.398223/0.761089/0.716293/-0.924063/-0.329822/-0.16463/0.402376/1.10146/0.182189/-0.844671/-0.452187/-0.794252/-0.449223/0.289655/-0.363915/-0.268329/0.174175/0.400868/-0.618956/-0.79664/-0.118556/-0.140438/0.0773326/-0.287901/-0.224325/0.240707/0.222382/0.69612/0.872226/-0.789069/-0.772919/-0.541516/-0.766743/0.16924/0.889241/0.373877/-0.0384573/-0.494955/-0.510363/0.707251/0.260403/-0.292078/-0.0687978/0.100608/0.264571/0.516198/-0.259029/0.476985/0.603891/0.926213/-0.649591/0.246559/0.267035/-0.188524/-0.22803/0.775133/-0.187798/0.192294/0.0702898/-0.303959/-0.555582/-0.438633/0.683042/0.900348/-0.334799/1.08732/0.362262/0.536099/1.07398/-0.926665/-0.287294/0.168/0.676442/0.937151/0.692003/0.45734/-0.253986/0.749458/0.59845/0.832078/-0.338087/0.59508/0.246753/0.897619/-0.15001/-0.546807/-0.346969/0.596756/0.512858/0.277687/-0.143317/-0.413118/0.0606443/-0.113539/-0.19881/-0.660995/-0.942737/-0.510837/0.198519/0.63251/0.292635/0.201861/0.684421/-0.946971/-0.986358/-0.691942/0.813586/-0.719172/-0.185328/-0.64617/0.613656/0.746811/-0.13701/-1.00544/-1.28382/0.424939/-0.408241/-0.0453145/-0.640833/-0.145896/0.114987/0.771054/-0.155471/1.19676/-0.356785/-0.200726/-0.318992/0.151431/-0.0462217/-0.854381/0.422734/0.876038/-0.547536/-0.33871/-0.808464/-0.581628/-0.0773221/0.351265/0.278731/0.998821/-0.714963/-0.491826/-0.212832/-1.28075/-0.525765/0.424413/0.299545/0.919483/0.0106753/0.803892/-0.0063109/0.920687/-1.12855/0.0601356/0.277394/-0.587403/-0.0165766/-0.16931/0.405682/0.215166/-1.12739/0.764727/-0.427512/0.00575906/0.386891/-0.870515/0.606255/0.712206/-0.457045/-0.310057/-0.908073/0.215641/-0.568479/-0.682285/0.998902/0.154644/0.206617/0.361639/0.611969/-0.870415/-0.646602/-0.205513/-1.42546/-0.0958869/-0.0555395/-0.815375/-0.00506051/0.859192/0.0153571/0.0858061/0.600374/0.850409/0.917113/0.0214396/0.272637/-0.773586/-0.802403/0.338082/0.422537/-0.469731/-1.054/0.735111/0.762361/0.652824/1.54321/-0.621207/-0.708246/0.0789941/0.1091/-0.457157/-1.25512/-1.08188/0.494305/-0.402907/0.340601/0.46183/-0.837154/-0.24737/-0.0457769/-0.286285/-0.182992/-0.389716/-0.0777303/-0.725149/-0.116824/-1.07583/-0.0206809/-0.535204/0.538694/0.785651/-0.814531/-0.329718/0.177292/-1.0372/-1.15683/-0.597222/0.667942/0.441266/0.326649/0.308116/0.858925/-0.0988986/-0.188072/-0.877143/0.892669/-0.616216/-0.396256/0.38954/0.50631/0.618995/0.471379/0.220659/-0.897627/-0.384389/-0.469996/-0.722213/-0.360692/0.0413881/-0.152983/-0.0907941/0.597512/-0.638324/0.837819/-0.33534/0.151688/-0.167971/1.06743/-0.203551/-0.84712/-0.16484/0.201942/0.102357/-0.668067/0.936888/-0.457061/0.652005/0.953668/0.310989/-0.553116/-0.302578/0.359944/-0.453756/-0.835914/-0.825785/-0.702456/0.903718/0.709252/-0.208691/-0.29457/-0.746478/-0.209073/0.0537169/-0.682853/1.17155/0.589464/-0.936777/-0.453033/0.0933922/-0.35743/0.74175/-0.628904/0.922113/-0.00658228/0.0333661/0.704732/0.0976328/-0.222724/-0.32565/-0.280118/-0.746288/-1.18081/-0.936612/-0.309308/0.302575/0.479628/0.931817/-0.048801/0.136601/-0.712645/-0.0448816/0.510655/-0.470573/-0.650939/-0.439894/-0.62465/0.294121/-0.708813/1.02961/-0.0355516/-0.146834/0.113269/-0.669041/0.656222/-0.273857/-0.0503936/-0.460068/-0.580991/-0.169246/-1.05856/0.238055/0.735219/0.911202/-0.00293556/0.25154/0.247408/-0.376894/0.311366/-0.076417/1.01978/-0.4831/0.722967/-0.38769/0.396623/0.234904/0.0382304/0.52722/-0.322363/0.69738/-0.704423/-0.711699/-0.0785533/-0.372367/1.25514/-0.70299/0.467123/-0.82781/-0.581312/-0.198587/-1.08027/-0.439288/0.45231/-0.105252/0.784949/0.0677802/0.407038/1.26811/-0.133509/-0.377754/0.0421633/-0.150526/-0.291149/-0.570224/0.24132/-0.150111/-1.03824/-0.503776/0.512463/-0.22246/-0.196329/1.25459/0.578256/-0.453465/-0.0513486/-0.234838/-0.0843034/-1.66768/-0.62137/-0.383929/0.711143/-0.406016/0.115729/-0.867271/0.44284/-0.0571418/0.665087/-0.277389/-0.628733/0.607666/-0.873655/0.881247/-0.87366/0.414639/0.473932/0.350439/0.620698/0.333709/0.0398277/1.37957/0.145171/0.315049/-0.540469/-0.502056/-0.322631/-0.604563/0.358798/-0.699787/-0.280765/0.544606/0.153761/-0.735576/0.457087/0.707168/0.274219/-0.820063/-0.172099/-1.02623/-0.86963/0.453774/0.583285/-0.706447/0.576995/-0.326573/0.39701/-0.577702/0.0210699/-0.229076/-0.203373/0.196277/0.739424/-0.94312/-0.195762/-1.1887/0.136315/0.398724/-0.926504/0.333516/0.407175/-0.489882/0.290661/0.378803/-1.10383/-1.24687/-0.273199/-0.860932/0.591999/0.27351/0.876831/0.893308/-0.331114/1.04877/-0.0537255/-0.595167/0.00232479/0.858224/-0.537521/-0.0884472/-0.739418/-0.5576/-1.26849/-0.331553/-0.799143/-0.565205/-0.904354/-0.317889/0.491154/-0.057509/0.378704/0.604989/-0.50125/-1.16797/0.188557/-0.609792/0.0696829/0.32291/-0.854412/-0.106883/0.632651/0.793192/0.335436/-1.01101/0.369731/0.60682/-0.398893/0.133387/-0.277271/-0.972021/0.776705/-0.671266/0.0715221/-0.843777/-0.34187/0.0381252/0.0655439/0.169496/0.494955/0.418671/-1.02524/0.171056/0.351398/0.626624/-0.0911392/-0.868327/0.0364363/0.38453/-0.166654/-0.840538/0.900938/0.762156/0.840347/-0.201596/-0.936507/0.128502/-0.551471/-0.979487/-0.551114/-0.15725/-0.0616471/-1.00186/0.778949/-0.445773/0.852813/0.456979/-0.882153/-0.587171/-0.280503/-0.291597/-0.334025/0.980762/-0.347838/-0.349546/-0.813111/0.0359464/0.151762/0.659972/0.149572/-0.136/0.240181/0.728667/-0.783767/-0.683151/0.281268/-0.733979/0.018052/-0.599283/-0.150544/-0.189681/0.0383566/0.658889/-0.0530285/0.750185/0.359399/0.417269/-0.955604/-0.83455/-0.275302/0.99207/-0.279828/0.924566/-0.0228982/
