-0.999984/-0.736924/0.511211/-0.0826997/0.0654518/-0.562554/-0.905988/0.357647/0.358552/0.869386/-0.232996/0.0388327/0.661931/-0.930856/-0.893077/0.0594004/0.341849/-0.987485/-0.233169/-0.866316/-0.165028/0.373545/0.177953/0.860873/0.692334/0.0538576/-0.81607/0.307838/-0.168001/0.402528/0.822134/0.528515/-0.470815/-0.909282/0.437147/-0.378289/0.25705/0.530291/1.00233/-0.268453/-0.503642/0.960603/0.43925/0.503592/0.304063/-0.86597/0.268374/0.776312/-0.450518/-0.124744/0.536331/-0.0340312/-0.513119/-0.446941/-0.281679/-0.666986/-0.0269652/0.796805/0.827467/-0.840398/0.881853/0.0317581/0.0398943/-0.326424/1.08449/0.20698/-0.277179/-0.731807/0.955365/-0.804072/0.051191/-0.198084/-0.505166/0.662725/-0.0617562/-0.111297/0.83532/-0.90342/0.563966/0.658403/0.835863/-0.620318/-0.94572/0.376911/0.736494/0.264117/0.497842/0.552834/1.17794/0.967959/-0.310483/-0.0692832/0.0432489/0.376135/0.254921/0.592871/-0.310756/0.583806/-0.544641/-0.181337/0.0463173/-0.132958/-0.344625/-0.44085/-0.474149/0.275475/0.708304/-0.774865/0.373511/0.265414/0.934169/0.496585/0.109168/0.783498/0.26183/0.756777/-0.494765/-0.387948/0.676804/-0.383725/-0.504553/-0.228807/-1.15055/-0.470798/-1.35202/0.160617/0.796097/-0.340901/-0.448503/-0.153096/1.24166/1.00528/0.152715/1.0731/0.251913/0.0318201/0.243342/-0.528231/0.174883/0.691151/0.180217/0.915112/0.151649/-0.688043/1.06466/-0.168983/-0.625285/0.453371/-0.0483205/0.222665/-0.0922882/0.90126/-0.653626/-0.496559/-0.215377/0.338711/-0.847618/0.21576/0.621428/1.58013/0.730348/0.828158/0.273085/-0.327582/-0.923936/0.839954/-0.151763/-0.715958/0.894974/-0.172649/-0.697872/0.743835/-0.886456/-0.784629/-0.84382/-0.0951306/-0.167308/-0.310476/0.918076/0.0791083/-0.11773/-0.0769077/0.415629/0.643709/-0.0403909/-0.927834/0.377834/1.17586/0.0289223/1.1689/0.276677/0.21861/0.00615628/0.524124/0.496869/-0.07551/0.902735/0.261195/-0.119755/0.633596/0.144527/0.143854/0.762655/0.894795/0.900333/-0.0843087/0.517636/0.4384/-0.607531/-0.442491/-0.288275/0.326241/-0.550019/0.0978116/0.60236/0.418268/0.57395/0.780543/0.800903/-0.751489/0.424403/-0.109908/-0.0784511/-0.869612/0.426845/-0.0275345/0.35775/0.367479/-0.730568/0.599903/0.358035/0.770524/0.35283/-0.646689/0.167659/1.22629/-0.384552/0.0548567/-0.135718/0.281017/1.01179/-0.0629233/-0.158361/0.567551/-0.423224/-0.180948/1.25685/-0.704906/-0.173815/0.0326355/-1.00064/-0.998242/0.546704/0.468516/-0.418273/-0.172933/0.275685/0.138976/-0.782387/0.623972/0.28037/0.51696/-0.394269/-0.538171/0.725123/0.650681/0.119122/-0.0906316/-0.322948/-0.102195/0.663117/0.884959/-0.373073/-0.195688/0.395524/-0.526202/0.496502/0.608606/-0.159789/-0.435688/-0.612065/-0.971088/-0.796134/1.00135/-0.669277/0.477565/-0.701615/-0.246062/0.211424/-0.590876/0.886878/-0.531008/1.05364/0.0334608/0.159556/-0.45425/-0.0220945/0.550046/0.252134/0.434935/0.219715/0.774438/0.310116/0.215695/-0.569938/0.397205/-0.504881/-0.362444/0.399669/-0.755109/0.658145/0.143526/0.0227003/0.353353/-0.282126/0.301192/-0.392569/-0.368154/0.315533/0.911215/0.445175/0.0388264/0.674247/-0.168382/-0.193883/0.665269/-0.244598/0.295176/0.176572/0.173828/-0.390371/-0.270987/-0.101574/-0.03881/-0.0323802/-0.224338/-0.441414/-0.837348/-0.0808082/-0.510494/0.373365/0.531562/0.100389/0.603784/0.958358/1.33247/0.104183/0.800307/-0.432103/-0.0338441/0.327669/0.613204/0.277267/0.721405/1.10091/-0.681866/0.425064/0.18715/0.315984/-0.0668164/0.24943/-0.982065/-0.450161/0.285958/0.0922732/0.830952/-0.430946/0.630869/-0.993243/0.467488/0.206974/-0.107619/0.741157/-1.10026/-0.982508/0.133312/0.605102/0.207119/0.391497/0.68571/1.28398/0.654633/-0.217507/0.690329/-0.512861/-0.705231/0.248871/-1.14222/-1.15678/0.896108/0.55437/0.493358/-0.127149/-0.979925/0.410841/-0.0474374/-1.01625/0.195789/0.0584128/-0.467536/-0.16979/-0.204752/-0.215177/0.209719/0.594156/-0.17163/0.754545/-0.327912/0.028191/-0.708776/-1.17715/-0.745521/0.136754/0.777308/-0.319513/-0.852582/-1.03887/-0.736563/0.464297/-0.405956/-0.898795/-0.014684/0.196507/0.229678/0.0751186/-0.101798/0.47042/1.2441/0.866339/0.217433/0.33147/-0.299303/-0.460804/1.04631/-0.034568/-1.10643/0.567363/-1.18778/-0.322173/0.11767/0.266189/0.598063/0.611391/0.318222/-0.850868/-0.854297/0.944573/-0.623448/-0.297363/0.245084/0.33656/-0.51856/0.282935/1.23868/0.330319/1.01875/1.36825/-0.284465/-0.615191/-0.469394/0.512662/0.221904/-1.34293/-0.186341/-0.0158051/-0.335822/-0.603128/0.414958/-0.728865/-0.667973/-0.707571/0.185869/-0.943177/-0.796725/0.183784/-0.136183/-0.834987/0.406235/-0.220765/0.886361/-0.527149/1.11427/-0.713177/-0.501203/0.17199/0.467103/0.656483/-0.979391/-0.528917/0.0383728/-0.704049/-0.357776/-0.0605825/-0.00206794/0.269799/-0.923508/-0.723239/-0.774984/0.0631318/0.131736/0.152254/-0.403438/-0.565078/-0.532617/0.306023/-0.589789/0.727857/-0.138747/-0.506858/0.578208/-0.701725/1.07747/0.0538208/0.0377982/0.393402/-1.25832/0.0927553/0.457372/0.123283/-1.06934/-0.135488/-0.22313/0.241539/-1.16663/-0.479298/0.76965/-0.107705/-0.428964/-0.315472/0.297813/-0.595333/-0.657241/-0.25496/0.900627/1.05677/0.112982/-0.321773/-0.391117/0.0677703/-0.766263/0.0466639/-0.815623/0.29178/-0.489047/-0.241842/-0.439209/0.475546/0.153895/0.817091/0.0408161/0.00270324/-0.0915006/-0.722945/0.464708/0.0184676/-0.502139/-0.282182/-0.257914/-0.190557/-0.519119/-0.833829/-0.173836/-0.0962137/-0.174614/-0.567633/-0.521177/0.564293/-0.34187/-0.182445/0.468408/-0.619201/0.415565/-0.510769/-0.34073/-0.844066/0.0930912/-0.259956/0.393563/-0.209478/-1.27025/-0.783159/0.00323432/-0.392654/-1.01258/0.474197/-0.896847/0.589512/0.892089/-0.65769/0.204805/-0.76318/0.0854982/0.0126825/0.168921/0.770179/0.334142/-0.054804/-0.663163/0.452068/0.0485114/-1.0751/-1.00689/-0.663417/0.768198/-0.696097/-0.166079/0.514385/-0.871576/-0.863915/-1.1221/0.19567/0.12444/-0.498721/-0.644186/0.410979/-0.243268/-0.598711/-0.487488/0.0283017/-0.0402519/0.81621/1.11519/0.0348393/-1.07463/-0.246597/-1.04047/0.716055/0.330512/0.913121/-0.0860476/-0.536124/-0.0876912/-0.2727/-0.303974/0.894163/0.963372/0.714703/0.942909/-0.0873834/-0.700146/0.675703/0.113143/-0.0764443/0.863829/0.381545/0.647279/0.144291/-0.162471/-1.03723/0.763773/0.432903/-1.05889/-1.01377/-0.183499/-0.433747/-0.393759/0.389474/-0.702505/0.0887325/0.597368/-0.037172/0.307608/0.427186/0.480512/-0.727362/-0.312604/0.655975/-0.186199/-0.940498/-0.747933/0.839389/-0.556687/-0.239771/0.197941/-0.603252/-1.14858/0.131045/0.451978/0.306957/-0.961528/0.220381/0.968732/1.12391/0.309412/0.365701/0.815204/0.749591/0.117477/0.410646/0.115887/0.000256361/-0.552672/1.18264/0.30662/-0.31639/0.209218/0.556394/0.370686/-0.809173/0.0974726/0.221475/0.361177/0.0309547/0.0724694/0.124564/-0.0610672/-0.601013/0.0601933/0.557644/-0.819704/-0.784483/0.183193/-0.234516/-0.85872/-0.531342/-0.857681/-0.295415/0.124344/0.209875/0.287691/0.932947/0.589205/0.0574564/0.0688528/0.360692/0.407866/-0.188686/-0.026301/-0.0404343/0.420721/0.0702599/-0.455336/0.208101/-0.429455/0.421417/0.065589/0.88984/-0.506824/-0.164442/0.198151/0.582176/0.85433/0.364355/0.607678/0.0175666/-0.571908/-0.722111/0.797657/-0.498535/0.301588/-0.991678/0.87511/-0.448305/0.717692/-0.442445/0.904862/0.0136399/-0.7541/-0.167049/0.404943/-0.127018/-0.784522/0.53235/-0.800235/-0.117464/-0.310847/-0.405872/0.515242/-0.322981/-0.338483/-0.888788/0.146366/-0.0294279/-0.595036/-0.771051/0.948696/0.729219/-0.0163185/-0.26521/0.609825/-0.675592/-0.68084/-0.884554/-0.701497/0.30049/
-0.238783/0.767409/-0.151733/-0.175504/0.302743/-0.382466/-0.879654/0.62882/0.795307/0.838984/0.802436/0.540093/-0.658408/0.144884/-0.937192/0.606536/0.044454/0.723402/-0.445604/0.738988/0.173724/-0.221656/0.623791/0.0513405/0.879743/-0.159924/0.159725/0.49829/0.761568/-0.323829/-0.62087/0.486046/0.436909/0.754506/-0.85602/0.411578/0.748873/-0.277357/-0.80336/-0.677629/-0.173956/-0.820095/0.337321/0.101428/0.612542/0.759586/0.525239/0.252772/0.754547/0.718521/-0.0386763/-0.75923/-0.246664/-0.235496/0.375078/-0.756521/-0.846356/-0.713363/-0.0462958/0.392953/-0.53503/-0.226165/0.94663/0.230847/0.41012/0.865385/-0.278138/0.65598/0.49854/-0.227171/-0.97534/-0.196186/-0.119208/-0.143002/-0.0591006/0.363613/0.638509/-0.641744/-0.735527/-0.660554/-0.807088/0.953514/-0.183083/-0.523179/0.92632/0.665681/-0.641169/-0.865406/-0.698884/-0.359178/0.205672/0.0589337/0.413547/0.0582599/-0.208784/-0.406684/-0.0252571/-0.305111/-0.96661/0.195197/1.01478/0.537837/0.0849053/0.976631/0.60603/0.359462/-0.396991/-0.925654/0.0249358/0.331935/0.291604/0.289796/0.59807/-0.244129/-0.262854/-0.25644/-0.324947/0.478699/-0.461021/-0.0911467/0.64159/1.04513/-0.150631/-0.859882/-0.0465659/-1.22826/0.515391/-0.143914/0.227569/-0.0182259/-0.00280842/0.0707619/0.858977/-0.787722/0.221206/-0.715102/0.174663/-0.0881374/-0.67586/0.511711/0.331946/-0.97546/0.624508/0.205348/-0.367961/-0.0600886/-0.29986/0.201308/0.72054/1.01063/-0.319769/-0.0580683/-0.231788/-0.90924/-0.952421/-0.651059/0.176127/0.929153/0.20154/1.06985/-0.234114/-0.500084/-0.216256/1.06111/0.458424/-0.0572369/-0.0610937/0.255661/0.888904/-0.189537/-0.928261/-0.0541018/0.211051/0.538778/0.446203/-1.01677/-0.874157/0.425735/0.720664/0.241544/0.428701/1.06978/-1.00486/0.652847/-0.795334/1.05331/0.237677/-0.197028/0.416513/0.273877/0.700125/0.800871/0.646269/0.593265/0.285535/-0.300942/0.0697524/0.350738/-0.362609/0.728128/-0.379941/0.785339/-0.574341/0.63807/-0.936725/-0.375785/0.523653/0.983604/-0.112965/0.0663714/-0.0962454/0.543004/0.834834/0.487994/-0.359137/1.08156/0.148988/-0.542618/-0.686972/0.63156/-0.436915/-0.415385/0.693158/0.20481/0.246485/0.704652/0.375313/-0.1288/0.645949/0.505804/-0.332239/-0.852862/0.392126/0.266982/-0.0217698/0.244265/-0.57836/-0.208346/1.1292/0.333591/0.722062/0.175687/-0.883737/0.569939/-0.307335/0.176284/-0.759628/-0.801642/1.01842/1.15292/0.185715/-0.933993/0.381863/-0.0108854/0.159748/0.730804/-0.391676/0.407099/-0.184283/0.144313/-0.350294/1.01264/-0.387361/0.964941/0.143031/-0.71695/1.10166/1.03336/-0.262558/-0.814681/0.692073/-0.957904/0.776845/0.200212/-0.239272/-0.929141/-0.79592/0.651385/-0.00745947/0.311775/0.010118/0.059485/-0.755164/0.876507/0.261939/-0.496419/-0.0992714/-0.280113/0.887673/-0.178527/-0.482959/0.793085/0.806984/-0.067762/0.719918/-1.18532/-0.514533/-0.188257/-0.307005/0.207032/0.14356/0.0979106/-0.322234/-0.481308/-0.723844/-0.406264/-0.664739/-0.552606/0.342703/-0.198578/0.576662/-0.0486241/-0.461957/-0.394514/0.149247/0.332764/0.67362/1.01173/-0.19907/-0.251575/-0.466192/0.079984/-1.2801/0.687793/0.784049/-0.193485/-0.354821/-0.171403/0.653463/-0.411775/-0.187917/-0.915068/0.979424/-0.692158/-0.466576/-0.0359026/0.58556/-0.488797/-0.764187/-0.704094/-0.255049/-0.793348/0.535515/0.262116/0.287376/0.362782/-0.176124/0.463878/-1.01789/-1.25824/-0.0111755/0.337626/-1.17013/0.79846/-0.261927/1.01413/0.215593/-0.292029/-0.0756535/-0.496064/-0.336005/-0.865706/0.828477/0.57094/-0.213098/0.45368/0.552392/0.618903/-0.684149/-0.349257/0.790031/-0.3727/-0.423554/-0.932101/-0.0898567/0.184724/0.505773/-0.281107/0.203622/0.35634/0.0110878/-0.0257075/-0.000653704/-0.258841/0.339885/-0.162363/0.319507/-0.91003/0.283308/-0.506362/0.227827/0.709206/-0.370785/0.216305/-0.713565/-0.281392/-0.720708/-0.572103/-0.841945/-0.885594/0.067278/-1.17938/-0.449548/0.745702/-0.620262/-1.03472/-0.170567/-0.829711/0.825165/-0.539963/-0.713007/0.434564/0.46282/-1.38962/-1.12893/0.416929/-1.07696/0.414448/-0.547665/-0.201571/0.198388/0.309997/-0.959512/0.724857/0.241696/-0.573927/-1.23331/-1.00013/0.799914/0.570417/0.0278541/0.456584/-0.539226/0.0725814/-0.322097/-0.477345/-0.281574/-0.680594/0.0184437/-0.340154/0.625545/-1.22448/-0.271033/-0.45129/0.447398/0.260292/0.198222/-0.336393/0.24801/0.301847/0.071368/-0.896802/-1.5438/0.457636/-0.741231/0.308759/0.22075/0.076149/-0.682838/-0.140569/-0.676171/-0.0761234/-0.371689/-0.228064/0.950011/-0.535771/-0.0522829/-0.688226/-0.347265/0.67429/0.557401/0.413448/0.703449/0.371587/0.579018/0.679592/-0.102559/0.275532/0.130582/0.0922068/-0.766483/-1.00554/-0.0958442/1.05557/0.204442/-0.0658134/-0.0751471/-0.973615/0.241948/0.580881/-0.952141/-0.446503/0.0773099/-0.335731/0.264611/0.894089/-0.754559/-0.486128/-0.717229/0.525079/-0.438744/0.397892/-0.184631/0.570146/0.444586/0.145745/0.0184138/-0.0304313/-1.74619/-0.0444884/-0.298789/-0.13202/-0.107192/-0.361305/-0.672461/0.894121/-0.590691/-0.275662/-0.181826/0.412832/-1.29426/-0.274448/0.744002/-0.370349/0.831578/1.13926/1.10143/0.751161/-0.053064/0.628552/-0.59319/0.201469/0.085649/-0.498128/-0.77228/-0.18116/-0.193046/0.53495/0.0918534/0.887948/0.34946/-0.176452/-0.539275/-0.263996/0.458107/-0.357844/0.0969896/-0.493294/0.110039/-1.04743/0.767888/0.649288/-0.587983/-0.514159/0.83706/0.847467/0.278205/0.380116/0.121772/-0.0117672/0.229003/0.841442/0.269253/-0.506621/-0.936077/0.118308/-0.487957/-1.01226/-0.644482/0.427241/0.279909/0.369834/0.589562/0.0379759/-0.0983828/-0.241432/-1.15153/-0.11555/-0.156235/-1.05823/-0.666299/0.41084/0.329788/1.15896/0.359604/1.18915/-0.867453/-0.0493116/-0.779736/0.990886/0.187772/0.323022/-0.770026/-0.162483/-0.860485/-0.0205208/0.925322/0.0585615/0.830044/0.736316/-0.112597/-0.710926/0.738026/-0.694475/0.0595287/0.27042/1.16434/-0.0488282/-0.855689/-0.623239/-0.587099/0.994311/0.268653/0.895073/-0.868634/0.851246/0.898788/-0.0564353/-0.481743/-0.280132/-0.279885/0.635169/-0.572272/-0.263324/0.428868/0.625798/0.410626/0.284943/-0.0115027/-0.774795/-0.887865/0.266029/0.753195/-0.547873/-0.726263/-0.558749/-0.932514/-0.625106/0.115831/0.290876/0.133488/-0.151648/-0.0598593/-0.358351/-0.812713/0.763678/-0.013099/-0.739398/0.172949/0.653644/0.399062/-0.118906/-0.810542/-0.566481/-0.637029/-0.553537/-0.973399/-0.61715/-0.0817895/0.937493/-0.456079/-0.774272/-0.738248/1.0332/0.914375/0.959678/0.0798276/-0.984687/-0.19247/0.716222/0.880556/0.166127/0.097813/-0.052776/0.588316/-0.315279/-0.713023/-0.232657/-0.700231/0.0198431/0.745104/-0.954729/-0.323639/-0.0735358/0.725069/0.60228/-0.599706/0.48898/0.780437/-0.0144181/0.685256/0.323636/0.54942/0.387606/-0.765213/-0.465423/0.39102/-0.483289/-0.384288/-0.630064/0.513253/0.246041/0.336066/-0.302307/-0.592582/-0.57166/-0.266256/-0.103481/-0.653616/0.987878/-0.234126/-1.05535/-0.776139/-0.0231759/0.810373/-0.842049/-0.477944/-0.438945/-0.17978/-0.436071/0.00517598/-0.0103366/0.295009/0.0859033/-0.992574/-0.331224/-0.841814/0.0880575/-0.017756/-0.424232/-0.497288/-0.150323/0.326147/-0.336382/-0.999228/0.945479/-0.77671/-0.338926/0.899875/-0.319155/-0.684744/0.951479/-0.780337/-0.926735/0.911992/0.565248/-0.555831/-0.798549/-0.484664/-0.119324/-0.518508/-0.439044/0.095406/0.764978/0.703785/0.340936/0.115221/0.515666/0.803993/0.70676/0.519395/-0.5321/0.996563/-0.478487/-0.250108/-0.400994/0.491044/0.983669/0.532627/-0.142781/0.28333/-0.0723981/-0.795064/-0.636239/0.726721/0.00671518/0.86195/0.796072/-0.417668/0.258282/0.9508/0.0880979/0.661338/-0.89038/0.226477/
0.950588/0.530418/0.739755/-0.935322/0.0368766/-0.249115/0.938619/-0.615137/-0.543574/0.193895/0.793009/0.098957/-0.830454/0.553968/0.54218/0.416797/-0.89618/0.766801/-0.856727/0.989322/-0.460165/-0.000453702/0.374635/0.49687/0.889295/0.379415/0.823546/-0.657546/0.630664/-0.434221/-0.0341089/0.82725/0.407456/-0.203424/-0.715383/0.721548/-0.526557/0.155199/-0.257001/-0.490776/0.607638/-0.520123/0.314729/-0.336318/0.0174009/-0.146374/0.180265/0.306658/-0.953643/0.657438/-0.242235/0.070178/0.916036/0.486344/0.586301/0.517398/-0.0935436/-0.184364/-0.503295/0.477667/-0.486435/0.333476/-0.180964/-0.3863/-0.0515266/-0.122192/0.424498/0.849948/0.464254/0.800298/-1.0385/0.840276/-1.10227/-0.486144/-1.0196/0.412667/-1.07097/-0.020916/0.680517/-0.950573/-0.0921059/-1.04628/0.0956188/-0.233238/-0.0371404/-0.213337/-0.163681/0.234805/1.03911/0.526418/0.23218/-1.09219/-0.266226/0.0502611/0.412204/0.0824795/-0.0175996/-0.488452/-1.08897/-1.07418/-0.500031/0.404926/-0.822211/-1.06539/-0.355575/0.233421/0.0620497/-0.849617/-0.0686099/-0.432619/-0.827715/-0.0134905/-0.734371/-0.565423/-0.0633769/-0.137051/1.30621/1.09401/-0.312193/-0.338941/0.571399/0.837531/-0.968064/-0.304677/-0.313323/-1.05153/-0.44567/-0.436655/0.364791/-0.885557/-0.632763/-0.819962/-0.10632/0.0451718/-0.129192/-0.372991/0.853921/-0.573767/0.772112/0.582313/0.928393/-0.50011/-0.428738/0.182771/0.698866/0.420984/0.03804/-0.246787/0.82217/-0.507161/-1.42872/0.645043/0.896415/0.250662/1.10398/-0.128155/0.491228/0.745556/-0.089512/-0.85048/0.0722691/-0.41064/0.383069/0.888024/0.242918/-0.817411/0.0991007/0.661366/-0.414255/-0.388984/0.935394/1.06825/0.406306/0.219854/0.154072/-0.650333/0.883297/0.139566/-0.290873/-0.750401/-0.637571/-0.693223/-0.448368/-0.937603/-0.0708346/0.200877/0.118868/-0.7776/-0.781883/-0.410926/0.419387/-0.0294401/-0.348661/0.593807/-0.344589/0.193405/0.56042/0.961517/0.870086/0.740649/0.96393/1.02173/0.722412/0.742517/1.22491/0.153495/-0.342547/-0.784246/-0.237475/-0.420125/0.540825/0.542772/-0.0752849/-0.790382/-0.400823/-0.30177/1.07/-0.028503/-0.69266/0.192638/-0.798585/0.585301/-0.778545/0.124612/0.358085/0.325618/0.513619/0.424454/1.45266/-0.0418902/0.569418/-0.479915/-0.245523/-0.618256/0.40938/-1.0926/0.184358/-0.550552/-0.058653/0.848615/-0.199364/-0.293629/0.166263/0.139896/0.680141/-0.44107/0.49878/0.574215/0.182539/0.183906/-0.569377/0.0127801/0.795542/0.675702/0.968706/0.936011/1.03245/-0.415679/-0.366133/0.317425/0.667746/0.273743/0.331489/-0.106097/-0.41703/0.168294/0.657941/0.951053/0.85522/-0.0910853/0.713348/-0.312145/-0.462731/1.00283/1.066/-0.923976/-0.211762/0.272958/0.162925/0.889621/-0.139294/0.890236/0.450726/-0.387721/-0.183221/1.08794/-0.74982/-0.204145/-0.633125/0.578011/-1.18696/0.959436/1.12446/0.816888/0.046303/0.849215/1.151/0.232157/-0.0973536/0.329883/-0.698311/-0.35405/-0.945571/-0.866192/-0.147444/-0.0346088/0.68059/0.931673/0.634131/-0.17479/0.40744/0.482666/0.111412/-0.234225/-0.0883698/0.189648/0.24219/0.634247/0.520412/-0.623289/0.931338/-0.297672/0.751648/0.0537905/-0.553906/0.0157188/0.518457/0.572471/-0.711594/-1.05744/-0.0277065/0.0815125/1.13108/-1.17237/0.704486/-0.594072/-0.566522/0.481097/0.600988/0.993905/0.703264/0.553913/-0.602642/-0.534651/-1.1395/0.562728/0.676756/-0.40223/-0.00661465/-0.867977/-0.115815/0.225652/-1.12658/0.177693/0.292272/-0.40862/-1.09263/0.428158/-0.843679/-0.0966665/0.806483/-0.58044/0.30642/-0.128455/-0.944399/-0.479551/-0.278031/0.520673/0.188344/0.483531/1.2488/-0.453205/0.432523/-0.951391/-0.420848/-0.102467/1.04891/-0.0440763/-0.594954/0.31982/0.39761/-0.527244/0.355536/-0.216032/0.541859/0.637931/0.0907175/-0.759375/0.404173/0.035267/-0.290923/0.450583/0.94398/-0.520955/-0.684709/-0.208916/0.460405/0.355124/0.0811955/0.896687/0.528262/-0.523311/1.37939/0.345851/1.59681/0.169293/0.178775/-0.389571/1.32179/-0.551688/0.10213/-0.845162/-0.87511/0.202507/-1.03829/0.448463/0.846344/0.279837/0.12327/-0.577315/-0.939242/0.158125/-0.0645414/-0.966415/-1.24112/-0.772271/0.258062/-0.0982653/-0.12813/-0.870496/0.799228/-0.198804/-0.0524356/0.432485/-0.303053/-0.7384/-0.501205/0.506418/-0.0124092/0.639804/0.266641/-0.308699/0.639014/0.88694/0.412896/0.0497031/0.570295/-0.0823185/0.472263/-0.713176/-0.859707/-1.20787/-0.330899/0.178006/0.738826/0.0709112/0.379068/0.212898/1.32126/0.810806/-0.427898/-0.115567/0.190289/0.0624578/0.570586/0.0906538/-1.10277/0.79284/0.802858/-0.068233/0.890013/-0.451046/1.10053/0.255957/-0.0224868/-0.181714/-0.0735809/-0.807143/0.0663076/-0.989828/0.327544/-0.837197/-0.45717/0.705287/0.888762/0.864991/-0.189382/-0.0892131/0.360585/0.236951/-0.642826/-0.507067/0.0411156/-1.07657/-0.352833/0.277481/0.14459/-0.288912/0.97408/0.649039/0.297769/-0.471262/-0.0130764/-0.752554/-0.168821/0.541429/-1.44034/-0.506423/-1.08365/0.360025/0.115821/0.0671145/0.0644358/0.552394/0.771719/0.834194/0.602584/0.0729517/0.432867/-0.787884/-0.00385357/-0.925893/-0.112061/-0.372823/0.493731/0.449523/0.758498/0.16405/0.722712/-0.533481/-0.101389/-0.531978/-0.953052/-0.000919114/0.0639681/-0.917183/-0.480886/0.285513/-0.597991/0.300355/0.0187245/1.00292/0.58883/-0.564133/0.0510967/-1.39646/0.454643/0.179109/0.0612262/-1.30702/1.14432/-0.274199/0.410496/-0.953024/0.64872/0.5869/-0.7203/0.776013/0.207455/-0.965544/0.0943805/0.223199/-1.29625/-1.42595/-0.67234/-0.290714/0.35569/0.776705/0.479459/0.669436/0.917358/-0.144962/0.220155/-0.801803/-1.2334/-0.797246/-0.0288228/0.448761/-0.56479/0.104657/-0.746897/0.662554/-0.952462/-0.279125/0.388916/0.611905/-0.230729/0.295746/0.595652/-0.889994/0.757052/-0.489008/0.577637/-0.582126/0.174018/-1.00323/-0.482557/-0.632844/0.984464/0.879749/-0.879464/-0.926143/0.707988/-0.245538/-0.846218/-0.636215/0.205032/-0.928815/-0.0486779/-0.677166/-0.664099/-0.518156/-0.836143/0.831797/-0.557186/0.324355/-0.557574/0.825771/-1.0289/0.114904/-0.502368/0.153483/-0.612681/-0.977346/-0.0404699/-0.647127/0.0180949/-0.88323/-0.536251/-0.13765/0.920767/1.10034/0.0891397/0.639905/-0.224944/0.807214/-1.06306/-0.602495/-0.195335/-0.484112/0.166598/0.56752/-0.571317/0.0874269/-0.61621/-0.646224/0.178756/0.51922/0.217272/0.00316619/-0.703979/-0.262031/-0.939947/0.1001/-1.02244/-1.01358/-0.450945/-0.594394/-0.285167/0.1378/-0.482408/-0.559423/0.906721/-0.105202/0.960524/-0.250155/0.540787/0.280512/0.570445/0.900123/0.0348163/0.590029/0.618172/-0.400532/0.0591385/-0.676378/-0.756185/-0.873399/0.00903666/-0.815588/-0.46972/-0.202678/-0.255124/0.0583885/0.940543/0.277755/-0.695175/1.03856/-0.238211/-0.0632262/0.280742/-0.2807/-0.218793/-0.608643/-0.142875/0.775557/-0.738205/-0.212001/0.744086/-0.608168/0.512203/0.589595/0.642711/0.380662/-0.538559/-0.297582/-0.22165/-1.03688/0.369302/-0.905503/0.0448193/0.588475/-0.306198/0.337644/0.0765689/0.0375275/0.687132/-0.792539/-0.000227525/-0.301552/-0.0645062/-0.0503914/0.885091/0.938666/-0.0226532/-0.660721/0.369706/0.0315829/0.813125/0.193139/-0.205619/0.458601/0.946145/-0.348179/-0.292395/0.867613/0.678566/-0.749569/-0.709647/-0.771902/0.578323/0.590683/0.558925/-0.239079/-0.301213/-0.723404/-0.506378/-0.796912/-0.948357/-0.760236/0.403627/0.425439/-0.82359/0.158797/0.862084/0.175295/0.17927/0.990668/0.152861/-0.870736/-0.454944/-0.248259/-0.486594/-0.529159/0.619783/0.965761/-0.450689/-0.731773/-0.910675/0.283344/0.157572/0.311303/0.0705481/-0.297802/0.839219/0.758681/-0.844925/-0.656827/0.703871/-0.0331461/0.913143/-0.807985/0.19535/-0.75386/-0.387945/
-0.759101/-0.206743/-0.731819/0.322356/-0.157043/0.345923/-0.485023/-0.0543824/0.139257/0.56092/-0.625842/-0.534104/-0.691244/0.267282/0.201224/-0.0288455/-0.805669/-0.937941/-0.313407/0.569931/0.834047/-0.173686/0.862589/-0.468169/-0.509085/-0.185839/0.600064/-0.71612/0.17351/0.185555/0.627697/0.366048/0.0343242/0.648971/0.28636/0.0289463/-0.25352/0.510508/-0.605196/-0.744631/0.114304/0.150363/0.396457/0.21043/-0.435195/0.600607/-0.713928/-0.228293/-0.885713/-0.752286/-0.910568/-0.673675/0.572174/-0.319361/-0.440764/0.68373/-0.553623/-0.73588/0.0672045/-0.408908/-0.368161/-0.365871/-0.611966/0.118909/-0.671739/0.858556/0.521841/0.74868/0.291165/-0.472169/-0.590641/0.270717/-0.584381/-0.439251/0.618141/-0.592961/-0.639003/-0.797024/-0.672296/-0.628066/-0.612778/0.723197/0.746357/-0.418413/-0.26275/-0.0399136/-0.577259/0.208986/0.245248/-0.916669/0.850122/-0.302568/-0.874225/0.767953/-0.600237/0.292442/-0.951218/-1.41746/0.207379/-0.211689/-1.21872/-0.178808/0.816434/0.842848/0.630974/-0.350786/-0.168883/0.102996/-0.760142/0.943484/-0.645375/0.439875/0.971579/-0.678502/0.248455/-0.0186856/0.51151/-1.05533/0.749492/-0.360457/0.271395/0.240924/-0.870632/-0.259528/-0.834795/-1.01134/-0.915627/-0.291988/-0.0849485/0.55985/0.297995/-1.15718/0.12314/-0.325212/-0.0350681/0.164791/0.640068/0.258182/0.251689/-0.239189/-0.0536159/0.876688/0.455862/0.189131/-0.892149/0.0596586/-0.830138/0.491577/0.511063/1.13552/-0.401496/-1.1304/-1.02381/-0.53624/0.120053/-1.14581/0.266354/-0.0649463/-1.14805/0.209197/0.216136/0.0492181/1.15903/0.558076/0.125432/0.506243/-0.938981/-0.38651/-0.0672979/0.924932/-0.134011/-0.652934/-0.704778/-0.678745/0.65461/0.232397/-0.443957/0.635567/0.767166/-0.98763/-0.0578993/0.643007/0.0810284/0.105793/-0.571546/-0.756201/0.455382/-0.398862/0.121145/0.375076/-0.846792/-0.596185/0.609104/0.660261/-0.00944187/0.802165/-0.0194559/-0.990444/-0.314858/1.13737/0.948857/-0.976233/-0.715593/-0.867367/0.656353/-0.713932/0.174303/0.897096/-0.399253/0.0353818/0.487157/-0.354721/1.08493/-0.179589/0.228467/-0.293708/0.231423/0.937951/0.0191974/-0.181054/-0.360014/0.382477/0.0845722/-0.160702/-0.911251/0.612403/-0.605726/1.07582/0.30227/0.406619/0.512684/-0.744964/0.351683/-0.846066/0.371885/-0.0886357/-0.801872/-0.0632452/0.4402/0.0991271/0.357646/-0.826696/0.322695/-0.195687/0.6851/-0.811217/-0.975234/0.110719/-0.0793156/1.12133/-0.658714/0.627925/-0.470708/0.81844/0.318663/-0.95613/-0.194368/0.92452/0.602305/-0.626194/0.811514/0.321758/-0.965501/-0.762841/-1.04431/-0.170896/-1.19637/-1.07579/0.894667/-0.171622/0.281197/0.669856/-0.33967/-0.859985/0.603728/0.204193/-0.0753289/0.10105/-0.447187/-0.0606054/-0.595361/-0.215569/0.522418/0.962138/0.00450731/-0.272241/0.331249/0.562249/-0.529298/-0.526451/0.860612/-0.986252/-0.25706/0.159948/-0.723679/0.27278/-0.458429/-0.169134/-0.282481/0.337128/0.405986/0.437336/0.361414/0.572077/-0.0412924/0.31981/1.04245/-0.689511/-0.606697/-0.742111/-0.57889/0.638277/-0.940819/-0.192959/0.492115/-0.0923959/-0.833077/0.437519/-0.347667/0.0185177/-0.738151/-0.48944/0.0594575/0.486815/0.948603/-0.264428/1.0317/-1.01516/0.798528/-0.650391/0.490922/-0.866839/0.72166/-0.244471/0.797498/-0.768505/-0.264888/0.0336707/-1.16598/-0.303953/-0.399981/-0.0630885/0.615307/0.633979/0.682589/0.748427/0.829826/-0.76494/0.968302/-0.0278037/0.699157/-0.265275/-0.457937/0.505275/-0.63053/0.446716/0.28099/0.492493/0.41248/-0.96891/-0.295584/-1.04891/0.0387916/0.917697/-0.265671/0.857603/-0.181509/0.858119/-0.045098/0.963244/0.692696/0.519422/-0.23097/-0.591482/0.609075/-0.116901/-0.145939/-0.585095/-0.979284/0.27369/0.528541/1.12456/0.0690582/0.70627/0.675361/-1.02237/-1.38185/-0.815906/0.39952/-0.300656/0.449357/0.294738/-0.335117/-0.315826/-0.460898/-0.486655/1.0053/0.120536/0.115641/1.24329/-0.517103/0.17799/-0.619837/-0.355881/-0.872066/-0.601944/-0.688757/0.320933/1.01141/-0.0283126/0.344463/-0.121812/-0.114174/-0.369324/-0.638708/0.384396/0.148795/1.02903/-0.0136001/0.741052/0.865749/0.641491/0.0896388/-0.620097/-0.597694/0.119188/-0.490506/0.814779/0.992793/0.316299/0.893735/0.495961/0.797607/1.00513/-0.920651/-0.342028/-0.931672/-0.699124/-0.398307/-0.392894/-0.085846/-0.811086/-1.19004/-0.587589/-0.675884/-0.826629/0.228108/-0.606218/-0.697845/-0.676735/0.399661/0.382065/-0.497561/-0.224679/-0.05204/0.0479305/0.380098/-0.420227/-0.572215/0.794314/-1.05245/0.327413/1.15806/0.15782/-0.901941/0.177727/-0.912582/0.669806/0.612656/-1.0709/-0.0866365/0.215557/-1.02763/0.076063/-0.53436/0.613871/-0.665461/-0.343209/-0.608375/-0.69036/-0.421374/0.317569/0.596542/-0.0300579/-0.620109/0.418144/0.996499/-0.34343/-0.778459/0.0602082/-0.173484/0.816687/-0.681195/-0.776197/-0.04155/-0.819646/-0.621916/-0.398231/-1.35545/-0.771079/-1.19874/0.726421/0.729394/-0.603297/0.382459/-0.00124877/-0.537424/-0.197542/0.683889/-0.678204/-0.224626/0.142464/-0.576495/-0.822458/0.951599/0.902651/0.321464/-0.951481/0.680233/-0.788211/-1.41053/0.373178/0.563867/0.0738388/0.190908/-1.10044/0.115134/-1.1772/-1.08024/-0.508227/0.726051/-0.101384/0.0372577/0.202135/-0.16833/0.437953/-1.09987/-0.371879/-0.664638/0.608441/-0.329427/0.376862/1.41973/0.309918/0.474544/-0.126659/-0.0454435/-1.27245/-0.644331/-0.786121/-0.330758/1.02822/-0.514048/-0.727606/-0.565507/-1.01113/-0.946137/-0.323582/-0.142439/0.360559/-0.0771332/-0.388957/0.393359/-0.0106153/0.725779/0.45178/-0.0475737/-0.0169398/-0.28397/-1.02654/-0.00249718/-0.0250547/-0.294416/-0.235057/0.057387/1.0869/-0.549553/-0.672686/0.142996/0.112708/1.3015/1.3054/0.0748871/0.823934/0.434211/0.099408/-0.600033/-0.393136/0.564579/0.895449/-0.325353/-0.602346/-0.46366/-0.160133/0.438405/-0.473436/-0.241589/0.296656/0.206146/-0.533559/-1.39948/0.135741/0.65911/-0.224968/-0.367055/-0.213833/0.856796/0.341112/0.111256/0.26416/-0.334311/0.685661/0.363767/-0.649257/0.67975/0.825145/0.204463/0.426952/-0.519464/-0.85043/0.033522/-0.102308/0.296211/0.273697/-0.448458/-0.677695/0.796716/-0.697247/-0.712341/0.670513/1.34202/1.35839/0.524623/0.3751/0.475241/-0.439842/0.231792/0.737314/0.443487/0.977757/-0.659295/-0.866916/0.445603/0.0214086/-0.186046/-0.88428/-1.09076/-0.803101/-0.866044/-0.706988/0.862706/-0.494384/-0.451773/-0.643142/0.0288541/0.0490271/0.786552/1.10231/0.0450696/0.486286/-0.172317/0.86666/0.533521/0.183631/-0.284688/-0.244553/-0.402429/0.86723/-0.88707/-0.54375/0.222536/-0.547383/0.135501/-0.659537/-0.273689/-0.642149/0.161442/0.510713/0.298979/-0.820557/-0.0560975/0.564685/0.886778/0.0479369/0.307078/1.07951/0.76431/1.10244/-0.2814/-0.0198986/0.874045/0.849511/0.0212465/0.295821/-0.878268/-0.0567706/0.0833455/0.499363/-0.410923/-0.225502/-0.00500479/-0.0723081/-0.348396/0.879203/-1.02911/-0.315933/0.456678/1.03535/0.00340285/-0.543161/-0.900714/0.75004/-0.111129/0.00296738/-0.0102862/-0.269441/0.348057/-1.10848/0.0643256/-0.34861/-0.256732/0.529368/-0.0664227/0.00275075/-0.396544/0.132146/0.739381/-0.251939/-0.332046/-0.687359/0.738685/0.982536/-0.791471/-0.442071/-0.982126/0.180227/0.722103/0.249937/-0.811385/0.612504/0.824781/0.966424/0.523357/-0.577972/0.702851/-0.662288/0.995197/0.33518/-0.308152/0.543171/-0.541535/0.108825/0.100414/-0.370441/-0.819634/0.111465/-0.602499/-0.202127/0.859479/-0.733743/-0.0105195/-0.800992/-0.274638/0.150582/0.510847/-0.253682/0.361113/-0.780158/-0.113831/0.849771/0.105602/0.848125/0.44186/0.33298/0.399182/-0.949927/0.569377/-0.482494/0.717157/-0.735373/0.580189/-0.759569/-0.0770809/0.500744/0.193866/
-0.985183/0.0234555/0.216638/-0.966052/-0.43893/-0.131771/-0.626265/0.874095/0.85569/0.557855/-0.13542/-0.0113557/-0.854694/-0.839278/0.251972/0.89005/-0.922557/0.419524/-0.13887/0.018195/-0.19604/-0.841939/-0.463394/-0.265634/-0.505519/-0.255683/0.740486/-0.651992/-0.0353905/-0.808235/-0.84917/0.908051/-0.479777/-0.214625/-0.591412/0.245267/0.979126/-0.633753/0.150398/-0.081024/-0.650901/-0.257349/-0.987488/0.531769/-0.301685/-0.783235/-0.0752007/0.293747/0.908106/-0.556225/0.296028/-0.650765/0.765624/0.6044/0.695547/-0.507704/-0.979465/0.138168/-0.036963/-0.43431/0.00963866/-0.0241139/0.878381/-0.896061/-0.362901/0.710058/0.0482809/0.44349/-0.749856/1.0842/-0.711719/-0.132544/0.245706/0.696886/-0.191319/0.800315/-0.0779639/0.83681/-0.960277/0.660519/0.436151/-1.13396/-0.801091/-0.293151/-0.983742/0.249948/0.334258/0.520064/0.246194/-0.403528/0.335488/0.156307/-0.813246/-0.604845/0.730853/0.492362/1.1378/-0.227255/0.91608/1.20819/-0.577274/-0.00804634/-0.935688/0.481285/0.130954/0.74939/0.225067/-0.203154/-0.0893016/-0.36236/0.634393/0.626565/0.68567/0.047/-0.173461/0.27732/-0.157281/0.399626/0.517459/-0.184102/1.07542/0.710186/0.678445/0.426672/0.0236018/0.67644/-0.772057/-0.327618/1.21555/0.477042/-0.0305953/-0.317136/1.0206/-0.207997/-0.0954151/-0.232049/-0.265932/-0.867889/0.192054/-0.0356012/-0.350137/-0.744132/0.174457/-0.00236267/-0.214895/-0.197462/0.745732/0.0340964/0.868445/-0.564097/-0.525585/0.422144/0.360115/0.0723686/0.575291/-0.250546/-0.137368/0.390214/1.01746/-0.651488/0.0712518/0.0236228/-0.352487/-0.0714334/-0.671557/-0.458371/-0.270511/-0.239098/-0.517268/0.274806/1.02908/-0.407842/-0.26483/-0.994278/0.514533/0.426232/0.516862/0.595072/0.708199/1.10137/-0.58986/0.2824/-1.25809/-0.980551/0.0610102/0.276733/-0.090665/-0.133171/0.503339/0.404263/-0.713303/0.742174/0.244443/0.937535/0.146683/0.521465/0.270449/-0.614339/-0.625725/-0.133752/0.0441495/-0.602922/0.789447/0.221206/0.933356/0.741982/-0.473972/0.964394/0.657107/-1.3878/0.168293/0.0781093/-0.616223/0.488263/-0.593586/-1.03602/0.111217/-0.168531/-0.371955/0.0184506/0.934029/0.392878/-0.823911/0.831635/-0.711101/0.454192/0.462183/-0.356251/-0.110902/1.21549/-0.345467/0.990163/0.715018/1.2251/-0.395696/0.182041/-0.931165/0.0632736/-0.620283/-0.771298/-0.880966/-0.249463/-0.180491/0.473024/-0.217322/0.153679/-0.133558/-0.12742/-0.424521/0.00307553/0.945897/0.368744/-0.526299/0.493254/-1.26037/-0.415651/-0.764283/0.474551/-0.37393/-0.411341/0.0977911/0.741543/0.141049/-0.617215/0.0110432/-1.06436/-0.413524/-0.684065/-0.930485/-0.365374/-0.227214/0.631842/0.197112/-0.834424/0.0983901/0.673884/0.272567/0.530123/0.506409/-0.531531/0.557038/0.118316/0.100049/0.143641/0.56258/0.861839/0.984119/0.784054/0.194027/0.506073/-0.111373/1.10994/-0.719787/0.0951012/-0.356664/0.413281/-0.23471/0.576869/-0.288382/0.140982/-1.04724/0.354035/-0.419399/0.0691173/0.485731/-0.857656/0.65448/-0.17635/0.0852225/0.321217/-0.245128/-0.869154/0.725497/-0.0389914/0.277795/0.786202/0.918862/0.766433/-0.244883/-0.575002/-0.205269/-0.903332/-0.946189/0.21034/-0.00651601/-0.861384/-0.0658074/0.769326/0.919025/0.202772/0.470818/-0.621528/-0.311159/-0.0237862/0.160757/0.607178/0.838182/-0.640417/0.223293/0.688999/-0.60867/0.151189/0.914511/-0.145499/0.0426981/-0.358844/-0.177746/0.671321/0.554204/-0.206261/-1.13296/-0.632731/-0.134094/-0.0791867/-0.437577/0.315918/-0.695058/-0.66529/-0.399404/0.437399/0.360007/0.0536014/-0.0583982/-0.230084/0.971093/-0.813934/-0.864811/-1.22619/-0.827749/-0.483907/1.06468/0.581445/1.05099/1.09837/-0.162314/1.07893/-0.664718/-0.790569/0.598281/0.434074/0.655796/0.646383/-1.06897/-0.102405/1.02185/0.48008/0.597553/-1.12541/-0.879471/0.189161/0.189874/0.735729/-0.610438/0.345073/0.0557162/-0.753565/0.498218/-0.971984/0.546991/0.392081/1.00309/0.0853682/-0.212848/-0.134896/-0.604949/-0.347561/0.660312/-0.317283/-0.898715/0.184742/-0.00161349/-0.386431/1.12044/-0.515735/-0.416073/0.277591/-0.0535208/0.000527839/-0.668113/0.845943/-0.240944/0.472816/-0.638019/-0.451142/0.35253/0.0597099/0.814492/-0.3944/-0.240187/0.829137/0.0660074/-0.234454/0.516529/0.459345/-0.795067/0.029282/-1.16075/-0.894638/1.00751/1.01733/0.110658/-0.0684427/-1.23921/-0.82326/0.124244/1.18962/0.565629/-0.930002/-0.54346/0.0951652/-0.116757/-0.107024/-0.107865/-0.573243/-0.299228/-0.336137/-0.452722/0.602115/0.857326/0.467269/0.842709/-0.20983/-0.508355/-0.458762/-0.170612/-0.985792/0.713721/0.242214/-0.719498/1.08975/0.731737/0.181817/0.831315/-0.357895/0.779803/0.7668/-0.39789/0.681501/-0.0565255/0.104797/0.460154/0.439383/0.79024/-0.0602152/0.83383/-0.248392/0.941524/0.725762/0.265394/-0.675333/1.04387/-0.068261/-0.534585/0.186574/0.525063/1.18192/0.293481/0.201318/0.302316/-0.616254/0.105734/-0.16121/-0.181796/-0.566569/-0.322902/0.918794/0.850815/-1.00999/-0.25854/0.628778/0.0113357/0.253727/0.357817/0.646895/-0.0555661/-0.104902/0.573329/-1.45544/-1.26594/-1.01132/0.804703/-0.895559/0.866001/0.489719/-0.32658/-0.232201/-1.02065/0.65408/-0.342657/-0.360924/-0.804004/0.723935/-0.81828/-0.834527/0.549394/-0.269912/-0.354171/1.3137/-0.780414/-0.0271323/-0.328062/0.731969/1.13858/-0.242657/-1.11135/0.317488/-0.312546/-1.36093/0.915234/-0.865781/0.0636212/0.565818/-0.915289/-0.344959/0.539207/-1.20282/0.219169/-0.905705/-0.885192/0.00191249/0.143219/-0.838736/-0.0764651/-0.210329/-0.269755/-0.352847/-0.865458/0.710737/0.528038/0.473236/-0.0541665/0.00973824/-0.715307/-0.160259/-1.0429/0.141985/0.259802/0.735425/0.854735/1.12758/0.150574/-0.410182/-0.708341/0.218644/-1.64897/-0.0116999/-0.439865/0.988839/-0.585439/0.617533/0.988313/-0.324828/0.116042/0.370279/-0.865802/0.123078/0.742786/0.853836/-0.943551/0.544054/0.327857/-0.742532/0.0192862/0.0785904/-0.704082/-0.226961/1.03054/0.987947/0.442333/-0.208403/-0.31339/-0.385505/-0.132045/0.661657/1.01686/0.898902/-0.160756/0.0838598/-0.0709268/0.157184/0.51588/-0.886412/0.236925/0.875224/-0.371937/0.147766/0.258748/0.329825/-0.720147/0.321047/-0.531209/-0.401064/0.249039/-0.41941/0.455137/-0.660465/-0.377365/0.349576/0.425317/-0.635861/-0.563538/-0.207154/-0.684276/0.148662/0.568253/0.560648/0.140253/-0.42254/0.338651/-0.74085/-0.0427193/0.53861/-0.171632/-0.90957/0.719946/-0.328252/-0.570685/0.500465/-0.273756/-0.535576/-0.962663/-0.397977/1.13271/0.49158/0.44549/1.00873/-0.893657/-1.1454/0.374131/-0.635584/-0.18075/0.597287/0.602687/-0.683751/-0.49699/0.0699127/0.800656/-0.851248/-0.0621171/-0.870969/0.110254/0.949891/0.710829/0.363848/-0.0929131/-0.961931/0.552535/0.298445/-0.498249/0.59536/0.0561656/-0.116307/-0.624522/0.0546543/0.744629/-0.354652/0.926849/-0.833814/-0.450784/-0.0979797/-0.744141/-0.782594/-0.0456516/0.537125/-0.54038/0.743562/0.61634/0.0724912/-0.393746/0.403768/-0.406494/0.307844/-0.266914/-0.957233/0.52147/0.0410981/-0.21904/0.59922/0.443914/0.795711/0.440119/0.0914556/-0.697188/0.41971/-0.969621/-0.939383/-0.627037/-0.798236/0.052803/-0.538843/-0.324447/-0.821767/0.884552/-0.87706/-0.0250634/-0.644151/-0.046367/-0.285135/0.192582/-0.302636/-0.00559877/-0.655824/-0.411483/0.953046/-0.950471/-0.0698177/0.719418/-0.552986/0.0793675/-0.354754/0.709251/0.531391/-0.297844/0.532186/0.377514/0.0821161/0.124816/-0.216955/-0.360982/0.980416/-0.141638/-0.503121/0.0404481/0.127888/0.428508/-0.491845/-0.44587/0.265686/-0.616769/-0.0444526/0.885188/-0.653013/0.815532/0.642876/0.811234/0.410199/0.212421/0.160743/-0.397853/-0.714695/0.125769/-0.201495/-0.534366/0.909069/1.24882/
-0.397912/0.295692/-0.301391/0.527934/0.989481/0.613979/0.207078/0.99818/0.56752/-0.614723/0.350014/0.687362/0.500385/-0.0362055/-0.506541/0.557798/0.914632/0.195003/-0.717491/-0.874991/0.0302292/0.0619323/0.895411/-0.825952/0.221983/0.863872/-0.911201/-0.562348/0.624825/-0.559283/0.427822/-0.206774/-0.0303918/0.965079/-0.271222/-0.0170899/-0.484291/-0.215635/0.702402/-0.737663/-0.658925/0.669049/0.554791/0.0822785/0.960127/0.75089/0.368202/-0.378392/0.941513/-0.659868/-0.469766/0.777367/-0.48332/0.7939/0.791174/-0.63633/-0.792565/-0.635449/-0.290914/-0.276495/0.640339/-0.949365/0.478324/0.0647795/0.819277/0.696704/0.360848/-0.182371/0.214694/-0.531431/0.913995/0.5537/-0.424167/0.381337/-1.05889/-0.524869/0.00675815/-0.393556/-0.418553/-0.883807/-0.75356/-0.91449/-0.155936/-0.260766/-0.69202/-0.787923/-0.187845/0.527351/-0.509306/0.305994/-0.580369/0.7894/0.0340346/-0.564718/-0.745169/-0.353165/-0.577293/-0.617971/-1.05691/-0.225397/0.226705/-0.991436/-0.858559/0.550758/1.00041/0.21833/0.584184/-0.446562/-0.188423/0.343579/-0.27116/-0.999512/-0.794694/-0.418764/-0.801645/0.144633/-0.112571/-0.107837/-0.29557/1.15981/-0.459485/-0.397036/-0.777408/0.208779/-0.089648/-0.981331/-0.949929/0.00318621/-0.168821/0.00725326/1.06303/-0.25822/1.14971/0.276153/0.945782/-0.452/-0.572474/0.403403/0.65284/-0.589385/0.213711/-0.160618/-0.291252/-0.811146/-0.531172/-0.198762/0.562919/-0.31679/0.788043/-0.479905/0.700148/0.802159/-1.09026/0.531723/-0.699879/1.03158/0.902188/0.573996/0.513907/0.00964189/-1.17101/0.503229/0.175872/-0.334468/-0.517605/-0.110202/0.872403/0.146045/0.581663/0.00896023/-0.926979/-0.411841/-0.715705/-0.205955/0.562384/0.783941/0.49532/-0.532617/0.20604/-0.716926/0.0677378/0.857484/-0.393491/0.852566/0.686258/-0.175788/-0.129845/0.315941/-1.20488/-0.347116/0.425014/-0.391335/-0.552366/0.13419/1.00696/-0.070035/0.921381/-0.347029/-0.104734/-0.35965/0.219064/0.0938605/0.732049/0.313543/-0.28186/0.383427/-0.925656/-0.549086/0.144187/0.331529/0.363825/0.319152/0.323328/-0.0544829/-0.393199/0.708288/-0.577341/0.132617/-0.343594/-0.810023/-0.133565/0.42024/0.446161/0.484482/0.689011/0.204442/0.159237/0.368953/0.0929975/-0.277654/0.199678/-0.492118/0.968082/-0.293637/-0.555658/-0.590655/0.993413/1.56401/0.0172851/-0.0735594/-0.656978/-1.13167/0.00793398/-0.860032/0.988996/0.818415/0.215921/-0.365325/0.551258/-0.877077/0.0418584/-0.258256/-0.511286/0.813667/0.772756/-0.109146/-0.287294/-0.516235/-0.155135/1.31021/1.17578/0.295026/1.06619/0.838016/0.784052/1.15563/0.420937/0.197964/0.418317/-1.01456/-0.586788/-0.631702/0.799731/0.675318/0.840782/0.393189/-0.0919577/-0.636386/0.534127/0.406449/-0.804988/0.579594/-0.409644/0.748744/-0.495263/0.838835/-0.525511/-0.797372/0.959808/0.0709138/1.48774/-0.0663839/0.956559/0.811195/-1.11632/-0.311502/1.10992/-0.759831/-0.390426/-0.579007/-0.539665/-0.290887/0.8364/0.582527/0.339352/-1.36154/0.94647/0.95673/-0.240397/-0.370623/0.773164/0.339396/0.873004/-0.966583/-0.0715734/0.495435/-0.408429/-0.500413/0.310406/0.0640331/1.17401/-0.403925/-1.5849/0.413353/-0.14404/-0.251623/0.511907/-0.957514/0.621448/-0.200995/-0.121616/0.524678/-0.0842223/-0.978961/0.891557/-0.570131/-0.197429/-0.202264/-0.33963/-0.957084/-0.724644/0.180401/-0.139285/0.440344/0.49822/-0.0958747/-0.269875/0.453813/0.385085/-0.227453/0.294847/-0.686144/-0.0938266/-0.718277/-0.292237/-1.18301/-0.709728/-0.384664/1.35357/1.15342/0.187649/-0.243352/0.867273/0.559361/-0.82596/0.0941692/0.353871/-0.58375/-0.406924/0.0604302/-0.64267/0.606593/0.195915/-0.495044/-0.379285/0.0258372/-0.49013/-0.345218/-0.25388/-0.503753/0.552633/-0.14985/-0.159927/0.147632/0.655294/0.721944/-0.308304/0.473843/-1.30018/-0.555245/-0.518636/0.309156/-0.0100472/-0.894647/0.289182/-1.3922/-0.774217/0.00283971/0.628288/-0.0835509/0.755612/-0.399107/0.565012/-0.85064/0.185304/-0.942433/0.0786319/-0.688309/-1.21401/-0.487746/-0.738704/0.08195/0.934741/-0.473583/0.752631/0.36563/0.0939916/0.141285/-0.0193065/-0.532277/0.0241564/-0.0220929/-0.484715/-0.259642/-0.525456/-1.15904/-0.80815/-0.654606/-0.425965/-0.983919/0.545393/-0.646082/-0.477468/-0.873865/0.0246111/0.780474/-0.66617/-0.0131163/-0.943809/-0.170957/-0.280748/-0.302822/0.274989/0.948202/-0.46242/-0.644235/-0.837968/0.230669/0.859139/-0.478874/-1.40352/-0.683529/-0.366241/-0.0395199/-0.801153/-1.31583/0.294203/0.751674/0.654957/1.17621/0.636048/0.439995/-0.733776/-0.0390726/-0.214205/-0.00826835/-0.407586/0.32416/0.492364/-0.00757043/0.0755995/0.190021/-0.473121/-0.672866/-0.5985/-0.362323/0.442617/-0.983944/-1.41029/-1.12705/0.851269/0.138546/-0.100622/-0.982624/0.650097/0.190522/-0.535413/0.311411/1.17399/0.624546/-0.423447/-0.708695/-0.00595435/-1.05626/-0.473138/-0.091373/0.130387/1.14225/0.622798/-0.871701/-0.187786/0.203899/-0.0978142/0.858067/-0.465298/-0.304185/0.0164238/-0.978691/0.266581/0.259726/-0.0600196/0.921978/0.972558/-0.343898/0.127002/0.683414/-0.433079/0.964457/0.743254/-0.312057/0.242235/-0.580854/-1.04156/-0.0321975/0.930307/-0.143366/-0.947636/-0.029261/-0.250471/-0.977175/-0.0882309/0.326511/-0.32917/-0.330186/-0.185505/0.574409/1.04086/0.257091/-0.115229/0.449201/0.179114/-0.545332/-0.0647254/0.864178/-0.67376/1.02664/-0.0676035/0.525145/0.396795/-0.372932/-0.203414/0.558059/-1.25856/0.498588/-0.735399/0.736579/-0.399272/-0.544398/0.546023/0.73445/-0.105358/-0.73001/-0.199925/-0.960848/-0.319001/-0.206413/-0.284423/0.105213/0.710892/-0.262668/-0.758783/0.318563/-1.0122/0.382609/-0.6178/-0.579019/0.804945/-0.168519/-0.666202/0.611622/0.0417848/0.33383/1.39537/-0.38075/0.691451/-0.399405/0.0707872/-0.582118/0.341448/0.734791/0.53245/-1.34071/0.490263/0.326468/-0.990271/0.416249/-0.623863/0.823575/-0.260337/0.140577/0.454509/-0.164257/-1.17328/-0.281138/0.593973/-0.5232/0.510096/-0.58617/0.909658/0.0232434/0.0845069/-0.104108/0.456909/0.535817/0.625593/-0.626756/0.113549/0.335709/-1.11814/-0.467374/0.320745/0.808559/-0.336504/0.466523/0.149223/0.474013/-0.507689/-0.0633255/0.138545/-0.395211/0.302326/-0.634324/0.724143/-0.528969/-0.684401/-0.273005/0.616394/1.19854/0.0354947/-0.631118/-0.301404/0.879061/0.533014/0.181914/-0.570832/0.0213028/0.392714/-0.779076/-0.133193/0.519312/-0.360493/-0.54327/0.403398/0.487704/0.369142/-0.221408/-1.11283/-0.0507758/-0.0621138/-0.519282/0.307966/-0.351767/-0.359645/0.907612/0.988017/-0.221894/0.0070579/-0.207853/-0.860129/-0.93538/0.302813/-0.876685/-0.442932/-0.342667/0.654032/-0.432312/0.59561/0.0153526/-0.160998/-0.479841/0.0114511/-0.771341/-1.10419/-0.435191/-0.426742/-0.288188/0.478778/0.630906/0.876264/0.988884/0.261492/0.475562/-0.524661/1.227/-0.791121/-0.77138/-0.0724765/-0.0619375/0.379846/-0.839815/-0.772912/-0.309988/-0.0279778/-0.390796/-0.308532/-0.432229/0.349483/0.146849/-1.11027/-0.275711/0.504321/0.766659/-1.09457/0.77058/-0.809796/-0.230511/-0.803638/-0.328872/0.401033/-0.346662/0.685823/0.732291/-0.391458/-0.323426/0.915119/0.241658/-0.877996/0.929752/0.336348/-0.992988/0.159223/-0.294692/-0.579224/-0.771259/0.877555/0.0597607/0.779179/-0.301444/-0.0621504/0.706774/0.761438/-0.595046/-0.163925/0.909129/-0.913625/0.66312/0.0208011/0.494468/0.574618/0.537392/-0.520422/0.163378/-0.685146/0.734538/0.96798/-0.828497/-0.552381/0.131949/-0.328811/-0.331764/0.0411971/0.40043/0.0300966/-0.283382/0.526734/-0.551/-0.650594/-0.535715/0.237689/0.845757/0.638386/-0.654563/0.761877/0.870734/0.42907/-0.615669/0.4553/0.225742/0.0506429/-0.844831/0.921188/0.405019/-0.843243/-0.378058/0.429958/
0.498171/0.758018/0.00240475/0.416615/0.0525314/0.0253575/-0.793097/-0.2755/-0.947035/0.878226/0.337398/0.647869/0.730809/0.704988/0.732562/0.170814/0.875734/0.383802/0.0207135/0.132127/0.657606/0.383587/0.942462/-0.0476299/-0.516509/-0.969001/-0.00182286/-0.636878/-0.0108694/-0.681723/0.491193/-0.181454/-0.284294/-0.492293/0.88553/0.029229/0.31159/0.895878/-0.264819/0.142632/0.00813706/0.62985/0.923019/0.0253149/0.908874/-0.759905/0.349977/-0.489087/-0.548569/-0.882954/0.272051/0.616985/-0.12779/0.893719/0.794208/-0.0183475/-0.366486/0.473063/0.614715/0.0394236/0.678272/0.0806364/-0.304653/-0.665996/-0.60327/-0.159437/-0.12271/0.682635/0.0425499/0.436145/-0.129683/0.0778603/0.0145794/0.278456/-0.63869/0.530949/0.528074/-0.212487/-0.990106/-0.037354/0.498228/0.582878/0.680452/0.161464/-0.267309/-0.669443/0.575846/0.118203/0.0265745/0.154493/-0.351188/-0.740967/-0.887704/0.614402/1.05574/0.882714/0.0873963/-0.353281/0.493635/-0.285712/0.768651/0.0946628/0.763259/-1.04308/-0.362692/0.0139011/-0.79705/0.160624/-0.797914/0.606964/0.781507/0.957196/-0.406922/0.867243/0.214298/-0.889824/-0.250549/-1.25454/-0.946109/-0.460968/0.270389/1.03301/0.401353/-0.25552/0.870068/-0.338478/-0.167957/-0.327689/0.24585/0.520008/0.342237/0.252841/-0.248966/-0.403153/0.0679186/-1.01352/-0.623167/0.623391/-0.705338/0.150585/0.886838/-0.913607/-0.830813/-0.357818/-1.09876/-0.287325/-0.357857/0.175517/-1.41536/0.864368/0.670672/0.857474/0.154394/0.865001/-0.301225/-0.323809/0.485752/-0.501984/-0.177117/-0.580979/0.616636/0.552457/-0.790698/-0.0157542/0.659283/0.396365/0.0474418/0.948314/0.314836/-0.543288/0.189154/-0.752591/0.394768/-0.977087/-0.458154/-1.0282/-0.154715/0.698017/0.265118/-0.143199/0.538883/-0.800877/-0.861551/0.560153/0.177888/-0.596385/0.370274/-0.791235/0.139912/-0.204985/-0.571851/0.328603/-0.167475/0.490998/-0.428581/0.727762/-0.509896/0.21877/-0.361063/-0.293339/-1.17946/-0.702913/-0.507503/0.266477/0.685581/-0.432826/-0.423517/1.05011/1.03414/0.517488/1.1549/-0.176163/1.06274/0.484197/0.695515/-0.299274/-0.000507546/-0.234705/1.46908/0.0639193/-0.7283/0.514603/0.223072/-0.43164/-0.565463/0.304442/0.690011/0.0782775/-0.270198/-0.189898/0.237372/-0.703541/-1.14337/0.752378/0.473549/0.0687412/0.365478/0.583858/-0.212874/-0.437646/0.122711/0.813602/-0.244689/1.08323/1.08397/0.796637/-0.370746/0.0893905/0.420815/-0.131628/0.924881/-0.327168/-0.71221/-0.0971427/0.340042/-0.609413/-1.02865/-0.256239/-0.519106/0.218671/-0.0330868/0.841443/-0.0777688/0.737885/-0.0181628/-0.314281/-0.898844/0.712349/-0.521963/-0.246725/1.14964/1.80122/-0.208219/0.236121/-0.895446/0.870672/0.915189/-0.449693/0.0569988/-0.375109/-0.459293/0.644977/0.719155/-0.245099/-0.352508/-0.30871/-0.257851/-0.345768/-0.30158/0.177144/-0.420818/0.754172/0.393549/-0.45508/0.711305/-0.581816/-0.155311/-0.833492/-0.160884/-0.381696/0.90871/0.588739/0.652822/0.579166/-0.573566/0.26107/-0.246014/-0.44417/0.826737/0.942933/-0.475699/-0.782195/-0.218229/0.0367773/-0.18639/0.298065/-0.653827/0.817678/0.491304/0.49493/-1.12752/-0.563079/-0.651603/-0.681011/0.450836/-0.313158/0.199964/0.00549694/0.352126/1.5558/1.26996/0.448256/0.162983/-0.304452/-0.618963/-0.604523/-0.221053/0.73507/-1.1488/0.134678/-0.118466/0.155979/-1.14383/-0.840115/0.0898299/-0.659774/0.0668206/-0.929657/0.371138/-0.991262/0.0568561/-1.19147/-1.0268/0.340607/-0.180405/-1.17918/0.532925/-0.219427/1.66345/1.13444/1.33162/0.0989253/0.244433/0.532523/0.114396/0.624087/-1.25282/-0.612224/-1.09334/-0.294074/0.013805/-0.802373/0.862898/0.275733/-0.766177/-0.0611353/-0.154503/-0.403869/-0.555699/0.409479/-0.805305/0.177351/-0.340638/0.146159/-0.269286/-0.781968/0.394068/0.277912/0.127356/0.713442/-0.42093/-0.499082/-0.0632341/-0.776349/0.504765/-1.0623/0.0660016/-0.862792/0.324725/-0.124404/-0.0726314/-0.462228/0.345306/1.0889/0.856539/-0.218513/0.0369781/-0.413021/0.605227/-0.437566/-0.450496/0.37967/-0.670945/-1.14444/-0.274891/0.456399/0.415873/0.192082/0.496412/0.703874/0.00344998/-0.0382897/0.272125/0.380019/0.0565943/-0.0995322/-0.590458/0.055675/-0.418097/0.943373/-0.0480792/-0.0939021/-0.58398/-0.877049/-0.416614/-0.966753/-0.695188/-0.746355/-0.371123/0.367604/-0.0531174/-0.779163/-0.657843/-0.224874/0.729244/0.715363/0.862039/-0.448618/0.0755815/0.242327/-0.173657/-0.704667/-0.404026/-0.721539/-0.0825706/-1.01307/0.776263/-0.59158/0.957398/1.4691/-0.723026/-0.0318215/0.671217/-0.931726/-0.265984/-1.027/-0.4949/-1.02831/-0.753191/0.773014/-0.356769/0.348059/-0.256717/-0.444117/-0.959271/-0.16588/0.049787/0.692012/-0.137339/0.21588/-0.735541/-0.261493/-0.690925/-1.18475/-0.642849/-0.291922/0.792777/0.263363/0.826368/0.613322/0.313134/-0.802007/0.113669/-0.568017/-0.567868/-0.899431/-1.05667/0.33743/0.157386/0.811589/-0.110528/-0.249005/-0.618135/0.291972/-0.822091/-0.880908/0.0110658/0.137191/-0.263088/0.567887/-0.214829/0.211433/0.773121/0.359841/0.647815/0.806794/-0.66409/0.411312/0.217092/-1.09971/-0.65195/-0.252372/0.400275/0.88686/-0.600158/-0.636649/-0.806874/0.58312/0.234811/-0.203208/0.0055438/0.735817/0.877918/-0.729534/-0.546802/-0.301997/-0.571856/-1.14881/0.869843/-0.73719/-0.122761/0.0428278/0.689993/0.336275/0.386752/0.677361/-0.335766/-0.168738/-1.27755/0.546883/-0.760773/0.764933/0.905907/0.154799/0.31708/-0.373794/-0.628808/0.76568/0.339755/-0.077159/-0.811253/-0.761718/0.612267/0.205032/-0.567211/-1.06673/-0.844683/0.793369/-0.235191/0.420327/-0.964304/0.688283/0.680474/0.618912/1.15819/-0.629129/0.00460369/0.176175/-0.156631/-1.20651/-0.669009/0.734121/0.900834/0.515977/-0.136873/0.340672/0.651743/0.0773154/-0.559698/-0.859636/-0.733396/-0.51894/-0.570021/-0.167326/0.838088/0.0354615/-0.428233/-0.874277/-0.535226/0.83231/-0.866127/-0.634152/0.309528/1.02783/0.0324959/-0.135887/-0.244114/0.427517/-0.92009/-0.994328/-0.758562/-0.640268/0.264849/0.43207/0.323849/-0.311662/-0.10435/0.17266/-0.991187/-0.735555/-0.498899/0.0131599/-0.0276646/0.203477/0.579359/0.0659334/-0.350785/0.530579/0.612688/-0.742117/-0.373242/0.152156/-0.317831/-0.515131/0.414231/-0.586571/-0.389631/0.795592/-1.06539/-1.11241/-0.546415/0.68399/0.642561/-0.25656/-0.00331366/0.303246/-0.169724/-0.162724/-0.686828/-0.349201/-0.238553/0.330652/0.801317/-0.26884/-0.107262/0.438617/-0.290091/0.684986/0.878148/-0.522075/-0.0653994/0.136638/-0.727625/-0.92479/0.0684092/-0.545738/0.120912/-0.782885/0.578802/0.227548/-0.367339/-0.461753/-0.683693/-0.84852/0.113152/0.119381/0.390255/0.491211/-1.16257/-0.408675/-1.04602/0.172565/-0.113609/-1.12734/0.648711/-0.924593/0.410879/0.288056/-0.228991/-0.540498/-0.641334/0.493896/0.116949/0.0449832/-0.645603/-0.308602/0.698052/0.139146/-0.954827/0.425632/-0.400837/-0.946741/0.298521/-0.720443/0.486762/0.7112/-0.774313/-0.648784/0.812116/0.207268/-0.456996/-0.997468/-0.603814/0.874923/-0.274128/0.676123/0.774972/0.982037/0.154152/0.181177/0.840758/-0.798048/0.0707942/-0.619718/-0.867258/-0.628478/-0.151615/-0.958954/0.865336/-0.308167/-0.714509/-0.070418/-0.943369/0.740107/0.907625/0.401401/0.153353/0.708319/0.506698/-0.022575/-0.926853/-0.0666877/-0.747738/0.558845/0.538605/-0.50705/0.311211/-0.424419/0.586302/0.799284/-0.92775/0.783756/0.653806/0.56855/0.010534/0.948104/0.788807/-0.528719/-0.185826/0.821566/0.0663602/-0.684661/0.901569/-0.999161/-0.656401/-0.51039/-0.124248/-0.235391/-0.218978/-0.35729/-0.968325/-0.629874/-0.284572/-0.80956/-0.280522/-0.726597/0.0891865/0.957715/0.309212/0.922997/0.807897/0.319299/0.460124/-0.690161/0.993767/
-0.621711/0.905764/-0.825978/-0.220066/-0.653476/0.989004/-0.0388216/0.866274/0.188249/-0.74587/0.157312/-0.049049/-0.366587/0.775411/0.33932/0.951098/-0.890159/-0.906126/0.730974/-0.515508/-0.14813/0.378571/0.635481/0.537068/0.499901/-0.160603/0.746343/-0.215066/-0.614317/-0.818816/0.126152/-0.954457/0.145734/0.0446549/0.890095/-0.645105/0.473264/0.348216/0.471814/-0.0169979/-0.533663/0.718922/-0.891825/-0.309546/0.393253/-0.874065/0.72486/-0.851827/0.0154254/0.875709/0.481861/0.333133/-0.876205/0.0389141/0.529001/0.171026/0.438841/-0.411637/0.407607/-0.261831/-0.385941/-0.123025/0.774149/0.566414/0.593034/0.474828/0.780891/0.0504135/-0.268488/1.14306/0.102222/0.562188/-0.0569751/0.324315/0.697268/-0.532909/-0.802028/-0.188552/-1.00908/-0.179229/0.258533/-0.585755/-0.160357/-0.229611/0.930699/0.253343/0.0378854/-0.562833/0.558695/0.224942/0.0366412/-0.364528/-0.933801/-0.22749/0.308478/-0.152659/-0.725827/0.238136/0.289464/0.414439/-0.521501/-0.114564/0.27594/0.139441/0.137445/0.649042/-0.172465/-0.312047/-0.380895/-0.745592/0.656314/0.0144416/0.719464/0.0303778/0.306179/-0.260296/0.156986/-0.150503/-0.920965/0.0974298/-0.716455/-0.368036/0.447665/0.203284/0.413985/-0.90774/-0.294932/0.763921/-0.485911/0.46725/0.0255307/-0.419372/-0.917304/-0.109284/-0.930628/-0.36353/0.480662/0.665518/0.371699/0.664938/-0.386003/0.450291/-0.226861/-0.558747/0.749963/0.392259/-0.0491903/-0.396682/0.276246/1.00685/-1.00364/0.696815/-0.56853/-0.586096/0.510941/0.0663427/0.76072/0.469277/0.642045/-1.25765/0.272841/-0.150849/-0.81009/0.128712/0.108947/0.544287/0.407963/0.634237/-0.372533/0.833027/-0.432647/-0.692891/-1.25755/-1.07805/0.351179/0.556715/0.184882/0.0605635/0.631263/-0.646059/0.905102/0.781011/-0.0856881/-0.0181118/-0.217029/0.551607/0.441542/-0.542713/0.159196/-0.844585/0.223706/0.909319/1.63385/-0.0640526/-0.429657/0.351799/0.685789/0.0451698/0.367129/0.199027/-0.133835/0.0107461/-0.25553/-0.427008/-0.135734/0.191925/-0.804398/0.521782/0.200948/0.849035/0.979923/0.718358/0.909573/-0.326556/-1.04729/-0.105753/-1.04271/-0.707481/0.532062/-0.617557/1.48928/0.605657/0.683207/0.172922/0.296108/0.688664/0.755044/0.759339/0.537088/0.0855737/0.271273/0.240961/-1.07685/-0.459906/-0.269525/0.0641435/-1.00507/0.932454/0.0383802/-0.666483/-0.0938257/-0.27912/-0.604285/0.699856/-0.351051/0.914757/0.813397/-0.793101/0.793611/-0.348234/-0.716757/-0.477897/-0.0232419/-0.621845/0.565824/-0.374457/0.448431/0.691533/0.25799/0.287086/-1.23951/-0.261853/-0.0909097/-0.141006/-0.375782/-0.745962/0.308112/0.0580123/0.304383/0.719555/0.361385/-0.0270712/-0.481596/-0.461534/0.0654029/0.660087/-0.269681/1.19583/0.224033/0.239762/-0.326915/-0.456624/-0.511773/1.11638/0.18518/0.458797/-0.249355/-0.743037/0.227584/-0.361162/0.273407/0.0698095/0.0851747/0.732464/-0.920802/0.205497/-0.368541/-0.0923291/0.756794/0.370262/0.165298/-0.520078/0.192981/0.312663/0.020296/0.994927/-0.111875/0.722261/-0.963203/-0.547533/0.654595/0.231416/0.36768/-0.479517/1.28438/0.271584/-0.736832/-0.489458/-1.19594/-0.659107/-0.57527/-0.613337/-1.56399/-1.44073/0.0497263/-0.75549/-0.606777/0.61095/0.587716/-0.521163/-0.743875/-0.173831/0.671647/-0.00971307/0.0958698/0.862938/-0.59991/-0.699898/-0.810768/-0.338995/-0.18537/-0.495531/1.22664/-0.121373/0.862323/0.556316/0.812459/-0.837855/0.292311/-0.348445/-0.29494/-0.73025/-1.39438/-0.156543/-0.78254/-0.831064/-0.139945/-0.351066/0.745613/0.395549/1.39164/-0.106114/-0.940535/-0.54405/0.143363/-0.522027/-0.224303/0.638052/-0.0840551/0.749662/0.318138/0.299727/-0.207116/0.814763/-0.73726/-0.127314/-1.51371/-1.46184/-0.534375/-0.842982/-0.718596/0.533585/-1.03793/0.315527/0.0278505/-0.791132/-0.0541093/0.287024/0.313503/0.484065/0.132867/-0.647764/-0.975573/-0.501167/0.516864/0.804028/0.562409/-0.00607704/0.747622/0.0968062/0.522769/-0.995627/-0.421391/0.136628/0.266999/-0.0218097/-0.590193/-0.658665/-0.19618/-1.05178/0.92672/-0.819219/0.666221/0.115997/-0.068425/0.254308/-0.831436/0.771341/-0.555939/-0.440591/0.989039/0.760013/0.75902/0.222578/0.348848/-0.301194/0.116529/-0.0418176/-0.0671349/0.776032/-0.479914/0.434909/-0.0267157/-0.619023/-0.428465/0.5805/-0.418346/1.16048/0.055087/1.30417/0.793309/0.410672/-0.662829/0.0331595/0.628968/0.234941/-0.762592/0.160295/0.0829784/0.590026/-0.030744/0.771715/0.623329/0.390706/0.549415/-0.632789/-0.320307/-0.461634/-0.293509/0.64983/0.314289/-0.887225/0.0749917/0.102075/-0.0863176/0.65865/1.48628/0.074747/-0.621058/0.210323/0.823651/0.242648/-0.855773/-0.269163/0.0426809/0.695038/-0.488164/-0.544136/0.365396/0.37389/0.198096/-0.0914031/0.0362974/0.341478/-0.785124/0.441605/0.210211/-0.945072/0.590542/0.592058/-0.155094/0.947702/1.36861/0.56717/-0.194523/0.510323/-0.798426/-0.773723/0.0864476/-0.405121/-0.211228/0.410617/0.559619/-0.476541/0.774205/0.0271789/0.819877/0.456315/-0.475869/-0.242912/0.778136/1.08742/1.3388/1.26829/0.433148/-0.804432/0.697997/0.477657/1.01636/-0.718238/-0.572/0.0438911/-0.464383/0.260962/0.853789/0.515057/-0.81969/-0.586624/1.12931/0.766752/0.915565/0.0928799/-0.968345/-0.96035/0.974489/-0.930416/0.341835/0.283702/0.351654/-0.517389/-0.0529303/-0.553282/-0.180733/0.51654/0.499848/-0.408629/0.605045/0.427456/-0.341015/0.155597/0.27961/-0.782388/-0.490545/0.668267/-0.0141705/0.0775141/-0.0307471/-0.434732/-0.407581/-0.120635/0.494808/0.288218/0.927774/-0.351876/-0.0764247/-0.571071/0.769403/-0.897067/0.320623/-0.780157/0.54142/0.529196/0.312126/-0.497798/0.157778/-0.432102/0.0929768/-0.410893/-0.414922/-0.194959/0.8959/-1.36824/-0.746929/-0.141685/0.728766/0.739508/-0.781556/-0.31331/0.206675/-0.36593/-0.667449/-0.847911/-0.276258/0.430612/-0.172209/0.908173/-0.0314219/0.451656/1.14505/-0.446295/-0.459222/0.0663301/-0.509869/-0.793133/0.262736/-0.678477/0.966495/0.313439/0.821057/-0.11255/-0.119852/0.430465/0.640093/-0.792581/-0.667154/0.615371/0.544088/0.490711/0.593266/-1.0201/0.0735457/0.346684/-0.497297/-0.224728/-0.381147/-1.09721/0.88777/0.0873874/-0.811403/0.394016/1.28888/-0.0402093/-0.688002/0.380958/0.107842/-0.604921/-0.766166/-0.580077/-0.325859/0.0258004/0.361747/-0.807755/-0.801603/0.381839/-0.425191/-0.184117/-0.480522/-0.963852/-0.9863/-0.814485/-0.107813/0.43486/-0.586191/-0.363731/-0.881766/0.471575/0.2058/-0.1768/1.31523/1.37979/0.671201/-0.0616034/-0.0266634/0.0215274/-0.594517/-0.842253/-0.397344/-1.37548/-0.875508/-0.97896/0.583535/0.907903/-0.874252/0.458884/-0.200583/0.261984/0.455899/0.168729/-0.625777/-1.19071/0.626065/0.765124/0.0841851/-0.0091429/-0.648376/-0.378707/0.283537/1.24112/1.06143/0.373411/-0.996657/-0.875491/-0.411227/0.664982/0.0770922/-0.0508463/0.640515/0.583037/-0.619459/0.48505/0.231954/0.452181/-0.0153485/-0.93046/0.172752/-0.484253/0.782277/0.710928/0.761258/-0.927303/0.125597/0.420397/-0.894255/-0.535368/0.853963/0.152555/-0.624371/-0.244976/0.8911/-0.0579756/0.930897/0.472924/0.0510418/0.151706/0.832777/0.379418/-0.242183/0.0578816/0.816502/0.942474/-0.0549893/0.221191/-0.917341/0.367545/-0.391596/-0.539718/-0.680878/-0.0361317/0.554259/-0.416819/0.375771/-0.961184/-0.964487/0.968266/-0.261731/-0.640871/-0.271857/0.902564/0.751779/-0.926656/0.591956/-0.0630914/0.0258917/0.433882/-0.150358/-0.0358536/-0.591325/-0.392696/-0.0492225/0.716604/-0.0428517/-0.208209/0.633428/0.0878964/-0.805321/-0.327043/-0.606838/0.874379/-0.316818/-0.753778/-0.750638/0.0250586/-0.840475/0.129578/-0.18012/0.721732/0.144163/0.951485/-0.383691/-0.702878/0.726792/-0.811033/0.960227/0.536043/-1.19787/
0.0771658/0.925486/0.647823/-0.0345318/-0.375546/0.08678/0.774312/-0.432417/0.364939/-0.472306/-0.0485356/0.262079/0.765293/0.274304/0.225346/-0.617705/0.224297/-0.0151973/-0.0187844/0.290862/0.51266/0.277939/-0.679731/-0.234426/0.00611891/0.840519/0.604488/-0.364579/0.523858/0.486312/-0.582133/-0.559258/-0.794832/0.709191/0.740617/-0.376965/-0.336698/0.883539/-0.521769/-0.272709/-0.280488/0.717436/0.147885/-0.0654913/-0.676808/-0.153735/-0.684411/-0.381018/0.517724/-0.891934/0.611443/0.476717/-0.456468/0.287165/0.0189435/-0.514271/0.650759/-0.688841/-0.0087105/-0.396392/0.767629/0.572467/-0.456407/-0.257773/0.565782/0.904525/0.198202/0.731905/-0.404267/0.618442/-0.811839/0.637935/0.693276/0.429868/0.721209/-0.237284/-0.864076/0.811172/0.251616/0.0283452/0.77935/-0.553232/-0.907612/0.940498/0.950136/0.938133/0.499996/0.167499/0.68175/0.82833/-0.703014/-0.696188/0.241292/0.515868/-0.285268/-0.394749/-0.971864/0.448172/-0.246428/-0.237086/-0.70013/0.250616/-0.718931/0.488933/-0.704621/-0.0129678/0.762613/-0.35778/0.805708/0.206093/-0.437894/0.800175/0.541286/-0.61135/0.015611/0.162114/0.4463/-0.601224/0.337338/0.299175/-0.518129/-0.955146/-0.240115/-0.21086/-0.159903/-0.501884/-0.611025/0.78257/-0.877037/0.347245/-0.683313/-0.965664/0.972099/0.392098/0.929166/-0.435902/-0.970189/-0.588112/-0.813954/-0.475778/-0.403307/-0.373936/-0.00571269/-0.945449/-0.959257/-0.227914/-0.385743/0.759954/-0.248693/-0.524532/0.459293/-0.204725/-0.873583/-0.0521258/0.615439/-0.119022/-0.0596937/0.566752/0.84934/-0.729186/-0.353652/0.693488/0.716822/0.070813/-0.703507/1.27924/-0.578695/-0.696859/-0.102062/0.648993/-0.758974/-0.48784/1.09799/0.519609/1.07387/0.800745/0.176119/-0.530979/-0.74951/0.515354/-0.164856/0.669683/-0.437488/-0.178084/0.157528/0.688304/0.194006/-1.0219/-0.886267/0.200616/0.346205/-0.370696/0.532626/1.10943/0.575889/0.28131/-0.0203861/-0.681477/-0.0957674/0.584771/0.418698/0.453288/0.196857/-0.207227/-0.203659/-0.170441/-0.854229/0.179494/0.995024/0.0987008/-0.54872/0.734066/1.282/-0.675609/0.633745/0.224474/0.39803/-0.636394/0.106333/0.496402/0.185524/-0.202535/0.348657/0.198504/0.25993/0.592459/-1.0676/0.278442/-0.343338/0.883392/-0.053959/-0.266981/0.899407/0.495963/-1.04083/-0.369235/0.75065/0.138065/0.563074/-0.382262/0.089833/-0.292078/-0.60871/-0.960603/-0.816328/0.601021/-0.275611/1.24855/-0.713053/-0.224651/-0.271848/0.845843/0.0835403/0.0564642/0.679277/-0.612464/0.519325/0.485394/-0.49513/-0.0823645/-0.676996/-0.0219951/-1.11855/-0.738858/0.884529/-0.287736/-0.442327/0.511152/-0.216757/-0.935626/0.442397/0.340268/-0.527049/-0.690117/-0.622146/0.0672567/-0.904418/0.706386/0.109201/0.175035/-0.181771/0.986509/0.863616/0.339984/0.639851/0.533039/-0.645488/-0.449429/0.0426187/-0.793643/0.608152/-0.28352/-0.831547/-0.309473/-0.245243/0.765105/-0.330908/-0.118666/0.52517/0.789361/-0.336513/-1.27972/0.459939/0.393395/0.603848/0.0369209/-0.846808/-0.0937085/-0.95835/-1.0024/-0.948905/0.026476/-0.634844/-0.0181493/0.243065/-0.608337/0.381832/-0.108823/0.398263/-0.186874/-0.399719/0.758264/0.704471/0.656154/0.278585/0.867508/-0.82852/-0.364872/-0.188493/-0.194941/0.156864/-1.16688/-0.185936/0.858044/0.756911/0.79182/0.121649/0.526435/-0.620656/0.435962/-0.112703/-0.0583487/0.424772/-0.357533/-0.320272/-0.0348355/-0.182962/0.53532/0.212042/-0.616946/0.289168/-0.915853/-0.499608/0.762851/0.799359/0.910105/-0.79025/-0.422733/-0.575547/0.627507/-0.284139/-0.23965/-0.197064/-0.256527/0.543984/0.749917/-0.592574/-1.20999/-0.608293/0.00728497/0.00104664/-0.275417/-0.234144/0.734513/0.175255/-0.149879/0.384768/1.21267/-0.0320433/-0.5134/-0.17221/1.08458/0.0075957/0.0280341/0.825911/-0.159819/-0.484622/1.03748/-0.610543/0.279927/0.712086/0.0912805/0.151332/-0.603505/1.00706/0.75485/-0.452636/-0.0628265/-0.521439/-0.904224/-0.972816/-0.196805/-0.762178/-0.92632/0.387551/0.787279/-0.027213/0.510787/0.961282/1.24516/-0.24393/0.202062/0.792813/0.378192/0.329113/-0.0683267/0.690952/0.494612/0.434912/0.274157/-0.240243/0.185198/-1.18176/0.0909181/-1.34029/0.0380299/-0.1166/-0.44782/0.53017/-0.343838/-0.838454/-0.0483061/0.257346/-0.10957/-0.489923/-0.657971/-0.694148/0.902244/-0.758132/0.934118/-0.254643/-0.549778/0.563984/-0.198555/0.349979/0.141095/-0.505843/0.720259/-0.61274/-0.339697/-0.786565/-0.0398942/-1.01182/0.383963/0.190168/-0.109969/1.01611/-0.124091/-1.11679/-0.707328/-0.370849/0.398704/0.231851/-0.955531/0.131552/1.15766/-0.999873/0.434587/0.863327/0.994349/-0.73133/0.144158/0.470051/-0.844487/0.390236/-0.946818/0.837314/0.857419/-0.16435/1.14889/0.931815/-0.908263/0.398937/-0.25045/0.402571/-0.669282/-0.412806/-0.452915/-0.538865/-0.750905/-0.0909266/0.0749051/-0.531286/0.709943/0.998202/-0.0359132/-0.5836/-0.132367/0.259753/0.231799/-0.693211/-0.951238/0.405454/0.415706/0.762963/-0.867479/0.448716/-0.28779/0.671454/0.435154/0.547792/-0.349766/0.238155/0.073777/0.97902/-0.197479/-0.572008/0.419592/-0.371677/-1.07051/-0.387422/-0.613528/-0.0369577/-0.18854/-0.533132/1.07717/-1.03736/-0.537551/0.339533/0.194512/0.783285/0.277119/-0.464534/0.502809/-0.712542/-0.182892/1.16162/0.763251/-0.602634/-0.831501/-0.362092/0.272638/-0.197605/-0.0248115/-0.0934042/0.256465/-0.0771371/-0.9855/-0.840727/0.832085/-1.05641/-0.317636/0.771963/0.0655317/-0.0845033/-0.549038/-0.552431/-1.04444/0.158431/-0.679521/-0.703168/-0.180204/0.179445/0.00720155/0.397192/0.688496/-1.13956/-0.590708/-0.0801953/-0.209227/0.0178973/-0.896368/-1.22037/0.050916/0.127275/-0.112436/0.157573/-0.82534/-0.370455/-0.649437/-0.124287/-0.830266/-0.156071/0.105507/0.061566/0.773057/-0.360136/0.847825/-0.606728/0.693651/-0.649361/0.250541/0.641593/0.870275/-0.50345/-0.687254/0.00870299/-1.43514/0.185615/0.451956/-0.514652/-1.27015/-1.49701/-0.20109/-0.195755/-0.280392/0.158847/-0.811868/-0.360388/-0.429592/-1.08205/-0.526337/-0.103826/-0.809334/-0.999858/0.131286/0.520929/-0.7572/0.463351/-0.0075428/0.53428/-0.262618/-0.0995643/0.452988/-0.916272/0.530536/-1.16415/0.106844/0.508268/-0.390362/-1.03614/0.424732/-1.00613/-0.35565/0.434409/-0.251331/0.177571/-0.706914/-0.492557/-0.287646/-0.114388/0.111967/-0.766929/-0.463092/0.810315/0.948432/0.820441/-0.590899/-0.0546259/0.0134216/0.561916/0.628142/0.242014/-0.852892/-0.649315/-0.873543/-0.764517/-0.934356/-1.41725/-0.523239/-0.961694/-0.0657416/-0.63793/0.670128/-0.616424/-0.222324/-0.359679/-1.06006/0.770029/-0.895832/-0.891554/0.51467/0.0566426/-0.0176128/-0.579754/-0.519654/0.604929/-1.25085/0.351124/0.770169/-0.192542/-1.00733/-1.12953/0.548569/-0.804136/0.297984/0.490319/-0.174813/-0.53151/0.653917/-0.0596584/-0.728079/-0.802164/-0.635756/0.0742441/0.265951/0.189896/0.218462/-0.797254/0.612085/-0.685332/-0.366617/0.169396/-0.505343/0.556245/-0.754594/-0.328832/-0.399877/0.946558/0.696737/0.906829/0.919591/-0.492682/0.509903/0.846041/-0.491838/0.84478/-0.690144/-0.230353/0.211933/0.291129/0.162065/-0.60453/0.772143/-0.138157/0.108302/-0.136382/0.199768/-0.494592/-0.613018/0.957721/-0.836013/-0.977419/-0.0515591/-0.737295/0.988161/0.163146/-0.177543/-0.982909/0.740424/0.76853/-0.527878/-0.41554/0.83482/-0.917105/0.989463/0.00581932/-0.938615/-0.610726/0.938355/0.647848/-0.511728/-0.293091/-0.0171765/-0.173764/0.568737/0.769647/-0.548846/-0.45708/-0.14218/0.3865/-0.100155/0.693831/-0.759941/-0.587781/-0.514225/-0.584354/0.763183/0.822776/0.403353/-0.84834/-0.0453704/-0.539851/0.731109/-0.247614/0.345967/0.666415/0.43611/-0.303944/-0.382921/0.240105/-0.551462/-0.419768/0.954298/1.7325/
0.528998/0.863944/0.312843/-0.052282/-0.702274/0.324283/-0.774841/-0.987283/-0.250616/-0.60072/-0.302375/-0.0162277/-0.739303/0.532379/-0.305924/0.335381/0.743757/-0.228727/0.225026/0.0150644/-0.812345/0.922189/-0.775456/0.912651/0.930187/-0.355326/0.0438176/0.442008/0.834397/-0.282204/-0.911445/-0.428577/-0.61537/-0.853695/-0.541747/-0.627718/-0.104291/0.837461/-0.86883/0.758699/-0.819963/-0.235787/-0.687477/0.628235/0.303494/0.30934/0.368433/0.568436/-0.785907/0.716835/-0.977551/0.498223/-0.061558/0.981928/-0.481052/0.545267/0.295279/0.74534/-0.888721/-0.895838/-0.59997/-0.532932/-0.319753/0.0401663/-0.405068/-0.961139/0.136215/0.782661/-0.760837/0.211064/-0.271876/0.210957/0.214824/-0.518215/0.910513/-1.00217/0.653645/0.115999/0.240124/-0.416003/-0.541043/-0.163029/-0.89901/0.556997/-0.544017/0.710979/-0.454218/-0.431177/0.613016/-0.0326261/0.435679/0.596071/-0.74051/0.347728/0.362173/1.36221/0.261558/0.0245478/1.58191/1.35132/-0.244364/1.20372/-0.368985/0.227418/-0.558659/-0.599149/-0.12492/0.326022/-0.803543/-0.464099/0.643875/-0.340452/0.021871/-0.413685/-0.44651/0.783865/0.562456/0.662523/-0.705586/-0.576186/0.193266/0.840947/0.00515136/-0.0116229/0.610958/1.94772/0.967833/1.26846/0.687768/0.809089/-0.853073/-0.511045/-0.483583/-0.588277/0.0526594/0.431097/0.415316/0.761085/-0.566333/-0.25668/-0.0159271/0.320129/-0.0655139/0.23248/-0.299082/0.640021/-0.18545/0.850695/0.479716/0.75296/0.15446/1.16327/1.23909/1.07308/1.69217/-0.26241/0.927381/0.516632/-1.18491/0.215993/-0.0636713/0.342006/0.0285062/0.399439/0.101979/0.185212/0.163626/-0.95426/-0.246302/0.408904/-0.0230378/0.976948/0.628448/-1.09232/-0.327831/-0.122969/1.39925/-0.450648/1.3929/-0.33712/0.897921/0.860618/1.22222/-0.214583/1.25659/-0.28906/-0.760744/-1.00444/0.69013/-0.352876/-0.671333/-0.577828/-0.533656/-0.282449/-0.811269/-0.233012/-0.238017/-0.321313/0.359515/0.726994/-0.34773/0.499426/0.45496/-0.534204/-0.286107/0.0821274/0.640224/0.452823/0.523564/0.17421/1.43565/0.306221/-0.630041/-0.425636/-0.416802/0.53019/0.595754/-0.32478/0.134038/-1.31823/-0.621299/0.709928/-0.637217/-0.747298/0.169428/-0.398087/-0.563929/0.670495/0.456535/-0.770655/0.890223/-0.789563/-0.1043/0.493214/1.60325/-0.0738006/-0.14528/1.06532/0.515845/0.821409/0.276324/1.02094/-0.428987/-0.852835/0.0164426/-0.878553/-0.234733/-0.266086/0.0983117/0.579858/-0.591862/-0.493418/-0.884441/-0.789614/0.908394/-0.0962624/0.571533/0.502679/-0.676737/0.60583/0.299665/0.401679/0.146636/0.981133/0.607016/-0.201762/-0.646615/0.792995/1.37325/-0.0323573/0.886569/-1.4625/-0.264102/-1.00278/0.688/-0.57739/0.0442738/-0.809992/0.786027/0.764403/-0.682076/0.37657/-0.552222/0.754082/-0.965171/-0.333876/0.803885/0.0485891/0.619521/0.63695/-0.364915/0.661056/0.225406/0.238353/-1.33366/0.866728/0.347348/0.226555/0.498735/-0.752488/0.430758/-0.546689/-0.81428/-0.935125/-0.278463/-0.0550354/0.641502/0.901766/-0.0204614/0.117498/-1.12611/0.314199/-0.338694/-0.68045/-0.560781/-0.518974/0.227574/0.928345/0.887541/1.17197/-0.404649/0.728713/-0.117857/-0.35949/0.217107/0.0567931/0.57067/0.119971/-0.559958/-0.667097/0.290131/0.203906/0.227887/0.216088/0.800853/0.534683/0.420219/0.632328/0.319933/0.937112/0.876746/-0.832353/-0.564714/-0.257285/0.227708/1.63385/0.0892279/0.438402/-0.786919/0.57691/-0.397122/0.13219/1.31936/-0.342873/0.194516/-0.860697/-0.516654/-0.0630308/-0.524439/-0.570845/-0.326225/-0.938274/0.323279/0.714316/-0.486744/-0.708788/-0.452509/0.169893/0.417462/0.75152/0.11637/0.788937/-0.762515/0.434034/-0.231303/-0.185763/-0.341454/-0.182799/-1.31873/-0.875549/0.970198/0.855982/0.252599/-0.442484/0.309121/0.0934267/-0.0787669/-0.677377/0.346011/-0.188354/0.38754/0.620953/0.356679/0.711589/1.55052/-0.064223/0.858883/0.341115/-0.636346/-0.934849/-0.212844/0.424994/-0.534308/0.53561/-0.46779/0.226401/-0.880004/0.0963394/-0.608951/0.78182/0.784742/-0.676995/-0.874328/0.13012/-0.462592/-0.244388/0.3389/-1.15198/-0.28858/-0.267366/0.377554/-0.42426/-0.227066/1.17027/1.20039/-0.117749/-0.405307/0.325277/1.1226/-0.0959057/1.41343/-0.396228/-1.32447/0.362413/-0.161373/-0.058787/1.17143/0.0543903/0.10854/-0.693366/0.535651/0.00859494/-0.191714/-0.388914/-0.241708/-0.437699/-0.372653/0.0953537/0.609257/-0.216604/-0.43774/0.421207/0.541629/0.618593/0.270197/-0.443731/-0.579079/-1.03512/1.2536/1.15942/-0.4979/-0.0194171/-0.105703/-0.0770495/0.422325/-0.770987/-1.19766/0.498912/-0.0748151/0.0658374/-0.663863/-1.17025/0.896674/-0.249417/-0.721473/-0.325584/-0.0899223/0.661674/-0.438286/0.472275/0.480462/0.762372/-0.853566/-0.0748163/-0.271192/-1.08919/0.107076/0.528786/0.345579/-0.622875/0.349864/-0.247769/0.503731/0.342411/0.468814/0.151475/-1.33286/-0.522145/0.286963/0.0707602/-0.335222/-0.218711/-0.833945/-0.478088/0.776963/0.440079/0.869342/-0.514535/-0.293232/-0.492894/0.0736597/-0.0618442/-0.0165607/0.648313/0.118534/-0.0493202/-0.611739/-0.10594/0.607857/-0.704562/1.14407/1.05005/-1.00106/-0.742894/0.131764/-0.786549/-0.162804/-0.758695/-0.331631/-1.11619/0.560471/0.779864/-0.831965/-0.758483/0.923834/-0.200484/0.613982/0.48518/0.145351/-0.847789/0.910909/0.558018/1.08227/1.15065/-0.436685/-0.847321/-0.52426/0.775473/0.344121/0.545148/0.287169/-0.885148/0.394918/-0.64354/0.352269/0.190098/0.540095/0.0852239/-0.80656/0.586385/-0.622213/0.574596/1.14393/0.723962/0.848732/0.581321/0.427786/-0.0454379/-0.303513/-0.362236/0.784465/0.863683/0.717131/-0.630421/-0.270333/-0.749724/0.395906/1.13057/-0.754644/-1.48696/0.322234/0.527008/-0.567844/0.661551/0.716637/0.602937/0.71063/-0.710044/0.296766/-0.166812/-0.221815/0.4266/-0.681759/0.387549/-0.810095/0.10672/0.440711/-0.638327/-0.247806/0.517967/0.473736/-0.0566876/0.158333/0.0273311/-0.630568/-0.759586/-1.02873/-0.458534/-0.726132/-0.151768/0.660669/0.000310102/0.114005/1.01175/-0.25312/-0.49779/-0.353825/-0.763166/-0.529076/0.340188/1.05951/-0.32678/0.0114287/-0.952744/0.397853/-0.0215542/1.35197/-0.0734988/1.39397/-0.558012/0.801124/0.143163/0.161592/-0.888026/0.448695/-1.08245/0.0576106/0.720031/0.396085/-0.355713/-0.210608/-0.567689/0.0407853/-0.564985/0.299432/0.555153/-0.862414/0.383127/-0.640477/0.823942/0.259138/0.636338/-1.03398/0.757724/0.171045/1.16595/-0.403913/0.562887/-0.398492/0.198831/-0.123569/-0.899202/-0.92529/0.37371/-0.470319/0.486178/-0.157136/0.284418/0.0483823/-0.904236/0.803118/0.54447/0.913972/-0.855007/0.388665/-0.252003/0.626177/-0.847728/0.202785/0.265518/-0.312412/-0.574047/-0.761464/-0.645015/-0.226754/-0.273334/0.386257/-0.627748/-0.583898/-1.05343/-0.658103/0.0606987/-0.84836/-0.277803/0.785257/-0.711164/0.830008/-0.266451/0.124505/0.22499/-0.596379/0.632366/0.517056/0.633454/-0.128933/0.463421/0.391971/-0.779638/-0.0829212/-0.901836/0.275186/-0.682593/-0.254774/0.576927/0.474143/0.0570535/-0.914661/0.532466/0.194934/-0.932826/0.283717/0.35796/-0.592294/-0.0127034/0.943492/-0.537618/-0.53386/0.310479/0.222883/-0.00686489/-1.00087/-0.465242/0.0986769/-0.289994/-0.136707/-0.100344/-0.98779/0.948203/0.951398/0.6881/-0.979955/0.735899/0.927247/0.95568/-0.530108/0.994125/0.0361758/-0.46229/0.961321/-0.0261382/0.84376/0.244247/-0.388711/0.607068/-0.732009/0.146091/-0.650883/0.604141/-0.202596/0.963095/0.741062/-0.977927/-0.0169954/0.352265/0.155358/-0.966508/-0.0943078/0.969629/0.561254/0.999094/-0.221161/0.943503/-0.544503/0.539028/-0.558284/0.912715/-0.00411244/0.88221/-0.69067/-0.0868279/0.683581/0.952285/-0.939179/-0.776592/-1.42917/
0.400791/0.0934811/-0.863642/0.771135/0.473635/0.899524/0.969873/0.242282/0.000610498/0.245993/0.405339/0.530421/0.782659/0.154832/0.265251/0.0708972/-0.430573/-0.278821/-0.644271/-0.269727/0.695906/0.0854125/-0.472066/-0.0054802/-0.105793/-0.0588933/0.180555/0.583589/0.384197/-0.809153/-0.574186/0.432865/-0.966543/-0.600193/-0.325109/-0.96254/-0.487444/-0.00228719/0.80795/0.365787/0.451087/0.726335/0.775859/0.177097/0.132607/-0.96263/0.674992/-0.503495/-0.0901639/0.177563/-0.500663/0.290712/0.635615/0.024003/-0.33142/-0.197546/-0.161433/0.799733/-0.307898/0.674979/0.777664/0.513464/0.948313/-0.611323/0.0508398/-0.371022/-0.471526/0.699377/0.549504/-0.747781/-0.36632/0.332405/-0.804769/-0.555006/0.205799/0.85547/-0.598801/0.963643/-0.284358/0.772082/1.16763/-0.637171/-0.0243028/-0.312829/0.289531/0.147646/-0.842484/0.305522/-0.697969/-0.049418/0.785069/-0.712793/0.117339/-0.949761/0.909778/-0.443404/-0.767922/-0.908771/0.836121/-0.661656/-0.306652/0.497318/-0.0688491/-1.2303/0.736278/-0.0914731/0.68391/-0.56429/0.720346/0.646153/0.0974597/-0.190097/-0.968138/0.50769/0.332176/-0.232824/0.617047/1.00608/0.85056/1.03383/-0.978835/0.725936/0.628838/-0.644376/0.0285944/0.826956/0.687991/0.919842/-0.145592/0.278114/0.343433/-0.67694/0.153604/-0.47663/0.839595/0.434598/-0.552169/-0.647334/0.0187529/0.356227/-0.894502/0.0954899/0.290214/0.564094/-0.12799/0.489432/0.0581988/-0.852596/0.405163/-0.403274/0.367947/0.971363/0.550672/-0.247173/-0.511504/0.514691/0.721812/0.302149/-0.0766585/0.262544/-0.718885/1.22883/1.13951/0.801978/0.240615/1.04499/0.303277/0.266226/0.452505/-0.74035/0.0249235/-0.163289/0.953091/0.679103/0.620272/-0.200035/0.0554724/0.355055/-0.00395489/-0.273024/-1.26308/0.451536/-0.749692/1.08637/-0.422698/0.423432/0.109363/-1.10588/-0.286192/0.146407/0.670784/-0.611077/0.155795/0.873156/-0.808173/0.182716/0.902075/-0.820568/0.900428/0.00120425/-0.214108/-0.772754/-0.719719/0.496678/-0.787963/0.407117/-0.0131045/-1.44191/-0.0247057/-0.52488/1.01457/-0.401951/-0.0223536/-0.262387/0.0757953/-0.390626/0.735543/-0.643997/1.11829/0.714879/-0.100415/0.464056/-0.348351/0.922857/0.465903/0.429077/0.0638756/-1.33235/-0.903729/-1.12347/-1.28254/0.699839/0.103113/0.149679/0.353066/-0.394981/-0.404836/1.28429/-0.510511/0.753581/0.6532/0.178365/-0.125154/-0.180769/0.34532/0.123671/-0.565581/-0.689212/-0.556354/-0.259184/0.43516/-0.690473/-0.774474/-0.591568/-0.365238/-0.733862/0.0702748/-0.711089/-1.19598/-0.40801/-0.729808/0.660761/-0.141384/-0.888078/0.192324/-0.183622/0.171703/-0.62636/1.04539/0.606351/-0.0568411/-0.156246/0.422108/0.269005/0.0443528/0.519113/0.76498/-0.443197/0.950492/0.207826/0.935735/0.866896/0.893788/-1.12595/-0.28361/0.405976/0.14998/-0.452466/-1.0619/0.108402/-0.316863/-0.169744/0.0713015/-0.134632/-0.899992/1.07814/1.39639/-0.328872/-0.0797261/-0.553174/-0.600734/-0.0189953/-0.175272/-0.138583/-0.0930887/-0.178102/-0.471646/-0.988979/0.232363/-0.67719/0.745874/0.598495/-0.03417/-0.960844/0.283813/-0.519551/0.490035/0.679197/-0.642482/-0.385703/-0.241222/1.14195/0.936609/0.702736/1.39893/0.0667053/-0.130684/0.601143/0.0351597/-0.912774/1.22791/-0.491687/-0.943153/0.780087/0.930924/-0.174106/-0.205875/-0.123574/1.20254/-0.711018/0.35537/0.0965378/-0.754321/0.819509/-0.798536/-0.962866/-0.0704653/-0.0867249/-0.735922/0.124337/-0.866059/0.6287/0.194338/0.0985667/-0.0954745/0.62734/-0.492746/0.873934/-0.128718/-0.237269/-1.03243/0.324041/0.122045/-0.203539/-0.884629/0.0239575/-0.514457/0.521191/0.16018/0.608361/-0.195734/-0.528167/0.069116/-0.0940772/0.0831849/-0.017168/-0.45044/0.295184/-0.185774/0.956598/-0.0702888/0.453437/-0.815943/-0.450077/0.640067/-0.82826/-0.0113753/-1.02952/-1.10435/-0.660356/-0.658531/0.431857/0.21468/0.138579/-0.55649/-0.409134/-0.0466564/-0.047056/-0.909634/0.267208/-0.597454/0.555469/-0.652823/0.630327/0.0826027/0.947226/1.32836/1.85567/1.23057/-0.186092/0.785843/0.218064/-1.05907/0.614897/0.105053/0.15596/-1.33054/-0.638646/-0.379214/0.429557/-0.435673/-0.311131/1.28607/0.23176/0.92951/-0.65654/0.546372/-0.0227244/-0.841619/-0.578619/0.164496/0.395811/0.155635/1.07848/-0.587197/0.468783/-0.0823351/0.039715/1.1306/-0.99243/-0.79771/0.646332/-0.0699553/0.539837/0.996327/-0.317074/-0.946763/0.0204613/-0.107496/-0.635473/-0.135495/-0.0946171/0.641974/-1.04199/0.0995441/0.472194/-0.614902/-1.05866/-0.11489/-0.415073/0.376948/0.265989/1.04073/1.38475/-0.0483112/0.226361/0.714421/0.296983/-0.480005/0.426931/0.221583/0.702119/-0.86444/0.0463816/0.836219/-0.125632/0.499881/-0.442491/-0.471376/0.267206/-0.933675/-0.187789/-0.280735/-1.03689/-0.934993/0.123355/-0.914967/-0.887883/1.45239/-0.255509/-0.393421/-0.542856/-0.960494/0.345009/0.763316/-1.20395/-1.34321/-0.177563/0.776856/0.110641/-0.975935/-0.121979/0.571315/0.515448/-0.858858/-0.791076/0.722951/0.711119/0.309943/-0.634473/0.59434/-0.126809/0.462764/-0.366564/0.297047/-0.125236/1.15902/-0.243926/0.202847/0.0222663/-1.08414/-1.30901/0.282608/-0.485653/0.334414/-0.620647/-0.225871/0.847768/0.34127/-0.984625/0.505368/-0.278633/-0.992579/-0.286928/-0.172871/0.532549/-0.0568511/0.585358/0.921502/-0.425758/1.07209/0.101734/0.847832/-0.611377/0.670631/-0.898106/-0.86981/-0.0801103/0.696301/-1.03015/-0.955438/0.520989/0.128252/0.154125/0.349856/-0.0660775/0.841637/0.705283/0.27355/0.929768/0.619162/0.238393/0.604743/-0.742845/-0.722089/-0.803105/1.03113/-0.131804/0.235368/-0.378147/0.0397818/0.221096/0.108182/0.514606/-0.0692525/0.160597/-0.484585/0.65972/-1.13352/-0.0927059/1.00713/0.125388/0.729885/0.44577/0.896028/0.101768/0.192759/-0.812876/0.000378132/0.360112/-0.854966/0.302624/-0.101185/-0.44279/-0.840108/0.882876/-0.133463/-0.721694/-0.475115/-0.752705/-0.879831/0.417584/1.1519/0.648454/-0.366681/-1.17622/-1.21401/-0.656974/-0.585458/0.812062/-0.0021132/0.399122/-0.574019/0.461039/-0.473699/0.526137/0.776712/0.20602/0.100513/0.585825/0.613075/-0.993111/0.209723/-0.486762/-0.860983/-0.344195/0.797168/-0.676748/-0.8854/0.044252/0.824932/-0.0662056/0.162966/0.113578/-0.753248/-0.472416/-0.371228/0.675614/0.737399/-0.716335/-0.0343654/-0.471687/0.399417/0.018941/0.341475/-0.846461/-0.593362/-0.0669352/-0.0224386/-1.46031/-0.408077/0.00103495/0.459558/0.222495/-0.226504/0.274038/-0.753437/0.910173/0.552461/-0.7576/-0.282078/-0.280453/0.410241/0.567111/0.181945/0.614656/1.15263/1.27518/-0.308166/0.968687/-0.177997/-0.902932/0.423593/-0.696906/-0.0265852/0.440596/-0.974183/0.280719/0.615647/0.914003/-0.553676/-0.142223/-0.0874006/0.516104/0.099372/0.368549/0.293296/-0.659418/-0.791998/0.938259/0.751693/-0.0355385/0.86322/-0.417312/-0.279447/0.335577/0.940975/-0.0417836/-0.690205/0.463993/0.326197/0.355548/0.16355/0.181352/0.767186/-0.49742/-0.65413/-0.823538/0.232741/0.123654/0.55885/0.76089/0.884642/0.554503/0.0253194/-0.326313/0.666867/0.537653/-0.441973/0.612055/-0.88452/-0.00134783/0.663852/0.343018/-0.171612/0.244729/0.669638/0.915175/-0.660519/0.661717/-0.513833/0.00527318/-0.0353799/-0.781668/-0.909081/-0.651977/0.364311/0.979533/0.936822/-0.893797/-0.0176229/-0.808873/-0.543948/0.28688/-0.666354/0.452144/0.521301/-0.666421/0.756737/-0.323978/-0.652786/-0.046921/0.979219/0.583944/-0.363598/0.973806/0.764773/-0.4675/0.725199/0.416773/0.703756/0.0292483/-0.423219/0.959982/0.34759/-0.0698955/-0.734324/0.217085/0.539843/-0.860197/0.663337/0.699849/0.358309/0.101076/0.791124/0.429022/0.565255/0.236544/-0.404857/-0.437564/-0.13283/-0.471416/0.903665/-0.109051/-0.771215/
0.764842/0.704749/0.718182/0.493142/0.237815/0.9716/-0.278953/-0.604477/0.0620307/0.304363/-0.562984/-0.0747449/-0.237116/0.791274/0.943196/0.290469/-0.0873354/0.198105/-0.159148/-0.807977/0.329275/0.12077/-0.214455/-0.338043/0.506223/0.0977777/-0.650171/0.576216/0.467304/-0.01949/0.434858/0.393227/0.0401127/0.978111/0.310297/-0.482114/0.97555/-0.0560323/0.992472/1.00341/-0.909641/-0.233237/-0.832238/0.481393/-0.567865/-0.333318/-0.72046/-0.631109/0.4064/-0.617289/0.722541/0.929161/-0.723972/0.837998/0.19418/0.776959/0.357709/0.014479/0.736599/-0.522395/-0.0934394/0.848123/-0.451534/-0.228568/1.14902/0.377918/0.937898/0.820163/-0.70555/-0.839828/0.0164355/0.0311859/0.134325/-0.538401/-0.713758/-0.147842/0.891184/0.280641/-0.76723/-0.0891509/-0.334982/-0.588254/0.311561/0.890164/0.988883/0.149471/0.273955/-0.108151/-0.854372/0.653345/0.933979/-0.0359656/-0.861178/0.822072/-0.468418/1.07539/-0.617059/-0.860255/-0.0666142/0.751711/0.674132/0.523409/0.754534/0.0839377/0.0778056/-0.414806/-0.0378043/1.02322/0.655062/0.686986/0.764283/0.158485/-0.339997/-0.33465/0.540014/-0.725969/0.114727/-0.674294/1.00674/-0.432615/-0.707009/-0.619047/-1.19728/0.52228/0.486374/-1.00033/-0.40257/0.411344/-0.800271/-0.325722/0.122654/-0.0151899/1.04288/-0.178485/1.00606/-0.172837/-0.867092/0.949675/0.447432/0.748032/0.171911/-0.688782/0.729192/-0.795286/-0.236414/-0.351139/-0.542562/-0.932435/-0.797254/-0.849794/0.211499/0.211592/-0.628485/-0.14022/-0.965962/-0.734353/-0.65277/0.17979/-0.59359/-0.595735/0.074316/-0.412653/0.877641/-0.887048/-0.738435/-0.470109/-0.629213/0.0737158/0.942264/0.635185/0.85869/0.586725/-0.488094/-0.305333/0.0278188/-0.452276/0.507163/0.669114/0.323602/0.516604/-0.720262/-0.313023/-0.181196/0.0882745/-0.797709/0.348767/0.907377/0.44948/-0.105863/0.262468/0.349119/-1.17053/0.0570467/-0.517228/-0.632084/-0.892125/0.0512085/0.654394/-0.590993/0.555624/-0.841578/0.313083/-0.187173/1.08308/-0.221828/-0.791575/-0.927385/-0.902354/-0.492431/-0.563747/-0.470707/-0.336112/-0.0643531/-0.370202/-0.360524/0.542208/0.356787/-1.09841/0.325641/-0.0808888/0.643883/-0.380962/-0.967935/0.755041/-0.0234502/-0.120446/-0.501757/-0.359313/-0.942043/0.819356/-0.192477/-0.218554/-0.092451/-0.669426/-0.0783827/0.91213/-0.362785/0.147012/-0.388219/0.390571/0.421488/-0.422418/0.0972432/-1.26571/0.0585341/0.616753/-0.890072/0.0733947/-0.777999/0.699174/-0.084766/0.160196/0.41341/0.1889/-0.463977/0.483343/-0.76571/0.66961/1.1512/0.619049/0.421436/-0.565605/0.855792/-0.126427/-0.147012/-0.106465/-1.42761/-1.07342/0.178452/-0.0142919/0.129376/0.515492/0.333853/-0.555432/0.418874/-0.324104/-0.408684/-0.00234487/-0.420029/0.778487/0.0330368/-0.766859/-1.04339/-1.03087/-0.530503/0.211631/0.995599/-0.416978/0.980928/0.539491/0.37437/-0.9254/-0.969132/0.980352/-1.13794/-0.0125731/0.822834/0.335402/-0.606747/-0.455242/0.963006/-0.952531/0.309844/0.577252/0.0589624/-0.521057/0.0343238/-0.791577/-0.0330437/0.621244/-0.901378/0.347392/-0.886677/-0.3269/0.512843/1.03006/0.603842/0.729904/0.261798/-0.678461/-0.066802/-0.0738632/0.884979/-0.64125/-0.073912/-0.816776/-0.909842/0.243023/-0.678055/0.343016/0.444952/0.698233/-0.167657/0.990146/-0.0338163/0.677298/-0.655974/-0.958488/-0.909206/0.00112247/-0.324182/0.402621/-0.51223/0.577654/-0.67978/0.765151/-0.572963/0.979272/-0.129549/0.286032/0.411535/-0.128973/0.714193/-0.158784/-0.702201/-0.350306/1.00682/-0.0381409/0.355686/1.18804/-0.195343/0.828711/0.337103/-0.398683/-0.659203/0.790361/0.205514/1.04846/-0.372677/-0.433501/0.21749/-0.254097/0.273879/0.600317/-0.0158965/0.982072/1.36485/1.07455/0.299211/0.853073/1.05536/1.0544/0.469392/1.47861/0.933403/0.345938/-0.564685/0.0806574/1.15969/0.234685/-0.92342/0.41356/0.697332/0.0719718/0.838699/0.834732/-0.279941/0.151681/0.218/-0.559429/1.23529/-0.389495/0.99504/0.841061/0.433414/1.07457/0.943609/0.273987/0.156316/0.773972/0.863949/0.546953/0.18689/1.19856/-0.552064/0.09734/-0.237388/0.899624/0.388316/-0.163326/0.979238/0.0877047/0.773135/-0.512197/-0.312187/-0.230282/0.225904/-0.419438/0.0364079/0.61861/0.158582/-0.641478/1.06775/1.32827/0.166519/-0.204126/0.659676/0.428604/-0.422896/0.739216/0.90562/0.361965/-0.110738/1.09313/1.16036/0.208729/0.153516/-0.490619/0.162087/0.233766/-0.790937/-0.0380138/-0.149328/0.487469/-0.0277303/-1.13599/-0.281737/-0.631241/0.565854/0.683173/-0.547455/0.895721/0.260547/0.617871/0.681175/-0.45289/-0.532213/0.614141/0.771449/-0.876914/1.05047/0.503253/0.252699/-0.141656/-0.173293/-0.640233/-0.404227/0.18539/0.631018/-0.172267/0.454038/0.172705/-0.127877/0.576441/0.465894/-0.661417/-0.276115/-0.00430611/-0.564682/-0.46064/0.0367838/0.760979/-0.560709/-0.369808/0.594254/-0.440964/-0.286182/0.381994/1.06655/0.635058/-0.551327/-0.771642/0.458967/0.971508/0.139762/1.00133/-0.629863/0.241718/0.582386/-0.301228/-1.04519/0.716426/-0.375734/0.448926/0.872906/0.211234/-0.467772/-0.490636/0.524861/-0.580171/-0.723375/-0.512604/0.292601/-0.222209/-1.06198/-0.0489785/0.408777/-0.0668519/-0.844349/-0.482779/0.0870661/0.871453/0.511388/0.9125/1.14606/0.732568/0.0728389/-0.697942/0.279464/-0.669996/0.282762/0.911696/1.27489/-0.0308794/0.0316921/0.525231/0.342351/-0.850418/-0.157724/-0.423796/-0.620181/-0.0602649/0.103172/-0.845372/0.233602/0.564387/-0.413794/-0.867266/-0.805258/0.354051/0.526879/-0.690728/-0.0541308/0.806309/-0.0505613/0.231888/0.0842097/0.00972942/-0.610413/-1.13646/0.63908/0.577436/0.954839/-0.234308/0.047369/-0.589131/-0.432375/-0.588817/-0.483195/-0.150432/-0.42852/-0.113231/-0.23746/0.387574/-0.0777666/-0.976327/-0.077077/0.0534779/0.802434/0.530462/-0.530213/0.32748/0.765552/0.420833/-0.119156/-0.420153/-1.21596/-0.225103/0.724923/0.897674/-0.949988/0.135712/-0.124407/0.182505/0.119471/-0.638506/-1.01433/-1.28264/0.697531/-0.844242/-0.469707/0.985449/-0.116321/0.707362/0.762398/0.490659/0.498943/-0.260411/0.894563/0.715872/0.819496/-0.677183/-0.522476/-0.908084/0.687258/0.671726/0.807428/0.558134/-0.136043/-0.445753/-0.50254/1.18125/0.452902/0.729224/0.231363/0.259041/0.393333/-1.28036/-0.852361/0.456958/-0.644996/-0.0628623/-0.278813/-0.0563728/0.541905/-0.198037/1.01857/-0.761585/0.87303/0.798398/1.00025/0.674386/-0.447763/1.21463/-0.0171243/0.049839/0.405033/1.0141/-0.412482/-0.340409/-0.327565/-0.257394/0.325998/0.0819607/-0.422584/-0.359937/0.872048/-0.0545798/-0.15136/0.176243/-0.197599/0.559653/0.091442/0.865929/0.5199/-0.26261/0.472026/-0.515154/0.296672/-0.217306/0.562167/0.323294/0.833801/-0.198503/0.939431/-0.425815/0.180116/0.403919/-0.101512/-0.813715/1.02791/0.290768/0.0552607/0.154274/0.679259/0.953202/-0.0460795/-0.936959/0.125401/-0.559804/-0.622145/-0.401991/0.0595745/-0.622296/0.30822/-0.75003/-0.0523457/-0.39171/-0.535588/-0.399182/-0.197051/-0.137753/-0.581039/-0.529018/0.894458/0.0759515/0.201051/-0.215608/-0.553535/0.265432/-0.492178/-0.115634/0.447612/0.91394/0.883145/-0.650028/0.481319/-0.0601693/0.734112/0.213468/0.236012/-0.572095/0.0328097/0.956747/-0.395262/0.038048/-0.602526/0.838682/0.444084/-0.331406/-0.931748/-0.90703/0.645752/-0.031293/-0.384834/1.02782/-0.107128/0.580577/0.154902/-0.050774/0.957129/-0.351288/-0.731355/-0.132941/-0.965639/0.957872/0.950987/-0.759691/-0.126807/0.75403/0.975578/0.545266/0.284587/0.843237/0.0556682/0.891661/0.139186/-0.69592/-0.32036/-0.292335/0.733708/-0.571168/0.386426/0.664672/-0.862968/0.0970031/0.331118/-0.905168/0.838941/0.0877632/-0.964569/0.485991/0.0494371/0.889756/0.166887/
0.118255/-0.487242/0.923801/0.322502/0.298016/0.752912/0.192279/-0.935437/0.977111/-0.262778/-0.517431/-0.469282/0.778004/-0.0895918/0.229854/-0.85075/-0.553256/-0.980475/0.569964/-0.608027/0.892155/0.454798/-0.217564/-0.598264/0.976636/0.316665/0.191816/-0.144311/0.572721/-0.28021/0.515317/-0.109796/-0.776758/-0.509645/-0.62858/0.669598/-0.691429/0.334967/0.302021/-0.155237/0.794287/-0.62875/-0.831495/-0.931088/0.22793/-0.767389/0.335894/0.862792/-0.281552/0.0439483/0.919813/0.365494/-0.637801/-0.636778/-0.154757/0.984605/0.250794/-0.910559/-0.2114/0.477582/-0.434791/0.208908/-0.712423/0.758852/0.466349/0.547783/-0.295281/-0.884928/0.356033/-0.741994/0.799351/-0.254065/0.866715/-0.273101/-0.799572/-0.0423504/-0.871856/0.822809/0.876544/0.4026/-0.785195/0.114511/0.799658/-0.519869/0.567282/0.310798/0.492105/0.597291/0.487429/0.855957/0.17793/-0.430637/0.67946/-0.113186/-0.508643/-0.357301/-0.677859/-0.431513/0.720603/0.628028/-0.815508/0.081989/-0.511293/0.368096/0.453184/-0.543725/-0.903324/0.6213/-0.503934/-0.683421/-0.491105/0.14658/-0.422348/-0.408202/0.60947/-0.734036/0.739623/-0.525276/-0.290421/-1.23595/0.344921/-0.31644/0.258836/-0.243306/-0.309865/-0.380069/0.750153/0.457267/0.621741/0.225822/-0.657567/-0.23251/0.82495/-0.00487837/-1.05781/-0.340449/0.491333/0.247144/-0.345555/0.465504/-0.281884/0.374266/0.699583/-0.408167/0.217833/-0.0749034/-1.24546/-0.616486/-0.795601/-0.728066/-0.982202/0.321845/-0.345781/0.259098/-0.635222/0.207948/-0.329245/0.360564/-0.355841/-0.00694467/-0.717792/-0.224567/0.186308/0.102984/0.530645/-1.10578/0.0982095/-0.480029/0.148845/-0.363395/-0.0543716/0.00713267/-0.0485878/-0.750982/-0.5876/0.322981/0.643614/-0.224711/0.46551/0.110542/0.421765/-0.72038/-0.582435/0.572836/0.15569/0.883718/0.133295/0.327134/0.393402/-0.443071/-0.365367/-0.146091/-0.0768841/0.042751/-0.913523/-0.0661224/0.681322/0.971843/1.01745/-0.264559/0.447436/-0.985368/0.285997/-0.436088/0.0535561/0.76665/-0.029738/0.625274/0.575327/-0.92844/-0.29607/-0.129765/0.342034/1.16051/0.578493/-0.792877/-0.566944/-0.896764/-0.819414/0.102051/-0.23018/0.016246/0.219106/0.400868/-0.618956/-0.798304/-0.140246/-0.401561/-0.625002/-0.765466/0.0281883/0.607377/-0.0975607/0.643057/0.928162/-0.723427/-0.75857/-0.465013/-0.945116/-0.155786/0.615718/-0.0741418/-0.288125/-0.538906/-0.429432/0.846751/0.179261/-0.372884/0.235408/0.671873/0.332193/0.516198/-0.259029/0.483832/0.538395/0.582356/-1.0293/0.346331/0.389364/-0.551283/-0.586332/0.756243/-0.00341742/0.48774/0.39265/-0.295787/-1.03136/-0.930441/0.281668/0.658817/-0.340461/0.734006/-0.168072/0.985877/1.34603/-0.845656/-0.0844234/0.695818/0.690071/0.937151/0.692003/0.47452/-0.154472/0.646896/0.278706/0.650115/-0.320722/0.274384/0.120294/0.740113/-0.268725/-0.549469/-0.364466/0.765241/0.51309/0.434921/0.0172159/-0.199093/0.542254/-0.122764/-0.537826/-0.274093/-0.589492/-0.482961/0.205809/0.597108/0.185188/0.201861/0.684421/-0.950973/-0.945791/-0.717325/0.444169/-0.925607/-0.0636247/-0.563564/0.7256/0.748079/-0.852597/-1.36693/-1.06047/0.744943/-0.0419152/0.367042/-0.265612/0.135896/0.238708/0.571299/-0.488059/1.291/-0.0947937/-0.093387/-0.152272/0.112809/-0.0683726/-0.854381/0.422734/0.868796/-0.403432/-0.171279/-0.774871/-0.0942051/0.550118/0.795002/-0.142184/0.600932/-1.00059/-0.264778/0.125225/-0.874594/0.0760852/0.684456/0.305299/0.770013/0.128923/0.498178/0.148611/0.954076/-1.12878/-0.0491884/0.275018/-0.568663/-0.0499562/-0.16931/0.405682/0.268245/-0.821624/0.647293/-0.351575/0.279411/0.607285/-0.666888/0.123869/0.303603/-0.682338/0.0247933/-0.293689/0.457123/-0.255043/-0.673845/1.11515/-0.147917/-0.651353/-0.243279/0.861556/-0.845317/-1.23573/-0.624799/-1.32932/-0.222338/-0.0942357/-0.815375/-0.00506051/0.938915/0.198473/-0.234226/0.611046/0.648682/0.507288/-0.257464/-0.442512/-0.613666/-0.704302/0.446527/0.901882/0.305481/-0.887769/0.706898/0.90311/0.470555/1.13614/-0.516273/-0.538972/-0.453185/-0.935333/-1.04192/-1.11826/-1.02025/0.532897/-0.402907/0.340601/0.476529/-0.879042/-0.14553/-0.0535492/-0.216971/-0.362297/-0.443146/-0.578126/-0.693567/-0.0605297/-1.18531/0.219379/-0.110527/0.659809/1.2391/-0.104169/-0.266455/-0.303831/-0.961035/-1.41632/-1.1609/0.0707694/0.0730856/0.323484/0.479051/0.942874/-0.0988986/-0.188072/-0.924301/1.18502/-0.760428/-0.861905/0.239666/0.460552/0.541016/-0.000764674/-0.172907/-1.23278/-0.726972/-0.392263/-0.351216/-0.010786/0.373337/-0.104048/0.114944/0.774896/-0.582968/0.47618/-0.574936/-0.136085/-0.450425/0.933669/-0.190154/-0.806309/-0.164919/0.201942/0.0508062/-0.458725/0.308168/-1.21678/0.23797/0.454274/0.195572/-0.475922/-0.451542/0.0204536/-0.673698/-0.612423/-0.287569/-0.270687/0.929235/0.552824/-0.00978355/-0.0876339/-0.570033/-0.101572/0.0453209/-0.764247/0.912334/0.652276/-0.769019/-0.42036/0.0933922/-0.35743/0.76543/-0.627711/0.281842/-0.213481/0.0393145/0.495052/0.134165/-0.0319333/-0.820514/-1.25933/-1.17863/-0.626619/-0.252768/-0.118189/0.299035/0.0571966/0.967593/0.233602/0.446333/-0.405182/0.335309/0.375831/-0.795807/-0.431028/-0.324932/-0.598577/0.294121/-0.708813/1.06684/-0.0376217/-0.378535/0.493464/-0.36208/0.298304/-0.600374/-0.315473/-1.01184/-1.11752/-0.110622/-0.496575/0.593319/0.958118/1.23975/0.0565655/0.63676/0.535612/-0.286358/0.176128/0.0554456/0.771853/-0.687563/0.780038/-0.548851/0.360954/0.234904/0.0382304/0.56211/-0.00647582/0.82168/-0.466325/-0.506644/-0.0327078/-0.587165/0.912887/-1.04981/0.436488/-0.517555/-0.244301/-0.0661781/-0.880815/-0.0298087/0.811633/0.289163/0.655904/0.117392/0.380125/0.489818/-0.653091/-0.594597/-0.0544224/-0.342337/-0.324271/-0.570224/0.24132/-0.140965/-0.78631/-0.634627/0.382314/-0.48017/-0.401827/0.784322/0.0690145/-0.706338/-0.185235/-0.230449/0.45033/-1.11286/-0.575822/-0.436189/0.85318/-0.248599/-0.202627/-0.463278/0.961801/-0.259167/0.393082/-0.309883/-0.271444/0.771478/-0.868695/0.881247/-0.87366/0.390618/0.317929/0.17146/0.693979/0.0719087/-0.397047/0.73215/-0.454827/-0.00937717/-0.689558/-0.0963852/0.378748/-0.00606423/0.73972/-0.404194/-0.253409/0.500208/-0.0234284/-0.232494/1.07818/0.731565/0.407777/-0.451964/0.336953/-0.824106/-0.865476/0.453774/0.583285/-0.721977/0.29583/-0.707376/0.152232/-0.767048/-0.135789/-0.532012/-0.604013/-0.120083/0.550491/-1.11652/-0.188204/-1.09923/0.421152/0.63388/-0.821533/0.312788/0.172289/-0.543693/0.34863/0.103049/-1.22625/-1.04482/0.146628/-0.729107/0.58296/0.27351/0.876831/0.899365/-0.535163/0.651995/-0.226018/-0.617671/0.0517637/0.968006/-0.432125/0.093022/-0.614537/-0.697704/-1.22843/-0.256698/-0.758522/-0.6136/-0.884166/-0.593645/0.118697/-0.297162/0.374817/0.488311/-0.37382/-0.926323/0.434281/-0.530124/0.0653266/0.32291/-0.854412/-0.104622/0.498799/0.678945/0.265753/-0.958166/0.450138/0.63544/-0.450265/0.246189/-0.0554466/-0.814038/0.885247/-0.676898/0.0413012/-0.834458/-0.319571/-0.193222/-0.269196/-0.0878641/0.463068/0.486658/-0.929434/0.308296/0.514704/0.702757/-0.0907794/-0.868327/0.0364363/0.384711/-0.164697/-0.828758/0.882715/0.741485/0.840284/-0.210398/-0.928609/0.157124/-0.534361/-0.969359/-0.547504/-0.156108/-0.0605221/-0.997716/0.775248/-0.463044/0.840541/0.438197/-0.890901/-0.584855/-0.276921/-0.284912/-0.328585/0.98263/-0.347746/-0.349546/-0.813111/0.0359464/0.151762/0.659972/0.149572/-0.136/0.240176/0.728382/-0.783818/-0.683151/0.281268/-0.733979/0.018052/-0.599283/-0.150544/-0.189681/0.0383566/0.658889/-0.0530285/0.750185/0.359399/0.417269/-0.955604/-0.83455/-0.275302/0.99207/-0.279828/0.924566/-0.748426/
