-0.999984/-0.736924/0.511211/-0.0826997/0.0655345/-0.562082/-0.905911/0.357729/0.358593/0.869386/-0.232996/0.0388327/0.661931/-0.930856/-0.893077/0.0594004/0.342299/-0.984604/-0.233169/-0.866316/-0.165028/0.373545/0.177953/0.860873/0.692334/0.0538576/-0.81607/0.307838/-0.168001/0.402381/0.820642/0.524396/-0.475077/-0.905053/0.472156/-0.343529/0.26528/0.512816/0.982064/-0.269323/-0.505919/0.965102/0.445319/0.506667/0.302874/-0.854869/0.263083/0.7694/-0.454421/-0.126611/0.533623/-0.0444605/-0.523871/-0.450186/-0.28147/-0.666986/-0.0269652/0.795313/0.818416/-0.878704/0.810512/0.0102781/0.0332907/-0.360932/0.974452/-0.0111021/-0.46694/-0.818206/0.89559/-0.852729/0.000417798/-0.235133/-0.451718/0.821972/0.0554695/-0.0728683/0.88128/-0.899034/0.525265/0.542587/0.656972/-0.749276/-0.968265/0.376911/0.736494/0.259087/0.472545/0.450951/0.999573/0.777991/-0.533012/-0.385163/-0.295466/0.0270452/0.182663/0.691766/-0.177634/0.678436/-0.470444/-0.180521/0.0625546/-0.0762199/-0.434888/-0.649039/-0.694612/0.14244/0.605058/-0.932398/0.0707107/-0.00288617/0.910752/0.496585/0.109168/0.781489/0.24995/0.682942/-0.679999/-0.572595/0.43179/-0.735218/-0.815556/-0.452458/-0.996151/-0.174207/-0.952783/0.408861/0.862167/-0.534138/-0.651633/-0.379221/0.762041/0.295182/-0.703226/0.362155/-0.229055/-0.223964/0.00192378/-0.703781/0.174412/0.691151/0.180217/0.910832/0.112961/-0.704612/0.966176/-0.182313/-0.715859/0.131409/-0.495146/-0.0260656/-0.078792/0.913003/-0.75991/-0.61403/-0.376062/0.24334/-0.760532/0.288378/0.231402/0.599079/-0.507155/-0.0457238/-0.22036/-0.592556/-0.939928/0.80501/-0.146991/-0.715958/0.894974/-0.179357/-0.736308/0.770153/-0.818164/-0.678078/-0.858456/-0.268527/-0.494409/-0.737465/0.551548/-0.106342/-0.319268/-0.112041/0.602925/0.848635/0.291876/-0.57915/0.352181/0.812035/-0.50483/0.721549/-0.0571242/0.0131242/0.203903/0.637622/0.511818/-0.07551/0.902735/0.265501/-0.119721/0.64741/0.373269/0.398781/0.972014/0.907715/0.698683/-0.431807/0.0570419/0.00992354/-0.810303/-0.188512/0.139793/0.742214/-0.126687/0.455021/0.734807/0.424988/0.593673/0.406596/0.476694/-0.964419/0.772613/0.0513873/-0.0732493/-0.869612/0.426845/-0.0221259/0.336555/0.363/-0.605336/0.824892/0.725468/0.773707/0.0776191/-0.738767/-0.117982/0.962132/-0.582782/-0.121874/-0.381093/0.0182107/0.758241/-0.125241/-0.0736127/0.602567/-0.283034/-0.592596/0.983708/-0.701516/0.25885/0.233312/-0.998744/-0.998242/0.546704/0.454659/-0.361559/-0.164826/0.359075/0.350021/-0.601532/0.662704/0.402167/0.637195/-0.828912/-0.85012/0.515589/0.24481/-0.586378/-0.584666/-0.843852/-0.228786/0.894035/0.880869/-0.238202/-0.479953/0.367618/-0.443261/0.5501/0.567724/-0.155012/-0.435688/-0.612065/-0.9774/-0.617301/0.964277/-0.519604/0.624834/-0.742396/-0.219771/0.180579/-0.665741/0.641038/-0.696934/0.963666/-0.500166/-0.546652/-0.807403/-0.566849/0.265635/0.384749/0.578218/0.378345/0.493236/0.327626/0.257102/-0.891096/0.194999/-0.546127/-0.362444/0.399669/-0.765195/0.522748/0.0473197/0.0994844/0.162838/-0.357533/0.387541/-0.736088/-0.692005/-0.0392609/0.711298/0.614107/0.098848/0.467123/-0.376042/-0.734368/0.0546067/-0.379987/0.174392/0.0305286/-0.14538/-0.491244/-0.267113/-0.219063/-0.106946/-0.048093/-0.224338/-0.441414/-0.843518/-0.262253/-0.496399/0.335901/0.341143/0.016554/0.44343/0.425172/0.87709/-0.085206/0.872015/-0.372013/-0.0960921/0.0193804/0.308574/-0.202974/0.208663/0.972623/-0.696195/0.339629/-0.31784/0.0743089/0.0341163/0.650938/-0.970275/-0.451474/0.285958/0.0922732/0.835698/-0.467686/0.936489/-0.513349/0.677584/0.378394/-0.0984593/0.621722/-0.969382/-0.691842/0.397651/0.396932/-0.148668/0.145807/0.490096/0.979332/0.38948/-0.441074/0.509228/-0.662878/-1.00178/-0.0219152/-0.853591/-0.681838/0.804344/0.56589/0.493358/-0.127149/-0.987284/0.169168/0.0338338/-0.871778/0.0812347/-0.22597/-0.574165/-0.233783/0.244327/0.301243/0.396756/0.0543206/-0.462285/0.612669/-0.267075/0.367675/-0.384035/-0.984945/-0.795301/0.0339999/0.540458/-0.572026/-0.902297/-0.868419/-0.682611/0.447343/-0.405956/-0.898795/-0.0444696/-0.0860648/0.0393116/-0.110048/-0.701566/-0.428109/0.664382/0.389586/0.149091/0.343399/-0.360879/-0.910072/0.948309/0.0668632/-1.00306/0.707394/-0.947654/-0.250524/-0.0261675/0.144893/0.468804/0.348476/0.0603027/-0.937122/-0.75612/0.946774/-0.623448/-0.297363/0.228285/0.216306/-0.747794/0.101247/0.903429/-0.288413/0.671624/0.942728/-0.493344/-0.516501/-0.174916/0.601784/0.77223/-0.524849/0.516156/0.383509/-0.104231/-0.480276/0.323126/-0.777204/-0.591487/-0.783502/0.0817456/-0.995314/-0.648666/0.198729/-0.136183/-0.834987/0.374865/-0.248977/0.671253/-0.758654/0.937775/-0.946081/-0.845273/-0.0211679/0.522965/0.848674/-0.51789/-0.302192/0.516629/-0.0130518/0.492091/0.340523/0.358986/0.509106/-0.932919/-0.54913/-0.570092/0.111079/0.292438/0.225546/-0.257933/-0.550399/-0.532617/0.306023/-0.668081/0.48854/-0.681202/-0.910257/0.312088/-0.758515/0.8913/-0.0436126/0.223876/0.809045/-0.982928/0.166446/0.428321/-0.0155236/-0.89741/-0.116697/0.0387326/0.542095/-0.874673/-0.12485/0.940343/-0.0809834/-0.355424/-0.116066/0.485335/-0.589341/-0.657241/-0.25496/0.879387/0.927365/-0.495623/-0.868593/-0.767387/0.0396562/-0.69032/0.0167811/-0.813179/0.663842/-0.279991/-0.16521/-0.35272/0.424451/0.152334/0.741865/0.514852/0.668782/0.392661/-0.231405/0.856054/0.193475/-0.289722/0.0714815/-0.090789/-0.196617/-0.519119/-0.833829/-0.156989/-0.0576813/-0.425543/-0.79837/-0.581129/0.58708/0.0391259/0.317611/0.707259/-0.526348/0.41232/-0.478984/-0.237811/-0.840259/-0.0851805/-0.541338/0.583436/-0.0251019/-1.00227/-0.479942/0.314346/-0.163704/-0.636191/0.921679/-0.733119/0.591687/0.892089/-0.65769/0.211945/-0.873356/-0.307258/-0.422103/0.0064562/0.636957/0.657203/0.441314/-0.352904/0.592394/0.254201/-0.916584/-0.921264/-0.695735/0.528978/-0.884507/0.0274834/0.845552/-0.573042/-0.607217/-0.838634/0.38603/0.405376/-0.0139913/-0.477222/0.423127/-0.243268/-0.598711/-0.535072/-0.130118/-0.0656272/0.714926/0.946966/-0.116781/-0.934912/0.0454125/-0.943056/0.494268/0.171989/0.639642/-0.346272/-0.541519/0.0654646/-0.148873/-0.204123/0.962312/0.921234/0.686341/0.720984/-0.388831/-0.710025/0.990617/0.277447/-0.0639484/0.863829/0.381545/0.630818/0.082059/0.142265/-0.685898/0.888421/0.640622/-0.690406/-0.919688/-0.31904/-0.791387/-0.819883/0.0258835/-0.967075/0.111849/0.703259/0.0238438/0.34005/0.466928/0.391484/-0.961957/-0.624074/0.334526/-0.312693/-0.871347/-0.72085/0.841981/-0.556687/-0.239771/0.172017/-0.666993/-0.949632/0.382062/0.526543/0.427355/-0.845573/0.177661/0.848094/0.854767/-0.147267/0.00131085/0.65213/0.828644/0.194287/0.439998/0.0331065/-0.0207998/-0.677084/0.949963/0.145436/-0.456366/0.0615052/0.395499/0.333804/-0.805148/0.0974726/0.221475/0.335933/-0.0101151/0.142952/0.179184/-0.114959/-0.697302/0.00307057/0.461124/-0.937446/-0.895883/0.0430402/-0.363433/-0.935047/-0.5141/-0.788713/-0.235493/0.103136/0.194367/0.222909/0.870609/0.543731/0.0259445/-0.026852/0.30023/0.393996/-0.184925/-0.026301/-0.0404343/0.4209/0.0683973/-0.446559/0.211617/-0.439545/0.406727/0.060864/0.876391/-0.529211/-0.172801/0.195254/0.565913/0.840386/0.362892/0.642269/0.0548255/-0.539461/-0.712631/0.799055/-0.497151/0.303025/-0.990377/0.871868/-0.449293/0.717532/-0.442143/0.904862/0.0136399/-0.7541/-0.167049/0.404943/-0.127018/-0.784522/0.53235/-0.800269/-0.11747/-0.310847/-0.405872/0.515242/-0.322981/-0.338483/-0.888788/0.146366/-0.0294279/-0.595036/-0.771051/0.948696/0.729219/-0.0163185/-0.26521/0.609825/-0.675592/-0.68084/-0.884554/-0.701497/-0.0909428/
-0.238783/0.767409/-0.151733/-0.175504/0.302589/-0.383345/-0.879715/0.628833/0.795314/0.838984/0.802436/0.540093/-0.658408/0.144884/-0.937192/0.606536/0.0444293/0.723244/-0.445604/0.738988/0.173724/-0.221656/0.623791/0.0513405/0.879743/-0.159924/0.159725/0.49829/0.761568/-0.323831/-0.620903/0.486252/0.437839/0.758323/-0.85427/0.420206/0.758106/-0.281244/-0.820301/-0.677909/-0.16641/-0.807212/0.34932/0.125218/0.626629/0.757855/0.539628/0.270405/0.792246/0.755108/-0.0282671/-0.77387/-0.245011/-0.234761/0.375156/-0.756521/-0.846356/-0.713396/-0.0447184/0.417176/-0.523959/-0.218074/0.951027/0.256253/0.361985/0.818127/-0.274626/0.719281/0.58856/-0.143403/-0.853271/0.000109373/-0.0215157/-0.0852805/0.00751155/0.48092/0.861331/-0.404084/-0.711039/-0.780687/-0.839642/0.94489/-0.183645/-0.523179/0.92632/0.666948/-0.60384/-0.740924/-0.607229/-0.321813/0.15026/-0.121102/0.168719/-0.13371/-0.263548/-0.236175/0.19832/-0.142265/-0.700253/0.351612/1.00432/0.409698/-0.190365/0.696134/0.634764/0.581514/-0.256046/-0.983665/-0.0423854/0.27747/0.292987/0.289796/0.59807/-0.245272/-0.284575/-0.220294/-0.330733/0.386644/-0.712539/-0.422208/0.325464/0.705179/-0.372753/-0.712964/0.202596/-0.985753/0.846479/-0.230035/0.0355396/-0.31367/-0.478556/-0.424676/0.659686/-0.758091/0.264459/-0.90566/-0.086341/-0.247663/-0.688284/0.511711/0.331946/-0.976938/0.589787/0.122936/-0.421902/-0.171322/-0.365056/0.0191346/0.426589/0.677185/-0.541214/-0.0741631/-0.257078/-0.895965/-0.848411/-0.592955/0.125357/0.651787/-0.169245/0.659537/-0.431618/-0.648622/-0.291243/0.865434/0.176523/-0.26336/-0.0740403/0.255661/0.888904/-0.188456/-0.899696/-0.110407/0.190525/0.491309/0.719239/-0.747774/-0.798405/0.328673/0.665702/0.163004/0.321269/0.966768/-0.963609/0.834243/-0.626618/0.916019/0.0227804/-0.467838/0.416759/0.163954/0.663599/0.667364/0.319622/0.460747/0.285975/-0.300942/0.0697524/0.328276/-0.352261/0.739996/-0.117922/0.830125/-0.453076/0.897238/-0.770114/-0.167686/0.677953/0.928715/-0.336462/0.0422152/0.0525295/0.614824/0.839594/0.306762/-0.53375/0.861932/0.172881/-0.763688/-0.51724/0.769806/-0.606779/-0.672285/0.671988/0.20481/0.246485/0.677357/0.344435/-0.216007/0.740485/0.330112/-0.77448/-1.00757/0.343194/0.254827/-0.0913948/0.143583/-0.951005/-0.321003/0.686082/-0.279652/0.306828/0.138843/-0.895281/0.472316/-0.458542/-0.130386/-0.661013/-0.823343/0.79372/0.986463/0.188324/-0.933993/0.381863/-0.0255712/0.139317/0.790239/-0.132681/0.373509/-0.600072/-0.0466736/-0.463145/0.889972/-0.518528/0.891835/-0.0695819/-0.766852/0.905529/0.69971/-0.576248/-0.995333/0.552671/-0.914575/0.902016/0.265276/0.12918/-0.735957/-0.744998/0.648794/0.00363651/0.311775/0.010118/0.0528689/-0.763982/0.802825/0.334688/-0.450154/-0.235126/-0.222612/0.657561/-0.519856/-0.769438/0.431772/0.272557/-0.60988/0.693383/-0.957924/-0.791348/-0.630409/-0.28685/0.545825/0.419312/0.314658/0.14254/-0.309911/-0.690159/-0.416836/-0.661951/-0.552606/0.342703/-0.190567/0.770891/0.154433/-0.319679/-0.131946/0.390651/0.666905/0.582744/0.692207/-0.449727/-0.488351/-0.670478/0.0591922/-0.864379/0.994192/0.503812/-0.754674/-0.67546/-0.160568/0.528836/-0.589949/-0.149832/-0.946753/0.853094/-0.788551/-0.467577/-0.0359026/0.58556/-0.485023/-0.573599/-0.438537/-0.242401/-0.59091/0.846246/0.519142/0.228033/0.146221/-0.300565/0.801216/-0.611594/-0.781379/0.573369/0.40194/-0.957346/0.502058/-0.771279/0.782824/0.2947/-0.323876/-0.250744/-0.583077/-0.344464/-0.964867/0.828695/0.57094/-0.213098/0.459895/0.661351/0.750924/-0.745503/-0.320715/0.871033/-0.291321/-0.306231/-0.84995/0.133583/0.544517/0.682523/-0.0156514/0.638252/0.29568/-0.12542/-0.290985/-0.302175/-0.444933/0.824236/0.23917/0.476735/-0.696725/0.545384/-0.496236/0.224092/0.709206/-0.370785/0.216817/-0.75034/-0.258674/-0.739331/-0.483533/-0.761102/-0.610469/0.487436/-0.867126/-0.0867655/0.923816/-0.530432/-0.598857/0.380299/-0.831173/0.710773/-0.693605/-0.76463/0.608556/0.87421/-0.922082/-0.89068/0.648604/-0.725027/0.601894/-0.545067/-0.201571/0.198388/0.310357/-0.895088/0.965108/0.617557/-0.180891/-0.950544/-0.801741/0.934283/0.728145/0.340913/0.667269/-0.520897/0.446625/0.190062/-0.555305/-0.547003/-1.0012/-0.112706/-0.191755/0.852581/-0.967288/0.0146417/-0.257719/0.712169/0.588131/0.218909/-0.336393/0.24801/0.307657/0.286167/-0.489703/-0.957133/0.963171/-0.599245/0.266257/0.10739/-0.252436/-0.764377/-0.106055/-0.722457/0.181127/0.0899815/-0.0341341/0.770235/-0.842597/-0.283932/-0.810602/-0.416167/0.669109/0.811814/0.644933/0.933837/0.626436/0.595712/0.679592/-0.102559/0.284107/0.386443/0.624477/-0.0740299/-0.628049/-0.212917/0.843459/-0.076525/-0.251275/0.0250405/-0.55638/0.80048/0.975076/-0.723369/-0.0827153/0.375703/-0.446948/-0.188855/0.470891/-0.948029/-0.406738/-0.630804/0.614239/-0.457555/0.434513/-0.182802/0.570146/0.444586/0.153981/0.264842/0.593709/-1.00793/0.237467/-0.327625/-0.0765606/-0.0297437/0.0460688/-0.375662/0.70695/-0.717973/-0.199913/-0.225244/0.690509/-0.891349/-0.0911321/0.527517/-0.417104/0.91539/0.982103/0.981741/0.471101/-0.307226/0.592744/-0.602017/0.201469/0.085649/-0.4968/-0.597496/0.150496/0.022706/0.47815/0.192132/0.953173/0.578567/0.0952726/-0.717745/-0.787216/0.0491361/-0.508946/0.138634/-0.338377/0.351597/-0.86428/0.691551/0.746785/-0.350244/-0.726033/0.473218/0.313807/-0.199982/0.16932/0.110888/-0.0117672/0.229003/0.84944/0.226654/-0.488913/-0.926387/0.226051/-0.336098/-0.976723/-0.673784/0.210313/-0.154861/0.139521/0.45941/-0.254265/-0.273751/-0.252967/-0.822568/0.173556/-0.16385/-0.787206/-0.361835/0.357606/0.117009/0.737531/0.0596591/0.948523/-0.879512/-0.0493116/-0.779736/0.984141/0.0977606/0.3936/-0.752032/-0.06438/-0.902109/-0.13197/0.819449/-0.126583/0.716904/0.990319/0.093997/-0.755328/0.691477/-0.612655/0.339245/0.322688/0.952764/-0.0834843/-0.686608/-0.729955/-0.442077/0.941863/0.193738/0.704298/-0.874228/0.851246/0.898788/-0.0666968/-0.436321/-0.0823671/-0.143822/0.719788/-0.619213/-0.250137/0.502042/0.627983/0.346259/0.444144/0.367738/-0.363708/-0.648594/0.391014/0.853942/-0.655257/-0.981189/-0.643515/-0.648183/-0.611765/0.32761/0.34534/0.0347367/-0.352811/-0.0660361/-0.358351/-0.812713/0.74086/-0.110479/-0.706839/0.299419/0.875657/0.754996/0.309599/-0.601048/-0.654349/-0.958465/-0.656947/-0.764942/-0.258938/0.141341/0.944509/-0.494121/-0.938372/-0.929366/0.776891/0.768771/0.818027/0.0855797/-0.658045/-0.0253295/0.629473/0.873296/0.166127/0.097813/-0.0565246/0.50556/-0.33778/-0.658816/0.0196738/-0.245631/0.653233/0.938397/-0.980483/-0.382296/-0.0745616/0.797589/0.700491/-0.485615/0.481859/0.69098/-0.145073/0.422152/-0.186535/0.0502335/0.0457168/-0.822638/-0.193436/0.564718/-0.47033/-0.384278/-0.630064/0.513253/0.241327/0.290113/-0.346414/-0.692379/-0.634519/-0.0929246/0.0705345/-0.668796/0.854993/-0.179019/-0.933564/-0.658882/0.13749/0.977046/-0.715297/-0.330545/-0.379716/-0.290209/-0.673772/-0.355723/-0.242042/0.282102/0.204626/-0.924631/-0.329793/-0.843572/0.0880575/-0.017756/-0.424257/-0.494582/-0.121383/0.31724/-0.349754/-0.996724/0.946147/-0.797422/-0.363163/0.911061/-0.301401/-0.669026/0.971175/-0.766972/-0.916113/0.921913/0.570592/-0.559204/-0.797089/-0.490878/-0.124996/-0.513977/-0.434812/0.098457/0.764604/0.703299/0.340936/0.115221/0.515666/0.803993/0.70676/0.519395/-0.5321/0.99658/-0.477435/-0.24992/-0.400994/0.491044/0.983669/0.532627/-0.142781/0.28333/-0.0723981/-0.795064/-0.636239/0.726721/0.00671518/0.86195/0.796072/-0.417668/0.258282/0.9508/0.0880979/0.661338/-0.89038/-0.632784/
0.950588/0.530418/0.739755/-0.935322/0.0368746/-0.249126/0.939334/-0.613705/-0.542858/0.193895/0.793009/0.098957/-0.830454/0.553968/0.54218/0.416797/-0.896129/0.767129/-0.856727/0.989322/-0.460165/-0.000453702/0.374635/0.49687/0.889295/0.379415/0.823546/-0.657546/0.630664/-0.434345/-0.0362455/0.821706/0.406346/-0.20144/-0.663203/0.804912/-0.579904/0.096806/-0.254203/-0.473695/0.61336/-0.52842/0.317734/-0.328805/0.0449331/-0.0923049/0.214901/0.334191/-0.956045/0.639378/-0.244714/0.0835734/0.939422/0.492568/0.586572/0.517398/-0.0935436/-0.1865/-0.511548/0.404239/-0.574759/0.318782/-0.189755/-0.451087/-0.317955/-0.398933/0.37558/0.90599/0.553627/0.801749/-0.958481/0.950873/-0.879995/-0.163362/-0.662909/0.592141/-0.97649/0.204888/0.84278/-0.78126/0.0897422/-0.854014/0.113034/-0.233238/-0.0371404/-0.218134/-0.182659/0.117551/0.877231/0.391576/0.172695/-0.983956/-0.442642/-0.229451/0.487648/0.126045/0.101872/-0.468012/-0.765522/-0.665262/-0.27639/0.632555/-0.462254/-0.61376/-0.17227/0.293134/0.0541749/-0.859663/-0.0641405/-0.24449/-0.80266/-0.0134905/-0.734371/-0.567512/-0.123724/-0.295527/0.981446/0.775954/-0.308795/-0.130677/0.590752/0.95855/-0.400772/0.149775/0.097536/-0.71205/0.0190592/0.00659858/0.460236/-0.839367/-0.570091/-0.660105/-0.23872/-0.259621/-0.479769/-0.676847/0.710368/-0.511034/0.786317/0.582313/0.928393/-0.49852/-0.432557/0.0966263/0.433449/0.0249286/-0.0349898/-0.305571/0.705926/-0.182319/-0.965262/0.823159/0.912384/0.141696/0.999396/-0.198117/0.16441/0.597693/-0.202878/-0.93751/0.0682326/-0.757229/0.13787/0.93318/0.361255/-0.585224/0.127761/0.661366/-0.414255/-0.387899/0.955057/0.965826/0.162256/-0.342028/0.0340195/-0.843395/0.608434/0.35898/0.188443/-0.591768/-0.593053/-0.664465/-0.43756/-0.615541/0.56699/0.717093/0.544634/-0.854502/-0.709501/-0.528363/0.506063/0.0257725/-0.217786/0.736879/-0.334446/0.193405/0.56042/0.973039/0.905878/0.639608/0.546249/0.364659/0.676486/0.251451/0.535283/-0.202996/0.183328/-0.148112/0.611009/-0.0459646/0.36873/0.61455/0.0860307/-0.436714/0.139947/-0.0852304/0.765766/-0.168463/-0.503651/-0.0870279/-1.00435/0.315685/-0.816181/0.124612/0.358085/0.334978/0.48846/0.298053/0.952358/-0.451366/0.558561/-0.997601/-0.835455/-0.875173/0.866374/-0.56313/0.556742/-0.509281/-0.442009/0.46007/-0.429563/-0.0818155/0.783704/0.81251/0.754141/-0.529454/0.477247/0.346186/-0.0741515/-0.0548553/-0.582525/0.0127801/0.795542/0.67009/0.915621/0.937587/0.823592/-0.715249/-0.485863/-0.219123/0.534698/0.545831/0.555508/-0.0950158/-0.181623/0.253473/0.274124/0.457701/0.631752/-0.48402/0.53054/-0.66774/-0.78723/0.545977/0.952588/-0.872968/-0.166135/0.677515/0.267033/0.889621/-0.139294/0.891858/0.594429/-0.253584/-0.516978/0.643773/-0.931467/-0.546953/-0.808909/0.726883/-0.922083/0.888172/0.62477/0.719946/0.0108625/0.488016/0.98292/-0.184184/-0.597212/-0.215826/-0.809665/-0.308581/-0.841209/-0.62251/-0.244732/0.638416/0.797609/0.931673/0.634131/-0.166435/0.631242/0.441853/-0.0912338/-0.18005/0.171774/0.205741/0.339868/0.981598/0.474657/-1.0034/0.238033/-0.7576/0.772658/0.34631/-0.352506/-0.538935/-0.107501/0.346882/-0.503911/-0.734999/0.376301/0.169546/0.362824/-0.860882/0.75886/-0.594072/-0.566522/0.465112/0.568702/0.909877/0.424737/0.471348/-0.624042/-0.575999/-0.959943/0.680511/0.51476/-0.577818/-0.176945/-0.482281/0.3337/0.667712/-0.907358/0.239415/0.262352/-0.0962038/-0.79853/0.424469/-0.99399/-0.203908/0.0556739/-0.800573/0.280647/-0.128455/-0.944399/-0.515127/-0.342963/0.2565/-0.258504/0.0732505/0.517623/-0.858351/0.514985/-0.912577/-0.644853/-0.0802153/0.658464/-0.344295/-0.277216/0.701475/0.56334/-0.450357/0.622767/0.392647/0.774569/0.713256/-0.204311/-0.66693/0.0905355/0.0568368/-0.298282/0.450583/0.94398/-0.529427/-0.721669/-0.535011/0.587675/0.625234/-0.220107/0.719042/0.190492/-0.93478/0.493851/-0.0436886/0.938614/-0.306588/0.453172/-0.681353/0.74867/-0.391295/0.338331/-0.721585/-0.451398/0.782914/-0.986036/0.154934/0.871585/0.653719/0.135885/-0.577315/-0.939242/0.16401/0.278399/-0.702264/-0.879721/-0.402551/0.130812/-0.276423/-0.592211/-0.945235/0.497637/-0.886776/-0.462276/0.539296/-0.258397/-0.412582/-0.309145/0.911746/0.222597/0.373417/-0.330729/-0.717636/0.00718135/0.108581/0.380025/0.376693/0.61537/-0.0823185/0.472263/-0.676502/-0.347711/-0.985652/-0.13401/0.59403/0.852312/0.112775/0.119633/0.13769/0.961778/0.442881/-0.783819/0.0192935/-0.124936/-0.0699883/0.0710136/0.148452/-0.72476/0.430418/0.0322815/-0.330604/0.153987/-0.95392/0.8073/0.513692/0.0159018/-0.181714/-0.0735809/-0.674926/0.384591/-0.940547/0.369546/-0.675206/-0.511663/0.880729/0.472266/0.625109/-0.436816/-0.352031/0.303346/0.650736/-0.173765/-0.138699/-0.157326/-0.902866/-0.251647/0.273623/0.0225062/-0.602925/0.452967/0.357167/0.0143744/-0.268871/0.00453299/-0.752554/-0.168821/0.626511/-0.942648/0.074581/-0.783427/0.44538/0.247183/0.0833009/0.00323304/0.393477/0.0027215/0.420885/0.941136/0.38854/0.871708/-0.251594/0.248169/-0.645778/-0.0337611/-0.394388/0.364202/0.375025/0.674112/-0.0401438/0.588819/-0.643429/-0.100364/-0.531978/-0.953052/0.0553839/0.740887/-0.33088/-0.0991226/0.327189/-0.645321/0.172898/-0.308803/0.617055/-0.178905/-0.911134/0.675357/-0.741632/0.83339/0.69914/0.628318/-0.964119/0.953131/-0.449412/0.460242/-0.822447/0.637342/0.545143/-0.98655/0.593857/0.210701/-0.965544/0.0943805/0.253806/-0.943522/-0.381801/0.142471/-0.372769/0.283662/0.606125/0.450187/0.453375/0.361666/-0.746934/0.492804/-0.384502/-1.00735/-0.801602/0.140809/0.773621/-0.576636/0.227276/-0.529593/0.738453/-0.839773/-0.260791/0.180628/0.60742/-0.22047/0.295746/0.595652/-0.873627/0.961689/0.180499/0.910751/-0.350696/0.711869/-0.516541/-0.0683584/-0.684533/0.740728/0.418626/-0.936729/-0.870579/0.572718/-0.622322/-0.908183/-0.517643/0.366794/-0.614118/0.294331/-0.326346/-0.466956/-0.376178/-0.956671/0.960968/-0.543311/0.324355/-0.557574/0.85727/-0.880535/0.563445/-0.435558/0.291467/-0.238878/-0.648412/0.470994/-0.478819/0.067349/-0.952917/-0.437802/-0.0251174/0.882944/0.947694/0.182167/0.77861/-0.303282/0.740707/-0.99255/-0.62928/-0.389656/-0.557121/0.017759/0.635903/-0.559214/0.0874269/-0.61621/-0.633978/0.28649/0.781316/-0.0184229/-0.44917/-0.726314/-0.303989/-0.638265/0.396283/-0.825245/-0.90032/-0.261889/-0.493989/-0.390778/0.151709/-0.222457/-0.289469/0.73965/-0.417425/0.834808/-0.368031/0.485296/0.321133/0.586358/0.867129/0.0320075/0.590029/0.618172/-0.385165/0.15232/-0.358876/-0.805435/-0.888552/0.374337/-0.608715/-0.125867/0.0419572/-0.340823/0.102777/0.984032/0.235454/-0.975764/0.97191/0.0615345/0.29056/0.255343/-0.618281/-0.431632/-0.662528/-0.118056/0.856931/-0.711898/-0.205041/0.744883/-0.608168/0.512203/0.602627/0.736561/0.64693/-0.345645/0.138766/0.203858/-0.82358/0.619428/-0.779632/-0.16405/0.490569/-0.347759/0.325768/0.0134818/0.0179882/0.797699/-0.649212/-0.0957786/-0.464259/-0.181854/-0.092091/0.907788/0.91825/-0.0347684/-0.651249/0.370086/0.0315829/0.813125/0.193241/-0.199174/0.486289/0.960902/-0.307743/-0.239397/0.926939/0.659273/-0.800827/-0.734496/-0.791167/0.571109/0.588659/0.560386/-0.239649/-0.297943/-0.720372/-0.513344/-0.806265/-0.951313/-0.758034/0.407711/0.426671/-0.822283/0.159174/0.862151/0.175295/0.17927/0.990668/0.152861/-0.870736/-0.454944/-0.248259/-0.486495/-0.523078/0.62087/0.965761/-0.450689/-0.731773/-0.910675/0.283344/0.157572/0.311303/0.0705481/-0.297802/0.839219/0.758681/-0.844925/-0.656827/0.703871/-0.0331461/0.913143/-0.807985/0.19535/-0.75386/-0.165358/
-0.759101/-0.206743/-0.731819/0.322356/-0.156819/0.347207/-0.484325/-0.0531838/0.139856/0.56092/-0.625842/-0.534104/-0.691244/0.267282/0.201224/-0.0288455/-0.805673/-0.937961/-0.313407/0.569931/0.834047/-0.173686/0.862589/-0.468169/-0.509085/-0.185839/0.600064/-0.71612/0.17351/0.185555/0.62369/0.360923/0.0328761/0.646535/0.317742/0.102686/-0.233088/0.509487/-0.611162/-0.74444/0.119289/0.144689/0.403622/0.215214/-0.471841/0.540375/-0.765162/-0.233409/-0.897789/-0.753889/-0.905701/-0.670393/0.58791/-0.308707/-0.439776/0.68373/-0.553623/-0.739929/0.0162745/-0.474949/-0.401566/-0.430772/-0.779256/0.0213065/-0.70654/0.96003/0.644484/0.813467/0.376862/-0.380336/-0.544631/0.334353/-0.66598/-0.597257/0.397008/-0.778817/-0.836629/-0.9271/-0.746056/-0.628206/-0.532463/0.694267/0.715391/-0.418413/-0.26275/-0.0426369/-0.597753/0.330981/0.38083/-0.910563/0.530512/-0.541866/-0.96785/0.77228/-0.522275/0.435259/-0.624989/-0.864586/0.764362/0.293094/-0.877785/0.152145/0.876114/0.866826/0.770196/-0.280857/-0.355213/0.0804768/-0.649838/0.930475/-0.674571/0.439875/0.971579/-0.678019/0.288568/0.322908/0.88023/-0.850512/0.561863/-0.609886/-0.10385/0.00340252/-0.727573/0.00498481/-0.307265/-0.221812/-0.25412/0.270125/0.462659/0.880925/0.548626/-0.997455/0.73191/0.0137148/-0.157553/-0.213528/0.309137/0.0740094/0.247777/-0.239189/-0.0536159/0.878264/0.540414/0.534374/-0.468108/0.559564/-0.818508/0.33349/0.143629/0.829077/-0.381138/-0.865087/-0.700801/-0.0379071/0.451562/-0.971984/0.510024/0.249528/-0.872847/0.221229/0.382108/-0.0100235/0.991606/0.53267/0.157437/0.54069/-0.951859/-0.38651/-0.0672979/0.923669/-0.170911/-0.687598/-0.569147/-0.261157/0.676816/0.195193/-0.619397/0.173525/0.651012/-0.876804/-0.0531722/0.551067/-0.207709/-0.126685/-0.34546/-0.406356/0.818675/-0.396068/0.0224545/0.231562/-0.701567/-0.501812/0.877401/0.963247/0.005672/0.802165/-0.0194559/-0.99531/-0.447897/1.00139/0.809639/-0.946546/-0.899874/-0.877979/0.811191/-0.680877/0.0832574/0.886595/-0.387468/-0.416797/-0.265934/-0.814517/0.922018/-0.107967/0.316347/-0.10863/0.163893/0.896749/0.0367831/0.0143766/-0.255388/0.373982/0.07634/-0.160702/-0.911251/0.607564/-0.798816/0.918746/0.16343/0.372011/0.285838/-0.780987/0.638046/-0.871452/0.273845/0.0447075/-0.670281/-0.252237/0.488741/0.3045/0.336366/-0.773126/0.471899/0.192944/0.861652/-0.567715/-0.871439/0.166663/-0.269491/0.936532/-0.648866/0.627925/-0.470708/0.807885/0.128466/-0.902576/-0.0347813/0.987258/0.401682/-0.763555/0.632093/-0.0178137/-0.997597/-0.611661/-0.864624/-0.166317/-1.0012/-0.791988/0.937897/-0.15764/0.183282/0.829228/-0.368277/-0.92944/0.614112/0.233203/-0.540865/-0.194049/-0.467125/-0.0606054/-0.595361/-0.240475/0.292017/0.973676/0.177965/-0.512142/-0.135675/0.385327/-0.570406/-0.459133/0.904278/-0.961411/-0.297773/-0.0422084/-0.735386/0.366202/-0.57068/-0.455406/-0.732713/0.133773/0.36663/0.440087/0.444397/0.576424/-0.478361/-0.20372/0.993901/-0.689511/-0.606697/-0.763289/-0.687386/0.669619/-0.872577/-0.438725/0.247685/0.177307/-0.293722/0.904492/-0.287731/-0.0201068/-0.711288/-0.461898/0.0373914/0.148762/0.721572/-0.393261/0.901976/-0.977842/0.718878/-0.547826/0.819777/-0.480907/0.902383/-0.520641/0.80328/-0.768505/-0.264888/0.02934/-0.966114/-0.172079/-0.33845/-0.426248/0.178271/0.658009/0.861902/0.866685/0.737281/-0.788754/0.831562/0.0304402/0.711518/-0.726542/-0.723905/0.274015/-0.717273/0.409352/0.252809/0.743156/0.739188/-0.470829/0.224412/-0.953148/0.0552818/0.917697/-0.265671/0.866517/0.100933/0.928299/-0.399162/0.472939/0.165734/-0.0841434/-0.627805/-0.666764/0.532231/0.108521/0.0969956/-0.327787/-0.941548/-0.0310326/0.528888/0.941328/-0.0353381/0.661913/0.565731/-0.722369/-0.934803/-0.260706/0.719862/-0.276534/0.459772/0.294738/-0.335117/-0.307723/-0.519237/-0.725581/0.632272/-0.298571/-0.788836/0.817769/-0.615946/0.0357723/-0.541222/0.0301869/-0.590823/-0.627857/-0.859824/0.00617027/0.959638/-0.00180629/0.0478402/-0.299112/-0.274936/-0.342602/-0.438977/0.23429/-0.0925587/0.987433/-0.00811765/0.741052/0.865749/0.647358/-0.107394/-0.919784/-0.456541/0.418756/-0.69564/0.916249/0.732085/0.223614/0.877058/0.636842/0.843631/0.90888/-0.921785/-0.236755/-0.661265/-0.463013/-0.439675/-0.431087/0.081734/-0.534658/-0.988782/-0.712209/-0.934308/-0.784517/0.229082/-0.606218/-0.697845/-0.683471/0.220231/0.0969735/-0.234197/0.193458/-0.0877845/0.38233/0.464098/-0.385044/-0.710722/0.800443/-0.779715/0.272203/0.944824/0.199668/-0.7423/0.248057/-0.751533/0.846821/0.779906/-0.938006/0.220147/0.375684/-0.920133/0.200904/-0.534363/0.613871/-0.665461/-0.401796/-0.863732/-0.681339/-0.0293479/0.6316/0.372888/-0.0115641/-0.712704/0.0637103/0.821344/-0.130856/-0.530586/-0.0434624/-0.49217/0.623412/-0.56226/-0.424777/0.302063/-0.588129/-0.552602/-0.362116/-0.81185/-0.258275/-0.981273/0.750689/0.723597/-0.603297/0.382459/-0.00932058/-0.487169/0.0369732/0.897275/-0.778905/-0.433015/0.135537/-0.598156/-0.764695/0.812726/0.703601/0.23357/-0.972216/0.664343/-0.548852/-0.959302/0.708826/0.78062/0.281388/0.281081/-0.988218/0.736241/-0.524395/-0.808975/-0.50227/0.72255/-0.101384/0.0372577/0.189271/-0.0297466/0.509065/-0.984066/-0.476954/-0.668397/0.736038/0.109998/0.659619/0.959425/0.0192442/0.390976/0.248085/0.385865/-0.946027/-0.455595/-0.63232/-0.154465/0.988064/-0.531748/-0.718586/-0.151747/-0.611422/-0.793537/-0.317739/-0.138492/0.360559/-0.0771332/-0.380072/0.264208/-0.21961/0.517777/-0.0550652/-0.161301/0.279712/0.130565/-0.858062/-0.129914/-0.0626105/0.214733/0.239205/-0.044293/0.947664/-0.5329/-0.690718/0.0343073/-0.135091/0.962132/0.991672/-0.140951/0.639223/0.340467/0.0711624/-0.60608/-0.393136/0.564579/0.875152/-0.613675/-0.943256/-0.712358/-0.401291/0.453582/-0.342034/-0.0288901/0.975248/0.533188/-0.105493/-0.938916/0.324478/0.317612/-0.659452/-0.769864/-0.492774/0.56421/0.0606553/-0.104908/0.0656212/-0.683734/0.308112/0.188435/-0.713103/0.669892/0.825145/0.204463/0.414548/-0.603415/-0.876203/-0.0274316/-0.245964/0.393432/0.680565/-0.187817/-0.498372/0.804325/-0.525917/-0.650061/0.533175/0.851663/0.637123/0.131035/0.111743/-0.0137976/-0.907511/0.0751057/0.574944/0.193661/0.834761/-0.682818/-0.925026/0.437088/0.0214086/-0.186046/-0.882904/-0.978/-0.863996/-0.88541/-0.783105/0.950358/-0.238594/-0.524249/-0.963135/-0.273273/-0.158859/0.644845/0.886348/-0.362656/0.100834/-0.316877/0.807919/0.304769/0.0697408/-0.252156/-0.540224/-0.690088/0.828929/-0.906433/-0.556575/0.215718/-0.547383/0.135501/-0.633554/-0.166499/-0.632817/0.266017/0.559564/0.390927/-0.926256/-0.511047/0.0800371/0.668078/-0.0711817/0.295293/0.934553/0.466165/0.826492/-0.319639/0.151409/0.937756/0.932068/0.188919/0.285028/-0.945874/-0.00640191/0.10731/0.497941/-0.4196/-0.225502/-0.00500479/-0.11557/-0.395612/0.855756/-0.985549/-0.364013/0.506112/0.966158/-0.142799/-0.811838/-0.986967/0.737247/-0.0921257/-0.04986/-0.118498/-0.308302/0.348133/-0.958071/0.105277/-0.373084/-0.183409/0.565548/-0.00886346/0.078564/-0.410401/0.110547/0.727063/-0.251939/-0.332046/-0.695619/0.73261/0.97597/-0.779725/-0.452069/-0.971032/0.160001/0.740816/0.239602/-0.813206/0.607829/0.819212/0.957715/0.51572/-0.583989/0.69876/-0.655574/0.990943/0.329066/-0.30691/0.544981/-0.537876/0.111336/0.0986996/-0.371928/-0.821318/0.111465/-0.602499/-0.202127/0.859479/-0.733743/-0.0105195/-0.800992/-0.274639/0.150563/0.510843/-0.253682/0.361113/-0.780158/-0.113831/0.849771/0.105602/0.848125/0.44186/0.33298/0.399182/-0.949927/0.569377/-0.482494/0.717157/-0.735373/0.580189/-0.759569/-0.0770809/0.500744/0.0114814/
-0.985183/0.0234555/0.216638/-0.966052/-0.438992/-0.132125/-0.626473/0.873734/0.85551/0.557855/-0.13542/-0.0113557/-0.854694/-0.839278/0.251972/0.89005/-0.923162/0.415652/-0.13887/0.018195/-0.19604/-0.841939/-0.463394/-0.265634/-0.505519/-0.255683/0.740486/-0.651992/-0.0353905/-0.808047/-0.851615/0.910068/-0.479093/-0.221835/-0.611147/0.222004/0.975883/-0.605439/0.149829/-0.0917868/-0.660103/-0.265911/-0.997302/0.524633/-0.310885/-0.804912/-0.0703837/0.384065/0.925566/-0.559857/0.2928/-0.646234/0.808007/0.622401/0.696703/-0.507704/-0.979465/0.135653/-0.0838026/-0.47045/0.025611/-0.106331/0.799537/-0.893386/-0.255898/0.828693/0.0558607/0.261999/-0.932441/0.951322/-0.870535/-0.293337/0.0828033/0.695738/-0.100513/0.922092/-0.0882828/0.7165/-0.96327/0.734957/0.693294/-0.98673/-0.79064/-0.293151/-0.983742/0.253723/0.314899/0.488262/0.279709/-0.485414/0.197648/-0.0292043/-0.915896/-0.713002/0.508538/-0.0150184/0.807224/-0.407916/0.747042/0.938294/-0.775662/0.145316/-0.721903/0.437941/-0.0981808/0.551411/0.745437/0.463952/0.413448/-0.177129/0.643669/0.626565/0.68567/0.0487777/-0.197399/0.174275/-0.116295/0.472929/0.479152/-0.457271/0.919085/0.484708/0.37582/-0.146072/-0.170118/0.692537/-0.923052/-0.767495/0.785942/0.373515/-0.173129/-0.422928/0.733178/-0.500684/0.405853/0.325402/-0.155436/-0.960545/0.226571/-0.0356012/-0.350137/-0.749924/0.0310354/-0.189557/-0.148122/-0.0346909/0.582175/-0.33341/0.709865/-0.897327/-0.991862/-0.194547/0.119122/0.22433/0.650086/-0.136502/-0.27096/-0.140177/0.601701/-0.797303/-0.0282745/-0.044695/-0.0480957/0.140103/-0.971808/-0.836774/-0.345747/-0.239098/-0.517268/0.272201/0.886987/-0.611315/-0.131395/-0.879594/0.223114/0.183525/0.73407/0.773652/0.600665/0.634655/-0.890686/0.596458/-0.821548/-0.708023/-0.181164/-0.561906/-0.837287/-0.372818/0.554179/0.221291/-0.533639/0.943342/0.109681/0.772064/0.125463/0.521465/0.270449/-0.557895/-0.551087/-0.165808/-0.000438538/-0.792261/0.488595/-0.119973/0.854708/0.567449/-0.757836/0.554114/0.66085/-0.901401/0.918862/0.633646/-0.64289/0.129861/-0.747729/-0.840422/0.0850851/-0.460612/-0.704989/0.159523/0.957035/0.280378/-0.84114/0.831635/-0.711101/0.524347/0.738613/0.0195466/-0.172052/0.912477/-0.72769/0.561662/0.601643/0.912195/-0.69448/0.11211/-0.471245/0.822608/0.538384/-0.175098/-0.808559/-0.081944/-0.138653/0.474644/0.301563/0.585711/0.331386/0.243362/-0.408771/0.100175/0.97022/0.368744/-0.526299/0.498662/-0.982087/0.194774/-0.259859/0.650329/-0.628907/-0.580312/0.332683/0.804595/0.231971/-0.38674/0.44082/-0.346415/0.547366/-0.0651944/-0.733514/-0.709426/-0.574234/0.645151/0.712043/-0.445049/0.576621/0.742574/0.367249/0.577387/0.490245/-0.531531/0.557038/0.138427/0.543518/0.840807/0.965618/0.957425/0.824236/0.629079/0.394544/0.729205/-0.161508/0.821441/-0.935481/0.261259/-0.00476664/0.667195/-0.456494/0.140712/0.0148781/0.563159/-0.995375/0.0526183/-0.422783/0.259617/0.618802/-0.873542/0.61625/-0.17635/0.0852225/0.33379/0.00324231/-0.283062/0.897812/0.0193754/-0.353685/0.252782/0.850079/0.900136/-0.0437044/-0.136051/0.0607276/-0.89935/-0.740148/0.433997/-0.446435/-0.72368/0.526293/0.579167/0.695509/-0.0941112/0.369396/-0.575966/-0.318468/-0.0869622/0.142473/0.607178/0.838182/-0.673163/0.145886/0.986256/-0.824561/-0.221156/0.300111/-0.316583/-0.123593/-0.582225/-0.181928/0.628396/0.285335/-0.12246/-0.893823/-0.424719/-0.537827/-0.265311/-0.386273/0.0297618/-0.620634/-0.316862/-0.50144/0.676883/0.594044/0.0710082/-0.0875784/-0.230084/0.971093/-0.832914/-0.667009/-0.778007/-0.634687/-0.463098/0.775578/0.115056/0.501511/0.800982/-0.429272/0.806773/-0.668471/-0.514842/0.500008/0.633385/0.631395/0.671474/-0.756231/-0.13083/0.86442/0.486197/0.535841/-0.560389/-0.32517/0.176799/0.161761/0.735729/-0.610438/0.364371/0.171429/-0.103825/0.98886/-0.639349/0.386101/0.139433/0.603922/-0.120171/-0.44995/-0.0647137/-0.10697/-0.140472/0.597075/-0.319136/-0.678521/0.840765/0.338135/-0.72296/0.563082/-0.70292/-0.341591/0.908606/0.0872778/-0.232002/-0.730482/0.845943/-0.240944/0.45999/-0.682536/0.108767/0.973814/0.733698/0.931066/-0.613895/-0.658126/0.733719/-0.224424/-0.545567/0.621797/0.842945/-0.821612/0.102259/-0.471197/-0.429594/0.81467/0.599927/-0.446392/-0.410301/-0.902658/-0.557387/-0.226283/0.86496/0.544498/-0.930002/-0.54346/0.0678259/-0.320908/0.199605/0.367092/-0.0731336/-0.0495476/0.116981/-0.577272/0.549217/0.220006/-0.10144/0.82636/0.140423/-0.466286/-0.404789/0.537609/-0.87577/0.592345/0.0746893/-0.65901/0.681244/0.587307/0.106185/0.592194/-0.46285/0.75343/0.7668/-0.39789/0.656874/-0.0948377/0.203953/0.778857/0.76623/0.736885/0.0148731/0.818909/-0.441936/0.559884/0.545562/0.53187/-0.640995/0.934934/-0.288181/-0.475192/0.40118/0.542729/0.995366/0.670541/0.208474/0.0857248/-0.729591/0.00643661/-0.226264/-0.201973/-0.566569/-0.322902/0.979055/0.972119/-0.718508/-0.112621/0.639291/0.133285/0.723491/0.89162/0.819857/-0.451387/-0.344766/0.998759/-0.982433/-0.801735/-0.644451/0.849363/-0.921396/0.729805/0.342834/0.450858/0.399071/-0.941638/0.984342/-0.107736/-0.392758/-0.809004/0.723935/-0.81828/-0.830658/0.776902/-0.0656035/-0.400376/0.958363/-0.813308/-0.00152001/-0.338575/0.349968/0.462856/-0.191067/-0.63838/0.893255/0.255668/-0.846917/0.944571/-0.688987/0.0559028/0.559442/-0.606073/0.0705411/0.872923/-0.52318/0.653218/-0.866422/-0.814283/0.00191249/0.143219/-0.910995/0.0382446/-0.10308/-0.111106/-0.641558/-0.82899/0.230468/0.194891/0.0506103/-0.239873/0.339491/-0.249333/0.0791619/-0.868281/0.416076/0.040652/0.768047/0.798113/0.810752/0.0142691/-0.313022/-0.779891/0.832867/-0.886688/0.0940441/-0.423088/0.988839/-0.585439/0.520248/0.97412/-0.400138/0.20808/0.708162/-0.515506/-0.570567/0.540749/0.881985/-0.822089/0.901927/0.835429/-0.686676/-0.101329/0.304618/-0.500105/-0.098221/0.684405/0.450576/0.0148028/-0.464471/-0.520803/-0.0532199/0.348588/0.664366/0.999874/0.898902/-0.160756/0.172769/-0.049013/0.178069/0.344254/-0.78048/0.267736/0.374431/-0.388841/0.501662/0.406049/0.721872/-0.364186/0.478297/-0.43068/-0.44727/0.314046/-0.299689/0.264913/-0.954754/-0.749686/-0.0253131/0.297576/-0.347471/-0.407206/-0.262486/-0.700295/0.148662/0.568253/0.628616/0.266201/-0.178338/0.490818/-0.482459/-0.0691896/0.322669/0.0184792/-0.8583/0.720855/-0.0458502/-0.378098/0.699578/0.0801117/-0.282573/-0.543473/-0.183723/0.984649/0.19171/0.249033/0.746388/-0.780075/-0.875703/0.409983/-0.713428/-0.189049/0.597287/0.602687/-0.643697/-0.340728/0.214137/0.768329/-0.803056/0.143018/-0.885166/0.0451776/0.782125/0.484419/0.418836/0.0289475/-0.829007/0.662563/0.511405/-0.0861327/0.895225/0.0162866/-0.24134/-0.745927/-0.164991/0.806296/-0.143882/0.909809/-0.906554/-0.463979/-0.0979797/-0.744141/-0.777996/-0.00636079/0.54041/-0.651007/0.57017/0.615991/0.0428306/-0.510586/0.283915/-0.593551/0.148282/-0.311955/-0.992064/0.499795/0.225455/0.0315378/0.817947/0.431928/0.720737/0.263049/-0.0512719/-0.743342/0.45779/-0.966686/-0.971065/-0.638234/-0.798236/0.052803/-0.540151/-0.322534/-0.828316/0.87684/-0.897163/-0.0244357/-0.629738/-0.0324948/-0.284858/0.173362/-0.316497/-0.00715939/-0.660569/-0.414294/0.960734/-0.934139/-0.0611225/0.716955/-0.551418/0.0700687/-0.358622/0.705088/0.523453/-0.300201/0.530396/0.376158/0.0821161/0.124816/-0.216955/-0.360982/0.980416/-0.141638/-0.503121/0.0405864/0.136397/0.43003/-0.491845/-0.44587/0.265686/-0.616769/-0.0444526/0.885188/-0.653013/0.815532/0.642876/0.811234/0.410199/0.212421/0.160743/-0.397853/-0.714695/0.125769/-0.201495/-0.534366/0.909069/0.731838/
-0.397912/0.295692/-0.301391/0.527934/0.991053/0.622967/0.207949/0.998546/0.567703/-0.614723/0.350014/0.687362/0.500385/-0.0362055/-0.506541/0.557798/0.914631/0.194995/-0.717491/-0.874991/0.0302292/0.0619323/0.895411/-0.825952/0.221983/0.863872/-0.911201/-0.562348/0.624825/-0.559265/0.428143/-0.205749/-0.0294706/0.957513/-0.26032/0.0148099/-0.464215/-0.188143/0.71411/-0.742706/-0.655988/0.660842/0.461374/0.0187563/0.980088/0.796998/0.418609/-0.339588/0.983162/-0.623286/-0.458007/0.781234/-0.474488/0.792098/0.790109/-0.63633/-0.792565/-0.63487/-0.265616/-0.202149/0.674789/-0.976177/0.45968/0.153218/0.926412/0.787743/0.424108/-0.232726/0.213896/-0.536218/0.878684/0.517356/-0.4491/0.541073/-0.790844/-0.226072/0.145849/-0.273788/-0.402972/-0.883579/-0.747289/-0.979878/-0.175657/-0.260766/-0.69202/-0.779683/-0.131552/0.606681/-0.428245/0.369834/-0.666153/0.748491/0.0514405/-0.602075/-0.795631/-0.371739/-0.610856/-0.62765/-0.903145/-0.0354018/0.412505/-0.733367/-0.653319/0.532287/0.545851/-0.183152/0.494141/-0.586814/-0.253059/0.301722/-0.283658/-0.999512/-0.794694/-0.415224/-0.779149/0.051874/-0.242923/-0.251687/-0.580143/0.988763/-0.419366/-0.140461/-0.517839/0.473367/0.025493/-0.972886/-0.850774/0.226432/0.0999336/-0.0817161/0.870168/-0.394975/0.810402/-0.126142/0.714649/-0.630532/-0.402111/0.613996/0.646792/-0.589385/0.213711/-0.15934/-0.255431/-0.85809/-0.561986/-0.353836/0.49457/-0.329532/0.664004/-0.627769/0.437633/0.642/-0.981381/0.415452/-0.81787/0.827293/0.804827/0.19004/0.21112/-0.118987/-0.959487/0.573975/-0.0777269/-0.418087/-0.00448032/0.278705/0.871031/0.146045/0.581663/0.00862379/-0.861135/-0.271922/-0.419367/-0.119664/0.787305/0.87854/0.352382/-0.943659/-0.295652/-0.986918/0.116641/0.872015/-0.657402/0.548382/0.550218/-0.34182/-0.29306/0.365881/-0.676804/-0.0508389/0.257651/-0.688813/-0.440278/0.316131/0.98355/-0.070035/0.921381/-0.348843/0.0329765/-0.00458846/0.626182/0.0991011/0.708658/0.325266/-0.28737/0.399077/-0.862147/-0.684126/-0.0811404/-0.0793632/0.0910273/0.203016/0.166877/-0.00457628/-0.37639/0.977402/-0.206187/0.195936/-0.392075/-0.848748/-0.166362/0.528608/0.417135/0.484482/0.689011/0.208787/0.244747/0.486018/0.143876/-0.484282/-0.202136/-0.702723/0.919101/0.173194/-0.147836/-0.466671/0.608787/0.656827/-0.570544/-0.175272/-0.459569/-0.823929/-0.0120909/-0.92879/0.990012/0.645728/0.0876879/-0.774728/0.494771/-0.743898/0.0250951/-0.258256/-0.511286/0.811037/0.623319/-0.233135/-0.236635/-0.639643/-0.593153/0.955795/0.877767/0.466199/0.975903/0.46218/-0.0206105/0.0580978/0.122595/0.132749/0.323911/-0.842895/-0.682697/-0.800991/0.775905/0.694403/0.997726/0.316483/0.0557117/-0.270774/0.56484/0.406449/-0.804988/0.572162/-0.580757/0.697218/-0.506254/0.886532/-0.668504/-0.967252/0.916248/0.113995/0.893962/-0.63574/0.416445/0.654878/-0.914288/-0.768019/0.465805/-0.712134/-0.118566/-0.922881/-0.812633/-0.0391753/0.921653/0.254665/0.607721/-0.819305/0.965008/0.95673/-0.240397/-0.357591/0.817363/0.58761/0.992663/-0.902693/0.121775/0.782806/-0.53624/-0.665398/-0.165568/-0.422358/1.00717/-0.0696746/-0.877433/0.295277/-0.539924/-0.392045/0.751494/-0.692365/0.608512/-0.481273/-0.688551/-0.172445/-0.0238765/-0.750369/0.894461/-0.570131/-0.197429/-0.190774/-0.250293/-0.424746/-0.209664/0.481096/-0.0176211/0.615338/0.209839/-0.442093/-0.633516/0.46266/0.62045/0.00136461/0.561324/-0.743098/-0.207561/-0.804007/-0.267308/-0.708082/-0.713824/-0.708586/0.894645/0.707884/0.253088/-0.182267/0.853263/0.559361/-0.82596/0.0955648/0.527514/0.064939/0.241614/0.439222/-0.745397/0.665251/0.136508/-0.659902/-0.327362/0.188849/-0.550925/-0.541868/-0.509513/-0.676505/0.602385/0.281768/0.333266/0.299838/0.524051/0.592498/-0.572177/0.450785/-0.890379/-0.613914/-0.522861/0.309156/-0.0100472/-0.864129/0.562946/-0.889295/-0.130719/0.595482/0.817381/0.0183636/0.818289/-0.437684/0.99867/-0.786482/-0.0592932/-0.740432/0.614866/-0.534729/-0.927938/0.191483/-0.410692/-0.0181806/0.503496/-0.70909/0.501181/0.317428/0.402369/0.0864549/-0.0185025/-0.532277/0.0241564/-0.00318474/-0.130275/0.115055/-0.372937/-0.837869/-0.822275/-0.242713/0.227384/-0.695717/0.651894/-0.894466/-0.585155/-0.334404/0.355997/0.784186/-0.265669/0.52403/-0.77412/-0.321212/-0.835513/-0.415146/0.408104/0.890106/-0.276468/-0.705965/-0.833008/0.230669/0.859139/-0.443644/-0.825416/-0.308157/-0.401549/-0.0389383/-0.853633/-0.871023/0.961466/0.86673/0.383136/0.937991/0.388888/0.47949/-0.537726/0.00859864/-0.146817/0.57078/0.164597/0.669509/0.23369/-0.4769/-0.30578/0.0135143/-0.220561/-0.55822/-0.580432/-0.362323/0.442617/-0.930172/-0.796761/-0.669594/0.471071/-0.0332181/-0.0946915/-0.816534/0.749126/-0.0506292/-0.947608/0.0545978/0.84131/0.615791/-0.217226/-0.606775/0.0799614/-0.452595/0.145189/0.279464/0.081039/0.897672/0.447399/-0.703764/0.108815/0.218251/-0.0849357/0.858067/-0.465298/-0.257973/0.425262/-0.891609/-0.502555/0.201522/0.427379/0.754258/0.621591/-0.252014/0.379855/0.705938/-0.797044/0.953178/0.966178/-0.195113/0.295465/-0.308047/-0.889999/-0.0520358/0.924314/-0.0921849/-0.719219/0.276826/-0.132303/-0.938538/-0.0769591/0.326511/-0.32917/-0.353354/-0.240862/0.286708/0.707633/0.31251/0.14012/0.357233/-0.224537/-0.237513/0.0981647/0.797227/-0.885318/0.887656/-0.266473/0.655213/0.743478/-0.195751/-0.363341/0.6579/-0.892485/0.634952/-0.8926/0.73538/-0.20914/-0.567463/0.575508/0.73445/-0.105358/-0.750899/-0.202496/-0.770534/-0.380639/-0.357845/-0.431648/-0.155047/0.686552/0.143242/-0.932314/0.373505/-0.834386/0.443277/-0.410202/-0.146467/0.973522/-0.0418842/-0.791543/0.799886/0.186523/-0.101746/0.621407/-0.732776/0.725197/-0.419469/0.0881472/-0.582118/0.341448/0.723239/0.823666/-0.993806/0.650915/0.680312/-0.829367/0.614561/-0.0392194/0.997439/-0.640379/0.286333/0.735493/0.0161057/-0.835033/-0.119959/0.692948/-0.331799/0.473624/-0.530794/0.720481/-0.987731/-0.880581/-0.429267/0.473262/0.374938/0.619702/-0.626756/0.113549/0.416555/-0.729178/-0.150432/0.170764/0.911993/-0.511305/0.4312/0.506775/0.423442/-0.757161/0.351712/0.946663/0.216231/0.509942/-0.83424/0.567397/-0.731121/-0.856331/-0.307714/0.365745/0.324779/-0.531384/-0.655503/-0.100615/0.791986/0.524433/0.181914/-0.570832/0.0277316/0.417142/-0.992246/-0.303337/0.277087/-0.942626/-0.937771/0.559288/0.676601/0.4689/0.179369/-0.59472/0.261847/0.0419897/-0.807802/0.118021/-0.49154/-0.771766/0.592518/0.753743/-0.8635/-0.379329/-0.00900396/-0.588364/-0.913048/0.310169/-0.876685/-0.442932/-0.354372/0.6383/-0.623958/0.537721/0.129549/-0.218922/-0.362479/0.295627/-0.3909/-0.779558/-0.0243778/-0.040639/-0.0471914/0.64224/0.561896/0.93352/0.993528/-0.0651854/0.114078/-0.879781/0.739375/-0.995502/-0.576713/0.137398/0.0484646/0.397284/-0.839815/-0.772912/-0.331911/-0.1336/-0.480612/-0.285514/-0.141118/0.866381/0.458988/-0.959389/-0.161611/0.675136/0.987303/-0.977092/0.933325/-0.678791/-0.229756/-0.710336/-0.161385/0.364763/-0.545086/0.448107/0.510344/-0.372857/-0.285158/0.953054/0.311029/-0.870296/0.929752/0.336348/-0.995053/0.147283/-0.327998/-0.590599/-0.750435/0.933522/0.0821781/0.720817/-0.321207/-0.0602709/0.718266/0.770214/-0.57963/-0.148694/0.894809/-0.910057/0.675793/0.0295578/0.484131/0.573134/0.530355/-0.512312/0.175332/-0.680278/0.737341/0.967762/-0.828497/-0.552381/0.131949/-0.328811/-0.331764/0.0411971/0.40043/0.0299702/-0.291157/0.525344/-0.551/-0.650594/-0.535715/0.237689/0.845757/0.638386/-0.654563/0.761877/0.870734/0.42907/-0.615669/0.4553/0.225742/0.0506429/-0.844831/0.921188/0.405019/-0.843243/-0.378058/0.00306299/
0.498171/0.758018/0.00240475/0.416615/0.0524796/0.0250614/-0.793376/-0.276013/-0.947291/0.878226/0.337398/0.647869/0.730809/0.704988/0.732562/0.170814/0.875729/0.38377/0.0207135/0.132127/0.657606/0.383587/0.942462/-0.0476299/-0.516509/-0.969001/-0.00182286/-0.636878/-0.0108694/-0.68171/0.494426/-0.177324/-0.280985/-0.490342/0.866425/-0.0106671/0.295667/0.889113/-0.266809/0.154105/0.0187233/0.633808/0.984376/0.0843219/0.903669/-0.787011/0.315641/-0.488516/-0.543483/-0.885883/0.280314/0.629148/-0.111757/0.905622/0.793835/-0.0183475/-0.366486/0.476269/0.65759/0.122125/0.791008/0.200833/-0.182557/-0.589428/-0.550515/-0.206819/-0.163405/0.742611/0.143426/0.550878/0.0931124/0.284296/-0.0414841/0.0567088/-0.867941/0.471149/0.565194/-0.23174/-0.91662/0.0940542/0.653915/0.730465/0.741962/0.161464/-0.267309/-0.66766/0.639741/0.239297/0.305806/0.449902/-0.100373/-0.596924/-0.804164/0.431874/0.641558/0.551891/0.00738081/-0.470532/0.292677/-0.367782/0.755472/0.22792/0.845357/-0.844759/-0.316525/0.345354/-0.392435/0.392349/-0.672468/0.751948/0.842405/0.957196/-0.406922/0.866795/0.227811/-0.829266/-0.0211756/-0.911573/-0.559509/-0.111368/0.647894/0.911534/0.117647/-0.434994/0.858904/-0.568459/-0.698875/-0.542591/0.255945/0.793976/0.548319/0.234127/-0.350338/-0.202842/0.718309/-0.861184/-0.828474/0.468624/-0.71163/0.150585/0.886838/-0.915264/-0.848034/-0.311627/-0.914559/0.0812517/0.215552/0.862466/-0.803289/0.849877/0.610288/0.858928/-0.182019/0.449407/-0.85834/-0.857227/-0.0413834/-0.905288/-0.0148665/-0.263245/0.863501/0.933939/-0.374605/0.235977/0.574083/0.271558/0.0450024/0.948314/0.314836/-0.545957/0.190927/-0.622204/0.742131/-0.579628/-0.00812328/-0.726203/0.114461/0.563439/-0.149746/-0.524103/0.277102/-0.49693/-0.774109/0.277641/0.0089316/-0.514294/0.746353/-0.160796/0.875704/0.0298209/-0.87937/0.327148/0.0624026/0.593118/-0.413975/0.727762/-0.509896/0.179182/-0.429614/-0.221181/-0.763499/-0.389171/-0.582687/-0.0242224/0.792438/-0.667439/-0.667561/0.942541/0.891163/-0.00844638/0.424786/-0.732443/0.934332/0.439797/0.753767/-0.391029/0.0511818/-0.858316/0.789891/0.0683995/-0.481834/0.824191/0.208733/-0.43164/-0.565463/0.267791/0.526322/0.29749/0.204864/-0.164687/0.0802107/-0.566713/-0.815024/0.787844/0.990334/0.561171/0.117705/-0.225483/-0.725493/-0.553836/-0.094767/0.393787/-0.719937/0.438099/0.726783/0.445777/-0.587655/0.264202/0.517947/0.258384/0.955593/-0.327168/-0.71221/-0.105996/0.295825/-0.226903/-0.472375/-0.199049/-0.329935/0.721847/0.296869/0.994564/0.260459/0.763446/-0.366853/-0.936308/-0.971933/0.553986/-0.927086/-0.340096/0.642669/0.862941/-0.968822/-0.0921846/-0.662983/0.885152/0.727729/-0.336602/0.092311/-0.375109/-0.459293/0.669677/0.855688/-0.131305/-0.213698/-0.216654/-0.0233194/-0.0768783/-0.118963/-0.00340104/-0.679021/0.753342/0.345814/-0.521206/0.908527/-0.231058/-0.155738/-0.606636/-0.397371/-0.52121/0.784954/0.371582/0.661994/0.569805/-0.992928/0.0486203/-0.24683/-0.44417/0.826737/0.968926/-0.340163/-0.680692/-0.00348809/0.439928/0.235037/0.24937/-0.768184/0.643504/0.0955963/0.468045/-0.957206/-0.615798/-0.71951/-0.53871/0.53557/0.0132691/0.165621/0.0967852/0.29987/0.898681/0.640313/0.00680696/-0.500491/-0.846773/-0.645819/-0.604523/-0.221053/0.766503/-0.924376/0.701846/0.63947/0.494543/-0.989194/-0.842182/-0.0233567/-0.855479/0.440534/-0.370593/0.797681/-0.689756/0.852016/-0.544818/-0.702081/0.665918/-0.0393919/-0.968412/0.732568/-0.365496/0.938362/0.670276/0.531424/-0.560142/0.158242/0.532523/0.114396/0.659379/-0.804357/0.233838/-0.455592/-0.443341/-0.196621/-0.824478/0.987793/0.564063/-0.278281/0.200536/-0.262986/-0.0652882/-0.0353886/0.582405/-0.606585/0.26619/-0.542919/0.245371/-0.24898/-0.936832/0.0650336/0.186564/-0.0777536/0.524969/-0.500796/-0.499082/-0.0632341/-0.774875/0.832547/-0.42142/0.486298/-0.933235/-0.0107713/-0.19419/-0.218873/-0.0213838/0.234067/0.698796/0.7897/0.192016/0.486392/-0.440538/0.580911/-0.545219/-0.22815/0.941215/-0.287626/-0.929647/-0.342024/0.608446/0.368588/0.18485/0.464139/0.703874/0.00344998/-0.0166295/0.394788/0.833907/0.454199/-0.29431/-0.798349/0.149831/-0.350971/0.944214/-0.886176/-0.848426/-0.877521/-0.374835/0.14648/-0.552274/-0.317479/-0.517336/0.178192/0.833628/0.363655/-0.694013/-0.770586/-0.232603/0.352671/0.483467/0.861662/-0.448618/0.0755815/0.298589/0.143609/-0.157407/-0.180245/-0.781245/0.08329/-1.00268/0.827688/-0.672341/0.128341/0.977365/-0.513541/0.526204/0.942413/-0.795393/-0.102078/-0.850639/-0.339879/-0.952556/-0.408278/0.860747/-0.362647/0.399022/-0.941289/-0.7731/-0.974672/-0.16588/0.049787/0.769969/0.0390463/0.880985/-0.290864/-0.17464/-0.38377/-0.96212/-0.469751/-0.665111/0.0789752/-0.168506/0.976032/0.882999/0.60297/-0.7865/0.287524/-0.166545/-0.516353/-0.629597/-0.53218/0.50646/0.146922/0.859946/-0.734263/-0.571782/-0.637929/0.291972/-0.822091/-0.883789/0.0500227/0.71208/0.169256/0.530673/0.137108/0.29406/0.721109/0.373585/0.412433/0.892074/-0.573697/0.359633/0.348314/-0.850453/-0.0929044/0.41252/0.378398/0.990632/-0.459966/-0.678325/-0.861126/0.686671/-0.042717/-0.240949/0.0378894/0.735817/0.877918/-0.831441/-0.857405/0.297624/0.383341/-0.755855/0.933794/-0.820682/-0.265235/0.277555/0.894498/0.382378/0.239497/0.496667/-0.512311/-0.191216/-0.870828/0.808255/-0.746115/0.792525/0.687911/0.214008/0.504145/-0.13516/-0.667288/0.866849/0.416527/-0.077159/-0.811253/-0.722639/0.843605/0.819647/0.163678/-0.868163/-0.921834/0.338563/-0.521465/0.822618/-0.660088/0.646664/0.504682/0.385049/0.936239/-0.727457/0.109819/0.383401/0.0480676/-0.881938/-0.662458/0.797354/0.924021/0.639431/-0.18893/0.447559/0.684003/0.0773154/-0.559698/-0.841283/-0.403605/-0.174332/0.036212/0.0415716/0.22037/-0.74682/-0.869132/-0.910496/-0.535349/0.76483/-0.946757/-0.861107/-0.00934726/0.664347/-0.271055/-0.393785/-0.293683/0.656255/-0.63856/-0.766055/-0.734601/-0.556969/0.265103/0.521745/0.345913/-0.311662/-0.10435/0.187639/-0.808978/-0.755209/-0.326757/0.321547/-0.121524/-0.147016/0.0917223/-0.15084/-0.173048/0.561545/0.75518/-0.884722/-0.46786/0.128495/-0.304764/-0.813535/0.297345/-0.0798837/-0.114278/0.931338/-0.819463/-0.829968/-0.596761/0.735443/0.664465/-0.25656/-0.00331366/0.307161/-0.192243/-0.368806/-0.808455/0.0205463/-0.0398822/0.334389/0.701129/-0.200728/0.00109579/0.644705/0.119636/0.834535/1.00772/-0.324626/0.191449/0.217704/-0.473049/-0.358915/-0.0467047/-0.640523/0.208717/-0.511316/0.644182/0.253262/-0.35453/-0.461753/-0.683693/-0.823717/0.196222/0.206008/0.690602/0.93502/-0.665726/-0.0908318/-0.956105/0.143475/0.0874038/-0.796044/0.89955/-0.874348/0.610087/0.530188/0.0533239/-0.456219/-0.554562/0.551223/-0.0544931/0.0532618/-0.473483/-0.000571522/0.817077/0.185581/-0.94827/0.425632/-0.400837/-0.860501/0.421898/-0.584491/0.728695/0.977253/-0.532012/-0.517601/0.617565/0.0663202/-0.435966/-0.960676/-0.537913/0.911643/-0.257309/0.797289/0.870402/0.980931/0.237412/0.30363/0.89821/-0.877006/0.12002/-0.527385/-0.809847/-0.604057/-0.146901/-0.958954/0.865336/-0.295752/-0.700311/-0.0494262/-0.916176/0.746654/0.913353/0.41551/0.192186/0.71966/0.503033/-0.0310605/-0.93107/-0.0651443/-0.748097/0.557777/0.530629/-0.522804/0.307801/-0.415826/0.600652/0.800076/-0.925269/0.786493/0.657494/0.569167/0.0108852/0.948104/0.788807/-0.528719/-0.185826/0.821566/0.0663602/-0.684661/0.901589/-0.997957/-0.656186/-0.51039/-0.124248/-0.235391/-0.218978/-0.35729/-0.968325/-0.629874/-0.284572/-0.80956/-0.280522/-0.726597/0.0891865/0.957715/0.309212/0.922997/0.807897/0.319299/0.460124/-0.690161/0.475141/
-0.621711/0.905764/-0.825978/-0.220066/-0.653478/0.98899/-0.0390988/0.865722/0.187973/-0.74587/0.157312/-0.049049/-0.366587/0.775411/0.33932/0.951098/-0.890159/-0.906127/0.730974/-0.515508/-0.14813/0.378571/0.635481/0.537068/0.499901/-0.160603/0.746343/-0.215066/-0.614317/-0.818818/0.130365/-0.950191/0.14491/0.0489299/0.893995/-0.662559/0.474454/0.357337/0.472208/-0.0164546/-0.551871/0.688114/-0.904996/-0.324511/0.380549/-0.882911/0.722424/-0.858571/0.0191365/0.885986/0.488754/0.343595/-0.852412/0.0484637/0.529075/0.171026/0.438841/-0.407422/0.455749/-0.222327/-0.402532/-0.0678171/0.944916/0.691467/0.757251/0.664358/0.988004/0.0550284/-0.417322/0.963476/-0.0267432/0.429141/-0.102563/0.260725/0.508046/-0.746814/-0.867831/-0.0988742/-0.868974/-0.020483/0.419407/-0.50164/-0.159709/-0.229611/0.930699/0.254542/0.0799319/-0.588007/0.429635/0.28311/0.279816/-0.175468/-0.753428/-0.0959836/0.382923/-0.281324/-0.971708/0.146375/0.258693/0.432686/-0.349153/-0.101399/0.149987/0.0178095/0.110579/0.808761/-0.0883401/-0.314384/-0.287782/-0.610955/0.662756/0.0144416/0.719464/0.0275066/0.303388/-0.406588/-0.0179568/-0.0906115/-0.671357/0.22443/-0.791368/-0.506377/0.349692/0.125664/0.362397/-0.926919/-0.442552/0.634117/-0.66264/0.114621/-0.0103183/-0.354539/-0.865124/0.164018/-0.761207/-0.421583/0.394073/0.62247/0.375771/0.664938/-0.386003/0.447176/-0.221762/-0.515448/0.881874/0.626227/0.250127/-0.455815/0.0485403/0.873983/-0.87915/0.980075/-0.396562/-0.586373/0.300972/-0.123322/0.359727/-0.172674/0.615638/-0.857572/0.744846/0.198957/-0.626306/-0.0497665/-0.161691/0.461933/0.377534/0.634237/-0.372533/0.832874/-0.318838/-0.385133/-0.979429/-0.80588/0.739664/0.772212/0.353068/0.21892/0.914669/-0.557507/0.852863/0.647323/-0.346572/-0.119154/-0.431179/0.309723/0.461937/-0.374338/0.244653/-0.657804/0.467269/0.569552/0.914432/-0.214941/-0.424879/0.351799/0.685789/0.0531851/0.633438/0.701562/0.187282/0.163115/-0.0717649/-0.32809/0.174136/0.291868/-0.777278/0.729591/0.354079/0.906434/0.982752/0.748941/0.999858/-0.273276/-0.671171/0.323233/-0.967734/-0.340312/0.898294/-0.751575/0.638419/0.383647/0.686488/0.172922/0.296108/0.685359/0.943867/0.977691/0.772659/0.177249/0.24726/0.23996/-0.505259/-0.167455/-0.279688/0.464431/-0.662805/0.867672/-0.233286/-0.816376/0.150945/-0.240757/-0.552074/0.847813/-0.536694/0.974772/0.911432/-0.541161/0.138873/-0.801678/-0.703984/-0.477897/-0.0232419/-0.626019/0.662222/-0.413845/0.395319/0.77864/0.540391/0.557624/-0.932643/-0.192547/0.013157/0.226058/-0.212474/-0.993169/0.306446/0.370177/0.615417/0.0780159/-0.200181/-0.072969/-0.875797/-0.815847/-0.0261068/0.750621/-0.500688/0.784046/0.198162/0.239762/-0.326915/-0.467449/-0.481386/0.935573/0.0157824/0.37244/-0.162532/-0.910797/-0.130607/-0.436571/0.625655/0.730114/0.525647/0.975549/-0.209902/0.783102/-0.086064/-0.329268/0.88386/0.243049/-0.19177/-0.772679/0.0936954/0.268546/0.0253019/0.885119/-0.0825286/0.722261/-0.963203/-0.552124/0.607785/-0.0737184/0.174854/-0.625435/0.934952/-0.221278/-0.984967/-0.469017/-0.676633/0.300751/0.0262843/-0.160033/-0.660306/-0.674556/0.346329/-0.645551/-0.266207/0.78476/0.53539/-0.599625/-0.900762/-0.608124/0.052087/-0.220478/0.172536/0.862938/-0.59991/-0.686307/-0.781116/-0.777674/-0.645106/-0.915788/0.519419/-0.542372/0.875816/0.371694/0.803449/-0.171844/0.905818/0.147636/0.371737/-0.222496/-0.904784/0.268917/-0.492691/-0.874359/-0.284709/-0.16012/0.768667/0.104017/0.780064/-0.538082/-0.926601/-0.54405/0.143363/-0.49712/-0.286627/0.225148/-0.487166/0.624737/-0.126293/0.00754023/-0.281422/0.716449/-0.656615/0.347385/-0.73909/-0.602436/0.071905/-0.624048/-0.646496/0.687873/-0.877764/0.173601/-0.0901393/-0.771294/-0.210355/0.54579/-0.0798528/-0.0369765/0.112067/-0.647764/-0.975573/-0.462002/0.387657/0.215931/-0.0968542/0.0389805/0.778417/0.223182/0.513474/-0.936056/-0.167521/0.593511/0.776582/0.526991/-0.0458102/-0.43666/0.0260472/-0.832319/0.900665/-0.975712/0.704171/0.3905/0.111439/0.868514/-0.752919/0.482921/-0.582935/-0.440591/0.989039/0.783352/0.494019/-0.397897/-0.0362906/-0.238861/0.255575/0.245574/-0.329674/0.581298/-0.34812/0.601594/0.0144012/-0.389528/-0.296829/0.644642/-0.254993/0.933812/-0.676762/0.915699/0.422208/0.66396/-0.494619/0.452926/0.704401/0.119023/-0.758896/0.160295/0.0829784/0.618498/-0.172314/0.609155/0.415001/0.317489/0.711005/-0.311881/-0.363509/-0.634873/-0.333322/0.744893/0.327021/-0.877476/-0.156406/0.173484/-0.0388903/0.333518/0.863746/-0.0515329/-0.854285/-0.0153037/0.428926/-0.083588/-0.947959/-0.4841/0.0401814/0.695038/-0.488164/-0.565749/0.258959/-0.0168874/-0.322883/-0.345477/0.244004/0.250165/-0.798461/0.561668/0.603089/-0.42854/0.843063/0.520863/-0.512318/0.430216/0.646186/-0.105439/-0.541437/0.733109/-0.897752/-0.924455/-0.305163/-0.854224/-0.512382/0.221884/0.550101/-0.476541/0.774205/0.0602188/0.915349/0.468201/-0.858315/-0.573817/0.892468/0.948099/0.927774/0.617553/-0.00935424/-0.774625/0.415578/0.187708/0.821271/-0.869029/-0.99963/0.136851/0.0109894/0.811845/0.853721/0.792078/-0.786035/-0.928401/0.721599/0.672908/0.912369/0.0928799/-0.968345/-0.982478/0.883524/-0.876285/-0.14037/-0.155625/0.225912/-0.776196/0.0227485/-0.817314/-0.586912/0.481266/0.597397/-0.32259/0.723059/0.506671/-0.328837/0.518112/0.907626/-0.59811/-0.785689/0.881809/0.262567/0.0782411/-0.354706/-0.430571/-0.405908/-0.120635/0.494808/0.24044/0.703914/-0.126662/-0.0255465/-0.877084/0.826067/-0.528196/0.795907/-0.797376/0.192984/0.338296/0.411776/-0.326845/0.0397221/-0.245727/0.469871/0.000279621/-0.0349807/-0.0524164/0.91707/-0.868988/-0.487143/-0.248582/0.717976/0.831497/-0.768868/-0.31331/0.206675/-0.40506/-0.92045/-0.714949/0.211909/0.862489/0.345042/0.931564/-0.104848/0.364521/0.740733/-0.790009/-0.191616/0.17052/-0.812581/-0.42322/0.910965/-0.303979/0.984078/0.23654/0.932471/0.271204/0.00735598/0.447843/0.7888/-0.803093/-0.658263/0.615371/0.544088/0.493772/0.462936/-0.904521/0.648966/0.933474/-0.0346535/-0.16335/-0.351135/-0.920117/0.883712/0.0170956/-0.743463/0.299979/0.978535/0.0269455/-0.603122/0.229587/-0.0142717/-0.787636/-0.807816/-0.0348729/0.201711/0.450727/0.570849/-0.856808/-0.798934/0.381839/-0.425191/-0.180796/-0.416409/-0.80749/-0.720215/-0.652348/-0.135948/0.709669/0.0181452/0.0673374/-0.715132/0.545261/0.153953/-0.337866/0.955627/0.935792/0.11948/-0.51156/-0.107777/-0.0465335/-0.551014/-0.46854/0.124447/-0.832342/-0.633729/-0.980017/0.584444/0.907903/-0.874252/0.445014/-0.175602/0.505917/0.704068/0.234261/-0.558906/-0.97956/0.959299/0.927132/0.0874962/0.0999346/-0.409234/-0.325975/-0.000554727/0.856595/0.831959/0.376262/-0.711651/-0.70677/-0.237328/0.993954/0.476421/0.327688/0.819379/0.593981/-0.62245/0.48505/0.231954/0.443026/-0.00703013/-0.730884/0.287372/-0.539792/0.799648/0.759991/0.75071/-0.886017/0.193032/0.519361/-0.777317/-0.483657/0.891022/0.200442/-0.553347/-0.190321/0.948047/-0.057325/0.990663/0.578522/0.145848/0.212169/0.858676/0.375547/-0.24073/0.0578816/0.816502/0.940914/-0.0587713/0.224614/-0.903074/0.359663/-0.402414/-0.559688/-0.686948/-0.042624/0.556405/-0.422266/0.38401/-0.95103/-0.943659/0.98737/-0.245051/-0.631775/-0.273749/0.896703/0.749755/-0.929818/0.593594/-0.0624319/0.0264126/0.433799/-0.149464/-0.0358536/-0.591325/-0.392696/-0.0492225/0.716604/-0.0428517/-0.208209/0.633432/0.0881296/-0.805279/-0.327043/-0.606838/0.874379/-0.316818/-0.753778/-0.750638/0.0250586/-0.840475/0.129578/-0.18012/0.721732/0.144163/0.951485/-0.383691/-0.702878/0.726792/-0.811033/0.960227/0.536043/-0.726078/
0.0771658/0.925486/0.647823/-0.0345318/-0.375315/0.0881046/0.774413/-0.432417/0.364939/-0.472306/-0.0485356/0.262079/0.765293/0.274304/0.225346/-0.617705/0.22431/-0.0151139/-0.0187844/0.290862/0.51266/0.277939/-0.679731/-0.234426/0.00611891/0.840519/0.604488/-0.364579/0.523858/0.48631/-0.58122/-0.558386/-0.79439/0.71046/0.738116/-0.374764/-0.342178/0.867954/-0.513492/-0.268952/-0.267315/0.734287/0.160466/-0.044609/-0.687182/-0.167211/-0.685673/-0.367922/0.52204/-0.905403/0.609276/0.483477/-0.470995/0.292855/0.0193661/-0.514271/0.650759/-0.687927/0.00342766/-0.391354/0.743911/0.635282/-0.304764/-0.0765076/0.755869/0.940343/0.241889/0.834997/-0.212419/0.810032/-0.678162/0.782103/0.799503/0.588526/0.89871/-0.0992908/-0.881509/0.636559/0.0777698/-0.122437/0.73893/-0.578833/-0.901711/0.940498/0.950136/0.938449/0.508366/0.121881/0.476271/0.891229/-0.424981/-0.251524/0.724106/0.705319/-0.0599147/-0.100864/-0.69265/0.607776/-0.14748/-0.0603449/-0.587651/0.291128/-0.489139/0.629296/-0.775032/-0.269133/0.504949/-0.29429/0.969573/0.18878/-0.437104/0.800175/0.541286/-0.610459/0.0276018/0.100016/0.197641/-0.729714/0.375747/0.557774/-0.208312/-0.957203/-0.256762/-0.300327/-0.175676/-0.614514/-0.604576/0.930129/-0.802273/0.296194/-0.739746/-0.928013/0.892951/0.336901/0.873075/-0.172748/-0.756417/-0.595561/-0.793826/-0.475778/-0.403307/-0.373892/0.00757061/-0.91462/-0.998453/-0.4114/-0.623999/0.519198/-0.235976/-0.590814/0.279337/-0.586789/-0.903972/0.075831/0.735189/0.0152917/0.00389132/0.605204/0.709749/-0.869913/-0.649123/0.603038/0.87822/0.312174/-0.829449/0.973944/-0.569587/-0.696859/-0.102062/0.651702/-0.77539/-0.472036/0.972858/0.281646/0.70202/0.321746/0.0594907/-0.586597/-0.685004/0.381273/-0.319576/0.571966/-0.173908/0.0934441/0.149023/0.883424/0.281837/-0.981855/-0.961544/0.233593/0.310393/-0.531557/0.143656/0.688689/0.558253/0.28131/-0.0203861/-0.629592/-0.0183091/0.647151/0.46014/0.298252/0.0895294/-0.537176/-0.381396/-0.235198/-0.656925/0.368513/0.905996/-0.0738825/-0.496812/0.71019/0.970422/-0.919803/0.19923/0.0482682/0.236465/-0.777416/-0.367282/-0.226108/-0.252197/-0.298814/0.39688/0.198504/0.25993/0.644249/-0.765447/0.532491/0.0107608/0.918339/-0.165827/-0.580841/0.731267/0.57799/-0.525233/-0.00260879/0.561747/-0.0600825/0.502152/-0.367031/-0.383549/-0.530436/-0.88696/-1.01065/-0.879188/0.356256/-0.526135/0.722936/-0.626834/0.0683796/-0.250036/0.845843/0.0835403/0.0610669/0.794032/-0.473349/0.956977/0.630812/-0.671365/-0.0621874/-0.530845/0.0431025/-0.677683/-0.339497/0.556393/-0.589176/-0.240341/0.677823/-0.183441/-0.529148/0.868465/0.591636/-0.367368/-0.846044/-0.567404/0.00430098/-0.71908/0.787927/0.148765/0.175035/-0.181771/0.978115/0.729611/0.259299/0.846322/0.431901/-0.885631/-0.251605/0.345444/-0.369854/0.967353/-0.0195641/-0.764938/-0.148995/0.0295368/0.62663/-0.494119/0.071324/0.419953/0.644888/-0.0616666/-0.903702/0.774704/0.412337/0.407422/-0.172897/-0.849373/-0.0937085/-0.95835/-0.987036/-0.824647/0.222443/-0.785815/-0.523885/-0.149041/-0.48409/0.543215/0.0476477/0.725632/-0.128857/-0.558622/0.680068/0.519806/0.21931/0.160029/0.85426/-0.983387/-0.377732/0.0185143/-0.0854181/0.531583/-0.749446/-0.0948088/0.798434/0.745015/0.79182/0.121649/0.546864/-0.389702/0.727197/-0.0507438/-0.228444/0.375428/-0.494914/-0.562986/0.0981146/0.387505/0.820709/0.249949/-0.660646/0.102149/-0.857916/-0.440656/0.499067/0.560973/0.855137/-0.857005/-0.902753/-0.783771/0.630095/-0.34249/-0.0097416/-0.172845/-0.256527/0.543984/0.744781/-0.708318/-0.958085/-0.385187/-0.155806/-0.211961/-0.653788/-0.0966176/0.863931/0.277439/-0.590994/-0.495763/0.429266/-0.460559/-0.427695/-0.357285/0.529318/-0.2368/-0.0901307/0.758505/-0.617022/-0.658359/0.904585/-0.907197/0.383878/0.750215/0.0912805/0.151332/-0.565273/0.934348/0.717835/0.033427/0.13099/-0.466249/-0.677414/-0.546987/-0.0864649/-0.68885/-0.683522/0.305551/0.828948/0.206693/0.666734/0.727655/0.453445/-0.347744/0.12047/0.560114/0.3053/0.505012/-0.217437/0.386707/0.423622/0.451716/0.274157/-0.240243/0.243543/-0.654178/0.679642/-0.882089/0.259039/-0.248334/-0.557118/0.487415/-0.151313/-0.961531/-0.0217672/0.593023/0.145543/0.147138/-0.171227/-0.805333/0.235461/-0.526866/0.99658/-0.377332/-0.505854/0.812623/-0.118408/0.458546/0.198837/-0.518544/0.720259/-0.61274/-0.324519/-0.518173/0.0120337/-0.829967/0.596601/0.21862/-0.510535/0.681779/-0.0540293/-0.928477/-0.545787/-0.138843/0.744467/0.575863/-0.921337/0.190467/0.934516/-0.936722/0.033439/0.232767/0.618449/-0.692602/0.238544/0.738443/-0.71427/0.388852/-0.946818/0.837314/0.743426/-0.471837/0.65509/0.608311/-0.9753/0.558886/-0.227918/0.29561/-0.563203/-0.363624/-0.711385/-0.780773/-0.70493/0.161601/0.316432/-0.240144/0.726207/0.972235/-0.268997/-0.987992/-0.507837/0.327676/0.553919/-0.302782/-0.697657/0.420686/0.415706/0.762963/-0.882425/0.207617/-0.582854/0.306215/0.398503/0.43734/-0.680638/0.0625091/0.00487267/0.902596/-0.470307/-0.742529/0.62237/-0.120853/-0.878456/-0.068212/-0.713821/-0.0378883/-0.379281/-0.948508/0.722074/-0.884993/-0.0708214/0.810451/0.525895/0.803419/0.277119/-0.464534/0.576284/-0.803553/-0.474177/0.755386/0.68951/-0.481897/-0.951466/-0.364836/0.66436/0.248158/0.0944787/0.179951/0.770694/0.162795/-0.920263/-0.713579/0.704182/-0.988075/-0.371596/0.423205/-0.0536532/0.259801/-0.0193121/-0.126006/-0.779288/0.186643/-0.679521/-0.703168/-0.143754/-0.0368421/-0.451019/0.218492/0.908749/-0.992214/-0.82954/-0.0299765/0.629042/0.834027/-0.61081/-0.830487/0.575497/0.745603/0.206297/0.331923/-0.845037/-0.123146/-0.61946/-0.36937/-0.835227/0.0968157/0.261398/0.131955/0.787751/-0.342797/0.847825/-0.606728/0.725961/-0.947295/-0.220385/0.281403/0.635668/-0.554646/-0.726478/0.116526/-0.856879/0.691389/0.492048/-0.139174/-0.56519/-0.698731/0.380635/0.00273762/-0.347784/0.396967/-0.815201/-0.471839/-0.363485/-0.959985/-0.526423/-0.272375/-0.909031/-0.999219/0.131286/0.520929/-0.744838/0.115314/-0.275096/0.418332/-0.325011/-0.138466/0.16322/-0.965115/0.74836/-0.714058/0.256216/0.983107/0.31589/-0.256499/0.870885/-0.798665/-0.267705/0.630151/-0.187427/0.105097/-0.677942/-0.457421/-0.190356/-0.196646/0.0848473/-0.763158/-0.463092/0.810315/0.957739/0.688181/-0.541509/0.19646/0.317896/0.909041/0.434989/0.179127/-0.710806/-0.284738/-0.740074/-0.588978/-0.596704/-1.00312/-0.208122/-0.752306/0.136121/-0.392402/0.859859/-0.60832/-0.138403/-0.223474/-0.872769/0.844402/-0.876746/-0.889945/0.51467/0.0566426/-0.00764869/-0.596498/-0.518867/0.630935/-0.926723/0.754917/0.786787/-0.0746771/-0.827905/-0.995461/0.494317/-0.889981/0.377272/0.67894/0.0442171/-0.343712/0.941476/0.269141/-0.380322/-0.801273/-0.578002/0.213406/0.389678/0.286761/0.241779/-0.795822/0.612085/-0.685332/-0.368052/0.111739/-0.584365/0.562347/-0.575618/-0.272182/-0.492051/0.962465/0.738046/0.855514/0.828557/-0.572747/0.518912/0.884398/-0.42061/0.92632/-0.616165/-0.144699/0.36815/0.299028/0.189874/-0.551492/0.83919/-0.0957652/0.122451/-0.134694/0.199768/-0.494592/-0.612902/0.954908/-0.896872/-0.977456/-0.0358596/-0.748956/0.952407/0.133451/-0.191512/-0.991235/0.739439/0.768163/-0.525818/-0.414089/0.859105/-0.909561/0.994706/0.0168261/-0.92854/-0.60774/0.941077/0.651485/-0.502424/-0.291186/-0.0167884/-0.173584/0.568737/0.769647/-0.548846/-0.45708/-0.14218/0.3865/-0.100155/0.693832/-0.759837/-0.587762/-0.514225/-0.584354/0.763183/0.822776/0.403353/-0.84834/-0.0453704/-0.539851/0.731109/-0.247614/0.345967/0.666415/0.43611/-0.303944/-0.382921/0.240105/-0.551462/-0.419768/0.954298/0.841128/
0.528998/0.863944/0.312843/-0.052282/-0.702783/0.321368/-0.775926/-0.989008/-0.251479/-0.60072/-0.302375/-0.0162277/-0.739303/0.532379/-0.305924/0.335381/0.743724/-0.228939/0.225026/0.0150644/-0.812345/0.922189/-0.775456/0.912651/0.930187/-0.355326/0.0438176/0.442008/0.834397/-0.282199/-0.910479/-0.427359/-0.614706/-0.861493/-0.617405/-0.75219/-0.118103/0.858201/-0.86618/0.753803/-0.827046/-0.246002/-0.696332/0.631548/0.300445/0.316162/0.383395/0.588656/-0.780143/0.73623/-0.951349/0.518575/-0.0669066/0.975041/-0.481434/0.545267/0.295279/0.746305/-0.856954/-0.817567/-0.545242/-0.519051/-0.387745/-0.0113013/-0.361443/-0.873157/0.1652/0.702875/-0.948227/0.0196399/-0.46951/-0.012044/-0.0113536/-0.788636/0.68959/-0.990045/0.907019/0.596952/0.62064/-0.324481/-0.615574/-0.191045/-0.880195/0.556997/-0.544017/0.711464/-0.432225/-0.409749/0.718415/0.0220879/0.434671/0.750632/-0.55085/0.491096/0.212526/1.00063/-0.252467/-0.620031/0.92379/0.752571/-0.737606/0.755078/-0.508617/0.503616/0.114809/0.376831/0.686442/0.425925/-0.929561/-0.519285/0.669103/-0.340452/0.021871/-0.414258/-0.439321/0.751244/0.642468/0.83812/-0.611799/-0.511571/0.0939422/0.482221/-0.606319/-0.736349/-0.191659/0.850095/-0.0985702/0.439113/0.167697/0.470211/-0.692929/0.00770899/0.149948/0.17711/0.620905/0.427461/0.457604/0.815826/-0.58049/-0.25668/-0.0159271/0.312838/-0.142321/0.0857163/-0.161604/0.915249/0.0596038/0.85143/0.210173/0.047586/-0.629503/0.568222/0.741207/0.344996/0.926801/-0.95691/0.764898/0.57476/-0.87834/0.637758/0.119023/0.277819/0.157969/0.298313/0.0572351/0.302145/0.138067/-0.95426/-0.246302/0.405779/-0.0839493/0.8895/0.808976/-0.942394/-0.00878079/-0.139296/0.985098/-0.855058/0.898334/-0.556423/0.876323/0.459777/0.705385/-0.942034/0.854721/-0.202026/-0.466958/-0.947303/0.4113/-0.62069/-0.732961/-0.544924/-0.77976/-0.307475/-0.811902/-0.233012/-0.238017/-0.355784/0.286489/0.817269/-0.0492006/0.880108/0.862777/-0.381863/-0.285017/0.0216526/0.389166/0.358058/0.301248/-0.255639/0.917543/-0.406489/-0.903031/-0.464677/-0.529623/0.350319/0.379692/-0.37077/0.637268/-0.787935/-0.651118/0.686236/-0.653323/-0.747298/0.169428/-0.422008/-0.723981/0.451586/0.493673/-0.705467/0.990507/-0.68067/-0.176486/0.291717/0.925137/-0.95215/-0.794846/0.747603/0.187128/0.536857/0.530843/0.794845/-0.646584/-0.807495/0.283427/-0.803432/0.0260818/0.749856/0.603978/0.417644/-0.651528/-0.493418/-0.884441/-0.797974/0.819425/-0.402448/0.568814/0.562603/-0.477941/0.601099/0.45995/0.959872/0.510246/0.940946/0.330479/-0.124246/-0.734812/0.407362/0.890969/-0.638374/0.978593/-0.827911/0.233214/-0.665271/0.975545/0.250891/0.402568/-0.973198/0.722392/0.764403/-0.682076/0.35527/-0.523947/0.812775/-0.993772/-0.278828/0.906256/-0.241275/0.551476/0.771544/0.0964398/0.859011/0.138009/0.499593/-0.80736/0.760117/-0.0883874/0.00653224/0.939625/0.0961962/1.00491/-0.390649/-0.870835/-0.812868/-0.367602/-0.0537281/0.617617/0.901766/-0.0204614/0.106095/-0.999343/0.564039/-0.141169/-0.512965/-0.511081/-0.948512/-0.378659/0.0316279/0.269534/0.583227/-0.922215/0.866164/0.142797/-0.411969/-0.310349/-0.451409/0.517556/0.203337/-0.644815/-0.969071/0.0108628/-0.110751/0.291623/0.671769/0.837323/0.534683/0.420219/0.620235/0.285403/0.920523/0.816784/-0.464898/-0.427193/-0.472635/-0.0993136/0.797076/-0.643046/0.020874/-0.789795/0.864053/-0.310652/0.112775/0.978484/-0.544412/0.150291/-0.629873/-0.375266/-0.11048/-0.272577/-0.634683/-0.0120619/-0.293036/0.350635/0.714316/-0.486744/-0.714279/-0.759994/-0.312731/0.305585/0.685779/-0.363708/0.868809/-0.823462/0.154205/-0.528491/-0.0883999/-0.0428813/0.548105/-0.952101/-0.516672/0.601568/0.710625/0.369762/-0.318853/0.709777/0.322353/-0.0291526/-0.705037/0.581192/0.278688/0.369387/0.620953/0.356679/0.708088/0.956756/-0.692568/0.739128/0.0229708/-0.809544/-0.720875/-0.372727/0.340733/-0.475924/0.884307/0.179444/0.943049/-0.706199/0.309948/-0.791404/0.336525/0.646508/-0.79063/-0.312173/0.418783/-0.620304/-0.641561/0.313589/-0.819645/-0.300168/-0.267366/0.377554/-0.44428/-0.586923/0.828624/0.982059/-0.237652/0.165633/0.428134/1.00155/-0.142884/0.850096/-0.693877/-0.905404/0.646645/-0.464028/-0.544665/0.682779/-0.300261/-0.00642881/-0.783414/0.746889/0.101569/-0.389555/-0.199535/-0.222992/-0.361679/-0.391771/0.0953537/0.609257/-0.219975/-0.328757/0.871707/0.878222/0.965603/0.856198/-0.596845/-0.451383/-0.927688/0.979968/1.01217/-0.322189/0.100439/-0.221302/-0.145128/0.130025/-0.83456/-0.657118/0.940982/0.295153/0.28688/-0.147803/-0.185558/0.943268/-0.246345/-0.739862/-0.325584/-0.0899223/0.675658/-0.0619699/0.484934/0.0288243/0.448865/-0.678575/0.468662/0.463074/-0.568707/0.289567/0.759298/0.995468/0.0449787/0.866912/0.142154/0.212872/-0.0836997/0.685919/0.347901/-0.834286/-0.404274/0.552854/0.708971/-0.12569/-0.0293208/-0.847777/-0.478088/0.776963/0.412384/0.936328/-0.607027/-0.42837/-0.246774/0.446004/0.0836833/0.0984707/0.500799/-0.027586/-0.103304/-0.707985/0.290908/0.638313/-0.485264/0.538938/0.6992/-0.912827/-0.376255/0.82556/-0.464861/0.0488537/-0.3568/-0.14676/-0.994008/0.536504/0.779864/-0.831965/-0.839599/0.666991/-0.212423/0.629987/0.603209/0.235363/-0.811072/0.865017/0.657396/0.983242/0.76044/-0.802384/-0.72875/-0.45941/0.760633/-0.152597/0.195755/0.298124/-0.491763/0.884062/-0.707889/0.232371/0.587997/0.422731/-0.226909/-0.850894/0.586385/-0.622213/0.470435/0.693403/0.319094/0.565832/0.20395/0.00840012/-0.192474/0.367649/0.158961/0.687964/0.361517/0.531904/-0.31446/0.243526/-0.42797/0.00431361/0.923024/-0.427981/-0.963713/0.758633/0.65651/-0.488255/0.799994/0.602965/0.395675/0.694444/-0.710044/0.296766/-0.253637/-0.701552/-0.0222266/-0.997349/0.121821/-0.728761/0.397812/1.00514/-0.54374/-0.785517/-0.019034/0.518231/0.204642/0.538333/0.515844/-0.562805/-0.810169/-0.695566/0.196666/-0.395683/-0.0947091/0.785637/0.140817/0.0298223/0.861728/-0.262658/-0.49779/-0.353825/-0.734934/-0.670898/0.0129048/0.882009/-0.399791/0.145875/-0.906445/0.510302/-0.0874452/0.978918/-0.612257/0.946288/-0.924369/0.634061/0.322861/0.427761/-0.705761/0.775976/-0.715371/-0.286006/0.182061/0.212193/-0.18654/-0.20303/-0.610286/0.035546/-0.564985/0.299432/0.549957/-0.85222/0.741719/-0.424043/0.598156/0.0556745/0.529828/-0.865484/0.871728/-0.10557/0.782669/-0.657721/0.205324/-0.628901/0.135329/0.0257888/-0.604799/-0.911834/0.238281/-0.90943/0.191177/-0.217427/0.370133/0.108251/-0.925059/0.802672/0.54447/0.913972/-0.880806/0.320093/0.0291115/0.953176/-0.790624/0.0588055/0.107285/-0.332457/-0.607754/-0.93571/-0.853543/-0.217969/-0.39485/0.335311/-0.564811/-0.434869/-0.928187/-0.647015/0.0246437/-0.929225/-0.165131/0.837333/-0.59975/0.919174/-0.261823/0.124604/0.22499/-0.596379/0.666419/0.500781/0.726806/-0.052693/0.533396/0.24357/-0.938788/-0.266544/-0.980516/0.239509/-0.827062/-0.416088/0.41251/0.400393/0.0271779/-0.967446/0.454184/0.129051/-0.981609/0.244805/0.367144/-0.636855/0.0202093/0.995224/-0.538286/-0.533093/0.310479/0.222883/0.00136885/-0.99366/-0.437821/0.118978/-0.280171/-0.158089/-0.108335/-0.975252/0.969768/0.959645/0.694119/-0.977294/0.731495/0.914679/0.934102/-0.551826/0.980455/0.0314368/-0.465686/0.96306/-0.026486/0.848047/0.257565/-0.383738/0.606793/-0.731829/0.146091/-0.650883/0.604141/-0.202596/0.963095/0.741062/-0.977927/-0.0169958/0.352243/0.155354/-0.966508/-0.0943078/0.969629/0.561254/0.999094/-0.221161/0.943503/-0.544503/0.539028/-0.558284/0.912715/-0.00411244/0.88221/-0.69067/-0.0868279/0.683581/0.952285/-0.939179/-0.776592/-0.146421/
0.400791/0.0934811/-0.863642/0.771135/0.473309/0.89766/0.969729/0.24228/0.000609627/0.245993/0.405339/0.530421/0.782659/0.154832/0.265251/0.0708972/-0.430671/-0.279446/-0.644271/-0.269727/0.695906/0.0854125/-0.472066/-0.0054802/-0.105793/-0.0588933/0.180555/0.583589/0.384197/-0.809221/-0.575568/0.428692/-0.967253/-0.61512/-0.340747/-0.967718/-0.489539/-0.0339601/0.78223/0.349406/0.472278/0.748643/0.785252/0.168359/0.104241/-0.994505/0.621115/-0.523243/-0.129925/0.168353/-0.519903/0.258272/0.586402/0.0118801/-0.331421/-0.197546/-0.161433/0.798219/-0.334944/0.602906/0.750783/0.491094/0.863937/-0.581594/0.0674128/-0.441516/-0.601085/0.607606/0.579328/-0.640404/-0.29042/0.338513/-0.875872/-0.651866/-0.000418478/0.540906/-0.852945/0.887109/-0.439906/0.205081/0.690981/-0.758814/-0.0162023/-0.312829/0.289531/0.139293/-0.901629/0.296175/-0.70424/-0.218474/0.71403/-0.589448/0.214473/-0.970026/0.958857/-0.0975695/-0.443535/-0.71728/0.87161/-0.888233/-0.78929/0.176492/-0.0631206/-0.974294/0.751929/-0.102566/0.598013/-0.78577/0.266952/0.485776/0.105926/-0.190097/-0.968138/0.506356/0.327069/-0.111265/0.752638/0.959928/0.733919/0.96506/-0.938081/0.668498/0.564887/-0.418482/0.112118/0.734936/0.416714/0.849315/-0.454078/0.180283/0.637052/-0.0408/0.410419/-0.551545/0.552769/0.445518/-0.649426/-0.768951/0.0123232/0.356227/-0.894502/0.0975835/0.252812/0.334525/-0.334105/0.471437/-0.247003/-0.993262/0.376898/-0.628495/-0.103223/0.95394/0.548506/-0.345038/-0.762809/0.201642/0.44858/0.557882/0.169983/0.597107/-0.80315/0.86783/0.732912/0.859515/-0.105345/0.868271/0.301954/0.266226/0.452505/-0.740167/-0.111521/-0.292784/0.819327/0.739288/0.584493/-0.36621/-0.314538/-0.356916/-0.349757/0.17482/-0.91945/0.307522/-0.652329/0.7904/-0.665007/0.333372/0.186389/-0.850206/-0.558682/0.0687879/0.636915/-0.683471/-0.350346/0.901741/-0.780092/0.182716/0.902075/-0.826506/0.846968/0.206651/-0.285574/-0.731143/-0.757015/0.384019/-0.974832/0.0706428/0.098841/-0.999817/0.301908/-0.681768/0.964213/-0.638883/-0.324676/-0.250111/0.0667212/-0.110917/0.820168/-0.138874/0.76292/0.0843293/-0.594439/0.329815/-0.337945/0.922857/0.465903/0.425645/0.102074/-0.987102/-0.926086/-0.839975/-0.90974/0.983967/0.413738/0.113766/0.297902/-0.272969/-0.533496/0.688168/-0.818038/0.555912/0.530868/-0.00190282/-0.0589738/0.197171/0.775447/0.494044/-0.635758/-0.808119/-0.881066/-0.424825/0.436355/-0.690473/-0.774474/-0.578347/-0.207378/-0.440844/0.307473/-0.0773611/-0.899278/0.0142768/-0.235187/0.855445/0.0659548/-0.510372/0.432354/0.199205/0.575857/-0.732855/0.965022/0.636988/-0.20601/-0.201006/0.857103/0.888726/0.154586/0.359831/0.56933/-0.205352/0.996219/0.207826/0.935735/0.889798/0.978785/-0.981807/0.165445/0.998044/0.327513/-0.231407/-0.944698/0.0495302/-0.201669/-0.318941/-0.0635104/-0.19923/-0.917352/0.762957/0.994353/-0.794169/-0.751567/-0.641672/-0.166934/0.575119/-0.303678/-0.573231/-0.10253/0.298337/-0.412723/-0.988979/0.232363/-0.671579/0.72974/0.652855/-0.000854867/-0.966863/0.0917074/-0.882577/0.219598/0.368584/-0.894719/-0.614788/-0.86214/0.252759/0.342091/0.0505842/0.740119/-0.422961/-0.416146/0.777304/0.661518/-0.610467/0.812718/-0.975888/-0.880921/0.931494/0.836326/-0.174106/-0.205875/-0.13689/0.988813/-0.634827/0.547563/0.113936/-0.633947/0.738137/-0.707217/-0.864769/0.305723/0.564735/-0.334112/-0.028453/-0.624658/0.503488/0.130439/0.577853/0.455922/0.922101/-0.221194/0.580806/-0.605873/-0.471554/-0.843115/0.773114/0.0914201/-0.203539/-0.884629/0.0324953/-0.770989/0.918164/0.524792/0.646513/-0.25674/-0.751691/0.177059/-0.161029/0.277824/0.302297/-0.4067/-0.0721819/-0.650369/0.123574/-0.856924/-0.155918/-0.824161/-0.463986/0.722604/-0.990281/-0.0850697/-0.806033/0.0560566/0.362398/-0.594108/0.431857/0.21468/0.120075/-0.91795/-0.571566/0.243029/0.697807/-0.500202/0.1752/-0.282362/0.351912/-0.689438/0.773121/-0.219099/0.264918/0.430284/0.958932/0.278723/-0.928776/0.717372/0.239088/-0.696876/0.439391/-0.0965466/0.219698/-0.585006/-0.12281/-0.302008/0.429557/-0.435673/-0.352574/0.827497/-0.152715/0.964301/-0.428532/0.692818/-0.298788/-0.638624/0.0456469/0.737756/0.445376/-0.303127/0.650199/-0.686089/0.202935/-0.193694/-0.258156/0.952742/-0.684532/0.000645582/0.503648/-0.295366/0.0525879/0.83544/-0.302331/-0.892325/0.0204613/-0.107496/-0.677672/-0.571278/-0.407155/0.626626/-0.887624/0.495405/0.195407/-0.292085/-0.504009/0.408079/-0.548742/-0.412123/-0.33103/0.816128/0.982977/-0.341891/0.108303/0.794059/0.621497/-0.177622/0.370046/0.101761/0.23954/-0.974031/0.316282/0.911571/-0.125632/0.499881/-0.500228/-0.779359/-0.00831001/-0.768834/-0.10285/-0.00783219/-0.96717/-0.66057/0.502995/-0.387427/-0.955751/0.689441/-0.52068/-0.161698/-0.572639/-0.721773/0.773242/0.942681/-0.869067/-0.976581/-0.27834/0.671916/0.0294242/-0.500042/0.166708/0.617972/0.515448/-0.858858/-0.819522/0.652641/0.793267/0.481947/-0.429995/0.217714/-0.59218/0.25954/-0.376963/0.198667/-0.273972/0.870904/-0.296408/0.41641/0.252279/-0.588876/-0.858842/0.965409/-0.304747/0.306591/-0.979277/-0.355472/0.789206/0.713059/-0.936011/0.522823/-0.278633/-0.992579/-0.274936/0.174816/0.691948/0.0850803/0.892818/0.765754/-0.754229/0.489194/0.102317/0.73839/-0.439424/0.900838/-0.739436/-0.765109/0.0216938/0.944721/-0.874245/-0.903539/0.222434/-0.0742658/-0.262066/0.218182/-0.260159/0.617341/0.571888/0.302363/0.929768/0.619162/0.254724/0.704451/-0.541434/-0.509499/-0.437097/0.94035/-0.462238/-0.224528/-0.25002/0.177305/0.348856/0.537858/0.725507/-0.257707/0.13963/-0.25953/0.854653/-0.862725/-0.103404/0.8495/-0.241929/0.755483/0.431931/0.406854/-0.165403/0.211032/-0.812876/0.000378132/0.355482/-0.973871/0.458114/0.0414613/-0.421477/-0.916041/0.778951/-0.448264/-0.895357/-0.519598/-0.65689/-0.763188/0.287808/0.698776/0.615072/0.0394627/-0.551213/-0.818388/-0.838193/-0.894823/0.394304/0.112257/0.473004/-0.861682/0.437816/-0.443961/0.526137/0.776712/0.205625/-0.0983716/0.558515/0.962362/-0.50931/0.753544/-0.215366/-0.972279/-0.601771/0.275029/-0.942201/-0.943238/-0.269891/0.260689/0.0961058/0.800267/0.583529/-0.6629/-0.761549/-0.609585/0.499912/0.468273/-0.944936/-0.041685/-0.313969/0.42626/0.018941/0.341475/-0.829911/-0.470008/-0.0105027/0.237289/-0.833373/0.241942/0.115359/0.277025/-0.0486498/-0.633673/0.121324/-0.89396/0.849529/0.685159/-0.314624/0.102394/-0.433408/-0.0790213/0.369698/0.34503/0.782884/0.850332/0.710689/-0.491517/0.965631/-0.177891/-0.902932/0.423593/-0.676789/0.0341914/0.606932/-0.51504/0.783315/0.962848/0.936962/-0.566435/-0.0387463/0.180962/0.73461/-0.0548182/0.185356/0.409103/-0.487949/-0.863931/0.560139/0.347466/-0.0718037/0.98632/-0.301556/-0.428334/-0.0710278/0.739369/-0.0921514/-0.693489/0.463993/0.326197/0.38605/0.23005/0.247357/0.956958/-0.497841/-0.749807/-0.921443/0.240246/0.156467/0.636397/0.775072/0.802389/0.435383/-0.0668369/-0.442445/0.490664/0.447892/-0.416346/0.690428/-0.826786/0.030175/0.609658/0.270766/-0.231547/0.209755/0.667276/0.915175/-0.660519/0.664931/-0.504425/0.017799/-0.0411833/-0.812132/-0.955509/-0.665567/0.370353/0.962291/0.934973/-0.897729/-0.0295115/-0.826437/-0.562125/0.270439/-0.679086/0.454499/0.529519/-0.656989/0.774138/-0.31348/-0.653679/-0.0468627/0.97901/0.583659/-0.3636/0.973806/0.764773/-0.4675/0.725199/0.416773/0.703756/0.0292483/-0.423219/0.959978/0.347589/-0.0698955/-0.734324/0.217085/0.539843/-0.860197/0.663337/0.699849/0.358309/0.101076/0.791124/0.429022/0.565255/0.236544/-0.404857/-0.437564/-0.13283/-0.471416/0.903665/-0.109051/-0.796106/
0.764842/0.704749/0.718182/0.493142/0.237816/0.971602/-0.278372/-0.603316/0.0626111/0.304363/-0.562984/-0.0747449/-0.237116/0.791274/0.943196/0.290469/-0.0873328/0.198122/-0.159148/-0.807977/0.329275/0.12077/-0.214455/-0.338043/0.506223/0.0977777/-0.650171/0.576216/0.467304/-0.0194898/0.434366/0.392815/0.0399397/0.97213/0.301395/-0.461529/0.975551/-0.0674182/0.979775/0.998696/-0.917919/-0.258661/-0.861666/0.463435/-0.565228/-0.330247/-0.763915/-0.647834/0.394055/-0.62927/0.691604/0.906222/-0.718823/0.836449/0.194132/0.776959/0.357709/0.0139665/0.734423/-0.55774/-0.160889/0.789501/-0.579584/-0.455372/0.930825/0.204102/0.74824/0.636675/-0.845054/-0.890417/0.0277674/0.0522029/0.0534309/-0.68638/-0.922262/-0.142833/0.973235/0.249556/-0.954142/-0.180903/-0.317226/-0.587966/0.313137/0.890164/0.988883/0.149598/0.286195/-0.084884/-0.898024/0.638392/0.914579/-0.182099/-0.958101/0.70028/-0.630365/0.926804/-0.549566/-0.560787/0.260248/0.922051/0.704128/0.522929/0.900089/0.310732/0.137257/-0.538676/-0.148104/0.980956/0.675263/0.649258/0.761227/0.158485/-0.339997/-0.333159/0.590945/-0.538513/0.286779/-0.601646/0.988589/-0.39691/-0.527743/-0.240662/-0.93728/0.656596/0.601431/-0.956645/-0.348193/0.407489/-0.760504/-0.360322/0.207832/0.131151/0.966877/-0.376808/0.858548/-0.052805/-0.742111/0.889792/0.438172/0.748032/0.171911/-0.69217/0.709952/-0.733049/-0.106501/-0.30861/-0.707692/-0.966718/-0.74414/-0.526358/0.44797/0.485217/-0.586426/-0.238102/-0.916603/-0.495527/-0.416695/0.422697/-0.279169/-0.201755/0.0106384/-0.799339/0.529378/-0.89006/-0.812433/-0.648693/-0.648232/0.0737158/0.942264/0.636738/0.810629/0.38521/-0.550524/-0.15171/0.117731/-0.667935/0.247635/0.700247/0.429799/0.70243/-0.666389/-0.151987/0.181175/0.404929/-0.460279/0.425574/0.756839/0.424175/-0.0647526/0.322499/0.506891/-0.857565/0.192186/-0.634704/-0.651049/-0.892125/0.0512085/0.66163/-0.499669/0.583824/-0.788224/0.395064/-0.233214/0.744054/-0.484353/-0.869479/-0.927707/-0.859249/-0.243219/-0.135845/-0.154593/-0.0647052/0.16522/-0.586433/-0.503919/0.820018/0.767336/-0.570044/0.622108/0.199749/0.840653/-0.293703/-0.966782/0.755041/-0.0234502/-0.126774/-0.456827/-0.194146/-0.734546/0.924408/-0.346698/-0.597235/-0.468178/-0.80561/0.0475815/1.00898/-0.175081/0.554851/0.134391/0.876471/0.66405/-0.378157/0.389455/-0.65633/0.462225/0.874298/-0.8366/0.309871/-0.61595/0.635515/-0.0982698/0.160196/0.41341/0.188228/-0.438175/0.599623/-0.700806/0.620026/0.860046/0.187295/0.0593595/-0.904943/0.732579/-0.251911/-0.182838/-0.00888514/-0.915461/-0.651055/0.346837/0.112049/0.342933/0.77165/0.540137/-0.490677/0.391884/-0.386601/-0.354816/-0.0983922/-0.462466/0.778487/0.0330368/-0.750562/-0.844981/-0.682729/-0.376214/0.236622/0.834491/-0.639044/0.964238/0.562308/0.581967/-0.656836/-0.973908/1.00274/-0.757202/0.0529972/0.79973/0.1107/-0.638814/-0.288289/0.982856/-0.824407/0.425655/0.531675/0.0123438/-0.557719/-0.0112104/-0.791577/-0.0330437/0.635179/-0.811277/0.520549/-0.886197/-0.424939/0.393318/0.938623/0.530723/0.567497/0.466772/-0.445522/-0.32459/-0.397776/0.978624/-0.368056/0.255891/-0.875168/-0.872294/0.449819/-0.633997/0.575089/0.419777/0.412332/-0.232709/0.976927/-0.0812137/0.677298/-0.655974/-0.961659/-0.944196/-0.115342/-0.493156/0.288186/-0.305422/0.818012/-0.645472/0.569955/-0.475796/0.623996/-0.937866/-0.422356/0.345556/0.0486403/0.771147/-0.414101/-0.949306/-0.526746/0.74414/0.0442324/0.258487/0.855721/-0.398056/0.798643/0.304293/-0.398683/-0.659203/0.776382/0.10664/0.931641/-0.595359/-0.308442/0.608252/-0.0509444/0.197828/0.411283/0.292949/0.808648/0.998931/0.698874/0.167427/0.557612/0.677483/0.569285/-0.198224/0.880637/0.537761/0.267435/-0.791449/-0.139132/0.967022/0.205977/-0.942748/0.41356/0.697332/0.051471/0.648696/0.704344/-0.335417/0.296625/0.499396/-0.640701/0.779315/-0.492456/0.963395/0.624926/0.159925/0.776855/0.952277/0.120408/-0.0748823/0.355057/0.297228/-0.107726/-0.158626/0.978563/-0.824686/-0.13052/-0.372754/0.795297/0.354281/-0.163326/0.979238/0.0551147/0.538909/-0.726396/-0.383257/-0.235994/0.253946/-0.477485/-0.0675063/0.741708/-0.0421809/-0.859443/0.677697/0.940655/0.0905404/-0.331848/0.361872/0.165621/-0.72448/0.548241/0.901415/0.178228/-0.30464/0.909521/0.9778/0.0215642/0.123411/-0.490619/0.162087/0.203158/-0.996331/-0.198814/-0.258322/0.411451/0.0565054/-0.806473/0.0641631/-0.59908/0.407671/0.263867/-0.974101/0.65074/0.323321/0.690774/0.443087/-0.653769/-0.654335/0.841984/0.984972/-0.856244/0.839923/0.264839/-0.105524/-0.442779/-0.201198/-0.640233/-0.404227/0.156612/0.521053/-0.301065/0.494011/0.392959/0.146967/0.891295/0.64355/-0.984988/-0.728922/-0.640701/-0.961939/-0.700796/0.0808217/0.623605/-0.906376/-0.510505/0.609947/-0.101304/0.0611706/0.503019/0.917268/0.500942/-0.717986/-0.962828/0.439519/0.971508/0.139762/0.978949/-0.884151/-0.0572498/0.52714/-0.104134/-0.902566/0.647188/-0.447154/0.162293/0.474654/-0.233456/-0.857853/-0.513366/0.672442/-0.877818/-0.923471/-0.290779/0.544939/-0.0373608/-0.902876/0.0737199/0.505504/0.156031/-0.816841/-0.451884/0.0961843/0.871453/0.511388/0.895496/0.929076/0.465819/-0.0163629/-0.526622/0.20719/-0.966528/0.230036/0.777571/0.964601/-0.571226/-0.253597/0.298309/0.284092/-0.902285/-0.236446/-0.357801/-0.711455/-0.155887/0.0583432/-0.698646/0.431061/0.869321/-0.2344/-0.728847/-0.798742/0.354051/0.526879/-0.744355/-0.211233/0.942498/0.266634/0.470601/0.221127/0.167218/-0.078473/-0.515055/0.929164/0.380685/0.967215/-0.294889/0.0661601/-0.549307/-0.707472/-0.942785/-0.852165/-0.375944/-0.555644/-0.0858459/-0.274781/0.406146/-0.147366/-0.935666/-0.0776134/0.0534779/0.802434/0.499987/-0.658247/0.423044/0.939447/0.705854/0.098071/-0.332196/-0.94657/0.0358672/0.821038/0.716069/-0.864898/0.189162/-0.259612/-0.0782351/-0.00564967/-0.460387/-0.679515/-0.941674/0.881171/-0.71191/-0.587068/0.839895/-0.411784/0.660864/0.775059/0.490659/0.498943/-0.258643/0.932978/0.708587/0.846236/-0.686422/-0.584397/-0.925667/0.667262/0.642748/0.949677/0.681055/-0.0199539/-0.588406/-0.813226/0.870265/0.188926/0.871311/0.720847/0.79817/0.722096/-0.947314/-0.698349/0.260549/-0.946697/-0.0988755/-0.260265/-0.0563728/0.541905/-0.196658/0.997171/-0.925815/0.814182/0.551032/0.788467/0.421905/-0.722005/0.936924/-0.267041/-0.116341/0.390352/0.889628/-0.717573/-0.670388/-0.518994/-0.280454/0.535783/0.250561/-0.415802/-0.319232/0.760633/-0.32169/-0.376884/0.144496/-0.20087/0.559653/0.091442/0.866292/0.418656/-0.557/0.285223/-0.885311/-0.0555686/-0.487025/0.227317/0.109812/0.635124/-0.269329/0.947079/-0.48036/0.0613229/0.299087/-0.184454/-0.850463/0.997123/0.0872523/-0.0278295/0.12073/0.508206/0.860303/-0.0768369/-0.937478/0.121581/-0.559804/-0.622145/-0.399373/0.0650342/-0.717576/0.230295/-0.888207/-0.106665/-0.473977/-0.769184/-0.646506/-0.323384/-0.12186/-0.567859/-0.615807/0.801341/-0.0318586/0.00921333/-0.398168/-0.738734/0.0866139/-0.555554/-0.194392/0.35925/0.917475/0.937646/-0.643377/0.479202/-0.0601693/0.734112/0.213496/0.231873/-0.592758/0.0190875/0.94823/-0.388013/-0.0201053/-0.694374/0.783697/0.437405/-0.330399/-0.936307/-0.913631/0.622949/-0.097248/-0.44904/0.982559/-0.135259/0.558934/0.155038/-0.051489/0.955309/-0.349022/-0.726232/-0.132353/-0.96585/0.957872/0.950987/-0.759691/-0.126807/0.75403/0.975578/0.545266/0.283977/0.805739/0.0489612/0.891661/0.139186/-0.69592/-0.32036/-0.292335/0.733708/-0.571168/0.386426/0.664672/-0.862968/0.0970031/0.331118/-0.905168/0.838941/0.0877632/-0.964569/0.485991/0.0494371/0.889756/0.146018/
0.118255/-0.487242/0.923801/0.322502/0.298016/0.752912/0.192245/-0.935504/0.977077/-0.262778/-0.517431/-0.469282/0.778004/-0.0895918/0.229854/-0.85075/-0.55328/-0.980629/0.569964/-0.608027/0.892155/0.454798/-0.217564/-0.598264/0.976636/0.316665/0.191816/-0.144311/0.572721/-0.28021/0.515255/-0.109524/-0.776847/-0.509228/-0.629936/0.664205/-0.702186/0.323816/0.30499/-0.140608/0.79772/-0.62956/-0.828054/-0.926753/0.238877/-0.771976/0.341547/0.864511/-0.278414/0.0459822/0.903586/0.336981/-0.658449/-0.634388/-0.154758/0.984605/0.250794/-0.910586/-0.211786/0.506554/-0.386105/0.235236/-0.74786/0.749457/0.591599/0.620598/-0.185286/-0.676734/0.513086/-0.668465/0.870218/-0.210608/0.955561/-0.320746/-0.813321/0.0163549/-0.803133/0.88201/0.881988/0.378348/-0.877366/0.136897/0.801897/-0.519869/0.567282/0.311804/0.49709/0.597241/0.511363/0.934612/0.180566/-0.366737/0.982714/0.102213/-0.157993/-0.0536425/-0.487938/-0.419216/0.620469/0.546558/-0.814498/0.0492143/-0.531453/0.373897/0.61193/-0.381982/-0.748667/0.705046/-0.532874/-0.678044/-0.48943/0.14658/-0.422348/-0.406934/0.654699/-0.708962/0.756398/-0.354731/0.0334006/-0.78932/0.885021/0.057214/0.619631/0.0701121/-0.10865/-0.369383/0.591868/0.309559/0.521029/0.304091/-0.709995/-0.0931226/0.906248/0.0984264/-0.893238/-0.181789/0.706515/0.49224/-0.340544/0.465504/-0.281884/0.375122/0.670351/-0.514844/0.174953/-0.00122412/-0.913999/-0.160701/-0.425581/-0.605432/-0.922513/0.367873/-0.244895/0.396775/-0.817613/0.0430952/-0.420302/0.489872/-0.379057/0.0455738/-0.827683/-0.461051/-0.03532/0.0178413/0.705837/-0.902297/0.11064/-0.480029/0.148845/-0.363296/-0.139497/-0.0887115/0.0254035/-0.658809/-0.47235/0.427425/0.735319/-0.319662/0.573918/0.0770545/0.4129/-0.782096/-0.820891/0.463018/0.0952184/0.969991/-0.00096913/0.459044/0.626737/-0.529827/-0.39683/-0.241711/-0.221134/-0.0138339/-0.909145/-0.0661224/0.681322/0.974819/0.947648/-0.312979/0.625472/-0.863698/0.321681/-0.650913/-0.0642544/0.850738/0.102008/0.566546/0.559987/-0.917116/-0.232921/-0.208989/0.214373/0.892343/0.413089/-0.750099/-0.426615/-0.986027/-0.963519/-0.184563/-0.716417/-0.294134/0.168891/0.400868/-0.618956/-0.792704/-0.0618902/-0.238816/-0.364826/-0.738768/-0.163603/0.111026/-0.624819/0.343245/0.759818/-0.911345/-0.748442/-0.0680996/-0.633569/-0.272553/0.532872/-0.170043/-0.261122/-0.686574/-0.791998/0.627499/0.075729/-0.415342/-0.0665307/0.395619/0.279562/0.516198/-0.259029/0.496294/0.771235/0.808027/-0.895554/0.333956/0.28237/-0.704413/-0.86477/0.412265/-0.14142/0.531907/0.600883/0.0305808/-0.630903/-0.805652/0.235636/0.611362/-0.506358/0.34834/-0.678415/0.139012/0.913027/-0.89589/-0.289358/0.242148/0.639776/0.937151/0.692003/0.486695/-0.116973/0.552339/0.400633/0.9543/-0.291308/0.0914629/-0.0276167/0.467317/-0.362379/-0.40805/-0.257418/0.612268/0.667448/0.654641/-0.261164/-0.409404/0.464859/-0.0803106/-0.85155/-0.820912/-0.515316/-0.339935/0.43371/0.594943/0.178075/0.201861/0.684421/-0.936692/-0.991724/-0.824136/0.593205/-0.942105/-0.303874/-0.95031/0.644142/0.685959/-0.464198/-0.949405/-0.844507/0.830356/0.109821/0.270714/-0.721972/-0.165083/0.063071/0.519567/-0.704243/0.958304/-0.209042/0.134844/0.0367075/0.0628884/-0.0590317/-0.854381/0.422734/0.894603/-0.405216/-0.258695/-0.728655/-0.243456/0.183539/0.422996/0.0206084/0.697232/-0.944699/-0.0244634/0.307875/-0.908024/-0.0403683/0.713407/0.454825/0.977968/0.122603/0.499004/-0.0302573/0.903236/-0.86392/0.372445/0.628306/-0.447338/-0.0492104/-0.16931/0.405682/0.29174/-0.727071/0.967671/-0.109556/0.410315/0.622079/-0.762229/0.18537/0.344414/-0.606777/0.0707098/-0.267303/0.485801/-0.122815/-0.704149/0.739221/-0.16813/-0.659624/-0.447392/0.801766/-0.61201/-0.729986/-0.171896/-0.959371/0.0188798/-0.0853735/-0.815375/-0.00506051/0.947957/0.318728/0.145335/0.774556/0.840027/0.726052/-0.204342/-0.380043/-0.70385/-0.603443/0.409872/0.61814/-0.0432478/-0.88231/0.684291/0.538565/-0.0117021/0.968683/-0.358481/-0.261044/-0.137512/-0.485171/-0.511275/-0.720063/-0.835028/0.537252/-0.402907/0.340601/0.485338/-0.929084/-0.373009/-0.347996/-0.526851/-0.384808/-0.454663/-0.454724/-0.762031/0.132525/-0.962597/-0.146016/-0.727108/0.480364/0.76527/-0.844932/-0.760889/-0.311094/-0.555223/-0.823812/-0.8388/0.219396/0.412471/0.626976/0.490477/0.925799/-0.0988986/-0.188072/-0.926105/0.899003/-0.937966/-0.895701/0.0285576/0.533519/0.718578/0.304399/0.0968946/-0.91388/-0.567895/-0.849817/-0.829196/-0.411711/0.243027/-0.468167/-0.164294/0.660666/-0.403629/0.839257/-0.379562/-0.131271/-0.485185/0.985582/-0.0663369/-0.796464/-0.164919/0.201942/0.0360227/-0.623604/0.536593/-0.864213/0.428668/0.871028/0.206882/-0.371831/-0.22544/0.279571/-0.422255/-0.781636/-0.791592/-0.635662/0.826355/0.434714/-0.56447/-0.702521/-0.820396/0.0394644/0.287654/-0.769081/0.877709/0.654928/-0.635608/-0.392807/0.0933922/-0.35743/0.679657/-0.892208/0.181637/-0.182029/0.377794/0.783161/0.053327/-0.18245/-0.563887/-0.724878/-0.770589/-0.767168/-0.569656/-0.438389/-0.0355161/-0.241195/0.410578/-0.3134/0.176855/-0.347841/0.436905/0.280851/-0.749276/-0.308719/-0.204449/-0.586643/0.294121/-0.708813/0.984683/-0.263228/-0.306551/0.306115/-0.329517/0.506249/-0.786955/-0.410498/-0.694356/-0.869473/0.01762/-0.538952/0.725597/0.804973/0.991969/-0.121923/0.214003/0.278512/-0.340725/0.42218/0.16156/0.795205/-0.736927/0.614901/-0.566506/0.369027/0.234904/0.0382304/0.5381/-0.162902/0.819908/-0.653295/-0.848412/-0.515375/-0.983639/0.964633/-0.74752/0.639467/-0.46806/-0.264403/0.145642/-0.837269/-0.326963/0.504467/-0.138144/0.382841/-0.0281172/0.481385/0.874475/-0.492319/-0.617984/-0.191967/-0.300608/-0.315141/-0.570224/0.24132/-0.137974/-0.9331/-0.706236/0.183706/-0.816565/-0.765826/0.598226/0.0749304/-0.602865/0.0645394/0.160216/0.657734/-0.662697/-0.303259/-0.534035/0.878499/-0.48612/-0.320098/-0.798052/0.675979/-0.259079/0.289667/-0.35304/-0.197466/0.903501/-0.854948/0.881247/-0.87366/0.388663/0.267405/0.224736/0.540196/-0.0717081/-0.780199/0.525908/-0.406454/0.0329356/-0.415515/0.231903/0.641775/0.418993/0.838584/-0.634779/-0.236269/0.464624/0.0509749/-0.388228/0.695663/0.615548/0.439665/-0.353496/0.440376/-0.677983/-0.856521/0.453774/0.583285/-0.726109/0.276705/-0.626364/0.239047/-0.661769/-0.20438/-0.592504/-0.47262/0.129662/0.893047/-0.734467/0.234567/-0.660756/0.542455/0.475042/-0.870744/0.40185/0.397252/-0.462838/0.168795/0.22808/-0.94158/-0.708237/0.444739/-0.547819/0.597267/0.27351/0.876831/0.898518/-0.612207/0.576248/-0.228281/-0.555156/0.062954/0.837013/-0.402622/0.386143/-0.234679/-0.374995/-0.933304/0.0655546/-0.678758/-0.62887/-0.890108/-0.44643/0.372756/-0.207208/0.174322/0.44872/-0.302556/-0.869452/0.469213/-0.507213/0.070466/0.32291/-0.854412/-0.100881/0.490459/0.576586/0.213128/-0.987659/0.511179/0.710646/-0.342076/0.373953/0.00385027/-0.767684/0.942676/-0.596575/0.0790771/-0.839672/-0.350315/-0.124907/-0.0618868/0.0813227/0.484863/0.486509/-0.940057/0.240796/0.447385/0.676807/-0.0910852/-0.868327/0.0364363/0.384711/-0.16379/-0.831736/0.870293/0.73563/0.844756/-0.199759/-0.944271/0.135386/-0.54205/-0.971468/-0.546687/-0.154701/-0.0580114/-0.994659/0.777268/-0.458448/0.857169/0.453199/-0.890984/-0.584773/-0.279776/-0.295826/-0.337281/0.980646/-0.347852/-0.349546/-0.813111/0.0359464/0.151762/0.659972/0.149572/-0.136/0.240181/0.728697/-0.783762/-0.683151/0.281268/-0.733979/0.018052/-0.599283/-0.150544/-0.189681/0.0383566/0.658889/-0.0530285/0.750185/0.359399/0.417269/-0.955604/-0.83455/-0.275302/0.99207/-0.279828/0.924566/-0.815307/
