-0.999984/-0.736924/0.511211/-0.0826997/0.0655345/-0.562082/-0.905911/0.357729/0.358593/0.869386/-0.232996/0.0388327/0.661931/-0.930856/-0.893077/0.0594004/0.342299/-0.984604/-0.233169/-0.866316/-0.165028/0.373545/0.177953/0.860873/0.692334/0.0538576/-0.81607/0.307838/-0.168001/0.402381/0.820642/0.524396/-0.475093/-0.905071/0.472159/-0.343536/0.265277/0.512817/0.982066/-0.269323/-0.505922/0.9651/0.445319/0.506708/0.303029/-0.854639/0.263254/0.769412/-0.454588/-0.127194/0.532978/-0.04454/-0.524437/-0.450186/-0.28147/-0.666986/-0.0269652/0.795313/0.818416/-0.878861/0.809374/0.00907512/0.0324445/-0.362078/0.973263/-0.0120935/-0.467775/-0.818547/0.895493/-0.852587/0.00125936/-0.231969/-0.44618/0.8273/0.0591215/-0.0714219/0.881514/-0.900354/0.522709/0.540263/0.655566/-0.749286/-0.968265/0.376911/0.736494/0.259087/0.472444/0.450757/0.998813/0.777002/-0.534032/-0.387687/-0.298168/0.0262107/0.181857/0.691629/-0.176224/0.68246/-0.462225/-0.17018/0.0735528/-0.0653094/-0.426873/-0.644658/-0.693762/0.142296/0.604096/-0.934398/0.0684706/-0.00313857/0.910722/0.496585/0.109168/0.781474/0.249643/0.683758/-0.680863/-0.574808/0.428948/-0.739573/-0.818509/-0.451635/-0.994882/-0.172356/-0.947343/0.418306/0.874196/-0.521885/-0.640083/-0.367159/0.771385/0.301334/-0.701741/0.361317/-0.229317/-0.22532/-0.00115385/-0.705285/0.174364/0.691151/0.180217/0.910815/0.112195/-0.70412/0.96607/-0.183043/-0.717126/0.129092/-0.49661/-0.024237/-0.0733971/0.920644/-0.749587/-0.602257/-0.363561/0.2562/-0.749146/0.2993/0.239699/0.602696/-0.507246/-0.0490979/-0.222846/-0.594719/-0.94412/0.802898/-0.147089/-0.715958/0.894974/-0.179375/-0.737691/0.770883/-0.816386/-0.676548/-0.858954/-0.270324/-0.495039/-0.731693/0.563921/-0.0918721/-0.303606/-0.097961/0.615146/0.860483/0.30001/-0.573115/0.355325/0.814321/-0.503275/0.718603/-0.0599312/0.0101833/0.199758/0.634823/0.511678/-0.07551/0.902735/0.265475/-0.121387/0.649032/0.377105/0.403229/0.972964/0.907411/0.700889/-0.423535/0.0721403/0.0260898/-0.796078/-0.175104/0.15017/0.749931/-0.12311/0.456313/0.734905/0.427486/0.59712/0.408897/0.479874/-0.964154/0.770871/0.0496826/-0.0733627/-0.869612/0.426845/-0.0221157/0.33532/0.363745/-0.601753/0.831886/0.729906/0.777817/0.0851768/-0.724763/-0.102415/0.975727/-0.572278/-0.111499/-0.372341/0.0253406/0.759367/-0.12436/-0.0692477/0.608755/-0.274504/-0.581932/0.993912/-0.696067/0.259325/0.232298/-0.99882/-0.998242/0.546704/0.454668/-0.361727/-0.164998/0.363746/0.359118/-0.591999/0.670126/0.414394/0.653483/-0.815128/-0.840519/0.524349/0.25524/-0.576601/-0.57717/-0.841729/-0.226122/0.899953/0.890111/-0.225445/-0.466683/0.379571/-0.435811/0.551494/0.567012/-0.1551/-0.435688/-0.612065/-0.977372/-0.616551/0.965672/-0.513659/0.636839/-0.730126/-0.207061/0.197817/-0.651026/0.651751/-0.689329/0.971434/-0.490091/-0.536917/-0.800537/-0.564404/0.266225/0.388168/0.585159/0.38799/0.501379/0.334725/0.263129/-0.889397/0.195463/-0.546067/-0.362444/0.399669/-0.765136/0.524754/0.0509017/0.105557/0.172905/-0.344513/0.402008/-0.718659/-0.681346/-0.0343228/0.715295/0.621326/0.108809/0.473892/-0.371282/-0.732304/0.0540706/-0.381858/0.172945/0.0325882/-0.141868/-0.486203/-0.262832/-0.216023/-0.107017/-0.0482498/-0.224338/-0.441414/-0.843483/-0.2609/-0.493738/0.340814/0.348938/0.0237142/0.45281/0.437011/0.885298/-0.083103/0.875159/-0.362217/-0.0843667/0.0299203/0.318914/-0.199753/0.208077/0.969931/-0.701927/0.337036/-0.315906/0.0796346/0.0422882/0.656461/-0.970618/-0.451604/0.285958/0.0922732/0.835676/-0.467176/0.938464/-0.509669/0.684059/0.383737/-0.0928841/0.629873/-0.959941/-0.682731/0.408972/0.41026/-0.132402/0.159905/0.499299/0.979596/0.38816/-0.444195/0.504615/-0.661308/-0.995418/-0.0126256/-0.843512/-0.675762/0.805919/0.565948/0.493358/-0.127149/-0.987345/0.169207/0.0352531/-0.869517/0.0842299/-0.224621/-0.572303/-0.232043/0.250216/0.313705/0.413567/0.0720029/-0.444653/0.627267/-0.260155/0.368728/-0.383202/-0.984931/-0.796172/0.0377357/0.547469/-0.562646/-0.892493/-0.860777/-0.680201/0.447479/-0.405956/-0.898795/-0.044432/-0.0861313/0.038617/-0.109688/-0.702565/-0.431462/0.664153/0.388414/0.1524/0.357906/-0.342595/-0.889704/0.969335/0.0809541/-0.999848/0.709057/-0.945017/-0.248555/-0.0245319/0.148158/0.473952/0.355249/0.0697593/-0.930526/-0.755377/0.9467/-0.623448/-0.297363/0.228242/0.214858/-0.749421/0.103185/0.90475/-0.289359/0.672866/0.945134/-0.485875/-0.501443/-0.155877/0.6217/0.791889/-0.514011/0.518585/0.386544/-0.0998911/-0.476452/0.326815/-0.771267/-0.584541/-0.775711/0.0914434/-0.98911/-0.648203/0.198717/-0.136183/-0.834987/0.374826/-0.249786/0.670941/-0.755242/0.943378/-0.944257/-0.843399/-0.015551/0.534599/0.863864/-0.503977/-0.285129/0.534099/-0.00327452/0.495974/0.341135/0.360349/0.510543/-0.931054/-0.543097/-0.560279/0.122304/0.303153/0.232231/-0.257177/-0.550398/-0.532617/0.306023/-0.668144/0.487741/-0.681821/-0.907104/0.320354/-0.754195/0.893888/-0.0359195/0.237988/0.82394/-0.968407/0.182688/0.439804/-0.00993783/-0.894988/-0.118755/0.0363457/0.541355/-0.872891/-0.11841/0.950964/-0.067336/-0.343699/-0.109039/0.486415/-0.58932/-0.657241/-0.25496/0.879414/0.929183/-0.491559/-0.861624/-0.756052/0.0481001/-0.684696/0.0306904/-0.793959/0.679169/-0.26666/-0.155902/-0.348922/0.424405/0.151091/0.741437/0.514361/0.670495/0.396005/-0.225392/0.867408/0.208638/-0.277489/0.0782299/-0.0899559/-0.196616/-0.519119/-0.833829/-0.156945/-0.0556958/-0.421654/-0.792265/-0.570955/0.598942/0.0494382/0.332711/0.723341/-0.515645/0.420327/-0.475256/-0.236868/-0.840286/-0.0829532/-0.536691/0.58844/-0.0198023/-0.996788/-0.471049/0.326585/-0.151695/-0.627646/0.926384/-0.732067/0.591709/0.892089/-0.65769/0.211907/-0.872707/-0.306004/-0.417329/0.0154616/0.646966/0.664085/0.449034/-0.344182/0.601357/0.260973/-0.911619/-0.919096/-0.695055/0.532326/-0.878324/0.0364013/0.855843/-0.562074/-0.594011/-0.824424/0.397728/0.411933/-0.0111356/-0.476562/0.423141/-0.243268/-0.598711/-0.53485/-0.128425/-0.0623704/0.720222/0.951476/-0.114113/-0.934358/0.0453032/-0.938943/0.503978/0.181045/0.644187/-0.342139/-0.53695/0.0720241/-0.139839/-0.194323/0.97277/0.931413/0.698681/0.733157/-0.378103/-0.704021/0.994813/0.278912/-0.0638548/0.863829/0.381545/0.630812/0.0828345/0.144636/-0.683035/0.888931/0.640882/-0.690945/-0.919422/-0.314307/-0.781669/-0.808469/0.0361988/-0.956439/0.121909/0.712881/0.0329552/0.348064/0.473329/0.39559/-0.95582/-0.617222/0.341071/-0.308871/-0.867715/-0.718711/0.842225/-0.556687/-0.239771/0.172029/-0.665619/-0.947906/0.38174/0.524249/0.4266/-0.846166/0.178908/0.850317/0.858727/-0.139872/0.0110811/0.661715/0.837812/0.202756/0.447205/0.0382388/-0.0189083/-0.677839/0.951723/0.148362/-0.4538/0.062673/0.397028/0.334084/-0.805135/0.0974726/0.221475/0.335931/-0.00979611/0.143072/0.177736/-0.117378/-0.697882/0.0041701/0.462486/-0.936846/-0.896872/0.0438975/-0.359081/-0.930202/-0.50994/-0.785793/-0.234152/0.103593/0.194044/0.221898/0.870403/0.544001/0.0262292/-0.0266865/0.300246/0.39399/-0.184925/-0.026301/-0.0404343/0.4209/0.0683973/-0.446704/0.211089/-0.439797/0.406729/0.0609652/0.876497/-0.529199/-0.173013/0.194945/0.565995/0.840497/0.362979/0.642352/0.0548262/-0.53946/-0.712636/0.799039/-0.497156/0.303028/-0.990371/0.87187/-0.449294/0.717532/-0.442143/0.904862/0.0136399/-0.7541/-0.167049/0.404943/-0.127018/-0.784522/0.53235/-0.800269/-0.11747/-0.310847/-0.405872/0.515242/-0.322981/-0.338483/-0.888788/0.146366/-0.0294279/-0.595036/-0.771051/0.948696/0.729219/-0.0163185/-0.26521/0.609825/-0.675592/-0.68084/-0.884554/-0.701497/-0.0735347/
-0.238783/0.767409/-0.151733/-0.175504/0.302589/-0.383345/-0.879715/0.628833/0.795314/0.838984/0.802436/0.540093/-0.658408/0.144884/-0.937192/0.606536/0.0444293/0.723244/-0.445604/0.738988/0.173724/-0.221656/0.623791/0.0513405/0.879743/-0.159924/0.159725/0.49829/0.761568/-0.323831/-0.620903/0.486252/0.437839/0.758324/-0.854262/0.420226/0.758119/-0.281241/-0.820294/-0.677939/-0.166405/-0.807144/0.349384/0.125223/0.626101/0.756404/0.538734/0.270407/0.793045/0.756826/-0.0270561/-0.773858/-0.245029/-0.234761/0.375156/-0.756521/-0.846356/-0.713396/-0.0447184/0.417176/-0.52396/-0.218062/0.951724/0.25747/0.362404/0.817475/-0.275092/0.718576/0.588688/-0.142187/-0.852938/-0.00272975/-0.0321489/-0.0983856/-0.000599716/0.481377/0.865433/-0.400012/-0.707693/-0.779966/-0.839367/0.94495/-0.183645/-0.523179/0.92632/0.666948/-0.60384/-0.741017/-0.607298/-0.32165/0.151415/-0.119443/0.171532/-0.13394/-0.263304/-0.235141/0.200443/-0.140899/-0.702308/0.340558/0.990954/0.396178/-0.194641/0.698249/0.638547/0.586296/-0.251673/-0.98086/-0.0405207/0.278106/0.292996/0.289796/0.59807/-0.245272/-0.284652/-0.22094/-0.331213/0.387405/-0.710083/-0.416953/0.333864/0.708975/-0.370412/-0.711573/0.204604/-0.988692/0.841784/-0.236005/0.032972/-0.311365/-0.472072/-0.418469/0.666752/-0.751581/0.269067/-0.902689/-0.0840058/-0.246396/-0.688249/0.511711/0.331946/-0.976939/0.589751/0.121857/-0.422574/-0.168845/-0.358911/0.0290036/0.438286/0.684208/-0.536066/-0.0698721/-0.253165/-0.899695/-0.852137/-0.595028/0.132178/0.662699/-0.1554/0.678364/-0.414518/-0.63786/-0.28505/0.868263/0.17884/-0.261958/-0.0738784/0.255661/0.888904/-0.188429/-0.899105/-0.110317/0.191895/0.49654/0.728066/-0.738042/-0.7908/0.330795/0.666931/0.162749/0.317419/0.964284/-0.962008/0.8429/-0.610974/0.934967/0.0456504/-0.442753/0.439211/0.180678/0.674148/0.669683/0.320037/0.460988/0.286055/-0.300942/0.0697524/0.328291/-0.353121/0.738487/-0.115182/0.835866/-0.446751/0.903596/-0.765319/-0.167671/0.672948/0.925092/-0.334195/0.0521648/0.0715587/0.635761/0.859272/0.325397/-0.513696/0.882971/0.193538/-0.747837/-0.505876/0.773721/-0.60733/-0.673841/0.672003/0.20481/0.246485/0.677356/0.343356/-0.216738/0.742738/0.334698/-0.768814/-0.999834/0.352253/0.257692/-0.0908731/0.148562/-0.935817/-0.297762/0.709532/-0.258949/0.32242/0.152778/-0.87978/0.489336/-0.440722/-0.114518/-0.646936/-0.816188/0.794783/0.985066/0.188327/-0.933993/0.381863/-0.0255762/0.138752/0.791541/-0.130809/0.377237/-0.593709/-0.036593/-0.455102/0.894247/-0.511687/0.906041/-0.0465574/-0.746176/0.922423/0.714009/-0.565144/-0.985664/0.565354/-0.89889/0.9204/0.283006/0.146926/-0.725716/-0.741755/0.6493/0.00370801/0.311775/0.010118/0.0529078/-0.763165/0.806166/0.337922/-0.444794/-0.226567/-0.216934/0.662184/-0.514142/-0.753667/0.455895/0.295642/-0.597947/0.69718/-0.954877/-0.788609/-0.623828/-0.277871/0.559494/0.43853/0.332944/0.162067/-0.297615/-0.685629/-0.415789/-0.661786/-0.552606/0.342703/-0.190473/0.773013/0.15872/-0.316267/-0.125485/0.399439/0.668911/0.584235/0.698138/-0.436028/-0.471254/-0.660543/0.0667213/-0.853957/0.997472/0.50054/-0.755467/-0.670838/-0.149852/0.546284/-0.572683/-0.131944/-0.933785/0.858689/-0.787869/-0.467431/-0.0359026/0.58556/-0.484953/-0.572162/-0.435036/-0.238688/-0.583654/0.857231/0.528439/0.233535/0.151807/-0.287683/0.815369/-0.604376/-0.772009/0.581919/0.396195/-0.96363/0.495773/-0.771235/0.789663/0.309032/-0.308154/-0.234945/-0.569733/-0.337302/-0.964344/0.82874/0.57094/-0.213098/0.459965/0.663075/0.75564/-0.740639/-0.312924/0.884401/-0.275302/-0.295492/-0.838563/0.143815/0.552837/0.688499/-0.0134174/0.634398/0.285168/-0.129714/-0.295851/-0.302117/-0.437316/0.837968/0.252336/0.489384/-0.684722/0.553037/-0.495947/0.22412/0.709206/-0.370785/0.216889/-0.748156/-0.252569/-0.733159/-0.475868/-0.747598/-0.59408/0.501392/-0.857883/-0.0819706/0.926772/-0.530384/-0.604857/0.36781/-0.837607/0.70797/-0.695406/-0.760191/0.617799/0.888085/-0.909022/-0.879276/0.65961/-0.717459/0.60247/-0.545019/-0.201571/0.198388/0.310412/-0.892582/0.972799/0.624908/-0.17239/-0.935989/-0.783678/0.9493/0.73463/0.342648/0.669201/-0.523087/0.434111/0.179439/-0.555164/-0.544914/-0.99742/-0.105003/-0.181066/0.86562/-0.955251/0.0269711/-0.246943/0.719144/0.587892/0.218941/-0.336393/0.24801/0.307745/0.288713/-0.481749/-0.947853/0.974366/-0.5843/0.284824/0.121/-0.245615/-0.758176/-0.101426/-0.724256/0.171836/0.0852763/-0.0329334/0.772837/-0.837411/-0.275494/-0.799043/-0.402016/0.68307/0.825837/0.65581/0.940675/0.62668/0.595746/0.679592/-0.102559/0.284186/0.387835/0.631479/-0.063616/-0.612776/-0.196752/0.861385/-0.0652315/-0.242577/0.0356051/-0.544309/0.798795/0.971942/-0.725851/-0.0829827/0.378029/-0.442433/-0.181954/0.479436/-0.937751/-0.392321/-0.614892/0.626236/-0.450245/0.435598/-0.182747/0.570146/0.444586/0.154113/0.265879/0.597179/-0.999497/0.2555/-0.307132/-0.0563053/-0.0152908/0.0597087/-0.362613/0.715969/-0.723722/-0.201522/-0.226048/0.692873/-0.887885/-0.0865286/0.530772/-0.415216/0.923755/0.999928/0.998105/0.483126/-0.30046/0.593171/-0.602002/0.201469/0.085649/-0.496621/-0.596779/0.151314/0.0275711/0.495351/0.215844/0.978966/0.596967/0.109909/-0.706491/-0.785895/0.0475558/-0.50729/0.143225/-0.331362/0.357303/-0.86134/0.689325/0.752416/-0.336004/-0.709132/0.488232/0.323727/-0.194511/0.169977/0.110902/-0.0117672/0.229003/0.849657/0.227792/-0.487255/-0.920707/0.241323/-0.313334/-0.952119/-0.657332/0.221556/-0.152289/0.136857/0.46069/-0.251956/-0.268684/-0.247542/-0.826714/0.166389/-0.163559/-0.778387/-0.349397/0.370583/0.128173/0.74375/0.0635708/0.948996/-0.879519/-0.0493116/-0.779736/0.984355/0.0989752/0.397282/-0.745646/-0.050239/-0.8817/-0.110356/0.835569/-0.12105/0.717002/0.994203/0.0984492/-0.751357/0.692817/-0.619374/0.328869/0.312838/0.946796/-0.0843406/-0.680883/-0.721134/-0.433089/0.945946/0.195774/0.704379/-0.874229/0.851246/0.898788/-0.0666645/-0.43556/-0.0795612/-0.138499/0.732037/-0.603186/-0.231194/0.517795/0.628212/0.345332/0.443124/0.366738/-0.371861/-0.662655/0.376483/0.842177/-0.668068/-0.991892/-0.646968/-0.643316/-0.603524/0.336656/0.348905/0.0349613/-0.353171/-0.0660633/-0.358351/-0.812713/0.740876/-0.109784/-0.704529/0.303973/0.883819/0.76436/0.321208/-0.592679/-0.659442/-0.967824/-0.66904/-0.781541/-0.277301/0.122679/0.928173/-0.508551/-0.951813/-0.939499/0.772662/0.772953/0.826645/0.094722/-0.654879/-0.0258615/0.628878/0.873223/0.166127/0.097813/-0.0564933/0.506621/-0.335492/-0.655183/0.0258112/-0.23935/0.65594/0.933932/-0.990363/-0.397055/-0.0906363/0.781184/0.687324/-0.498999/0.468247/0.67953/-0.153698/0.417183/-0.188143/0.0527406/0.0511709/-0.817043/-0.192648/0.564286/-0.470416/-0.384282/-0.630064/0.513253/0.241344/0.290661/-0.345427/-0.691538/-0.631315/-0.0896931/0.0662675/-0.675119/0.851586/-0.181851/-0.937575/-0.665345/0.130242/0.970972/-0.719387/-0.332739/-0.38158/-0.291277/-0.674322/-0.355703/-0.240844/0.282742/0.204622/-0.924634/-0.329794/-0.843572/0.0880575/-0.017756/-0.424257/-0.494564/-0.121361/0.31723/-0.348839/-0.996673/0.945397/-0.798251/-0.363246/0.911032/-0.30146/-0.669185/0.970983/-0.767112/-0.916227/0.921913/0.570567/-0.559218/-0.797082/-0.490875/-0.124979/-0.513978/-0.434813/0.0984569/0.764604/0.703299/0.340936/0.115221/0.515666/0.803993/0.70676/0.519395/-0.5321/0.99658/-0.477435/-0.24992/-0.400994/0.491044/0.983669/0.532627/-0.142781/0.28333/-0.0723981/-0.795064/-0.636239/0.726721/0.00671518/0.86195/0.796072/-0.417668/0.258282/0.9508/0.0880979/0.661338/-0.89038/-0.620899/
0.950588/0.530418/0.739755/-0.935322/0.0368746/-0.249126/0.939334/-0.613705/-0.542858/0.193895/0.793009/0.098957/-0.830454/0.553968/0.54218/0.416797/-0.896129/0.767129/-0.856727/0.989322/-0.460165/-0.000453702/0.374635/0.49687/0.889295/0.379415/0.823546/-0.657546/0.630664/-0.434345/-0.0362455/0.821706/0.40636/-0.201395/-0.663141/0.804974/-0.579877/0.0967239/-0.254452/-0.473695/0.613399/-0.52834/0.317815/-0.3288/0.0442608/-0.0942194/0.213749/0.334202/-0.956482/0.638391/-0.245386/0.0835889/0.939411/0.492568/0.586572/0.517398/-0.0935436/-0.1865/-0.511548/0.404508/-0.57276/0.321786/-0.186563/-0.447896/-0.314383/-0.397832/0.376075/0.908102/0.555967/0.804212/-0.957128/0.948011/-0.89278/-0.180192/-0.673058/0.591452/-0.97747/0.203664/0.842671/-0.780272/0.0899837/-0.85394/0.113034/-0.233238/-0.0371404/-0.218134/-0.182656/0.11805/0.881312/0.397032/0.177936/-0.979091/-0.436283/-0.227371/0.489305/0.129237/0.106641/-0.46473/-0.767671/-0.678721/-0.293189/0.614962/-0.470299/-0.618495/-0.17241/0.295359/0.058696/-0.854753/-0.0604534/-0.242302/-0.802316/-0.0134905/-0.734371/-0.567509/-0.123437/-0.294005/0.986703/0.782971/-0.301955/-0.123836/0.600479/0.961119/-0.400706/0.150377/0.100638/-0.7169/0.0094463/-0.00411217/0.455454/-0.838843/-0.569896/-0.657753/-0.232185/-0.252501/-0.472503/-0.671341/0.712617/-0.509391/0.786697/0.582313/0.928393/-0.498509/-0.431872/0.0993536/0.437251/0.0296178/-0.0286939/-0.298407/0.71433/-0.178651/-0.962609/0.827966/0.915136/0.133237/0.991562/-0.203345/0.170367/0.607001/-0.189252/-0.918211/0.0867053/-0.742954/0.147146/0.937361/0.362177/-0.585668/0.127718/0.661366/-0.414255/-0.387877/0.955936/0.96949/0.166717/-0.335493/0.0412715/-0.837532/0.612965/0.360408/0.186449/-0.594899/-0.602798/-0.675849/-0.442637/-0.609929/0.580502/0.737096/0.571466/-0.824953/-0.685627/-0.510597/0.519229/0.0320602/-0.21743/0.735781/-0.334617/0.193405/0.56042/0.973453/0.908631/0.645166/0.552977/0.371324/0.681872/0.253652/0.534249/-0.209724/0.167407/-0.16295/0.599908/-0.0481454/0.377442/0.622852/0.0969773/-0.416386/0.167087/-0.0581157/0.790963/-0.146978/-0.484895/-0.0753075/-1.00178/0.315543/-0.816334/0.124612/0.358085/0.335243/0.490446/0.304379/0.962742/-0.442317/0.563358/-0.992484/-0.83019/-0.885683/0.849641/-0.574632/0.558798/-0.496639/-0.430661/0.472418/-0.412696/-0.0592678/0.813212/0.839646/0.777016/-0.505057/0.499162/0.363551/-0.0662141/-0.0529653/-0.582507/0.0127801/0.795542/0.670132/0.917321/0.945574/0.835616/-0.704547/-0.477006/-0.210614/0.538024/0.536148/0.546906/-0.095529/-0.167133/0.268312/0.29/0.478925/0.653699/-0.461406/0.554131/-0.645353/-0.766446/0.569043/0.978035/-0.849628/-0.152607/0.681335/0.267066/0.889621/-0.139294/0.891921/0.596935/-0.246396/-0.507766/0.65519/-0.92009/-0.547183/-0.817681/0.716832/-0.91848/0.904031/0.643138/0.733036/0.0194498/0.49533/0.991627/-0.170493/-0.582712/-0.198478/-0.788679/-0.282147/-0.81147/-0.595852/-0.228075/0.646257/0.798363/0.931673/0.634131/-0.16633/0.634582/0.448865/-0.0845484/-0.172512/0.181216/0.201513/0.328839/0.968771/0.472446/-0.9974/0.244725/-0.745688/0.78685/0.350491/-0.348874/-0.532116/-0.102642/0.356099/-0.487925/-0.71314/0.403082/0.194072/0.379742/-0.853275/0.759255/-0.594072/-0.566522/0.465188/0.570872/0.914824/0.428338/0.477202/-0.614685/-0.574658/-0.964551/0.67278/0.515529/-0.569348/-0.16682/-0.465902/0.347117/0.6656/-0.905085/0.239269/0.261546/-0.0896088/-0.785816/0.445649/-0.969518/-0.178013/0.0740192/-0.796102/0.280693/-0.128455/-0.944399/-0.515063/-0.340729/0.261695/-0.251852/0.0849835/0.532546/-0.84762/0.519796/-0.909281/-0.637091/-0.066147/0.669499/-0.331197/-0.270945/0.700501/0.566649/-0.44981/0.62453/0.401866/0.791031/0.735919/-0.178969/-0.639982/0.106394/0.0611577/-0.298078/0.450583/0.94398/-0.529376/-0.719052/-0.527116/0.599067/0.64029/-0.20319/0.730165/0.199136/-0.928505/0.503846/-0.0312274/0.949749/-0.297343/0.452127/-0.67697/0.751515/-0.385653/0.34926/-0.704375/-0.429296/0.808548/-0.960286/0.179375/0.886691/0.657949/0.136201/-0.577315/-0.939242/0.1642/0.282283/-0.692758/-0.867216/-0.388954/0.143821/-0.267974/-0.585275/-0.936008/0.50738/-0.876067/-0.45592/0.534793/-0.258045/-0.400389/-0.29629/0.929099/0.239483/0.390961/-0.311326/-0.695622/0.0276511/0.127323/0.390742/0.377549/0.61533/-0.0823185/0.472263/-0.676427/-0.345385/-0.977724/-0.122333/0.607104/0.861938/0.122014/0.128858/0.145224/0.969216/0.450879/-0.783003/0.0166543/-0.116036/-0.0549278/0.0858002/0.165666/-0.707752/0.446625/0.0464503/-0.314024/0.171226/-0.937723/0.815884/0.514812/0.0159307/-0.181714/-0.0735809/-0.674952/0.385664/-0.9332/0.382055/-0.66045/-0.502777/0.889343/0.481574/0.633809/-0.428178/-0.339629/0.306566/0.665565/-0.155721/-0.121246/-0.141098/-0.886075/-0.238143/0.283983/0.0315229/-0.586729/0.471446/0.3744/0.0249566/-0.266236/0.00459046/-0.752554/-0.168821/0.626452/-0.942426/0.0788202/-0.771612/0.461433/0.25946/0.094382/0.0157388/0.407054/0.0188869/0.437646/0.947573/0.406678/0.88911/-0.238908/0.257128/-0.634681/-0.0264289/-0.39581/0.369502/0.396186/0.694964/-0.0221136/0.599788/-0.641711/-0.10035/-0.531978/-0.953052/0.0553561/0.742946/-0.324398/-0.0862266/0.344295/-0.63015/0.187828/-0.29197/0.635665/-0.158573/-0.900238/0.686439/-0.726221/0.844637/0.708806/0.637177/-0.958605/0.946828/-0.452017/0.468555/-0.805208/0.655069/0.562326/-0.976312/0.594633/0.210687/-0.965544/0.0943805/0.253626/-0.942527/-0.377623/0.151225/-0.362867/0.298532/0.623625/0.465905/0.469103/0.369189/-0.744026/0.50508/-0.370967/-0.996618/-0.794514/0.136374/0.764832/-0.579414/0.229141/-0.521347/0.753189/-0.825168/-0.247591/0.186637/0.607478/-0.220487/0.295746/0.595652/-0.873877/0.961529/0.18274/0.921063/-0.34012/0.724292/-0.502533/-0.0587179/-0.686278/0.737825/0.426076/-0.923636/-0.858629/0.578107/-0.630192/-0.919242/-0.526802/0.362442/-0.617403/0.299655/-0.314/-0.45518/-0.367228/-0.954977/0.960218/-0.543327/0.324355/-0.557574/0.857792/-0.876646/0.571746/-0.424333/0.300645/-0.232979/-0.640749/0.477726/-0.488888/0.0639464/-0.954094/-0.437765/-0.0342421/0.868282/0.933973/0.172755/0.768941/-0.311102/0.735944/-0.989432/-0.618533/-0.377686/-0.54943/0.0198059/0.635804/-0.559171/0.0874269/-0.61621/-0.633893/0.289176/0.78687/-0.0110279/-0.442534/-0.723697/-0.299098/-0.635431/0.384069/-0.837449/-0.915202/-0.280201/-0.513088/-0.407246/0.140387/-0.232906/-0.299536/0.731433/-0.423306/0.835828/-0.360236/0.493005/0.324227/0.587395/0.867744/0.0321539/0.590029/0.618172/-0.384965/0.155788/-0.35453/-0.800378/-0.882741/0.379099/-0.611665/-0.134665/0.0304695/-0.355284/0.0859669/0.967399/0.22422/-0.986529/0.962009/0.0532665/0.285403/0.253587/-0.618439/-0.430394/-0.657472/-0.113579/0.85731/-0.711867/-0.205264/0.744891/-0.608168/0.512203/0.602648/0.737522/0.64839/-0.343869/0.141212/0.205529/-0.831985/0.611057/-0.782317/-0.165654/0.488195/-0.352865/0.31932/0.00753951/0.0134953/0.796776/-0.648684/-0.0942239/-0.46417/-0.182288/-0.090961/0.908487/0.917743/-0.0355522/-0.651635/0.370086/0.0315829/0.813125/0.193241/-0.199174/0.486286/0.960902/-0.308237/-0.239379/0.925845/0.658134/-0.80091/-0.734503/-0.791183/0.570987/0.588477/0.560227/-0.239802/-0.297901/-0.720331/-0.513293/-0.80627/-0.951317/-0.757997/0.407707/0.426551/-0.822393/0.15915/0.862151/0.175295/0.17927/0.990668/0.152861/-0.870736/-0.454944/-0.248259/-0.486495/-0.523078/0.62087/0.965761/-0.450689/-0.731773/-0.910675/0.283344/0.157572/0.311303/0.0705481/-0.297802/0.839219/0.758681/-0.844925/-0.656827/0.703871/-0.0331461/0.913143/-0.807985/0.19535/-0.75386/-0.146096/
-0.759101/-0.206743/-0.731819/0.322356/-0.156819/0.347207/-0.484325/-0.0531838/0.139856/0.56092/-0.625842/-0.534104/-0.691244/0.267282/0.201224/-0.0288455/-0.805673/-0.937961/-0.313407/0.569931/0.834047/-0.173686/0.862589/-0.468169/-0.509085/-0.185839/0.600064/-0.71612/0.17351/0.185555/0.62369/0.360923/0.0328804/0.646534/0.317732/0.102682/-0.233087/0.509512/-0.611103/-0.744444/0.119246/0.144614/0.403547/0.215133/-0.472017/0.540219/-0.765046/-0.233409/-0.897642/-0.753539/-0.905487/-0.670397/0.587949/-0.308707/-0.439776/0.68373/-0.553623/-0.739929/0.0162745/-0.474946/-0.401541/-0.430937/-0.779409/0.0213844/-0.70666/0.960353/0.644809/0.812973/0.375317/-0.38263/-0.547233/0.329302/-0.673158/-0.601973/0.398328/-0.778385/-0.835235/-0.924988/-0.745587/-0.628356/-0.531716/0.694403/0.715391/-0.418413/-0.26275/-0.0426369/-0.597822/0.330473/0.379349/-0.912773/0.527525/-0.544301/-0.97316/0.766401/-0.527992/0.430067/-0.630448/-0.872272/0.755325/0.282361/-0.889133/0.142439/0.875451/0.867809/0.771769/-0.280117/-0.355816/0.0804254/-0.648716/0.930667/-0.674573/0.439875/0.971579/-0.678033/0.288033/0.321287/0.876915/-0.854389/0.556043/-0.616674/-0.113132/-0.00562549/-0.735316/-0.0024233/-0.31584/-0.232485/-0.264129/0.260796/0.454109/0.874488/0.549398/-0.994811/0.734272/0.0127179/-0.158192/-0.213506/0.310681/0.0760134/0.24786/-0.239189/-0.0536159/0.87824/0.539634/0.532156/-0.47215/0.555698/-0.823242/0.325882/0.133992/0.819315/-0.391843/-0.877938/-0.713302/-0.0491662/0.44263/-0.977576/0.507656/0.249675/-0.867709/0.225871/0.385359/-0.0102962/0.993781/0.536048/0.163839/0.545208/-0.950467/-0.38651/-0.0672979/0.923654/-0.171575/-0.690128/-0.572886/-0.265568/0.671722/0.189869/-0.626742/0.162152/0.63824/-0.88941/-0.0623808/0.545626/-0.20849/-0.129148/-0.345786/-0.40374/0.824733/-0.39308/0.0252778/0.234226/-0.696125/-0.497096/0.884737/0.968038/0.0063503/0.802165/-0.0194559/-0.995325/-0.448503/1.00003/0.808229/-0.948755/-0.903712/-0.880755/0.80723/-0.688172/0.0732236/0.881179/-0.385541/-0.414961/-0.264881/-0.814434/0.922897/-0.107154/0.321595/-0.10321/0.171095/0.900577/0.0369867/0.0113688/-0.255173/0.375799/0.0769849/-0.160702/-0.911251/0.607557/-0.799076/0.918148/0.161605/0.371545/0.285713/-0.77994/0.635482/-0.876039/0.271064/0.0493478/-0.662454/-0.249393/0.489544/0.307526/0.341225/-0.768077/0.481335/0.201154/0.866502/-0.568104/-0.874327/0.160791/-0.273179/0.936368/-0.648401/0.627925/-0.470708/0.807885/0.128275/-0.903122/-0.0375287/0.985139/0.40162/-0.760895/0.630042/-0.0203954/-0.994066/-0.601979/-0.857414/-0.164054/-0.998437/-0.788043/0.945873/-0.148481/0.193987/0.834353/-0.366863/-0.931145/0.610896/0.227268/-0.543962/-0.192022/-0.466615/-0.0606054/-0.595361/-0.240477/0.291653/0.972482/0.174392/-0.516454/-0.139049/0.385534/-0.569642/-0.457974/0.908921/-0.955075/-0.291391/-0.0395846/-0.731794/0.375502/-0.558154/-0.444936/-0.724881/0.137217/0.368445/0.439645/0.442684/0.571028/-0.480383/-0.201765/0.994306/-0.689511/-0.606697/-0.763293/-0.68772/0.668099/-0.87682/-0.444834/0.240871/0.173454/-0.293413/0.909864/-0.280677/-0.0128925/-0.705716/-0.459612/0.0428239/0.156639/0.726854/-0.390547/0.908668/-0.973624/0.723208/-0.547519/0.81691/-0.486194/0.90085/-0.519032/0.803666/-0.768505/-0.264888/0.0293361/-0.966461/-0.174291/-0.344026/-0.435901/0.168976/0.655268/0.862423/0.873535/0.746236/-0.779574/0.834378/0.0328006/0.710421/-0.731806/-0.726492/0.275088/-0.710999/0.412236/0.25764/0.743114/0.735078/-0.476798/0.222001/-0.951384/0.0557318/0.917697/-0.265671/0.866445/0.100052/0.925132/-0.406485/0.461812/0.158136/-0.0853547/-0.624036/-0.656258/0.543035/0.114992/0.0982388/-0.329654/-0.946646/-0.0380853/0.52816/0.944955/-0.0289917/0.665008/0.570836/-0.72311/-0.939999/-0.267406/0.716409/-0.274822/0.460279/0.294738/-0.335117/-0.307852/-0.520146/-0.728601/0.625281/-0.305317/-0.794035/0.819463/-0.609266/0.045888/-0.535325/0.0314326/-0.590605/-0.631951/-0.866194/0.00438331/0.963425/0.00571955/0.055988/-0.291603/-0.26879/-0.344491/-0.445421/0.226675/-0.0961203/0.989529/-0.00759536/0.741052/0.865749/0.647247/-0.108264/-0.921846/-0.458339/0.416446/-0.697166/0.91978/0.73471/0.224516/0.874662/0.634607/0.839122/0.900419/-0.928063/-0.234352/-0.65451/-0.453332/-0.429668/-0.42152/0.0892052/-0.535828/-0.994837/-0.719327/-0.936363/-0.782003/0.229606/-0.606218/-0.697845/-0.683279/0.221486/0.0989596/-0.234559/0.191204/-0.0918399/0.382921/0.46288/-0.385382/-0.712612/0.799288/-0.782335/0.263936/0.93893/0.202279/-0.734722/0.259119/-0.742236/0.856162/0.786949/-0.938914/0.215145/0.370144/-0.922058/0.201558/-0.534268/0.613871/-0.665461/-0.401788/-0.863311/-0.6793/-0.0295104/0.627407/0.369397/-0.0107738/-0.713283/0.0624895/0.818692/-0.127195/-0.535443/-0.0552129/-0.499738/0.623781/-0.559443/-0.418876/0.30811/-0.580497/-0.546948/-0.364179/-0.81603/-0.262428/-0.983887/0.750266/0.723592/-0.603297/0.382459/-0.00931025/-0.484656/0.0390515/0.895406/-0.782586/-0.43411/0.137824/-0.597306/-0.767987/0.807776/0.70354/0.224401/-0.982883/0.658577/-0.548014/-0.958416/0.709444/0.782831/0.287036/0.286059/-0.990652/0.732993/-0.527871/-0.81132/-0.502569/0.72255/-0.101384/0.0372577/0.189803/-0.0283488/0.508653/-0.98781/-0.476663/-0.663868/0.743816/0.111727/0.655944/0.954422/0.0158882/0.383394/0.241729/0.382075/-0.944834/-0.455457/-0.6348/-0.156119/0.990271/-0.529178/-0.722731/-0.15571/-0.615318/-0.795292/-0.317834/-0.138492/0.360559/-0.0771332/-0.378487/0.265529/-0.220041/0.517022/-0.0493607/-0.152087/0.28968/0.135531/-0.857423/-0.131523/-0.0662198/0.208982/0.234688/-0.0470298/0.946738/-0.535215/-0.694878/0.0315813/-0.135413/0.96017/0.9842/-0.147381/0.634858/0.339804/0.0711473/-0.60608/-0.393136/0.564579/0.87677/-0.61018/-0.938796/-0.708098/-0.394434/0.463429/-0.332291/-0.0219114/0.978617/0.531898/-0.107863/-0.941304/0.321539/0.315769/-0.663833/-0.778962/-0.50137/0.558384/0.0574907/-0.109277/0.0580613/-0.69016/0.304401/0.188136/-0.713185/0.66989/0.825145/0.204463/0.414794/-0.600803/-0.872547/-0.0239022/-0.239678/0.401009/0.689388/-0.180525/-0.494554/0.802721/-0.526431/-0.648942/0.533503/0.848777/0.629068/0.118707/0.0988503/-0.0257487/-0.915374/0.0675582/0.567193/0.188388/0.831812/-0.683298/-0.925228/0.437082/0.0214086/-0.186046/-0.882905/-0.977974/-0.862972/-0.882524/-0.779696/0.954627/-0.232001/-0.517591/-0.96087/-0.275807/-0.161593/0.642438/0.881921/-0.369903/0.0887092/-0.331528/0.79407/0.292494/0.0624988/-0.258932/-0.546591/-0.692686/0.827451/-0.906716/-0.556732/0.215712/-0.547383/0.135501/-0.633555/-0.166514/-0.632783/0.266551/0.560663/0.392759/-0.922332/-0.50825/0.0790936/0.663311/-0.0738655/0.292252/0.930104/0.459566/0.817613/-0.329592/0.141566/0.9307/0.928247/0.18478/0.281846/-0.946301/-0.00632829/0.10752/0.498058/-0.4196/-0.225502/-0.00500479/-0.115571/-0.395617/0.855776/-0.985314/-0.363473/0.506678/0.966774/-0.142681/-0.811818/-0.988614/0.736349/-0.0942761/-0.05275/-0.121567/-0.30984/0.346164/-0.96004/0.10412/-0.373875/-0.184993/0.565015/-0.0087384/0.0787841/-0.410152/0.110668/0.727063/-0.251939/-0.332046/-0.695619/0.73261/0.975975/-0.779704/-0.451888/-0.971016/0.159977/0.740776/0.239612/-0.813199/0.608004/0.81924/0.957728/0.515703/-0.584/0.698721/-0.655616/0.990919/0.329013/-0.30698/0.544979/-0.537868/0.111374/0.0987339/-0.37192/-0.821318/0.111465/-0.602499/-0.202127/0.859479/-0.733743/-0.0105195/-0.800992/-0.274639/0.150563/0.510843/-0.253682/0.361113/-0.780158/-0.113831/0.849771/0.105602/0.848125/0.44186/0.33298/0.399182/-0.949927/0.569377/-0.482494/0.717157/-0.735373/0.580189/-0.759569/-0.0770809/0.500744/0.0146266/
-0.985183/0.0234555/0.216638/-0.966052/-0.438992/-0.132125/-0.626473/0.873734/0.85551/0.557855/-0.13542/-0.0113557/-0.854694/-0.839278/0.251972/0.89005/-0.923162/0.415652/-0.13887/0.018195/-0.19604/-0.841939/-0.463394/-0.265634/-0.505519/-0.255683/0.740486/-0.651992/-0.0353905/-0.808047/-0.851615/0.910068/-0.479099/-0.221847/-0.61116/0.221991/0.975869/-0.605451/0.149815/-0.0917868/-0.660098/-0.2659/-0.997291/0.524644/-0.31087/-0.804907/-0.0704211/0.384062/0.925895/-0.559138/0.293304/-0.646229/0.808472/0.622401/0.696703/-0.507704/-0.979465/0.135653/-0.0838026/-0.470511/0.0251482/-0.106986/0.798845/-0.894098/-0.256971/0.827656/0.0548863/0.261471/-0.932478/0.951606/-0.870307/-0.293025/0.0831638/0.695833/-0.101121/0.922308/-0.0875473/0.716748/-0.962709/0.735611/0.694147/-0.986766/-0.79064/-0.293151/-0.983742/0.253723/0.314898/0.488163/0.279212/-0.485903/0.19738/-0.0293483/-0.915852/-0.71394/0.507443/-0.0161459/0.806399/-0.408638/0.74598/0.93643/-0.777564/0.143883/-0.723273/0.438227/-0.0987985/0.550683/0.745478/0.463638/0.412936/-0.178072/0.643503/0.626565/0.68567/0.0487775/-0.197403/0.17425/-0.116492/0.472678/0.47921/-0.456889/0.919196/0.483162/0.373802/-0.148436/-0.172415/0.689672/-0.926619/-0.772339/0.781182/0.369832/-0.175224/-0.42406/0.732925/-0.501091/0.404814/0.32383/-0.156702/-0.961628/0.226383/-0.0356012/-0.350137/-0.749924/0.0309608/-0.190158/-0.148896/-0.0352316/0.581732/-0.332801/0.710364/-0.899346/-0.995465/-0.198858/0.11448/0.21925/0.644708/-0.142365/-0.276891/-0.14538/0.596138/-0.800445/-0.0305635/-0.0471705/-0.0505079/0.138435/-0.973171/-0.83704/-0.345791/-0.239098/-0.517268/0.272201/0.886805/-0.612168/-0.132376/-0.880397/0.222453/0.184105/0.734076/0.771703/0.597691/0.630942/-0.894986/0.59134/-0.827293/-0.713329/-0.1859/-0.567705/-0.843794/-0.377549/0.549889/0.218176/-0.536414/0.941447/0.109086/0.771982/0.125456/0.521465/0.270449/-0.557894/-0.551259/-0.166276/-0.000918225/-0.792418/0.488544/-0.12059/0.852414/0.56353/-0.761727/0.549988/0.656193/-0.905398/0.916701/0.632751/-0.645077/0.124288/-0.755291/-0.847362/0.0797577/-0.463925/-0.707279/0.158174/0.956691/0.280319/-0.841147/0.831635/-0.711101/0.524349/0.738625/0.0195444/-0.172074/0.912375/-0.727931/0.559438/0.597965/0.908355/-0.698298/0.108904/-0.474021/0.821888/0.539285/-0.175317/-0.812159/-0.0888657/-0.14718/0.467893/0.296935/0.583658/0.32986/0.242613/-0.408842/0.100145/0.970214/0.368744/-0.526299/0.498662/-0.982079/0.194791/-0.259923/0.649892/-0.629074/-0.581702/0.329909/0.801961/0.229497/-0.388111/0.439849/-0.345923/0.546545/-0.068206/-0.739117/-0.717182/-0.582058/0.640918/0.709905/-0.445633/0.576373/0.742624/0.367501/0.57748/0.490243/-0.531531/0.557038/0.138427/0.543514/0.840674/0.965316/0.957014/0.824564/0.629508/0.393927/0.728723/-0.161945/0.821772/-0.934775/0.260742/-0.00746721/0.662421/-0.463401/0.13272/0.00807509/0.560623/-0.99645/0.0522128/-0.422886/0.259637/0.619023/-0.873272/0.616296/-0.17635/0.0852225/0.33379/0.00320446/-0.283416/0.897568/0.0192341/-0.353038/0.253427/0.849667/0.899866/-0.0436846/-0.135465/0.0595285/-0.902383/-0.74368/0.428404/-0.453953/-0.730529/0.520126/0.576803/0.693951/-0.0952262/0.36863/-0.57684/-0.319109/-0.08717/0.142483/0.607178/0.838182/-0.673163/0.145751/0.985964/-0.824906/-0.221474/0.300847/-0.316063/-0.123042/-0.582518/-0.182271/0.627611/0.281853/-0.126953/-0.898563/-0.431301/-0.545613/-0.271848/-0.391915/0.0264172/-0.62457/-0.320732/-0.504738/0.675129/0.593305/0.0704647/-0.0875915/-0.230084/0.971093/-0.832905/-0.667215/-0.778479/-0.635328/-0.46359/0.776806/0.116119/0.501681/0.800464/-0.431408/0.803162/-0.671829/-0.519431/0.494035/0.625384/0.622813/0.663927/-0.76249/-0.135764/0.859399/0.481194/0.531472/-0.56188/-0.325452/0.1765/0.161771/0.735729/-0.610438/0.364386/0.171197/-0.104654/0.987805/-0.639896/0.387111/0.139359/0.603234/-0.121285/-0.453021/-0.0683588/-0.111312/-0.146627/0.589324/-0.327455/-0.686906/0.832363/0.330239/-0.72984/0.557698/-0.707015/-0.345122/0.906229/0.0858779/-0.232416/-0.730465/0.845943/-0.240944/0.460015/-0.682992/0.107412/0.972246/0.7327/0.931722/-0.61448/-0.658695/0.731725/-0.226563/-0.548517/0.618181/0.837655/-0.828253/0.0954948/-0.477544/-0.436748/0.807791/0.593922/-0.451331/-0.414594/-0.9066/-0.559716/-0.227835/0.864394/0.544481/-0.930002/-0.54346/0.0678123/-0.32176/0.197997/0.365863/-0.0738024/-0.0492057/0.11682/-0.578631/0.547445/0.218089/-0.104818/0.822968/0.135441/-0.472471/-0.410547/0.53279/-0.880893/0.58797/0.0710474/-0.662774/0.678254/0.584745/0.104633/0.591389/-0.463288/0.753423/0.7668/-0.39789/0.656865/-0.0954515/0.202635/0.777614/0.765611/0.73688/0.0140812/0.817309/-0.443457/0.558313/0.541869/0.527882/-0.646116/0.92869/-0.29353/-0.479996/0.397541/0.539191/0.991337/0.666634/0.205461/0.083236/-0.731345/0.0055598/-0.226429/-0.201973/-0.566569/-0.322902/0.979055/0.971788/-0.719789/-0.114001/0.638621/0.132718/0.722326/0.889612/0.817222/-0.45429/-0.348678/0.993916/-0.987491/-0.806803/-0.64826/0.845621/-0.923929/0.726962/0.34/0.448322/0.396973/-0.943703/0.982695/-0.108721/-0.393197/-0.80902/0.723935/-0.81828/-0.830666/0.776797/-0.0663771/-0.401896/0.956685/-0.814927/-0.00381258/-0.341084/0.346874/0.458783/-0.195739/-0.643806/0.888967/0.251458/-0.85154/0.940484/-0.691786/0.0542443/0.557687/-0.60724/0.0700891/0.872914/-0.524076/0.652256/-0.86691/-0.814298/0.00191249/0.143219/-0.911015/0.0381629/-0.103342/-0.112109/-0.643705/-0.831424/0.226512/0.190737/0.0467518/-0.243644/0.336566/-0.253217/0.0762282/-0.872091/0.412554/0.038133/0.766778/0.797787/0.810108/0.0140871/-0.31264/-0.779682/0.832057/-0.887545/0.0937301/-0.423096/0.988839/-0.585439/0.520229/0.974066/-0.400638/0.206214/0.704797/-0.519565/-0.5749/0.537128/0.879116/-0.824644/0.900071/0.832506/-0.68916/-0.104175/0.302464/-0.500922/-0.0984455/0.684337/0.450158/0.0147061/-0.464054/-0.52079/-0.0537977/0.348079/0.664335/0.999875/0.898902/-0.160756/0.172799/-0.0488615/0.176924/0.341761/-0.784898/0.263479/0.370341/-0.392905/0.498896/0.40372/0.719933/-0.366472/0.476088/-0.432362/-0.44804/0.314241/-0.299183/0.265608/-0.954529/-0.749305/-0.0251935/0.297216/-0.347831/-0.407255/-0.262414/-0.700293/0.148662/0.568253/0.628574/0.265694/-0.179985/0.487444/-0.486394/-0.0726761/0.320031/0.0159315/-0.860101/0.719607/-0.046934/-0.379647/0.698333/0.0792296/-0.282592/-0.542824/-0.182909/0.985494/0.191681/0.248735/0.746281/-0.780297/-0.875508/0.41007/-0.713376/-0.189049/0.597287/0.602687/-0.643777/-0.341347/0.21265/0.766015/-0.805259/0.140967/-0.887515/0.0436639/0.781344/0.484323/0.418566/0.0283705/-0.829452/0.6624/0.511577/-0.0857234/0.895747/0.0162792/-0.24196/-0.746275/-0.164708/0.80661/-0.143694/0.909826/-0.906551/-0.463979/-0.0979797/-0.744141/-0.778007/-0.00665322/0.540125/-0.650677/0.57032/0.61605/0.0425008/-0.511103/0.283296/-0.593523/0.148054/-0.312272/-0.992157/0.499923/0.225504/0.0315845/0.817924/0.431452/0.720274/0.262983/-0.0510798/-0.743122/0.457845/-0.966679/-0.971062/-0.638234/-0.798236/0.052803/-0.540151/-0.322534/-0.828185/0.877283/-0.896764/-0.0244312/-0.629739/-0.0325023/-0.284869/0.173361/-0.316532/-0.00717745/-0.660582/-0.414294/0.960735/-0.934138/-0.0611223/0.716936/-0.551427/0.0700715/-0.358618/0.705094/0.523454/-0.300201/0.530397/0.376158/0.0821161/0.124816/-0.216955/-0.360982/0.980416/-0.141638/-0.503121/0.0405864/0.136397/0.43003/-0.491845/-0.44587/0.265686/-0.616769/-0.0444526/0.885188/-0.653013/0.815532/0.642876/0.811234/0.410199/0.212421/0.160743/-0.397853/-0.714695/0.125769/-0.201495/-0.534366/0.909069/0.723726/
-0.397912/0.295692/-0.301391/0.527934/0.991053/0.622967/0.207949/0.998546/0.567703/-0.614723/0.350014/0.687362/0.500385/-0.0362055/-0.506541/0.557798/0.914631/0.194995/-0.717491/-0.874991/0.0302292/0.0619323/0.895411/-0.825952/0.221983/0.863872/-0.911201/-0.562348/0.624825/-0.559265/0.428143/-0.205749/-0.029452/0.957565/-0.260246/0.0148495/-0.464221/-0.188201/0.713971/-0.742706/-0.655999/0.66082/0.461353/0.0187376/0.979886/0.79627/0.418156/-0.339557/0.983355/-0.622856/-0.457685/0.781196/-0.474515/0.792098/0.790109/-0.63633/-0.792565/-0.63487/-0.265616/-0.202135/0.675172/-0.974751/0.461793/0.153912/0.925958/0.786196/0.422275/-0.233198/0.213521/-0.53672/0.878155/0.516502/-0.452044/0.536838/-0.793316/-0.22502/0.147192/-0.272411/-0.402381/-0.884459/-0.747436/-0.979831/-0.175657/-0.260766/-0.69202/-0.779683/-0.131572/0.607687/-0.425182/0.373498/-0.662765/0.748573/0.0506396/-0.605129/-0.798534/-0.373181/-0.610886/-0.627923/-0.905735/-0.0413363/0.407261/-0.73701/-0.652512/0.534463/0.547882/-0.181617/0.494567/-0.587406/-0.252225/0.302483/-0.283619/-0.999512/-0.794694/-0.41523/-0.779272/0.0542941/-0.238151/-0.247623/-0.577366/0.989201/-0.419933/-0.142697/-0.518241/0.474506/0.0265218/-0.976573/-0.858896/0.217979/0.0955583/-0.0824032/0.870794/-0.394081/0.811094/-0.125845/0.714555/-0.630604/-0.400644/0.615332/0.646854/-0.589385/0.213711/-0.159352/-0.25546/-0.855314/-0.556887/-0.349164/0.497537/-0.328357/0.663213/-0.630077/0.4347/0.639367/-0.985024/0.406676/-0.827194/0.81859/0.801859/0.189162/0.208954/-0.120703/-0.961321/0.573945/-0.0768607/-0.417475/-0.00327694/0.279838/0.871081/0.146045/0.581663/0.00863992/-0.86034/-0.268435/-0.413666/-0.115177/0.788586/0.87925/0.351109/-0.950424/-0.306595/-0.998558/0.100698/0.859002/-0.668122/0.543471/0.5483/-0.343497/-0.295452/0.364425/-0.677252/-0.0483031/0.26162/-0.687954/-0.440742/0.316597/0.98364/-0.070035/0.921381/-0.348897/0.0329479/-0.00309517/0.630977/0.10374/0.709002/0.323111/-0.293667/0.390226/-0.878062/-0.702696/-0.10063/-0.0963984/0.0778117/0.194138/0.161837/-0.00598574/-0.377371/0.977264/-0.206604/0.195843/-0.390132/-0.847106/-0.165222/0.529755/0.417245/0.484482/0.689011/0.208741/0.244458/0.486863/0.147011/-0.481223/-0.203514/-0.708662/0.909321/0.159332/-0.161792/-0.482822/0.589936/0.640686/-0.586111/-0.190816/-0.470097/-0.830955/-0.0205502/-0.933063/0.986312/0.638463/0.083625/-0.775077/0.494959/-0.743489/0.0250988/-0.258256/-0.511286/0.811011/0.62249/-0.234843/-0.235726/-0.638945/-0.596672/0.9479/0.866158/0.450269/0.962105/0.448536/-0.0310712/0.047124/0.108376/0.114106/0.311698/-0.851147/-0.693731/-0.811379/0.765161/0.682431/0.987085/0.311768/0.0520898/-0.273286/0.564795/0.406449/-0.804988/0.572115/-0.58196/0.694866/-0.505886/0.883486/-0.676704/-0.982819/0.898478/0.097404/0.882324/-0.644409/0.408532/0.642971/-0.929894/-0.784421/0.457687/-0.715678/-0.125032/-0.930687/-0.820687/-0.0487045/0.911207/0.248728/0.603483/-0.824855/0.964323/0.95673/-0.240397/-0.35765/0.816313/0.586/0.992705/-0.907475/0.113267/0.766658/-0.553537/-0.681513/-0.175912/-0.432511/0.996029/-0.0813232/-0.889358/0.282321/-0.54495/-0.392695/0.753108/-0.691414/0.606709/-0.488373/-0.699482/-0.178455/-0.0272304/-0.754199/0.89436/-0.570131/-0.197429/-0.190772/-0.249808/-0.425289/-0.209679/0.477493/-0.0216003/0.60659/0.198778/-0.454786/-0.638787/0.456393/0.613198/-0.00680426/0.549256/-0.756216/-0.21082/-0.801634/-0.261835/-0.704919/-0.714952/-0.715861/0.88618/0.702649/0.251455/-0.182345/0.853254/0.559361/-0.82596/0.0955835/0.528506/0.063404/0.239418/0.435808/-0.748109/0.659735/0.131188/-0.664226/-0.330642/0.18346/-0.556268/-0.550341/-0.523194/-0.68702/0.602828/0.284788/0.337911/0.300518/0.518329/0.58322/-0.581041/0.446771/-0.888418/-0.61201/-0.522855/0.309156/-0.0100472/-0.864132/0.563876/-0.890827/-0.13328/0.593453/0.815434/0.0140449/0.817027/-0.436027/0.997411/-0.790251/-0.0628614/-0.748184/0.603209/-0.539522/-0.92676/0.19153/-0.41125/-0.0206036/0.498174/-0.716171/0.494391/0.317283/0.407117/0.0893981/-0.0184794/-0.532277/0.0241564/-0.0032219/-0.129067/0.113791/-0.373543/-0.837706/-0.822311/-0.244739/0.227666/-0.693887/0.651749/-0.894535/-0.584975/-0.338845/0.350666/0.784821/-0.266214/0.520435/-0.777643/-0.324584/-0.839997/-0.417542/0.407945/0.892659/-0.269766/-0.702389/-0.832972/0.230669/0.859139/-0.443676/-0.824037/-0.309352/-0.402446/-0.0377127/-0.85421/-0.874188/0.958841/0.867623/0.384476/0.940756/0.389729/0.478305/-0.537306/0.00966002/-0.146814/0.569208/0.159728/0.662804/0.227127/-0.480506/-0.306292/0.0179889/-0.213142/-0.55472/-0.580378/-0.362323/0.442617/-0.93014/-0.795263/-0.669066/0.471436/-0.0303079/-0.0937268/-0.81871/0.746772/-0.0483469/-0.94513/0.056708/0.837887/0.612898/-0.215521/-0.605932/0.080668/-0.45278/0.144576/0.275176/0.072625/0.892344/0.448657/-0.69877/0.114373/0.220202/-0.0849172/0.858067/-0.465298/-0.257854/0.427177/-0.888751/-0.501048/0.205866/0.429322/0.753327/0.620423/-0.25284/0.377096/0.697775/-0.805582/0.954375/0.970774/-0.189096/0.304187/-0.301159/-0.888583/-0.0565473/0.916011/-0.0953833/-0.716905/0.280056/-0.129583/-0.937787/-0.0769653/0.326511/-0.32917/-0.353212/-0.239186/0.289249/0.709702/0.319067/0.147142/0.359047/-0.22621/-0.243346/0.0891338/0.7867/-0.889042/0.891094/-0.258014/0.666285/0.755068/-0.185196/-0.35832/0.660936/-0.894705/0.632639/-0.893284/0.734335/-0.212139/-0.567815/0.57552/0.73445/-0.105358/-0.750765/-0.200507/-0.76712/-0.377281/-0.350576/-0.425806/-0.152976/0.687691/0.142789/-0.937243/0.370882/-0.829488/0.450016/-0.402019/-0.136508/0.980027/-0.0354497/-0.78554/0.80302/0.183942/-0.105201/0.618686/-0.735298/0.721342/-0.419978/0.0881457/-0.582118/0.341448/0.723329/0.824393/-0.991414/0.649528/0.681697/-0.823949/0.619008/-0.0358841/0.999259/-0.638651/0.291122/0.74167/0.0224171/-0.830302/-0.118076/0.696754/-0.324313/0.47705/-0.532257/0.715352/-0.993726/-0.885384/-0.43159/0.471915/0.375028/0.619705/-0.626756/0.113549/0.415878/-0.733433/-0.152755/0.169209/0.914727/-0.502169/0.439538/0.513783/0.425967/-0.750976/0.358421/0.952249/0.217491/0.509493/-0.8329/0.57227/-0.726216/-0.855419/-0.311452/0.359514/0.319038/-0.537332/-0.658086/-0.100737/0.792088/0.524435/0.181914/-0.570832/0.0277559/0.417853/-0.990271/-0.300821/0.284548/-0.932713/-0.930476/0.564872/0.678432/0.473031/0.182495/-0.594493/0.261132/0.0417315/-0.805699/0.120526/-0.489582/-0.771882/0.588817/0.74613/-0.869762/-0.383905/-0.00869186/-0.587586/-0.912916/0.310176/-0.876685/-0.442932/-0.354329/0.639264/-0.622362/0.539443/0.135116/-0.210883/-0.361324/0.295456/-0.391714/-0.780602/-0.0252263/-0.0407732/-0.0451113/0.64465/0.563456/0.934918/0.994574/-0.0651771/0.11243/-0.884211/0.735518/-0.996806/-0.575207/0.138671/0.0490036/0.397284/-0.839815/-0.772912/-0.331891/-0.133106/-0.479985/-0.285348/-0.1396/0.869696/0.456509/-0.961944/-0.162087/0.675919/0.987901/-0.976771/0.933632/-0.678296/-0.229584/-0.710033/-0.160902/0.364429/-0.545712/0.447324/0.510046/-0.372013/-0.283956/0.954177/0.311556/-0.870296/0.929752/0.336348/-0.995053/0.147302/-0.327989/-0.590629/-0.750216/0.933672/0.081821/0.720422/-0.321174/-0.0601674/0.718321/0.770242/-0.579648/-0.148694/0.894811/-0.910056/0.675792/0.029544/0.484121/0.573127/0.530343/-0.51227/0.175505/-0.680129/0.737374/0.967762/-0.828497/-0.552381/0.131949/-0.328811/-0.331764/0.0411971/0.40043/0.0299702/-0.291157/0.525344/-0.551/-0.650594/-0.535715/0.237689/0.845757/0.638386/-0.654563/0.761877/0.870734/0.42907/-0.615669/0.4553/0.225742/0.0506429/-0.844831/0.921188/0.405019/-0.843243/-0.378058/-0.00863052/
0.498171/0.758018/0.00240475/0.416615/0.0524796/0.0250614/-0.793376/-0.276013/-0.947291/0.878226/0.337398/0.647869/0.730809/0.704988/0.732562/0.170814/0.875729/0.38377/0.0207135/0.132127/0.657606/0.383587/0.942462/-0.0476299/-0.516509/-0.969001/-0.00182286/-0.636878/-0.0108694/-0.68171/0.494426/-0.177324/-0.280983/-0.490339/0.866425/-0.0106881/0.295647/0.889029/-0.266999/0.154104/0.0187209/0.633839/0.98447/0.0844202/0.903506/-0.787389/0.315436/-0.488517/-0.543399/-0.885806/0.280396/0.629253/-0.111798/0.905622/0.793835/-0.0183475/-0.366486/0.476269/0.65759/0.122141/0.791124/0.201/-0.182736/-0.591036/-0.552124/-0.209039/-0.165338/0.74259/0.143546/0.552149/0.0955311/0.281287/-0.0494644/0.0499096/-0.869081/0.472694/0.567376/-0.229144/-0.913109/0.0973258/0.655237/0.73069/0.741962/0.161464/-0.267309/-0.66766/0.639751/0.239719/0.307493/0.451725/-0.0992824/-0.598617/-0.805388/0.430469/0.641107/0.552293/0.00865162/-0.47319/0.287056/-0.380291/0.742058/0.215164/0.842373/-0.839118/-0.310355/0.353029/-0.382912/0.402909/-0.66397/0.756608/0.843133/0.957196/-0.406922/0.866795/0.22784/-0.828738/-0.0188122/-0.908273/-0.556448/-0.110089/0.650347/0.912335/0.11844/-0.434182/0.854171/-0.58417/-0.716189/-0.561288/0.23865/0.779567/0.541581/0.235494/-0.344688/-0.189608/0.731583/-0.849218/-0.818411/0.474312/-0.710796/0.150585/0.886838/-0.915264/-0.847991/-0.310447/-0.909995/0.0872859/0.2231/0.866984/-0.800026/0.8492/0.605829/0.850902/-0.194275/0.430181/-0.879396/-0.878948/-0.0612229/-0.923376/-0.0226055/-0.264643/0.87039/0.949068/-0.360561/0.246925/0.58358/0.273308/0.0451513/0.948314/0.314836/-0.545951/0.191223/-0.617247/0.755172/-0.564664/0.00629009/-0.719523/0.112181/0.549403/-0.166699/-0.539288/0.259708/-0.515468/-0.790976/0.257527/-0.0101231/-0.529937/0.739473/-0.159954/0.880002/0.0410563/-0.865879/0.338074/0.0694387/0.595306/-0.413727/0.727762/-0.509896/0.179207/-0.429662/-0.218624/-0.748347/-0.371643/-0.567847/-0.0172441/0.784957/-0.683119/-0.690881/0.918932/0.873996/-0.0210726/0.411213/-0.749546/0.918131/0.426603/0.746782/-0.396875/0.0511189/-0.845351/0.803531/0.0827559/-0.471976/0.828442/0.20904/-0.43164/-0.565463/0.267791/0.525796/0.298195/0.216693/-0.146682/0.099251/-0.557627/-0.818932/0.777888/0.974371/0.544974/0.10655/-0.233683/-0.742857/-0.57422/-0.10595/0.381474/-0.729354/0.429518/0.722122/0.455891/-0.57121/0.282336/0.526885/0.260918/0.955654/-0.327168/-0.71221/-0.106007/0.295528/-0.225668/-0.46508/-0.185802/-0.313284/0.731445/0.293567/0.985806/0.250473/0.753505/-0.371505/-0.946322/-0.987228/0.540489/-0.934697/-0.352001/0.628183/0.848088/-0.975944/-0.0804868/-0.64273/0.90205/0.732466/-0.336173/0.09232/-0.375109/-0.459293/0.669653/0.855475/-0.129452/-0.205608/-0.203815/-0.00621056/-0.0653774/-0.116346/-0.00344625/-0.676326/0.756725/0.347288/-0.531884/0.891957/-0.246032/-0.169585/-0.622746/-0.417565/-0.538436/0.779049/0.385595/0.680059/0.582769/-0.990047/0.049084/-0.246808/-0.44417/0.826737/0.968865/-0.34034/-0.677101/0.00592081/0.456168/0.253579/0.261058/-0.761406/0.64695/0.09865/0.46843/-0.961515/-0.625566/-0.730783/-0.548042/0.520481/-0.00725384/0.142907/0.0819232/0.295474/0.910348/0.656087/0.0185481/-0.496398/-0.843928/-0.645703/-0.604523/-0.221053/0.766529/-0.921494/0.70888/0.651343/0.515737/-0.965963/-0.82766/-0.0161952/-0.856276/0.440427/-0.372904/0.795574/-0.69318/0.840305/-0.563984/-0.718059/0.650815/-0.0560251/-0.982886/0.728281/-0.352874/0.956347/0.68555/0.540388/-0.556232/0.158303/0.532523/0.114396/0.659436/-0.799343/0.241675/-0.441149/-0.419079/-0.17123/-0.806372/0.998023/0.562778/-0.282212/0.199126/-0.258946/-0.0618681/-0.0454362/0.565156/-0.617595/0.255818/-0.554908/0.236294/-0.244572/-0.918277/0.0856677/0.20437/-0.063431/0.531988/-0.500659/-0.499082/-0.0632341/-0.774752/0.837609/-0.415622/0.496967/-0.91546/0.0125818/-0.177214/-0.210709/-0.0233124/0.226428/0.692193/0.789995/0.188222/0.472022/-0.452242/0.568408/-0.55993/-0.243019/0.93135/-0.28547/-0.912812/-0.320588/0.628239/0.382101/0.191849/0.46436/0.703874/0.00344998/-0.0161791/0.402163/0.843191/0.465894/-0.279564/-0.778809/0.164744/-0.341057/0.947758/-0.898879/-0.859589/-0.888318/-0.392143/0.128449/-0.559085/-0.329274/-0.53538/0.161687/0.822389/0.365134/-0.680866/-0.75243/-0.217693/0.362345/0.488628/0.861865/-0.448618/0.0755815/0.29903/0.150673/-0.148127/-0.169698/-0.771741/0.0926646/-0.991121/0.841751/-0.663117/0.125155/0.971587/-0.527093/0.50893/0.928132/-0.797803/-0.109583/-0.864392/-0.355809/-0.9641/-0.405179/0.873824/-0.343741/0.413224/-0.932366/-0.769239/-0.974606/-0.16588/0.049787/0.770377/0.0446474/0.889604/-0.282069/-0.167044/-0.372586/-0.94285/-0.446456/-0.641289/0.089868/-0.163882/0.966619/0.872195/0.599576/-0.791096/0.278925/-0.176813/-0.525544/-0.633752/-0.525764/0.520841/0.166056/0.873532/-0.728418/-0.570081/-0.63793/0.291972/-0.822091/-0.88345/0.0538674/0.720466/0.179978/0.544596/0.155319/0.316449/0.747393/0.396274/0.425227/0.896268/-0.583229/0.358506/0.353149/-0.849678/-0.0961713/0.410263/0.373729/0.986997/-0.452088/-0.662044/-0.842263/0.699865/-0.0385171/-0.240274/0.0378897/0.735817/0.877918/-0.831372/-0.85365/0.307257/0.397247/-0.735503/0.953741/-0.802274/-0.243513/0.29335/0.901749/0.380058/0.228847/0.498469/-0.507103/-0.184698/-0.868306/0.809958/-0.749746/0.791417/0.699302/0.232193/0.520385/-0.124805/-0.664207/0.867054/0.416726/-0.077159/-0.811253/-0.722291/0.849497/0.831617/0.180973/-0.847791/-0.905782/0.343335/-0.518426/0.825086/-0.666068/0.636146/0.496331/0.389265/0.943496/-0.720653/0.111182/0.381453/0.0444029/-0.882915/-0.652708/0.814009/0.937644/0.645615/-0.18818/0.448045/0.684123/0.0773154/-0.559698/-0.840891/-0.399059/-0.164026/0.0520356/0.0527734/0.225192/-0.751521/-0.875869/-0.919304/-0.549221/0.750887/-0.954118/-0.856343/-0.0043206/0.668492/-0.26817/-0.391175/-0.291309/0.661737/-0.624057/-0.751385/-0.725458/-0.556047/0.263217/0.521003/0.345909/-0.311662/-0.10435/0.187729/-0.80729/-0.747569/-0.319571/0.320098/-0.127198/-0.151672/0.0877746/-0.157997/-0.189667/0.54697/0.752129/-0.885501/-0.467795/0.130687/-0.308617/-0.820546/0.290448/-0.0729982/-0.0987951/0.94341/-0.815104/-0.832632/-0.599108/0.73484/0.66447/-0.25656/-0.00331366/0.307353/-0.189005/-0.363191/-0.805362/0.0190645/-0.0439696/0.334578/0.702471/-0.206728/-0.014551/0.629432/0.111555/0.82365/0.998082/-0.330723/0.182662/0.20547/-0.484094/-0.355497/-0.0332699/-0.631343/0.209876/-0.514498/0.64282/0.253024/-0.354523/-0.461753/-0.683693/-0.823348/0.200039/0.211931/0.694396/0.93557/-0.666259/-0.0926692/-0.959168/0.1349/0.0719435/-0.811149/0.885929/-0.885479/0.600119/0.522206/0.0451511/-0.464994/-0.559052/0.555806/-0.0447407/0.0586581/-0.472824/-0.00161239/0.816959/0.185584/-0.94827/0.425632/-0.400837/-0.860451/0.423433/-0.581593/0.730979/0.978556/-0.532039/-0.520412/0.614943/0.0648854/-0.439661/-0.966863/-0.548073/0.903381/-0.262775/0.795933/0.871289/0.98224/0.237843/0.303203/0.898642/-0.875959/0.119833/-0.527545/-0.809815/-0.604042/-0.146901/-0.958954/0.865336/-0.295752/-0.700306/-0.049437/-0.916235/0.746648/0.913338/0.415208/0.191878/0.719614/0.503006/-0.0311092/-0.931276/-0.0652521/-0.748107/0.557778/0.530704/-0.522738/0.30783/-0.415855/0.600634/0.800088/-0.925281/0.786497/0.657498/0.569168/0.0108852/0.948104/0.788807/-0.528719/-0.185826/0.821566/0.0663602/-0.684661/0.901589/-0.997957/-0.656186/-0.51039/-0.124248/-0.235391/-0.218978/-0.35729/-0.968325/-0.629874/-0.284572/-0.80956/-0.280522/-0.726597/0.0891865/0.957715/0.309212/0.922997/0.807897/0.319299/0.460124/-0.690161/0.470079/
-0.621711/0.905764/-0.825978/-0.220066/-0.653478/0.98899/-0.0390988/0.865722/0.187973/-0.74587/0.157312/-0.049049/-0.366587/0.775411/0.33932/0.951098/-0.890159/-0.906127/0.730974/-0.515508/-0.14813/0.378571/0.635481/0.537068/0.499901/-0.160603/0.746343/-0.215066/-0.614317/-0.818818/0.130365/-0.950191/0.144941/0.0489597/0.893993/-0.662553/0.474468/0.357381/0.472303/-0.0164546/-0.551872/0.688112/-0.905/-0.324487/0.380619/-0.882808/0.722501/-0.858568/0.0193274/0.886099/0.488534/0.343505/-0.852381/0.0484637/0.529075/0.171026/0.438841/-0.407422/0.455749/-0.222312/-0.402227/-0.0676505/0.944902/0.692017/0.758251/0.665834/0.989112/0.0549299/-0.417679/0.963085/-0.0269528/0.429689/-0.100949/0.262821/0.509714/-0.745076/-0.864688/-0.0980567/-0.870582/-0.0227082/0.419072/-0.501574/-0.159709/-0.229611/0.930699/0.254542/0.0799318/-0.587048/0.430963/0.283364/0.280011/-0.174609/-0.750859/-0.0922561/0.384607/-0.281421/-0.972733/0.145356/0.258524/0.433333/-0.347249/-0.0971101/0.155357/0.0233645/0.114429/0.811588/-0.0878367/-0.316376/-0.289645/-0.610463/0.662828/0.0144416/0.719464/0.0275066/0.303429/-0.405905/-0.0191342/-0.0907234/-0.670722/0.224638/-0.790075/-0.503507/0.352128/0.126866/0.363126/-0.925826/-0.440847/0.635763/-0.661072/0.118625/-0.00337793/-0.348138/-0.861837/0.165811/-0.760537/-0.423265/0.391629/0.621936/0.375845/0.664938/-0.386003/0.447182/-0.222692/-0.517995/0.878773/0.625149/0.249697/-0.456573/0.0486456/0.875625/-0.875808/0.982316/-0.394251/-0.584088/0.302752/-0.121737/0.362515/-0.167586/0.620151/-0.85635/0.744484/0.198261/-0.626063/-0.0509054/-0.165632/0.460228/0.377504/0.634237/-0.372533/0.83285/-0.321239/-0.389542/-0.983956/-0.806745/0.738841/0.77066/0.352797/0.220822/0.917687/-0.555302/0.855896/0.650879/-0.344184/-0.117778/-0.42901/0.312578/0.462601/-0.374483/0.243157/-0.659545/0.46658/0.566267/0.907303/-0.218392/-0.425024/0.351799/0.685789/0.0531149/0.63035/0.697588/0.182795/0.162354/-0.073087/-0.330612/0.173192/0.292614/-0.775741/0.733195/0.359984/0.914296/0.990555/0.752469/1.00097/-0.272672/-0.669436/0.324456/-0.969533/-0.342854/0.896319/-0.757693/0.630207/0.379178/0.686294/0.172922/0.296108/0.685365/0.942285/0.974596/0.769205/0.176501/0.243943/0.238172/-0.503973/-0.162177/-0.270439/0.47513/-0.65232/0.877613/-0.226936/-0.813474/0.152789/-0.238262/-0.549056/0.850971/-0.534675/0.975524/0.910669/-0.548367/0.132279/-0.804388/-0.704015/-0.477897/-0.0232419/-0.626009/0.661785/-0.417297/0.392028/0.776823/0.536377/0.556783/-0.928959/-0.183243/0.0264534/0.238883/-0.200846/-0.984175/0.311162/0.374028/0.618417/0.0811179/-0.19719/-0.070239/-0.874063/-0.815146/-0.0277187/0.744528/-0.506048/0.782682/0.19815/0.239762/-0.326915/-0.467451/-0.48193/0.931995/0.0121944/0.370903/-0.166732/-0.911398/-0.125984/-0.431011/0.633425/0.738335/0.533674/0.98008/-0.208243/0.786405/-0.0840932/-0.327949/0.882285/0.240803/-0.194884/-0.77714/0.0904011/0.265321/0.0235766/0.884746/-0.0826436/0.722261/-0.963203/-0.552115/0.607635/-0.0767198/0.172906/-0.624857/0.935364/-0.217635/-0.979928/-0.465991/-0.673397/0.306862/0.0311884/-0.159223/-0.662375/-0.676558/0.344822/-0.647162/-0.272302/0.77653/0.526921/-0.60693/-0.904212/-0.611266/0.0504739/-0.221155/0.172384/0.862938/-0.59991/-0.686308/-0.781598/-0.778881/-0.644537/-0.914485/0.521264/-0.538322/0.881873/0.374763/0.805751/-0.169236/0.906376/0.14462/0.366063/-0.226435/-0.90826/0.266267/-0.499015/-0.884675/-0.295212/-0.170558/0.761807/0.102022/0.778718/-0.538328/-0.926656/-0.54405/0.143363/-0.49718/-0.287942/0.223933/-0.486518/0.623811/-0.126306/0.00856757/-0.280567/0.719593/-0.652507/0.348905/-0.738574/-0.604941/0.0666285/-0.628538/-0.649592/0.687045/-0.880842/0.16627/-0.10099/-0.782405/-0.218172/0.542728/-0.080811/-0.0367048/0.112063/-0.647764/-0.975573/-0.462143/0.384559/0.212226/-0.101078/0.0315902/0.770213/0.216424/0.50676/-0.937841/-0.163869/0.597088/0.777936/0.526919/-0.0486889/-0.440026/0.0262327/-0.830226/0.900945/-0.979717/0.696309/0.381105/0.10429/0.865289/-0.753998/0.48211/-0.582991/-0.440591/0.989039/0.783179/0.489256/-0.404792/-0.0447391/-0.25013/0.242146/0.235945/-0.338528/0.579228/-0.343181/0.605781/0.0175926/-0.386752/-0.298864/0.639601/-0.259001/0.932557/-0.67563/0.915596/0.419369/0.658837/-0.499201/0.450828/0.701072/0.116484/-0.758955/0.160295/0.0829784/0.618429/-0.176019/0.602307/0.40858/0.30954/0.701209/-0.3161/-0.366655/-0.631017/-0.325469/0.750852/0.329276/-0.877121/-0.159057/0.167683/-0.0423976/0.333628/0.868194/-0.0450406/-0.85035/-0.0152671/0.427498/-0.0855492/-0.951818/-0.486475/0.0401466/0.695038/-0.488164/-0.565815/0.256955/-0.0198584/-0.324558/-0.347377/0.239953/0.249303/-0.797246/0.567567/0.608913/-0.426013/0.843074/0.51833/-0.518709/0.424998/0.644755/-0.102272/-0.53431/0.74049/-0.89329/-0.922557/-0.304649/-0.856616/-0.514696/0.221228/0.5501/-0.476541/0.774205/0.0601522/0.916006/0.46912/-0.856741/-0.571521/0.892936/0.948232/0.930399/0.623544/-0.00415736/-0.771357/0.41831/0.186219/0.815201/-0.873575/-0.998898/0.142647/0.0183286/0.816955/0.855705/0.792117/-0.786664/-0.929172/0.721443/0.672715/0.912366/0.0928799/-0.968345/-0.982508/0.885874/-0.873804/-0.137656/-0.152118/0.227144/-0.777357/0.0241833/-0.813106/-0.583645/0.483423/0.59796/-0.325706/0.718864/0.504919/-0.325036/0.525368/0.915341/-0.595268/-0.787733/0.878666/0.26152/0.0788673/-0.353259/-0.430381/-0.405908/-0.120635/0.494808/0.240317/0.705507/-0.125587/-0.0246646/-0.875207/0.829132/-0.525005/0.801609/-0.792318/0.194049/0.337957/0.410219/-0.330896/0.0351398/-0.245999/0.474269/0.0065604/-0.0305581/-0.0518543/0.915549/-0.871204/-0.487338/-0.247032/0.719611/0.831896/-0.768864/-0.31331/0.206675/-0.405225/-0.921226/-0.717383/0.210436/0.864/0.349123/0.936356/-0.0996332/0.368844/0.742499/-0.791012/-0.193655/0.168182/-0.814194/-0.421162/0.915689/-0.296223/0.991232/0.239779/0.93257/0.270437/0.00807354/0.448677/0.789316/-0.802925/-0.658261/0.615371/0.544088/0.493752/0.462444/-0.904753/0.64941/0.936739/-0.0317628/-0.159147/-0.346639/-0.915425/0.890684/0.0232476/-0.738602/0.304984/0.98392/0.032851/-0.596346/0.237061/-0.00796422/-0.784011/-0.806247/-0.0344859/0.203062/0.451781/0.571462/-0.856615/-0.79893/0.381839/-0.425191/-0.180781/-0.416251/-0.80659/-0.717881/-0.649632/-0.134267/0.712984/0.0203931/0.069708/-0.709493/0.553759/0.163285/-0.329416/0.962904/0.942631/0.126144/-0.50474/-0.102485/-0.0444344/-0.550887/-0.467671/0.126819/-0.829482/-0.63227/-0.979698/0.584453/0.907903/-0.874252/0.445046/-0.175418/0.506111/0.705442/0.235522/-0.557655/-0.97694/0.961063/0.927725/0.0878922/0.103537/-0.403317/-0.320481/0.00478056/0.861924/0.837261/0.380558/-0.709355/-0.707343/-0.23798/0.995602/0.478922/0.330286/0.821477/0.594895/-0.62245/0.48505/0.231954/0.44303/-0.00692005/-0.730776/0.287666/-0.539619/0.800991/0.762081/0.751969/-0.884995/0.190957/0.518386/-0.775616/-0.481516/0.893111/0.202177/-0.552338/-0.189432/0.948381/-0.0573237/0.990734/0.579607/0.147839/0.21438/0.860617/0.376438/-0.24073/0.0578816/0.816502/0.940914/-0.0587715/0.224616/-0.903055/0.359827/-0.402367/-0.559571/-0.68686/-0.0425681/0.556186/-0.422635/0.384067/-0.950972/-0.943599/0.987428/-0.245055/-0.631777/-0.273758/0.896697/0.749752/-0.929815/0.593674/-0.0621335/0.0266652/0.433854/-0.149464/-0.0358536/-0.591325/-0.392696/-0.0492225/0.716604/-0.0428517/-0.208209/0.633432/0.0881296/-0.805279/-0.327043/-0.606838/0.874379/-0.316818/-0.753778/-0.750638/0.0250586/-0.840475/0.129578/-0.18012/0.721732/0.144163/0.951485/-0.383691/-0.702878/0.726792/-0.811033/0.960227/0.536043/-0.726137/
0.0771658/0.925486/0.647823/-0.0345318/-0.375315/0.0881046/0.774413/-0.432417/0.364939/-0.472306/-0.0485356/0.262079/0.765293/0.274304/0.225346/-0.617705/0.22431/-0.0151139/-0.0187844/0.290862/0.51266/0.277939/-0.679731/-0.234426/0.00611891/0.840519/0.604488/-0.364579/0.523858/0.48631/-0.58122/-0.558386/-0.794389/0.710462/0.73812/-0.374751/-0.342189/0.86794/-0.513495/-0.268952/-0.267228/0.734462/0.160641/-0.0444307/-0.686871/-0.166757/-0.68545/-0.367909/0.523757/-0.901539/0.612002/0.483463/-0.470402/0.292855/0.0193661/-0.514271/0.650759/-0.687927/0.00342766/-0.391342/0.743997/0.635407/-0.304441/-0.0757381/0.755787/0.939779/0.241336/0.835229/-0.209212/0.815465/-0.672524/0.789109/0.80848/0.595087/0.900812/-0.0965455/-0.875365/0.642027/0.082417/-0.122258/0.73886/-0.579194/-0.901711/0.940498/0.950136/0.938449/0.508366/0.121872/0.476364/0.892158/-0.419697/-0.244226/0.737886/0.7149/-0.0510956/-0.0915469/-0.682392/0.619732/-0.133891/-0.0425489/-0.568954/0.306838/-0.482489/0.637045/-0.77273/-0.269944/0.505114/-0.295411/0.967717/0.187369/-0.437148/0.800175/0.541286/-0.610458/0.0276097/0.100062/0.197908/-0.727976/0.385048/0.572212/-0.191626/-0.946596/-0.246878/-0.290006/-0.164465/-0.599578/-0.587627/0.94911/-0.783876/0.31187/-0.727508/-0.92447/0.893229/0.335176/0.87066/-0.175536/-0.759093/-0.596748/-0.793862/-0.475778/-0.403307/-0.373891/0.00766981/-0.914481/-0.998362/-0.409923/-0.620037/0.533055/-0.218883/-0.578411/0.292942/-0.571261/-0.88885/0.0935173/0.752414/0.0307193/0.0163007/0.619085/0.7171/-0.867624/-0.649686/0.599732/0.874514/0.309821/-0.830633/0.973921/-0.569571/-0.696859/-0.102062/0.651706/-0.775201/-0.471965/0.972921/0.282457/0.70335/0.33022/0.072765/-0.567293/-0.664135/0.399773/-0.304682/0.584831/-0.162396/0.102489/0.161071/0.894496/0.287657/-0.978272/-0.961178/0.231872/0.309523/-0.530262/0.144964/0.689242/0.558215/0.28131/-0.0203861/-0.629507/-0.0173452/0.650832/0.461092/0.298645/0.0924697/-0.526462/-0.363046/-0.212676/-0.631402/0.389094/0.922416/-0.0607227/-0.4843/0.723188/0.981986/-0.912012/0.205963/0.0531722/0.240849/-0.7762/-0.366456/-0.224484/-0.250789/-0.29804/0.396846/0.198504/0.25993/0.644321/-0.764148/0.537353/0.0142646/0.920295/-0.159193/-0.566635/0.750423/0.602427/-0.499254/0.0155977/0.576215/-0.0477771/0.522643/-0.34717/-0.371841/-0.518739/-0.877104/-1.00165/-0.87049/0.36134/-0.522131/0.727249/-0.624751/0.0696306/-0.249977/0.845843/0.0835403/0.0610905/0.795625/-0.465974/0.963888/0.634881/-0.663465/-0.0479843/-0.51108/0.0662/-0.654831/-0.324515/0.568241/-0.570549/-0.219683/0.69595/-0.168171/-0.514125/0.881511/0.603329/-0.356797/-0.839845/-0.561909/0.0114232/-0.71349/0.790025/0.148865/0.175035/-0.181771/0.978198/0.732459/0.267171/0.852854/0.437046/-0.876861/-0.237596/0.358696/-0.350277/0.986108/-0.00178992/-0.746335/-0.128271/0.0493916/0.648527/-0.475963/0.0862892/0.434926/0.657903/-0.0512559/-0.896013/0.781838/0.420507/0.413375/-0.16933/-0.848971/-0.0937085/-0.95835/-0.986912/-0.821567/0.227029/-0.785116/-0.523488/-0.145295/-0.473661/0.55216/0.0616898/0.743234/-0.102973/-0.532037/0.705627/0.545501/0.246849/0.18276/0.874158/-0.963852/-0.360215/0.0299062/-0.0762151/0.539317/-0.743096/-0.0895655/0.80149/0.745305/0.79182/0.121649/0.546893/-0.389649/0.726892/-0.0536836/-0.232398/0.373812/-0.493916/-0.562047/0.101748/0.4015/0.840889/0.267386/-0.637915/0.131605/-0.823346/-0.415854/0.516515/0.57742/0.873499/-0.847848/-0.89582/-0.777283/0.635687/-0.337995/-0.00823105/-0.172697/-0.256527/0.543984/0.744882/-0.708654/-0.959098/-0.39178/-0.164215/-0.213561/-0.655398/-0.0994918/0.867156/0.284472/-0.585201/-0.48407/0.448229/-0.433262/-0.3991/-0.34301/0.537645/-0.229494/-0.0791869/0.760576/-0.615905/-0.654253/0.908814/-0.906862/0.382312/0.750276/0.0912805/0.151332/-0.565077/0.935724/0.72087/0.0324398/0.129107/-0.460383/-0.673743/-0.544371/-0.0802419/-0.684597/-0.679002/0.313472/0.853244/0.238719/0.693001/0.737229/0.457284/-0.344784/0.12408/0.562928/0.308122/0.506843/-0.219258/0.383179/0.420899/0.451724/0.274157/-0.240243/0.243663/-0.653954/0.681852/-0.878544/0.264017/-0.235934/-0.547776/0.497059/-0.14605/-0.954873/-0.0163116/0.604453/0.173743/0.181303/-0.146281/-0.799836/0.235335/-0.527677/0.998882/-0.373655/-0.503126/0.812259/-0.123271/0.45423/0.196672/-0.518559/0.720259/-0.61274/-0.324538/-0.519814/0.0117916/-0.826992/0.60107/0.230359/-0.499975/0.687416/-0.0509259/-0.924719/-0.541361/-0.124409/0.771762/0.606336/-0.899256/0.196343/0.937802/-0.932239/0.0392416/0.237715/0.620396/-0.693114/0.235491/0.734889/-0.716122/0.388828/-0.946818/0.837314/0.74336/-0.474588/0.652121/0.609312/-0.971475/0.568959/-0.220071/0.297586/-0.56168/-0.362671/-0.708271/-0.761381/-0.675063/0.18795/0.331105/-0.234486/0.729481/0.975353/-0.264004/-0.981282/-0.502566/0.330611/0.555143/-0.302274/-0.697956/0.420681/0.415706/0.762963/-0.882472/0.205502/-0.586713/0.305644/0.401395/0.445142/-0.674706/0.064837/0.00979826/0.908291/-0.460578/-0.716504/0.652379/-0.0967126/-0.869825/-0.0680297/-0.716168/-0.0392179/-0.37534/-0.942402/0.726796/-0.882333/-0.0693648/0.812693/0.52728/0.803478/0.277119/-0.464534/0.576262/-0.804639/-0.478468/0.752229/0.689858/-0.476141/-0.947907/-0.361625/0.671834/0.257551/0.109363/0.205252/0.797056/0.181522/-0.915261/-0.716146/0.700139/-0.98868/-0.370481/0.423787/-0.0528604/0.260188/-0.0178679/-0.123128/-0.778164/0.186662/-0.679521/-0.703168/-0.143873/-0.0380203/-0.455542/0.213405/0.908806/-0.983261/-0.82151/-0.0210366/0.63913/0.846655/-0.596066/-0.812072/0.59265/0.756465/0.212838/0.332714/-0.845799/-0.12413/-0.621917/-0.372682/-0.838872/0.0945029/0.260743/0.132789/0.788082/-0.342787/0.847825/-0.606728/0.725829/-0.948415/-0.224875/0.276827/0.639311/-0.542326/-0.714649/0.129352/-0.845712/0.702811/0.502905/-0.131197/-0.555837/-0.688345/0.393191/0.0153041/-0.339399/0.400041/-0.816029/-0.473651/-0.365108/-0.961161/-0.526975/-0.272266/-0.909025/-0.99922/0.131286/0.520929/-0.744694/0.116159/-0.277022/0.415964/-0.319796/-0.12801/0.170886/-0.957668/0.756194/-0.706623/0.262339/0.98559/0.320957/-0.244152/0.885661/-0.783876/-0.253127/0.643462/-0.177741/0.112699/-0.675375/-0.457921/-0.190887/-0.196913/0.0847877/-0.763162/-0.463092/0.810315/0.957737/0.688137/-0.543288/0.195233/0.324016/0.918356/0.437499/0.179841/-0.707648/-0.279564/-0.734821/-0.583569/-0.590553/-0.993316/-0.196493/-0.736582/0.151792/-0.377854/0.872293/-0.597195/-0.13305/-0.223771/-0.873155/0.844195/-0.876831/-0.889955/0.51467/0.0566426/-0.00765127/-0.596565/-0.520569/0.630373/-0.920004/0.763216/0.78801/-0.0745216/-0.825912/-0.989935/0.500362/-0.884238/0.381905/0.683462/0.048382/-0.336972/0.950225/0.280272/-0.368423/-0.790246/-0.571718/0.213752/0.389548/0.286671/0.241757/-0.795822/0.612085/-0.685332/-0.368054/0.111705/-0.584689/0.562928/-0.570083/-0.267669/-0.490592/0.962797/0.737776/0.857029/0.830858/-0.569925/0.521553/0.886222/-0.419916/0.926701/-0.615609/-0.142009/0.373994/0.304456/0.191286/-0.551521/0.839165/-0.0957852/0.122441/-0.134694/0.199768/-0.494592/-0.612902/0.954906/-0.896713/-0.976876/-0.033746/-0.748921/0.952586/0.133626/-0.191527/-0.991213/0.739495/0.768218/-0.52576/-0.414063/0.859111/-0.909562/0.994706/0.0168395/-0.928347/-0.607553/0.941075/0.651484/-0.502427/-0.291189/-0.016789/-0.173584/0.568737/0.769647/-0.548846/-0.45708/-0.14218/0.3865/-0.100155/0.693832/-0.759837/-0.587762/-0.514225/-0.584354/0.763183/0.822776/0.403353/-0.84834/-0.0453704/-0.539851/0.731109/-0.247614/0.345967/0.666415/0.43611/-0.303944/-0.382921/0.240105/-0.551462/-0.419768/0.954298/0.876439/
0.528998/0.863944/0.312843/-0.052282/-0.702783/0.321368/-0.775926/-0.989008/-0.251479/-0.60072/-0.302375/-0.0162277/-0.739303/0.532379/-0.305924/0.335381/0.743724/-0.228939/0.225026/0.0150644/-0.812345/0.922189/-0.775456/0.912651/0.930187/-0.355326/0.0438176/0.442008/0.834397/-0.282199/-0.910479/-0.427359/-0.614672/-0.861459/-0.617405/-0.752191/-0.118109/0.858171/-0.866245/0.753803/-0.82705/-0.246009/-0.696338/0.631541/0.300258/0.315967/0.383345/0.588641/-0.782147/0.73177/-0.954525/0.518481/-0.0698735/0.975041/-0.481434/0.545267/0.295279/0.746305/-0.856954/-0.817544/-0.544864/-0.518799/-0.387864/-0.0115577/-0.361995/-0.874244/0.163854/0.702171/-0.948814/0.0192402/-0.470184/-0.0178077/-0.020952/-0.795774/0.687962/-0.993481/0.899633/0.589975/0.612374/-0.33079/-0.621675/-0.191044/-0.880195/0.556997/-0.544017/0.711464/-0.432225/-0.408815/0.719721/0.0215765/0.433241/0.748515/-0.558612/0.487441/0.20832/0.996798/-0.255621/-0.626627/0.914432/0.738902/-0.751542/0.741657/-0.516865/0.494507/0.110304/0.370626/0.675351/0.418241/-0.933537/-0.519263/0.669106/-0.340452/0.021871/-0.414258/-0.439291/0.752927/0.643334/0.836427/-0.614582/-0.518002/0.0829831/0.475694/-0.612543/-0.741507/-0.199177/0.836493/-0.113165/0.424141/0.153323/0.457059/-0.706559/0.00193481/0.141536/0.167515/0.612222/0.426406/0.457639/0.815871/-0.580485/-0.25668/-0.0159271/0.312837/-0.142309/0.0866863/-0.161934/0.913269/0.0570054/0.84282/0.199331/0.0395036/-0.64026/0.555303/0.726107/0.329616/0.911629/-0.972008/0.750262/0.555922/-0.886226/0.628732/0.109458/0.272063/0.154558/0.297378/0.0576252/0.302478/0.138127/-0.95426/-0.246302/0.405778/-0.0839559/0.888892/0.80799/-0.943474/-0.0112062/-0.149087/0.973447/-0.871098/0.881363/-0.571906/0.86125/0.448861/0.697761/-0.956236/0.833219/-0.219887/-0.47892/-0.959047/0.406645/-0.624575/-0.735966/-0.546103/-0.780249/-0.307449/-0.811811/-0.233012/-0.238017/-0.355787/0.286481/0.81721/-0.0487631/0.880107/0.859436/-0.39279/-0.296058/0.00988178/0.372429/0.344215/0.293789/-0.260437/0.903844/-0.428381/-0.927724/-0.481366/-0.540659/0.344788/0.376813/-0.372011/0.636166/-0.787753/-0.650697/0.686813/-0.65322/-0.747298/0.169428/-0.42201/-0.723958/0.451857/0.494524/-0.706487/0.985266/-0.693168/-0.185917/0.282229/0.917284/-0.956417/-0.797289/0.742483/0.162931/0.511679/0.516975/0.784563/-0.649327/-0.809996/0.280222/-0.806384/0.0239814/0.749783/0.605293/0.418705/-0.65142/-0.493418/-0.884441/-0.797954/0.820052/-0.401166/0.569835/0.561524/-0.483723/0.589362/0.452095/0.951998/0.505446/0.93838/0.328452/-0.14244/-0.759508/0.389652/0.886804/-0.640232/0.976584/-0.832541/0.227572/-0.670385/0.972761/0.25118/0.403506/-0.972734/0.722487/0.764403/-0.682076/0.355296/-0.52299/0.814583/-0.992133/-0.278639/0.900833/-0.252852/0.544408/0.76475/0.0925013/0.854042/0.122655/0.474096/-0.829568/0.744033/-0.0924962/0.00203293/0.933259/0.0876689/0.995919/-0.395781/-0.873304/-0.81343/-0.367597/-0.0536646/0.617663/0.901766/-0.0204614/0.10609/-0.999125/0.566621/-0.136429/-0.509895/-0.514523/-0.958678/-0.386584/0.0214698/0.25689/0.564126/-0.943572/0.844262/0.119326/-0.427395/-0.318241/-0.460681/0.506391/0.191549/-0.653317/-0.9723/0.00974783/-0.111358/0.29124/0.671985/0.837426/0.534683/0.420219/0.620235/0.286015/0.925182/0.824126/-0.459167/-0.429086/-0.480714/-0.110766/0.784865/-0.65985/0.00264614/-0.803977/0.84887/-0.330929/0.0899262/0.971399/-0.551524/0.142312/-0.638371/-0.380465/-0.112248/-0.27332/-0.633873/-0.0119153/-0.29196/0.350739/0.714316/-0.486744/-0.714272/-0.758496/-0.307349/0.313926/0.692684/-0.369812/0.859448/-0.829912/0.14525/-0.534849/-0.0939984/-0.0518987/0.538005/-0.966691/-0.534097/0.600493/0.710185/0.368959/-0.320899/0.709064/0.324116/-0.0272517/-0.706903/0.582058/0.282851/0.369531/0.620953/0.356679/0.708096/0.957394/-0.691327/0.743243/0.0236056/-0.822475/-0.731042/-0.378647/0.333425/-0.481905/0.874593/0.169342/0.931527/-0.720745/0.295142/-0.793841/0.335779/0.645756/-0.793819/-0.314535/0.415451/-0.622745/-0.641185/0.316295/-0.816473/-0.30001/-0.267366/0.377554/-0.444254/-0.587066/0.826766/0.98098/-0.242578/0.148759/0.416882/0.988819/-0.151011/0.835528/-0.708101/-0.918422/0.631059/-0.482272/-0.55888/0.677729/-0.302835/-0.0120531/-0.793306/0.7365/0.0951954/-0.39013/-0.19369/-0.218829/-0.359961/-0.391618/0.0953537/0.609257/-0.219924/-0.328685/0.869855/0.877241/0.963819/0.84578/-0.610187/-0.460367/-0.933255/0.971166/1.00028/-0.337301/0.0820612/-0.236637/-0.157054/0.121855/-0.842978/-0.6708/0.927167/0.287463/0.286771/-0.145331/-0.18206/0.945091/-0.245641/-0.73983/-0.325584/-0.0899223/0.67567/-0.0619333/0.484731/0.0290841/0.448892/-0.686112/0.458827/0.459519/-0.572061/0.287421/0.757452/0.984741/0.0302992/0.85975/0.134946/0.207053/-0.0929668/0.674503/0.339585/-0.839551/-0.405332/0.553609/0.710396/-0.125573/-0.0291608/-0.847771/-0.478088/0.776963/0.412388/0.937152/-0.60623/-0.427411/-0.248472/0.439294/0.0753499/0.0944783/0.496316/-0.0302436/-0.105509/-0.719987/0.27826/0.629109/-0.490316/0.535385/0.69366/-0.918763/-0.384637/0.820543/-0.465213/0.0496467/-0.355766/-0.147032/-0.994184/0.536494/0.779864/-0.831965/-0.839598/0.667163/-0.212201/0.630638/0.599873/0.227377/-0.818057/0.860805/0.654611/0.980706/0.754078/-0.819556/-0.738592/-0.467054/0.760536/-0.150065/0.194526/0.291525/-0.498662/0.88068/-0.707905/0.233238/0.588582/0.421926/-0.22712/-0.850912/0.586385/-0.622213/0.470468/0.693717/0.319048/0.56556/0.199561/-0.000350066/-0.196893/0.365897/0.154353/0.677785/0.345498/0.514089/-0.321059/0.243017/-0.425552/0.00512178/0.919892/-0.434232/-0.969671/0.75481/0.656154/-0.487617/0.79994/0.602579/0.395535/0.694435/-0.710044/0.296766/-0.2536/-0.701714/-0.0234292/-0.999253/0.113855/-0.737312/0.394481/1.00067/-0.550771/-0.798809/-0.0367343/0.507679/0.202033/0.537324/0.515668/-0.563935/-0.813422/-0.702096/0.190659/-0.400253/-0.0970019/0.784645/0.14024/0.0295559/0.861669/-0.262658/-0.49779/-0.353825/-0.734965/-0.671067/0.0123161/0.881343/-0.406977/0.133952/-0.915637/0.503211/-0.0943864/0.967686/-0.622572/0.943579/-0.926328/0.631281/0.318702/0.42015/-0.716431/0.76225/-0.722477/-0.289291/0.180497/0.211239/-0.186671/-0.203107/-0.610324/0.0355468/-0.564985/0.299432/0.549958/-0.852213/0.741733/-0.424063/0.586724/0.040853/0.520809/-0.870273/0.865972/-0.116843/0.771344/-0.665188/0.19544/-0.639529/0.123838/0.0140729/-0.618763/-0.925893/0.232872/-0.910658/0.191104/-0.216087/0.371678/0.109206/-0.924898/0.802674/0.54447/0.913972/-0.880804/0.32011/0.0291092/0.950362/-0.803698/0.0456319/0.10405/-0.336061/-0.615876/-0.949626/-0.866376/-0.229758/-0.406358/0.324062/-0.576065/-0.445004/-0.938121/-0.654933/0.0213255/-0.929494/-0.163926/0.839393/-0.597665/0.921251/-0.260854/0.124604/0.22499/-0.596379/0.666419/0.500788/0.724552/-0.0598545/0.525343/0.237447/-0.940816/-0.26866/-0.982425/0.234831/-0.833403/-0.425282/0.405095/0.395084/0.0253907/-0.968736/0.453693/0.127459/-0.982629/0.244688/0.368152/-0.635009/0.0223003/0.997267/-0.537326/-0.533093/0.310479/0.222883/0.00136885/-0.99366/-0.43866/0.116152/-0.282623/-0.158257/-0.108566/-0.97547/0.969667/0.959535/0.694082/-0.977501/0.731427/0.914675/0.934102/-0.551849/0.980432/0.0313961/-0.465699/0.963051/-0.0264861/0.848122/0.257879/-0.383466/0.606853/-0.731829/0.146091/-0.650883/0.604141/-0.202596/0.963095/0.741062/-0.977927/-0.0169958/0.352243/0.155354/-0.966508/-0.0943078/0.969629/0.561254/0.999094/-0.221161/0.943503/-0.544503/0.539028/-0.558284/0.912715/-0.00411244/0.88221/-0.69067/-0.0868279/0.683581/0.952285/-0.939179/-0.776592/-0.175054/
0.400791/0.0934811/-0.863642/0.771135/0.473309/0.89766/0.969729/0.24228/0.000609627/0.245993/0.405339/0.530421/0.782659/0.154832/0.265251/0.0708972/-0.430671/-0.279446/-0.644271/-0.269727/0.695906/0.0854125/-0.472066/-0.0054802/-0.105793/-0.0588933/0.180555/0.583589/0.384197/-0.809221/-0.575568/0.428692/-0.967247/-0.615116/-0.340748/-0.96772/-0.489556/-0.0339826/0.7822/0.349406/0.472232/0.74855/0.785165/0.168276/0.104194/-0.994546/0.621025/-0.523235/-0.129805/0.168606/-0.51963/0.258274/0.585126/0.0118801/-0.331421/-0.197546/-0.161433/0.798219/-0.334944/0.602895/0.750747/0.490987/0.863811/-0.58183/0.0662383/-0.443038/-0.602663/0.606169/0.576959/-0.643449/-0.293282/0.336523/-0.87701/-0.652272/-0.000901137/0.541965/-0.85053/0.889292/-0.438899/0.203002/0.687421/-0.759049/-0.0162023/-0.312829/0.289531/0.139293/-0.901629/0.296199/-0.704594/-0.219585/0.711445/-0.592325/0.208117/-0.979378/0.950479/-0.105316/-0.451005/-0.72369/0.866217/-0.891847/-0.791099/0.176816/-0.0586112/-0.96733/0.75895/-0.100341/0.595098/-0.790318/0.262176/0.48479/0.105905/-0.190097/-0.968138/0.506356/0.327141/-0.110863/0.752719/0.957727/0.728589/0.959179/-0.947308/0.655796/0.554579/-0.425973/0.106725/0.731017/0.413534/0.847869/-0.451809/0.185288/0.646381/-0.0306488/0.414476/-0.551762/0.550034/0.443599/-0.650308/-0.769012/0.0122904/0.356227/-0.894502/0.0975944/0.253307/0.335315/-0.334025/0.469801/-0.250219/-0.998078/0.368241/-0.640146/-0.112554/0.949335/0.545871/-0.346749/-0.766056/0.201126/0.455287/0.567007/0.177073/0.602751/-0.799015/0.870858/0.736425/0.861884/-0.102705/0.870211/0.302076/0.266226/0.452505/-0.740172/-0.111301/-0.293272/0.818675/0.738481/0.58379/-0.366382/-0.318101/-0.362283/-0.352924/0.173895/-0.919013/0.308703/-0.65348/0.794389/-0.656113/0.342452/0.191042/-0.843999/-0.54687/0.0810062/0.649226/-0.675778/-0.345943/0.904774/-0.779669/0.182716/0.902075/-0.826841/0.845629/0.20443/-0.287521/-0.730946/-0.755019/0.387535/-0.974083/0.0682784/0.0979516/-0.996356/0.308267/-0.677086/0.967551/-0.631274/-0.317676/-0.242371/0.0728609/-0.100282/0.834563/-0.124736/0.775037/0.0896951/-0.591388/0.332177/-0.337535/0.922857/0.465903/0.425444/0.101362/-0.98955/-0.930064/-0.842694/-0.91127/0.983334/0.409678/0.109434/0.297462/-0.267836/-0.523996/0.695924/-0.814165/0.557988/0.52953/0.00198892/-0.0528792/0.205491/0.783119/0.50141/-0.627573/-0.803192/-0.877768/-0.422323/0.436799/-0.690473/-0.774474/-0.578338/-0.206966/-0.442841/0.302894/-0.0828814/-0.903525/0.0110786/-0.241519/0.850288/0.0627418/-0.506235/0.438177/0.20198/0.573966/-0.735983/0.963592/0.63827/-0.206197/-0.199214/0.860392/0.892046/0.159374/0.362589/0.571692/-0.202289/0.996626/0.207826/0.935735/0.889817/0.979704/-0.981105/0.163473/0.992753/0.323248/-0.234016/-0.949942/0.0438858/-0.209055/-0.324141/-0.0677536/-0.204323/-0.922703/0.760972/0.993318/-0.799005/-0.759836/-0.647057/-0.16938/0.573387/-0.305963/-0.575663/-0.102663/0.29981/-0.412573/-0.988979/0.232363/-0.671565/0.730478/0.654235/-0.000340271/-0.969441/0.0897479/-0.886401/0.210416/0.360138/-0.904164/-0.620718/-0.867125/0.245434/0.335679/0.0434176/0.733051/-0.431743/-0.427097/0.76925/0.658008/-0.614422/0.808039/-0.978615/-0.882498/0.930313/0.836121/-0.174106/-0.205875/-0.136897/0.988607/-0.636867/0.545266/0.109334/-0.638068/0.731848/-0.714311/-0.871128/0.301291/0.561446/-0.338097/-0.0377065/-0.635875/0.490578/0.118662/0.569051/0.446888/0.914861/-0.224436/0.57667/-0.612816/-0.48053/-0.851079/0.772481/0.0916252/-0.203539/-0.884629/0.0323528/-0.772658/0.912431/0.518669/0.638349/-0.264065/-0.75936/0.171086/-0.165573/0.277994/0.301035/-0.412343/-0.086585/-0.664844/0.113705/-0.862854/-0.161503/-0.830359/-0.468306/0.722737/-0.992546/-0.0935431/-0.819476/0.0433943/0.360363/-0.593986/0.431857/0.21468/0.119825/-0.919933/-0.580157/0.233225/0.688374/-0.508486/0.169701/-0.284466/0.351616/-0.688703/0.771738/-0.225669/0.249451/0.416176/0.952178/0.279621/-0.925278/0.71818/0.23957/-0.697508/0.433694/-0.108301/0.205829/-0.596313/-0.125269/-0.302057/0.429557/-0.435673/-0.353059/0.820245/-0.166187/0.951728/-0.436961/0.688579/-0.30025/-0.640414/0.0482204/0.738952/0.445247/-0.306701/0.641095/-0.693918/0.199077/-0.189565/-0.249349/0.961616/-0.679745/0.00221379/0.502137/-0.302026/0.0455606/0.829841/-0.301537/-0.891909/0.0204613/-0.107496/-0.677601/-0.574687/-0.417747/0.615462/-0.894083/0.494706/0.195203/-0.289736/-0.495231/0.413163/-0.543106/-0.409319/-0.3329/0.81308/0.97995/-0.338514/0.116419/0.802256/0.629294/-0.169323/0.375838/0.0998922/0.233947/-0.979948/0.315598/0.911635/-0.125632/0.499881/-0.5003/-0.782172/-0.0171363/-0.778918/-0.110209/-0.00879195/-0.965321/-0.652843/0.51446/-0.380848/-0.949108/0.691971/-0.519757/-0.160674/-0.568369/-0.714566/0.781918/0.951665/-0.860321/-0.969904/-0.275512/0.669952/0.024585/-0.504971/0.166438/0.617994/0.515448/-0.858858/-0.819608/0.65092/0.787682/0.474146/-0.438286/0.214969/-0.588348/0.267798/-0.371668/0.196506/-0.27243/0.871947/-0.300006/0.414771/0.2601/-0.57849/-0.84947/0.972645/-0.303555/0.304833/-0.982467/-0.359781/0.785941/0.71243/-0.934745/0.522876/-0.278633/-0.992579/-0.275078/0.172312/0.686149/0.0791184/0.886877/0.763871/-0.75084/0.492842/0.101256/0.732324/-0.439404/0.900866/-0.743808/-0.76527/0.0286518/0.955385/-0.865028/-0.899259/0.220264/-0.0804543/-0.270311/0.213171/-0.261897/0.617706/0.574003/0.302439/0.929768/0.619162/0.254547/0.702032/-0.544699/-0.510426/-0.436798/0.942955/-0.45727/-0.219452/-0.254693/0.17394/0.351034/0.536972/0.721144/-0.256735/0.143532/-0.253452/0.859809/-0.86069/-0.10315/0.847759/-0.249269/0.749696/0.430656/0.408038/-0.164085/0.211058/-0.812876/0.000378132/0.355354/-0.974708/0.457959/0.0447584/-0.418617/-0.911002/0.785155/-0.44341/-0.898394/-0.520824/-0.654829/-0.762453/0.285333/0.69672/0.61408/0.0390614/-0.550449/-0.817599/-0.837894/-0.896321/0.389378/0.107114/0.471363/-0.861259/0.438701/-0.443949/0.526137/0.776712/0.205759/-0.0977574/0.556291/0.962783/-0.505522/0.754313/-0.216185/-0.973689/-0.603223/0.27866/-0.936453/-0.941336/-0.270886/0.258261/0.0947522/0.800324/0.584385/-0.663067/-0.763873/-0.615156/0.493661/0.463943/-0.945475/-0.0414341/-0.313227/0.426254/0.018941/0.341475/-0.829919/-0.472294/-0.0163643/0.234445/-0.83326/0.241677/0.11403/0.278245/-0.0441552/-0.628576/0.124363/-0.893839/0.848608/0.684275/-0.314212/0.102422/-0.432969/-0.0798234/0.366434/0.337755/0.776158/0.848551/0.711533/-0.490981/0.965858/-0.177953/-0.902932/0.423593/-0.676849/0.0307984/0.60205/-0.517343/0.781322/0.961608/0.937759/-0.563471/-0.0340735/0.185377/0.736737/-0.0549036/0.18526/0.410034/-0.486522/-0.863036/0.560287/0.345445/-0.0754684/0.98124/-0.304997/-0.428294/-0.0698046/0.73968/-0.0919971/-0.693493/0.463993/0.326197/0.386044/0.229319/0.24499/0.953398/-0.498946/-0.748866/-0.920514/0.241045/0.156354/0.637704/0.775385/0.802037/0.435486/-0.0662791/-0.442163/0.490711/0.447758/-0.417323/0.688613/-0.828845/0.0297196/0.610366/0.271652/-0.231009/0.209977/0.667276/0.915175/-0.660519/0.664931/-0.504431/0.0174131/-0.0423984/-0.812087/-0.955472/-0.665529/0.370384/0.962278/0.935037/-0.897713/-0.0295487/-0.826468/-0.56213/0.270443/-0.679093/0.454486/0.529504/-0.657056/0.774068/-0.313478/-0.653646/-0.0467792/0.979072/0.583673/-0.3636/0.973806/0.764773/-0.4675/0.725199/0.416773/0.703756/0.0292483/-0.423219/0.959978/0.347589/-0.0698955/-0.734324/0.217085/0.539843/-0.860197/0.663337/0.699849/0.358309/0.101076/0.791124/0.429022/0.565255/0.236544/-0.404857/-0.437564/-0.13283/-0.471416/0.903665/-0.109051/-0.808235/
0.764842/0.704749/0.718182/0.493142/0.237816/0.971602/-0.278372/-0.603316/0.0626111/0.304363/-0.562984/-0.0747449/-0.237116/0.791274/0.943196/0.290469/-0.0873328/0.198122/-0.159148/-0.807977/0.329275/0.12077/-0.214455/-0.338043/0.506223/0.0977777/-0.650171/0.576216/0.467304/-0.0194898/0.434366/0.392815/0.0399219/0.972113/0.301394/-0.461536/0.975541/-0.0674144/0.97977/0.998696/-0.917966/-0.258753/-0.861757/0.463344/-0.565844/-0.332125/-0.764933/-0.647807/0.395067/-0.626698/0.693754/0.906355/-0.718817/0.836449/0.194132/0.776959/0.357709/0.0139665/0.734423/-0.557754/-0.161081/0.789393/-0.579682/-0.455755/0.930392/0.204297/0.748364/0.636316/-0.846877/-0.89312/0.0251566/0.0482504/0.0426621/-0.699436/-0.928/-0.141109/0.976316/0.254028/-0.947868/-0.177164/-0.316278/-0.587946/0.313137/0.890164/0.988883/0.149598/0.286183/-0.0854028/-0.89792/0.638847/0.912578/-0.184575/-0.959686/0.695997/-0.634283/0.922705/-0.553989/-0.565266/0.253084/0.904623/0.684431/0.506429/0.899239/0.314721/0.138893/-0.537999/-0.145047/0.986705/0.680007/0.6498/0.761239/0.158485/-0.339997/-0.33316/0.591002/-0.537487/0.291349/-0.599183/0.985891/-0.399529/-0.529092/-0.24528/-0.942379/0.651608/0.595948/-0.969528/-0.367061/0.386359/-0.775479/-0.365078/0.212584/0.134414/0.969045/-0.375196/0.860485/-0.0473515/-0.73703/0.891566/0.438188/0.748032/0.171911/-0.69217/0.711513/-0.728567/-0.100734/-0.304853/-0.706583/-0.965649/-0.745872/-0.531822/0.440673/0.478012/-0.596191/-0.257734/-0.936637/-0.51244/-0.421094/0.424768/-0.277179/-0.19955/0.0138474/-0.796838/0.532907/-0.884974/-0.805964/-0.645296/-0.64808/0.0737158/0.942264/0.636799/0.814492/0.391483/-0.544708/-0.150139/0.118674/-0.663956/0.244781/0.692358/0.419688/0.688844/-0.685874/-0.170276/0.166371/0.40129/-0.457873/0.428015/0.758079/0.426521/-0.0620752/0.325275/0.510716/-0.853303/0.197831/-0.630538/-0.650766/-0.892125/0.0512085/0.661712/-0.495591/0.588419/-0.78445/0.394906/-0.233523/0.745992/-0.490654/-0.881444/-0.947758/-0.877708/-0.258158/-0.145721/-0.156633/-0.0626259/0.16729/-0.587516/-0.50508/0.819234/0.766752/-0.569857/0.62187/0.201468/0.845196/-0.288898/-0.96649/0.755041/-0.0234502/-0.126761/-0.454212/-0.190014/-0.730512/0.924902/-0.346945/-0.595902/-0.476243/-0.825337/0.0239743/0.991873/-0.184079/0.552993/0.134915/0.875487/0.660417/-0.382623/0.386626/-0.659662/0.457334/0.871664/-0.837174/0.312425/-0.612354/0.639667/-0.0979546/0.160196/0.41341/0.188229/-0.437378/0.603009/-0.696591/0.620757/0.860024/0.187792/0.046702/-0.928805/0.709458/-0.267114/-0.185777/-0.00932612/-0.918113/-0.657756/0.34245/0.108677/0.339519/0.76631/0.534985/-0.492838/0.393879/-0.383352/-0.351428/-0.0954012/-0.462168/0.778487/0.0330368/-0.750571/-0.844771/-0.679796/-0.372948/0.236768/0.834658/-0.646385/0.946511/0.542747/0.566335/-0.66484/-0.976305/0.994018/-0.773038/0.0366299/0.791851/0.10772/-0.643584/-0.294055/0.978497/-0.824413/0.42771/0.534692/0.0152692/-0.555701/-0.0109036/-0.791577/-0.0330437/0.635163/-0.811616/0.522653/-0.883359/-0.423609/0.392383/0.925999/0.513913/0.551351/0.450879/-0.458906/-0.340085/-0.411226/0.971041/-0.383298/0.247351/-0.878393/-0.875641/0.445271/-0.635867/0.574162/0.419535/0.41389/-0.232659/0.978343/-0.0809058/0.677298/-0.655974/-0.961679/-0.945019/-0.114613/-0.490406/0.290548/-0.30477/0.810383/-0.656213/0.559233/-0.481745/0.619019/-0.94657/-0.426909/0.339988/0.0311851/0.765296/-0.416761/-0.952477/-0.532536/0.742759/0.0427839/0.255617/0.852382/-0.400584/0.799495/0.304585/-0.398683/-0.659203/0.77635/0.105336/0.931088/-0.592693/-0.306221/0.609579/-0.0519496/0.195856/0.414903/0.299563/0.811742/0.996808/0.69269/0.153971/0.540113/0.67224/0.56612/-0.201899/0.875515/0.537349/0.265185/-0.796104/-0.143262/0.963589/0.206151/-0.942468/0.41356/0.697332/0.051445/0.64736/0.701648/-0.33403/0.299131/0.50367/-0.6403/0.781542/-0.487216/0.964797/0.625575/0.157115/0.762803/0.929031/0.106054/-0.0827345/0.347949/0.290629/-0.111074/-0.159572/0.97816/-0.827707/-0.133076/-0.375162/0.795969/0.354577/-0.163326/0.979238/0.0551239/0.537661/-0.729634/-0.383274/-0.232492/0.260982/-0.473853/-0.0631137/0.742526/-0.0429543/-0.859424/0.672832/0.918828/0.0706912/-0.340589/0.357284/0.1605/-0.729452/0.545207/0.900081/0.178653/-0.305707/0.908073/0.976401/0.0222491/0.123701/-0.490619/0.162087/0.203294/-0.996381/-0.201652/-0.260594/0.413962/0.0635239/-0.80187/0.0657459/-0.599679/0.405969/0.263345/-0.983319/0.630334/0.308858/0.683947/0.439182/-0.658185/-0.658697/0.838308/0.983384/-0.855654/0.840098/0.263919/-0.106684/-0.44308/-0.201152/-0.640233/-0.404227/0.15663/0.520215/-0.304701/0.489153/0.392354/0.154494/0.896587/0.643418/-0.985753/-0.730538/-0.642121/-0.979434/-0.714361/0.0718981/0.618371/-0.910296/-0.514667/0.605647/-0.108359/0.0525715/0.501361/0.918564/0.500509/-0.719349/-0.963223/0.439517/0.971508/0.139762/0.978941/-0.885122/-0.0603667/0.522793/-0.106182/-0.896345/0.653305/-0.447315/0.161251/0.471679/-0.239995/-0.875619/-0.523699/0.663085/-0.882646/-0.92811/-0.295513/0.534622/-0.055853/-0.916182/0.0744784/0.507162/0.155537/-0.817793/-0.451786/0.0962005/0.871453/0.511388/0.895514/0.929261/0.464707/-0.0196195/-0.529692/0.210051/-0.962091/0.229797/0.774837/0.956913/-0.584877/-0.265212/0.287672/0.274406/-0.90835/-0.240873/-0.364827/-0.728555/-0.169196/0.0547159/-0.697395/0.432238/0.869193/-0.234272/-0.728375/-0.798699/0.354051/0.526879/-0.744346/-0.211073/0.942319/0.264934/0.467981/0.220169/0.167343/-0.0797603/-0.520064/0.914534/0.367493/0.961255/-0.304503/0.057964/-0.557317/-0.721469/-0.958863/-0.860108/-0.378806/-0.555816/-0.0853332/-0.274346/0.406395/-0.146626/-0.93514/-0.0775867/0.0534779/0.802434/0.49999/-0.658084/0.422913/0.939013/0.706304/0.0964271/-0.33457/-0.949491/0.0237142/0.807154/0.713194/-0.866336/0.184062/-0.268748/-0.0981733/-0.0248325/-0.471839/-0.684295/-0.94582/0.87916/-0.71237/-0.58598/0.841811/-0.410919/0.661064/0.775063/0.490659/0.498943/-0.258648/0.932877/0.708492/0.84604/-0.684886/-0.583265/-0.928129/0.665583/0.62983/0.945191/0.680581/-0.0229395/-0.601481/-0.83297/0.853047/0.179483/0.862081/0.71109/0.790141/0.71562/-0.949175/-0.696409/0.262521/-0.945873/-0.0986834/-0.260253/-0.0563728/0.541905/-0.196649/0.997542/-0.925119/0.814699/0.55384/0.791504/0.420917/-0.726051/0.926855/-0.271448/-0.124508/0.377008/0.876064/-0.729581/-0.678293/-0.528103/-0.290352/0.525705/0.241198/-0.424508/-0.322738/0.761943/-0.320986/-0.376802/0.144663/-0.200839/0.559653/0.091442/0.866324/0.419574/-0.555953/0.286002/-0.882407/-0.0536861/-0.494404/0.212535/0.0964532/0.62451/-0.279175/0.939105/-0.482649/0.059054/0.296441/-0.189015/-0.855806/0.989423/0.078459/-0.0359503/0.117576/0.50914/0.860144/-0.0776822/-0.937947/0.121583/-0.559804/-0.622145/-0.399357/0.0655416/-0.716742/0.23064/-0.885165/-0.105861/-0.484659/-0.780731/-0.65237/-0.322575/-0.1213/-0.569399/-0.616697/0.800524/-0.0321232/0.00878145/-0.398937/-0.74067/0.0828654/-0.558991/-0.195098/0.359226/0.91655/0.936579/-0.643878/0.479202/-0.0601693/0.734112/0.213496/0.231889/-0.592733/0.0190959/0.94948/-0.388168/-0.0214241/-0.6957/0.783401/0.43752/-0.330068/-0.936444/-0.91363/0.622949/-0.0972481/-0.44904/0.982559/-0.135268/0.558823/0.154932/-0.0514707/0.955293/-0.349186/-0.726374/-0.132384/-0.96585/0.957872/0.950987/-0.759691/-0.126807/0.75403/0.975578/0.545266/0.283977/0.805739/0.0489612/0.891661/0.139186/-0.69592/-0.32036/-0.292335/0.733708/-0.571168/0.386426/0.664672/-0.862968/0.0970031/0.331118/-0.905168/0.838941/0.0877632/-0.964569/0.485991/0.0494371/0.889756/0.127279/
0.118255/-0.487242/0.923801/0.322502/0.298016/0.752912/0.192245/-0.935504/0.977077/-0.262778/-0.517431/-0.469282/0.778004/-0.0895918/0.229854/-0.85075/-0.55328/-0.980629/0.569964/-0.608027/0.892155/0.454798/-0.217564/-0.598264/0.976636/0.316665/0.191816/-0.144311/0.572721/-0.28021/0.515255/-0.109524/-0.776849/-0.50923/-0.629936/0.664205/-0.702188/0.323812/0.304984/-0.140608/0.797726/-0.629548/-0.828043/-0.926742/0.238903/-0.771921/0.341575/0.864504/-0.278454/0.0458706/0.90346/0.336965/-0.658454/-0.634388/-0.154758/0.984605/0.250794/-0.910586/-0.211786/0.506552/-0.386134/0.235215/-0.74786/0.749471/0.59158/0.620571/-0.185312/-0.676698/0.513335/-0.667999/0.870699/-0.210095/0.95624/-0.320183/-0.813266/0.015877/-0.803694/0.881483/0.881367/0.377926/-0.877474/0.136895/0.801897/-0.519869/0.567282/0.311804/0.49709/0.597164/0.51116/0.934627/0.180876/-0.366333/0.983496/0.10333/-0.156904/-0.0526524/-0.486871/-0.417955/0.621833/0.548179/-0.812894/0.0503881/-0.532015/0.372437/0.610499/-0.382981/-0.749257/0.704489/-0.533346/-0.678078/-0.48943/0.14658/-0.422348/-0.406934/0.654686/-0.709282/0.755784/-0.354827/0.0339064/-0.788546/0.886207/0.0584954/0.620854/0.0713057/-0.107463/-0.368062/0.593286/0.310756/0.52158/0.303975/-0.711151/-0.0947222/0.904512/0.0971432/-0.894009/-0.182331/0.705975/0.492053/-0.340545/0.465504/-0.281884/0.375122/0.670182/-0.515439/0.174382/-0.00148388/-0.914071/-0.160321/-0.424593/-0.604388/-0.921549/0.368806/-0.244024/0.397653/-0.817262/0.0429508/-0.421107/0.488793/-0.379996/0.044642/-0.828667/-0.461898/-0.0359846/0.0174538/0.705298/-0.902568/0.11064/-0.480029/0.148845/-0.363309/-0.14003/-0.0894331/0.0248781/-0.659078/-0.472726/0.42697/0.735633/-0.318872/0.574666/0.0774023/0.412885/-0.78275/-0.822018/0.461494/0.0937773/0.968993/-0.00148025/0.459007/0.626466/-0.530454/-0.397295/-0.242023/-0.221643/-0.0141807/-0.909149/-0.0661224/0.681322/0.974535/0.945482/-0.315474/0.624497/-0.863951/0.32128/-0.651666/-0.0644691/0.850626/0.10169/0.565496/0.558874/-0.918133/-0.234098/-0.210264/0.213547/0.89256/0.413563/-0.749897/-0.426681/-0.98618/-0.963537/-0.184821/-0.71693/-0.294583/0.168883/0.400868/-0.618956/-0.792886/-0.0636347/-0.241514/-0.367441/-0.740751/-0.165637/0.108333/-0.626524/0.341761/0.75812/-0.913605/-0.750406/-0.0694484/-0.634827/-0.27373/0.532491/-0.169653/-0.260648/-0.686565/-0.792035/0.627468/0.0758446/-0.415469/-0.0667607/0.395342/0.279558/0.516198/-0.259029/0.496268/0.770459/0.805516/-0.898331/0.331266/0.279669/-0.707568/-0.867313/0.409655/-0.144159/0.528835/0.597724/0.0279482/-0.633374/-0.807326/0.235213/0.611611/-0.506092/0.348098/-0.678593/0.139047/0.913004/-0.896075/-0.289507/0.242254/0.639786/0.937151/0.692003/0.486695/-0.117054/0.551632/0.399147/0.952424/-0.293122/0.0894422/-0.0295378/0.465432/-0.364333/-0.410424/-0.260476/0.609079/0.664167/0.651761/-0.26339/-0.411042/0.463501/-0.0819712/-0.853318/-0.822916/-0.517411/-0.341969/0.431766/0.59387/0.177913/0.201861/0.684421/-0.936693/-0.991774/-0.824574/0.592729/-0.942441/-0.303966/-0.950174/0.644246/0.685994/-0.464025/-0.949581/-0.84486/0.829011/0.106691/0.267645/-0.7243/-0.166764/0.0611947/0.517514/-0.706653/0.955963/-0.211426/0.132456/0.0345097/0.0611583/-0.0593084/-0.854381/0.422734/0.894603/-0.405203/-0.258828/-0.728854/-0.243708/0.183597/0.423062/0.0206212/0.696949/-0.944886/-0.0243141/0.308789/-0.908737/-0.0427687/0.71106/0.453026/0.977238/0.121967/0.498011/-0.0320306/0.901225/-0.866096/0.370418/0.626346/-0.448151/-0.0492751/-0.16931/0.405682/0.29174/-0.7269/0.967918/-0.109361/0.410537/0.62259/-0.761662/0.186038/0.344969/-0.606348/0.071643/-0.265334/0.486064/-0.123472/-0.704252/0.739866/-0.166972/-0.658016/-0.445573/0.802671/-0.611143/-0.729262/-0.171327/-0.958637/0.0193972/-0.0853701/-0.815375/-0.00506051/0.947957/0.318799/0.145268/0.774451/0.839902/0.726186/-0.203917/-0.379347/-0.70271/-0.602008/0.411485/0.619887/-0.0426806/-0.882458/0.684434/0.539405/-0.0111616/0.969487/-0.357435/-0.260107/-0.136761/-0.484336/-0.510289/-0.719259/-0.834737/0.537252/-0.402907/0.340601/0.485338/-0.929164/-0.373398/-0.348386/-0.527298/-0.384886/-0.454087/-0.453914/-0.761022/0.133536/-0.961553/-0.144884/-0.727248/0.478601/0.763049/-0.847168/-0.76238/-0.311442/-0.555163/-0.823397/-0.838811/0.219045/0.412318/0.626726/0.490453/0.925799/-0.0988986/-0.188072/-0.926109/0.89883/-0.93844/-0.89575/0.0285893/0.533766/0.719184/0.305049/0.0975762/-0.913276/-0.567439/-0.849139/-0.829276/-0.413695/0.240012/-0.471073/-0.167066/0.659007/-0.404419/0.839511/-0.379837/-0.131921/-0.485846/0.985016/-0.0664356/-0.796464/-0.164919/0.201942/0.0360185/-0.623788/0.536046/-0.864297/0.428891/0.870944/0.206998/-0.371445/-0.225129/0.279681/-0.422266/-0.780888/-0.791326/-0.636324/0.824396/0.431796/-0.567832/-0.705308/-0.822689/0.0382984/0.286443/-0.7699/0.877017/0.654398/-0.6357/-0.392807/0.0933922/-0.35743/0.679662/-0.892175/0.181389/-0.182057/0.378017/0.782809/0.0529011/-0.18249/-0.56387/-0.724864/-0.770442/-0.766475/-0.56948/-0.439105/-0.0366871/-0.242785/0.408072/-0.315954/0.174715/-0.350098/0.434101/0.278387/-0.750832/-0.309149/-0.204471/-0.586643/0.294121/-0.708813/0.984691/-0.262962/-0.306356/0.305946/-0.329766/0.505417/-0.78776/-0.410708/-0.694416/-0.869409/0.0177879/-0.538775/0.725426/0.804149/0.990554/-0.123432/0.212823/0.277818/-0.342379/0.419823/0.158974/0.79277/-0.739149/0.613537/-0.566527/0.369027/0.234904/0.0382304/0.538099/-0.16287/0.819954/-0.653374/-0.848756/-0.515931/-0.984672/0.963645/-0.748104/0.639119/-0.468491/-0.264899/0.145037/-0.837987/-0.327988/0.503755/-0.138591/0.38257/-0.0281616/0.480675/0.872719/-0.494217/-0.620087/-0.193021/-0.300608/-0.315141/-0.570224/0.24132/-0.137974/-0.933105/-0.706242/0.183686/-0.816729/-0.766186/0.597107/0.0731752/-0.604717/0.0629595/0.158645/0.65646/-0.663189/-0.303244/-0.533687/0.879051/-0.485645/-0.319518/-0.797767/0.676134/-0.259044/0.289619/-0.353314/-0.197483/0.903501/-0.854948/0.881247/-0.87366/0.388663/0.267402/0.224702/0.540132/-0.0720233/-0.780905/0.524696/-0.408385/0.0312567/-0.416778/0.230923/0.641088/0.418826/0.839262/-0.633812/-0.235456/0.465264/0.0516977/-0.387621/0.696221/0.615739/0.439676/-0.353517/0.440371/-0.677983/-0.856521/0.453774/0.583285/-0.72611/0.27664/-0.62671/0.238602/-0.66252/-0.205351/-0.593415/-0.473363/0.129146/0.892499/-0.734562/0.234803/-0.660466/0.542977/0.475762/-0.87002/0.402386/0.39782/-0.462248/0.169406/0.22833/-0.941672/-0.708367/0.444664/-0.547831/0.597267/0.27351/0.876831/0.898518/-0.612318/0.57565/-0.229017/-0.555988/0.0621141/0.836385/-0.402271/0.386642/-0.234316/-0.37435/-0.932693/0.0658203/-0.678679/-0.628867/-0.89/-0.446187/0.373195/-0.206651/0.174885/0.448995/-0.302659/-0.869608/0.469062/-0.507283/0.0704661/0.32291/-0.854412/-0.100881/0.490428/0.576348/0.212755/-0.98809/0.510913/0.710614/-0.341865/0.374021/0.00354253/-0.767844/0.942739/-0.596567/0.0790664/-0.839672/-0.350337/-0.124949/-0.0617635/0.0816648/0.485197/0.486535/-0.940187/0.240643/0.447237/0.676737/-0.0910852/-0.868327/0.0364363/0.384711/-0.163791/-0.831744/0.870278/0.735578/0.844755/-0.199736/-0.944242/0.135388/-0.54209/-0.971527/-0.546686/-0.154701/-0.0580112/-0.994658/0.777268/-0.458448/0.857169/0.453211/-0.890972/-0.584773/-0.279782/-0.295849/-0.337301/0.980642/-0.347852/-0.349546/-0.813111/0.0359464/0.151762/0.659972/0.149572/-0.136/0.240181/0.728697/-0.783762/-0.683151/0.281268/-0.733979/0.018052/-0.599283/-0.150544/-0.189681/0.0383566/0.658889/-0.0530285/0.750185/0.359399/0.417269/-0.955604/-0.83455/-0.275302/0.99207/-0.279828/0.924566/-0.816806/
