-0.999984/-0.736924/0.511211/-0.0826997/0.0655345/-0.562081/-0.905911/0.357727/0.358592/0.869386/-0.232996/0.0388327/0.661931/-0.930855/-0.893077/0.0594003/0.342299/-0.984603/-0.233175/-0.866316/-0.165028/0.373545/0.177953/0.860873/0.692334/0.0538576/-0.81607/0.307838/-0.168001/0.402383/0.820623/0.524296/-0.475107/-0.905184/0.472129/-0.343563/0.265424/0.512792/0.982304/-0.269135/-0.505582/0.965185/0.444849/0.506097/0.302407/-0.855206/0.263161/0.769799/-0.454239/-0.127055/0.533214/-0.0443908/-0.524144/-0.450212/-0.281468/-0.666986/-0.0269652/0.795347/0.818507/-0.878977/0.808914/0.00838358/0.0317513/-0.361136/0.973751/-0.0137083/-0.469182/-0.821571/0.892547/-0.855608/-0.000939946/-0.233639/-0.448763/0.823722/0.0563521/-0.0734073/0.87958/-0.901599/0.522943/0.542219/0.657031/-0.748976/-0.968283/0.376911/0.736494/0.259108/0.472025/0.449552/0.998178/0.776479/-0.530556/-0.378004/-0.287726/0.0317572/0.184366/0.693192/-0.174252/0.684701/-0.460113/-0.166167/0.0771383/-0.0632809/-0.423675/-0.639032/-0.688269/0.145968/0.60784/-0.929702/0.0742541/0.00106312/0.911229/0.496585/0.109168/0.781502/0.248644/0.68168/-0.679672/-0.571615/0.440321/-0.717037/-0.793547/-0.430012/-0.975884/-0.153207/-0.932465/0.429697/0.883358/-0.510378/-0.625323/-0.351273/0.791401/0.323029/-0.679531/0.381682/-0.214172/-0.211161/0.00992337/-0.699105/0.174805/0.691151/0.180217/0.910813/0.110633/-0.707632/0.964867/-0.180029/-0.704706/0.153898/-0.466481/0.00824728/-0.0399331/0.953078/-0.725647/-0.584319/-0.347682/0.276863/-0.723436/0.328791/0.274057/0.63688/-0.475257/-0.022469/-0.202827/-0.576802/-0.933074/0.806879/-0.146852/-0.715958/0.894974/-0.179334/-0.739188/0.764714/-0.822193/-0.679252/-0.851733/-0.250013/-0.464827/-0.698329/0.59669/-0.060552/-0.278462/-0.0735349/0.643972/0.891183/0.334543/-0.536833/0.395947/0.857014/-0.468641/0.74143/-0.0454278/0.0212552/0.204764/0.636545/0.512161/-0.07551/0.902735/0.265469/-0.122109/0.642179/0.365736/0.390976/0.970571/0.917828/0.725183/-0.392911/0.104773/0.0565864/-0.767147/-0.147016/0.18027/0.78205/-0.086418/0.494778/0.775058/0.46592/0.626124/0.420186/0.479335/-0.966299/0.766322/0.047906/-0.0727977/-0.869612/0.426845/-0.0220896/0.334779/0.35645/-0.615728/0.815628/0.722901/0.784733/0.106138/-0.692184/-0.0651246/1.01082/-0.538056/-0.077522/-0.339897/0.0552859/0.793287/-0.0870442/-0.0334911/0.637291/-0.258164/-0.582364/0.979281/-0.712559/0.245596/0.228121/-0.998722/-0.998242/0.546704/0.454738/-0.362857/-0.17354/0.347994/0.347217/-0.59188/0.68763/0.443886/0.693407/-0.771527/-0.796624/0.567809/0.295457/-0.542727/-0.548438/-0.813443/-0.200763/0.918822/0.902718/-0.223275/-0.480538/0.353649/-0.464941/0.529058/0.557919/-0.155202/-0.435688/-0.612065/-0.977593/-0.619335/0.957674/-0.524002/0.634146/-0.716059/-0.1747/0.24172/-0.596628/0.704884/-0.636631/1.01574/-0.458341/-0.513792/-0.781915/-0.547959/0.277136/0.393198/0.583791/0.37795/0.478439/0.306712/0.232544/-0.914049/0.182979/-0.546795/-0.362444/0.399669/-0.765276/0.52355/0.0482441/0.107387/0.18452/-0.319853/0.442252/-0.666143/-0.61911/0.0308281/0.770596/0.657123/0.125426/0.481667/-0.36627/-0.728117/0.0545436/-0.383825/0.161192/0.0122804/-0.167874/-0.516758/-0.296072/-0.244305/-0.120572/-0.048683/-0.224338/-0.441414/-0.843547/-0.260651/-0.488899/0.352975/0.368717/0.05619/0.500069/0.495914/0.953603/-0.0185379/0.921836/-0.340922/-0.0825809/0.0243382/0.314399/-0.204677/0.199208/0.955483/-0.724057/0.308206/-0.3479/0.0485575/0.00775376/0.628017/-0.984107/-0.452411/0.285958/0.0922732/0.835445/-0.466741/0.948627/-0.490174/0.710333/0.424319/-0.041327/0.689084/-0.900988/-0.640118/0.430261/0.408038/-0.149119/0.13649/0.479521/0.962888/0.369779/-0.466374/0.478836/-0.690923/-1.0266/-0.0432049/-0.874573/-0.700455/0.794813/0.565299/0.493358/-0.127149/-0.987495/0.172513/0.052054/-0.841143/0.121008/-0.17885/-0.522458/-0.18229/0.288785/0.327915/0.401919/0.0401263/-0.487061/0.586004/-0.290001/0.344322/-0.407916/-1.00933/-0.816821/0.0129149/0.523732/-0.58619/-0.916604/-0.883811/-0.690331/0.446879/-0.405956/-0.898795/-0.0439857/-0.0781126/0.0629446/-0.0729094/-0.658412/-0.385437/0.706366/0.424828/0.167977/0.340762/-0.384671/-0.949004/0.908066/0.0255346/-1.04295/0.674254/-0.973055/-0.26214/-0.0287765/0.142569/0.463314/0.336531/0.0438203/-0.953431/-0.764374/0.94624/-0.623448/-0.297363/0.229207/0.227051/-0.719423/0.144497/0.948202/-0.252028/0.699914/0.96051/-0.494973/-0.543059/-0.21733/0.55471/0.728149/-0.574678/0.468668/0.346906/-0.124185/-0.483241/0.334024/-0.763402/-0.586871/-0.7912/0.0684977/-1.00933/-0.654771/0.198545/-0.136183/-0.834987/0.375955/-0.237107/0.705124/-0.713807/0.982118/-0.914849/-0.827052/-0.0145029/0.511782/0.818504/-0.558051/-0.341731/0.476251/-0.0598911/0.449264/0.307495/0.339455/0.506801/-0.923827/-0.538373/-0.563111/0.108425/0.283525/0.218761/-0.259864/-0.550292/-0.532617/0.306023/-0.667372/0.498142/-0.653887/-0.87483/0.349202/-0.732113/0.906574/-0.0399222/0.21755/0.791785/-1.0041/0.141612/0.396389/-0.0510357/-0.926537/-0.138835/0.0265017/0.540362/-0.870326/-0.117986/0.943672/-0.0834779/-0.361022/-0.120142/0.484932/-0.589079/-0.657241/-0.25496/0.879692/0.935402/-0.477425/-0.842419/-0.735216/0.0651123/-0.672807/0.0309264/-0.802408/0.665581/-0.281571/-0.174321/-0.36937/0.402532/0.133642/0.72886/0.507103/0.666516/0.395363/-0.22623/0.858076/0.194664/-0.290942/0.0699597/-0.0915468/-0.196544/-0.519119/-0.833829/-0.156407/-0.0537615/-0.41884/-0.788504/-0.563139/0.60743/0.0602823/0.337809/0.729867/-0.5072/0.431804/-0.463781/-0.230412/-0.838062/-0.078714/-0.534115/0.588879/-0.019016/-0.995851/-0.471512/0.320581/-0.15995/-0.635415/0.922097/-0.73259/0.591789/0.892089/-0.65769/0.212587/-0.872769/-0.308306/-0.423591/0.0134424/0.653416/0.677871/0.466721/-0.322147/0.623935/0.285208/-0.886065/-0.896393/-0.672276/0.554977/-0.860509/0.0490126/0.862697/-0.559232/-0.592533/-0.825473/0.397235/0.410074/-0.0127884/-0.477073/0.423305/-0.243268/-0.598711/-0.534722/-0.126494/-0.0640567/0.714385/0.949818/-0.105134/-0.914637/0.0721502/-0.910069/0.528703/0.203945/0.665346/-0.321435/-0.514973/0.0933278/-0.123251/-0.183863/0.976823/0.931748/0.700054/0.734614/-0.377155/-0.704892/0.992592/0.278012/-0.0637979/0.863829/0.381545/0.630679/0.0856915/0.150996/-0.677835/0.896415/0.654046/-0.670517/-0.894816/-0.287938/-0.75778/-0.790134/0.0490341/-0.949429/0.125488/0.714209/0.0322064/0.347973/0.471475/0.391201/-0.95841/-0.617219/0.341504/-0.309742/-0.869769/-0.719272/0.842226/-0.556687/-0.239771/0.171925/-0.666233/-0.944431/0.387441/0.530821/0.433893/-0.83742/0.190061/0.863022/0.866522/-0.137751/0.00553556/0.650485/0.825423/0.188757/0.432401/0.0286662/-0.0253131/-0.682097/0.949046/0.147885/-0.45496/0.0607964/0.395583/0.333556/-0.805136/0.0974726/0.221475/0.335741/-0.0110562/0.143367/0.180474/-0.114763/-0.695456/0.00759762/0.467143/-0.934024/-0.89791/0.0405137/-0.365933/-0.938422/-0.517873/-0.794321/-0.243038/0.0966981/0.189881/0.219986/0.869895/0.543611/0.0251071/-0.0274694/0.299706/0.393775/-0.184925/-0.026301/-0.0404343/0.42089/0.0683012/-0.446565/0.211444/-0.439919/0.406482/0.0610482/0.877004/-0.528747/-0.173329/0.194803/0.565623/0.840209/0.36293/0.642306/0.0545573/-0.539787/-0.712752/0.799047/-0.497094/0.302987/-0.990597/0.87165/-0.449498/0.717434/-0.442143/0.904862/0.0136399/-0.7541/-0.167049/0.404943/-0.127018/-0.784522/0.532349/-0.800283/-0.117471/-0.310847/-0.405872/0.515242/-0.322981/-0.338483/-0.888788/0.146366/-0.0294279/-0.595036/-0.771051/0.948696/0.729219/-0.0163185/-0.26521/0.609825/-0.675592/-0.68084/-0.884554/-0.701497/-0.0549816/
-0.238783/0.767409/-0.151733/-0.175504/0.302592/-0.383331/-0.879735/0.628801/0.79528/0.838978/0.802436/0.540093/-0.658407/0.144884/-0.937208/0.606504/0.0443974/0.723215/-0.445603/0.738988/0.173724/-0.221656/0.623791/0.0513405/0.879743/-0.159924/0.159725/0.49829/0.761568/-0.323831/-0.620904/0.486253/0.437849/0.758319/-0.854306/0.420215/0.757522/-0.281709/-0.820634/-0.67823/-0.166619/-0.807355/0.348975/0.124708/0.62603/0.757469/0.53993/0.270959/0.792845/0.755615/-0.0275443/-0.77394/-0.245119/-0.234717/0.375152/-0.756521/-0.846356/-0.713396/-0.0447364/0.417075/-0.523797/-0.217916/0.950242/0.255354/0.360825/0.817504/-0.274168/0.717441/0.58544/-0.146391/-0.857418/-0.00867192/-0.0342286/-0.0943347/0.00428716/0.483458/0.866927/-0.400354/-0.709082/-0.782054/-0.840903/0.944589/-0.183654/-0.523179/0.92632/0.666956/-0.603896/-0.741318/-0.606629/-0.320248/0.150906/-0.122245/0.169194/-0.13203/-0.262074/-0.236677/0.193456/-0.153964/-0.719077/0.324688/0.983189/0.395874/-0.193644/0.694546/0.634254/0.579519/-0.25879/-0.988081/-0.047369/0.274878/0.292841/0.289796/0.59807/-0.245351/-0.285037/-0.220592/-0.329122/0.390999/-0.706946/-0.415175/0.334615/0.709393/-0.373944/-0.718292/0.19002/-1.00819/0.822573/-0.250741/0.0252152/-0.317669/-0.482567/-0.434837/0.64625/-0.773563/0.253126/-0.912562/-0.0908264/-0.250139/-0.688412/0.511711/0.331946/-0.976963/0.589961/0.122928/-0.419469/-0.164227/-0.353288/0.0339105/0.441495/0.681346/-0.54736/-0.0851361/-0.269564/-0.915088/-0.865213/-0.601749/0.126449/0.647572/-0.180201/0.643333/-0.451676/-0.666832/-0.304386/0.856958/0.173744/-0.263276/-0.0739098/0.255661/0.888904/-0.188466/-0.899947/-0.110177/0.194406/0.499977/0.729924/-0.736312/-0.789115/0.330111/0.65972/0.156478/0.311308/0.959256/-0.964307/0.84025/-0.622009/0.91059/0.00883895/-0.489478/0.393888/0.141969/0.649714/0.658828/0.317482/0.462657/0.286258/-0.300942/0.0697524/0.328285/-0.354198/0.737391/-0.115908/0.833651/-0.451318/0.901796/-0.765321/-0.166042/0.674392/0.925752/-0.33802/0.0512655/0.0668619/0.622505/0.838191/0.293658/-0.555188/0.831191/0.140821/-0.790285/-0.532324/0.762163/-0.609131/-0.671935/0.672229/0.20481/0.246485/0.677269/0.341892/-0.218492/0.741854/0.333433/-0.770251/-1.0013/0.351832/0.260774/-0.087451/0.147556/-0.94091/-0.306082/0.689981/-0.284066/0.297045/0.128578/-0.91578/0.438413/-0.497092/-0.157658/-0.67332/-0.827975/0.791839/0.987602/0.188693/-0.933993/0.381863/-0.0256603/0.139548/0.793506/-0.125756/0.385524/-0.584934/-0.032841/-0.452036/0.902824/-0.504153/0.910218/-0.0556333/-0.768173/0.892993/0.686413/-0.582981/-0.999045/0.541119/-0.940703/0.8676/0.243435/0.125025/-0.734594/-0.745623/0.650023/0.00387392/0.311775/0.010118/0.0529072/-0.763492/0.80782/0.34708/-0.42731/-0.211403/-0.207113/0.670142/-0.502312/-0.739638/0.460722/0.283225/-0.627839/0.665191/-0.978939/-0.798225/-0.624257/-0.287631/0.532593/0.397352/0.299435/0.142181/-0.308194/-0.691257/-0.417364/-0.661731/-0.552606/0.342703/-0.190774/0.768334/0.153568/-0.312886/-0.114979/0.408413/0.677459/0.60099/0.725878/-0.409689/-0.463226/-0.673606/0.0366887/-0.887414/0.978783/0.5037/-0.742037/-0.666578/-0.16536/0.515003/-0.602944/-0.151397/-0.943914/0.85229/-0.789807/-0.467377/-0.0359026/0.58556/-0.485518/-0.579371/-0.444918/-0.242135/-0.586548/0.852769/0.531224/0.256065/0.18847/-0.253331/0.826008/-0.609595/-0.788662/0.566378/0.39908/-0.942381/0.52214/-0.758463/0.778788/0.278624/-0.340908/-0.255445/-0.580511/-0.345243/-0.968504/0.828515/0.57094/-0.213098/0.459387/0.654808/0.742286/-0.752062/-0.324432/0.872859/-0.278429/-0.276877/-0.807813/0.174242/0.57059/0.699151/-0.0049263/0.645931/0.314041/-0.0910108/-0.264781/-0.293372/-0.453073/0.805366/0.219514/0.467059/-0.6962/0.546122/-0.499146/0.223904/0.709206/-0.370785/0.216312/-0.755202/-0.267186/-0.749542/-0.491618/-0.762815/-0.604071/0.508586/-0.835087/-0.0520906/0.951368/-0.50688/-0.582489/0.395104/-0.800273/0.744198/-0.670433/-0.755545/0.597811/0.852121/-0.943248/-0.90366/0.645623/-0.726548/0.598584/-0.54507/-0.201571/0.198388/0.31019/-0.898268/0.957427/0.606092/-0.189804/-0.950686/-0.792525/0.960165/0.75884/0.371305/0.693115/-0.497821/0.460315/0.204958/-0.530189/-0.52266/-0.980449/-0.106086/-0.203938/0.829507/-0.990136/0.00324611/-0.262672/0.708928/0.583431/0.218796/-0.336393/0.24801/0.307665/0.284585/-0.493591/-0.960689/0.963186/-0.591695/0.286964/0.139326/-0.218694/-0.735422/-0.086758/-0.709959/0.18558/0.0973397/-0.0225356/0.781769/-0.83257/-0.28794/-0.824683/-0.437981/0.647048/0.798676/0.635245/0.928941/0.621504/0.595535/0.679592/-0.102559/0.28427/0.387559/0.628032/-0.0660311/-0.613048/-0.191977/0.873795/-0.0462675/-0.224482/0.0454308/-0.544607/0.797535/0.967687/-0.731201/-0.0873614/0.370592/-0.454946/-0.205639/0.446456/-0.975906/-0.428143/-0.642078/0.604359/-0.462569/0.430087/-0.18315/0.570146/0.444586/0.154511/0.269405/0.601098/-0.994854/0.258875/-0.301945/-0.049887/-0.0100095/0.0615808/-0.363804/0.708892/-0.733524/-0.212321/-0.234252/0.681944/-0.905433/-0.108379/0.500134/-0.452474/0.884043/0.965485/0.970678/0.461302/-0.313524/0.588015/-0.602333/0.201469/0.085649/-0.496063/-0.591707/0.158018/0.033276/0.496838/0.209923/0.968496/0.585148/0.0981848/-0.718521/-0.799484/0.0330385/-0.518913/0.133729/-0.339769/0.345847/-0.879668/0.660484/0.716996/-0.371853/-0.739569/0.462385/0.303336/-0.209066/0.165195/0.110681/-0.0117672/0.229003/0.849952/0.232409/-0.483872/-0.918667/0.239464/-0.321859/-0.965365/-0.672463/0.207017/-0.165269/0.125156/0.448065/-0.260325/-0.272188/-0.248175/-0.829223/0.157143/-0.182849/-0.803243/-0.373395/0.345424/0.10624/0.727528/0.0532052/0.945147/-0.879839/-0.0493116/-0.779736/0.984654/0.102526/0.398864/-0.746815/-0.0536614/-0.886087/-0.118652/0.823108/-0.133956/0.710205/0.992108/0.0954936/-0.749605/0.698314/-0.613438/0.332381/0.312187/0.939485/-0.0928435/-0.691006/-0.737692/-0.449273/0.933637/0.18996/0.702982/-0.874435/0.851246/0.898788/-0.066558/-0.435699/-0.0828789/-0.143882/0.724092/-0.610569/-0.238476/0.512129/0.623409/0.347433/0.450734/0.375849/-0.358707/-0.645254/0.392978/0.853307/-0.658437/-0.984863/-0.642853/-0.64167/-0.607809/0.330139/0.342217/0.0314978/-0.353842/-0.06618/-0.358351/-0.812713/0.740868/-0.112669/-0.711381/0.295509/0.87245/0.751054/0.310479/-0.596689/-0.658254/-0.962579/-0.65937/-0.766374/-0.258618/0.146016/0.951563/-0.486509/-0.92955/-0.921065/0.788055/0.784954/0.830041/0.0954048/-0.655871/-0.0263823/0.629055/0.873208/0.166127/0.097813/-0.0565476/0.505169/-0.338835/-0.660474/0.0157201/-0.252148/0.642359/0.92609/-0.988696/-0.387368/-0.0781075/0.794078/0.701503/-0.482599/0.48952/0.706219/-0.127678/0.437585/-0.171525/0.0645912/0.0569921/-0.814219/-0.191858/0.564618/-0.469816/-0.384232/-0.630064/0.513253/0.241416/0.290912/-0.345624/-0.69288/-0.636152/-0.0967861/0.0602651/-0.678488/0.849437/-0.180008/-0.932922/-0.661209/0.135271/0.978366/-0.708108/-0.31889/-0.369424/-0.280556/-0.665772/-0.35051/-0.237465/0.284425/0.204962/-0.92455/-0.329773/-0.843591/0.0880575/-0.017756/-0.42425/-0.494526/-0.121284/0.317143/-0.349429/-0.997175/0.94503/-0.798498/-0.363337/0.910702/-0.301002/-0.668791/0.971842/-0.766482/-0.915836/0.922424/0.571042/-0.558585/-0.796647/-0.490644/-0.124741/-0.513863/-0.434852/0.0984042/0.764597/0.703298/0.340936/0.115221/0.515666/0.803993/0.70676/0.519395/-0.5321/0.99658/-0.47743/-0.249919/-0.400994/0.491044/0.983669/0.532627/-0.142781/0.28333/-0.0723981/-0.795064/-0.636239/0.726721/0.00671518/0.86195/0.796072/-0.417668/0.258282/0.9508/0.0880979/0.661338/-0.89038/-0.619091/
0.950588/0.530418/0.739755/-0.935322/0.0368303/-0.249361/0.939067/-0.613914/-0.542931/0.193845/0.793009/0.098957/-0.830455/0.553967/0.542215/0.416868/-0.896061/0.767168/-0.856733/0.989322/-0.460165/-0.000453702/0.374635/0.49687/0.889295/0.379415/0.823546/-0.657546/0.630664/-0.434347/-0.0363075/0.821656/0.406198/-0.201876/-0.663653/0.80478/-0.57996/0.0965271/-0.254513/-0.47369/0.613215/-0.528471/0.317737/-0.328988/0.0439364/-0.0941822/0.213403/0.33393/-0.956636/0.638457/-0.245393/0.0834978/0.939371/0.49253/0.586575/0.517398/-0.0935436/-0.186546/-0.511964/0.404812/-0.572112/0.320773/-0.188651/-0.448779/-0.315137/-0.400123/0.372863/0.904493/0.551044/0.797381/-0.965224/0.93905/-0.897948/-0.181859/-0.675419/0.587267/-0.983172/0.199109/0.839498/-0.782541/0.0878609/-0.85517/0.112893/-0.233238/-0.0371404/-0.2182/-0.183554/0.118838/0.882438/0.397021/0.177703/-0.979404/-0.439851/-0.235654/0.476122/0.114551/0.0898269/-0.485215/-0.790197/-0.700005/-0.308647/0.604526/-0.478686/-0.626743/-0.181161/0.287819/0.0524567/-0.859902/-0.0648052/-0.244592/-0.802676/-0.0134905/-0.734371/-0.567518/-0.124545/-0.294068/0.987622/0.782432/-0.303666/-0.129186/0.587653/0.941598/-0.425787/0.123438/0.0703306/-0.74895/-0.0214009/-0.0341324/0.428906/-0.861819/-0.588981/-0.672795/-0.240429/-0.255086/-0.471626/-0.669621/0.713269/-0.508729/0.786573/0.582313/0.928393/-0.498615/-0.433052/0.0986424/0.438544/0.0283131/-0.0334577/-0.311/0.694387/-0.203598/-0.992869/0.793302/0.878752/0.0948675/0.952643/-0.241997/0.129051/0.566638/-0.226181/-0.944491/0.0755869/-0.74005/0.156384/0.947921/0.367113/-0.584944/0.127688/0.661366/-0.414255/-0.387988/0.95438/0.966766/0.165711/-0.34022/0.0325893/-0.8508/0.592963/0.334322/0.154384/-0.631819/-0.643898/-0.719975/-0.490412/-0.66097/0.52483/0.681574/0.521005/-0.863663/-0.70511/-0.512642/0.522893/0.0389932/-0.216083/0.733601/-0.335052/0.193405/0.56042/0.973392/0.906793/0.641927/0.547455/0.365335/0.676346/0.244146/0.518263/-0.23321/0.138281/-0.199986/0.551578/-0.104473/0.311049/0.554994/0.034285/-0.474413/0.118824/-0.0948678/0.771671/-0.150172/-0.488932/-0.0805194/-1.01068/0.309964/-0.816479/0.124612/0.358085/0.335236/0.488646/0.297139/0.950684/-0.452951/0.557946/-0.999509/-0.843/-0.901436/0.830979/-0.601298/0.516042/-0.550553/-0.495538/0.405678/-0.470866/-0.111466/0.773617/0.811149/0.76155/-0.515235/0.482545/0.342483/-0.0900202/-0.0661199/-0.583226/0.0127801/0.795542/0.669928/0.91188/0.92958/0.814813/-0.719906/-0.483373/-0.211922/0.535703/0.533948/0.542479/-0.109393/-0.194408/0.231024/0.241115/0.425682/0.605295/-0.502982/0.525971/-0.668723/-0.787209/0.544157/0.944639/-0.887887/-0.187826/0.663069/0.265757/0.889621/-0.139294/0.89144/0.587994/-0.265925/-0.531627/0.634916/-0.93014/-0.546811/-0.811725/0.7262/-0.909739/0.902045/0.627242/0.705091/-0.0167769/0.455689/0.959482/-0.19386/-0.60073/-0.22199/-0.818739/-0.320892/-0.85885/-0.651933/-0.276754/0.622077/0.796598/0.931673/0.634131/-0.166714/0.625613/0.42934/-0.105836/-0.191907/0.169286/0.201908/0.341099/0.989102/0.494564/-0.98661/0.240955/-0.765561/0.758747/0.316518/-0.374372/-0.550636/-0.121291/0.331482/-0.521395/-0.759376/0.34564/0.123952/0.316366/-0.885025/0.757073/-0.594072/-0.566522/0.464539/0.55989/0.894082/0.408159/0.462503/-0.621425/-0.567807/-0.943078/0.70443/0.549802/-0.545142/-0.154947/-0.471621/0.32978/0.644741/-0.920694/0.22575/0.241595/-0.116612/-0.823916/0.393793/-1.03471/-0.2553/0.00378304/-0.828992/0.27932/-0.128455/-0.944399/-0.516187/-0.354387/0.241528/-0.269613/0.075572/0.535173/-0.82998/0.550208/-0.870752/-0.594156/-0.0293499/0.695233/-0.326302/-0.28195/0.688529/0.554913/-0.461538/0.602616/0.370832/0.749452/0.681784/-0.245541/-0.718391/0.0366756/0.0306741/-0.299334/0.450583/0.94398/-0.530945/-0.733412/-0.549762/0.582568/0.635848/-0.192573/0.756755/0.238754/-0.88077/0.555607/0.0143351/0.981635/-0.287999/0.446343/-0.68291/0.746214/-0.396002/0.325945/-0.738133/-0.473189/0.756404/-1.02224/0.106642/0.82349/0.631545/0.135076/-0.577315/-0.939242/0.162617/0.267791/-0.712352/-0.878445/-0.38817/0.158557/-0.239821/-0.547023/-0.894399/0.547062/-0.849893/-0.443025/0.529433/-0.277685/-0.421646/-0.315789/0.905477/0.210797/0.357346/-0.350653/-0.73887/-0.0237683/0.0666805/0.33961/0.355528/0.614523/-0.0823185/0.472263/-0.677977/-0.358736/-0.997091/-0.134282/0.609987/0.874881/0.140927/0.152114/0.168186/0.982318/0.446233/-0.803368/-0.022429/-0.170511/-0.108938/0.040453/0.125309/-0.747656/0.409738/0.00760712/-0.356196/0.12057/-0.993579/0.771796/0.496586/0.0153848/-0.181715/-0.0735809/-0.67655/0.369826/-0.959115/0.358895/-0.666145/-0.50065/0.895576/0.489997/0.634655/-0.443753/-0.374748/0.251775/0.589175/-0.242252/-0.200152/-0.204332/-0.934443/-0.279658/0.251237/-0.00183045/-0.626365/0.422264/0.323453/-0.0128237/-0.281517/0.00412992/-0.752554/-0.168821/0.624694/-0.961278/0.0478034/-0.803018/0.439605/0.245312/0.0854792/0.000749557/0.377583/-0.0252253/0.377386/0.872585/0.319172/0.797252/-0.318884/0.19376/-0.683777/-0.0642238/-0.425356/0.342237/0.36524/0.655603/-0.0606363/0.572667/-0.652236/-0.100772/-0.531978/-0.953052/0.053892/0.721754/-0.363513/-0.128736/0.306054/-0.662452/0.157268/-0.32883/0.588077/-0.214093/-0.962598/0.618388/-0.799151/0.77214/0.645382/0.585266/-1.00072/0.913672/-0.478404/0.447308/-0.827142/0.630737/0.539593/-0.992413/0.589316/0.2105/-0.965544/0.0943805/0.252614/-0.960839/-0.42023/0.0977297/-0.413549/0.249097/0.576883/0.419195/0.424809/0.327332/-0.78371/0.463566/-0.412053/-1.0383/-0.832016/0.104988/0.73878/-0.600095/0.211977/-0.535477/0.740543/-0.835842/-0.257876/0.179596/0.605348/-0.220607/0.295746/0.595652/-0.874544/0.945016/0.139679/0.865089/-0.394233/0.67493/-0.546693/-0.0962316/-0.714669/0.71888/0.411409/-0.938306/-0.874612/0.559642/-0.64841/-0.935284/-0.54076/0.350283/-0.628297/0.289852/-0.32122/-0.455264/-0.367494/-0.955512/0.959949/-0.54339/0.324355/-0.557574/0.857323/-0.889034/0.538005/-0.467277/0.259995/-0.266108/-0.669691/0.455525/-0.499254/0.064314/-0.949456/-0.434128/-0.0337414/0.864546/0.925773/0.164863/0.761131/-0.323193/0.722247/-1.00049/-0.623069/-0.375634/-0.545539/0.0228438/0.636171/-0.559168/0.0874269/-0.61621/-0.634082/0.281457/0.768726/-0.0316886/-0.462224/-0.738473/-0.312316/-0.645126/0.384356/-0.828155/-0.903159/-0.27233/-0.509933/-0.407318/0.135113/-0.237578/-0.306086/0.718003/-0.439113/0.824165/-0.365154/0.493671/0.32785/0.589193/0.867612/0.0321839/0.590029/0.618172/-0.385339/0.149455/-0.365105/-0.808932/-0.888671/0.373808/-0.617405/-0.135834/0.0342623/-0.349776/0.093135/0.972754/0.226251/-0.986067/0.958708/0.0484746/0.279051/0.241535/-0.630044/-0.437639/-0.661575/-0.115345/0.858508/-0.711058/-0.205558/0.744882/-0.608168/0.512203/0.602386/0.73504/0.64454/-0.345712/0.140746/0.204467/-0.833636/0.610487/-0.781432/-0.164737/0.488745/-0.352692/0.319409/0.00639113/0.0106165/0.79214/-0.652019/-0.097761/-0.466502/-0.184847/-0.0930789/0.907553/0.917776/-0.0353725/-0.651443/0.370127/0.0315829/0.813125/0.193216/-0.199257/0.486039/0.960918/-0.308107/-0.239623/0.925545/0.657913/-0.801046/-0.734537/-0.791312/0.570526/0.588367/0.559899/-0.240271/-0.298291/-0.720475/-0.513285/-0.806188/-0.951507/-0.758176/0.407509/0.426441/-0.822459/0.159142/0.862157/0.175295/0.17927/0.990668/0.152861/-0.870736/-0.454944/-0.248259/-0.486495/-0.523087/0.62087/0.965761/-0.450689/-0.731773/-0.910675/0.283344/0.157572/0.311303/0.0705481/-0.297802/0.839219/0.758681/-0.844925/-0.656827/0.703871/-0.0331461/0.913143/-0.807985/0.19535/-0.75386/-0.213566/
-0.759101/-0.206743/-0.731819/0.322356/-0.156777/0.347431/-0.484115/-0.0530007/0.139953/0.560961/-0.625842/-0.534104/-0.691246/0.267279/0.201224/-0.0288455/-0.805673/-0.937961/-0.313404/0.569931/0.834047/-0.173686/0.862589/-0.468169/-0.509085/-0.185839/0.600064/-0.71612/0.17351/0.185555/0.623691/0.360942/0.0331045/0.647116/0.318082/0.102504/-0.232992/0.510995/-0.609761/-0.743576/0.120248/0.145265/0.40395/0.215469/-0.471255/0.542926/-0.761481/-0.231118/-0.895289/-0.751425/-0.903928/-0.669324/0.588092/-0.308692/-0.439784/0.68373/-0.553623/-0.739928/0.0164459/-0.474309/-0.399742/-0.427509/-0.776492/0.0242176/-0.701074/0.972022/0.658668/0.826057/0.386949/-0.376307/-0.54719/0.328803/-0.667571/-0.585982/0.418499/-0.756762/-0.812809/-0.903775/-0.731815/-0.622762/-0.531623/0.693787/0.71544/-0.418413/-0.26275/-0.042641/-0.597551/0.330497/0.380787/-0.905183/0.538207/-0.530655/-0.954983/0.790924/-0.504891/0.446443/-0.625365/-0.88306/0.732768/0.261128/-0.898146/0.143214/0.880183/0.879485/0.795174/-0.253967/-0.337812/0.0849981/-0.651742/0.928426/-0.674551/0.439875/0.971579/-0.678071/0.288313/0.319703/0.876107/-0.848852/0.566057/-0.604098/-0.0997149/0.00570157/-0.733138/-0.0134264/-0.335792/-0.262941/-0.301675/0.222624/0.417751/0.842503/0.51842/-1.01801/0.724204/0.010003/-0.156539/-0.21275/0.308689/0.0764184/0.248213/-0.239189/-0.0536159/0.878257/0.539899/0.529979/-0.474133/0.55621/-0.819811/0.332869/0.137471/0.808768/-0.420853/-0.920156/-0.756922/-0.0895718/0.403988/-1.00906/0.478842/0.210565/-0.923879/0.163982/0.332233/-0.0457512/0.971125/0.523555/0.162389/0.549818/-0.950049/-0.38651/-0.0672979/0.923636/-0.171664/-0.690068/-0.572368/-0.266147/0.66885/0.190084/-0.624366/0.153505/0.601772/-0.936825/-0.105886/0.513014/-0.229812/-0.142556/-0.36807/-0.445244/0.754529/-0.48532/-0.063779/0.165718/-0.740127/-0.515391/0.885839/0.973147/0.0057488/0.802165/-0.0194559/-0.99529/-0.446659/1.00457/0.814602/-0.943903/-0.902853/-0.884239/0.800643/-0.704766/0.0423458/0.8468/-0.413386/-0.433573/-0.278991/-0.834232/0.890447/-0.158245/0.244236/-0.209065/0.0619271/0.821299/-0.0114479/-0.00655903/-0.249588/0.382008/0.0761086/-0.160702/-0.911251/0.607619/-0.796826/0.922554/0.170651/0.382751/0.292811/-0.779482/0.627869/-0.896293/0.24981/0.0290119/-0.675807/-0.262899/0.473511/0.279503/0.304094/-0.820605/0.403843/0.0964785/0.75927/-0.643343/-0.917196/0.150244/-0.260798/0.947245/-0.648156/0.627925/-0.470708/0.808057/0.132598/-0.896797/-0.0264457/1.00256/0.415686/-0.761759/0.61402/-0.0366818/-1.00025/-0.60716/-0.862971/-0.175489/-1.02045/-0.822887/0.907406/-0.195943/0.124602/0.738866/-0.465335/-0.992711/0.58307/0.223489/-0.531289/-0.183181/-0.466232/-0.0606054/-0.595361/-0.240462/0.294713/0.984602/0.198781/-0.482571/-0.117341/0.372666/-0.603625/-0.480208/0.912045/-0.952489/-0.292174/-0.0520935/-0.756146/0.341274/-0.585094/-0.464592/-0.76287/0.0693086/0.291699/0.386816/0.41346/0.565835/-0.474029/-0.198834/0.994446/-0.689511/-0.606697/-0.763204/-0.686509/0.683617/-0.84397/-0.40591/0.259821/0.151093/-0.330659/0.883549/-0.28791/-0.0189197/-0.719749/-0.47768/0.029071/0.149124/0.732792/-0.377785/0.895869/-1.02317/0.649648/-0.605292/0.787729/-0.487615/0.904773/-0.5188/0.802935/-0.768505/-0.264888/0.0292827/-0.967095/-0.159723/-0.312171/-0.40191/0.179209/0.630723/0.826572/0.843847/0.724071/-0.801585/0.819951/0.033131/0.729591/-0.694876/-0.675379/0.318378/-0.703482/0.375477/0.19556/0.698644/0.722452/-0.463297/0.231445/-0.952339/0.0554631/0.917697/-0.265671/0.866069/0.0990676/0.937871/-0.379219/0.488435/0.160255/-0.114741/-0.663292/-0.686377/0.52313/0.107216/0.117295/-0.285653/-0.881796/0.0383424/0.597761/0.997173/-0.0108548/0.639039/0.529879/-0.741483/-0.932875/-0.243436/0.729995/-0.274977/0.460003/0.294738/-0.335117/-0.307932/-0.51944/-0.717389/0.646854/-0.287883/-0.793046/0.786049/-0.652295/0.0205667/-0.541461/0.0529226/-0.532761/-0.550471/-0.776294/0.0802655/1.02148/0.0457564/0.0684451/-0.31269/-0.293687/-0.347094/-0.428239/0.252932/-0.0837293/0.9894/-0.00778081/0.741052/0.865749/0.646909/-0.106312/-0.91128/-0.443196/0.426757/-0.700754/0.885738/0.697135/0.202772/0.873543/0.656315/0.902209/0.978557/-0.856388/-0.18402/-0.617785/-0.432369/-0.438541/-0.456419/0.061657/-0.535708/-0.978441/-0.69652/-0.929236/-0.783117/0.229494/-0.606218/-0.697845/-0.68364/0.223281/0.10985/-0.223559/0.197358/-0.0909838/0.369675/0.444823/-0.395167/-0.709453/0.815838/-0.737831/0.313563/0.980731/0.220318/-0.726756/0.254252/-0.773163/0.803335/0.751566/-0.94356/0.223989/0.383097/-0.921285/0.200116/-0.534341/0.613871/-0.665461/-0.402216/-0.864137/-0.669829/-0.0210078/0.635372/0.379331/-0.00733688/-0.717939/0.0611681/0.821124/-0.120575/-0.511023/-0.0262365/-0.482952/0.622511/-0.570208/-0.449053/0.259914/-0.637003/-0.583573/-0.368594/-0.807552/-0.255604/-0.985061/0.748257/0.72351/-0.603297/0.382459/-0.00991099/-0.483238/0.0470761/0.908317/-0.770002/-0.418947/0.142581/-0.600548/-0.772689/0.805352/0.710866/0.251069/-0.952685/0.674104/-0.550049/-0.967107/0.686869/0.744532/0.242442/0.260922/-0.984586/0.751388/-0.51759/-0.810948/-0.503445/0.722459/-0.101384/0.0372577/0.18991/-0.025016/0.515718/-0.978188/-0.47282/-0.670901/0.722131/0.0905387/0.643077/0.955734/0.0358548/0.418992/0.276811/0.412428/-0.920991/-0.436841/-0.627003/-0.163181/0.974864/-0.529509/-0.700295/-0.130608/-0.602016/-0.792898/-0.318258/-0.138627/0.360559/-0.0771332/-0.379016/0.268925/-0.218788/0.518495/-0.061031/-0.180322/0.247524/0.104653/-0.868499/-0.125762/-0.0421266/0.246032/0.282476/0.0126003/1.00883/-0.466403/-0.629242/0.0761536/-0.103045/0.992825/1.02018/-0.115628/0.653755/0.347165/0.0726698/-0.605927/-0.393136/0.564579/0.876558/-0.606358/-0.941229/-0.716601/-0.413709/0.432611/-0.371692/-0.0432003/0.979968/0.547531/-0.070314/-0.885352/0.392743/0.405021/-0.562346/-0.666944/-0.39043/0.647039/0.125116/-0.0504826/0.105248/-0.656947/0.322089/0.195276/-0.712018/0.670028/0.825145/0.204463/0.414882/-0.598839/-0.879435/-0.0375306/-0.259099/0.376785/0.66593/-0.182687/-0.48374/0.835157/-0.469933/-0.57337/0.627125/0.966601/0.758234/0.250709/0.225629/0.0745367/-0.841396/0.131258/0.618321/0.22457/0.849781/-0.680773/-0.926224/0.43709/0.0214086/-0.186046/-0.882699/-0.977653/-0.86862/-0.894093/-0.796386/0.937925/-0.240575/-0.502803/-0.930142/-0.228869/-0.0954361/0.72914/0.980407/-0.258115/0.200519/-0.222954/0.891222/0.363551/0.112807/-0.215794/-0.510914/-0.665922/0.83944/-0.906499/-0.557791/0.215674/-0.547383/0.135501/-0.633555/-0.166748/-0.637854/0.261028/0.554886/0.392585/-0.914938/-0.484345/0.121366/0.717517/-0.0130165/0.358918/1.00331/0.533186/0.887525/-0.263467/0.199012/0.97205/0.954318/0.205881/0.298906/-0.932901/-0.00139123/0.107767/0.49805/-0.419536/-0.225502/-0.00500479/-0.115489/-0.395781/0.854036/-0.986252/-0.360682/0.518354/0.981677/-0.12405/-0.790063/-0.96424/0.761269/-0.0707472/-0.0298776/-0.0987001/-0.284827/0.371197/-0.939153/0.119534/-0.363692/-0.177781/0.570923/-0.00399373/0.0801133/-0.409862/0.110642/0.727059/-0.251939/-0.332046/-0.695604/0.732559/0.975901/-0.779824/-0.451355/-0.96957/0.161444/0.742206/0.241465/-0.811667/0.610038/0.819851/0.958924/0.516903/-0.582634/0.700467/-0.654158/0.992298/0.329751/-0.306595/0.545656/-0.537647/0.111348/0.098734/-0.371924/-0.821318/0.111465/-0.602499/-0.202127/0.859479/-0.733743/-0.0105195/-0.800992/-0.274638/0.150567/0.510844/-0.253682/0.361113/-0.780158/-0.113831/0.849771/0.105602/0.848125/0.44186/0.33298/0.399182/-0.949927/0.569377/-0.482494/0.717157/-0.735373/0.580189/-0.759569/-0.0770809/0.500744/0.0169849/
-0.985183/0.0234555/0.216638/-0.966052/-0.438986/-0.132092/-0.626462/0.873742/0.855514/0.557857/-0.13542/-0.0113557/-0.854694/-0.839278/0.251971/0.89005/-0.923161/0.415659/-0.138871/0.018195/-0.19604/-0.841939/-0.463394/-0.265634/-0.505519/-0.255683/0.740486/-0.651992/-0.0353905/-0.808048/-0.85162/0.910055/-0.479113/-0.221689/-0.611045/0.222182/0.976825/-0.604386/0.151254/-0.0904278/-0.659351/-0.265531/-0.996916/0.524894/-0.310664/-0.805046/-0.0704999/0.383692/0.925591/-0.559153/0.293292/-0.64623/0.808339/0.622405/0.696707/-0.507704/-0.979465/0.135648/-0.0837705/-0.470566/0.0252855/-0.106195/0.800712/-0.890754/-0.252797/0.831917/0.0602164/0.267611/-0.927124/0.956164/-0.865033/-0.287063/0.088914/0.699671/-0.101148/0.919931/-0.0891963/0.716723/-0.9632/0.734767/0.693756/-0.986416/-0.790519/-0.293151/-0.983742/0.253733/0.315119/0.488785/0.281112/-0.481829/0.204079/-0.0185794/-0.905863/-0.705605/0.517289/-0.00374115/0.819983/-0.392618/0.763886/0.9534/-0.763772/0.153646/-0.715708/0.44591/-0.0929848/0.554259/0.746203/0.463171/0.412208/-0.177041/0.64365/0.626565/0.68567/0.0487925/-0.196767/0.175489/-0.113248/0.479686/0.489823/-0.441935/0.934497/0.498319/0.389983/-0.130248/-0.154613/0.709842/-0.906395/-0.751234/0.798834/0.38642/-0.158502/-0.407727/0.745407/-0.493203/0.407439/0.322418/-0.15909/-0.961402/0.226307/-0.0356012/-0.350137/-0.749896/0.0321406/-0.186813/-0.142618/-0.0249495/0.595307/-0.316601/0.726241/-0.883866/-0.980847/-0.182337/0.128993/0.232639/0.658529/-0.129729/-0.261833/-0.124688/0.618402/-0.780911/-0.0170179/-0.041721/-0.0509009/0.134351/-0.976161/-0.836716/-0.345472/-0.239098/-0.517268/0.272241/0.888379/-0.608197/-0.126777/-0.872699/0.232629/0.194705/0.742351/0.777368/0.60344/0.637551/-0.89024/0.595426/-0.825343/-0.71047/-0.174381/-0.549227/-0.822075/-0.359253/0.560073/0.221679/-0.540152/0.934568/0.105109/0.77154/0.125625/0.521465/0.270449/-0.55788/-0.551018/-0.16394/0.00259682/-0.788334/0.49364/-0.116193/0.85511/0.563694/-0.762941/0.546433/0.650089/-0.914513/0.907597/0.62983/-0.637427/0.142837/-0.733206/-0.827061/0.0934419/-0.457278/-0.709378/0.151492/0.951785/0.279096/-0.841018/0.831635/-0.711101/0.524387/0.737909/0.019741/-0.171867/0.913251/-0.72602/0.561042/0.599399/0.907195/-0.702764/0.0986604/-0.488288/0.807032/0.525678/-0.180408/-0.806818/-0.0723502/-0.128572/0.489026/0.314216/0.592622/0.329649/0.237702/-0.413128/0.0991055/0.970424/0.368744/-0.526299/0.498737/-0.981936/0.195585/-0.25987/0.650579/-0.626142/-0.57788/0.332894/0.801179/0.224142/-0.401022/0.426988/-0.357225/0.537355/-0.072156/-0.736657/-0.706541/-0.566881/0.661417/0.72669/-0.435476/0.579731/0.741125/0.364871/0.577629/0.490532/-0.531531/0.557038/0.13858/0.544547/0.842557/0.966353/0.958936/0.828951/0.634801/0.398423/0.72994/-0.16572/0.813476/-0.9417/0.257104/-0.010827/0.663152/-0.457657/0.143457/0.0229841/0.57742/-0.981207/0.0603479/-0.422423/0.256974/0.616357/-0.872736/0.61654/-0.17635/0.0852225/0.333929/0.00480822/-0.281428/0.898383/0.0213108/-0.349726/0.256722/0.851401/0.899611/-0.0480755/-0.139166/0.0602256/-0.898357/-0.738967/0.434258/-0.446794/-0.718724/0.535569/0.591704/0.705238/-0.0905836/0.365126/-0.582083/-0.322477/-0.0862461/0.142779/0.607178/0.838182/-0.672923/0.147698/0.986806/-0.826058/-0.220641/0.302588/-0.314641/-0.122511/-0.582009/-0.179528/0.633692/0.289368/-0.121121/-0.894685/-0.427274/-0.538823/-0.260068/-0.37728/0.039855/-0.613881/-0.316859/-0.509774/0.668888/0.590404/0.072181/-0.0872413/-0.230084/0.971093/-0.832688/-0.665685/-0.779213/-0.637529/-0.465441/0.77712/0.117502/0.504032/0.806419/-0.420069/0.812597/-0.667684/-0.520827/0.492828/0.622912/0.624801/0.672922/-0.749539/-0.124701/0.866342/0.480702/0.524974/-0.569021/-0.329292/0.178332/0.162085/0.735729/-0.610438/0.364652/0.173118/-0.103391/0.987683/-0.639825/0.387876/0.141981/0.609388/-0.111377/-0.442103/-0.0626722/-0.111698/-0.150753/0.584182/-0.333496/-0.689091/0.837506/0.339066/-0.721287/0.557993/-0.712369/-0.354262/0.897639/0.0808907/-0.231493/-0.730325/0.845943/-0.240944/0.460292/-0.680891/0.110493/0.975701/0.735486/0.934428/-0.609744/-0.65146/0.741758/-0.218356/-0.544596/0.61819/0.830893/-0.841403/0.082618/-0.482445/-0.433084/0.815469/0.598243/-0.454209/-0.422342/-0.918103/-0.569858/-0.233566/0.864576/0.544574/-0.930002/-0.54346/0.0679082/-0.319587/0.200906/0.369787/-0.0709365/-0.0464382/0.119016/-0.574475/0.553346/0.222443/-0.103493/0.820974/0.125095/-0.493224/-0.42808/0.528757/-0.876005/0.595257/0.0742493/-0.667728/0.668673/0.572639/0.0940993/0.585681/-0.46327/0.753529/0.7668/-0.39789/0.657045/-0.0933646/0.206324/0.781701/0.766863/0.738482/0.0140969/0.817498/-0.446033/0.557927/0.539942/0.519468/-0.666054/0.9046/-0.30894/-0.482395/0.404297/0.547855/0.99606/0.663898/0.199505/0.0751256/-0.739639/-0.000194696/-0.227335/-0.201959/-0.566569/-0.322902/0.979233/0.973077/-0.71847/-0.112772/0.638628/0.131718/0.721472/0.887941/0.812734/-0.456619/-0.353647/0.98053/-1.0103/-0.827618/-0.660119/0.843202/-0.916744/0.735583/0.344411/0.448306/0.394953/-0.946889/0.977632/-0.113457/-0.393714/-0.808949/0.723935/-0.81828/-0.830632/0.776586/-0.0686956/-0.403806/0.953876/-0.817762/-0.00545866/-0.341585/0.346719/0.458604/-0.203626/-0.661269/0.866639/0.234818/-0.858629/0.941694/-0.685855/0.0604163/0.561041/-0.60421/0.0712022/0.869881/-0.528092/0.648472/-0.866808/-0.814146/0.00191249/0.143219/-0.911195/0.0368905/-0.107588/-0.116904/-0.649336/-0.835089/0.226014/0.189892/0.0474267/-0.247759/0.325536/-0.269371/0.06088/-0.88373/0.405949/0.0372464/0.767626/0.798272/0.810781/0.0167582/-0.309727/-0.781433/0.828343/-0.890847/0.0938584/-0.422924/0.988839/-0.585439/0.520288/0.97193/-0.404527/0.201439/0.699976/-0.523204/-0.57435/0.539284/0.882146/-0.826701/0.892662/0.823665/-0.698507/-0.113116/0.297423/-0.504043/-0.102586/0.680861/0.450811/0.0177102/-0.461223/-0.520709/-0.0547297/0.346777/0.664775/1.00004/0.898902/-0.160756/0.172902/-0.0490746/0.17513/0.339451/-0.786861/0.264538/0.376949/-0.384235/0.505755/0.405399/0.717574/-0.36938/0.472502/-0.440419/-0.456595/0.305482/-0.309935/0.259307/-0.95577/-0.745192/-0.0216251/0.298094/-0.347799/-0.406901/-0.261174/-0.700023/0.148662/0.568253/0.628641/0.265693/-0.180609/0.487426/-0.483118/-0.0651145/0.330965/0.0260895/-0.85229/0.724332/-0.0450679/-0.379392/0.697388/0.073075/-0.291102/-0.554309/-0.195419/0.978362/0.188592/0.250503/0.749478/-0.778657/-0.87556/0.410162/-0.712097/-0.18884/0.597287/0.602687/-0.643762/-0.340798/0.213421/0.767896/-0.798898/0.149935/-0.879408/0.0491982/0.78545/0.48637/0.419765/0.0299698/-0.82959/0.661847/0.508303/-0.0931025/0.8862/0.00987779/-0.243748/-0.747584/-0.164506/0.806615/-0.143925/0.910242/-0.905392/-0.463826/-0.0979797/-0.744141/-0.777968/-0.00650089/0.540189/-0.650333/0.571953/0.619007/0.0447671/-0.509374/0.285332/-0.592934/0.149026/-0.309541/-0.991168/0.500842/0.22466/0.0282209/0.815109/0.428559/0.718555/0.262482/-0.0515388/-0.74335/0.457759/-0.966486/-0.97024/-0.638106/-0.798236/0.052803/-0.540138/-0.322494/-0.828258/0.877173/-0.896813/-0.0243361/-0.629612/-0.0320812/-0.284614/0.174038/-0.315911/-0.00668993/-0.660647/-0.414445/0.960643/-0.934348/-0.061235/0.716454/-0.551454/0.0701102/-0.358643/0.705092/0.52345/-0.300221/0.530421/0.376158/0.0821161/0.124816/-0.216955/-0.360982/0.980416/-0.141638/-0.503121/0.0405864/0.136395/0.43003/-0.491845/-0.44587/0.265686/-0.616769/-0.0444526/0.885188/-0.653013/0.815532/0.642876/0.811234/0.410199/0.212421/0.160743/-0.397853/-0.714695/0.125769/-0.201495/-0.534366/0.909069/0.734636/
-0.397912/0.295692/-0.301391/0.527934/0.991038/0.622878/0.207372/0.997517/0.56652/-0.614904/0.350014/0.687362/0.500386/-0.0362044/-0.507149/0.556576/0.913409/0.193954/-0.717493/-0.874991/0.0302292/0.0619323/0.895411/-0.825952/0.221983/0.863872/-0.911201/-0.562348/0.624825/-0.559265/0.42815/-0.205764/-0.029401/0.957299/-0.260455/0.0143617/-0.465227/-0.188609/0.713317/-0.743225/-0.656483/0.660415/0.460523/0.0173721/0.97842/0.795173/0.417983/-0.339806/0.982989/-0.623253/-0.45796/0.781221/-0.474296/0.7921/0.790109/-0.63633/-0.792565/-0.634856/-0.265795/-0.202778/0.673793/-0.977654/0.4584/0.150449/0.924378/0.788164/0.427419/-0.229353/0.217834/-0.5303/0.887685/0.5269/-0.443136/0.541789/-0.790402/-0.224079/0.145899/-0.274738/-0.404484/-0.88503/-0.747401/-0.979936/-0.175728/-0.260766/-0.69202/-0.77966/-0.131846/0.607041/-0.42791/0.367288/-0.667549/0.747538/0.0578916/-0.588155/-0.77378/-0.343451/-0.577029/-0.591106/-0.867798/-0.00765441/0.436355/-0.715615/-0.63768/0.542021/0.547576/-0.187211/0.487267/-0.596172/-0.258896/0.299501/-0.283913/-0.999512/-0.794694/-0.415217/-0.778718/0.0561753/-0.237127/-0.249405/-0.575464/1.00162/-0.390063/-0.0992271/-0.45757/0.542407/0.0915262/-0.917675/-0.804415/0.267709/0.137566/-0.0492291/0.893496/-0.381698/0.812248/-0.135686/0.700205/-0.644242/-0.411067/0.609526/0.646435/-0.589385/0.213711/-0.159279/-0.25342/-0.84994/-0.550518/-0.343728/0.510528/-0.300328/0.718407/-0.552229/0.526056/0.728684/-0.905974/0.479218/-0.7577/0.88476/0.862407/0.240956/0.248618/-0.0944794/-0.95306/0.565128/-0.0946088/-0.432058/-0.0170851/0.270374/0.870306/0.146045/0.581663/0.00861237/-0.85924/-0.266767/-0.412816/-0.112605/0.803269/0.914729/0.413727/-0.861197/-0.203388/-0.89535/0.196922/0.949823/-0.58148/0.626236/0.623951/-0.277818/-0.242245/0.403033/-0.660083/-0.0524179/0.246841/-0.705005/-0.459001/0.305338/0.983304/-0.070035/0.921381/-0.348907/0.0302197/-0.0129131/0.613992/0.0869396/0.71015/0.350322/-0.238274/0.465811/-0.786515/-0.59903/0.0102001/0.0244615/0.198757/0.303907/0.262075/0.0820469/-0.302416/1.0351/-0.17487/0.201404/-0.398972/-0.861929/-0.183104/0.519738/0.417049/0.484482/0.689011/0.208891/0.240745/0.469917/0.114919/-0.515113/-0.214824/-0.694143/0.948903/0.212648/-0.0939977/-0.392901/0.705681/0.776478/-0.448496/-0.061271/-0.353298/-0.721693/0.0789938/-0.856424/1.03177/0.652192/0.0759393/-0.796348/0.47284/-0.75408/0.0242938/-0.258256/-0.511286/0.81095/0.617523/-0.255135/-0.271675/-0.671211/-0.60954/0.960366/0.896672/0.485369/1.01356/0.529436/0.0747678/0.168304/0.232934/0.231301/0.420448/-0.748532/-0.597136/-0.726425/0.823276/0.705774/0.984876/0.290679/0.0300732/-0.282887/0.564509/0.406449/-0.804988/0.571809/-0.589597/0.667684/-0.542871/0.857092/-0.682152/-0.959146/0.939645/0.139767/0.932468/-0.574951/0.493046/0.733177/-0.839302/-0.699087/0.533732/-0.648076/-0.057452/-0.856487/-0.758617/-0.0133809/0.917905/0.231403/0.584703/-0.830765/0.964229/0.95673/-0.240397/-0.358165/0.805727/0.552271/0.953144/-0.931233/0.119774/0.801954/-0.500536/-0.632604/-0.128953/-0.377718/1.05362/-0.0293517/-0.838281/0.326977/-0.505008/-0.359598/0.79437/-0.635941/0.667543/-0.448232/-0.691739/-0.194736/-0.0473126/-0.761315/0.894298/-0.570131/-0.197429/-0.19105/-0.261855/-0.459982/-0.250946/0.448764/-0.0181364/0.636002/0.242685/-0.415811/-0.607347/0.485131/0.634948/-0.00158359/0.555517/-0.749717/-0.202703/-0.798098/-0.244403/-0.66769/-0.667161/-0.680256/0.892752/0.684022/0.228221/-0.193415/0.85241/0.559361/-0.82596/0.0954671/0.516246/0.0274772/0.197411/0.408977/-0.749249/0.676593/0.153313/-0.65185/-0.330965/0.173304/-0.573192/-0.577998/-0.553666/-0.719524/0.571125/0.254956/0.326051/0.311579/0.542651/0.597152/-0.59289/0.415997/-0.923606/-0.629564/-0.523819/0.309156/-0.0100472/-0.8646/0.55396/-0.921182/-0.167594/0.576585/0.817928/0.0259406/0.820628/-0.448445/0.966904/-0.827955/-0.10202/-0.798932/0.546785/-0.599168/-0.987852/0.136375/-0.446471/-0.0265878/0.506317/-0.716651/0.468134/0.274749/0.364045/0.0685457/-0.019474/-0.532277/0.0241564/-0.00338494/-0.136638/0.0947204/-0.389442/-0.836915/-0.806532/-0.227731/0.233052/-0.707826/0.624575/-0.919333/-0.613729/-0.378102/0.302502/0.726962/-0.332104/0.455841/-0.828365/-0.348769/-0.846097/-0.425594/0.382649/0.852916/-0.309906/-0.722147/-0.834032/0.230669/0.859139/-0.444009/-0.83263/-0.325088/-0.410493/-0.0302005/-0.835689/-0.857647/0.963153/0.857553/0.372118/0.935566/0.386052/0.468159/-0.551987/-0.0157654/-0.188206/0.513053/0.107909/0.630782/0.216823/-0.485083/-0.318835/-0.00916729/-0.242443/-0.569565/-0.58126/-0.362323/0.442617/-0.930117/-0.801987/-0.682945/0.466278/-0.0212199/-0.0788191/-0.807759/0.750177/-0.0466856/-0.933432/0.0808759/0.875161/0.647288/-0.190204/-0.602857/0.059231/-0.495232/0.104435/0.246626/0.0619096/0.892609/0.445398/-0.711085/0.100188/0.212487/-0.0854483/0.858067/-0.465298/-0.25821/0.420374/-0.901819/-0.508126/0.209473/0.438876/0.763617/0.635634/-0.225102/0.427358/0.762555/-0.731944/1.01175/1.00852/-0.178917/0.286523/-0.336022/-0.917971/-0.0745748/0.911026/-0.0937934/-0.710218/0.280786/-0.132873/-0.940746/-0.0772163/0.326511/-0.32917/-0.353523/-0.246045/0.275412/0.69948/0.319623/0.157165/0.381574/-0.185522/-0.181218/0.172362/0.875048/-0.803891/0.953533/-0.222039/0.674163/0.735952/-0.215367/-0.379329/0.646755/-0.900559/0.633787/-0.8832/0.739222/-0.212035/-0.570042/0.57526/0.73445/-0.105358/-0.75082/-0.207201/-0.781803/-0.388676/-0.345912/-0.400412/-0.10598/0.750153/0.220427/-0.845708/0.455248/-0.764119/0.493601/-0.376777/-0.127684/0.974135/-0.0461431/-0.792662/0.796423/0.179807/-0.105129/0.62364/-0.733203/0.719453/-0.422821/0.0879769/-0.582118/0.341448/0.72312/0.819589/-1.00431/0.640439/0.687633/-0.794973/0.665547/0.0253025/1.07092/-0.565332/0.348234/0.784166/0.0514018/-0.811751/-0.102394/0.709207/-0.314992/0.48842/-0.523625/0.71798/-0.989255/-0.880901/-0.432056/0.468354/0.372948/0.619682/-0.626756/0.113549/0.416045/-0.733388/-0.157459/0.16555/0.920867/-0.478548/0.477187/0.560858/0.478078/-0.705201/0.392694/0.97512/0.235435/0.528103/-0.811659/0.593598/-0.702567/-0.827977/-0.285931/0.374407/0.32689/-0.537883/-0.66324/-0.107449/0.789046/0.52429/0.181914/-0.570832/0.0276655/0.416117/-0.996861/-0.307222/0.287331/-0.919672/-0.911029/0.59103/0.707218/0.495052/0.195415/-0.589334/0.265352/0.0495263/-0.794702/0.137885/-0.457882/-0.733183/0.623831/0.765078/-0.863582/-0.386085/-0.015359/-0.592762/-0.915862/0.309933/-0.876685/-0.442932/-0.354317/0.639616/-0.625177/0.532969/0.128683/-0.215514/-0.359543/0.30393/-0.382599/-0.772567/-0.0213517/-0.041285/-0.0460735/0.645259/0.566522/0.942184/1.01513/-0.0336629/0.141107/-0.86753/0.739846/-0.999429/-0.580073/0.134954/0.0464506/0.397108/-0.839815/-0.772912/-0.331931/-0.132776/-0.479732/-0.288913/-0.145831/0.861158/0.452104/-0.961191/-0.161649/0.676326/0.987432/-0.978479/0.931778/-0.678958/-0.228271/-0.707834/-0.155604/0.375056/-0.535548/0.453878/0.51069/-0.373386/-0.284705/0.952315/0.309601/-0.870368/0.929752/0.336348/-0.995066/0.147238/-0.328027/-0.591054/-0.751073/0.932895/0.080778/0.719772/-0.321687/-0.060771/0.717961/0.769578/-0.579693/-0.148491/0.894957/-0.909955/0.675883/0.0297252/0.484457/0.573444/0.530215/-0.512289/0.175506/-0.680206/0.73717/0.96776/-0.828497/-0.552381/0.131949/-0.328811/-0.331764/0.0411971/0.40043/0.0299705/-0.291136/0.525348/-0.551/-0.650594/-0.535715/0.237689/0.845757/0.638386/-0.654563/0.761877/0.870734/0.42907/-0.615669/0.4553/0.225742/0.0506429/-0.844831/0.921188/0.405019/-0.843243/-0.378058/0.00123128/
0.498171/0.758018/0.00240475/0.416615/0.0525178/0.025267/-0.793182/-0.275884/-0.947189/0.878265/0.337398/0.647869/0.730811/0.704989/0.73257/0.17083/0.875745/0.383782/0.0207113/0.132127/0.657606/0.383587/0.942462/-0.0476299/-0.516509/-0.969001/-0.00182286/-0.636878/-0.0108694/-0.68171/0.494526/-0.1771/-0.280891/-0.490237/0.866494/-0.010328/0.295345/0.888497/-0.2676/0.153462/0.0182903/0.633534/0.984426/0.0844666/0.903636/-0.786548/0.315969/-0.487919/-0.543137/-0.885517/0.280644/0.629071/-0.111989/0.905659/0.793843/-0.0183475/-0.366486/0.476282/0.658087/0.122252/0.790566/0.198829/-0.185644/-0.593647/-0.553124/-0.211511/-0.171668/0.736195/0.136352/0.546469/0.0910912/0.278168/-0.0478331/0.0591604/-0.855555/0.484845/0.574073/-0.226317/-0.912525/0.0957414/0.653945/0.729191/0.741861/0.161464/-0.267309/-0.667565/0.641152/0.240428/0.305576/0.44485/-0.110043/-0.609662/-0.813263/0.423294/0.631735/0.546805/0.00283437/-0.473072/0.29396/-0.370372/0.760016/0.240277/0.865044/-0.828543/-0.31527/0.3389/-0.403657/0.384981/-0.675738/0.750093/0.842768/0.957196/-0.406922/0.866856/0.229821/-0.826314/-0.0216084/-0.9169/-0.5701/-0.123559/0.639043/0.907101/0.118663/-0.426599/0.871842/-0.551915/-0.673938/-0.511814/0.291958/0.823662/0.564072/0.236/-0.368849/-0.232643/0.684181/-0.889155/-0.847412/0.459636/-0.711276/0.150585/0.886838/-0.915239/-0.846244/-0.308117/-0.91142/0.0823026/0.215917/0.860101/-0.803372/0.854964/0.625714/0.883768/-0.145467/0.496731/-0.803454/-0.79672/0.0111244/-0.873964/0.00121638/-0.265443/0.844871/0.902438/-0.412052/0.193497/0.541611/0.255963/0.0440545/0.948314/0.314836/-0.546238/0.18974/-0.6213/0.751157/-0.571213/-0.00081375/-0.720294/0.122807/0.575994/-0.118965/-0.478761/0.334771/-0.422858/-0.693529/0.34947/0.0602577/-0.491167/0.754172/-0.161475/0.86341/0.0105994/-0.905074/0.290547/0.03133/0.579754/-0.414591/0.727762/-0.509896/0.179231/-0.431423/-0.224338/-0.756354/-0.382274/-0.581075/-0.0275486/0.78358/-0.669884/-0.653982/0.978358/0.949275/0.0660261/0.490617/-0.683789/0.965944/0.452433/0.755144/-0.393945/0.0447118/-0.867416/0.780122/0.0504839/-0.495273/0.819884/0.208547/-0.43164/-0.565463/0.267783/0.524957/0.289356/0.199241/-0.170924/0.0686827/-0.591778/-0.850914/0.762649/0.98009/0.573414/0.159898/-0.165231/-0.67904/-0.523945/-0.070527/0.401685/-0.716442/0.445302/0.728297/0.446362/-0.578352/0.260988/0.513672/0.257907/0.955765/-0.327168/-0.71221/-0.105612/0.298016/-0.229271/-0.483504/-0.226675/-0.370559/0.666678/0.238871/0.951738/0.23169/0.748641/-0.352864/-0.909232/-0.947277/0.574351/-0.909973/-0.335312/0.646236/0.874444/-0.957738/-0.0785739/-0.642663/0.891999/0.727658/-0.33694/0.0927394/-0.375109/-0.459293/0.670257/0.859919/-0.131166/-0.224872/-0.257614/-0.0861509/-0.143137/-0.172656/-0.044744/-0.712666/0.724415/0.330517/-0.534677/0.899392/-0.238979/-0.161776/-0.606009/-0.386512/-0.489481/0.831233/0.42039/0.707537/0.588576/-0.992629/0.0458992/-0.246504/-0.44417/0.826737/0.969082/-0.340462/-0.68799/-0.0317247/0.387926/0.172261/0.193502/-0.810061/0.602128/0.0451918/0.414492/-0.999581/-0.647951/-0.741587/-0.555022/0.512528/0.00120508/0.184464/0.151941/0.372777/0.973312/0.698616/0.0316195/-0.501817/-0.848459/-0.64562/-0.604523/-0.221053/0.766334/-0.926653/0.682593/0.588752/0.433217/-1.03782/-0.876499/-0.0501889/-0.893465/0.392532/-0.420784/0.758679/-0.724307/0.812835/-0.591651/-0.740309/0.656747/-0.00698364/-0.898905/0.818732/-0.27922/1.0001/0.695327/0.528903/-0.563895/0.15814/0.532523/0.114396/0.659273/-0.810004/0.198736/-0.515803/-0.495815/-0.223752/-0.831251/0.991729/0.550177/-0.299216/0.175178/-0.285027/-0.0973057/-0.0810605/0.528901/-0.640038/0.269389/-0.501579/0.312109/-0.168043/-0.864146/0.117893/0.203431/-0.0788454/0.52223/-0.501049/-0.499082/-0.0632341/-0.775141/0.826046/-0.465393/0.425383/-0.976363/-0.0159703/-0.175839/-0.190407/-0.00406186/0.241542/0.694087/0.779161/0.164996/0.43859/-0.489481/0.542913/-0.557636/-0.213506/0.978215/-0.23116/-0.885509/-0.315005/0.614668/0.368249/0.184774/0.463961/0.703874/0.00344998/-0.0161621/0.389714/0.791313/0.398262/-0.327708/-0.799858/0.176244/-0.314132/0.978888/-0.863596/-0.834737/-0.869861/-0.390532/0.106004/-0.588942/-0.359945/-0.554208/0.154765/0.828855/0.384287/-0.679681/-0.763142/-0.238199/0.347958/0.482739/0.861796/-0.448618/0.0755815/0.29927/0.139002/-0.20079/-0.233518/-0.817349/0.0698935/-0.984633/0.857143/-0.644826/0.147137/0.995392/-0.503869/0.51464/0.910357/-0.822594/-0.144728/-0.897477/-0.381479/-0.979442/-0.415356/0.846984/-0.369406/0.391576/-0.940429/-0.773567/-0.974602/-0.16588/0.049787/0.770456/0.0346284/0.838125/-0.341943/-0.21075/-0.402286/-0.955676/-0.456831/-0.653976/0.0850825/-0.159239/0.979171/0.878085/0.592811/-0.805688/0.249316/-0.219822/-0.565069/-0.664338/-0.551149/0.484031/0.1373/0.850176/-0.737304/-0.575693/-0.638389/0.291972/-0.822091/-0.883625/0.0428249/0.675689/0.121478/0.489363/0.102458/0.268882/0.697338/0.3441/0.394292/0.883892/-0.574106/0.371452/0.353747/-0.860756/-0.125911/0.362645/0.325837/0.945652/-0.49405/-0.710146/-0.881376/0.670457/-0.0528047/-0.247281/0.0376574/0.735817/0.877918/-0.831925/-0.867875/0.270036/0.349904/-0.784866/0.899465/-0.86284/-0.309239/0.23602/0.873447/0.383305/0.254096/0.520307/-0.499917/-0.193275/-0.898396/0.767546/-0.790351/0.753788/0.653687/0.180464/0.47457/-0.156538/-0.678968/0.861332/0.416063/-0.077159/-0.811253/-0.723686/0.833241/0.803861/0.149232/-0.874813/-0.938341/0.30197/-0.552738/0.80656/-0.657604/0.661952/0.522878/0.400158/0.935947/-0.747317/0.0700777/0.334715/0.00746709/-0.911689/-0.692317/0.762621/0.888721/0.611978/-0.205643/0.442325/0.683851/0.0773154/-0.559698/-0.841691/-0.409189/-0.180429/0.0351555/0.0375781/0.2125/-0.756429/-0.861445/-0.886835/-0.509573/0.782626/-0.939437/-0.863051/-0.0258116/0.632323/-0.310399/-0.434861/-0.325332/0.635717/-0.656902/-0.788632/-0.761598/-0.579082/0.251845/0.51529/0.345598/-0.311662/-0.10435/0.187185/-0.809885/-0.750306/-0.322995/0.312649/-0.12849/-0.136406/0.121953/-0.118522/-0.154151/0.566873/0.744985/-0.909906/-0.496285/0.0961939/-0.342229/-0.846653/0.272081/-0.0889645/-0.120537/0.917997/-0.840297/-0.844312/-0.605821/0.729764/0.664146/-0.25656/-0.00331366/0.307216/-0.191064/-0.368679/-0.81279/0.00800691/-0.0518172/0.340462/0.725482/-0.181389/0.00154472/0.629279/0.0911217/0.793627/0.970269/-0.356428/0.166258/0.199625/-0.482838/-0.355604/-0.0369446/-0.64189/0.198116/-0.518338/0.638428/0.250824/-0.35471/-0.461753/-0.683693/-0.823723/0.195115/0.202468/0.680596/0.922953/-0.673018/-0.0898576/-0.948887/0.142046/0.0717699/-0.820161/0.867291/-0.907272/0.580228/0.506991/0.0421734/-0.458119/-0.552992/0.559292/-0.0439589/0.0544595/-0.472351/0.000537484/0.816974/0.185943/-0.948285/0.425632/-0.400837/-0.860662/0.42211/-0.583251/0.727744/0.977376/-0.529875/-0.516434/0.618629/0.0654653/-0.440904/-0.970999/-0.554872/0.895714/-0.269683/0.7913/0.870641/0.983842/0.239517/0.305648/0.900883/-0.875201/0.122865/-0.52586/-0.80953/-0.604185/-0.146927/-0.958954/0.865336/-0.295789/-0.700437/-0.0494486/-0.916147/0.746803/0.913359/0.415323/0.19229/0.719807/0.502262/-0.0316273/-0.931879/-0.0654241/-0.748243/0.557751/0.530686/-0.52269/0.307776/-0.415761/0.600584/0.800165/-0.924804/0.786987/0.657846/0.569277/0.0108892/0.948104/0.788807/-0.528719/-0.185826/0.821566/0.0663602/-0.684661/0.901588/-0.997978/-0.656189/-0.51039/-0.124248/-0.235391/-0.218978/-0.35729/-0.968325/-0.629874/-0.284572/-0.80956/-0.280522/-0.726597/0.0891865/0.957715/0.309212/0.922997/0.807897/0.319299/0.460124/-0.690161/0.496768/
-0.621711/0.905764/-0.825978/-0.220066/-0.653475/0.989004/-0.0391701/0.865596/0.187805/-0.745894/0.157312/-0.049049/-0.366587/0.775412/0.339231/0.950919/-0.890338/-0.906279/0.730973/-0.515508/-0.14813/0.378571/0.635481/0.537068/0.499901/-0.160603/0.746343/-0.215066/-0.614317/-0.818817/0.130362/-0.950254/0.144696/0.0484179/0.89337/-0.663838/0.472941/0.355651/0.470692/-0.0176508/-0.552826/0.687039/-0.906727/-0.326449/0.378784/-0.884196/0.720917/-0.860442/0.0171286/0.883879/0.487181/0.342803/-0.852543/0.0484465/0.529077/0.171026/0.438841/-0.407416/0.455364/-0.224051/-0.406396/-0.0768315/0.930841/0.671429/0.733556/0.640372/0.966199/0.0339726/-0.437008/0.948479/-0.0377344/0.41949/-0.113802/0.245099/0.487895/-0.770704/-0.888326/-0.116745/-0.883108/-0.0287933/0.417743/-0.500368/-0.15934/-0.229611/0.930699/0.254516/0.0787385/-0.591597/0.419429/0.260084/0.245246/-0.218953/-0.796475/-0.138838/0.344161/-0.315753/-1.00331/0.121817/0.24012/0.414604/-0.372499/-0.134437/0.11226/-0.0230178/0.0707114/0.775069/-0.111466/-0.327458/-0.293952/-0.611079/0.663445/0.0144416/0.719464/0.0274848/0.302274/-0.411547/-0.0346646/-0.121559/-0.713752/0.176131/-0.832655/-0.540574/0.321519/0.102853/0.344319/-0.940723/-0.457372/0.615491/-0.688325/0.0810602/-0.0469912/-0.394758/-0.906807/0.129113/-0.785347/-0.433226/0.389429/0.621066/0.375938/0.664938/-0.386003/0.44719/-0.223304/-0.523309/0.86267/0.595161/0.208656/-0.501058/0.0126121/0.852767/-0.884636/0.981601/-0.395582/-0.589031/0.291456/-0.137088/0.340158/-0.19767/0.582371/-0.894932/0.70884/0.169001/-0.650803/-0.0620373/-0.16974/0.458628/0.377344/0.634237/-0.372533/0.832897/-0.320827/-0.396303/-1.00578/-0.843243/0.696205/0.729731/0.323309/0.208985/0.924319/-0.53803/0.865919/0.650731/-0.349458/-0.125323/-0.4393/0.294389/0.438726/-0.396848/0.223969/-0.683329/0.442462/0.552108/0.900789/-0.219542/-0.425119/0.351799/0.685789/0.0530635/0.630099/0.688155/0.157036/0.122311/-0.114786/-0.366474/0.148072/0.285712/-0.762747/0.750275/0.368159/0.917209/0.992115/0.754848/1.00275/-0.275154/-0.673133/0.318292/-0.978741/-0.358614/0.880015/-0.768148/0.624892/0.378976/0.686369/0.172922/0.296108/0.685382/0.942303/0.965907/0.744198/0.14368/0.215301/0.218803/-0.517061/-0.165243/-0.267262/0.477853/-0.649285/0.880334/-0.226665/-0.812331/0.152682/-0.244847/-0.555315/0.842845/-0.540217/0.969255/0.905547/-0.550953/0.130865/-0.804482/-0.704072/-0.477897/-0.0232419/-0.62599/0.663652/-0.420976/0.37575/0.758124/0.520831/0.552537/-0.930659/-0.18369/0.0267401/0.237933/-0.204729/-0.996154/0.294286/0.357635/0.599971/0.0600698/-0.217707/-0.0852434/-0.880761/-0.81739/-0.0226089/0.754447/-0.498917/0.786556/0.19834/0.239762/-0.326915/-0.467445/-0.479583/0.932628/0.00643917/0.365585/-0.165199/-0.900835/-0.115242/-0.419797/0.64024/0.737025/0.509177/0.933541/-0.258261/0.741685/-0.12419/-0.366759/0.848051/0.218058/-0.206691/-0.778852/0.100636/0.289108/0.0463054/0.89753/-0.0821566/0.722261/-0.963203/-0.551936/0.610146/-0.076754/0.168896/-0.625657/0.942049/-0.202997/-0.957911/-0.447809/-0.668497/0.287778/-0.0194641/-0.232643/-0.739319/-0.745875/0.281714/-0.703189/-0.315936/0.745363/0.50709/-0.614365/-0.896019/-0.580876/0.0840601/-0.203468/0.173092/0.862938/-0.59991/-0.685642/-0.777451/-0.774283/-0.641872/-0.914616/0.521199/-0.529517/0.897202/0.384596/0.793549/-0.211009/0.831268/0.0444037/0.260627/-0.323525/-0.996724/0.185904/-0.563601/-0.930314/-0.326649/-0.19042/0.759082/0.123224/0.811639/-0.521398/-0.926221/-0.54405/0.143363/-0.496719/-0.281553/0.233007/-0.480805/0.621306/-0.13348/0.00714166/-0.274289/0.718702/-0.683255/0.281221/-0.837497/-0.722814/-0.0564584/-0.742916/-0.753284/0.585413/-0.972268/0.100153/-0.144617/-0.810647/-0.230879/0.555246/-0.0534501/-0.0224214/0.112489/-0.647764/-0.975573/-0.461563/0.392822/0.226781/-0.0916807/0.0334302/0.769471/0.220741/0.513142/-0.945734/-0.207641/0.515131/0.67134/0.403492/-0.171442/-0.547437/-0.0734577/-0.934172/0.804389/-1.05365/0.644512/0.34725/0.0888981/0.871915/-0.732937/0.493683/-0.582459/-0.440591/0.989039/0.783973/0.500879/-0.384929/-0.0288889/-0.243017/0.247643/0.244049/-0.330859/0.564153/-0.394458/0.526777/-0.0802858/-0.490126/-0.389456/0.566087/-0.331821/0.847799/-0.759461/0.844021/0.367276/0.629264/-0.507449/0.461609/0.72326/0.126055/-0.758984/0.160295/0.0829784/0.619124/-0.163661/0.623297/0.430188/0.326364/0.710257/-0.309474/-0.36363/-0.650447/-0.371029/0.688237/0.26092/-0.937954/-0.203667/0.135427/-0.07659/0.28763/0.809603/-0.102791/-0.892286/-0.0382217/0.425559/-0.0690521/-0.929041/-0.479471/0.0398731/0.695038/-0.488164/-0.565058/0.268105/0.00350365/-0.301671/-0.33509/0.237422/0.247378/-0.800833/0.553442/0.581449/-0.457079/0.816589/0.496745/-0.527809/0.423997/0.637598/-0.125035/-0.57426/0.694477/-0.924196/-0.938643/-0.302954/-0.839886/-0.49494/0.227463/0.55029/-0.476541/0.774205/0.0607913/0.925256/0.489615/-0.838588/-0.568159/0.881745/0.94233/0.929288/0.624793/-0.00406501/-0.767947/0.421712/0.187472/0.820986/-0.863649/-0.996045/0.128128/-0.0117518/0.783641/0.833734/0.779268/-0.783617/-0.915963/0.737803/0.678283/0.912263/0.0928799/-0.968345/-0.982498/0.89474/-0.859134/-0.126023/-0.155525/0.216705/-0.777979/0.0335189/-0.79547/-0.562175/0.50238/0.612794/-0.314847/0.72387/0.503542/-0.335439/0.502331/0.882188/-0.627054/-0.807889/0.866027/0.263298/0.0877897/-0.345456/-0.428153/-0.405979/-0.120635/0.494808/0.240646/0.71204/-0.118692/-0.0233786/-0.88463/0.815466/-0.526906/0.808465/-0.775884/0.216374/0.358763/0.426374/-0.32214/0.0355592/-0.257928/0.453359/-0.0254413/-0.0703549/-0.0908983/0.890496/-0.884496/-0.488527/-0.244709/0.719883/0.831181/-0.768941/-0.31331/0.206675/-0.404718/-0.91699/-0.718283/0.200698/0.844089/0.325192/0.919697/-0.109631/0.363858/0.746247/-0.785942/-0.190422/0.163373/-0.826275/-0.438625/0.890573/-0.335459/0.942542/0.197765/0.904017/0.254568/0.00455633/0.448702/0.78724/-0.804519/-0.65842/0.615371/0.544088/0.494411/0.465042/-0.910073/0.63481/0.909197/-0.0659315/-0.198282/-0.380776/-0.942892/0.867946/0.000389217/-0.763697/0.279536/0.954864/0.00198303/-0.634149/0.188952/-0.0579494/-0.82193/-0.831415/-0.0517306/0.195689/0.446848/0.568189/-0.857594/-0.799058/0.381839/-0.425191/-0.180499/-0.415635/-0.815394/-0.735515/-0.678422/-0.177178/0.660063/-0.030756/0.0203868/-0.756723/0.504846/0.113446/-0.376392/0.917001/0.896097/0.0782708/-0.552884/-0.150115/-0.0792216/-0.57435/-0.482523/0.118972/-0.835689/-0.634257/-0.979655/0.584408/0.907903/-0.874252/0.445132/-0.177431/0.496026/0.687045/0.208102/-0.600381/-1.02596/0.911272/0.879369/0.0405614/0.0561457/-0.452881/-0.370347/-0.0411015/0.820911/0.797059/0.343617/-0.745353/-0.735351/-0.255086/0.986829/0.472618/0.325317/0.821192/0.595154/-0.622411/0.48505/0.231954/0.443301/-0.00769227/-0.735018/0.277947/-0.554259/0.778018/0.735756/0.727381/-0.905427/0.170859/0.496746/-0.798541/-0.504079/0.874045/0.185843/-0.567823/-0.204339/0.932528/-0.0708074/0.980436/0.574437/0.143861/0.212728/0.860407/0.376311/-0.240729/0.0578816/0.816502/0.940948/-0.0588492/0.224403/-0.903713/0.35856/-0.404005/-0.561656/-0.688135/-0.0434611/0.554849/-0.42415/0.382525/-0.952129/-0.94423/0.986562/-0.245778/-0.632429/-0.274543/0.895881/0.749146/-0.930159/0.593533/-0.062314/0.026545/0.433788/-0.149466/-0.0358536/-0.591325/-0.392696/-0.0492225/0.716604/-0.0428517/-0.208209/0.633431/0.0880791/-0.805288/-0.327043/-0.606838/0.874379/-0.316818/-0.753778/-0.750638/0.0250586/-0.840475/0.129578/-0.18012/0.721732/0.144163/0.951485/-0.383691/-0.702878/0.726792/-0.811033/0.960227/0.536043/-0.787199/
0.0771658/0.925486/0.647823/-0.0345318/-0.375377/0.0877652/0.774006/-0.432869/0.36459/-0.472398/-0.0485356/0.262079/0.765291/0.274302/0.22524/-0.617919/0.224097/-0.0152958/-0.0187816/0.290862/0.51266/0.277939/-0.679731/-0.234426/0.00611891/0.840519/0.604488/-0.364579/0.523858/0.48631/-0.581273/-0.558468/-0.794438/0.71046/0.73838/-0.374645/-0.341748/0.868701/-0.512751/-0.268202/-0.266402/0.735344/0.161229/-0.0440333/-0.686021/-0.166721/-0.685064/-0.366904/0.524682/-0.900747/0.612106/0.483624/-0.470492/0.292861/0.0193677/-0.514271/0.650759/-0.68794/0.00332717/-0.391189/0.742543/0.633503/-0.304101/-0.0745296/0.756827/0.943712/0.248127/0.843611/-0.201211/0.823054/-0.665607/0.796509/0.815436/0.600179/0.905434/-0.0904554/-0.867855/0.649729/0.085508/-0.122875/0.736227/-0.579811/-0.901727/0.940498/0.950136/0.938441/0.508315/0.119961/0.471321/0.886111/-0.424837/-0.24822/0.733393/0.715999/-0.0447381/-0.0801564/-0.668035/0.634439/-0.120815/-0.032938/-0.564788/0.308401/-0.48173/0.641071/-0.765326/-0.261178/0.507859/-0.298479/0.962243/0.185131/-0.437471/0.800175/0.541286/-0.610433/0.0268414/0.0953973/0.190119/-0.737958/0.373452/0.562743/-0.202275/-0.951575/-0.244613/-0.283612/-0.15748/-0.594285/-0.587484/0.94589/-0.790731/0.303832/-0.734825/-0.929257/0.891522/0.335828/0.868379/-0.182745/-0.766932/-0.601143/-0.794407/-0.475778/-0.403307/-0.373848/0.00705741/-0.919838/-1.00983/-0.423586/-0.635242/0.517522/-0.235925/-0.592484/0.280306/-0.582289/-0.897716/0.0810707/0.736278/0.0134374/-0.000132557/0.6073/0.708679/-0.876917/-0.658965/0.594497/0.870693/0.302908/-0.836224/0.971682/-0.569449/-0.696859/-0.102062/0.651798/-0.775122/-0.475851/0.962711/0.270313/0.689729/0.310897/0.0508182/-0.590696/-0.686231/0.377747/-0.329203/0.55631/-0.19322/0.0716429/0.137374/0.881128/0.279101/-0.988146/-0.97314/0.225801/0.310252/-0.530568/0.144484/0.689158/0.557623/0.28131/-0.0203861/-0.629521/-0.0184737/0.647124/0.455832/0.292271/0.0834644/-0.542219/-0.382856/-0.23657/-0.661007/0.350806/0.87912/-0.108495/-0.533549/0.679002/0.951282/-0.929947/0.194351/0.0461141/0.234998/-0.773471/-0.359831/-0.221035/-0.250818/-0.29913/0.396032/0.198504/0.25993/0.644068/-0.767256/0.531678/0.00881341/0.915945/-0.1656/-0.577305/0.733702/0.577871/-0.534444/-0.0327395/0.516234/-0.115217/0.455804/-0.405017/-0.414924/-0.547419/-0.891882/-1.00744/-0.872053/0.366808/-0.51447/0.730525/-0.625385/0.0686245/-0.249993/0.845843/0.0835403/0.0607535/0.79176/-0.47507/0.953069/0.625886/-0.670925/-0.055954/-0.525776/0.0399541/-0.693662/-0.3781/0.50455/-0.639724/-0.283889/0.637459/-0.215557/-0.546024/0.866229/0.598478/-0.355166/-0.831631/-0.551432/0.0169769/-0.714619/0.786784/0.148638/0.175035/-0.181771/0.978134/0.728451/0.253094/0.835201/0.419681/-0.891722/-0.252567/0.335261/-0.387747/0.938223/-0.0571431/-0.806298/-0.183888/-0.00128348/0.602139/-0.513614/0.0630224/0.426131/0.656686/-0.0435613/-0.882652/0.794691/0.426244/0.411231/-0.173965/-0.84965/-0.0937085/-0.95835/-0.986899/-0.826641/0.210238/-0.803642/-0.5412/-0.162943/-0.496602/0.515654/0.0108767/0.686053/-0.155546/-0.576419/0.670456/0.515683/0.220847/0.163607/0.865572/-0.961655/-0.35099/0.0431503/-0.0645985/0.548591/-0.741504/-0.0937955/0.795601/0.744389/0.79182/0.121649/0.54659/-0.395072/0.713353/-0.0662715/-0.237734/0.366836/-0.507334/-0.589222/0.0642395/0.362456/0.812287/0.252793/-0.64691/0.1276/-0.821002/-0.404908/0.534594/0.5984/0.898067/-0.823869/-0.877197/-0.767025/0.639575/-0.33819/-0.0115171/-0.173114/-0.256527/0.543984/0.74434/-0.712603/-0.96527/-0.393853/-0.158735/-0.207375/-0.656553/-0.112352/0.850198/0.278702/-0.577082/-0.470596/0.464831/-0.415536/-0.380975/-0.316126/0.571736/-0.192925/-0.042139/0.794544/-0.591951/-0.640206/0.918674/-0.901465/0.383398/0.750293/0.0912805/0.151332/-0.565913/0.930365/0.716762/0.0332039/0.136076/-0.454086/-0.670159/-0.546667/-0.0825056/-0.672138/-0.655053/0.341097/0.876986/0.257132/0.708815/0.760233/0.4861/-0.313401/0.157756/0.590848/0.329617/0.522458/-0.208395/0.389476/0.42261/0.451927/0.274157/-0.240243/0.242561/-0.659663/0.677139/-0.880913/0.263666/-0.236262/-0.546641/0.497678/-0.14277/-0.945152/-0.00266433/0.612425/0.169555/0.167767/-0.155873/-0.797029/0.247289/-0.509574/1.01952/-0.359556/-0.490451/0.823922/-0.11258/0.460371/0.199266/-0.518118/0.720259/-0.61274/-0.325283/-0.523485/0.00678521/-0.834957/0.593899/0.223678/-0.505299/0.682568/-0.0546678/-0.928937/-0.55319/-0.148559/0.737096/0.567937/-0.929337/0.178817/0.932207/-0.927125/0.0478557/0.242182/0.62508/-0.686867/0.241586/0.737341/-0.71456/0.389227/-0.946817/0.837314/0.74322/-0.477455/0.646054/0.596384/-0.985736/0.557765/-0.228804/0.292953/-0.569487/-0.384713/-0.745412/-0.811678/-0.730819/0.138279/0.297878/-0.251898/0.726102/0.979788/-0.258924/-0.981439/-0.502315/0.333601/0.557923/-0.301063/-0.697697/0.420615/0.415706/0.762963/-0.882755/0.203507/-0.594377/0.29025/0.388247/0.439753/-0.676194/0.062539/-0.00812279/0.865963/-0.514621/-0.773971/0.595846/-0.140148/-0.89236/-0.0719478/-0.7069/-0.0253778/-0.365606/-0.938289/0.730436/-0.876614/-0.0644138/0.817123/0.529218/0.803324/0.277119/-0.464534/0.576142/-0.808793/-0.486938/0.739626/0.679577/-0.481292/-0.947626/-0.369725/0.640783/0.20491/0.0522866/0.149932/0.750478/0.151425/-0.929694/-0.713473/0.71241/-0.974303/-0.359972/0.431759/-0.0446666/0.268379/-0.0128603/-0.11876/-0.775118/0.1867/-0.679521/-0.703168/-0.144322/-0.0410415/-0.461234/0.202653/0.8957/-0.994707/-0.831629/-0.0395324/0.601212/0.79488/-0.648355/-0.856055/0.558538/0.731719/0.197122/0.327749/-0.842939/-0.117732/-0.613327/-0.363756/-0.828763/0.10244/0.26479/0.135948/0.789821/-0.342825/0.847825/-0.606728/0.725404/-0.951206/-0.230805/0.264389/0.624492/-0.559662/-0.732653/0.104822/-0.880224/0.661061/0.465834/-0.158551/-0.579299/-0.711577/0.370342/-0.00133652/-0.347559/0.399517/-0.812182/-0.467817/-0.358719/-0.957972/-0.526091/-0.271195/-0.908898/-0.999321/0.131286/0.520929/-0.745298/0.11191/-0.285629/0.400909/-0.340603/-0.150348/0.151932/-0.9798/0.7312/-0.735644/0.239349/0.969792/0.300622/-0.272076/0.858577/-0.80526/-0.269467/0.634788/-0.182513/0.111051/-0.675877/-0.460441/-0.192274/-0.197354/0.0845046/-0.763148/-0.463092/0.810315/0.957701/0.685101/-0.548587/0.182214/0.307078/0.903031/0.424342/0.165786/-0.722919/-0.294162/-0.744238/-0.592054/-0.601479/-1.0104/-0.211345/-0.751319/0.133522/-0.393024/0.859748/-0.607479/-0.13982/-0.229675/-0.877457/0.84123/-0.878119/-0.889949/0.51467/0.0566426/-0.00763988/-0.595609/-0.517495/0.628932/-0.923719/0.760342/0.786016/-0.0779008/-0.829977/-0.991827/0.502281/-0.879752/0.384374/0.684779/0.050164/-0.340566/0.937258/0.265984/-0.382444/-0.800853/-0.578396/0.207829/0.385052/0.283862/0.240725/-0.795815/0.612085/-0.685332/-0.368062/0.112764/-0.581685/0.565161/-0.56732/-0.261685/-0.483157/0.967833/0.742278/0.860533/0.835936/-0.564151/0.527137/0.891094/-0.41487/0.927784/-0.618335/-0.146313/0.368667/0.299914/0.187948/-0.554504/0.836801/-0.0975318/0.121657/-0.134689/0.199768/-0.494592/-0.612888/0.955116/-0.896286/-0.976305/-0.033127/-0.747725/0.954331/0.134923/-0.191141/-0.990851/0.739147/0.768406/-0.525612/-0.413741/0.859516/-0.909335/0.994798/0.0170112/-0.928441/-0.607716/0.940947/0.65125/-0.502721/-0.291464/-0.0169292/-0.173583/0.568737/0.769647/-0.548846/-0.45708/-0.14218/0.3865/-0.100155/0.693832/-0.759839/-0.587763/-0.514225/-0.584354/0.763183/0.822776/0.403353/-0.84834/-0.0453704/-0.539851/0.731109/-0.247614/0.345967/0.666415/0.43611/-0.303944/-0.382921/0.240105/-0.551462/-0.419768/0.954298/0.858856/
0.528998/0.863944/0.312843/-0.052282/-0.702764/0.321478/-0.775916/-0.989013/-0.251477/-0.60072/-0.302375/-0.0162277/-0.739303/0.532379/-0.305924/0.335381/0.743724/-0.228939/0.225026/0.0150644/-0.812345/0.922189/-0.775456/0.912651/0.930187/-0.355326/0.0438176/0.442008/0.834397/-0.282198/-0.910478/-0.427352/-0.614625/-0.861264/-0.617192/-0.751607/-0.118034/0.857869/-0.866257/0.753634/-0.826863/-0.24576/-0.696243/0.631401/0.299821/0.316497/0.383957/0.58927/-0.781451/0.73224/-0.954243/0.51842/-0.0692608/0.975081/-0.481432/0.545267/0.295279/0.746307/-0.856877/-0.817058/-0.543779/-0.517864/-0.38677/-0.00887148/-0.357729/-0.871234/0.166417/0.703871/-0.947604/0.0202884/-0.469131/-0.0151465/-0.0149378/-0.784193/0.700863/-0.979701/0.908548/0.590238/0.612637/-0.329453/-0.619648/-0.190806/-0.880217/0.556997/-0.544017/0.711476/-0.431713/-0.40705/0.722394/0.0231177/0.437582/0.754762/-0.545747/0.50208/0.219464/1.00506/-0.251251/-0.624185/0.917302/0.744855/-0.742349/0.754035/-0.505331/0.499426/0.106191/0.358922/0.667081/0.416447/-0.932037/-0.520273/0.669011/-0.340452/0.021871/-0.414217/-0.437893/0.756221/0.647352/0.838872/-0.610091/-0.50908/0.0998009/0.495321/-0.594478/-0.726346/-0.186133/0.84697/-0.103808/0.431191/0.158233/0.456093/-0.717266/-0.0216398/0.110286/0.138061/0.592758/0.418899/0.456926/0.814619/-0.580601/-0.25668/-0.0159271/0.312844/-0.141465/0.0892358/-0.158082/0.91599/0.0592909/0.849175/0.213087/0.0594359/-0.618422/0.576937/0.745524/0.345399/0.927868/-0.958495/0.753946/0.543223/-0.9173/0.583403/0.057798/0.227704/0.124942/0.284133/0.0530044/0.299652/0.137707/-0.95426/-0.246302/0.40574/-0.0845274/0.888078/0.809404/-0.941791/-0.0112916/-0.147931/0.983595/-0.85286/0.89969/-0.556492/0.875239/0.462575/0.712663/-0.941741/0.83552/-0.236181/-0.518405/-1.01083/0.349259/-0.677329/-0.771686/-0.565221/-0.790928/-0.312348/-0.811469/-0.233012/-0.238017/-0.356004/0.284996/0.813862/-0.0517404/0.875745/0.852447/-0.399727/-0.295744/0.0144331/0.379579/0.353691/0.303508/-0.249643/0.922471/-0.410857/-0.922673/-0.496331/-0.574072/0.296691/0.320432/-0.429801/0.592356/-0.814406/-0.665977/0.680174/-0.652701/-0.747298/0.169428/-0.422251/-0.725957/0.447752/0.488765/-0.715853/0.973571/-0.70693/-0.196349/0.273765/0.911013/-0.959102/-0.798894/0.751214/0.182127/0.527171/0.514537/0.770661/-0.673462/-0.850605/0.222482/-0.873314/-0.0359945/0.704897/0.580604/0.408687/-0.652089/-0.493418/-0.884441/-0.798163/0.817959/-0.404838/0.561364/0.547075/-0.50125/0.572572/0.439767/0.94152/0.498576/0.932347/0.327021/-0.131151/-0.744842/0.400161/0.883154/-0.649486/0.956516/-0.871786/0.163435/-0.749865/0.890205/0.185714/0.370104/-0.982905/0.722102/0.764403/-0.682076/0.355158/-0.523934/0.810949/-1.00127/-0.292586/0.883997/-0.267717/0.536074/0.762156/0.0927734/0.855587/0.134354/0.492824/-0.812048/0.754496/-0.0925749/-0.00865833/0.905334/0.0364905/0.915562/-0.492335/-0.969714/-0.885281/-0.404078/-0.0643555/0.617248/0.901766/-0.0204614/0.105856/-1.00057/0.563078/-0.143576/-0.516554/-0.525771/-0.96969/-0.389011/0.0315172/0.278106/0.592253/-0.915084/0.864445/0.131766/-0.426431/-0.326827/-0.48017/0.470225/0.131722/-0.740682/-1.07374/-0.0878567/-0.182801/0.25281/0.659418/0.83681/0.534683/0.420219/0.620139/0.284703/0.921061/0.817919/-0.469442/-0.445894/-0.497378/-0.117659/0.791438/-0.638034/0.0296896/-0.786899/0.847659/-0.342032/0.0702444/0.939939/-0.586769/0.0989732/-0.697803/-0.465593/-0.211837/-0.368805/-0.706384/-0.0515154/-0.301742/0.350524/0.714316/-0.486744/-0.714118/-0.757463/-0.31096/0.304903/0.674444/-0.395263/0.831021/-0.848351/0.1343/-0.544573/-0.107321/-0.0784039/0.498917/-1.00695/-0.570057/0.567272/0.681034/0.335669/-0.374595/0.628643/0.230586/-0.11225/-0.76583/0.550689/0.274401/0.3691/0.620953/0.356679/0.708323/0.957302/-0.696296/0.723143/-0.0120163/-0.872234/-0.790208/-0.433192/0.281586/-0.538218/0.811016/0.104842/0.868567/-0.766869/0.269156/-0.80455/0.32975/0.624882/-0.840954/-0.388124/0.330748/-0.695726/-0.687676/0.295251/-0.822707/-0.300354/-0.267366/0.377554/-0.443981/-0.587978/0.814671/0.946311/-0.3008/0.0706071/0.32855/0.903076/-0.226732/0.766395/-0.773027/-0.974176/0.593404/-0.491274/-0.54479/0.701038/-0.288357/-0.023695/-0.832503/0.667847/0.0155106/-0.453879/-0.22833/-0.231343/-0.36368/-0.392088/0.0953537/0.609257/-0.219226/-0.329377/0.852203/0.831241/0.887233/0.753137/-0.703232/-0.54553/-1.00413/0.912047/0.953622/-0.364095/0.0829741/-0.209042/-0.116247/0.161227/-0.825355/-0.685982/0.885387/0.226417/0.220768/-0.190441/-0.201726/0.941408/-0.244913/-0.739927/-0.325584/-0.0899223/0.676238/-0.0620604/0.466937/-0.0138954/0.378896/-0.766813/0.37983/0.385766/-0.632885/0.243349/0.728554/0.982634/0.0534586/0.897242/0.171071/0.232034/-0.0938083/0.644106/0.290455/-0.895809/-0.456989/0.52168/0.700182/-0.122459/-0.0250665/-0.847832/-0.478088/0.776963/0.412635/0.936505/-0.616681/-0.457657/-0.297769/0.375472/0.00809016/0.0329819/0.448762/-0.057436/-0.117177/-0.711088/0.300898/0.652998/-0.479781/0.528165/0.665461/-0.965844/-0.438567/0.765974/-0.510365/0.0244122/-0.365044/-0.144362/-0.990032/0.536483/0.779864/-0.831965/-0.839898/0.666043/-0.217086/0.61651/0.574882/0.187196/-0.863475/0.817898/0.618574/0.961063/0.74917/-0.811427/-0.73078/-0.466273/0.743248/-0.186667/0.144872/0.233645/-0.554476/0.830302/-0.746875/0.212302/0.579503/0.422344/-0.225242/-0.850981/0.586385/-0.622213/0.470609/0.692306/0.318701/0.565894/0.193467/-0.0169486/-0.223175/0.337466/0.131734/0.664707/0.339781/0.504765/-0.340212/0.218089/-0.463325/-0.0411811/0.86899/-0.487708/-1.01413/0.718384/0.630227/-0.500875/0.794696/0.60303/0.396871/0.694291/-0.710044/0.296766/-0.253497/-0.700541/-0.0194878/-0.991396/0.118199/-0.738045/0.380977/0.981498/-0.568559/-0.814263/-0.0545922/0.478656/0.166832/0.501543/0.480559/-0.598703/-0.847904/-0.730856/0.168718/-0.417395/-0.107859/0.779545/0.140742/0.0314384/0.863041/-0.262787/-0.49779/-0.353825/-0.73498/-0.669339/0.0175139/0.890748/-0.397705/0.140777/-0.915017/0.497896/-0.106388/0.955552/-0.639855/0.915849/-0.952183/0.61279/0.306024/0.411232/-0.718136/0.765686/-0.722436/-0.29178/0.180315/0.213212/-0.183414/-0.200417/-0.608727/0.0354566/-0.564985/0.299432/0.550086/-0.849357/0.747231/-0.415475/0.598196/0.0526789/0.53069/-0.863601/0.867406/-0.116706/0.771668/-0.665982/0.198291/-0.633052/0.131696/0.025564/-0.600005/-0.908856/0.241447/-0.906618/0.195968/-0.21016/0.377518/0.113127/-0.923374/0.802754/0.54447/0.913972/-0.880771/0.322764/0.0356531/0.957482/-0.795202/0.0558371/0.115462/-0.322795/-0.600137/-0.931062/-0.846121/-0.211291/-0.389449/0.338043/-0.560062/-0.425212/-0.914249/-0.637376/0.0305362/-0.922352/-0.15777/0.846255/-0.591909/0.923719/-0.260276/0.124623/0.22499/-0.596379/0.666408/0.501292/0.726448/-0.0564803/0.527446/0.241641/-0.934932/-0.259031/-0.970047/0.248468/-0.819856/-0.413375/0.414086/0.401428/0.0323601/-0.962179/0.461562/0.134247/-0.97838/0.248632/0.371695/-0.631605/0.0246853/0.998545/-0.537028/-0.53309/0.310479/0.222883/0.00136171/-0.993681/-0.438513/0.116709/-0.28268/-0.158363/-0.10859/-0.974839/0.970803/0.959904/0.69481/-0.977394/0.731757/0.9148/0.934363/-0.551519/0.980691/0.031597/-0.465498/0.963258/-0.0264074/0.848191/0.257997/-0.383421/0.606868/-0.731829/0.146091/-0.650883/0.604141/-0.202596/0.963095/0.741062/-0.977927/-0.0169957/0.352244/0.155354/-0.966508/-0.0943078/0.969629/0.561254/0.999094/-0.221161/0.943503/-0.544503/0.539028/-0.558284/0.912715/-0.00411244/0.88221/-0.69067/-0.0868279/0.683581/0.952285/-0.939179/-0.776592/-0.254989/
0.400791/0.0934811/-0.863642/0.771135/0.473308/0.897654/0.969755/0.242344/0.000669785/0.246002/0.405339/0.530421/0.782655/0.154828/0.265283/0.0709616/-0.430607/-0.279393/-0.644267/-0.269727/0.695906/0.0854125/-0.472066/-0.0054802/-0.105793/-0.0588933/0.180555/0.583589/0.384197/-0.809221/-0.575525/0.428819/-0.967148/-0.614279/-0.339874/-0.966837/-0.487993/-0.0321692/0.784253/0.350822/0.473436/0.750006/0.786815/0.169548/0.105551/-0.992557/0.623861/-0.52088/-0.126931/0.171169/-0.517683/0.259873/0.585823/0.0119616/-0.33142/-0.197546/-0.161433/0.798208/-0.334821/0.603187/0.751599/0.494189/0.868708/-0.574178/0.0796593/-0.421383/-0.579416/0.624914/0.59464/-0.625979/-0.276039/0.354442/-0.854499/-0.621781/0.0354762/0.580699/-0.814287/0.918865/-0.417933/0.216174/0.692927/-0.757773/-0.0161121/-0.312829/0.289531/0.139291/-0.901454/0.295841/-0.705711/-0.218534/0.714746/-0.580908/0.230041/-0.94348/0.991713/-0.0662966/-0.415637/-0.688646/0.900768/-0.853326/-0.747568/0.225967/-0.00243109/-0.912866/0.806499/-0.061416/0.624693/-0.770465/0.272719/0.488533/0.106088/-0.190097/-0.968138/0.506407/0.327902/-0.111802/0.750492/0.959278/0.73233/0.972736/-0.925653/0.684912/0.592034/-0.388101/0.144196/0.767725/0.446398/0.882507/-0.419815/0.217134/0.677208/-0.00916373/0.431704/-0.53407/0.56625/0.457868/-0.639512/-0.764329/0.0125126/0.356227/-0.894502/0.0975867/0.253845/0.332985/-0.336349/0.473531/-0.239927/-0.978201/0.39613/-0.609616/-0.0846296/0.972124/0.568617/-0.323155/-0.74413/0.222938/0.470784/0.576018/0.176768/0.589814/-0.812132/0.858892/0.732576/0.861513/-0.0966412/0.876569/0.302475/0.266226/0.452505/-0.740077/-0.109495/-0.291527/0.820388/0.744292/0.597139/-0.341077/-0.283983/-0.327242/-0.329582/0.185729/-0.909599/0.320972/-0.639732/0.807086/-0.645024/0.343768/0.177145/-0.86957/-0.580891/0.0466017/0.626427/-0.683858/-0.344211/0.906535/-0.780119/0.182716/0.902075/-0.826697/0.84811/0.207532/-0.284146/-0.721177/-0.735933/0.418055/-0.941159/0.0915157/0.104718/-0.989265/0.318742/-0.664751/0.984688/-0.616122/-0.309894/-0.248445/0.0499116/-0.139612/0.786217/-0.170334/0.745771/0.0787509/-0.588274/0.333819/-0.338048/0.922857/0.465903/0.425532/0.103076/-0.986961/-0.927239/-0.833023/-0.88768/1.01673/0.435458/0.121303/0.303557/-0.255317/-0.504831/0.723513/-0.779879/0.582215/0.538217/-0.00307557/-0.0733653/0.175859/0.739523/0.457657/-0.65233/-0.81066/-0.872441/-0.418466/0.43689/-0.690473/-0.774474/-0.578298/-0.207365/-0.44519/0.302451/-0.0775736/-0.881553/0.0379988/-0.224055/0.862215/0.0806259/-0.475051/0.481243/0.254619/0.622632/-0.699931/0.982557/0.645179/-0.203265/-0.203834/0.836084/0.862013/0.137362/0.351291/0.572649/-0.200415/0.997172/0.207826/0.935735/0.889833/0.979038/-0.981451/0.164582/0.99551/0.338927/-0.218798/-0.936319/0.0657981/-0.169716/-0.26644/0.00792749/-0.125033/-0.847245/0.819599/1.04123/-0.750334/-0.718738/-0.629872/-0.176556/0.55358/-0.327094/-0.587908/-0.109824/0.29546/-0.412602/-0.988979/0.232363/-0.671513/0.73129/0.659481/0.00637542/-0.962184/0.101705/-0.876345/0.228222/0.397553/-0.845892/-0.546627/-0.777818/0.34922/0.440965/0.141341/0.828506/-0.346084/-0.362652/0.796856/0.65525/-0.628239/0.793631/-0.989931/-0.900351/0.916938/0.835496/-0.174106/-0.205875/-0.136837/0.991238/-0.626367/0.555145/0.114675/-0.638818/0.726986/-0.707622/-0.843805/0.347897/0.629039/-0.240705/0.0912626/-0.491112/0.635187/0.254913/0.67815/0.516923/0.94414/-0.222769/0.56827/-0.623717/-0.494769/-0.875363/0.754653/0.0910149/-0.203539/-0.884629/0.0328741/-0.76227/0.930235/0.528319/0.636184/-0.274937/-0.773081/0.170003/-0.146022/0.321475/0.380943/-0.289479/0.0741108/-0.487396/0.290193/-0.706255/-0.0445765/-0.763095/-0.443835/0.72235/-1.00233/-0.101722/-0.83108/0.0213689/0.346227/-0.594338/0.431857/0.21468/0.120999/-0.906822/-0.561562/0.236003/0.672165/-0.53442/0.140949/-0.29829/0.366812/-0.635523/0.871234/-0.0790672/0.428961/0.600464/1.11677/0.414467/-0.829194/0.762884/0.245271/-0.70546/0.429514/-0.105972/0.204231/-0.608185/-0.13514/-0.30238/0.429557/-0.435673/-0.352629/0.829043/-0.149897/0.952327/-0.453919/0.655928/-0.337262/-0.663657/0.0549237/0.786335/0.537011/-0.171586/0.79028/-0.554318/0.308116/-0.107072/-0.200801/0.969337/-0.697115/-0.0117539/0.503251/-0.294468/0.0483919/0.821792/-0.306611/-0.891999/0.0204613/-0.107496/-0.677371/-0.562416/-0.392803/0.62972/-0.903276/0.464321/0.159432/-0.318321/-0.496148/0.449233/-0.468872/-0.305534/-0.225304/0.900488/1.0386/-0.305655/0.116149/0.775828/0.592686/-0.186657/0.381043/0.109334/0.23501/-0.989472/0.313151/0.911919/-0.125632/0.499881/-0.500317/-0.769937/0.0159912/-0.750317/-0.105563/-0.02383/-0.991366/-0.679117/0.512728/-0.353523/-0.90411/0.752534/-0.458967/-0.123405/-0.561246/-0.728395/0.750013/0.916542/-0.883278/-0.976899/-0.263907/0.678849/0.022319/-0.515156/0.165851/0.618284/0.515448/-0.858858/-0.819591/0.661362/0.811971/0.497199/-0.431045/0.209651/-0.601354/0.257731/-0.37082/0.213787/-0.246671/0.909755/-0.268949/0.421719/0.238425/-0.612535/-0.891824/0.940968/-0.315366/0.305132/-0.966833/-0.348847/0.78124/0.702782/-0.933526/0.523419/-0.278633/-0.992579/-0.274915/0.175974/0.695399/0.0876201/0.891208/0.763578/-0.7529/0.493797/0.104558/0.738893/-0.42951/0.914249/-0.743249/-0.782455/-0.00157163/0.922179/-0.892726/-0.912988/0.217965/-0.0742151/-0.255452/0.218843/-0.268407/0.609324/0.573504/0.30258/0.929768/0.619162/0.254049/0.70196/-0.543303/-0.503233/-0.430446/0.952311/-0.446037/-0.20493/-0.240412/0.181214/0.353171/0.534753/0.705467/-0.27783/0.126852/-0.260748/0.866073/-0.846564/-0.0857606/0.863592/-0.233158/0.760241/0.4328/0.409126/-0.162491/0.211126/-0.812876/0.000378132/0.355638/-0.973011/0.460335/0.0573777/-0.397019/-0.885414/0.811889/-0.408441/-0.859208/-0.492981/-0.633594/-0.749257/0.291939/0.701822/0.62912/0.0613212/-0.516949/-0.778231/-0.803538/-0.866765/0.415068/0.127156/0.48456/-0.85239/0.442125/-0.443874/0.526137/0.776712/0.206136/-0.0954289/0.558212/0.96985/-0.486019/0.781802/-0.176486/-0.922033/-0.546482/0.336035/-0.882938/-0.896787/-0.229805/0.300675/0.139782/0.851725/0.642846/-0.611162/-0.728273/-0.586125/0.522983/0.49006/-0.92687/-0.0325388/-0.312089/0.426013/0.018941/0.341475/-0.829821/-0.471168/-0.0133781/0.240169/-0.817209/0.269554/0.155899/0.340569/0.0294066/-0.549643/0.202998/-0.814784/0.926698/0.756558/-0.243029/0.172687/-0.365704/-0.0296692/0.394271/0.358232/0.797042/0.871296/0.728318/-0.483026/0.966742/-0.178092/-0.902932/0.423593/-0.676846/0.031847/0.60349/-0.512193/0.7939/0.987945/0.980204/-0.504297/0.0347129/0.259737/0.812482/0.0237405/0.260615/0.478978/-0.422991/-0.804055/0.610599/0.380529/-0.0545391/0.993498/-0.294428/-0.415896/-0.0606647/0.743058/-0.0916133/-0.693482/0.463993/0.326197/0.386048/0.229662/0.24488/0.955622/-0.490413/-0.730925/-0.890607/0.274214/0.189602/0.672099/0.808999/0.836133/0.464464/-0.0415151/-0.418508/0.512102/0.464244/-0.405168/0.69904/-0.821818/0.0350427/0.616044/0.275351/-0.229071/0.210652/0.667276/0.915175/-0.660519/0.664921/-0.504438/0.0174255/-0.0419481/-0.811004/-0.953712/-0.663223/0.372466/0.964288/0.937179/-0.895761/-0.0277594/-0.82515/-0.560943/0.271652/-0.678157/0.455056/0.530271/-0.656356/0.774539/-0.31292/-0.653281/-0.0463929/0.979384/0.58385/-0.3636/0.973806/0.764773/-0.4675/0.725199/0.416773/0.703756/0.0292483/-0.423219/0.959984/0.347589/-0.0698955/-0.734324/0.217085/0.539843/-0.860197/0.663337/0.699849/0.358309/0.101076/0.791124/0.429022/0.565255/0.236544/-0.404857/-0.437564/-0.13283/-0.471416/0.903665/-0.109051/-0.7084/
0.764842/0.704749/0.718182/0.493142/0.237816/0.971602/-0.278302/-0.603165/0.0627893/0.304388/-0.562984/-0.0747449/-0.237116/0.791274/0.943293/0.290664/-0.0871408/0.198268/-0.15916/-0.807977/0.329275/0.12077/-0.214455/-0.338043/0.506223/0.0977777/-0.650171/0.576216/0.467304/-0.0194903/0.434351/0.392783/0.0397311/0.971996/0.301285/-0.461142/0.976535/-0.0664369/0.980725/0.999335/-0.917432/-0.258134/-0.861123/0.464034/-0.564843/-0.330201/-0.763024/-0.646468/0.396738/-0.625009/0.6951/0.907637/-0.718591/0.836642/0.194129/0.776959/0.357709/0.0139495/0.734101/-0.558644/-0.161117/0.789515/-0.578975/-0.451288/0.942046/0.217021/0.759527/0.644769/-0.838832/-0.885884/0.0311441/0.0535103/0.0537827/-0.681161/-0.909881/-0.127147/0.990013/0.266262/-0.939793/-0.173287/-0.316207/-0.588405/0.313055/0.890164/0.988883/0.149597/0.285347/-0.0878944/-0.901139/0.636832/0.91245/-0.178788/-0.944926/0.714864/-0.618464/0.934682/-0.545363/-0.555711/0.262756/0.917062/0.703008/0.527052/0.91605/0.326333/0.147504/-0.531258/-0.141182/0.984862/0.673222/0.645126/0.761106/0.158485/-0.339997/-0.333125/0.590146/-0.542636/0.281317/-0.609593/0.97525/-0.40627/-0.531573/-0.247344/-0.942409/0.654825/0.602248/-0.957561/-0.350414/0.404469/-0.763946/-0.362741/0.205787/0.122548/0.955083/-0.390626/0.846307/-0.0631191/-0.751267/0.884193/0.438097/0.748032/0.171911/-0.69219/0.708916/-0.737203/-0.115204/-0.323661/-0.723296/-0.977379/-0.755429/-0.539735/0.432953/0.470885/-0.599668/-0.255231/-0.931637/-0.509703/-0.426533/0.408511/-0.303429/-0.234076/-0.0265929/-0.834605/0.503286/-0.910549/-0.820747/-0.650814/-0.6484/0.0737158/0.942264/0.636641/0.80934/0.380539/-0.557517/-0.164667/0.104149/-0.671007/0.242449/0.691278/0.409292/0.669267/-0.709561/-0.194391/0.145214/0.375629/-0.491166/0.39083/0.716599/0.376373/-0.119446/0.275325/0.469954/-0.878314/0.187304/-0.634936/-0.651145/-0.892125/0.0512085/0.661717/-0.498463/0.584864/-0.785404/0.3934/-0.236556/0.746688/-0.482604/-0.875393/-0.958889/-0.904571/-0.2938/-0.183658/-0.196942/-0.107084/0.121825/-0.627176/-0.546436/0.773917/0.716269/-0.610854/0.588568/0.180619/0.83898/-0.292433/-0.966817/0.755041/-0.0234502/-0.126798/-0.456569/-0.19012/-0.725439/0.930737/-0.345571/-0.595533/-0.475977/-0.833133/0.000763849/0.962562/-0.216027/0.520995/0.0989479/0.836998/0.624973/-0.409432/0.358389/-0.691499/0.419542/0.840559/-0.862027/0.296652/-0.615659/0.637642/-0.0981009/0.160196/0.41341/0.187994/-0.43956/0.603116/-0.690938/0.626044/0.861418/0.186888/0.0353647/-0.949291/0.686968/-0.286772/-0.204532/-0.0224397/-0.933997/-0.67182/0.332478/0.101385/0.32714/0.748956/0.510564/-0.51593/0.374385/-0.394769/-0.353155/-0.0959728/-0.462198/0.778487/0.0330368/-0.750744/-0.844167/-0.675326/-0.366187/0.239956/0.832558/-0.658837/0.923854/0.518764/0.55135/-0.671215/-0.976153/0.994937/-0.770732/0.0419912/0.800465/0.119918/-0.632971/-0.290471/0.972802/-0.837343/0.414954/0.527757/0.0160737/-0.556068/-0.0108557/-0.791577/-0.0330437/0.635133/-0.809339/0.531897/-0.875673/-0.421285/0.38681/0.906236/0.490186/0.53183/0.444209/-0.457045/-0.333958/-0.402223/0.984639/-0.369546/0.25968/-0.85772/-0.853768/0.460312/-0.628807/0.573774/0.417564/0.414567/-0.226721/0.979258/-0.0807228/0.677298/-0.655974/-0.961652/-0.94209/-0.105193/-0.484428/0.28496/-0.320747/0.782706/-0.68212/0.542847/-0.487682/0.613301/-0.942166/-0.407678/0.363115/0.0505637/0.785382/-0.389374/-0.922665/-0.509588/0.755302/0.048055/0.261491/0.8608/-0.388664/0.802585/0.304868/-0.398683/-0.659203/0.776524/0.110105/0.939745/-0.590261/-0.317426/0.587677/-0.0816/0.167744/0.393858/0.289429/0.807331/1.00534/0.715759/0.183532/0.57295/0.707833/0.606656/-0.167141/0.89527/0.547756/0.272544/-0.784083/-0.1292/0.979691/0.212228/-0.942058/0.41356/0.697332/0.051829/0.652806/0.709106/-0.337921/0.278994/0.471812/-0.677638/0.747025/-0.506781/0.961654/0.632474/0.177313/0.800388/0.970659/0.153178/-0.0329193/0.396754/0.324905/-0.0940462/-0.151719/0.984157/-0.814628/-0.115878/-0.358454/0.802131/0.354856/-0.163326/0.979238/0.0555031/0.54318/-0.724432/-0.394445/-0.263077/0.218073/-0.514356/-0.0973042/0.725266/-0.038783/-0.842347/0.710588/0.966977/0.121123/-0.28964/0.40783/0.205251/-0.702123/0.554392/0.902312/0.181367/-0.296089/0.924783/0.992782/0.0277092/0.123956/-0.490619/0.162087/0.203641/-0.992088/-0.198879/-0.277327/0.374177/0.0146441/-0.840499/0.0336655/-0.613923/0.412759/0.293424/-0.935844/0.683848/0.360222/0.731586/0.479624/-0.629842/-0.647024/0.837203/0.981023/-0.85677/0.845276/0.277325/-0.0943804/-0.43889/-0.200982/-0.640233/-0.404227/0.156776/0.522803/-0.307101/0.465791/0.344208/0.101308/0.851783/0.608092/-0.998495/-0.714538/-0.605547/-0.926314/-0.65974/0.115731/0.647412/-0.893186/-0.508099/0.601407/-0.117433/0.046299/0.494811/0.91658/0.503035/-0.714852/-0.962168/0.439612/0.971508/0.139762/0.979083/-0.883265/-0.0635115/0.500132/-0.154185/-0.9531/0.601562/-0.485103/0.149173/0.489464/-0.204863/-0.828225/-0.481159/0.690052/-0.872107/-0.928117/-0.304331/0.520042/-0.0721682/-0.931734/0.0584732/0.497015/0.151028/-0.819208/-0.454375/0.0960302/0.871453/0.511388/0.895676/0.930657/0.463046/-0.0348062/-0.566679/0.160493/-1.01282/0.193572/0.764195/0.969311/-0.560519/-0.240049/0.298628/0.277028/-0.912939/-0.250051/-0.374919/-0.74156/-0.183272/0.0352702/-0.716493/0.416605/0.858445/-0.241134/-0.734606/-0.799044/0.354051/0.526879/-0.744349/-0.210343/0.941725/0.257523/0.442984/0.184945/0.125855/-0.111833/-0.532902/0.917861/0.371969/0.955447/-0.315854/0.0435633/-0.572628/-0.729965/-0.961122/-0.863632/-0.38336/-0.567756/-0.100957/-0.287742/0.394285/-0.153667/-0.940135/-0.077748/0.0534779/0.802434/0.500049/-0.655522/0.426293/0.936382/0.693861/0.0781357/-0.358986/-0.970861/0.00742942/0.794335/0.69824/-0.887034/0.161809/-0.290863/-0.112569/-0.0293432/-0.468698/-0.679767/-0.945832/0.871717/-0.724385/-0.59938/0.829218/-0.415711/0.659067/0.77491/0.490659/0.498943/-0.258376/0.935593/0.713417/0.846186/-0.687244/-0.592027/-0.938404/0.650766/0.612133/0.928635/0.666369/-0.0370267/-0.614431/-0.83966/0.849753/0.177816/0.866468/0.712027/0.784987/0.703536/-0.959569/-0.703432/0.257574/-0.945525/-0.0992047/-0.260404/-0.0563728/0.541905/-0.196335/0.997692/-0.925149/0.814347/0.554341/0.791217/0.425586/-0.721728/0.930716/-0.266392/-0.114875/0.385876/0.887487/-0.713561/-0.664389/-0.51526/-0.275801/0.53579/0.241512/-0.428078/-0.324585/0.764171/-0.318673/-0.374302/0.14465/-0.201005/0.559653/0.091442/0.866287/0.418188/-0.558575/0.288344/-0.875632/-0.0421333/-0.472562/0.240319/0.123579/0.651767/-0.249297/0.967658/-0.458323/0.0828628/0.319018/-0.166471/-0.83122/1.00793/0.0865989/-0.0321437/0.123384/0.519049/0.86665/-0.0751345/-0.938319/0.121367/-0.559804/-0.622145/-0.399473/0.0643224/-0.718158/0.232293/-0.87827/-0.0929166/-0.465053/-0.759677/-0.634245/-0.306673/-0.105217/-0.553195/-0.603838/0.811903/-0.0218508/0.0197249/-0.385591/-0.728041/0.0900608/-0.554568/-0.190191/0.365155/0.920347/0.937644/-0.644485/0.479052/-0.0601693/0.734112/0.213484/0.231809/-0.592739/0.0192665/0.950296/-0.387063/-0.0194068/-0.693869/0.784916/0.438456/-0.328911/-0.935526/-0.912664/0.6242/-0.0963927/-0.448268/0.983483/-0.134177/0.559681/0.155563/-0.0509222/0.955599/-0.349052/-0.726269/-0.132375/-0.965852/0.957872/0.950987/-0.759691/-0.126807/0.75403/0.975578/0.545266/0.283977/0.805736/0.048963/0.891661/0.139186/-0.69592/-0.32036/-0.292335/0.733708/-0.571168/0.386426/0.664672/-0.862968/0.0970031/0.331118/-0.905168/0.838941/0.0877632/-0.964569/0.485991/0.0494371/0.889756/0.123409/
0.118255/-0.487242/0.923801/0.322502/0.298016/0.752912/0.192245/-0.935508/0.977077/-0.262778/-0.517431/-0.469282/0.778004/-0.0895918/0.229853/-0.85075/-0.55328/-0.980629/0.569966/-0.608027/0.892155/0.454798/-0.217564/-0.598264/0.976636/0.316665/0.191816/-0.144311/0.572721/-0.28021/0.515254/-0.109544/-0.776877/-0.509352/-0.630089/0.66401/-0.702349/0.32367/0.304905/-0.140708/0.797594/-0.629735/-0.828308/-0.926976/0.238856/-0.77184/0.341464/0.864252/-0.278993/0.0452383/0.903076/0.336582/-0.658597/-0.634389/-0.154758/0.984605/0.250794/-0.910586/-0.211899/0.50595/-0.38682/0.234069/-0.749666/0.747511/0.588786/0.618155/-0.187772/-0.680464/0.50953/-0.670942/0.868529/-0.211566/0.953848/-0.324507/-0.818633/0.00992991/-0.809826/0.875909/0.878659/0.376669/-0.878101/0.136764/0.801892/-0.519869/0.567282/0.311806/0.496955/0.596148/0.509712/0.932205/0.17753/-0.370633/0.97798/0.0973983/-0.163347/-0.0601344/-0.493821/-0.424281/0.615612/0.541847/-0.820357/0.0411423/-0.540603/0.365559/0.605571/-0.387756/-0.751709/0.703636/-0.533275/-0.677876/-0.48943/0.14658/-0.422348/-0.406939/0.654707/-0.709657/0.754065/-0.357727/0.0307764/-0.79273/0.88176/0.0540893/0.614726/0.064192/-0.115017/-0.375921/0.585164/0.303095/0.515002/0.298816/-0.714634/-0.0971313/0.901845/0.0949395/-0.894882/-0.183157/0.70704/0.492628/-0.340537/0.465504/-0.281884/0.375125/0.670614/-0.515207/0.173528/-0.00353476/-0.916413/-0.162502/-0.426287/-0.605013/-0.922777/0.366079/-0.247244/0.394561/-0.820656/0.03985/-0.422677/0.488755/-0.380578/0.0442191/-0.829748/-0.461928/-0.036682/0.0176022/0.706605/-0.901433/0.110668/-0.480029/0.148845/-0.36328/-0.139296/-0.0883105/0.0254659/-0.659351/-0.473544/0.425857/0.734873/-0.318118/0.575559/0.0775029/0.412897/-0.782151/-0.821365/0.462301/0.0948933/0.968847/-0.00350731/0.45931/0.627907/-0.530151/-0.397732/-0.241728/-0.220657/-0.0130783/-0.90899/-0.0661224/0.681322/0.97463/0.946633/-0.313942/0.625769/-0.863286/0.321591/-0.652229/-0.0647681/0.851837/0.103053/0.566542/0.560773/-0.917122/-0.232328/-0.209239/0.212281/0.889236/0.410989/-0.746957/-0.423012/-0.984455/-0.962747/-0.184403/-0.716173/-0.293535/0.169198/0.400868/-0.618956/-0.792783/-0.0625267/-0.239763/-0.365347/-0.738569/-0.163303/0.111072/-0.623303/0.347716/0.763054/-0.911088/-0.74927/-0.068874/-0.634772/-0.274696/0.529409/-0.172241/-0.259588/-0.681175/-0.786417/0.630956/0.076905/-0.415404/-0.0660063/0.396486/0.279837/0.516198/-0.259029/0.496274/0.771061/0.808033/-0.894634/0.336204/0.285304/-0.700173/-0.856029/0.42368/-0.134282/0.533237/0.599907/0.0273395/-0.636328/-0.810073/0.233041/0.611973/-0.503314/0.353802/-0.673326/0.14212/0.913267/-0.897536/-0.289597/0.242785/0.639979/0.937151/0.692003/0.486654/-0.116717/0.553851/0.403319/0.957439/-0.286305/0.0999311/-0.0134919/0.483311/-0.353641/-0.406085/-0.260199/0.606659/0.660393/0.649548/-0.264739/-0.412158/0.464559/-0.0793501/-0.849609/-0.821099/-0.517182/-0.341958/0.432633/0.594555/0.177954/0.201861/0.684421/-0.936737/-0.991721/-0.822739/0.595547/-0.938926/-0.297477/-0.938644/0.65994/0.701028/-0.458258/-0.949629/-0.847106/0.826291/0.103926/0.265217/-0.730035/-0.17245/0.0582968/0.517388/-0.703998/0.957757/-0.209184/0.134257/0.0364791/0.0625955/-0.0588834/-0.854381/0.422734/0.894554/-0.405497/-0.259668/-0.72971/-0.24262/0.188208/0.431277/0.029883/0.703335/-0.94506/-0.0274941/0.305114/-0.912147/-0.0448975/0.707705/0.443592/0.967273/0.114175/0.494866/-0.0322276/0.902985/-0.863798/0.37082/0.626341/-0.447965/-0.0492315/-0.16931/0.405682/0.291792/-0.727906/0.964979/-0.11153/0.410951/0.626194/-0.756186/0.191621/0.347378/-0.608383/0.0671451/-0.270325/0.479783/-0.130437/-0.71107/0.731838/-0.177262/-0.667906/-0.452299/0.799904/-0.611624/-0.73164/-0.175764/-0.962983/0.0179062/-0.0854368/-0.815375/-0.00506051/0.948112/0.319277/0.144881/0.774159/0.842123/0.73104/-0.197829/-0.373024/-0.698801/-0.602815/0.407204/0.613466/-0.0524441/-0.890246/0.679525/0.535705/-0.0180587/0.961348/-0.364127/-0.264533/-0.138597/-0.48757/-0.515549/-0.724941/-0.837401/0.537088/-0.402907/0.340601/0.485854/-0.927018/-0.371199/-0.347157/-0.523606/-0.378773/-0.446865/-0.446799/-0.757871/0.134342/-0.963167/-0.150216/-0.732832/0.475784/0.764201/-0.846217/-0.765839/-0.316852/-0.559475/-0.825216/-0.83979/0.217084/0.408251/0.622574/0.488618/0.92568/-0.0988986/-0.188072/-0.925496/0.901813/-0.935794/-0.894932/0.0306606/0.53937/0.72606/0.311632/0.0992137/-0.914607/-0.56995/-0.851713/-0.830318/-0.412772/0.241956/-0.471472/-0.171213/0.654141/-0.406117/0.839858/-0.378388/-0.130869/-0.486302/0.984158/-0.0664037/-0.796359/-0.164918/0.201942/0.0363957/-0.622093/0.537533/-0.863695/0.430881/0.874848/0.212782/-0.366114/-0.223672/0.278777/-0.423342/-0.78069/-0.790628/-0.634759/0.824678/0.427404/-0.574963/-0.709805/-0.822732/0.0406676/0.289934/-0.766193/0.879835/0.655793/-0.634816/-0.39281/0.0933922/-0.35743/0.67967/-0.892574/0.182537/-0.180776/0.379889/0.786695/0.0593736/-0.17707/-0.561583/-0.724302/-0.770137/-0.766181/-0.570326/-0.440447/-0.0401842/-0.250748/0.401091/-0.318934/0.175387/-0.346323/0.437468/0.281843/-0.747437/-0.307402/-0.20359/-0.586607/0.294121/-0.708813/0.984618/-0.26309/-0.304296/0.308667/-0.326688/0.510085/-0.781437/-0.405775/-0.692444/-0.86942/0.0174823/-0.539447/0.722777/0.798701/0.983774/-0.130127/0.208234/0.275535/-0.341555/0.423521/0.162649/0.795427/-0.736946/0.615039/-0.566032/0.36899/0.234904/0.0382304/0.538074/-0.162615/0.822754/-0.650659/-0.846245/-0.511528/-0.978826/0.96788/-0.747164/0.638075/-0.470531/-0.268515/0.138647/-0.844581/-0.333307/0.498948/-0.142941/0.379307/-0.0283364/0.484235/0.876112/-0.493048/-0.619229/-0.192479/-0.300364/-0.315145/-0.570224/0.24132/-0.13772/-0.931794/-0.704291/0.184515/-0.816046/-0.762813/0.601566/0.0747505/-0.606937/0.0583821/0.152333/0.648285/-0.671662/-0.310069/-0.538688/0.873809/-0.489878/-0.321346/-0.795299/0.681359/-0.25588/0.289566/-0.353505/-0.197527/0.903593/-0.854955/0.881247/-0.87366/0.389041/0.268926/0.226103/0.54099/-0.0717247/-0.779143/0.525579/-0.411546/0.0240575/-0.427253/0.219046/0.627923/0.407938/0.829946/-0.640601/-0.240798/0.46235/0.0532243/-0.381794/0.702975/0.619163/0.439035/-0.354662/0.439648/-0.678251/-0.85652/0.453774/0.583285/-0.726015/0.278277/-0.624681/0.239775/-0.663124/-0.20681/-0.596499/-0.48033/0.118149/0.879558/-0.747564/0.22345/-0.669838/0.534847/0.469991/-0.873622/0.401458/0.400469/-0.457289/0.174286/0.230108/-0.943076/-0.710538/0.44271/-0.548353/0.597264/0.27351/0.876831/0.898524/-0.61206/0.575391/-0.229975/-0.558097/0.0570537/0.829271/-0.412229/0.375993/-0.244124/-0.38248/-0.939122/0.0601702/-0.683157/-0.631248/-0.890197/-0.444917/0.375721/-0.203452/0.177637/0.44915/-0.304455/-0.871564/0.467391/-0.507699/0.070463/0.32291/-0.854412/-0.100887/0.490225/0.575584/0.211573/-0.990299/0.50662/0.70467/-0.348156/0.369496/-0.000273469/-0.771191/0.94005/-0.598701/0.0784015/-0.839437/-0.349508/-0.123603/-0.0606726/0.0829756/0.485944/0.486632/-0.940925/0.239891/0.446338/0.676506/-0.0910852/-0.868327/0.0364363/0.384711/-0.16381/-0.831873/0.870099/0.735234/0.844314/-0.200245/-0.944702/0.135213/-0.54233/-0.971528/-0.546604/-0.154738/-0.0579442/-0.994534/0.77734/-0.458338/0.857153/0.453288/-0.890951/-0.584907/-0.279816/-0.295869/-0.337347/0.980624/-0.347852/-0.349546/-0.813111/0.0359464/0.151762/0.659972/0.149572/-0.136/0.240181/0.728699/-0.783762/-0.683151/0.281268/-0.733979/0.018052/-0.599283/-0.150544/-0.189681/0.0383566/0.658889/-0.0530285/0.750185/0.359399/0.417269/-0.955604/-0.83455/-0.275302/0.99207/-0.279828/0.924566/-0.819202/
