-0.999984/-0.736924/0.511211/-0.0826921/0.0663174/-0.561219/-0.904227/0.358748/0.359366/0.869559/-0.232996/0.0388327/0.661828/-0.930965/-0.893071/0.0594049/0.342509/-0.984745/-0.23283/-0.85704/-0.154941/0.382787/0.178338/0.860873/0.692334/0.0538576/-0.81607/0.307838/-0.168001/0.402374/0.820406/0.525788/-0.472555/-0.914202/0.489554/-0.28529/0.325166/0.584624/1.15796/-0.186729/-0.499032/0.937357/0.438092/0.553204/0.435434/-0.809436/0.198002/0.801052/-0.402846/-0.0450315/0.596241/-0.00397991/-0.486823/-0.436731/-0.281501/-0.666986/-0.0269652/0.794937/0.826836/-0.775845/0.859008/0.00722983/0.219572/-0.134185/1.12163/0.0649195/-0.19593/-0.729443/0.932267/-0.886269/-0.220297/-0.184288/-0.553225/0.588421/-0.0261237/0.0847231/1.09806/-0.419317/1.02099/1.00676/1.00958/-0.519875/-0.974574/0.376911/0.736494/0.260248/0.577392/0.782355/1.25167/1.27192/0.149011/0.309727/-0.269879/-0.256547/-0.0254627/0.422221/-0.720039/0.117485/-0.873345/0.198039/0.234464/0.101609/-0.058335/-0.329051/-0.0869093/0.878526/1.45113/-0.346593/0.704134/0.54817/0.950362/0.496586/0.109168/0.795716/0.508391/1.05107/-0.448886/-0.0361238/0.460819/-0.582497/-0.341464/0.357826/-0.427096/-0.0167703/-1.03562/0.487993/1.01637/0.166093/-0.0696156/0.119161/1.26559/0.901883/0.311729/1.36345/0.896654/0.548812/0.665389/-0.0154707/0.242299/0.691151/0.180217/0.9173/0.224908/-0.791348/0.887111/-0.0723446/-1.61923/-0.593606/-0.180072/0.342556/0.0449619/0.471272/-1.00283/-0.734369/-0.54988/0.526949/-0.856093/0.357903/0.450718/0.957531/0.63495/0.710923/-0.287174/-0.387011/-0.710021/1.25139/-0.07189/-0.715958/0.894974/-0.141629/-0.422256/0.939845/-0.513796/-0.341977/-0.983302/0.476638/0.749178/-0.242078/1.49967/0.202665/0.44116/0.378449/0.43373/0.750573/0.115837/-0.178032/0.35343/0.81699/0.0490228/0.967539/-0.322542/0.645557/0.439349/1.19186/0.584867/-0.07551/0.902735/0.34286/0.199114/1.10512/0.344284/0.960662/0.796811/1.12609/1.09576/-1.09785/-0.132865/0.0294863/-0.415222/-0.231998/-0.366796/0.521019/0.371072/0.988801/0.546151/0.117842/0.835384/1.00364/0.341792/-0.162589/1.26948/0.159425/-0.0222165/-0.869612/0.426845/0.0336464/0.655236/0.889678/-0.586733/0.868798/-0.272567/-0.159612/-0.0379888/-0.793863/0.166083/1.29316/-0.208979/0.378987/-0.620374/-0.352529/0.911744/-0.101091/-0.197061/0.294608/0.312841/0.447408/0.841566/-0.767096/0.0261101/0.126309/-0.939302/-0.998241/0.546704/0.460373/-0.219727/0.126118/0.416933/0.393444/-2.08738/0.171295/0.565154/1.32018/0.531524/-0.262667/0.640411/0.772433/0.662869/0.221357/0.21305/0.100947/0.48025/0.772594/-0.000917413/-0.268047/-0.247742/-1.088/0.272647/0.770801/-0.0847396/-0.435682/-0.612065/-0.998092/-1.03911/0.959153/-0.178467/0.80172/-0.754877/-0.205629/0.0940547/0.297306/1.3924/-0.819185/0.745237/-0.51955/-0.347852/-0.611776/0.115221/0.597893/0.792563/1.14322/1.078/1.07895/0.154312/0.328285/-0.11319/0.383169/-0.498276/-0.362444/0.399669/-0.758609/-0.01092/0.116034/0.838135/0.758941/-0.0841773/0.47984/-0.590005/0.0143614/0.718999/1.05949/0.644466/-0.39623/0.592522/-0.738563/-1.03362/0.420071/0.453308/0.767817/0.721783/0.28414/-0.317804/-0.124097/0.688095/-0.19013/-0.0768908/-0.224338/-0.441414/-0.831957/-0.910016/-0.996999/0.261574/0.103519/0.61939/0.0963691/0.907732/0.929258/0.255337/1.18618/0.152683/-0.0575617/0.635331/0.385446/-0.33877/0.517577/1.85553/-0.456831/0.197796/-0.415218/0.02551/-0.276016/0.312266/-1.35544/-0.383022/0.285958/0.0922732/0.86152/-0.623619/0.691793/-0.763922/0.432787/0.636448/-0.538491/0.902967/-0.358229/-0.196766/0.496559/1.19211/0.413804/0.661771/0.288079/0.922075/0.644649/-0.232388/0.658678/-0.663015/-1.14882/-0.506839/-1.35629/-0.945149/1.30959/0.611565/0.493358/-0.127149/-1.07191/-0.167194/0.258712/-0.390849/0.108014/0.156679/-1.19936/-0.291941/0.255444/0.526137/0.789434/0.627946/-0.248682/0.876673/-0.457292/0.485452/-0.0627327/-1.42827/-1.15883/-0.479474/-0.224175/-1.12289/-1.32084/-0.676844/-0.251406/0.541416/-0.405956/-0.898795/-0.0822147/-0.0626418/-0.556178/0.118582/-0.158764/-0.183362/0.0191579/0.1328/-0.093729/0.354133/-0.243753/-1.15286/0.388413/-0.43227/-1.79406/0.259203/-1.30478/-0.732103/-0.842869/-0.493608/0.454882/0.225226/0.528325/-0.436088/-0.329441/1.03137/-0.623448/-0.297363/0.302029/0.324927/-1.60734/0.165388/1.15992/-0.181935/0.315147/1.47407/-0.0362829/-0.594874/0.0876063/0.950027/0.598175/-0.935082/0.19479/-0.523958/-1.22728/-0.878639/0.201825/-0.672096/-0.326056/-0.959449/-0.141559/-0.888821/-0.663712/0.1271/-0.136338/-0.834987/0.509327/0.0650245/0.271768/-0.998703/1.20372/0.523571/-0.0659658/0.856065/0.834647/1.22326/-0.480611/-0.798985/0.0184411/-0.96199/0.186363/-0.0971825/-0.502479/0.128761/-0.41993/0.0456311/-0.773115/-0.154083/-0.0444557/-0.187318/-0.612416/-0.571106/-0.532617/0.306023/-0.496435/0.679512/-0.43958/-0.331671/0.24116/-0.00168918/1.20838/0.0974912/0.361795/0.446958/-0.992449/-0.357128/0.101497/-0.162381/-1.16356/-1.22461/-0.505328/0.85034/-0.17482/0.483165/0.435018/-0.0600817/-0.408245/-0.749094/-0.177404/-0.526098/-0.657241/-0.25496/0.908963/1.03129/-0.652246/-0.386275/-0.703929/0.358681/0.248182/-0.0571365/-0.569877/1.17405/0.727423/-0.0792048/-1.08471/0.233954/0.0343553/0.0901071/-0.752246/-0.392354/0.0657658/-0.623853/-0.0947924/-0.206545/-0.105277/-0.174237/-0.526202/-0.106617/-0.519119/-0.833829/-0.169138/0.0285137/-0.218133/-0.410326/-1.10718/0.251936/0.462464/-0.121618/-0.497041/-0.320197/0.968102/-0.366617/-0.071907/-0.60992/-0.206775/-0.560081/0.00318642/-0.398728/-0.80575/-0.595572/-0.326279/-1.02282/-0.72401/0.421842/-1.24508/0.620718/0.892089/-0.65769/0.152758/-0.967504/-0.0377213/-0.142279/-0.0418766/0.288147/0.960185/0.829671/-0.767168/0.541009/-0.221234/-0.996674/-0.304496/0.0828329/0.489961/-1.1032/0.162313/0.515921/-0.021661/-0.614693/-1.11027/0.133694/0.31889/-0.712922/-1.09231/0.4199/-0.243268/-0.598711/-0.404589/0.082569/-0.788135/-0.196185/0.529881/0.14443/-0.111511/0.76448/-0.708113/0.662899/0.110518/0.66961/-0.0555727/-0.549224/-0.822265/-0.414205/-0.31725/0.429937/1.08629/0.756443/1.03239/-0.374988/-0.995521/0.21326/-0.282456/-0.0686506/0.863829/0.381545/0.701415/0.190416/-0.142257/-1.60992/0.179758/1.02082/0.195064/-0.281391/0.110371/-0.223692/-0.385871/0.146365/-0.914546/-0.8223/-0.0746141/0.145674/-0.0292983/-0.0809968/0.510852/-0.352312/-0.0248416/0.829216/-0.277369/-1.12613/-1.01824/0.821179/-0.556687/-0.239771/0.221265/-0.334778/-0.728296/0.370055/0.141121/-0.0290704/-0.899715/0.0582321/0.79341/0.972329/-0.162986/0.109092/0.928771/0.518405/0.10023/0.397685/-0.428448/-0.59135/-0.945537/0.540544/-0.00457262/-0.472527/-0.0820958/0.17156/0.0760812/-0.836213/0.0974726/0.221475/0.347636/0.0974813/0.293041/0.321092/-0.465022/-1.10248/0.123802/0.739747/-0.788535/-1.02447/-0.0533345/-0.116401/-0.43134/-0.306243/-0.690101/-0.209266/0.180148/0.203954/0.0925521/0.809303/0.67005/0.0547671/-0.223413/0.0151416/0.292266/-0.190112/-0.026301/-0.0404343/0.420866/0.0722095/-0.455608/0.21498/-0.465488/0.373761/0.0861398/0.939315/-0.451163/-0.136151/0.252476/0.746138/0.880174/0.377554/0.680869/0.0843161/-0.493294/-0.727116/0.759258/-0.496467/0.317512/-1.00147/0.829753/-0.468821/0.716071/-0.442101/0.904862/0.0136399/-0.7541/-0.167049/0.404943/-0.127018/-0.784522/0.53235/-0.800265/-0.117468/-0.310847/-0.405872/0.515242/-0.322981/-0.338483/-0.888788/0.146366/-0.0294279/-0.595036/-0.771051/0.948696/0.729219/-0.0163298/-0.26521/0.609825/-0.675592/-0.68084/-0.884554/-0.701497/0.28231/
-0.238783/0.767409/-0.151733/-0.175504/0.302758/-0.384271/-0.89317/0.630781/0.797171/0.839374/0.802436/0.540093/-0.658408/0.144884/-0.936538/0.607851/0.039693/0.724376/-0.447076/0.738874/0.173599/-0.22299/0.623786/0.0513405/0.879743/-0.159924/0.159725/0.49829/0.761568/-0.323832/-0.618961/0.503582/0.447763/0.759101/-0.892717/0.393664/0.750022/-0.276149/-0.845668/-0.73208/-0.174644/-0.817664/0.327756/0.0867584/0.563513/0.673943/0.458662/0.218913/0.745739/0.733833/-0.000543554/-0.739726/-0.211868/-0.248206/0.374557/-0.756521/-0.846356/-0.711675/0.000865036/0.620342/-0.350847/-0.0633826/0.91363/0.104113/0.23062/0.723572/-0.301314/0.69645/0.645797/-0.0998664/-1.00355/-0.418226/-0.324268/-0.353195/-0.0084853/0.252347/0.674645/-0.316768/-0.162623/-0.212106/-0.665508/0.809233/-0.194257/-0.52321/0.92632/0.671226/-0.45815/-0.273108/-0.137815/-0.333311/0.189018/-0.342547/-0.01774/-0.158815/-0.167089/-0.244946/0.0586699/-0.10127/-0.867898/0.172707/0.811298/0.445289/-0.0279867/0.937275/0.684289/0.99925/0.539204/0.339783/1.0827/0.626489/0.302856/0.289765/0.59807/-0.259981/-0.311375/0.0670707/0.280288/0.558002/-0.173641/-0.0907242/0.528883/0.951143/0.0823751/-0.448431/0.318544/-0.547779/1.13844/0.402521/0.0527456/-0.235958/0.125682/0.145045/0.865353/-0.419553/0.288554/-0.328835/1.00191/0.212679/-0.689659/0.511706/0.331946/-1.00902/0.434088/0.49152/0.0207522/0.0719322/-0.494543/-0.128008/0.10033/0.0603501/-1.13163/-0.216615/-0.173306/-0.122711/0.0915565/-0.133139/-0.370381/0.880892/0.317347/0.741525/-0.0533875/-0.478768/-0.585407/0.959182/0.922863/-0.171481/-0.145949/0.255661/0.888904/-0.193776/-0.747419/0.238534/0.192946/0.258678/0.65574/-0.366452/-0.313776/0.0843255/0.186049/0.274983/0.421236/0.891295/-1.34145/0.716916/-0.673741/1.3537/-0.227832/-0.393551/0.74359/0.321935/0.862486/0.487289/0.310137/-0.133696/0.146107/-0.300942/0.0697524/0.330888/-0.20423/1.28649/0.0889432/1.01609/-0.0451567/1.63316/-0.293202/-0.168584/0.227682/1.35809/-0.421011/0.0313531/0.07976/0.275991/1.52774/1.01263/-1.35123/0.305324/0.0401031/-0.67334/-0.444579/0.907014/-0.630428/-1.44916/0.566509/0.20481/0.246485/0.675565/0.461046/-0.15936/0.524694/0.929747/-0.103607/-0.252448/0.577735/0.555529/-0.657741/0.129918/-0.266985/0.513508/1.34642/0.683614/1.31047/-0.0548954/-0.63638/0.879628/0.629314/0.593279/-0.495876/-0.206056/1.7901/0.706819/0.0897067/-0.934004/0.381863/-0.0108147/0.0956296/0.439015/-0.185951/0.676374/0.25972/0.989257/-0.211468/1.42095/-0.0472056/1.22646/0.553858/-0.0900049/0.775746/1.10226/0.344731/-0.378596/1.34068/-0.671103/1.70888/0.425866/-0.0484215/-1.24183/-0.11904/0.389771/-0.105023/0.311724/0.010118/0.0676205/-0.903195/0.761964/0.608852/-0.134569/1.14996/0.576606/0.206269/-1.08819/-0.636337/1.0996/1.15045/0.537957/1.07851/-0.579047/0.027987/-0.161397/0.243732/-0.106242/0.238424/0.296413/-0.123725/-0.370242/-0.241584/-0.28282/-0.740996/-0.552606/0.342703/-0.151432/0.449469/0.316571/-0.399708/0.157634/0.883688/0.666706/0.0891748/0.944916/0.527422/0.37888/-0.291089/0.670044/-0.855162/0.595557/0.488046/-1.15442/-0.51921/-1.41098/-0.248142/-0.915479/0.0902693/-0.776122/1.18686/-0.793944/-0.572656/-0.0359026/0.58556/-0.462818/-0.542543/-0.883417/0.0381288/-0.226133/0.668546/0.370109/0.679296/1.01098/0.00104092/1.07623/-1.02169/-1.21628/-0.246294/-0.152189/-1.21145/0.103216/-1.18849/-0.227111/-0.567056/-0.723066/-0.262895/-0.443405/-0.549378/-1.02987/0.74641/0.57094/-0.213098/0.464345/0.684215/0.536322/-0.314148/0.28909/0.481115/0.0431572/0.0940721/-0.17909/-0.613609/-0.761079/0.180858/-0.53901/-0.158157/-0.446865/-0.648835/-0.655862/-0.659118/-0.882084/-0.478618/-0.134529/0.44012/-0.63808/0.505741/-0.230976/0.156938/0.709206/-0.370785/0.157926/-0.655498/-0.175803/-0.35121/-0.0942485/-0.780917/-0.725143/0.0392555/-0.749547/-0.676493/0.497309/-0.416177/-1.4373/0.124176/-0.550558/1.00732/-0.632353/-0.897271/0.402807/0.262504/-0.917008/-0.721278/1.24703/-0.497116/0.721516/-0.59255/-0.201571/0.198388/0.268564/-1.00933/0.341406/0.305777/-0.19098/-1.15179/-1.81059/-0.883176/0.187044/-0.0247708/-0.178166/-0.397225/-0.327281/-0.322718/-0.157178/-0.789904/-1.06344/-0.569682/0.174613/1.53481/-0.264397/0.0283354/-0.186319/0.392886/-0.250357/0.131405/-0.336393/0.24801/0.183395/0.00594734/-1.1376/-1.50731/0.330637/-0.965266/-0.506621/-0.95179/-0.64713/-1.1228/-0.435148/-0.658542/-0.445925/-0.395074/-0.368252/0.437332/-1.69619/-0.965253/-0.399676/0.472969/0.099986/0.179687/0.341593/0.430089/0.202393/0.55548/0.679592/-0.102559/0.10285/-0.538405/-0.218417/0.47107/-0.18171/-0.474236/0.213261/-0.165468/0.160468/0.0458322/-0.650123/0.942027/0.504521/-0.98572/-0.479724/0.0702907/-0.463711/-0.00710604/0.309053/-0.831568/-0.780714/-1.01351/0.3979/-0.117642/0.675292/-0.196466/0.570146/0.444586/0.0123962/-0.64756/0.427259/-0.340268/0.929278/-0.318105/-0.588358/-0.112824/0.700123/-0.55671/0.686181/-0.538961/-0.514948/-0.328226/0.55284/-1.89399/-0.406345/0.761003/-0.361674/0.834179/0.472087/0.610487/0.116315/0.22866/1.00724/-0.596627/0.201469/0.085649/-0.631824/-0.991146/-0.0458247/0.921757/1.52362/0.330657/0.53624/0.520477/0.658884/-0.413332/-0.506263/0.0034735/-0.716718/0.579208/-0.388353/-0.283617/-1.14571/0.818416/0.546587/-0.613442/-1.42777/0.0609242/-0.116397/-0.137733/0.132005/0.108849/-0.0117672/0.229003/0.730124/0.112797/-0.741238/-0.461589/1.30274/0.275606/-0.543341/-0.507072/0.26152/-0.471889/-0.150453/-0.00598305/-0.182094/-0.541662/-0.477868/-0.807883/-0.453188/-0.191592/-1.04372/0.518874/0.599497/0.244948/0.248946/-0.00634382/1.04945/-0.880185/-0.0493116/-0.779736/0.893922/0.181704/0.401565/-0.640416/-0.00776404/-0.906654/0.215297/0.922642/-0.0800736/0.502472/0.575977/-0.620439/-0.87506/0.300929/-0.174336/0.795125/-0.595174/1.06472/0.272036/0.0498832/-0.605747/-0.410352/0.533952/0.0118446/0.488053/-0.900068/0.851246/0.898788/-0.144608/-0.466633/-0.365442/0.0365328/0.956887/-0.0301407/0.0384374/0.186869/0.307117/0.471404/0.543842/-0.0701827/-0.332805/-0.251195/-0.00324536/0.450532/-1.10261/-0.186641/-0.14009/-0.372618/-0.843561/-0.162984/-0.135675/-0.280628/-0.655609/-0.102218/-0.358351/-0.812731/0.757975/0.08812/-0.863554/-0.100297/0.299511/0.743081/0.268101/-1.01878/-1.16918/-0.602956/-0.609737/-1.41446/-0.443646/0.0745406/0.207548/-0.953048/-0.85906/-0.127615/1.39817/0.956236/0.752261/0.189279/-0.775825/-0.078962/0.312435/0.854595/0.166127/0.09778/-0.0270495/0.708691/-0.128573/-0.933491/-0.422394/0.22004/1.46985/1.52079/-0.600534/-0.159511/-0.0376328/0.496795/0.392734/-0.779245/-0.233016/0.255806/0.0635868/0.764498/0.000543499/-0.0673505/0.0847835/-0.481637/0.200239/0.993795/-0.409492/-0.376036/-0.630064/0.513234/0.237729/0.280948/-0.350423/-0.697669/-0.64308/0.396697/0.125995/-0.659281/1.03039/-0.0509663/-1.07101/-0.937353/-0.168022/0.797344/-1.09745/-0.393135/0.037724/0.112308/-0.614571/-0.321246/-0.0472986/0.501554/0.354841/-0.732775/-0.413102/-0.84052/0.0880575/-0.0177561/-0.423979/-0.493141/-0.123939/0.332801/-0.413791/-1.00143/0.869466/-0.836352/-0.414999/0.906929/-0.316446/-0.69977/0.94474/-0.789257/-0.933583/0.896984/0.626734/-0.558211/-0.830473/-0.516595/-0.121607/-0.509793/-0.447024/0.116781/0.750542/0.703452/0.340936/0.115221/0.515666/0.803993/0.70676/0.519395/-0.532544/0.99658/-0.478997/-0.249922/-0.400994/0.491044/0.983669/0.532627/-0.142781/0.28333/-0.0723981/-0.795064/-0.636239/0.726721/0.00671518/0.86195/0.795666/-0.417668/0.258282/0.9508/0.0880979/0.661338/-0.89038/-1.87862/
0.950588/0.530418/0.739755/-0.935325/0.0401624/-0.230529/0.991733/-0.537264/-0.484021/0.205548/0.793009/0.098957/-0.836297/0.54833/0.564042/0.460694/-0.856004/0.79877/-0.862183/0.988561/-0.460993/0.00760551/0.374604/0.49687/0.889295/0.379415/0.823546/-0.657546/0.630664/-0.434241/-0.0332717/0.834096/0.398669/-0.193411/-0.627022/0.790564/-0.556512/0.0594144/-0.286146/-0.510649/0.558206/-0.583058/0.270356/-0.379266/-0.0547906/-0.218229/0.0437126/0.238595/-1.05539/0.672765/-0.213823/0.0673087/0.840855/0.464219/0.57867/0.517335/-0.0935436/-0.184064/-0.462454/0.521912/-0.43369/0.616115/-0.350657/-0.645674/-0.378384/-0.247194/0.640687/0.814451/0.168576/0.466209/-1.19551/0.443913/-1.61514/-1.11381/-1.64514/-0.234473/-1.23298/0.0735879/0.570259/-0.849527/-0.174353/-1.10962/0.108477/-0.245881/-0.0371404/-0.208842/-0.0610506/0.544456/1.52907/1.00211/0.309604/-0.90932/-0.378641/0.106351/0.790805/0.317679/0.305673/-0.196091/-1.05042/-1.29133/-1.12417/-0.6597/-1.17278/-1.2748/0.424885/0.748306/-0.0748399/-0.503915/0.155832/-0.565762/-0.838423/-0.0261956/-0.734371/-0.574736/0.0637014/0.158951/1.61132/1.11369/0.371687/0.219174/0.483582/0.832452/-0.9623/0.031639/0.391934/-0.294658/0.20486/-0.489568/-0.266501/-1.16496/-0.622529/-0.607757/0.291521/-0.061364/0.00983218/-0.294647/0.700306/-0.348235/0.766747/0.580185/0.928393/-0.503691/-0.568635/0.234816/1.03892/0.344766/0.400632/0.344327/1.081/-0.486556/-1.66592/0.696575/1.08128/-0.220245/0.669443/-0.644083/-0.536568/-0.0118335/-0.262971/-0.454722/0.302365/-0.673658/0.0550071/0.45018/0.183857/-0.249064/0.118575/0.661366/-0.414255/-0.408771/0.694048/1.18183/0.959293/-0.336826/-0.539471/-1.04072/0.586469/-0.118092/-0.805997/-1.33885/-0.559197/-0.406889/-0.0749898/-0.549019/0.170919/0.0457103/-0.135506/-1.2115/-0.615431/-0.816285/0.180574/-0.256002/-0.464347/1.15083/-0.512035/0.193405/0.56042/0.931319/0.531985/0.730901/1.32361/0.594329/0.602134/0.569308/0.977333/0.0973443/-0.0643771/-0.320509/0.243615/-0.211712/0.6392/0.558721/-0.11375/-0.615125/-0.596916/-0.547423/0.950194/-0.279336/-0.921445/-0.328999/-0.96319/0.63858/-0.772821/0.124612/0.358085/0.302709/0.327814/0.259266/1.21381/-0.45611/0.407946/-0.81661/-0.444555/-0.232753/0.398965/-0.865098/0.341749/-0.576701/-0.0194404/-0.0691874/-0.343373/-0.39027/-0.172869/-0.256226/0.759659/-0.574852/0.209824/0.614401/0.79719/0.275244/-0.635102/0.0126484/0.795542/0.629023/0.888756/0.947372/0.484217/-0.79053/-0.589822/0.182904/0.541858/1.16647/-0.514664/-0.499416/-0.144155/0.0677596/0.58134/0.385724/0.203059/-0.942575/0.458622/-0.755965/-1.19372/-0.179754/0.585562/-0.454189/0.0977594/0.449827/0.13018/0.889019/-0.139294/0.784474/0.54669/-0.030988/-0.152919/0.762131/-1.00542/0.118874/-0.598614/0.458984/-1.46885/0.954672/0.569608/0.0292295/-0.00630253/-0.305085/1.07035/0.961811/1.06483/0.423335/-1.06613/-0.264546/-1.06976/-1.10602/-0.66829/0.352256/0.779988/0.931673/0.634131/-0.2507/0.531714/0.115029/0.0730544/0.258975/-0.144883/0.364351/0.338595/0.364079/-0.481227/-0.851443/0.259691/-0.542909/1.09652/-0.171627/0.145878/-0.153083/0.09147/0.473847/-0.665099/0.0770602/0.665056/-0.0654424/0.140822/-1.66388/0.50661/-0.594072/-0.566522/0.437206/0.421776/0.656314/1.00802/0.523287/-0.821593/-0.0905676/-0.929628/0.207029/0.614712/0.0700707/0.555722/0.16484/0.359647/0.714724/-1.36565/0.660358/1.01527/0.588611/-0.925184/0.67613/-0.69045/0.341292/0.766988/-0.75574/0.161102/-0.128455/-0.944399/-0.641662/-0.529864/0.462141/-0.0407958/-0.409716/-0.147108/-0.246722/0.984294/-0.302875/-0.366466/-0.327786/0.706422/-0.229503/-0.257021/-0.39907/-0.110208/-0.479788/0.104816/-0.277776/0.0629267/0.923327/-0.0349336/-0.177007/0.516482/0.0865729/-0.334407/0.450583/0.94398/-0.918417/-1.4113/-0.939129/0.691427/0.719608/-0.04756/0.20243/-0.385158/-0.579552/1.0144/0.104073/0.488642/-1.06762/0.178872/-0.423229/1.45147/-0.170645/-0.0082102/-0.556251/-0.627459/0.804199/-1.07271/0.148602/0.737962/0.661596/0.140183/-0.577315/-0.939242/-0.1317/-0.397364/-0.961166/-0.870895/-0.338471/0.44636/0.319027/-0.213568/0.163755/0.89568/-0.636878/0.214779/-0.305975/-0.739009/-0.173516/-0.282617/0.676174/-0.89947/0.281031/0.221754/-0.0403067/-0.0187429/-0.0619069/0.370033/0.00141943/0.675857/-0.0823185/0.472263/-0.765421/-0.0783531/-0.586474/-0.486565/0.243999/1.13655/0.174405/0.374172/0.519843/1.21962/1.66732/0.0290775/-1.03138/-0.262612/0.163061/-0.206599/-0.284784/-1.16396/0.383176/0.563476/0.0471005/0.474024/-0.218255/1.51391/0.740974/0.175346/-0.1818/-0.0735809/-0.925516/0.254986/-1.52883/-0.355846/-0.756249/-0.31548/0.282631/0.238824/0.354683/-0.40688/-0.239648/0.293139/0.0162452/-0.93085/-0.498339/-0.136896/-0.982954/0.124053/0.619656/0.145209/-0.835342/0.410166/0.721994/0.856437/-0.143031/0.0402228/-0.752554/-0.168821/0.399075/-0.376287/0.307043/-0.934358/0.77356/0.557821/0.421115/0.37589/0.700018/0.373897/0.334867/0.663283/0.120682/0.793916/-0.477375/0.0860894/-0.621522/0.446458/-0.0407322/0.6266/0.895432/1.00834/-0.165666/1.05594/-0.473658/-0.0762779/-0.531978/-0.953052/-0.139304/0.546729/-0.822558/-1.08058/-0.99753/-1.26174/0.502724/-0.713235/0.250032/0.128884/-1.43161/0.234441/-1.03766/-0.0644337/0.0476607/0.346229/-1.19165/0.541047/-0.391738/-0.0853716/-0.9809/0.452252/-0.133604/-0.936937/0.76576/0.234026/-0.965544/0.0943805/0.183973/-1.3839/-1.67019/-0.549217/-0.703964/-0.107736/0.798694/0.591149/1.00629/1.03565/-0.056046/0.680874/-0.290135/-1.75085/-0.816913/0.384379/0.0718713/-1.63396/-0.0966608/-0.555679/0.927817/-1.08995/-0.494822/0.823439/0.682892/-0.229425/0.295746/0.595652/-0.995511/0.347164/-0.159225/0.797819/-0.496619/0.541033/-0.417709/0.277827/0.19264/1.54425/0.546863/-1.04579/-0.722775/0.058205/-1.11543/-0.909695/-1.02329/0.0297372/-0.527753/0.684981/0.571794/-0.171216/-0.224845/-0.193306/1.21349/-0.559608/0.324355/-0.557574/0.867973/-1.02976/1.00633/-0.164417/-0.627638/-0.584988/-0.928883/-0.118791/-0.165651/0.571509/-0.740912/-0.255181/0.172318/1.13709/0.61545/-0.26496/-0.181682/-1.13026/0.768774/-0.399653/-0.384232/-0.35934/0.040125/1.02256/0.883755/-0.584528/0.0874269/-0.623845/-0.615104/0.303077/0.424445/-0.0187545/-0.882163/-1.48883/-0.503407/-1.25994/0.21544/0.0539287/-0.143568/0.0223743/0.0397312/0.151836/-0.215687/-0.903079/-1.21282/-0.0207006/-0.847213/0.602827/-0.519235/0.530182/1.20153/1.60681/1.30705/0.0309565/0.590029/0.604591/-0.397716/0.251595/-0.222869/0.215087/0.0691668/0.271424/-0.308389/-0.581581/-0.280664/0.127668/0.317291/1.07101/0.469114/-0.745907/0.554864/-0.789442/-0.5449/-0.67447/-1.2054/-0.907002/-0.500445/0.671771/1.91177/0.345959/0.302414/0.764278/-0.608168/0.504255/0.608498/0.869459/0.688336/0.198639/0.727283/0.047116/-0.858646/0.176772/-1.15581/-0.257477/0.493142/-0.320903/0.280736/0.0386449/-0.33911/0.261693/-1.0658/-0.44954/-0.752105/-0.529845/-0.162916/0.865582/0.966539/0.292632/-0.52431/0.377496/0.0315829/0.813062/0.185808/-0.222326/0.513156/0.97125/-0.240545/-0.236111/0.762416/0.483072/-0.913364/-0.757426/-0.808217/0.506178/0.572642/0.475657/-0.329628/-0.347493/-0.753365/-0.529658/-0.82934/-0.993289/-0.752413/0.381172/0.381472/-0.815176/0.154865/0.86281/0.175295/0.17927/0.990668/0.152861/-0.870736/-0.454944/-0.248751/-0.487071/-0.564238/0.614533/0.965761/-0.450689/-0.731773/-0.910675/0.283344/0.157572/0.311303/0.0705481/-0.297802/0.839219/0.758681/-0.844925/-0.653887/0.703871/-0.0331461/0.913143/-0.807985/0.19535/-0.75386/1.94252/
-0.759101/-0.206743/-0.731819/0.322294/-0.162493/0.344526/-0.481067/-0.0497034/0.140831/0.560983/-0.625842/-0.534104/-0.691553/0.267124/0.201255/-0.0288455/-0.805681/-0.937966/-0.314202/0.552882/0.815505/-0.193445/0.861882/-0.468169/-0.509085/-0.185839/0.600064/-0.71612/0.17351/0.185442/0.62126/0.352195/0.0156455/0.649984/0.304107/0.0794505/-0.245316/0.602831/-0.587499/-0.754531/0.122507/0.104048/0.404115/0.191067/-0.500184/0.623839/-0.64081/-0.159205/-0.818572/-0.707356/-0.874411/-0.630966/0.591038/-0.316983/-0.440238/0.683729/-0.553623/-0.742867/-0.0384006/-0.5459/-0.44349/-0.247974/-0.666699/0.0977671/-0.464152/1.18858/0.526398/0.807997/0.303423/-0.565325/-0.781944/-0.202741/-1.21342/-0.741581/0.826431/0.125606/-0.0504171/-0.268044/-0.00294413/-0.18803/-0.335811/0.76812/0.771324/-0.418515/-0.26275/-0.0460813/-0.629537/0.0699054/0.0847984/-0.828599/0.76668/-0.451141/-0.723035/1.09333/-0.283667/0.435863/-0.708532/-1.33185/0.048982/-0.129171/-1.22586/-0.262492/0.410821/0.570257/0.657192/0.27106/0.966114/0.520856/-0.599274/0.964958/-0.626307/0.439772/0.971579/-0.681317/0.222156/-0.186309/0.340386/-0.912875/0.666207/-0.529658/0.206476/0.271144/-0.584659/-0.0785599/-0.539383/-0.359688/-0.0632683/0.509082/0.44297/-0.0572065/-0.306612/-1.10796/0.809724/0.398798/0.735844/-0.303966/-0.152831/0.272399/0.259683/-0.239206/-0.0536159/0.872581/0.356934/-0.160073/-0.797697/0.529683/-0.744021/0.302806/0.0333794/0.316843/-1.06661/-1.16722/-0.369849/0.423697/0.386904/-1.34253/-0.196843/-0.962427/-1.68777/-0.146796/-0.149425/0.20937/1.05183/-0.0828062/-0.125593/0.954355/-0.886577/-0.38651/-0.0672979/0.91289/-0.202037/-0.844048/-0.184448/0.219592/0.943414/0.285436/-1.30942/-0.33361/0.410501/-1.08481/0.198687/0.781617/0.0920414/-0.138095/-0.600498/-0.785465/0.646041/-1.18094/-0.600726/0.148451/0.0327979/-0.00145145/0.997477/1.44062/-0.0756028/0.802165/-0.0194559/-0.998502/-0.24702/1.17695/1.26239/-0.632187/-0.643361/-0.58435/0.690648/-0.814496/0.209703/0.721914/-0.301518/0.348241/0.525189/-0.548625/0.328481/-0.0465283/0.41104/-0.318367/-0.215723/0.403788/0.627172/0.597467/-0.2172/0.617705/0.0248129/-0.160702/-0.911251/0.602406/-0.477837/1.23388/0.240543/-0.137633/-0.484871/-0.870343/0.387185/-0.836475/0.567561/-0.256118/-0.702553/0.230926/-0.130604/-0.220128/0.326651/-0.802934/0.177075/0.00820017/0.893891/-0.781882/-0.540163/1.01025/-0.109484/0.694401/-0.830946/0.626434/-0.470708/0.833058/0.759993/-0.485022/0.183462/1.16102/0.0636032/-0.966889/0.381876/0.148113/-1.04445/-0.731422/-0.6848/-0.112012/-1.71333/-0.790855/0.435758/-0.369157/-0.0765121/0.488958/-0.455361/-1.22809/0.887995/1.31072/-0.0654391/-0.287648/-0.692845/-0.0674191/-0.595361/-0.221739/0.819652/1.42495/0.51386/0.192756/-0.141223/0.470228/-0.385996/0.153305/1.49402/-0.243321/0.326823/-0.328435/-1.31974/0.792152/-0.0784799/-0.301763/-1.19405/-0.0303788/0.511105/0.413988/0.19351/0.369967/-0.42488/-0.00153935/0.982603/-0.689511/-0.606697/-0.755403/-0.28905/1.07532/-0.580024/-0.139349/0.48198/0.0846394/-0.934151/0.282268/-0.635527/0.51556/-0.25071/-0.132254/-0.12464/-0.0248921/0.44275/-0.579532/0.354865/-1.0436/0.117428/-0.256957/0.575279/-0.623804/0.780934/-0.263813/0.68364/-0.768505/-0.264888/0.023921/-0.743564/-0.368884/0.106619/-0.273503/0.154346/-0.11781/0.303169/-0.194444/0.619107/-0.731112/0.908455/-0.0277661/0.21479/-0.362381/-0.372498/0.68723/-0.0940663/0.537555/0.2767/0.938846/0.920094/-0.540604/0.223441/-0.0717187/0.0275258/0.917697/-0.265671/0.835721/-0.0305734/0.731999/0.270317/1.12181/0.947762/0.306901/-0.0440884/-1.01911/0.552043/0.113338/0.142802/-0.187214/-0.56721/0.951115/0.146231/-0.167411/-0.0598272/0.15652/-0.129661/-0.476122/-0.540833/-0.779764/0.344905/0.0971954/0.52559/0.294738/-0.335117/-0.468376/-0.739382/-1.32097/0.945486/-0.18204/-0.165649/0.948132/-1.07765/0.00414423/-0.81188/-0.0405361/-0.852245/-0.0439659/-0.790675/-0.514039/0.545755/-0.347528/0.732782/0.160995/0.358094/0.906835/0.40948/0.260754/-0.259022/0.772372/-0.0105268/0.741052/0.865749/0.359179/-0.191037/-0.700505/-0.0318765/0.4664/-1.04103/0.0978347/0.457709/0.272137/0.0818102/0.488676/0.99765/0.930562/-0.541899/-0.412986/0.184014/-0.314773/0.0101234/-0.386187/0.172033/0.214187/-0.745655/-0.770346/-0.932377/-1.06897/0.180519/-0.606218/-0.697845/-0.788609/0.381101/0.591491/0.782225/0.668745/0.143683/0.026105/-0.23097/0.137561/-0.589738/0.636731/-0.984344/0.431456/1.28519/0.156435/-0.898707/0.0260856/-0.724264/0.366735/0.893056/-0.606716/-0.15236/-0.00470385/-1.13304/-0.195096/-0.56817/0.613871/-0.665461/-0.50757/-0.717901/-0.819077/0.286093/0.272271/0.26167/-0.124774/-1.11495/0.357885/0.825933/-0.127824/-0.0386529/0.573701/-0.450283/0.015856/-1.54837/-1.15537/-0.139394/-1.49797/-0.888843/-0.911176/-1.34831/-0.0198506/-0.757706/0.608507/0.677384/-0.603297/0.382459/-0.177509/-0.498302/0.0731464/0.977306/-1.22623/-0.798329/0.537211/-0.529954/-1.46873/0.0755528/0.226337/0.19082/-1.28641/0.395369/-1.12465/-1.98301/-0.0528855/0.418786/-0.821802/-0.567289/-1.66764/0.222913/-0.475991/-0.811757/-0.486789/0.66855/-0.101384/0.0372577/0.16334/0.239024/0.513572/-0.902109/0.143068/-0.780689/0.479529/-0.0039554/-0.178866/0.612654/-0.139566/0.257334/0.0937407/-0.120293/-0.940832/-0.276677/-0.284984/-0.0715826/0.0871242/-1.21968/-1.22236/-0.519397/-0.963856/-1.137/-0.605112/-0.216363/0.360559/-0.0771332/-0.413278/0.36761/-1.04906/0.148369/0.362856/-0.349671/-0.318254/0.206042/-0.620222/0.325198/0.263225/0.340209/0.824174/0.207506/1.81233/0.2287/-0.0720585/-0.149224/-0.35281/1.05538/0.534621/-0.514329/0.0135178/-0.100273/-0.320896/-0.649811/-0.393136/0.564579/0.896909/-0.0387627/-0.969889/-0.821846/-0.117132/0.669266/-0.19509/0.51566/1.30943/0.801081/-0.0346864/-0.486092/0.887661/0.768732/0.0744519/0.0781813/0.507933/0.956921/0.618012/-0.0783146/-0.452728/-1.41524/-0.272127/-0.185797/-0.938507/0.647514/0.825145/0.204463/0.30326/-0.490267/-0.613719/0.250547/0.0495308/0.767857/0.39875/-0.531102/-0.42616/1.3777/-0.228799/-0.694061/0.326446/1.36517/1.12154/0.770933/1.23477/0.340627/-0.609917/0.291168/0.779068/0.0786362/0.725282/-0.927656/-1.00706/0.423188/0.0214086/-0.186108/-0.941054/-1.00785/-0.780417/-0.869402/-0.870464/0.909825/-0.539948/-0.776254/-0.122354/0.879533/0.309376/0.296665/0.689219/-0.00023984/0.667864/0.358348/1.59746/0.188551/-0.16811/-0.0136016/0.34185/0.0147584/1.03672/-0.816487/-0.485065/0.206018/-0.547383/0.135391/-0.61098/0.24316/-0.11059/0.548853/0.657218/0.442421/-1.20123/-0.672671/0.289661/0.61678/-0.196139/-0.13338/0.572384/0.731711/1.41461/0.477948/0.59569/1.30485/0.963742/0.719035/0.891295/-0.551338/0.139192/0.055758/0.530335/-0.421941/-0.225502/-0.00506899/-0.0517699/-0.117606/1.24077/-0.811946/-0.0701237/0.799952/1.14627/0.167694/-0.470317/-0.940321/0.711987/-0.0896439/0.00769877/0.20817/0.123097/1.22431/-0.293449/0.722269/0.0803692/0.443592/0.812952/0.162232/-0.0208121/-0.556627/0.0785132/0.723192/-0.251939/-0.332046/-0.685864/0.739082/1.01844/-0.773789/-0.415262/-0.901555/0.201231/0.753003/0.306027/-0.804031/0.618323/0.8193/0.977221/0.530122/-0.562801/0.798585/-0.558793/1.06064/0.402166/-0.155817/0.568628/-0.537181/0.092082/0.0771332/-0.377027/-0.821935/0.111465/-0.602499/-0.202127/0.859479/-0.733743/-0.0105195/-0.800911/-0.274636/0.150547/0.510872/-0.253682/0.361113/-0.780158/-0.113831/0.849771/0.105602/0.848125/0.44186/0.33298/0.399182/-0.949927/0.569377/-0.483398/0.717157/-0.735373/0.580189/-0.759569/-0.0770809/0.500744/-0.462599/
-0.985183/0.0234555/0.216638/-0.965999/-0.434738/-0.133845/-0.654385/0.834144/0.823323/0.553723/-0.13542/-0.0113557/-0.859741/-0.844297/0.237674/0.860929/-0.95345/0.383424/-0.138834/0.019214/-0.194932/-0.825828/-0.463352/-0.265634/-0.505519/-0.255683/0.740486/-0.651992/-0.0353905/-0.808053/-0.85121/0.901111/-0.451652/-0.161394/-0.559265/0.40856/1.03406/-0.60332/0.179904/-0.0640328/-0.658801/-0.229162/-0.927763/0.535601/-0.315324/-0.747037/0.0610402/0.392858/0.960555/-0.511033/0.326668/-0.58473/0.782311/0.633709/0.696516/-0.507708/-0.979465/0.136657/-0.0809088/-0.487086/-0.0557005/-0.231896/0.932519/-0.672138/0.0906262/1.20632/0.590124/0.775717/-0.632471/1.22403/-0.493316/-0.203992/0.059564/0.942762/0.382584/1.28048/-0.192247/0.399619/-0.47549/1.04584/0.708719/-0.729053/-0.735744/-0.293918/-0.983742/0.241852/0.116311/0.250515/-0.280192/-1.18668/-0.0623853/0.329308/-0.0703421/0.405751/2.02775/1.09814/1.51096/-0.196989/0.762136/0.468051/-1.05345/0.0739748/-0.819637/0.514137/0.0011665/0.526034/0.167871/-0.669398/0.598521/0.164023/0.678529/0.625794/0.68567/0.0452934/-0.3356/0.0499553/-0.773625/-0.621136/-0.0968731/-0.213496/1.36335/1.24927/1.99657/1.08478/0.611559/0.543781/-0.923947/-1.09078/0.345763/-0.126171/0.0220804/0.287742/1.32177/-0.115157/-0.383778/-1.07392/-0.195457/-0.163747/0.270792/-0.0357305/-0.350137/-0.730005/0.00627185/-0.510375/-0.507361/-0.541589/0.843832/0.342522/1.41926/0.255943/0.822709/1.38645/0.719648/-0.533545/0.535309/-0.404479/-0.753653/-0.312186/1.18638/-0.124014/-0.0372379/-0.498726/-0.620216/-0.264211/-0.193426/-0.333111/-0.302493/-0.239098/-0.517268/0.300478/0.642247/-0.914774/-0.072428/-0.860373/0.115002/0.112315/0.727515/1.03005/1.74772/1.97481/-0.355725/0.056059/-1.2058/-1.0304/-0.370744/-0.850782/-0.276298/0.0994504/0.696851/0.719466/-0.732637/0.763025/0.171575/0.482095/0.0165532/0.521465/0.270449/-0.546263/-0.891137/-1.19111/0.228609/-0.631437/0.182084/-0.431279/0.662815/1.2465/0.247179/1.51864/0.67664/-1.75201/0.268751/-0.0374353/-0.635628/-0.140295/-0.955867/-0.338426/0.63898/-0.512852/-1.33346/-0.670675/0.622419/-0.200892/-1.1113/0.831635/-0.711101/0.473962/0.414424/-0.749084/-0.0222509/0.743663/-0.430541/0.990145/0.871254/1.78074/1.05948/1.15262/-0.462503/0.440453/-0.646857/-0.390194/-0.469303/0.215225/0.223045/0.725617/0.18966/0.359264/0.0713077/-0.245994/-0.115369/-0.336593/0.768005/0.368802/-0.526299/0.461461/-0.941629/-0.287607/-0.36152/0.542434/-0.531098/-0.451201/0.38227/0.775758/0.691501/-0.479317/-0.269845/-0.798984/-0.26868/-0.400638/-0.703932/-0.398541/-0.524098/0.000353627/0.187164/-0.453114/0.50389/-0.0882266/0.0441608/0.235325/0.315327/-0.531262/0.557038/0.0962583/0.0327283/-0.116509/0.49009/0.228878/0.48467/-0.0610494/0.227963/1.30514/0.809245/0.389073/-1.15611/0.185305/-0.514124/-0.135408/-0.853879/-0.103943/-0.621808/0.296762/-0.656738/0.124014/-0.313967/-0.552424/0.83285/-0.761809/0.634529/-0.17635/0.0852225/0.283279/-0.583108/-1.12879/0.35139/-0.368848/-0.354947/-0.842818/2.08991/2.33416/0.255906/-1.0807/0.219716/-0.229787/-0.624993/0.417735/-0.17168/-0.0822722/0.00255359/0.176304/0.580548/0.89453/0.853206/-0.839299/0.645002/0.619049/0.230899/0.607178/0.838182/-0.672816/0.448125/0.977552/-0.485084/0.533878/0.595559/-0.24094/1.14874/0.664806/0.439084/0.613492/-0.0476897/-0.591552/-0.678629/-0.408021/-0.369096/0.193285/-0.674337/0.0543414/-0.627209/0.534315/-0.134209/0.2847/0.742605/0.0917111/-0.168107/-0.230084/0.971093/-0.945329/-0.3675/-0.0852861/-0.246488/-0.03543/0.230685/-0.153794/0.305235/0.591151/0.116201/0.92299/-1.30193/-0.384228/0.795047/-0.051115/0.453399/0.768096/-1.43829/-0.470073/0.104837/0.417108/0.416828/-1.29083/-0.394579/-0.388706/0.0675042/0.735729/-0.610438/0.173881/0.0200933/0.00693518/0.663948/-0.99315/0.414608/0.339295/0.767266/1.09807/0.670972/0.033747/-0.821926/-0.0221837/0.0630518/0.333737/-0.670831/-0.19116/-0.305519/-0.381388/0.757341/-0.0792828/0.426731/0.0777665/0.571284/-0.174736/-0.714485/0.845943/-0.240944/0.389451/-1.00242/-0.0120418/0.0467088/0.0310931/0.913563/-0.262532/0.0386574/1.15255/-0.392539/-0.236743/0.452729/0.209904/-0.778712/-0.0956293/-1.01534/-0.516011/0.846842/1.23316/-0.0153926/-0.206607/-0.237261/-0.313779/-0.342/0.924849/0.628509/-0.930002/-0.54346/-0.0124667/-0.645007/0.0219731/-0.0727401/-0.857794/0.215362/0.590015/0.234418/0.851629/0.549874/-0.551678/0.16727/-0.063345/-0.182416/-0.721454/0.0417288/-1.49855/-0.0791507/-0.100654/-1.4332/-0.0640303/0.687688/0.0120394/0.237655/-0.297145/0.888189/0.76673/-0.39789/0.490595/-0.653675/-0.0556866/0.695634/-0.0102561/-0.366391/-0.512138/1.47062/-0.0848941/0.0016666/-0.252356/0.0378253/-0.60069/0.416144/-0.25145/0.102368/0.582325/0.113725/1.16507/0.250214/0.0776348/-0.0144229/-0.349843/0.146464/0.109314/-0.0123921/-0.566569/-0.322902/0.603661/-0.300174/-0.80285/-0.0182911/0.288792/-0.649608/0.4054/0.819856/1.20384/-0.477481/-0.531298/0.65789/-0.643189/-0.556127/-0.600377/-0.178222/-1.7073/0.240762/0.310237/0.255146/0.397228/-2.01622/0.638592/0.415957/-0.0102958/-0.608897/0.723935/-0.81828/-0.854758/-0.458126/-0.408193/0.396946/1.19455/-0.644336/0.066302/0.158405/0.834362/1.71336/-0.0437307/-0.902005/0.646388/0.0392431/-0.986957/0.0627911/-1.15485/-0.208299/0.933032/-0.0343154/0.748579/0.737665/-0.842014/0.28312/-0.558808/-0.796457/0.00191249/0.143219/-0.979294/-0.403237/-0.258259/0.223021/0.02795/-0.389501/0.490598/0.752546/1.01868/0.988374/-0.298544/-0.414262/-0.328369/-1.39469/-0.531105/-0.412568/0.411923/0.154024/1.05013/0.618872/-0.168585/-1.06118/0.65201/-1.77226/-0.0900918/-0.466185/0.988839/-0.585439/0.501892/0.715535/-0.0358568/0.212118/0.428177/-0.396319/-1.01643/0.952482/1.60666/-0.440118/0.582499/0.820476/-0.87041/-0.249747/-0.685766/-0.884962/-0.236922/0.131352/0.0874801/0.233939/-0.725631/-0.574174/0.191063/-0.0811977/0.652852/1.01744/0.898902/-0.160756/0.00296316/-0.199724/0.582599/0.426783/-0.383001/0.13333/0.0997288/-0.134958/0.946075/0.677041/0.537/-0.497555/-0.261553/-0.806739/-0.505878/0.666458/-0.258288/0.00625022/-0.673602/0.128129/0.169308/0.545101/-0.115101/-0.408123/-0.146042/-0.692319/0.148662/0.567789/0.581631/-0.350696/-0.135823/0.168354/-0.84563/0.322552/0.163565/0.418455/-0.024802/1.77425/0.164382/-0.50586/0.276794/-0.498996/-1.31585/-0.709032/0.299827/0.870898/0.545776/0.37429/0.613808/-1.0642/-1.00923/-0.0254622/-0.573559/-0.176003/0.597287/0.601862/-0.535851/-0.0895011/0.389712/0.358894/-0.890686/0.462727/-0.672733/0.644555/1.82845/1.6913/1.08166/0.243577/-0.710129/0.756637/0.0354009/-0.0589097/1.37988/-0.0024387/-0.248598/-1.03632/-0.534015/0.4074/-0.264139/0.558753/-0.845781/-0.456992/-0.0979797/-0.744624/-0.70234/0.297521/0.803613/-0.420165/0.640251/0.527141/-0.29626/-0.54397/0.583371/-0.145355/0.524644/0.00904956/-0.758725/0.751392/0.267338/0.151385/1.09/0.384953/0.553316/0.0872079/-0.218786/-0.988384/0.37819/-0.789379/-0.785135/-0.635942/-0.798236/0.0527992/-0.537234/-0.292513/-0.771719/1.00173/-0.622106/0.114088/-0.687606/-0.0960875/-0.286514/0.185311/-0.305651/0.0157524/-0.608231/-0.35998/0.976912/-0.936304/-0.0260994/0.729888/-0.536443/0.0704719/-0.348618/0.670825/0.503399/-0.273802/0.55435/0.375887/0.0821161/0.124816/-0.216955/-0.360982/0.980416/-0.141638/-0.503135/0.0408204/0.150781/0.432603/-0.491845/-0.44587/0.265686/-0.616769/-0.0444526/0.885188/-0.653013/0.815532/0.642876/0.811234/0.410199/0.212421/0.165773/-0.397853/-0.714695/0.125769/-0.201495/-0.534366/0.909069/0.0395173/
-0.397912/0.295692/-0.301391/0.527934/0.990892/0.620321/0.199293/1.01285/0.571027/-0.615075/0.350014/0.687362/0.49973/-0.0366327/-0.506969/0.556938/0.905187/0.194185/-0.718909/-0.874944/0.0302802/0.0559021/0.895413/-0.825952/0.221983/0.863872/-0.911201/-0.562348/0.624825/-0.55939/0.426002/-0.208228/-0.0449391/0.92732/-0.354357/-0.0747049/-0.502324/-0.134618/0.691338/-0.742971/-0.696204/0.664486/0.422115/-0.0613057/0.855473/0.849985/0.413569/-0.339584/0.988933/-0.680652/-0.564181/0.703666/-0.479506/0.788917/0.791609/-0.636313/-0.792565/-0.637205/-0.311252/-0.380111/0.452809/-1.26196/-0.141873/-0.545916/0.636286/0.923586/0.466664/-0.358957/0.061128/-0.861073/0.239369/-0.299715/-1.01201/0.3607/-0.827686/-0.250087/0.153075/-0.342748/-0.605565/-1.29067/-0.745949/-0.782126/-0.131894/-0.257335/-0.69202/-0.785168/-0.194644/0.367395/-0.705119/-0.0666631/-1.60848/-0.122236/-0.154343/-0.351605/-0.585657/-0.474363/-0.945779/-1.3099/-1.59309/-0.973208/-0.421572/-1.06877/-0.82715/0.117339/0.233749/-0.355749/0.0603231/-1.03002/-0.506741/0.257533/-0.267377/-0.996064/-0.794694/-0.419194/-0.758887/0.0146014/-0.403502/-0.758258/-1.62884/0.478551/-0.612122/-0.408622/-0.428445/0.95745/0.969075/-0.451054/-0.15017/0.435903/-0.223393/-0.13189/0.385995/-1.01578/0.387357/-0.499216/-0.0858836/-0.393319/-0.648684/0.124427/0.607215/-0.588807/0.213711/-0.156567/-0.196838/-1.0332/-0.774015/-0.654238/-0.0939723/-0.533847/0.556678/-0.878816/0.341673/0.703821/-0.483755/1.01442/0.00284357/1.32407/0.238196/0.480906/0.526592/0.479458/-0.352648/0.469359/-0.507142/-0.327486/0.120632/-0.0667513/0.798519/0.146045/0.581663/0.00518869/-0.840757/-0.483401/-0.765459/-0.397497/0.488283/0.533794/0.389143/-0.172077/0.832207/-0.200475/0.376138/0.564658/-0.767875/0.504526/-0.572053/-0.604287/-0.06492/0.413021/-0.514229/0.163722/0.619973/-0.500036/-0.253502/0.477451/0.970912/-0.070035/0.921381/-0.369482/-0.263762/-0.385655/0.316223/-0.551053/0.49532/0.491603/0.630822/1.53062/-0.133129/-0.398475/-0.129669/-0.0505428/0.226716/0.379847/-0.183557/0.316978/0.0289802/0.905363/-0.521366/0.0945166/-0.46825/-0.841981/-0.214184/0.403969/0.407063/0.484482/0.689011/0.210326/-0.011405/0.415542/-0.00747127/-0.403593/0.380808/-0.149999/0.73169/-0.373465/-0.788933/-0.920927/0.567361/1.44674/0.270656/0.440109/-0.689453/-0.37451/0.557642/-1.01981/0.179581/0.0560443/0.353625/-0.516414/0.341505/-0.314861/0.0577508/-0.259732/-0.511286/0.867794/0.597344/-0.449383/-0.904448/-0.0310758/0.222276/1.18416/0.0203588/-0.286562/1.14724/0.685464/-0.22521/0.14407/0.467495/0.165801/-0.707007/-0.885542/-0.381601/-0.748647/0.243533/-0.236317/0.273837/-0.228367/0.156451/0.354559/0.562524/0.399705/-0.804988/0.597848/-0.929971/0.336547/-0.705711/1.41917/-0.0654004/-0.363248/0.210553/0.436558/1.67477/-0.977597/0.334071/0.606285/-0.197368/0.302124/0.495741/-0.141653/0.815927/0.055798/0.0271244/0.0985455/0.722554/0.25038/0.89741/-0.351939/0.92916/0.95673/-0.240397/-0.397939/0.055286/-0.130253/0.845955/-0.883036/0.144008/0.781974/-0.596039/-0.0281478/0.243483/-0.757248/0.854891/-0.365786/-0.55445/1.00428/-0.973813/-0.489427/1.18133/0.0040203/1.20012/-0.27016/-0.610847/-0.615796/-0.0559294/-0.107129/0.92133/-0.570131/-0.197429/-0.221549/-0.977436/-1.03787/-0.254127/0.384456/-0.185062/0.385792/0.900289/0.213991/-0.187691/-0.142302/0.553959/-0.300908/0.704123/-0.209792/-0.654316/-1.00212/-0.394732/0.0627452/0.454039/-0.140718/0.895748/-0.0101812/0.169963/0.189239/0.902699/0.559361/-0.82596/0.111755/-0.0621164/-0.4386/0.275163/0.192982/-0.964117/1.21182/1.66273/0.202987/-0.373072/-0.127456/-0.442222/-0.442024/0.00976629/-0.570903/-0.130729/-0.297684/-0.621282/0.106137/0.924759/0.897594/-0.327583/0.0345787/-0.867505/-0.0849526/-0.446777/0.309156/-0.0100472/-1.00363/0.0286268/-1.46097/-0.750873/-0.136747/0.626974/0.377921/1.14948/-0.665492/0.540906/-0.49146/-0.531667/-1.47696/0.109493/-0.535522/-0.80514/0.588648/-0.16286/0.0572476/0.815912/0.271112/0.671594/0.0350221/0.141843/0.0459899/0.0265836/-0.532277/0.0241564/-0.0965598/-0.840729/-0.821252/-1.6262/-1.78783/-0.346203/-0.187997/0.396949/-0.347779/1.18123/-1.16632/-1.12649/-0.942344/-0.336521/0.180357/-0.716041/0.147156/-0.87456/-0.484906/-0.669308/0.567752/0.295092/0.399914/-0.684064/-1.11105/-0.806069/0.230669/0.859139/-0.557867/-1.6212/-1.66214/-1.47088/-0.588052/-0.424153/-0.714624/0.72994/1.90413/0.670259/0.485951/0.428892/0.630931/-0.816237/-0.668126/-0.44022/-0.265236/-0.201969/0.516402/0.122339/-0.52063/-1.07695/-0.624565/-0.13543/-0.731912/-0.537079/-0.362323/0.442617/-1.03748/-1.32158/-1.54982/0.527118/0.183999/0.318906/-0.373715/1.48129/0.671271/-0.164309/-0.219149/0.0674506/-0.114549/-1.13987/-1.32589/0.177594/-0.146839/0.538681/-0.297517/-0.143859/0.394366/0.327686/-0.281513/0.799145/0.394776/-0.0691425/0.858067/-0.465298/-0.29478/-0.190879/-1.55094/-0.108046/0.0731162/-0.135521/0.199487/0.249573/-0.0691146/1.30395/0.746354/-0.618995/0.317546/0.448963/-0.314458/0.177303/-0.465707/-0.69695/-0.766048/0.178787/-0.521496/-0.847553/0.29913/0.0447265/-0.923866/-0.0954825/0.326511/-0.32917/-0.324728/0.079331/0.0197672/0.989968/0.333375/0.239267/0.337659/-0.564288/-0.39938/1.02412/1.49655/-0.617374/0.988092/-0.302442/0.440228/-0.562254/-0.690512/0.131679/0.442859/-1.39052/0.499964/-0.74168/0.995319/-0.208245/-0.379392/0.618565/0.73445/-0.105358/-0.80174/-0.446425/-1.01514/-0.899767/-0.554164/0.469174/0.180798/0.495064/0.21073/-0.114668/0.992483/-0.589207/0.650285/-0.409644/-0.501867/0.121202/-0.0430028/-0.370474/0.497866/-0.120174/-0.575747/0.296098/-0.783426/0.567889/-0.241004/0.15191/-0.582118/0.341448/0.629329/0.673194/-0.738528/0.218649/0.650003/-0.501179/0.830561/-0.590393/0.693464/-0.59047/0.240827/0.673283/-0.0812386/-0.676872/-0.23683/0.58147/-0.168429/0.545706/-0.730088/1.03363/-0.944903/-1.4859/-0.742874/0.0899014/0.182467/0.655423/-0.626756/0.113549/0.326625/-0.801353/-0.555965/-0.234009/1.23814/-0.0685363/0.693592/0.31061/0.181743/-0.361015/0.326546/0.524722/-0.124534/0.290379/-0.876236/1.13381/0.187364/-0.362413/-0.288602/0.455673/0.528566/-0.809445/-0.720496/-0.544698/0.366171/0.517471/0.181914/-0.56876/-0.0398741/0.410319/-0.836579/-0.943665/0.0961357/-0.0296831/-0.0285131/0.646872/0.632783/0.693224/0.556334/-0.775422/0.222134/-0.0834891/-0.798795/0.103298/-0.135697/-0.381468/0.673729/0.962961/-0.217872/0.0964342/-0.0863322/-1.18101/-1.418/0.279122/-0.876685/-0.439246/-0.392875/0.302958/-0.0753305/0.441924/-0.399896/0.0494566/0.13101/0.790139/0.383532/0.0573409/0.735255/0.245379/0.139489/0.541298/-0.0392709/0.282701/0.935393/0.575985/0.862968/-0.507421/1.05656/-0.73568/-0.635687/-0.155161/-0.203622/0.366669/-0.839815/-0.770755/-0.309356/-0.229934/-0.27231/-0.264452/-0.615776/0.664967/0.244418/-0.830255/0.303169/0.765463/0.806028/-1.3885/0.454513/-0.991122/-0.536782/-0.882985/-0.309381/0.611308/-0.0348143/0.572017/0.410093/-0.51314/-0.358055/0.88627/0.214977/-0.884374/0.929752/0.336365/-0.988046/0.146006/-0.328849/-0.537423/-0.81852/0.921019/0.252859/0.883871/-0.227566/-0.0707566/0.645075/0.556628/-0.651651/-0.150024/0.832945/-0.952099/0.665316/0.0273457/0.558192/0.623477/0.517032/-0.533282/0.161252/-0.685075/0.733622/0.967562/-0.828497/-0.552381/0.131949/-0.328811/-0.331764/0.0411971/0.400465/0.0315746/-0.193982/0.542992/-0.551/-0.650594/-0.535715/0.237689/0.845757/0.638386/-0.654563/0.761877/0.870734/0.42907/-0.615669/0.4553/0.223717/0.0506429/-0.844831/0.921188/0.405019/-0.843243/-0.378058/0.821456/
0.498171/0.758018/0.00240475/0.416615/0.0525607/0.0254195/-0.800954/-0.289349/-0.96095/0.876301/0.337398/0.647869/0.730986/0.705167/0.726255/0.158185/0.862944/0.373008/0.0209093/0.13646/0.662318/0.395177/0.942641/-0.0476299/-0.516509/-0.969001/-0.00182286/-0.636878/-0.0108694/-0.681707/0.491114/-0.199301/-0.255924/-0.424284/0.83362/-0.136818/0.306407/0.9913/-0.185148/0.221187/0.118546/0.704307/1.03044/0.0977311/1.03424/-0.672211/0.382966/-0.52986/-0.625431/-0.837187/0.323139/0.630757/-0.146192/0.931622/0.80123/-0.0182963/-0.366486/0.473352/0.570297/-0.177319/0.835588/0.420719/0.21266/-0.249266/-0.187668/0.208443/0.115724/0.92535/0.0786789/0.561789/0.266764/0.667458/0.309579/0.349507/-0.471179/0.647129/0.891569/0.198794/-0.604145/0.240243/0.890794/0.763747/0.689793/0.171806/-0.267309/-0.667306/0.536509/0.0487253/0.458096/0.794944/0.203953/-0.440886/-0.738085/0.422976/1.15415/1.36339/0.764022/-0.36311/-0.0774165/-0.772643/0.508661/0.496853/0.630582/-1.16018/0.0701098/0.924393/0.191067/0.576449/-0.395431/1.00113/0.803635/0.967589/-0.406922/0.872988/0.282885/-0.804714/-0.00308319/-0.875611/-0.783086/-0.105942/0.304554/0.653144/0.625446/0.501429/1.90669/-0.276246/-0.0285331/0.20086/0.982073/0.914482/0.171614/-0.189525/-0.636047/-0.354288/1.34835/-0.999643/-0.923865/0.26305/-0.766097/0.152326/0.886838/-0.906908/-0.595214/-0.058187/-0.821445/0.00102378/-0.323558/0.703572/-1.05372/0.757445/0.839973/1.59914/0.432343/1.22088/0.689324/0.431514/0.518/-0.335723/0.470441/-0.638236/-0.291723/0.773733/0.744024/0.512901/0.649201/-0.32964/-0.0548676/0.948314/0.314836/-0.547355/0.332166/-0.255835/1.18162/-0.27857/0.0258768/-0.55917/0.318701/0.617388/-0.00843287/0.387887/1.20965/-0.00068367/0.0655642/1.16986/0.892436/0.69535/0.904123/-0.632567/0.0469468/0.257966/0.0371192/0.49706/-0.484205/-0.075796/-0.471734/0.727762/-0.509896/0.160913/-0.580654/-0.137318/-0.710792/-0.38178/-0.711938/-0.479985/0.739933/-0.857344/-0.803518/1.04272/0.342422/-0.142398/0.835442/-0.210815/1.57348/0.949108/0.765068/-0.233247/0.051321/0.16046/1.48921/0.213282/0.0403197/0.632209/0.248304/-0.43164/-0.565463/0.243633/0.0181322/-0.649788/-0.457155/-0.299295/0.22152/-0.645011/-1.18767/0.242115/0.537054/-0.435001/-0.201199/-0.0969396/-0.5336/-0.225141/1.058/1.93057/0.591374/1.15165/1.03065/0.924877/-1.10293/0.491011/0.743171/-0.370797/0.691807/-0.329925/-0.71221/-0.141183/-0.260066/-1.53296/-1.40486/-0.330514/-0.75297/0.296282/-0.00910458/1.50649/0.00238704/0.82635/0.415099/-0.689632/-1.11634/0.286565/-0.60288/-0.619906/1.0743/1.83398/0.549818/1.27583/-0.974316/0.294171/0.661621/-0.685221/-0.107662/-0.387714/-0.459293/0.644275/0.335374/-1.02869/-0.715136/-0.30575/-1.05911/-0.951263/-0.210573/0.696007/-0.991169/-0.45599/0.80349/-0.658797/-0.142192/-0.248252/-0.333241/-1.87437/-0.224407/-0.348371/1.70338/1.84161/0.85543/0.676988/-0.545106/0.426961/-0.286631/-0.44417/0.826737/0.949332/-0.770255/-1.19349/-0.340698/0.507149/-0.229011/0.224523/-0.676069/0.0960608/-0.545979/0.100452/-0.631833/-0.92895/-1.34725/-0.658254/0.262358/-1.02067/-0.222089/-0.156045/0.260054/1.31533/0.713795/0.538719/-0.430402/-0.381788/-0.711175/-0.604523/-0.221053/0.756154/-1.29893/0.445667/0.0305444/-0.193065/-0.966209/-1.24205/-0.383361/-0.904933/0.467064/-0.635483/0.843505/-1.14646/-0.028901/0.177432/-0.87866/-0.283059/-0.139533/-1.12936/0.751276/-0.0103987/0.793316/0.918031/0.851746/0.609801/0.314812/0.532523/0.114396/0.60857/-0.952889/-0.669367/-1.37681/-0.596525/0.0872373/-1.58135/0.727894/0.483982/-0.0939119/-0.347583/-0.904911/-0.836365/-0.50185/1.0631/-0.88866/0.667019/-1.03484/-0.410808/-0.432588/-1.203/0.311034/-0.0473951/0.3725/1.33734/-0.448909/-0.499082/-0.0632341/-0.879602/0.527815/-1.42113/0.25594/-0.0107665/0.210292/-0.0605746/0.0497856/0.383445/0.777304/0.748627/0.648238/0.184984/0.491779/-0.478928/0.229948/-0.447516/-0.811424/0.177081/-0.729805/-1.2143/0.103587/0.270901/0.498338/0.534785/0.517898/0.703874/0.00344998/-0.161758/0.11913/-0.375377/-0.41682/-0.124286/-0.676877/-0.166729/-0.962136/1.24538/0.180588/-0.425918/-0.971893/-0.169311/0.133706/-0.848886/-0.472413/-0.238718/-0.272894/0.319667/-0.321961/-1.19058/-0.750074/-0.70297/0.602919/1.13122/0.879007/-0.448618/0.0755815/0.13637/-0.00570107/-0.388475/-0.119919/-0.827656/-0.173227/-0.9432/0.849486/-0.0610497/0.359311/0.870498/-0.983043/-0.187305/0.749492/-0.239707/-0.388715/-1.3218/-1.10881/-0.848176/-0.602804/0.255897/-0.765135/-0.518913/-0.452995/0.0854497/-0.943037/-0.165881/0.049787/0.523949/-0.0227078/0.654517/0.47962/0.644227/-0.333896/-0.934398/0.224178/-0.0332247/0.945126/0.590144/0.749872/0.25514/-0.586048/-0.960304/0.395096/-0.936756/-1.12134/-0.359885/-0.958822/0.31022/0.214079/-0.3564/-0.0862576/0.408333/-0.575/0.291972/-0.822091/-1.01302/-0.205763/0.388309/-0.499864/0.207639/-0.226388/0.0246018/0.220601/0.063454/-0.32942/0.364774/-0.116179/0.897642/-0.0164951/-0.440601/0.255861/0.205686/0.0766275/1.43852/-0.25447/0.082817/-0.477856/0.224054/0.262858/0.188926/0.0686188/0.735817/0.877918/-0.851862/-1.08654/0.0537149/-0.178282/-0.686721/1.06178/-0.959935/-0.538295/-0.416397/0.0438591/0.376142/-0.0287124/0.055769/-0.519497/0.0376884/-1.20319/-0.130424/-1.27616/0.679085/0.221948/-0.333635/0.0150658/-0.995123/-1.05062/0.55257/0.366682/-0.077159/-0.811253/-0.82991/-0.118549/0.796058/-0.103337/0.0111566/-0.551789/-0.000870701/-0.389167/1.09281/-0.764536/0.733887/0.0745562/0.495412/1.3017/-0.378204/-0.603779/-0.735871/-0.970454/-1.41229/-0.559812/0.155795/0.0886704/0.0954523/-0.323785/0.290672/0.632003/0.0773154/-0.559698/-0.864223/-1.09564/-0.264107/-0.0714238/0.039388/0.0136499/-0.709737/-0.22372/-0.509417/-0.687091/0.912081/-0.416922/-0.167614/0.142212/1.10014/0.100762/0.334292/-0.213495/0.638994/-0.668458/-0.751046/-0.847/-0.477558/0.427122/0.287551/0.240128/-0.311662/-0.10435/0.133641/-0.671211/-0.343668/-0.343009/0.301495/-0.286293/-0.130573/0.0196777/-0.382626/-0.501578/0.589297/1.50118/-0.817647/-1.04696/0.119392/-0.14051/-0.7428/0.472209/-0.132606/-0.382877/1.11686/-0.917821/-0.963253/-0.402768/0.573174/0.596951/-0.25656/0.00293223/0.252917/0.013252/0.057642/-0.944245/-0.417249/-0.243182/0.21984/0.568133/-0.381516/-0.215497/-0.154634/-0.320277/0.317847/0.491962/0.256952/0.35507/0.302122/-0.620011/-0.469086/-0.261495/-0.743979/0.244793/-0.854247/0.0773993/0.100243/-0.362381/-0.461753/-0.672583/-0.88266/-0.0866371/0.0238847/-0.144594/0.353099/-0.892765/0.587831/-0.370763/0.481014/0.621496/-0.996112/0.974723/-0.32058/0.906812/0.685269/0.0925078/-0.171574/-0.412323/0.464456/-0.480908/-0.703986/-0.573345/-0.449205/0.395866/0.0420368/-0.943468/0.425632/-0.394335/-0.95857/-0.071771/-0.86384/0.459912/0.823212/-0.449642/-0.191811/1.45884/0.44817/-0.187431/-0.856334/-0.389064/1.19316/0.153799/0.817048/0.522368/0.79105/0.00345503/0.119976/0.664481/-0.942732/0.0957662/-0.58037/-0.960568/-0.724413/-0.144121/-0.958954/0.865387/-0.300695/-0.725305/-0.123691/-0.966269/0.724201/0.876551/0.342891/0.364874/0.863744/0.487475/-0.0212919/-0.84951/-0.0290726/-0.644734/0.588863/0.515296/-0.488087/0.340573/-0.392152/0.601471/0.797917/-0.949137/0.787609/0.650933/0.563395/0.00981051/0.948104/0.788807/-0.528719/-0.185826/0.821566/0.0663602/-0.684458/0.901556/-0.999913/-0.656542/-0.51039/-0.124248/-0.235391/-0.218978/-0.35729/-0.968325/-0.629874/-0.284572/-0.80956/-0.280522/-0.726597/0.0891865/0.960134/0.309212/0.922997/0.807897/0.319299/0.460124/-0.690161/0.954419/
-0.621711/0.905764/-0.825978/-0.220476/-0.69106/0.970406/-0.0534467/0.849516/0.183378/-0.745843/0.157312/-0.049049/-0.366587/0.775411/0.339074/0.950853/-0.884409/-0.8684/0.73127/-0.515629/-0.148261/0.378277/0.635476/0.537068/0.499901/-0.160603/0.746343/-0.215066/-0.614317/-0.818735/0.124837/-0.986991/0.127267/-0.0627958/0.718251/-0.79388/0.394837/0.295149/0.390815/-0.0816865/-0.591783/0.638089/-0.882944/-0.282087/0.391199/-0.650373/0.82242/-0.841928/-0.0532547/0.872507/0.416736/0.303424/-0.835237/0.0297385/0.519068/0.170958/0.438841/-0.407302/0.332277/-0.601907/-0.62318/-0.596005/0.119241/-0.219214/-0.195262/-0.0422537/0.61421/-0.145499/-0.599403/0.904884/0.0541564/0.547705/-0.0277827/0.297062/0.572292/-0.913825/-1.10061/0.0297448/-0.921159/-0.190458/0.497102/-0.475083/-0.139837/-0.243336/0.930699/0.250154/-0.0377148/-0.880201/0.317459/-0.269491/-0.544616/-0.951019/-1.55129/-0.677684/0.324727/-0.0417157/-0.74136/0.288088/0.624721/0.74728/-0.220136/-0.341214/-0.167465/-0.304497/0.258325/1.03506/-0.0538647/-0.494001/-0.583045/-0.753426/0.6802/0.000648558/0.719464/0.015958/0.193333/-0.496031/-0.253539/-0.388645/-1.07004/-0.211002/-0.750317/-0.556196/0.205242/0.249808/0.514281/-0.879978/-0.709885/0.581205/-0.768831/0.0570565/-0.195489/-0.334378/-0.473252/0.375766/-0.258475/-0.539397/-0.186821/0.177686/0.313916/0.662628/-0.386003/0.44265/-0.219765/-0.215667/1.11802/0.2821/-0.257796/-0.835537/-0.286794/0.981047/-1.14097/1.0479/0.293122/0.0192064/0.0409211/-0.640666/-0.0458358/-0.210096/0.707046/-0.741472/0.637224/-0.17404/-0.526913/-0.300697/-1.34382/-0.270483/0.315421/0.634237/-0.372533/0.828445/-0.295738/-0.0185579/-0.739729/-1.29156/0.377876/0.558844/-0.477042/-0.107095/0.681005/-0.0210145/1.24471/0.864819/-0.757834/-0.718965/-0.973873/-0.147372/0.136259/-1.04951/0.0726139/-1.16256/0.105619/0.46017/0.540555/-0.252824/-0.425419/0.351799/0.685789/0.0513614/0.5085/0.457642/0.0519241/-0.705557/-0.174254/-0.325638/-0.30401/-0.312265/-1.22621/0.669287/0.279153/0.705157/0.0245352/0.0952377/0.261555/-0.532964/0.0104827/0.447491/-0.999342/-0.542286/0.753715/-0.971706/0.441326/0.680997/0.707794/0.172922/0.296108/0.677094/0.67661/0.591625/0.586393/-0.631463/-0.290703/0.175169/-0.633407/-0.303003/-0.307893/0.829321/-0.00793999/1.72674/0.515147/-0.653034/-0.652499/-0.766932/0.412477/1.17544/-0.379498/0.887153/0.906527/-0.250063/-0.0816228/-0.584096/-0.683687/-0.477597/-0.0232419/-0.617489/0.512642/-0.998081/0.222893/0.119504/0.0795031/0.420582/-0.310992/0.0458574/0.231623/0.374942/0.472023/-0.762156/-0.0699693/-0.0185416/-0.308922/-0.827951/0.184817/-0.244824/-0.96724/-0.313714/-0.0632202/0.289267/-0.455191/0.790235/0.187774/0.241134/-0.326915/-0.476987/-0.869029/0.228954/-0.0318483/-0.0185811/-0.377045/-1.20893/0.375286/-0.0351591/1.61522/1.38658/0.992954/0.122212/-0.902524/0.765724/-0.795344/-0.805471/0.415325/0.0990682/-0.209724/-0.0890472/0.293452/0.600408/0.0269071/0.629398/-0.0633169/0.722261/-0.963203/-0.572331/0.211261/0.0325586/0.747514/-0.477056/1.04985/-0.48385/-0.221098/-0.394362/-0.916491/0.437877/0.00459174/-0.396437/-0.50192/-0.585191/0.155402/-1.21271/-1.05294/0.204777/0.236183/-0.226953/-0.50748/0.0802666/0.336126/-0.600012/0.181816/0.862938/-0.59991/-0.640009/-0.878588/-0.0312758/0.359395/-0.785952/0.835698/-0.281101/0.618683/-0.348898/0.560084/-0.435439/0.664084/-0.654652/-0.0133225/-0.173528/-1.03905/-0.365809/-1.24852/-1.36368/-0.470024/-0.322709/0.885332/0.114657/0.620714/-1.0273/-0.991997/-0.54405/0.143363/-0.44707/-0.103589/0.924621/-0.0248953/0.942227/-0.0728055/-0.398809/-0.485703/0.275386/-1.75242/0.00515333/-0.371112/-0.914399/-0.663795/-0.911629/-1.03465/-0.453053/-1.27132/0.703201/0.19025/-0.935759/-0.208538/0.124364/0.215472/-0.199434/0.071831/-0.647764/-0.975573/-0.341386/0.768966/0.908126/-0.107224/-0.479307/-0.134279/-0.516/0.642265/-1.07694/-0.662756/0.462503/1.58202/0.262474/-0.385223/-0.53315/-0.707659/-1.47251/1.09707/-0.894591/1.12174/0.426832/-0.34583/-0.298012/-0.297578/0.785307/-0.583697/-0.440591/0.989039/0.891936/0.989288/0.306971/-0.0484702/0.328851/0.693655/0.383288/0.0530437/0.29082/-0.58612/0.284697/-0.31659/-0.570149/-1.05219/-0.238637/-0.870871/0.815211/0.155003/1.25552/0.544048/0.52679/-0.426857/0.0718212/1.13477/0.57176/-0.731626/0.160295/0.0829784/0.590369/-0.057988/0.733139/0.293944/0.973343/1.16153/0.0143043/0.199417/-0.253974/-0.639739/0.0206657/-0.323952/-0.809763/-0.113767/0.0818256/-0.165092/0.632651/1.70578/0.367359/-1.10833/-0.155804/0.772031/0.359646/-0.683396/-0.0300641/0.0694543/0.695036/-0.488164/-0.588522/0.147585/0.293727/0.368753/-0.0686267/-0.0688246/0.566602/-0.13541/0.617254/0.241215/-0.81389/1.15934/0.685652/0.0432359/0.770403/0.729457/0.292177/0.0161261/0.855916/-0.592954/-0.726781/0.317404/-0.267462/-0.234241/0.2869/0.597283/-0.476541/0.774205/0.063206/0.785878/0.817132/0.0438234/-0.480983/0.96147/1.34125/1.452/0.875471/-0.0182053/-0.336033/1.05615/0.567323/1.49621/-0.249051/-0.362535/0.214883/-0.323514/0.605241/1.129/0.680752/-0.912832/-1.16164/0.720658/0.506596/0.892378/0.0928799/-0.968345/-0.979691/1.36295/-0.0899853/0.527028/0.102348/0.43784/-0.390394/0.637199/-0.416991/-0.207022/0.777558/1.15651/0.32292/1.15124/0.513121/-0.118701/0.582885/0.582843/-0.671054/-0.718602/0.602218/0.1821/-0.255012/-0.545965/-0.602109/-0.454241/-0.120635/0.494808/0.318574/1.36053/0.962958/-0.185338/-1.17461/0.388025/-0.954466/0.209166/-0.477044/0.396244/0.140785/1.09929/0.596425/0.94841/0.0176144/0.471865/0.131449/0.120247/0.484994/1.13306/-0.185957/-0.132608/-0.896532/0.658801/1.0205/-0.775646/-0.31331/0.206675/-0.357976/-0.458223/0.084211/-0.175712/0.623001/0.290011/1.167/0.133219/0.446239/0.420201/-0.756128/0.198147/0.366726/0.210008/0.0256755/0.906032/-1.1917/0.136011/-0.29913/0.917783/0.987133/0.108019/-0.599291/0.653928/-0.515706/-0.677551/0.615371/0.544088/0.515425/0.522906/-0.37686/0.524046/1.22327/0.500307/0.427604/-0.0313577/-1.02517/0.647579/0.477625/-0.595917/0.579023/1.53942/0.292568/-0.540748/0.0944313/0.511123/-0.452159/-0.745778/0.0787332/-0.264834/0.00817468/0.906279/-0.450624/-0.806269/0.381839/-0.43348/-0.200249/-0.225297/-0.603453/-0.361701/-0.383067/0.0149411/1.03214/0.472746/0.592787/-0.767784/0.580359/0.0512338/-0.596356/1.19876/0.876051/0.301468/-0.0728772/0.740739/-0.0820399/-0.897631/-0.898837/-0.346732/-1.33047/-0.250315/-0.600452/0.587454/0.907903/-0.888996/0.461323/-0.157126/0.656964/0.973101/0.414386/-0.132772/-0.609814/1.4247/1.57498/0.399044/0.363688/-0.626653/-0.593504/0.332923/1.15441/1.23635/0.81791/-0.268157/-0.598518/0.0250339/1.10761/0.344564/-0.228941/0.86868/0.719439/-0.615491/0.48505/0.223324/0.461807/0.115333/-0.333428/0.203799/-0.852838/0.61736/0.973913/1.27158/-0.720194/0.144358/0.32664/-0.850319/-0.605799/0.867263/0.373881/-0.495607/-0.120521/1.02935/-0.0133549/1.0623/0.701635/-0.0330961/0.165724/1.01814/0.453972/-0.231658/0.0578816/0.816434/0.933278/-0.0545931/0.257117/-0.982307/0.237647/-0.47162/-0.465332/-0.520282/0.0245522/0.580882/-0.45609/0.330406/-0.978248/-0.973612/0.925893/-0.337764/-0.676841/-0.275569/0.902574/0.755993/-0.93559/0.556959/-0.112947/0.0241047/0.434269/-0.149133/-0.0358536/-0.591325/-0.392696/-0.0492225/0.716604/-0.0428517/-0.207921/0.633454/0.0897992/-0.805037/-0.327043/-0.606838/0.874379/-0.316818/-0.753778/-0.750638/0.0250586/-0.840475/0.129578/-0.18012/0.721732/0.144163/0.951428/-0.383691/-0.702878/0.726792/-0.811033/0.960227/0.536043/-1.35044/
0.0771658/0.925486/0.647823/-0.0345318/-0.377575/0.0763129/0.763685/-0.441977/0.356709/-0.475828/-0.0485356/0.262079/0.76529/0.274301/0.223914/-0.620581/0.221416/-0.017683/-0.0188727/0.290865/0.512664/0.268958/-0.679731/-0.234426/0.00611891/0.840519/0.604488/-0.364579/0.523858/0.486304/-0.581225/-0.554334/-0.806092/0.695015/0.732574/-0.337228/-0.349755/0.8798/-0.509681/-0.257066/-0.253841/0.742693/0.176431/-0.0258888/-0.672991/-0.165902/-0.693545/-0.3623/0.539907/-0.928472/0.609744/0.5074/-0.463644/0.292604/0.0189309/-0.51427/0.650759/-0.687904/0.0163959/-0.352749/0.715283/0.556838/-0.357351/-0.2227/0.471792/0.692294/-0.0395851/0.760886/-0.16343/0.838398/-0.541162/0.844485/0.686121/0.190578/0.699801/0.21734/-0.430189/0.750931/0.0554583/-0.342393/0.573717/-0.659352/-0.913048/0.94068/0.950136/0.938327/0.484243/0.078927/0.579421/0.926484/-0.626478/-0.578809/0.153491/0.285939/-0.311466/-0.554619/-1.0808/0.634407/0.263894/0.350425/-0.294903/0.671823/-0.384675/0.996562/-0.432966/-0.764231/-0.00502525/-0.965715/0.495876/0.166121/-0.440295/0.800358/0.541286/-0.61237/-0.0487198/0.0753531/0.564906/-0.353183/0.498498/0.515667/-0.512051/-0.922892/-0.234139/-0.502826/-0.208229/-0.395054/-0.463286/1.05568/-0.478979/0.956841/-0.146173/-0.64916/1.03563/-0.374158/0.068141/-0.707885/-1.04664/-0.894884/-0.822646/-0.475748/-0.403307/-0.37239/0.0645257/-0.785811/-0.529954/-0.076489/-0.600133/0.263933/-0.623278/-0.508306/0.203317/-0.66582/-0.875526/0.301035/0.991169/0.0910765/0.490771/0.914294/0.814525/-0.92176/-0.722751/0.0217656/0.0396522/-0.172507/-1.09587/0.814001/-0.571839/-0.696859/-0.102062/0.653599/-0.645456/-0.487607/1.06248/0.376999/0.524191/0.382179/0.556606/-0.130968/-0.43864/0.614271/-0.306961/0.812337/-0.16357/-0.285686/-0.211694/0.778977/0.115956/-0.344892/-1.01641/0.0662742/-0.113678/-0.543121/-0.200646/0.583105/0.522637/0.28131/-0.0203861/-0.63118/0.153/0.414388/0.0136843/0.253638/0.199127/-0.0360904/0.11024/-0.231541/-0.828819/0.0132618/1.04636/0.352535/-0.452367/0.502041/1.05584/-0.347552/0.811826/0.514614/0.547088/-0.771525/-0.283379/0.00506238/-0.73913/-0.777388/0.370857/0.198504/0.25993/0.624404/-0.621867/0.23458/-0.483512/0.673544/-0.230235/-0.543935/0.93206/0.0643572/-1.24085/-0.371949/0.844779/-0.194632/1.4195/0.399672/0.172381/0.229617/-0.769455/-1.00194/-0.291395/0.244478/-0.819927/0.385847/-0.526144/0.044536/-0.148419/0.845843/0.0835403/0.0469546/0.681806/-0.650577/0.549552/0.466792/-0.342109/0.0383882/-0.39353/0.343119/-0.451269/-0.46843/0.433972/-0.612593/0.125602/1.29061/0.326943/-0.733799/0.830059/0.189016/-0.829101/-1.72773/-0.762885/-0.276802/-0.289874/0.957232/0.282055/0.175037/-0.181771/0.988993/0.712709/-0.264565/0.0792497/0.772365/-0.352526/0.224364/0.475566/-0.992187/0.317186/-0.045689/-0.612792/0.0508227/0.325604/0.857554/-0.299019/0.262178/0.260578/0.568274/0.142102/-1.4195/0.274306/-0.130659/0.331744/0.0166302/-0.905065/-0.0937085/-0.95835/-0.954281/-0.771508/-0.189465/-0.875654/-0.406205/-0.204113/0.307667/-0.145986/-1.15085/0.472571/0.596723/0.144902/0.989375/0.942491/0.6623/0.769202/1.22194/0.0726144/0.0339721/0.0277342/-0.566827/0.0238026/-1.15189/0.0796003/1.55953/0.863724/0.79182/0.121649/0.40727/-0.553812/1.14536/0.344072/-0.283746/0.412816/-0.0433099/-0.321803/-0.0609143/-0.141695/1.37889/1.07429/-0.190743/0.290651/-1.08856/-0.140737/0.506271/0.257624/0.0432713/-0.908572/-0.631333/-0.80204/0.477457/-0.218111/0.476174/-0.0786859/-0.256527/0.543984/0.626389/-1.09629/-0.695665/0.096019/0.278285/-0.0878661/-0.141284/-0.529437/0.0496884/-0.190306/0.351143/0.17988/0.166939/0.246043/-0.291586/0.20758/0.260066/-0.0882138/-0.332876/0.780061/-0.625231/-1.20849/0.652793/-0.741113/0.749862/0.762688/0.0912805/0.151332/-0.522473/0.827291/0.692276/0.156942/0.232743/-0.647119/-0.0239858/-0.705707/-1.07235/-0.931128/-0.196634/0.320216/-0.525964/-0.533656/0.11129/1.30093/0.329674/0.230928/0.212379/0.092659/-0.177807/-0.297002/-0.441274/-0.178203/0.00630434/0.374369/0.274157/-0.240243/0.381131/-0.462569/0.657079/-0.200161/0.710011/0.617614/0.432032/0.423574/-1.15386/-0.759333/0.461117/0.789351/-0.503273/-0.489236/-0.312324/-0.461367/0.22435/-0.15284/0.147814/-0.959113/-0.520768/0.200272/-1.17225/-0.955611/-0.235455/-0.54685/0.720259/-0.61274/-0.206451/-0.281688/0.534892/0.27996/0.890237/0.591184/0.415647/0.666523/-1.19287/-1.47934/-0.188047/0.0387994/0.603379/0.229608/-1.07281/0.417385/0.462904/-0.839764/0.0281855/0.829136/0.941937/-1.26092/-0.376442/0.24156/-0.832659/0.380318/-0.946553/0.837314/0.861831/-0.77333/1.52156/0.598479/-0.628718/0.502035/-0.320939/0.0544159/-1.52311/-1.25737/-1.05551/-0.601938/-1.5811/-0.930715/0.0241066/0.174644/0.355211/1.02205/-0.0765956/-0.967896/-0.240168/0.162171/0.131273/-0.564518/-1.0034/0.388375/0.415706/0.762963/-0.76686/0.27265/-0.587735/-0.686477/0.478208/0.375161/-0.430906/0.159805/-0.870199/0.100987/-0.738486/-0.387768/-0.355107/-1.1841/-1.23539/0.0570381/-0.655617/-0.112525/-0.307461/-0.789448/0.926701/-1.08939/-0.0367645/1.16067/0.536299/0.789602/0.277119/-0.464534/0.615278/-0.75681/-0.793831/-0.0742265/0.848577/-0.247912/-0.934428/-0.591172/-1.09196/-0.929335/-0.084015/-0.0948145/0.0646336/-0.134183/-1.17169/-1.08473/0.414246/-1.20142/-0.608501/0.323491/0.00023815/-0.0460521/-0.447344/0.1763/-0.413102/0.214876/-0.679521/-0.703168/-0.173674/-0.204715/0.155829/0.576901/0.84102/-0.552287/0.0660816/-0.197313/-1.08062/0.0580332/-0.335467/-0.579552/0.494663/0.939923/-0.303473/-0.0338637/-1.24473/-0.255853/-0.843732/-0.798561/-1.15801/-0.254416/-0.287547/0.0198803/0.771002/-0.344303/0.847825/-0.606728/0.733944/-0.765605/1.04915/0.652428/0.259663/-0.620973/0.0996985/-0.707428/-2.52284/-0.235838/0.412153/0.0447666/-0.274089/-0.775186/-0.182697/-0.323444/-0.529484/0.274573/-0.805908/-0.644872/-0.685476/-1.25334/-0.955192/-0.440344/-1.07543/-1.01122/0.131286/0.520929/-0.777646/0.552955/0.738491/0.899524/-0.964702/-0.15016/1.26218/-1.02458/-0.192779/-1.93107/-1.08412/0.776337/0.816753/-0.00757298/0.544434/-1.13367/-0.577423/0.475826/-0.179322/-0.149411/-1.09692/-0.744302/-0.54069/-0.380975/-0.0432174/-0.782976/-0.463092/0.810425/0.928122/0.755927/-0.180429/-0.0711115/-0.41861/0.463446/0.41943/-0.186175/-1.29006/-1.23916/-1.5949/-0.905717/-0.329429/-0.96275/-0.399222/-1.00727/-0.22314/-0.58922/0.921816/-0.825788/-0.187425/-0.485489/-1.10137/0.841882/-0.932272/-0.90031/0.51467/0.0568382/0.00135099/-0.280434/-0.315637/0.301567/-1.34489/0.287887/0.319955/-0.404872/-1.28574/-1.75802/0.196337/-0.642776/0.628182/0.309725/-0.52878/-0.866442/0.224994/-0.0872566/-0.275141/-0.776279/-0.397536/0.102395/0.201541/0.28214/0.270856/-0.793746/0.612085/-0.685217/-0.367319/0.227486/-0.420156/0.719817/-0.517382/-0.142/-0.570777/0.82224/0.551238/0.54535/0.767156/-0.393616/0.651525/0.580556/-0.799561/0.405305/-1.1428/-0.342179/0.332029/0.225101/0.175692/-0.572756/0.770033/-0.0847622/0.118939/-0.132899/0.199768/-0.494591/-0.612695/0.959057/-0.879225/-0.897748/0.0330693/-0.715184/0.951972/0.136343/-0.216091/-1.00189/0.73867/0.784408/-0.529907/-0.41704/0.84162/-0.934209/0.964851/0.0185221/-0.926174/-0.61172/0.931129/0.653663/-0.509036/-0.290831/-0.0175993/-0.173149/0.568737/0.769647/-0.548846/-0.45708/-0.14218/0.3865/-0.100104/0.693832/-0.759942/-0.587764/-0.514225/-0.584354/0.763183/0.822776/0.403353/-0.84834/-0.0453704/-0.539851/0.731109/-0.247614/0.345967/0.666415/0.433115/-0.303944/-0.382921/0.240105/-0.551462/-0.419768/0.954298/1.61786/
0.528998/0.863944/0.312843/-0.0522527/-0.699256/0.328167/-0.754505/-0.966982/-0.244061/-0.599704/-0.302375/-0.0162277/-0.742976/0.528706/-0.306007/0.335385/0.743807/-0.228506/0.22504/0.0151436/-0.812259/0.919086/-0.775453/0.912651/0.930187/-0.355326/0.0438176/0.442008/0.834397/-0.281948/-0.90445/-0.41378/-0.617051/-0.820081/-0.564263/-0.743995/-0.190502/0.768737/-0.900616/0.756286/-0.821362/-0.197751/-0.646546/0.684534/0.284818/0.260486/0.316232/0.505021/-0.861339/0.677483/-0.980075/0.595642/-0.0653233/0.998546/-0.467858/0.54535/0.295279/0.751102/-0.762201/-0.854355/-0.720386/-0.512534/-0.479487/-0.213875/-0.678887/-1.20811/0.271766/1.14951/-0.249046/0.928335/0.572633/0.947616/0.843522/-0.24516/0.536445/-1.77441/0.0699339/0.227684/0.49228/0.218328/-0.601266/-0.0165256/-0.813178/0.573941/-0.544017/0.719053/-0.26366/-0.253329/0.655949/0.381206/0.440422/0.65277/-0.856586/0.444781/0.777029/2.08434/1.21463/1.11296/2.68843/2.07804/0.111373/0.706694/-1.25096/-0.0660927/-0.519374/-0.747048/-0.0283308/0.644639/-1.01354/-0.422008/0.777559/-0.323424/0.021871/-0.407101/-0.231166/0.693682/-0.351625/0.193233/-0.840293/-0.921093/-0.659443/0.404939/-0.0494374/0.33479/1.34626/2.39796/1.44459/1.49854/0.45101/0.405432/-0.89539/-0.895715/-0.659872/-1.31917/-0.15362/0.106177/0.36777/0.573653/-0.558706/-0.253828/-0.0159271/0.323954/0.268004/0.0488788/-0.928536/0.62473/0.0712895/0.460341/-0.404626/0.121854/-0.355051/1.1046/1.61212/1.25514/1.60765/-0.428938/0.856561/0.507659/-0.788373/0.331763/-0.513629/-1.13113/-0.557452/-0.139085/-0.534058/0.128956/0.203923/-0.95426/-0.246302/0.405057/0.0355067/0.622008/0.0249983/-0.765867/0.475969/-0.182827/0.575628/-0.693496/1.25874/0.0907864/1.52547/1.2169/1.37013/-0.107138/1.78955/0.056817/-0.431201/-0.594689/0.311056/-0.949108/-0.92176/-0.154255/-0.168816/0.393183/-0.630896/-0.233012/-0.238017/-0.251734/0.415541/0.586383/-0.121208/1.47617/0.693907/-0.511462/-0.616776/-0.242602/0.358468/1.31823/1.21418/0.409917/1.36013/0.727947/0.578755/-0.178916/-0.92874/0.0425912/0.379202/-0.948166/0.591862/-0.799652/-0.805408/0.319184/-0.484856/-0.747298/0.169428/-0.332574/-0.77561/-0.146246/0.201644/-0.463672/0.768393/-0.695508/-0.496891/0.326221/1.25274/-0.413507/-0.576653/0.401869/-0.193272/0.517714/0.290336/0.477941/-0.163401/-0.359564/-0.545579/-0.910323/0.168093/-0.00329899/-0.187067/0.321027/-0.369449/-0.493413/-0.884441/-0.697141/0.915923/-0.898446/-0.0864782/0.459198/-0.302212/0.170531/0.626795/0.717793/0.950117/1.35477/1.32479/0.326694/-0.497599/0.97602/1.246/-0.785034/0.645624/-0.796706/-0.475217/-1.23105/0.197494/-0.910305/0.280421/-0.64352/0.952453/0.76443/-0.682076/0.481899/-0.120837/0.594565/-1.22038/-0.290719/1.75896/0.0955589/1.11364/0.233113/0.190701/1.17806/0.766635/0.357097/-1.01065/0.693664/0.202122/0.149159/0.50421/0.0714338/0.0679307/-0.609818/-0.607343/-1.16718/0.0144875/-0.0404846/0.83412/0.901766/-0.0204614/0.155264/-0.598768/0.405495/-0.634414/-0.44793/0.08376/-0.556882/0.853689/0.793198/0.721907/0.720801/-0.943708/0.168107/-0.188439/0.0447115/0.931993/-0.295822/0.407784/0.39652/-0.430813/-0.578941/0.428064/-0.442637/-0.089412/0.895004/0.897917/0.534683/0.420219/0.700288/0.318751/0.643975/0.903716/0.500773/-0.233927/-0.454932/0.864298/1.05478/-0.296488/0.41988/-0.907622/0.202364/-0.231963/-0.369882/0.936008/-0.0550078/0.198489/-0.137275/-0.840295/-0.46695/0.752388/-0.719098/-0.672634/-0.41302/0.364722/0.714316/-0.486744/-0.450682/-0.0863217/-0.584944/0.0270363/1.05518/-0.402181/1.8844/0.431856/0.646328/-0.103623/-0.266762/-0.150542/0.107476/-0.897016/-1.27667/0.176008/0.630919/0.602957/0.0383217/-0.407862/-0.680235/0.423127/-0.639734/0.182659/-0.718309/0.186495/0.620953/0.356679/0.835177/1.68781/-0.388614/0.261267/-0.0181158/-0.65146/-0.180971/-0.214391/0.989514/-0.577558/0.338893/-0.187206/0.425159/-0.796595/0.591005/-0.859551/0.448551/0.355462/-0.245602/-1.13732/-0.730738/-1.31784/-0.636998/0.135716/-1.20397/-0.328468/-0.267366/0.377554/-0.26686/0.0336238/0.775849/0.386046/-0.929796/-0.121401/0.693567/1.38368/0.653354/0.896948/-0.895877/-1.19243/0.518836/-0.679287/-0.470997/0.867359/0.0657811/0.372526/-0.741794/0.165764/-0.310552/-0.388203/-0.864168/-0.400831/-0.273918/-0.271777/0.0953537/0.609257/-0.214297/-0.146563/-0.102227/0.318828/0.0728019/0.580674/-0.266814/-0.677259/-0.993644/1.62727/1.85291/-0.103769/0.389168/-0.657685/-0.889619/0.482193/-0.273418/-1.21763/-0.279144/0.467426/0.0365823/-0.230041/-1.01402/0.913146/0.550251/-0.526133/-0.325527/-0.0899223/0.776405/0.237178/0.224956/0.329392/0.893077/-0.173129/1.06225/0.297364/-0.892043/0.502829/0.721979/-0.398728/-0.535321/0.41063/-0.101252/1.25306/0.751544/0.539345/0.303523/-0.0458548/-0.221019/0.487091/-0.101938/-0.61329/-0.075873/-0.781071/-0.478088/0.776963/0.503111/1.22607/-0.106533/-0.555281/0.271109/0.455798/-0.0104152/-0.624346/-0.0175722/0.552133/0.189868/-0.340419/0.420464/0.722052/-0.732881/0.546266/0.915415/-0.538161/-0.610201/0.342282/-0.987102/0.609033/0.494132/0.549804/-1.03926/0.630848/0.779864/-0.831965/-0.739422/0.945406/0.0455649/0.60058/0.177525/-0.374084/-0.879865/1.07492/0.054456/0.116628/0.435074/-0.221165/0.183239/-0.239604/1.04554/-0.0148139/0.256024/0.847706/-0.934613/-0.222316/-1.62196/-0.304601/0.588071/0.750885/-0.194489/-0.722313/0.586385/-0.622213/0.442644/0.938503/0.548143/0.640987/-0.320247/-0.0158481/0.430463/0.0784169/-0.170548/0.891904/0.331471/0.635492/0.397608/0.149213/-0.238106/0.274712/1.00376/0.281383/-1.67135/-0.518097/-0.126877/-0.960199/-0.0690461/-0.0706221/0.285083/0.751236/-0.710044/0.296766/-0.120614/-0.338391/0.419627/-0.700191/1.09624/-0.0538479/0.39505/0.425194/-0.640101/0.0677427/0.414926/0.0901154/-0.054995/0.57216/0.820685/-0.315874/-0.430326/-0.356142/-0.230187/-0.954192/-0.298682/0.680164/-0.449991/-0.491914/0.915541/-0.222511/-0.49779/-0.353825/-0.545932/-0.091502/0.592277/0.780381/-0.422092/-0.112628/-1.48964/-0.173864/-0.665196/1.3282/-0.421526/0.755415/-1.34744/0.255876/0.545906/0.609974/-0.292308/0.971972/-0.948025/-0.349155/0.371183/-0.160244/-0.412824/0.316026/-0.22731/0.0821038/-0.564985/0.309665/0.705141/-0.456192/0.617515/-0.662415/0.813888/0.605039/0.46299/-0.980919/0.800712/0.532376/1.13813/-0.148781/0.28145/-0.778222/-0.0908258/-0.187376/-1.00775/-1.3241/0.049023/-0.839691/0.194428/-0.863664/0.383447/0.803071/-0.692347/0.832406/0.54447/0.932174/-0.833091/0.459058/-0.0958301/0.739189/-0.613213/0.22544/0.946144/0.290926/0.0879226/0.0859456/-0.120868/0.464407/-0.0444376/0.46391/-0.354965/-0.380505/-1.03761/-0.750469/-0.185457/-0.94713/-0.60785/0.459857/-0.608484/1.12493/-0.169218/0.132827/0.22499/-0.585726/0.675309/0.309692/0.287782/-0.240444/0.0772789/0.0718939/-0.703316/-0.28461/-1.1406/0.415947/-0.481581/-0.134868/0.495539/0.406418/0.109495/-0.971705/0.502945/0.278886/-1.07254/0.123622/0.214131/-0.676693/0.117015/1.1173/-0.331142/-0.523292/0.310479/0.222967/0.0154845/-0.985371/-0.471772/0.0876085/-0.349093/-0.207933/-0.153501/-1.02974/0.905418/0.938488/0.755898/-0.956144/0.73546/0.929099/0.941663/-0.583266/0.981825/0.0704288/-0.449896/0.943153/-0.0477998/0.860996/0.304008/-0.346136/0.633506/-0.73201/0.146091/-0.650883/0.604141/-0.202596/0.963095/0.741062/-0.978073/-0.0169943/0.352344/0.15537/-0.966508/-0.0943078/0.969629/0.561254/0.999094/-0.221161/0.943503/-0.544503/0.539028/-0.558284/0.912715/-0.00411244/0.88115/-0.69067/-0.0868279/0.683581/0.952285/-0.939179/-0.776592/-1.73726/
0.400791/0.0934811/-0.863642/0.771135/0.472463/0.89325/0.966468/0.238457/0.00223301/0.245715/0.405339/0.530421/0.78256/0.154732/0.26735/0.0751208/-0.426334/-0.276146/-0.642522/-0.269689/0.695947/0.0641735/-0.472064/-0.0054802/-0.105793/-0.0588933/0.180555/0.583589/0.384197/-0.809186/-0.573994/0.433048/-0.988877/-0.572314/-0.222186/-0.889879/-0.456379/0.0193249/0.772444/0.314708/0.487921/0.793886/0.875886/0.246991/0.126153/-1.00199/0.651042/-0.495406/-0.131616/0.177538/-0.420506/0.351411/0.63202/0.00244299/-0.33153/-0.197546/-0.161433/0.799467/-0.277955/0.667594/0.639673/0.55264/1.11363/-0.232606/0.371683/-0.138532/-0.597379/0.357998/0.653429/-0.37567/-0.0382888/0.540773/-0.657483/-0.406938/0.116812/0.579288/-0.790388/1.1483/0.00517193/0.53867/0.740505/-0.898837/-0.0483174/-0.312661/0.289531/0.137382/-0.759102/0.472285/-0.734032/-0.305194/0.569585/-0.740058/0.250307/-0.80098/0.919473/-0.195498/-0.473118/-0.647448/0.929577/-0.939563/-0.663619/0.0959874/-0.46043/-1.4435/0.849297/-0.00720032/0.563907/-0.945758/0.351855/0.48259/0.0692015/-0.189929/-0.968138/0.503695/0.412899/-0.177142/0.730644/0.774089/0.556212/0.738047/-1.16512/0.808825/0.42559/-0.466584/0.0639395/0.927655/0.500744/0.718927/-0.982408/-0.18244/0.316148/-0.220759/0.942937/-0.61315/0.136314/-0.284448/-0.577683/-0.911171/-0.0291545/0.356255/-0.894502/0.0807382/0.506684/0.800747/-0.00646647/0.0240767/-0.543084/-1.1123/0.0231105/-0.677847/-0.42062/0.663473/0.881576/0.613038/-0.0895772/0.587401/0.434441/0.374108/0.0673907/0.283639/-0.757538/0.992072/0.321626/0.140156/-0.258862/0.891157/0.290231/0.266226/0.452505/-0.761867/-0.0403147/0.467763/1.09615/0.251231/0.369045/-0.0902673/-0.353741/-0.411303/-0.757987/0.205684/-0.447075/0.736967/0.0549729/1.83754/0.274474/0.750101/-0.0786907/-1.22816/-0.381434/0.273218/0.55191/-0.66815/-0.420394/0.782081/-0.67814/0.182716/0.902075/-0.829889/0.895093/0.611336/0.00379281/-0.843053/-1.00036/-0.227789/-1.42406/-0.0127461/0.0082072/-0.798902/0.578153/-0.560393/1.37481/0.128506/0.36288/0.0170254/-0.142768/-0.914918/0.705495/-0.435144/0.46918/-0.307769/-0.755748/-0.0101064/-0.307816/0.922857/0.465903/0.45578/0.406728/-0.553928/-0.146842/-0.301227/-0.295632/0.734771/-0.12273/-0.43576/-0.101925/-0.34144/-0.115446/0.145753/-1.71437/0.806441/0.995798/0.466931/0.222086/-0.332235/0.644507/0.0529011/-0.846258/-0.519774/-0.620275/-0.67681/0.463156/-0.690516/-0.774474/-0.574036/0.0253652/0.0415653/0.91607/-0.0248344/-0.780791/-0.716759/-0.224913/0.807675/0.0553487/-0.0336787/0.84714/-0.223413/0.50201/-0.341773/0.809928/0.459775/0.494582/-0.209699/0.447989/0.756881/0.64855/-0.0743024/0.0476774/0.303443/1.04627/0.207626/0.935735/0.946206/1.43555/-0.946834/-0.104897/0.348961/0.151452/-0.766969/-1.52931/-0.58784/-0.994983/-0.630232/0.282391/-0.494058/-1.23492/1.09105/1.14668/-0.144307/0.545317/-0.269202/-0.40178/0.325703/-0.088749/-0.8133/-0.819033/-0.0461226/-0.461845/-0.988979/0.232363/-0.645586/1.05178/0.804053/-0.198187/-0.974669/0.371574/-0.73145/-0.225568/-0.246875/-1.67092/-0.656929/0.230307/0.954071/0.41011/0.866594/1.63151/0.206299/0.489254/1.30526/0.682518/-1.44103/0.415952/-1.07218/-1.41012/0.512595/0.793275/-0.174106/-0.205875/-0.187602/0.93136/-0.609524/0.167654/0.172071/-0.86354/0.772955/-0.720371/-0.19113/-0.247708/-0.085192/0.374088/0.104006/-1.18897/-0.148554/0.648335/1.07723/0.883254/0.56701/-0.0943043/0.506086/-0.727732/-0.374744/-1.4064/0.173212/0.0561225/-0.203539/-0.884629/0.0466193/-0.638741/0.251262/-1.06276/0.265815/-0.62265/-0.567611/0.115662/-0.180176/-0.229793/-0.209075/-0.0962974/0.0634099/0.0507932/0.410296/0.182147/0.528776/0.632757/0.018565/1.33178/-0.522778/-0.0213445/-1.11667/-1.72582/-0.929587/-0.67839/0.431857/0.21468/0.237076/0.0454135/-0.696468/-0.589469/0.927514/-0.860725/0.650511/-0.69593/-0.138662/-0.795947/0.423811/0.116273/1.08641/0.891483/0.775438/0.684914/0.185159/1.93813/1.01607/-0.531959/0.279217/-0.34908/0.040675/-1.04825/-0.37911/-0.330093/0.429557/-0.435673/-0.297727/1.14243/0.0242829/1.13182/-0.384885/0.129768/-0.516263/-1.42221/-1.06071/-0.700459/-0.657795/-0.0579696/1.69805/0.0295359/0.62999/0.464036/0.908092/1.69494/-0.662592/-0.223018/0.119062/-0.587758/-0.697921/0.463753/-0.501921/-0.845027/0.0204613/-0.107496/-0.642625/-0.0453316/-0.281045/0.91685/-0.877354/0.791305/0.475483/-1.10212/-1.18962/0.257326/0.616606/0.319905/0.754303/1.2165/0.901923/0.128235/-0.071331/0.714692/-0.0965152/-0.214723/0.326208/0.0751889/-0.017078/-0.878595/0.469949/1.02342/-0.125629/0.499881/-0.579939/-1.03051/-0.251107/-0.776508/-0.505488/-0.0136467/-0.421974/-0.909588/0.239851/0.224714/0.433048/1.2188/-0.319745/-0.0104755/-0.0340494/0.0693221/0.182382/0.0271328/-1.92372/-1.28465/-0.0981552/1.70688/0.339898/-0.721034/-0.230626/0.717797/0.515448/-0.858858/-0.749802/0.985928/0.603939/-0.392787/-1.27215/0.566849/0.0799355/-0.25408/-1.18412/0.424713/0.654255/1.27361/-0.186792/0.480843/1.0214/0.362657/-1.01547/0.151775/-1.20939/-0.171293/-1.22551/0.549784/1.06462/0.641491/-0.967221/0.558713/-0.278633/-0.992579/-0.170561/0.819594/1.30436/-0.0227967/0.38191/0.704775/-0.591589/0.0893781/-0.0815832/0.871524/-0.516594/1.13881/0.0606196/-0.100003/0.529228/1.105/-1.48145/-1.281/0.105885/-0.449708/-0.79358/0.267324/0.442976/0.772564/0.427768/0.265784/0.929768/0.619162/0.233421/1.07126/-0.171211/-0.906294/-1.00271/1.20206/-0.0412598/0.224439/0.364006/-0.134505/-0.191916/0.140796/0.586601/-0.192454/-0.361381/-1.00912/-0.0404018/-1.02308/-0.555632/0.228656/-0.703075/-0.0463346/0.146976/0.370838/-0.382896/0.141028/-0.812876/0.000378132/0.338409/-0.800664/0.391525/-0.312699/-0.274486/-1.00113/1.25582/0.533443/-0.141824/-0.476887/-0.545704/-0.399255/0.400365/0.421333/-0.0297597/-0.721998/-1.00974/-0.565891/-1.36885/-0.981688/0.301143/-0.493672/0.755982/-0.291857/0.44847/-0.472801/0.526137/0.776712/0.207944/0.14226/0.53204/0.173143/-0.730704/0.997644/0.488473/-0.223059/-0.0536579/1.18813/0.509126/-0.348163/-0.249067/0.481741/-0.397961/-0.0451332/-0.247696/-1.09843/-1.2609/-0.886111/0.395703/0.521273/-0.264473/0.65828/-0.0982346/0.42721/0.018941/0.341576/-0.830811/-0.360609/0.452712/0.312943/-0.904152/-0.230324/-0.00639971/0.571934/0.238228/0.15238/0.668999/-1.15916/0.736742/0.805094/-0.676721/-0.618232/-1.20193/-0.538844/-0.468061/-0.406129/0.364646/1.01499/1.40981/-0.19886/1.07101/-0.171416/-0.902932/0.423773/-0.716872/-0.0192005/0.913526/-0.613193/0.912943/0.798468/0.919042/-0.457317/-0.0888663/0.590493/1.0314/0.207573/0.61793/0.483878/-0.792061/-1.62395/-0.217998/-0.145709/-0.942304/0.267582/-0.748742/-0.501672/0.497395/0.969776/0.137995/-0.666012/0.463993/0.326302/0.335962/0.121154/0.36405/0.87201/-0.165943/-0.512533/-0.949239/0.34381/0.138168/0.819565/1.02503/1.1487/0.837261/0.183555/-0.46346/0.270112/0.33086/-0.577168/0.43985/-0.972333/-0.189546/0.57911/0.423526/-0.103251/0.321975/0.671759/0.915175/-0.660518/0.659979/-0.504896/0.0463225/0.0262459/-0.687942/-0.846129/-0.655318/0.415437/0.981489/0.963992/-0.82546/0.0105358/-0.777136/-0.518169/0.298647/-0.646253/0.467636/0.526773/-0.661204/0.768395/-0.3801/-0.641813/-0.0190738/0.992226/0.591356/-0.36356/0.973806/0.764773/-0.4675/0.725199/0.416773/0.703756/0.0290783/-0.423219/0.961824/0.347589/-0.0698955/-0.734324/0.217085/0.539843/-0.860197/0.663337/0.699849/0.358309/0.101076/0.791124/0.429022/0.565255/0.229452/-0.404857/-0.437564/-0.13283/-0.471416/0.903665/-0.109051/-0.348301/
0.764842/0.704749/0.718182/0.493142/0.237804/0.972002/-0.275453/-0.604997/0.061083/0.304152/-0.562984/-0.0747449/-0.237119/0.791272/0.942554/0.289179/-0.0870072/0.197033/-0.159099/-0.807977/0.329275/0.125979/-0.214455/-0.338043/0.506223/0.0977777/-0.650171/0.576216/0.467304/-0.0194974/0.432209/0.377612/0.0428177/1.03314/0.415037/-0.446492/0.972666/-0.0298742/1.04485/1.02591/-0.756326/-0.123867/-0.766253/0.560045/-0.461553/-0.188911/-0.567051/-0.604344/0.402697/-0.587294/0.724109/0.972066/-0.691118/0.83405/0.193964/0.776959/0.357709/0.0146884/0.707897/-0.740824/-0.234825/0.878984/-0.472545/-0.231842/1.4004/0.764613/1.24293/0.896154/-0.509049/-0.589399/0.516229/0.732664/0.772329/0.280842/-0.199597/0.0146174/0.938462/0.130939/-0.867286/-0.129792/-0.301387/-0.647705/0.308494/0.890164/0.988883/0.154312/0.23217/-0.300009/-0.863056/0.657394/0.805332/-0.157441/-0.492164/1.19119/-0.5561/0.810724/-0.674937/-0.953993/-0.0553723/0.675317/0.253605/0.278121/0.592013/-0.258515/-0.307652/-0.517093/0.0981607/1.00372/0.275374/0.481361/0.752048/0.158485/-0.339997/-0.34014/0.550632/-0.710503/0.257582/-0.612421/0.764307/-0.437735/-0.36546/-0.0235548/-1.21965/0.3594/0.628637/-0.68906/0.0383948/0.816951/-1.30733/-1.47646/-0.671477/-0.365147/0.419312/-0.505772/0.871029/0.0402679/-1.01414/0.825399/0.427024/0.748032/0.171911/-0.694979/0.862905/-0.7166/-0.208967/-0.612453/-0.775146/-0.557793/-0.118357/-0.19904/-0.358466/-0.452169/-1.08534/-0.604094/-1.45966/-0.387805/-0.367524/-0.185244/-0.773371/0.0958811/0.433371/-0.729632/0.33318/-0.446228/-0.374711/-0.312886/-0.619887/0.0737158/0.942264/0.63632/0.851067/0.137296/-0.616712/-0.456312/0.323879/-0.467727/0.244333/0.295232/0.0688446/0.639201/-0.255035/-0.254304/-0.167818/0.15604/-0.4647/-0.142724/0.145844/0.107761/-0.152956/0.183861/0.461607/-0.685183/0.642305/0.0750375/-0.587414/-0.892125/0.0512085/0.681209/-0.436354/0.399313/-0.559431/0.549077/0.0998281/1.08083/-0.385606/-0.549548/-0.419516/-0.415934/-0.303775/-0.901697/-0.82036/-0.44991/0.454732/-0.733466/-0.451849/0.70235/0.361268/-0.843673/0.296429/0.021056/0.536928/-0.137301/-0.948331/0.755041/-0.0234502/-0.116731/-0.306588/-0.221455/-0.760978/0.740081/0.136712/-0.202644/-0.569206/-0.189249/0.105914/0.965812/-0.752144/-0.495036/-0.339493/0.305119/0.370819/-1.30595/-0.278755/-0.844723/-0.0544097/0.334757/-0.959624/0.128364/-0.770031/0.799207/-0.0790377/0.160196/0.41341/0.149946/-0.266845/0.947915/-0.355015/0.430669/0.442169/0.579504/0.189499/-1.22597/0.289419/-0.432089/-0.414614/-0.506663/-1.19643/-0.98004/0.194198/-0.672602/-0.172677/0.152212/-0.00697335/-0.723444/0.0254602/-0.616843/-0.380364/0.384658/-0.390492/0.778487/0.0330368/-0.731471/-0.3542/0.172286/0.582137/0.190266/0.837765/-0.0422563/0.582677/-0.250071/0.151601/-0.944704/-0.405006/0.998716/-1.15134/-0.616719/0.149382/-0.0495979/-0.395089/-0.812451/0.642171/-0.913629/-0.328516/0.221609/-0.0921609/-0.0429077/0.0976309/-0.791577/-0.0330437/0.640109/-0.351793/1.58532/0.195637/-0.00552048/0.746586/1.07405/0.0844791/0.674009/0.656987/0.00577111/0.956074/-0.0785915/0.903777/-0.47883/0.163878/-0.375506/-0.192176/0.351477/-0.593447/0.346189/-0.0545383/0.212/-0.486483/1.17294/0.0177759/0.677298/-0.655974/-0.951137/-0.550918/0.65666/0.377278/0.527058/0.0239373/0.904052/-0.495237/1.43062/-0.660061/1.13002/-0.0568406/0.0882307/0.664877/0.652769/1.68171/0.829795/-0.129977/-0.136169/1.35768/-0.254587/0.0983102/1.37476/-0.384858/0.887435/0.399458/-0.398683/-0.659203/0.77205/0.431337/1.48814/0.300217/0.0976016/1.00318/0.135812/0.454728/0.590764/0.187932/1.02729/1.61752/1.15149/0.300069/1.34927/1.7256/1.91147/0.942861/1.3154/1.49817/0.347169/-0.370663/0.667791/1.22773/0.437884/-0.884955/0.41356/0.697332/0.0487052/0.764965/0.848593/0.180194/0.307469/0.365958/-0.679243/1.33263/-0.298275/0.733017/0.745567/0.736712/1.63097/0.843108/0.623803/0.640691/1.16906/1.16435/-0.203821/0.364013/1.13499/0.094648/0.855244/0.28163/1.06776/0.409326/-0.163326/0.979238/0.0666765/0.497938/-1.11885/-0.505113/-0.304028/0.579933/-0.706172/0.185081/0.745682/0.256482/-0.0887561/1.37623/1.29495/-0.14934/-0.0356451/0.53931/0.299718/-0.345701/0.699046/1.65539/0.562241/0.429859/1.39408/1.6309/0.565129/0.197851/-0.490619/0.162087/0.215665/-0.965162/-0.0381483/0.0105758/0.0985573/-0.201715/-1.40803/-0.167345/-1.02602/0.39359/1.49899/0.319975/0.872792/0.16993/0.775697/0.335561/-0.45281/-0.553682/-0.0414888/0.90983/-0.398664/1.50835/0.568737/0.372835/0.363532/-0.102672/-0.640233/-0.404227/0.181198/0.843526/-0.151227/0.339078/-0.155572/-0.366992/0.621388/0.672437/-1.32803/-1.23833/0.00394/0.386116/-0.630526/-0.441872/0.437325/-0.471509/-0.36161/0.706879/-0.682582/-0.175207/0.573997/1.14997/0.228626/-0.522061/-0.193642/0.493551/0.971508/0.139762/0.995136/-0.603561/-0.0243697/0.303749/-0.209971/-0.913493/0.920655/-0.477667/0.00817998/0.0471907/-0.150417/0.0431392/-0.222733/0.728423/-0.494751/-0.0233396/0.172928/0.347034/-0.637954/-1.36211/-0.647066/-0.669402/-0.782209/-0.495335/0.331826/0.0858077/0.871453/0.511388/0.958738/1.32369/0.492646/-0.658588/-0.665456/0.526444/-0.0559866/0.762987/0.899683/0.807183/-0.810307/0.00153953/1.07833/0.56135/-0.726068/0.156546/-0.176921/-0.344127/0.317292/0.201617/-0.976569/-0.264837/0.288317/-0.156564/-0.346235/-0.836527/0.354051/0.526879/-0.684423/0.293372/0.59463/-0.783749/0.509586/0.451757/0.51106/-0.107424/-0.935266/0.21754/0.0634336/0.973139/0.203384/0.227932/-0.845028/-0.711815/-0.188632/-0.363024/-0.0615996/-0.312479/-0.13329/-0.643141/0.0292513/-0.842332/-0.969063/-0.112236/0.0534779/0.802434/0.525576/-0.337036/-0.139327/0.420202/1.09403/0.509463/0.238318/-0.698102/0.2091/0.30744/0.617859/-0.797016/-0.28636/-0.378439/-0.265831/-0.0339973/-0.288999/-0.687538/-1.46704/0.85947/-0.161698/-0.714193/0.495059/-0.814353/0.682406/0.750666/0.490659/0.498943/-0.254139/1.00368/0.841594/1.00407/-0.335159/-0.121133/-1.00865/0.435427/0.539306/0.79955/0.697841/-0.386856/-0.758696/-0.549805/1.20855/0.619296/1.18404/0.390978/-0.16646/0.155538/-0.839633/-0.917043/0.299611/-1.34929/-0.153325/-0.275555/-0.0563728/0.541905/-0.214257/1.03944/-0.497084/0.825832/0.603568/0.822303/0.395878/-0.556924/1.06955/-0.185866/-0.107641/-0.169738/0.707781/-0.0905891/0.0499991/-0.292907/0.154412/0.339156/-0.344772/-0.835027/-0.369647/0.498253/-0.473977/-0.820194/-0.0171337/-0.205711/0.559653/0.0914421/0.861584/0.476485/-0.289866/0.458767/-0.80182/0.56361/0.628856/1.26759/0.48982/0.762463/-0.158148/0.613686/-0.938176/-0.180186/0.30485/0.00232823/-0.427152/1.62118/0.675916/0.0842657/-0.308633/-0.581728/-0.0784553/-0.830223/-1.17845/0.104099/-0.559804/-0.622145/-0.398045/0.157019/-0.285112/0.772129/-0.367407/0.525514/0.0300149/0.121731/0.182617/0.145623/0.180834/-0.535213/-0.620444/0.835103/0.0897463/0.270565/0.0707025/-0.309389/0.218362/-0.766285/-0.25727/0.0209515/0.682286/0.791852/-0.750134/0.460874/-0.0601693/0.734112/0.213512/0.237275/-0.536757/0.105161/1.09167/-0.26693/0.0530907/-0.475371/0.988598/0.448658/-0.304065/-0.897756/-0.915242/0.613734/-0.0947399/-0.412576/1.02377/-0.103191/0.590776/0.153999/-0.0359129/0.94485/-0.35409/-0.740624/-0.149362/-0.968301/0.957872/0.950987/-0.759691/-0.126807/0.75403/0.975578/0.545467/0.283997/0.807005/0.0491785/0.891661/0.139186/-0.69592/-0.32036/-0.292335/0.733708/-0.571168/0.386426/0.664672/-0.862968/0.0970031/0.331118/-0.903432/0.838941/0.0877632/-0.964569/0.485991/0.0494371/0.889756/1.48867/
0.118255/-0.487242/0.923801/0.322502/0.298018/0.752625/0.188855/-0.937074/0.97621/-0.263403/-0.517431/-0.469282/0.778005/-0.0895905/0.229873/-0.85076/-0.554139/-0.980673/0.569817/-0.606556/0.893755/0.455614/-0.217503/-0.598264/0.976636/0.316665/0.191816/-0.144311/0.572721/-0.280283/0.514066/-0.113509/-0.796053/-0.521291/-0.713256/0.5965/-0.757485/0.260523/0.282872/-0.164618/0.769892/-0.656075/-0.823384/-0.946543/0.186308/-0.777231/0.341014/0.879929/-0.248723/0.0656331/0.940422/0.375094/-0.642483/-0.635311/-0.154757/0.984605/0.250794/-0.912023/-0.202061/0.531259/-0.397206/0.384786/-0.672146/0.679416/0.377116/0.0740317/-0.577037/-1.0485/0.104439/-1.00252/0.52834/-0.508827/0.505024/-0.533752/-0.95369/0.0298902/-0.954124/0.351678/0.534884/0.446318/-0.663081/0.225184/0.797051/-0.519883/0.567282/0.314113/0.650998/0.804638/0.45462/0.979296/0.212669/-0.362328/0.849519/-0.418578/-0.779808/-0.528024/-0.673724/-0.37864/0.839341/0.664775/-0.455647/0.245483/-0.683961/0.504623/0.48986/-1.13424/-1.45975/0.473621/-0.848688/-0.666643/-0.500603/0.146566/-0.422348/-0.406531/0.712906/-0.810936/0.474808/-0.493836/0.158029/-0.553373/1.10435/-0.147865/0.414823/0.341573/0.336919/0.164215/1.22434/0.648319/0.727612/0.579886/-0.195134/-0.195423/0.745641/-0.17211/-0.984577/-0.354478/0.0870461/0.418458/-0.313172/0.465501/-0.281884/0.372087/0.708941/-0.711514/0.0138152/0.0607458/-0.659941/0.0590119/-0.164039/-0.457745/-0.619275/0.210586/-0.640923/0.0896853/-0.513325/0.537115/0.0980811/0.137157/-0.888307/-0.0828425/-0.649553/-0.472109/0.346333/0.268984/0.652091/-0.637041/0.145787/-0.480029/0.148845/-0.355948/0.111987/-0.218581/-0.264184/-0.598432/-0.336256/0.540543/0.656695/-0.614593/0.686924/0.000146208/-0.0239825/-0.52436/-0.346923/1.25435/1.08003/0.501035/-0.91618/0.138446/1.12916/-0.221537/0.206005/0.284311/0.203419/0.675768/-0.834554/-0.0661224/0.681322/0.951237/0.838006/-0.501018/0.281069/-0.834358/0.357132/-0.281984/0.128577/0.513396/0.334395/0.450383/-0.0940625/-1.07221/-0.566421/-0.0768816/0.301136/0.415127/0.328793/-0.650794/-0.0900796/-0.710889/-0.630803/0.540808/-0.393592/0.178121/0.277842/0.400868/-0.618956/-0.806764/-0.445892/-0.631866/-0.184857/-0.669842/-0.862371/0.119689/0.461245/0.424652/1.13187/-0.122295/-0.310797/-0.173087/-0.522172/0.0306338/0.249721/-0.240364/0.538618/0.192276/-0.427736/0.376928/0.263214/0.234224/0.125735/0.585059/0.418524/0.516185/-0.259029/0.503547/0.101203/0.339367/-0.334609/0.631361/0.261517/-0.329227/-0.3169/0.0361816/-0.193192/0.246913/0.354584/-0.21168/-0.451336/0.0041376/0.20535/0.762153/-0.327769/0.949502/-1.01126/-0.423136/0.513649/-0.717731/0.246239/0.147683/0.796177/0.937089/0.692003/0.425028/-0.932284/0.0705287/0.466379/0.836799/-0.620555/0.737498/0.18115/0.0115308/-0.0864883/-0.394921/-0.28851/0.286112/0.659682/0.255106/-0.582301/0.00154166/0.691705/0.0646648/-0.815432/-0.393046/-0.799396/-0.28737/0.577808/-0.0495703/0.154705/0.201861/0.684421/-0.917858/-0.992572/-0.838809/0.77446/-0.444992/0.47805/-0.553164/0.539165/1.36492/0.369324/-1.40096/-1.27546/0.617273/-0.0945267/0.0621544/-0.512943/0.488464/0.464876/0.762747/-0.37003/1.87431/0.0913232/-0.137901/-0.426423/-0.263967/-0.0659724/-0.854381/0.422734/0.965567/-0.393043/0.334679/-0.726286/-0.678372/0.211287/0.468663/0.506559/0.906629/-1.25849/-1.22489/0.0877446/-1.00718/-0.0558573/0.707495/0.123213/0.517203/0.0336471/0.0229205/-0.114535/1.13929/-0.859515/0.181786/0.817674/-1.10469/-0.0584667/-0.16931/0.405682/0.323736/-1.1106/1.15374/-0.261046/0.160763/0.316987/-0.866328/1.04097/0.103696/-1.53458/-0.618517/-0.883362/0.4495/0.34474/-0.689933/0.913338/-0.753425/-0.268338/0.46112/0.583835/-0.533407/-0.00460556/0.00677441/-0.471842/-0.535137/-0.11089/-0.815375/-0.00506051/0.888347/0.0758016/0.19216/0.417662/0.160895/0.0146626/0.416059/0.0995869/-0.658239/-0.899726/0.310343/-0.132237/-0.441646/-0.278754/0.448163/0.86622/0.607676/1.67218/0.469602/-0.776463/-0.730279/-0.387371/-0.609285/-0.596931/-0.909151/0.531991/-0.402907/0.340601/0.445943/-0.807467/0.141381/0.394149/-0.587519/-0.827384/0.15374/0.0530953/-0.821163/-0.353896/-1.1439/-0.0820693/-0.778188/0.205178/0.382248/-0.424166/-0.247862/0.128305/-0.548767/-1.27751/-0.442258/0.15018/0.121722/0.683536/0.392104/0.841808/-0.0988986/-0.188072/-0.992243/0.768291/-0.343027/-0.244904/0.149789/-0.06886/0.0966794/-0.160608/-0.253682/-1.00579/-0.774101/-0.832358/-0.498362/-0.367191/-0.0198257/0.289923/0.497399/0.64684/-0.903556/0.492759/-0.29623/0.311469/-0.60967/0.990275/-0.0404679/-0.883132/-0.164833/0.201942/0.0764129/-0.72474/0.566636/-0.494975/0.569807/0.253181/-0.103478/-0.00571417/0.326634/0.412068/-0.722724/-1.01874/-0.635465/-0.234192/1.30566/0.799904/-0.44163/-0.310722/-0.256841/0.29258/-0.0429945/-0.526127/0.608577/0.386736/-0.46275/-0.401545/0.0933922/-0.35743/0.673544/-1.12578/0.383722/-0.257369/-0.22768/-0.00665473/-0.197391/0.491431/0.106132/-0.206517/-0.973075/-1.15855/-1.4045/-0.741239/0.278383/-0.242597/-0.0976748/0.118174/0.999231/-0.182403/0.588309/0.36463/-0.195582/-0.479407/-0.0623011/-0.585117/0.294121/-0.708813/1.00582/-0.0601147/-0.331099/0.615223/0.171866/0.570275/-1.03051/-0.475825/-0.721996/-0.93648/-0.181515/-1.7108/-0.719666/0.323213/1.17739/0.513835/0.773656/0.820194/-0.34915/-0.00760303/-0.253782/0.724309/-0.104477/0.694317/-0.472751/0.384003/0.234904/0.0382304/0.409924/-0.19438/0.644145/0.483673/0.123612/0.0650122/-0.592255/0.70567/-0.726003/0.695388/-1.08191/-1.58673/-1.45208/-1.21688/-0.100165/0.399684/0.611693/1.40251/0.46543/0.0196872/0.046489/-0.434776/0.132583/0.313052/-0.344651/-0.283203/-0.570224/0.24132/-0.145967/-0.379753/-0.960654/0.396995/-0.109238/-0.101837/0.696197/-0.821258/-1.37361/-0.603281/-0.724674/-0.460202/-1.50701/-0.563139/0.0490124/0.704725/-0.330086/-0.384154/-0.622855/0.639707/-0.868591/0.369074/-0.161161/-0.443532/0.353361/-0.873515/0.881247/-0.87366/0.397631/1.00818/-0.000530626/-0.114867/-0.0206128/-0.327599/0.756684/-0.464971/-0.445292/-1.53818/-1.40853/-1.16076/-0.758863/0.286997/-0.382589/0.221784/0.7652/-0.0504292/-0.779752/0.679979/0.318868/0.472196/-0.399633/-0.0770402/-0.95547/-0.859725/0.453774/0.583276/-0.709049/0.548311/-0.46889/0.197398/-0.525663/0.437541/-0.236426/-0.691331/-0.539118/-0.264743/-2.24949/-1.40045/-1.74862/0.326476/1.34762/0.0364871/0.639072/0.0916885/-0.863564/0.597028/0.298657/-0.984305/-1.149/-0.34435/-0.914298/0.61142/0.27351/0.876815/0.909001/-0.597769/0.446582/-0.14185/-0.465195/0.164626/0.447485/-0.880619/-0.453913/-1.47776/-1.81929/-2.19642/-0.580823/-0.365858/0.243054/-0.113502/-0.257952/0.349487/-0.119771/0.116496/-0.233377/-0.969021/-1.2152/0.184294/-0.593481/0.0838802/0.32291/-0.854421/-0.0883479/0.614879/0.561196/0.173033/-1.10589/0.42586/0.555994/-0.565776/-0.0780457/-0.739634/-1.77297/0.271317/-0.660346/0.394129/-0.335356/0.0386475/0.132163/0.185245/0.389023/0.356185/-0.138437/-1.38188/0.078176/0.378742/0.681636/-0.0895609/-0.868327/0.0364362/0.38495/-0.161592/-0.864496/0.834546/0.712371/0.824677/-0.191253/-0.948948/0.0927002/-0.590878/-1.03933/-0.605979/-0.178928/-0.0696659/-0.978638/0.809425/-0.433406/0.886114/0.480267/-0.857681/-0.599736/-0.301044/-0.290182/-0.327815/0.988649/-0.347946/-0.349546/-0.813111/0.0359464/0.151762/0.659972/0.149572/-0.135975/0.240181/0.728479/-0.783763/-0.683151/0.281268/-0.733979/0.018052/-0.599283/-0.150544/-0.189681/0.0383566/0.658889/-0.0530285/0.750185/0.359399/0.417051/-0.955604/-0.83455/-0.275302/0.99207/-0.279828/0.924566/-0.343423/
